{"layers":[{"biases":{"cols":1,"data":[[-5.3715113087475395],[4.8127186179876835],[-2.162044090243751],[1.0987642596182714],[0.9503789521342809],[-9.212363876112049],[-11.338207569649825],[-3.366986054547746],[5.841168043205598],[8.194815423075745]],"rows":10},"inputs":784,"output":{"cols":1,"data":[[2.1595872170307768e-20],[0.9999999978311627],[1.8242347523348257e-9],[0.9999903701757024],[0.9999979008607546],[3.20099325264108e-8],[2.2376922717028223e-10],[0.9999997394650263],[2.3291542496377396e-13],[0.9999999040571877]],"rows":10},"outputs":10,"weights":{"cols":784,"data":[[-0.5450988708830442,0.7806602980030144,0.4665033681395088,-0.11797011849291716,-0.6765157582037098,0.8562801156700661,-0.3541119509098345,0.7951506647314044,0.9910682940009716,0.2581004074067794,-0.5403208652268796,-0.6909493701312075,-0.00252104455106128,0.35549675380311885,-0.24102423156367347,-0.0983177844403944,-0.5435859231856408,-0.06570049919947363,-0.5387544357505383,0.6041538930630641,-0.17515129799982265,-0.670376514747498,0.9414765604507018,0.3136649845666428,-0.22420496998280903,0.7046346720192944,0.9551314638770818,-0.4356289659458541,0.4829738367555146,0.9088602001544176,0.16150398125722232,0.8548104540291845,0.09667678350797804,-0.10602340527753196,0.42895299510680185,-0.7876679961606633,0.25996792738876723,-0.017561702586433345,0.6943494992691329,-0.19149862415067637,-0.6106760794532955,-2.0251970004711093,-0.3270765631947904,-2.099188363944373,-2.4686333927589175,-2.652952928288697,-0.831766721442141,-0.38314259714197096,0.389383309365788,-0.6236940008822478,-0.4457347335314907,0.4140322230750877,-0.1014548374034694,-0.36735271430293515,-0.7364714700373267,-0.3770054136135008,0.10547166907390726,-0.7275284994910349,-0.5161510440914114,-0.6346116837988645,-0.6786897875486011,-0.877031289041662,-0.9222778893153705,0.6819846603896368,-0.24738792595366013,-1.7988230779928214,-1.0892188605061153,-3.3768043867215836,-1.3579178488754216,-4.342464891524852,-6.014387607270926,-2.7971394572666255,1.2362717990873173,-2.312270360839791,-1.242289736866531,-0.0826665219576901,-0.700559665922115,-1.570449279524247,-1.219938656627382,-0.3318375643175003,-0.481922120834795,-0.5043917933237347,0.3706521146400563,0.10122198680584547,0.05425602459231493,-0.2302562508661421,-0.053048128441851805,0.11405448414236896,-0.7709302952432187,-0.9109233474022409,0.6021789438856333,-0.2479071823881181,-0.00800412180530962,1.777128663061423,2.9919185458616586,1.2162149721660862,0.548477415867868,0.04799936070550648,1.300598643888731,-2.9064744114758723,-3.214370872632579,-0.4228308659830992,-2.866958152921446,-3.332579857984006,-2.597645348885186,-2.434660861847177,-1.0459161630439318,-0.5258720409353786,-0.3799410869560968,-0.7113393818864375,0.901696223067854,-0.5906696790109227,0.8047050297678697,-0.6896694797048619,0.6592902831863512,-0.7684649802129294,0.13142564026644749,1.3047275417641582,2.3554943594581386,2.7145654861289072,-0.02849814430151775,3.4624761397865655,0.8682441629299926,-1.5546075815951157,2.381492894980086,6.476783708101102,-1.3918798663394205,2.753258882942801,0.41120333428866834,-0.9334969260231967,-1.2620139735864448,2.531897788997816,2.5573458312035293,0.24970269504540188,-0.8870738931356158,-1.484810959313633,0.48372325082836687,-0.023621763144518273,0.06466049294195454,0.6376048942322723,-0.16749165900885266,-0.018252064619587394,-0.9164563882325426,-0.5777621516046288,1.7550022879311848,3.628063283971946,3.7889433508451984,5.705736324426516,-1.772325845236421,1.9040545064687249,5.221603922624808,-3.6811665316129494,4.214063035197003,-6.681071784109986,3.241883607479327,-5.181365176391749,3.8000445755351677,2.9597562882200394,-5.081227537190013,-1.48900324563242,-2.0153087831186025,-2.8980664966321883,0.05739713760728508,-2.8582730603411126,1.639956318760503,0.42509539799292295,-0.48076025963066704,0.812249829410977,-0.8323758673293962,-0.9829826891185997,1.7552660039109564,1.1911608489546552,0.08446979490546354,0.3600414227346528,4.659054206183665,5.957267129194739,0.2623961242311149,-4.45272846360869,5.756642714362862,-0.7311109174860331,-0.09382779441702395,1.0772673895571732,-2.518988774746795,0.578100137998646,-2.9542117329458684,-1.2623360818661573,-0.44497572032686106,-0.7582282369783535,1.653174338652079,2.0032919539613165,-0.38390889258223754,-0.3959449438311187,-2.830068714998744,-0.6963530266109211,1.118691558461784,0.8628743622440943,-0.14099334676026337,0.02064421880277214,0.6598013134614884,1.1672907672268713,0.9859256260791366,1.189840887633521,-0.2979457018758938,-2.936143276802791,3.030926027429869,0.8680005705704582,-1.9173136849333554,-2.0060498403132363,-3.97688966575968,-2.391951473395365,-4.317405407899404,-3.454331056392816,-2.119013217979269,-2.862781422136984,2.080909753593008,-1.488776884243725,-2.8551142251543293,2.0046404359417433,-0.17479940686536694,3.7417590856662897,-1.9982795657032812,-5.437344729361097,-0.7421623882964798,-0.7165561914024395,-0.8936316366994295,-1.6106791898280646,-0.838502607621004,-0.34503252338923124,4.854592700833494,-0.8873727240900325,-2.17352071503062,2.6871387656583647,-1.9926558874553857,-0.6065197434059838,1.7674223319004059,-0.03386786893724418,-0.6578679109890719,1.158953459558535,-1.753395187672824,-1.4035287822378772,-0.9175860506400396,0.21981651226021728,-0.3546920348511726,1.4716750847356348,1.2698806650056464,3.7169166331495673,1.8945380708219166,0.7530679590983684,-12.338348829156947,-8.45857300669776,-1.8531188851362956,0.2219837298478095,0.5095180618568738,0.27080821239004926,0.6005917093913447,0.8309813567626814,4.747833282642299,-0.9722606889804988,-0.5487997154573813,-3.454053453328517,-3.729464577910035,-1.8710436391325966,-1.8934789906248433,1.185032246455364,-3.7812806108133428,0.12660388263677047,-3.812139651714375,-5.268970595705309,-0.5848080377582712,0.02787658986579069,-4.522736067327157,1.3963659592285527,-3.495219801098887,2.4597599152150154,-0.4394539570110558,-1.0904845905861218,-7.675074042560857,-2.6478491188191833,-0.10142259909104487,0.43691732093332286,-0.7876245336569481,-0.12888411513372833,-1.3704249067016612,-3.075437790463815,1.6314188669517873,-1.7663425717147927,2.4219936020641866,-2.913656245643952,1.2360361876433392,-2.587938746955406,-2.6053451632332756,-2.8400920126860507,-0.9773848312293618,-4.16912364950794,-1.6153688184872625,3.6281861934491153,0.046860332497585186,2.4376229440514745,3.2041826401643267,0.6421693812096566,-0.305746793430018,3.2518291166390343,-1.9276593729940559,-1.3606436587511535,-6.572619920280848,-3.981062614045957,-0.777922822156791,0.8464470320690527,-0.888565864408297,-0.48516338720106805,0.3380951963496965,-0.9437017997234282,-0.6832608187080064,-0.9215135564179501,-5.204081337614426,-2.129043375146284,-7.5302043670569025,-6.55671504028092,-2.794494165307634,-3.4913447566650126,-0.9916182582229683,-2.726097927459467,1.6890832014309394,1.485249940259305,-0.20410619577653208,0.32613475144332965,0.8907354499204931,1.0043759090416156,-1.8114482313525622,-3.2651507236878,2.5503556858025487,0.9254421074910701,-2.936056211014483,-3.1634040644541734,-0.608292381356868,0.28083218681063643,-0.3673136548322602,0.9800973053397097,0.425194422930093,-2.5385609772328306,-5.034081052770763,-2.8517399380618476,-6.079877755602178,-3.9044106082060814,-1.8789179825736988,2.630706958191163,-0.8952567442091682,2.117080789645083,-0.4195610908485201,4.580511640541785,1.6590657218295128,-0.5743792259910124,3.250029031990913,-4.918363117160858,-0.26125940573638073,-0.4112557914408936,-2.454102370836537,-2.3671434490082253,-3.699059495238482,-4.072383713516341,-1.7964168964438538,-1.0116152549922788,-0.035288136461810754,0.7538084930969478,0.34104860532626313,0.22350306276739948,0.25452419644346513,-0.4413709981108,0.07020660676325971,-4.303655047092813,-1.6673309250148791,1.6612467456704763,2.927470646091351,0.7535149392833183,-0.06362797686782003,-4.031119398850732,3.6653401340292966,2.2830724328808807,0.760834410804519,0.7687325022386056,0.932895969445005,2.131703003962178,0.63253238796953,0.398642075683,7.9353173774501125,-1.2344565411058843,-0.6890023245291894,-2.8423747265718253,3.1265470419812846,-0.23250155212396698,0.3886453437169313,-0.7568324608668344,0.4827660709100956,0.5869763001097721,-0.8407322359872651,-0.4409938094313438,3.0882467222016077,5.292979851250941,6.840017552761531,3.9195071201030256,-2.2937728422439077,-0.5313267842334647,3.824255941150368,1.22826018961866,-0.9745117638436285,5.180082860698517,-0.8975403867608198,0.7218727637126803,3.337704763388332,-1.1031709542935537,2.8778532710098563,0.5889211989449571,-1.444100875570062,0.024372761609042223,0.25420703232419817,-2.8507312581157764,1.1492614165673831,-1.3599331703724287,-0.32531462582595755,-0.5391331468702973,0.9746190948711266,-0.023661125748085432,-0.5526095718575652,-1.2557175080756304,4.235150438066015,-0.15886438444808373,-3.8979262924724263,-2.0169822734535625,2.7280137995443776,4.0132336222411675,-4.1108121885385485,-1.1534343643228113,0.2855988173263691,2.773596935940265,2.992451560861371,0.21643585102990293,1.681633514647886,1.06505871902541,-1.7775150915073759,0.41990042300198466,-3.401980488111365,0.17528031709265735,2.689709891384727,0.02396103048091797,0.06598084507930872,1.7221083228080158,0.26246184372621234,0.7466493067961728,-0.8861706638178206,0.7745659732271319,-0.15112840136039005,-0.7890466697151453,-2.686226792836317,-3.6882109947026827,1.4843114029576892,3.1293570532956863,2.736811142057956,-1.647942135394543,-0.23419085296921727,0.5939586562898737,4.59314706915139,-1.983624745119021,7.171032532532618,-0.9071032577985075,2.2700841057638455,1.1143766669943354,5.0780358870150035,3.8359010947672196,2.11388657265368,2.0457843222386427,-5.428658361285828,-1.0363252947705937,2.528710461676123,1.7252819508017212,0.7175488567802413,0.3225122995082848,0.5629643282151671,0.5334882660618423,0.8753980332472998,1.5165591759919919,-1.0491140730781867,1.7277599841168392,1.6483705408542728,1.3569412304983328,-2.301998636197502,0.7099652608230308,-4.923080243513989,-1.631460181857985,2.5005242421182716,-1.3360439735289358,0.6103055565602067,4.092668115988169,1.6877612250883147,2.2742342347032998,-2.160911395609074,0.22593476578269625,-7.200926155281243,3.099586019366498,0.8298348438188161,5.835007592755592,3.210545894573339,-0.8354491494466313,0.20293425493053927,0.8308954948431873,-0.312167224084132,-0.4300369217574673,1.795503373155665,2.9407444232159325,0.6286113009940687,2.9127011294411473,-2.135585552180902,-1.709867695752419,0.5683856418607602,5.631809264105618,-1.3202724306769964,-1.1163539637259319,4.082210376405027,4.4592434045082605,-2.6580383620020736,0.05652725740431081,-5.122332832468912,1.7726044010782498,-0.6912992364388779,-1.9317776478558262,2.8450307404837964,1.5206887345757087,3.559414461793117,0.6231072855252118,-1.2609618841066568,-1.072816951399656,-0.371922442714027,-0.7955594979530257,-0.622785944691931,-0.9942659622057202,-0.18068391211956314,3.4784431573105725,2.425796843450535,2.4318246264691914,0.39823199660830666,-2.317141133964374,-1.10701385594423,-2.0064953076702228,-0.9643464641742934,-3.5948665053922007,-0.1970623611222633,1.6798088443954,5.004983257239548,-2.1406015121054716,3.599536618741913,-0.8934396635083465,0.3192111626083721,-3.009004166578324,1.044026277424853,-3.2225376097749043,-0.6926985875704498,-0.2880294987723941,0.7414016322387336,0.527432237157837,-0.2110252060388788,-0.6502177878725189,-0.8910464377404412,-0.057575477060757184,-0.00750259369319245,3.8362201149932362,0.006046294875529437,3.107107889767581,3.459329919706332,-3.687437891003586,1.7888715081763273,4.398664711354342,-2.593967332856435,-5.152046204932571,-0.22230024368837206,-5.91258008694422,2.6123886067033113,4.004708492569005,-2.8117570473692575,1.072564349213535,5.5653023099668255,1.0370987914615797,2.270047590817597,5.8580272673388984,-1.1850726575872017,-1.215560078287418,0.06147212684601729,0.2964212317303594,-0.17887320669127207,-0.962891674011787,0.4736969160615525,-0.6365534931074032,-0.23811034903430509,1.9633596514025737,-0.2217588433868962,3.027247582162097,-2.537660818316256,-1.9857524414140673,1.8897577867998314,-2.7238695376757054,-0.7948459123222726,-1.0879417501691953,-1.5932680063708298,-0.31263489774230824,1.299196645401857,-3.5301920711972623,7.781680020796393,-1.1961683927703388,4.975047818018041,-5.746102855396738,0.7449811628830364,1.065789449168121,-1.1761678125116763,-2.0427493984195677,0.4377901214999341,0.7509298427485644,-0.30722886823173706,0.9547250373983236,0.01936270843837873,-0.23657035997261744,0.482250938229463,0.019124405861618732,2.9225197809745262,-0.9493541163100238,-2.6605032448391124,-2.441458992398669,3.4017145333464085,1.1265693573627122,-1.436177007805734,4.2942972275289275,-2.421698356451584,3.212032782119066,-3.4692295888156828,2.3415555989992485,-1.0159951822740267,-3.3556248915694353,2.2666484557835793,1.1353122179717514,3.279134033123924,-0.7840335761212207,2.8134989561000627,0.0935069893360756,-1.1672205854293018,0.6683027707855663,0.7434344924031563,-0.4790433187056709,0.5120242597976221,0.1780534850526181,-0.36064937050247564,1.3524832224869952,2.2547558362899394,-0.00027837870835236106,2.6764192118368806,4.375519766058186,-0.15965818833526868,3.170243517010805,-0.6907704494145728,0.49334423913465936,-0.923264102097668,-0.11510766771888128,-0.35067576866022704,1.4613235579010073,1.8373927455246386,5.014152672684992,-1.0957029163352612,4.009637932644234,2.1867025403703497,-1.3715506337217447,0.03502768703480867,-1.2814397561782667,0.009023782216454798,0.08403810272011109,0.9306491366181004,-0.9805258553239726,-0.1272975475734699,0.07184588208564113,0.7170334400311904,1.230827666969314,-0.18432883694049856,0.5243279636688404,1.9666156746774681,-0.5516077748519232,-4.127666836648138,4.0447027348054085,0.03373038786982174,-0.5152938332120448,2.8363859899562076,-0.21899839813575014,2.4649994750080837,-3.563786071444024,2.39288161012476,-0.2508676418907156,0.35689292056360655,-2.818300718694856,0.7380529986892064,-7.512574402904733,-4.502401107674429,-1.1286275470444505,-0.13762583262701616,0.7194235798111491,0.870284198862793,0.1113444519936766,0.3754819099802624,0.20635471705131736,0.1544519624750822,0.3380555271701254,-2.6167957765500005,-2.904244876484866,-3.666301506179649,-3.764981616738407,2.388491638234811,-3.6715934547938156,-0.9389939136888379,-2.7177933576586173,-3.2322503620333882,0.005204911051755325,-2.3731335028434506,-1.0960224089750004,-1.428139830940707,-6.09997650962567,-2.1922473521462154,-5.622811735339481,-1.1301721977009411,1.027012402348038,-2.156511837664753,0.3978563796668268,0.06651143106212411,-0.7331972468727435,-0.4289275015617102,-0.07337661784967375,-0.8692166498420733,0.06142095424266336,-0.8443135997730189,-0.14345093337792406,-1.1568330850680228,-0.7868883105681401,-4.012463694898576,-2.589361996642634,-1.523648749012033,-2.3680018026867815,-6.076454506560903,-4.587982003707215,-5.0646685041560655,-1.3862177383838163,-2.003867442228619,-2.169133621000199,-2.5728762326081625,-4.095953791809012,-3.5604408806549426,-3.005398332982562,-1.982752975245829,-1.9543114498129925,-2.1677375544319375,-0.480452839298632,0.023439364428540443,0.994908254603544,0.5914653899793545,-0.14726563827981898,0.8041721644195625,-0.1577540340112471,0.6805907097298955,-0.8448339443053263,-0.9125437277901424,-0.0739913804500606,-0.01659753850264263,-0.5453484948419501,0.21764422014772677,-0.10200712647438762,-0.6487885908813965,0.27910056478670076,0.2487405688838634,0.7175782909774928,0.03198003246758406,-0.6335096696304413,0.22157380766136733,0.5574160699439215,-0.5606939515669684,0.14184742817094,-0.61833586385182,-0.6513034533744981,0.0469536282018494,-0.5168906586874358,-0.7204537862797771,0.4285964063818093,0.8323627766691728,-0.8867184873328919],[-0.07375350759226729,-0.7279525598276704,-0.11387674100283052,0.9638968467170648,-0.3309725663090317,0.060753593437759656,0.9309186270218625,0.24013707669431095,-0.22625014513704111,0.4397432346873691,-0.3849932163552437,0.10729537447325987,0.5743103654532224,0.5931395001317006,-0.121507966019897,0.1674326911759889,-0.905370548123788,-0.9784605439618348,-0.4216552011243777,0.4768370888054978,-0.2236371381910569,-0.8251196572447268,-0.7192960168958094,-0.12735736020168265,0.03139487447216194,0.611302347962563,-0.8778977419686977,-0.9809837010693808,0.04115774965037988,0.40132673301559385,-0.62540207612933,-0.07049677695839152,0.27155084532111684,0.14465452952072555,-0.5591348912496554,0.530874272466562,-0.380589549220976,-0.03217708970838855,0.2718118705843947,-0.28889134093322694,-0.5941983991324091,0.25119206551123213,0.4568442276509418,0.3501153807264796,-0.31615568960848917,0.21967704432094656,0.9958052144581522,0.11132991196516388,0.4700006973713889,0.7351267077910768,0.010254610352340196,-0.3215335352549279,-0.587938343705968,-0.7817432210666733,0.4679395451418968,-0.5015776212660481,0.2725590399375071,-0.9152472476521494,0.1263621258609886,-0.8202252121610745,-0.9732380814023235,-0.9432904224273339,-0.9385966988168392,-0.6357230186947129,0.17854129953602457,-0.7196638722217195,-0.03982888398481966,-0.3040888610505385,0.7570333353790567,0.549046581962501,-0.5824979798336857,-0.3893102288638833,0.3572762580981224,1.0588127997910712,0.060769476180034525,0.6188825731726983,-0.49014901485404355,0.19408068372671325,0.17212887288199377,0.6773821250192239,-0.025677674299360104,-0.2436324821504987,0.0728931726395936,-0.23660943387867417,-0.2891437513992037,-0.1247858598747491,0.6296466765325777,-0.49421094878854466,-0.5283558647040985,-0.15982383666574004,-0.4739057631926127,0.6044521472489255,0.6775800048944466,0.005390057304067388,0.22912451748325424,-0.5136314326716072,0.8163190336727819,-0.06513511895507863,1.0963011673766447,1.1961620363003855,0.09358418775374823,0.34308899879969446,0.40911735145234784,0.8494822448509638,0.04646681631720892,-0.8423380331502144,0.9272638125254458,-0.034046141410409694,-0.8635243718855226,0.4159201226126543,0.011908064829872613,-0.39133138171614545,-0.555535627009768,0.789156635364785,-0.04493080801704696,-0.46423392885488296,0.07194694314201297,0.31876739631641926,-0.5397265199895301,0.726960044159858,0.0606457251800864,1.384932210080795,0.958075050894721,1.2773150355230092,1.0418608691709466,0.520395581685059,0.5934125727839612,0.9770062451267172,1.3359060512557124,-0.2090333881404471,0.158604026080654,-0.23896424925206455,0.003930479738258336,0.41453133116418284,0.08541325756299535,0.3552594840369119,-0.023084362189245308,0.7104622507789327,0.11285887619749628,-0.01911728468623175,-0.7040214852731981,-0.5941508940177431,-0.8411928510600025,0.024851966267466233,0.9705151438423596,0.2153032126222149,0.36208987736720116,-1.1746938495891097,0.8388662334173244,0.23688087471424496,1.303012678687708,1.488719230997477,1.3526786426531667,1.1132645454091428,0.46279685401664,0.5299362999154257,1.3738448463084507,0.958095906130058,1.5359419127667728,1.3962892936819475,0.16225470729693917,1.7189309763017808,-0.08153595475806413,0.801873156301338,-0.18579842861630366,0.08345300426395168,-0.48796346879484387,0.8534967416949476,0.5087200034133905,0.2396040839905067,0.4981325972568134,-1.3349396909234217,0.03899321809709332,-0.3092105318774363,0.1660637114820138,0.5738188358482245,1.1049876968342238,-0.2849647078856466,1.588127042562389,2.777764749533104,1.7129998351424764,-0.5207057291355736,0.44121758582658044,-0.5861893150272911,2.020804381058251,0.789290962438459,-0.09742271924456611,1.1277297116347618,0.28798912400783183,-0.11248013804281068,0.6998723743503898,0.3315810580414549,-0.04414872820925478,0.507916861421699,-0.7416798748848181,-0.8201001996578088,0.642219014902786,0.0486915834151914,0.7410522043710371,-0.9543625582855605,-0.4786007888244714,-0.4133539722961071,-1.3382431178798166,0.2093869585084851,0.6000739491065964,1.1926397536292201,-0.33928788587529596,-1.5432704626827418,-1.2254679671608006,2.540219037702564,-0.33138911101893065,-1.4315316086113499,0.7974635929628414,-0.5301619201496012,-0.5049773688298409,0.0779703421889142,0.5850862272829793,0.866569593551445,0.6619849724390791,0.5184220014815918,0.24725599335348947,-0.5603145321292707,-0.8193195663448043,-0.2580322280190467,-0.816101943806819,-0.08214593472449891,-0.09808954953253263,0.04158788664358743,-0.9726126750543022,-0.18558306338113334,-0.939928932775046,-0.29011268100070137,-1.4873886985284017,0.6780468414439182,-1.390578196203179,0.13454610428787625,0.8816980673631885,0.7136656491362551,-0.5423841483756141,0.04829118406786529,0.9711369673093035,0.4477323082796043,-0.3776140200398863,1.7452183339214928,2.5612936579196366,0.4532337530668265,-0.24876117749232438,-0.20282656870003307,-0.5423355739803731,0.27157382537597785,-0.014593739147313078,-0.6302839462722433,0.20059704802866488,0.2961431413292106,-0.4506747202737624,1.552555549329032,2.210270730598092,0.2143984438906836,1.508073708583636,-0.2551895973262553,-1.9976862205535095,0.5833074309794389,1.6885751675389336,-0.8748436479248186,1.3885712399197558,-0.9776322148383757,-1.3957444423525969,1.378038702913875,-0.010250823772720965,-0.004672124897625056,0.21018207436591382,-0.25164357720008923,1.3710778531304764,0.782927614250818,-0.13896080104340658,-0.9965868204747051,-0.17525942041489645,0.09571083564253101,-0.9150122870386979,0.6307825681446833,-0.5160138312271625,-0.5952423469871088,-0.6849376221385541,0.7645227767056081,-0.18594113349225067,1.2245748799347407,0.376534131841731,1.113540787895397,-0.17367339813373747,1.0267303533033358,1.2992110178244953,-1.645139129499131,0.13671719091502202,-0.8887561419520769,0.20328872152277513,0.13090235584971097,0.2675973044044577,1.505757510977883,0.7402121653742997,0.19145826629088097,-0.23764179911655925,0.0029224625326996563,0.19735793728760379,0.51040174416323,0.8215274566330603,0.7469219740687598,-0.13132090817779435,0.8676857677889661,0.9996907726674702,0.2579410156301095,-0.6254033436601485,-1.6133479886065236,-1.1890675471497871,0.21786492483454212,-0.3655594548607158,0.4127780103654716,-1.9825386233930737,0.1991641843970236,-1.6820501147449807,0.5023609291957031,-0.20681601124048957,-2.471246367252071,-1.2985721543753965,0.027653988197071905,-0.6588496363921503,1.168896356048017,-0.6415137213691592,0.5934378126250753,1.5352689590565065,-1.3544455780565796,-0.6134954193242684,0.9185827232266981,0.7987304079560904,0.22450158181393814,0.6148251487225108,0.28541685872834005,-0.8617752090205097,0.4578976957311751,0.18543768237119973,-1.009958168047372,-0.7234378745131754,0.0461953060776109,-0.2427003509334361,1.3347221101044096,-0.9449208817406167,1.0186033645238506,1.4361870795656015,-0.2782503068063095,-0.11051319595124956,0.10163812251463976,-1.6447936536228054,-0.20662282294962064,-1.655989780173403,-2.122461505915948,-0.36782919653598073,-1.180854372101961,0.5882076119431622,-0.507825592359545,-0.8850527449372471,0.27666249843482577,-0.9038368488426982,-1.841943931581403,-0.7794162424165347,0.5665782762081703,0.6358358562749311,0.8554183901580685,0.30321284234419466,0.28205554995505844,-0.7597105998717983,0.6319343146793361,1.310395487396309,3.1271374811853323,0.5621013038845811,-0.42680717765455134,0.15721507480923053,-1.7356952627660618,-0.2857764774970173,0.5656863859158469,0.5818964904353842,1.5584929694861838,-0.6037545417044752,-1.8023398403618514,0.5149486333542188,-0.5330441851134383,0.556144861134048,0.23888266863138266,-0.7740689245312019,0.857490169911363,0.7418125562315505,-0.6838355298126051,-1.005947155000263,0.756018859163821,0.5669940880644493,-0.5646424161262837,0.1431935507257803,-0.019084991058760627,-0.8276642838788829,-0.9065519158775481,-0.20349029455932405,0.1663761578375393,-1.5534883465656595,-0.8163171632885254,0.7200093689312953,-0.011964934407783262,-0.589833456542474,0.21311985026777797,-0.6537667902540606,0.5648652221112559,-0.7397374771268358,0.7199948836529338,1.0262057457140548,-1.455408982447052,-0.7906845510839411,-0.9328990867399148,0.5030432829871915,-0.04291691445543342,-0.3640287801542629,-0.014436076788104586,0.7624198208722559,-0.02520348261507777,0.9880025387638802,0.0104217201592294,0.47117837239215116,-0.2194457255299068,-0.4550712055668458,1.19657677513485,1.1771558804342548,0.7140588232413451,0.7037776127483736,-1.2951545163610094,0.6014380823351861,1.673900786222362,-0.5428243852383521,0.16607323039714986,-0.10398069969818466,0.3508230399651179,0.3060288272860272,-1.0796574386481204,0.5015546715614007,-0.2311882127026385,0.30502838501145385,-0.5754905675234931,-0.638078455667593,-1.9702911079120256,0.5454953512053067,-0.6570043731574481,0.04883778227996459,0.15541988873468238,-0.8399337069166755,0.1289114501303803,-0.1738597942206262,-0.21898539255358349,-0.3956287915059465,-0.7003619872046051,0.555843901776148,-1.1569840582020592,1.3491744497640428,-0.1464969407996444,0.35314347195192297,0.07577219746753336,0.1269175603737745,0.19767148355569567,0.7633058067385664,-0.94368416180666,-0.7525226998007278,-0.9919736456498768,0.6140324974678016,-0.008077560581968605,0.20576912120697605,0.15865542661726967,-0.4687154690656408,0.2405035265432243,0.7441593352183888,0.9632044815519036,-0.42649594017470727,0.13336350636744243,-0.765093939722099,-0.4460505190689268,-0.5732064732575939,-1.1423167289788103,0.79513082898439,-0.9502495066574482,0.16625274762973236,0.4211338575638978,1.1194203821400621,0.6847085877983116,-1.341414295550821,-0.6993749416187238,-1.3021293056076537,0.9792322699596253,-0.2803163080815803,-0.09832471015112731,1.424750066452916,0.5592363708604283,-0.1819549673294215,-0.4873676854598976,-1.6445110419901625,-0.3547414212460935,-1.2995806997209782,0.045008987302300546,-0.38381177249950965,0.34256686098626815,0.31438572994025404,0.9907358110664265,-0.6667591713379302,-0.10724278562292708,-0.3237941467477862,-0.8610645159999648,-0.7523796478848204,0.64981422732642,0.07961669930829493,0.5228814186021074,-0.1547814860897184,-0.6688888760332281,-1.3638074252368453,-0.09603949390358875,-0.3375406270141034,0.849045571268895,0.40441560260637544,0.924040365455995,-0.2624410381922806,-0.8797994227131904,-0.22259829355116548,0.9449776498297423,0.6963022883838718,-0.617407079967015,-1.3432747149301738,0.6013735737712463,0.771617475520541,0.06777367548358945,0.34476560772286863,-0.09056099600131916,0.887493600092933,-0.8705709926889351,0.4502996892200483,0.07616226979781275,-0.16163657747049012,0.023226683416899808,-0.9451007753808125,-1.4183102278427842,-0.510738541670318,-0.08936411509398766,-0.11462044992360663,0.5822641838955096,0.2308954452926229,-0.2610035069535608,1.3151934984069538,-0.48131472358024463,0.8776392756833371,0.7959343143596445,-1.1943496950614605,-2.1811075229260606,-0.6187500107916212,0.31563531175388404,-0.7046081837458589,-0.7546175036731242,0.4326490514013132,-0.5025730731335436,-0.6258876746776856,-0.9238776924262487,0.6032731343572886,-0.912979128059958,-0.5862526446577087,-0.22619277810834948,-0.3744339937655822,1.068366401186231,1.6021636531684036,0.6927709851655052,0.6408307397683695,2.4697458255360747,0.5900017678874919,1.0679567570112367,-0.405026223814447,-0.2528131509667543,1.1287569660183938,0.2582679676018116,0.35331607129507314,1.0763511371642651,-1.1947224079424685,-0.9048357989770256,-0.06820380724872187,-0.12455706632436343,-0.6105024672738252,0.5129212406425304,0.6527935534758104,-0.23596962393636128,-0.5303621736755483,-0.44766571460130367,0.6709719650624351,0.33040973475171365,0.5266398064062533,0.5745819537287749,0.568706176557244,0.3354104116332031,0.6982341529223912,0.23332795631479056,0.31831148207735294,0.4588973707752729,1.068422232898585,0.6543546536883654,2.358113495637559,1.9233517387580374,1.0803752520961214,1.0556291142169048,1.9152770238759789,-0.8937227237637194,-1.743198399889073,0.1448581283849326,0.9337663988801046,-0.08345506196182428,0.8769317273602621,0.5419270958000892,0.44542290428034326,0.626920996054298,0.8192566395606978,0.04709229561615991,0.2802202677821297,0.39220046401217457,-0.24705237424063714,0.6980231628649542,-0.08987913849362704,0.47706917587842457,0.21113872259997746,-1.0595875511186363,0.8941734461552774,0.27643999246463946,1.7870774573118169,-0.8191666425066484,-1.840386239537639,-0.8230291500583696,0.5490430438589485,0.7553641256931694,1.7745664655289584,0.3313962930529616,1.747114164911791,1.0835353987907352,0.8337622614243422,0.4789475573093592,0.71004999530412,0.5379416095394709,-0.13043698356157363,0.02831555014371519,0.14071679819001223,-0.5423621082518051,-0.47113546347652857,-0.998300291706395,-0.9587619855577695,0.6564500336079915,-0.7323438330153929,0.49026236012819924,-0.5479312887187405,0.0664156360929451,-0.4983171643425039,1.374059159117869,1.2305923135454544,0.3078810563996867,-0.19201740347136242,0.029522678404010485,0.44172141673870335,0.03393249221147514,-0.7304562358516864,-0.08253673031140807,0.27061311293653556,0.9475637936114414,2.0254395750561063,0.08650967361722495,1.3844692502177156,-0.014644489798808039,0.35451497700923024,-0.5993396937685815,0.7595771709349252,0.4472795912907559,0.7138001416267941,-0.2520830194508141,0.2974702182590847,0.6903286105740118,0.167797656459573,0.988952107958852,0.30349565587636096,-1.121866500356333,-1.0481501930652635,-1.2024371592705552,1.3492585683188965,-0.2841781753666634,-1.1149742844624697,1.0003792622141272,0.20715726960778347,-2.254116559463354,0.40315973098100605,0.8687802907901355,2.0175333227276573,0.5477190371022939,-0.331048254671043,0.10429212698639875,-0.09799741173378267,1.5093658672800485,-0.6714076733906582,0.7105519680023142,0.3323602851667935,0.9983305689885128,-0.8888168451220384,-0.21016989569331512,0.8696631670228894,0.536568724404219,-0.11527929027902645,-1.0382486610348014,0.3483923602978637,0.7361882651840929,-1.158511781949127,0.45140615905850145,1.5179721522275418,-0.16569535406232647,-1.3567866560432,-0.8718677414062121,-0.4870670240765787,0.8264924652525971,1.2688746958789863,2.2063484742281347,0.5828596720389063,-1.260817234697744,0.24089762006964424,-0.5380262516584033,-0.6107893117070131,0.295771462380779,-0.7683418947722297,0.8318898459247146,-0.15447037326959023,0.8246372726518234,0.5433068515610933,-0.7354460887646321,-0.9034859289550372,-0.2154840617943516,-0.5378881702525425,0.26581708221230477,-0.7273584563484089,0.6853952028831137,1.052851842531432,1.2981485327427984,0.8683751762961758,0.17430854905728102,0.29582103132160115,0.3809096903102244,-0.47252506363807817,0.9086595635619694,0.9989210642596938,0.8824602540343651,0.613359647488679,-1.5621042558777383,-0.42807530344467193,0.5909540191140265,-0.06059903634298236,-0.7742505222306134,-0.5865046919183776,-0.944073362038375,0.4738357821517354,-0.2894008793395264,-0.8335505542327235,0.5046053180099164,0.4901135836800932,0.8086413547690681,-0.02982486702408993,0.5729130233136157,0.6359187994514273,-0.612173666163767,0.872060771285411,-0.8641993299709518,0.7624969893808538,-0.37096669410241145,1.4935524539046943,-0.3063633770817822,0.722499256789813,0.4569155234567607,0.9641564682074542,0.1684918666505141,0.9717260837829815,0.20550477907717116,0.24660737413379571,-1.1406498083085452,0.1687475479957412,0.2983123131037728,-0.360892335790421,-0.9885941902367424,0.9628298620201954,0.4946434274249685],[-0.3597691322412344,-0.6517660440000594,0.3919519790873509,-0.7217866893380409,-0.10927639793763055,0.599825605445621,-0.4101584203960533,0.1450674293493459,-0.39674020623733486,0.03123906962918288,-0.3872336163405348,-0.985363558570798,-0.0684022396902324,-0.4387704174991831,0.5111495303853739,0.8706750452553771,-0.7713161520991665,0.22812576228221415,-0.8094113065563713,-0.92824439218031,0.8251843570054522,-0.3900631717539611,-0.5180217671549106,0.09030351304860051,0.5178533367357716,0.2609761374349404,-0.7968706621897983,-0.3633685021735724,0.27827488438982373,-0.7031432478523625,-0.18549598950353152,0.915426243716869,-0.8071477460190082,-0.4650422192793664,-0.4515641846589482,-0.6756570161773265,-0.34990214365897054,-0.11731519119408955,-0.9118154899146885,0.8414039159031041,0.2928225654397516,0.8790066058599144,0.6983950726952518,0.0972533943312904,0.7627307543571002,-0.6974456517642494,-0.4536117405671169,-0.5693420664463199,-0.9031785878326151,0.724865027696226,0.10505309030581907,-0.1721626011119481,-0.06969786668419786,0.9311005414439472,0.9070755985145303,0.37938409911911886,0.3625853303557036,-0.9787695743220376,-0.23680773468530525,-0.9293993711176298,0.661589755433797,-0.921761371019915,0.7470375489646521,0.6466968683737002,0.7049672123721944,0.289042839163257,-1.1532666983248991,-1.0639839440892818,0.4910291067179511,-0.19612008493523744,0.534959644564721,0.33148214610049626,-2.2204015623603857,-4.49140965915024,-2.5309103872449135,-1.803710235653368,-1.3582036688903374,-0.6873277111350782,-0.2734613520309935,-0.14264611882522482,0.0498014587296165,-0.42385533406285014,-0.2575770733109437,-0.6308966543935395,0.17943923070547796,-0.5193876439924621,0.434078017853724,0.6670334724287255,-0.6845468851817249,0.4063801357347255,-0.9299687872136422,0.5139418028019822,-0.9149929520142479,-0.31272600597386246,-0.38272842719324035,-1.9265190871501454,1.2775972987334727,2.4504991138369676,-1.7454175975820034,-0.4710968962848369,0.6473494322725403,2.1482389624754634,-0.8288433495906878,-4.929348893399126,0.1916131773798155,-3.235987860977135,-2.1933670986140164,-1.777392249303372,-0.5386627145303867,0.5198341869630452,-0.1766504202444108,-0.5021537589272875,0.7900988268905762,-0.4292854446813166,0.4958165058979609,-0.5074040153197491,-0.47089100002149525,-1.2565316749048263,-1.5276252904776781,-3.0763891935126777,-0.42080368240334876,-2.8175347854035215,-1.7339176781651757,3.1119473210760815,2.1552736582477303,1.4529274848669116,0.30394997714626787,0.31849495237802417,0.4159491012492434,-2.669753007286454,-1.2686795945831322,-1.7523694656981,-1.3200967910626427,0.9450015478232859,-3.332193923837554,-1.7993194435517696,-0.2177200887583565,0.6919863754590446,-0.10467545189635698,-0.5596992670103507,0.3726525829227087,-0.5442934468594636,-0.4084004488234886,-1.1495174612428296,-1.441219219906695,-2.673218797571299,-2.013345282500765,0.9360378543444331,-2.533564402393886,-0.5104517178154645,2.008185705236299,-0.2423995322313175,0.9093385399198429,-2.8179024983191603,4.632714028783912,-1.1291603655911469,2.3243499291457095,-0.5817720035086708,4.14182325703934,2.6498564390606987,-0.8350529285269599,1.2087450365511851,2.343901065383132,1.2876532345120972,-1.4269219233593,-1.569747783649635,0.09024096189354426,-0.26641635785656387,0.24387614958881643,0.33326449361476085,0.20158685627464498,1.4538501560067258,-1.7205833891690128,2.0823730728816114,0.7357960594902554,0.23036393560820237,-0.6546286753246962,-2.194563814947084,-1.2341247521608505,-0.44077682030192966,3.0640387978454746,5.010649841440426,-3.462683840355095,3.0765004112971233,0.19939949060611095,4.130595251394189,-1.9215758903680624,0.7386059368187402,2.055325853418358,-0.22110644954366526,2.5265793349595156,1.7053744826517696,-0.1936750040435292,1.6795259438842833,2.0986157111879784,1.117877794114988,-0.46668766601225464,-0.8252726212679907,0.2567035480955838,1.7942658738556745,-0.9192321912030526,-0.27409211861775334,-3.6467064081363434,-0.48360130459555767,1.0133343884963433,-0.20166591950383694,7.3656926157200555,-2.5989392497083443,1.0391221560859032,-1.079942133686681,1.9884469665858218,-0.053151516528399806,2.0634224244173174,-2.310422320487809,0.7212135121485027,1.197253329497348,2.047972969033076,0.43897679201121614,0.052588308906078664,2.9709830310773984,3.4146043438034845,1.2697662189044931,1.5884064134171456,-0.010658572383306027,0.700536477714873,-0.22541746241131638,-0.38715227685979986,0.9552612466137552,-0.6482524868269616,-1.8680446201068779,-1.1371883146254684,0.5514257257398882,1.8413012995598106,0.32554871146482145,-0.9921584383492386,0.4892506186693391,2.589474084598335,-3.438798637205895,1.758421100248431,-1.1598498886702315,0.8592011353152844,-0.44759202747636323,3.1842629403539,3.1302023001468435,-1.5481316831417444,-1.4477903217351138,2.353355589637867,1.7445809268851755,2.7673970625132527,0.6460818301267292,-1.034217146551894,0.8554560408882098,-0.7659672831080415,-0.16905531856545222,0.23671361453917816,0.9583661086190717,-0.5228745183082599,-0.48351343153495413,-0.2408348752348408,-2.57002861502259,2.306785862948619,-1.934105032284015,-1.8224882398028954,6.131259691825852,-1.0326601204295094,2.943762826872934,0.945131824298321,-2.3503335355014836,2.55692394175069,1.1219044693449622,1.2527765827612993,1.0325048495332698,2.254523338453983,0.548177978335352,1.4816254148571995,1.6369851849811938,4.646781487718745,3.832842108553127,0.3163599529297584,-0.4220540782343257,-0.2999353585515532,0.8331104059316439,0.9109573136174182,0.45128569256779116,-0.11841551710301926,0.2740248063082044,1.0299702697949398,-3.014536339251524,2.775140829165197,3.502062364102844,2.8323264799266097,-4.219013062524537,0.7346434482081369,-1.0112019314710874,2.5403542570213706,1.8586729111611253,-1.6236460862136142,0.7163957910882037,0.6566026981611017,-1.2487171085105733,1.4261147234514668,4.372157996538997,-1.2096580657072784,0.7438758938385784,0.803304577794723,4.320231126088181,-0.4276995143634179,0.6710765483451997,0.5499220222643564,0.2541746365141118,1.4412722206410578,-1.5095362949173876,-2.7847304936345227,-0.6427357323002226,2.688272335762584,1.6578371269283319,1.33126480723456,-3.2536594951473434,1.7271116154065014,5.131045391533512,-0.6387610843846949,0.368474847864411,1.599439307434607,1.1796973051145554,-1.6698532304444875,-4.440866900586952,2.3533467957762646,-2.413877408098986,-2.5496489354024123,-2.3070237465151875,-0.6334780515755941,5.489743643253898,1.3951382202323348,0.8043679601112687,-0.32202975180096294,0.6489791124302359,0.4322877960832183,0.6980175085802897,-0.48851373872898407,0.7149482029410861,1.1833397176273632,-1.9872768999402153,-2.0117434942905943,-2.980578845598043,-2.2061909187892454,1.1208119256629823,-3.9754461752228876,-0.35253475367317993,1.876666075640923,1.6802357663757364,1.1939138732592016,1.6876453031026208,-0.11798575597711426,-2.937903885591862,-0.007690543935369384,1.6026526429387211,-3.041145479448733,0.48828012313537666,4.708389196671403,4.115149640234598,-0.1727353528115198,1.2143919012468913,1.2274354105316847,0.69144520998321,-0.9429297268396748,0.6649405589142618,0.6288034987112346,-0.6783352263317685,-1.5888803332475778,-0.45815108697949736,5.871062028367955,-0.8051839906928725,2.8198111546429447,0.3187437237659215,-2.761808463777983,3.701835050951618,-1.6400587142270462,0.7397168249214652,0.09873096369101259,1.9670467232593465,-1.508228876104311,-6.363457344780132,-5.219451328991204,-1.288730098846031,-2.4396275440630464,-4.449130170225241,-0.02355071740532807,-4.83280546765825,-1.160582561219414,1.1962652080709046,-0.5614010373887957,0.01889819324574682,0.7710379488070753,0.5546410076533381,0.7735175920956586,-2.089668829243144,-1.9339369125740555,-1.9183286758894285,-0.07768557957705881,-1.8618079075905412,-2.4287760791760142,1.8273870564495596,0.826963550338492,-0.5395419337031457,0.007718666356468739,2.9029772842571138,-0.20500419812476775,-0.5281814550151753,-1.8662756829665275,6.058622305113693,-2.024521405436106,-0.2657732704682055,-0.9444391515154983,-5.287360993082283,-2.2818928153310516,1.9518748470257035,0.5455991970531107,-1.4596210251572161,-0.4550951075658227,-0.5919503417809708,0.53526601908531,0.6957818089819763,0.825886215459071,-0.08918781176196174,0.8905203923579739,-1.4022505586908627,-1.81560248414808,-0.9195714463504335,-2.0333297171888147,0.6198405525397718,-0.6369121969778453,-0.1920786300383288,-3.3444548540085686,1.5895885891384025,3.3106133135294082,-3.3922707775684753,-3.56700598133001,-6.197797248391174,-5.820957970886978,2.581427736801511,-0.5368497676098007,-2.4532237518491864,-2.096363393268851,3.324618749501163,1.1146943559890299,-2.079285507738897,0.3437764701174001,-0.5482552847394737,0.06493894169078285,-0.6223132252780658,0.649428004167953,-0.0013144726032855002,-2.5281223496564555,-1.3047596608160352,-0.5087193957426526,-1.3100352624224607,-1.4035238088703696,-0.7610995968776189,-3.8488301056233087,2.233696776032172,-1.4479753878700543,5.647457162657753,-3.4730458790162877,-4.097208203495417,-1.7097205145874559,0.3100465168133724,-0.07223045022325038,-0.08755877967962788,-0.14617204714680732,4.136211496996405,-2.5648168407561083,-0.557752803268051,-1.9101994917836986,-1.7688340282818145,-0.9333923333330816,-0.9262956342736816,-0.7630806029680697,-0.3310604278676996,0.6783633818543797,1.647619941823521,-0.3873927322926468,2.7241881321212658,1.1156241771561675,0.06646400303480571,-0.9513711144901342,-5.841195187731995,4.658420032452639,-4.838537295256094,-1.3696453785511704,-0.28648249102485723,-2.8337702661335737,-3.6919113483829005,-2.5340295934106383,1.17447796269388,-1.6274659631770703,-5.541251789402469,0.761540189625519,0.3564267638356657,-2.1813110482876494,-2.235605999053211,-2.5261522096304128,-5.787534980390425,-2.4538456787911365,0.2353574735602599,-0.9757924163303122,-0.066313670341865,1.1983137641585022,1.4963743841505712,-1.4529942045183153,-1.681527858704184,5.071556859032431,1.4942267176504673,-1.581479723606219,0.26685452295650397,0.8654811593671491,-0.03906076426268327,-0.8076144675011839,-1.4658467542707299,-2.039004991349869,1.2143322664560492,-0.6919563565216595,-4.899213902587691,0.549720382859517,-2.45756867273689,-2.5508302610023406,3.269571358260374,2.1235579053968143,1.931593645900947,-2.509473720681278,-0.5879810962890045,-1.2208258611099672,0.7167773568354694,0.7422882505532602,-0.6701273359059439,0.9768615285079738,0.5647870828110091,1.1781196374847003,-1.0566072332122596,0.16729107790433928,0.7582664991608987,4.80954319381605,-0.6219197988675582,1.7454336416484886,-0.7236404976936361,-2.3802153016729957,-0.11355970379084177,1.5649078111961954,-1.4107931467184278,0.816741188116965,-1.3949966635648832,1.2060451652133428,1.7422780347301448,-1.7989434504097899,1.6154193887544346,0.8886174875136701,-0.5656999307498735,-2.4019682576564585,0.36307007972376437,0.2580897963792982,0.025397641692962776,-0.8770153835292556,0.26860451678239206,0.23560897838423475,1.0772375015218805,-1.686756759574091,-0.9166666544251398,0.879090919229941,-0.5918432732612026,5.728277322539356,2.0033198489261017,2.3293543293944707,-0.8089344962069867,0.5359933621406588,2.5056707739912314,-2.1649237573118927,-1.1825546169750483,-0.8179912776361118,3.021679913060738,-2.4187391183900853,-1.959410457895281,-2.157492772825686,1.9227015350035586,-4.043534889682767,1.8464406968448708,-1.233565762494643,-0.2027290156134243,0.9229101619604919,-0.6593152142696693,-0.43185093132579144,-0.3384908784464855,0.7172752514246334,0.4835005663888567,-0.2119413319153708,1.2562677016447013,2.0928324165320835,0.028424703295142333,1.9834098125963644,2.591917176506213,0.9934360108485413,1.1670812178918044,-0.19091475180188508,-0.5487198035385941,-3.708215200917986,3.6280079404377004,-1.5994031999364147,-1.1976442056143488,0.16302738411116702,2.785824263878252,0.8465287831475472,1.6831583390898783,3.2615452999995673,1.1217584715111566,-2.4045343631495926,1.7158582420731665,1.0618903122705778,-0.20933900525226143,-0.24781696746624385,0.0920967876747394,-0.4955272712645071,0.22338363752261706,-0.6785186004104714,-1.277997910407652,5.085810912338221,2.0128096230621,-0.6089879313578913,1.9552293832357315,3.104057569383908,1.4744857537819864,0.5667442129620475,2.5613341397635785,0.47627754875037187,2.301180717655066,0.30455391937987336,2.0844805073923247,0.18673862904973593,1.3945769830323058,0.9114446151005716,2.472757678135645,1.476770181980535,0.33230990524501236,-0.49050461217778685,-0.2576050368108915,1.0374695406719612,0.9142472822184762,-0.2329900564422505,-0.006774013839010218,-0.11650724107127977,2.1163689304607387,3.2758699259812696,0.4784754930863136,0.8079319449753788,-1.193539264352267,-3.22213935028808,-1.6831697167547015,3.2496432884510087,0.3684162412247708,4.218590374424921,4.115842048523822,2.4429719275874215,3.5003020001215526,2.672162898124333,2.3408639375598663,5.407325294094697,2.4106706330293357,-0.24709404318010283,1.802196022558247,-3.5714033861255334,-0.19448208460750424,-1.3583047230931502,-0.32528079971700236,-0.48737638273746114,-0.16415357546933507,0.01638649647706325,-0.6520336461114944,-0.8830448947438256,1.3663052696127964,2.472263440499537,-1.5564357562927487,-0.8915643751933974,1.121937249808038,-0.7180501680080403,2.2443612132411364,-1.1744656087155063,-1.7107133571402908,1.1206776024683127,-0.3018237228820007,1.3786889258036694,1.9492664686337486,0.49966714882509905,-1.8473983992497895,-0.9310327114575925,-0.7354059129030274,0.2488540383473209,-1.99371975059536,-4.544305334508749,-2.91314785452134,0.42562648475531883,-0.9710058718226375,-0.917198602179396,-0.644261689782061,-0.1954578005117773,0.8157358577770268,0.3398023663458942,-0.8355435819561398,0.7083057621490821,-0.7622900929767148,-0.011634418272176886,1.937549833364122,-1.3777611608075304,-0.9688193789639891,-1.210511173584558,-3.379732876207484,0.7933766651354769,-2.433676027447997,-5.282485137719723,-3.8256668045761026,-3.5771655959922692,1.7010186990510252,-3.38649589052442,0.4887573998687772,-4.226086572657681,-1.4488800362138798,-1.7476121417169705,-0.11460756504948606,0.41358136556376823,-0.4065079389976092,-0.723366163340768,-0.8064441716179649,0.5399849100653911,-0.2810872053004052,0.8502658884093803,0.6476789842284908,-0.8507352097030404,-1.9716945591335682,-2.9472411297250583,-2.1456006919386317,-3.9366022902168143,-2.3923904710259385,-0.5995360015037813,-1.8003678314672593,-4.0898418949794735,-1.4761080067512904,-0.5824441012166398,1.6330301220758228,-0.32370068413592445,-1.9707353181968486,-3.6626344671073197,-0.5368295380228856,-1.327831384817194,-1.5060243324466924,-0.627327445589694,-0.8048471229189949,-0.7602380527739232,-0.3673199200839586,0.9014977303213588,0.4267436129338167,-0.47474035149851823,-0.2929269619836714,0.1619323874842311,-0.6296350453488002,-0.3199109545248209,0.07091329072793776,-0.16132647080299564,0.5099428324918241,-0.39669700974556615,0.3574561792294958,-0.3789322014671738,-0.9696623959528915,-0.36875031150076043,-1.2230273242806584,-0.3538840870039701,-2.8074984821433198,-1.0207844087917346,0.30130153881145305,0.18854770552750907,-0.9183397427943668,-0.6442081325209144,0.10571657846943298,-0.4255240752647991,-0.5516857973553733,0.6119297758996769,0.14147585758262382,0.10632337405068172,-0.46500185312882825],[-0.5840860930576628,0.8636561198773962,-0.994312086219936,-0.18435497659826505,-0.5038489921522349,0.16900463931088394,-0.9711192008340286,0.8686606072287115,-0.6103194843030764,0.3371280788425681,-0.42654220836789625,-0.8879198515729074,0.8160669666534881,0.27246193670991437,-0.8370883036440626,0.8060791048621414,-0.9130466045162478,-0.980516043976978,0.27968807643543325,-0.9010713625221488,0.12030103306735351,0.5907622565776554,0.8182527006972331,-0.6285502143424202,-0.8948488103439725,-0.8259722197574171,-0.12470519005306537,-0.5544397185790324,0.17267228793117462,0.06272718108005648,0.9765418931271056,0.2951845834130784,0.9248460334227788,-0.5361658363248794,-0.20031125054865304,0.368687288182044,0.2304774255804573,-0.846460930225859,-0.09108100808688586,0.3290486624982944,0.7374980157314671,0.13447772221783527,0.2595745822320585,1.074145807861355,0.730387298394661,0.5142092888079642,-0.7517503346401543,0.5225283476937832,-0.985060237600909,0.17850934201775773,-0.5938695267744665,0.7230907289906586,0.10612224102521096,-0.9602549649697256,0.1611840342659836,0.3094612005354007,0.4834514625312951,0.36730376988057656,0.3450567281019836,0.7082936951665699,-0.8707727665026848,0.48706931859989105,-0.5823644946052706,-0.42958933401638555,-0.959610302023491,-1.4489464416175584,0.8717624048357123,0.1917984505378117,-2.341070530905989,-3.5836795661553955,0.11376429225875553,-3.0404728869119246,-2.7523554368611416,-1.17570050723797,-3.3698164760768945,-3.872076945957079,-2.409771661520637,-1.3367645740716094,-1.21248264487956,2.108177147265622,0.5539931092404967,0.33165043150570206,0.5228589573276134,0.9455221014312708,0.6552015674491583,0.4281505913494237,-0.5781415892699193,-0.9039547588546546,0.36625028214859223,0.7252265449863774,-0.34806328562476657,0.29776322553054296,-0.28546128032328566,0.6954680031881499,0.3824905110159558,0.5614423124757647,-0.5303844738970005,1.6424545846633951,-0.7647990092452663,-6.337850277916978,2.7336890367464606,0.7127095343611299,-3.9180609647858593,0.18459787361739197,-1.609889059411481,-1.8198761380081023,-0.7914014329281274,0.5457341031228243,-2.10254838024465,-0.5825822783848111,0.33191495182306596,0.7593002194573295,-0.1946358511865245,-0.25593622976222963,0.5655132408734285,0.7748098361611698,-0.6284787446412404,0.006846666207833473,0.7754209678308855,1.1324730852348441,-2.8054359577706824,-0.019321201328408893,2.7526747725900966,-1.0413510380917768,2.035697771603673,2.065057847504696,1.8378101718217257,2.8420456609855167,-0.3059444372415998,-0.5409484742040388,1.4957351854455236,-0.9353925871361178,-0.5993336238872278,4.168554502224111,-0.025166073059321524,-2.4989639002905393,-1.8864012360721294,-0.06213822674844692,0.09284577844382555,-0.08946076497009892,0.20398944682856812,0.8246265587540302,-0.22038754322323517,0.5127797389375913,0.62088746856898,-0.5806692025248487,0.8836998761999492,-1.8372569330876265,0.6016154153838533,-1.6715890831161317,6.204274005780016,-3.630527729809175,3.1802992637389647,1.2948925226076813,0.8564170001235256,3.6829633235165127,-2.744023538236141,-0.030565596975212914,1.841705967237432,3.2974415769681436,-0.8879180593044989,-3.644010626763003,0.3841965950798841,3.5899222958515096,-1.1782550898562802,-0.9985048396882076,0.46270121414469045,-0.9922620317222444,0.5621236257096203,-0.9320825979645868,0.3689920003392289,1.3920059640078033,-1.0857721944504324,-1.7388304370125867,-0.5298855387618059,-0.07903856167616967,2.361136385748417,-2.264507335640067,-0.03280815383182138,0.5071089945907792,0.4474717909906885,2.6737435605548567,-1.1659862023063503,0.23870017755637302,4.850592656670284,-1.002375486786849,0.4718025862868143,-2.709029317008525,2.203131807366349,0.18139973254380845,-2.956839049182041,-1.3819178335116,-3.1556311273222564,-2.813130238240761,0.8156361874812137,-0.07958020647682529,0.8632747284166756,-0.6072241634289015,-0.7744288437429715,1.4686286185043558,1.9347748579690838,1.2248927733849988,-2.9195995844289224,3.132880356634836,-1.823813841653207,1.7853115521172145,-1.0525069343634712,-1.3695736301258281,1.8584699239399207,1.998134978058566,2.0787393159221343,-0.9794258639923823,0.08807832624247001,-0.5353999746840383,0.3944147016238154,0.2970753841383591,3.4215875409745853,0.25398458631689413,3.129784405475686,-3.5869048863096658,-8.558563797545673,-1.176854549146692,-0.5775804395960262,-0.43186137323951135,-0.3941229484592861,0.08217629682736746,0.7693546069230461,1.6568779844203378,1.6418192197633588,2.883598021098977,-1.9433706223380518,2.898391453022081,-1.77091731182282,-1.8848690905419994,0.987368271126106,-2.5393590545732097,3.7125911362109774,3.3448964291076315,-1.7175714122116896,2.9658253790562337,1.557425895790767,3.6066756427604467,0.020499740654319615,1.561235079086372,0.47541713366237687,0.2583024121187286,-1.0991172172639463,-6.605572147155534,-14.181495424738108,-3.3244260329367483,-1.001371296417367,-0.15466745556598757,-0.07337777503642207,0.5692010917894406,0.1813206546781892,1.5249848635219214,1.060847294052761,1.8670688354805358,-2.4432956545055786,2.457859100169306,-2.9362861051893336,0.03874833136660761,0.16374886405457464,-2.618291883731411,-1.1395219790007294,2.450929157335354,4.055482571597731,2.315212711902012,2.4575282940344194,1.3726401153355716,2.76088470819341,0.8758692839106481,-0.7824245523457368,-1.1462519085578964,2.563138001736107,-0.5163837308091849,-4.1065719768360776,-4.977478089891355,-0.3470010692089018,0.19809247821530207,0.8213462433662075,0.2400583930178531,0.6641524058214542,0.9109325913404466,-1.0657621241552118,-0.2051903331791314,-0.7347668532702663,0.23241690425147488,2.223785840432818,-0.6490238638231134,-2.4074770981925493,-0.7378856573349257,-1.3388793236382819,-1.4951037478827454,5.077925539428453,1.9777887562857992,1.750946192019264,4.65815510006612,-2.109983120723986,1.6382911777381253,2.171969642419286,-1.48128250697729,-0.29318449698789567,-1.6574132482534643,-0.6766268868040374,-0.4962410464799788,-2.502033613996132,0.4823685410689881,-0.2790002233321498,0.11537323412839096,-0.3096674714731859,1.2042026774273682,-0.8347252946018752,1.975702626120207,1.3653696657245462,-1.737299017223312,0.3259788189439299,3.599855317775661,-3.7690906282716607,-1.9963954633722536,-2.757012135052428,-5.387367428514918,1.5782619517821086,0.7004898070195906,1.8321612100752565,-0.35155011909607037,1.1541107998156328,1.5152656994578075,1.807312007511219,-1.2393422655830741,2.476739393199231,-2.1333679085549173,-0.3076736168801879,0.7228267052918181,-0.10656660184775331,0.6047368781421655,-0.26048366722849625,0.2953494620511701,-1.0190981909237946,1.236203882551251,-3.389950671041802,0.2676141371062263,-0.37842392058571395,-2.064536759747457,-5.98681890110087,-4.521637473237491,-0.18659097836734714,-5.534791387484701,-0.5246781221326313,-4.2584795049892765,-1.816776625089885,-1.3029044415673758,-3.3351874498127407,-1.7567808048394582,1.488796333251162,-4.7164738476363395,5.445002081756401,-1.5372672786453638,2.697048159547303,-3.002456377507143,-0.7829486162546602,4.865999013860276,0.4159734422814079,-0.6400982735450306,0.7249514130594081,0.4376668856923397,-1.5939570657116224,2.1882022170407467,-6.227918067628244,-6.52417103873593,-7.448090459858489,-4.2834259451027314,1.1668564288099268,-3.0553268030527874,-1.8377430398474621,-4.088444760503592,-2.8551025744129976,-0.13509581135591875,0.5637564043755933,-1.7590543245936305,1.9024581975122619,-0.17927945037213222,1.3237087724751202,-4.009196966066779,4.562596261696459,1.1209050340961206,0.08482919275763869,1.4876423742528437,-0.7390780395181502,-0.7370015080250734,0.038188656031022124,0.1469063808510649,0.1430138398200369,0.552204499823912,-0.10118273657229757,1.9255560598845831,-3.953912614842209,-1.3743351317142007,-2.4836603279053504,-1.685704927412613,-0.2634059321394107,1.1777805610550154,-1.5379612574258767,-0.7102491560209236,-2.934901114809864,1.3004714590932427,-2.099659377295491,0.6665490992387253,-1.9557850505733356,-0.32937149668600657,1.5845599551438077,2.170264739251082,-0.45764074635467955,-0.504223437658073,-3.07234144575705,0.20063309732139464,-2.5665221642501956,-1.9168883283443423,0.18613921426368693,-0.45158366855048926,0.318066307366502,0.16520842736008454,-0.030055737129275704,1.661471983858736,-0.10051684333777872,2.8626673350935725,-0.5217974099703194,3.571027546299665,-3.461042401815253,-1.1088752810929474,-0.9307987803806972,2.0968213154887385,-4.478618258586812,-0.9491613938280938,0.3687170794798214,-0.24951439616577936,0.4633559867105263,-2.5366661410902145,-0.012929979814213049,-2.630893793743733,-0.11478913315651484,-0.6897602519203512,-2.869030743759833,0.08554164571667446,-0.22400320870622775,-0.7896959521986958,-0.5934480422966665,0.6791984290251296,-0.39591030025451457,0.018433150499371716,0.2644899252217206,-0.4390994356495024,0.9049115073739656,0.004821029552224122,4.1339516692833485,-1.1549943057728087,-1.0629558139044926,0.9180628760207852,-1.413824784921255,-3.261988035660279,4.223377883844439,-0.9394039063356466,-0.611719716305727,1.851145912074547,-1.2237660470566947,1.2061005870531238,1.6959040172874693,2.7495569365923345,0.8210298353620027,1.1664459682503174,-0.6634269455804277,2.7624652907684273,-0.41517802011758015,-0.2891303465918564,1.7059852884469713,-0.6185342269819927,-0.17450517370424334,0.4320521509363098,0.7181836462066261,-3.18071903908155,0.945320889865904,3.8960407930422507,0.7176837794627398,-2.549313128452969,3.4488250221789056,-1.6173152072942498,1.537364041970937,-2.8429771024586428,-1.4321020568972747,-1.1116032536023157,-2.158292911552466,-0.8008468228465881,1.3844256249852562,-3.4769625330408163,-1.6763005611040938,-1.349544046834517,0.9071566640236537,2.850046513160052,-1.3703132060503578,4.862911249051823,3.562983372039487,-1.0385364484543973,2.831550975400769,-0.2117238260191948,0.8863280416832333,-0.13233710287789696,1.2804658846310673,-3.244077045655281,3.0227343429376847,-0.019161186225867582,0.8494167186952787,-0.22358740491239318,0.9025136689372246,-0.9750217809905471,-1.32388139966692,-0.5118182588170146,1.1467742971214858,0.6284189917853449,0.7739391763145794,-1.757344981508305,-3.512804022332685,1.687963241017429,1.9423930489475785,-2.825811179416351,0.5543521015631666,1.2292264655533929,-1.648573464485357,-1.998144541205765,5.53535654681417,0.4081352519946145,-0.03534047371729988,-0.7356754730367359,-0.02986005711422246,0.6219333838282943,2.3013260039596344,-0.5716630440720545,-1.099570769788601,-1.3594549880017144,-0.28938668375739085,-2.434991098750428,0.7698507007146211,-3.8778644522550882,2.2410325019902917,-2.765068213732831,0.966109761725414,1.1174887541927496,0.19130837962998262,1.5310291339954618,-3.8561056549170822,1.811882309461245,-1.2838142141733406,-0.8738174869416931,1.604362158912524,-0.4985402800476601,1.9999064323549964,-0.05280352679186231,1.9857986826199021,0.6678692549591061,0.24137358850695495,0.9862850409570014,0.15873119208707687,-0.80864981507784,0.6737715920332035,0.4817823560113941,-0.5332496701458531,-0.9056703863087068,4.074690372339809,-2.5866387648497113,5.928566266529379,1.686366020463817,-0.24250414325820288,1.3392397173261528,-0.4018223334483807,0.9880764853722314,3.055603982125469,0.5101478212029338,2.716228860263843,1.1815960411080715,-2.1045970014289495,0.6250622470783245,0.8316352738367503,0.7589680759214816,-1.0594311604598232,-1.4878428030504804,1.364217399043051,-0.016485337984611662,1.0219143183741362,0.01941245866643334,0.9224886178259076,-0.5441903044303547,0.07891472253164865,-1.9191827286336978,2.2483087781914683,-2.539996661231784,1.2741820511212776,0.17444629741248174,-3.2782804286931597,1.1480040884363532,-1.719174354449069,0.2341910481274512,2.5962282764424027,-3.0468414036831515,-3.401122636520565,2.1264807329325697,-0.26356762841851106,-3.88491583930884,3.618276198630288,-0.8930355590186075,-1.0914724537401197,0.4893941057283227,3.40761339344933,-1.1675257105597072,1.3728099934971547,3.21752593384509,-0.53794363052019,0.4468075772045712,-0.8592517113396214,0.5691123609168731,-1.146049465644533,-0.9496347917856197,1.2820067545803755,-0.0007196179997222872,1.5543860517814432,0.5041312214972535,1.5347180507469564,0.43341381907662596,1.1420910745783417,0.7321517544609392,-3.64891462336639,0.3449330240962002,2.524945370153524,-1.6389970937705967,2.2530301934436125,-0.8822570524247865,-4.523391439050198,-0.6212017398486483,1.3889518795644837,4.209504947916262,-1.060545756409423,-2.4561419956292614,-1.0915788420624501,0.1502282817408387,-0.042626862611862625,0.13621777212910802,-0.20303623987141808,0.925108523734392,-0.3335980647131345,-0.5731359184768826,3.236725455767943,-2.374684391082793,1.35258991561425,-0.1643018555845799,-3.469912321514984,2.4616749746908173,-2.253745685292248,0.11198217622740823,-0.9580992280859454,-1.8063130868633035,0.047486511831847066,-0.5329379759920393,3.8088822480587265,0.9792817222669512,0.2865850470056318,-0.9714845476686196,-1.809785182356635,-3.3674534785832697,-0.5829552379113984,-1.620424054297642,-0.8341718471188495,0.025033978465569588,0.14438858896286974,-0.20891363587421008,0.11095849382643096,-0.948280900397586,0.7203057131921313,-0.5293561992288915,0.5132202125064774,1.6531188180708052,4.539385425866135,2.9376981890924827,0.5150147676424827,-0.9128305772872181,-3.2642995825389174,1.606575677243273,-2.0463370599428448,1.007445647222785,0.7633331426164239,-2.674048112147313,-2.8424204134522673,1.1084940760373136,1.3428024650882895,-0.38586543005871843,-3.806733955090156,1.2651311344314826,-0.830431842691571,0.1966900253559406,-0.544500002399422,-0.5118430737668186,-0.8624663537338992,0.3163355714692757,0.9717998416896092,-0.4721564178591666,-0.5192175724515895,0.08422391941984611,0.0006776428541770932,0.010095802603566234,-2.340319859205357,-0.6655810774326537,4.019269978813284,3.380370542028656,-2.6902546889667533,1.1417994684322597,-0.011333723105136004,0.19468304286005794,0.29791851490319154,-0.04402213339481057,-2.738529505984359,-0.10976806412023112,1.457862589829704,-0.7317712693474787,0.2198973089532471,-0.6400175537406436,0.35533094338686766,0.8386893906893114,0.06018933485071616,0.21109904247445543,-0.7855958692906073,0.3777888750853651,0.44740252991530793,-0.6745156619818053,0.5576502166302666,0.4227045343228585,-0.1338141660565034,0.9153328919818403,1.7208937035374876,1.0719295787610914,0.7656096828379536,1.2036927049937747,3.792451516092955,2.9060144863630075,0.2079042581459796,-0.686162888425679,-1.0214414544155053,1.0705634579601055,4.171342274469182,0.6141138680790326,-1.0437862557563033,1.0014825377122663,0.04736851111609357,2.0635703751027923,1.9258438867084515,0.07485672403158107,-0.7195818978775619,-0.3699740882923217,-0.4845934746903773,-0.395404875752944,-0.020803336189404,0.4009360179593675,0.09642160339386407,0.17687146922885577,-0.5207251238281783,0.6180234462070252,0.3388984651048994,-0.522594710603646,-0.339780782590844,1.4158475107058393,-0.17387419883781477,1.0547342001262985,0.4434847806912222,0.44769552575605936,-0.32872826598687943,0.16533741069525187,1.3023841930019922,0.5200094737536587,0.16915795037792175,0.45710058121110353,1.4082553417657961,0.15338695665009106,0.689662439191255,0.058373843618302335,0.003738040159353418,0.19980838718187743,0.5439820310712875,0.84443883762114],[0.8200152283254694,-0.9242836926970954,-0.5360634035685372,-0.243047479138798,-0.7549898245646329,-0.4487946458318919,0.6907899885012343,-0.8448323227529551,0.10685740878618244,0.4942839799762615,0.0872786014877307,-0.6008590358601043,0.15382848614643896,0.08956557658038689,0.680027056091776,-0.8519246755255707,-0.5081567157279214,0.07043886084449835,-0.8851957240495796,-0.8079613489283528,-0.9128965826754748,-0.682577549262241,-0.8859757670370136,-0.32699249674468134,0.9673334373181082,-0.13747419494861912,0.6844042922107665,-0.5965113034571048,0.704804153438074,0.569444400406576,-0.5819629937406932,-0.9173833382023796,0.5637375437672285,0.4867130226189915,-0.5322501838590312,0.621630026310187,0.5857793116475704,-0.6220558843113579,-0.5678128799623707,-1.2963033522775376,-1.3390302086230126,0.5512869561979168,-0.36217916419537827,0.1026369075154175,0.4442154213311818,0.8037351115793437,0.19203857295248825,0.4525572454991711,-0.3555207809570737,0.3404813984616217,0.7234455812414149,-0.5771257592258376,0.9347314276517528,0.6075974639788537,-0.07137353202946328,-0.530313441405091,-0.22795515001167677,0.4425153060716498,-0.25116922815014964,-0.8862008337051317,-0.25084891568674245,0.9902925227339113,-0.9160124330104257,-0.905033266021847,0.4298046042203319,-1.470062251919992,-4.433612040494185,-2.7729219889539043,-2.9598585378237985,-3.280029443678251,-3.9555290762694715,-1.8472814669572084,-2.382978405372457,-1.9306243818665116,-0.9840602049996473,-1.20749050085595,-0.1983278835229187,-0.19878391673261928,0.36852738676196267,0.28573855643446516,-0.05315350087978977,0.09510077109431858,0.3088103511738811,-0.9398789559899772,-0.09951549726883192,0.3269730131495716,0.7045981174929357,-0.6149147108752044,0.691072598138693,-0.8930967485413691,-1.5643833009940338,-1.3006945984271354,-1.4863532242284854,-3.7201020661508326,-4.124420380099574,0.6499242187184313,0.13573698836080492,-0.9523733783985763,-1.994827763358794,-5.0650036763585895,-1.5747773444984177,1.182154715409171,-4.648749629222764,-0.6900245250466518,-1.5083647510696034,-1.7118148446936339,-1.921858471722688,-0.32735292415064904,0.1314711992388299,-0.5998426403559689,0.3260392136025545,0.4547400629101137,-0.4803126919181071,-0.8225346829339928,-0.8963166415059751,0.9742078184105948,0.6018182177170461,-1.8907279709508134,-2.5188522942717575,-2.6930376673513687,2.4994764830638183,-1.8372339007479765,0.21901909923949142,1.7266121195250703,-2.8349199526353113,1.9500139416799285,1.057503446937387,-3.281567236440349,1.961397043865683,3.712025610821999,-3.9122477351598266,-0.2531066610215307,3.820223262240477,0.7636670034035185,-0.3639397910601136,-1.1762424523018162,2.4281985383080187,-1.0003014563749917,-0.3313154559933501,0.5480857307770022,-0.3310225003247338,0.2975181952011776,0.28403840139994835,0.43889351930344955,3.289993735145464,1.718611994206897,-0.7846886453757641,5.432407121708403,-0.8826193743373933,-1.2370213452266565,2.614673886618846,-0.17478943535098276,4.092741096159546,1.331489002189366,2.1972790708246785,-3.3201128936104167,3.394467427878298,-3.012271839190988,-2.204023677762387,2.6906326845866397,-4.292940618249259,-3.0459823729204807,0.4447466674426378,0.6479911841518596,4.812432680870926,0.7607283973098444,-0.452510740100252,0.3788806819503205,0.05153985642113201,0.9778654042549682,0.08739513495382041,1.7581928049775517,2.079913180276923,2.44953583773344,4.343228188398983,-1.8991243799927722,2.534016942031141,0.7221690633358424,0.794991165893579,0.7895408667720232,-1.114198768217932,4.205778152699016,-2.9617986410814816,0.5565461817753483,1.0199199326365322,3.83355829679224,-0.18770578644388913,0.2482920710910999,1.2828710592077595,-1.3063477637860181,-2.5059467217343223,-3.0732884092196198,-4.961577469327427,-4.332322381793005,-1.1006090039124232,0.5043827578930077,-0.08839940047773236,0.7777986501638401,0.4580996668107635,4.139715172708814,4.963088755556359,-1.4718188998604884,-0.6382066858514664,3.3198017715283528,-1.9139105303098782,1.9900401613993632,2.172872811413228,-1.00516211263856,5.670607994658297,0.3093073585662664,-1.5438378255891494,4.939551486939606,-2.8604574365057243,4.820278791976492,-1.535866955761327,-0.11332060392973325,1.5476158079575535,1.6654589579216572,0.9036673075905534,-1.9495739913262635,-1.9355148242006914,-3.057494263974617,0.07612214811544651,-0.24319925123624184,-0.2356637488328406,-0.3042641859819361,0.033475429868489025,1.4177971377303802,5.525468716093722,0.1566458731245434,0.6463542830016081,2.0983548467219135,-0.5203448093040741,-3.259364220871112,-0.87246411786607,-1.4795173082342126,-2.189677647958094,1.8539125106034136,5.032600153136461,-1.8657071604577873,3.737981955498211,-1.4870149196441118,0.923080161539406,0.9856595541319104,0.046496615092490284,-0.043760412847366884,-0.6341123149927024,-0.5429856670043155,-4.56126878428687,-5.8844903281263425,-1.023412485357471,-0.8075948015602711,0.9929699630410601,0.2944173338347101,-0.5933783167687031,1.051258069451332,5.691533718075785,2.6851842764345424,0.026815783046157213,-2.108636496166786,1.62841184648632,-0.19387051761310647,3.6619652709934654,1.5981520452039015,1.3251086924556443,-2.537590159748022,1.3207883068190294,0.5543715951654349,6.237125472061178,0.21514872226322349,0.8236447693622903,-0.029886246275457492,2.78236629845536,-6.668581972810812,1.0350955703237399,-2.2796684556339377,-5.931958646088389,-8.406665652393967,-0.2539777306518051,-1.0443918246810964,0.4830708094509044,0.7053283564655546,0.40712612003131465,2.0387136037398306,2.06378479146017,2.097251330637117,1.9757559922443426,1.2806580528103368,-4.700709244294393,-1.0601080947091592,-1.7457844624902634,1.4273820404288113,-1.592762305402432,4.495121587850209,0.9402826329917924,-1.064516373370533,3.914217051137496,7.0162057483824825,3.9860312013356007,1.7440007746312525,2.7106629504949438,-0.21828696650361376,1.4469536406240555,3.322696952902589,-2.687966663267685,-6.069303625764448,-1.0166607382700183,0.7023121852127497,-0.5376846098149122,-0.7639312969940556,-0.9917879345174877,-0.6597780811198264,0.39680869916900524,-4.25186783030441,4.8090465078836635,0.5036306783297692,2.0877307171808934,2.3788578257864783,-2.4797154934085253,-1.7779167654415688,-2.156828736653013,0.29026932366296565,1.2061385435297522,3.4996373521333752,-1.013337242714491,2.3752283607358584,7.5410741203875755,-0.09004856210539991,7.916153135372915,6.554626558884408,12.302728713428571,8.202703163280317,4.633084498086694,-0.12122502661832704,-1.341641606352242,0.271842324640272,0.4083394824373978,0.6623953437251165,-0.24252668059596114,-0.9018677783523004,-1.3159757781599113,-4.099036949309374,-0.047308241501774456,-2.04795433807468,0.8311847644004872,-0.35643882327212034,-0.43687159544181164,1.8630904042403822,1.3373171112049456,-1.0740987817154715,-1.188515244325339,-3.2037964800682985,-0.2605204578310196,-0.10633709887483098,-1.3068536999155878,4.552266437162488,1.089294113326276,-3.3038726100230233,4.205068527869521,1.698617256494771,4.471361848283123,0.7348110868682498,-0.5983713587585726,0.9894495326876442,0.5512761319540671,0.4049553786625838,0.012837412173527511,-2.0036872771558456,0.6763100002203083,0.744581671485417,-2.5581740012255985,-0.12134594603764304,-3.359599020352168,-1.6434321249969193,2.8831512122639404,-4.114695604024875,2.013132193295458,1.3452993158323008,-3.9535326222931437,4.496100596253312,-1.8775831304685517,-0.43767779136554197,0.03720366991220471,-3.871936792721958,0.31001931612796696,-1.2751896970599106,-3.6747086782939897,-0.12599472575146953,1.6350723463769385,-0.07778929416989906,0.3410238281289047,0.6270420136994797,-0.2489890118979172,0.37532024978193473,0.8309756775301761,0.45739184457380505,-0.3090656050450367,3.2912836776082965,2.927814171844493,3.035613273198116,3.574285523586233,5.17260000478248,-2.391964923324698,1.688598545692458,-3.8872339001226064,-0.17795115802929865,-0.42287563195346695,-1.3526237213066572,-2.4023945115016963,1.1046896272946582,3.3918093973017487,-1.3090907585215588,0.9301392236360679,2.918474877903666,-1.141555720523152,1.7452841723566574,0.2562469058894967,0.8325522773395573,-0.3537806873672802,-0.08511263011875592,0.8740306386981529,0.7388097317140029,0.7437349779003507,-0.31895464534958345,-0.8875646802555327,-0.19319532584782811,0.6640586049382421,-0.9251842337981065,-1.105135972977003,-0.7447887002848306,0.8489175809364299,-0.20483657706532743,-1.058274821710155,-0.01802212173067676,-3.958253573160827,-0.7040491294520392,3.4519996215685222,-2.2690721592683194,0.4006374275659643,3.166486330795471,0.0373941485672006,1.230406505176345,5.388099614169866,3.6991943288479976,-0.5697912561365979,-1.2192069424743432,-0.24962060053404447,-0.30166833835509055,-0.6051302472588909,0.8285071483665455,-0.08953773001713507,-0.2014506283949633,-2.6145105171662704,2.6141353147294395,2.2381235697967905,-1.2966181596041078,2.4552951612764033,-0.9284021564006258,-1.0076327215763299,1.096156061272661,-1.7553028557900323,-2.3313288942823336,-3.106002617331621,1.5258527166178701,-0.5780016615457128,1.8299128640926856,-0.569231734387808,1.6515346854052,2.177008786608426,2.898891545487389,-4.700983545310043,-4.061846720075122,-2.013933252639027,-1.4111717795091365,-0.06913498589900419,-0.617263393241694,-0.17388102431990737,0.5659315036675044,1.0122422506106037,-0.0498219811017721,-1.9486781361952663,2.579678821005269,0.9030815232565698,-2.6813207653660642,-2.289960050286292,-1.3110124440508362,-0.7448867239782466,-0.5641449047147772,-2.033649829197368,-1.2775011476547518,-1.5795409251209376,0.6931375340120879,3.5994321134981457,0.5101250154377507,5.472422094508067,-0.563556544639511,-0.33762675084267074,0.3981432777468446,2.60615194859501,-1.64461646852384,-0.01498107846783371,-1.458067121736241,0.013109443621204007,0.5577367422955899,-0.8386770321334263,0.9722800442842227,0.9864098248228247,3.07064652852267,-0.37480176521061137,-3.775080427666176,-4.755830648732891,0.5498786573921939,-0.1871283256659837,-0.4701816415692712,-3.5260020807389347,-2.7711752387007333,0.7664757251883604,-6.429192223232776,-2.834648985961247,-4.798217894789335,-0.8917928567547687,-2.5356909288609817,-0.6019721525043397,2.744695960108693,-2.6814146932533074,-0.019589203492298753,-0.606916745690209,-0.43560335741453254,-2.81581716879112,-0.5861419593835696,0.8429633234553107,-1.5025247934368884,0.5386224158892126,-0.19143053983935587,-1.1406860832071941,-0.9380523927683793,-2.1001729129259097,0.5415660881092672,2.083301494066555,3.7621782191344724,1.7409350742876049,-3.518375245385621,-0.41983919086687654,-4.2526149037091,2.0164012285871125,-2.3460436921077914,-0.9761972772256473,0.044055630550465755,-1.1645673362613431,1.51221526803466,-3.5657120559112814,0.140814256692738,1.0629776591031346,-2.145834854930919,0.8516073805615699,-3.077651000432139,-3.133103422445176,0.6122135070975782,0.9739807277021892,-0.5071887136588487,-0.6911009533176711,-0.2360353914076489,-0.8891994377895719,4.684019061297286,-1.6610298017459377,3.2929786416215854,-1.45961710449074,-3.5084681995191818,-0.6624831448068287,1.1457029895337012,1.902324791965919,-4.244104928374545,0.35141296489498214,0.4426822978798149,-0.846544376845892,-3.0964364190557156,-2.44868022252276,-0.571801587304306,-2.8400212157613316,-4.2658128464177905,-1.129403552550949,1.9305249014488182,-1.48938714321031,-2.366054047679496,-0.32197658978760324,-1.12081762350711,0.8273752513697668,0.8434809223044931,-0.5226142541257774,1.2037948171227932,0.9797829139103025,2.1812972857842428,-0.7348775393885925,-0.1487721472903976,-2.0916602527122965,-0.32155370261509164,-2.446674656020149,-3.859540355191381,1.0217949138792604,-2.608366291507099,0.34438819440815754,0.31642690263241713,-0.184417307567329,-0.8513040529826555,0.8297436191214608,-3.128535913002996,-0.01420943028202301,1.5408675351697119,-2.081601349160934,-4.238629585583176,-3.601666611194547,-2.2884760399803583,-1.536183507528366,-0.6823481386684634,-0.5649767571277855,0.3732233747777242,-0.9607575035861872,-0.2845419530497586,0.9114268879367666,-0.3830898463833813,-3.14756122246003,2.6713587178736162,0.8880760698205651,-2.198703591115892,3.2633108723706377,0.377661301433918,-2.2811765881774515,-1.0863114206809998,-1.105724266514348,0.5111400140524338,-1.1782851585820586,0.8852202960390062,1.3536323016131695,0.41665109665506195,-2.3547562123814423,-5.313547102966942,0.7596845002975859,0.6851079271711206,-3.2047743125817925,1.2289173997012786,1.631225422511201,-0.7602021067796456,0.11163879631162316,0.4723211208693672,0.724684093061287,0.9436014384398967,-0.39489559422346476,-0.5799121380615727,-2.5850209259320738,-0.770283117647695,-0.15657238138588808,2.4460692335548924,-4.236708172642341,-0.42469070793999014,0.9217863969553125,0.2777591761380237,-2.844578258103403,-0.8778514047142764,1.4051442961566347,0.19857865037401753,-4.052621183844879,-3.5361508763527167,3.210468188155035,-0.013473514704819656,-2.286225023940819,-0.6345671070248782,-2.571904548542685,0.9261272575703463,0.8282341920893229,-0.3457353779145301,0.003214540996277246,-0.5515039405950315,-0.6495933151882198,-0.8355516254682471,-0.2472668630244512,1.2656960826697878,0.40883458180183213,-0.19044544605596261,3.4829960751749476,2.860439267204847,2.9215224087293037,-1.2931708240373068,0.31866696214621426,0.2115353958323544,-2.2817894237444842,-2.697356160051495,0.46773630431763996,-0.37376597080041696,0.5847090814278674,-3.1844939391149665,-0.46202033809744353,-1.0483003786102914,1.3975976944677666,-0.5897674323641712,-0.041609841968790647,0.8646528046613476,-0.5634515917677758,0.2790555021811549,-0.8028087110777882,-0.3120871129289098,-0.8343360912196154,-0.6462259219317688,0.18909748644473232,0.21741751040295468,1.3842539280525659,2.613620930099223,1.3232138294985605,4.170830180587512,0.24824324595319466,-1.9836247272538474,-0.10457872904656632,3.831094420491046,2.67507969099769,4.91566109886882,-0.1013995617412707,3.8419498877268734,4.410935033828038,4.354924125920609,3.2040788874528268,3.7973629847132186,3.010800892433828,0.3559423086568823,1.4023179568409927,-0.4388858520931661,-0.05549077441614054,-0.029830234011978263,0.30097631868772434,-0.27389560231744925,0.2094650505052722,-0.8519861731810978,0.7361764655922922,-0.4089241280564383,1.007894400007468,-0.6916340865853443,0.9396048355111615,1.587865900165156,2.3803354181224226,0.637996993306606,0.1774740575366707,1.1947552875564134,1.2695080743670974,1.2274676349596667,0.21279011116053131,-1.0410088168603062,-0.23063768135832766,-1.3997087844379485,-0.5531530330513724,0.35255109732019174,0.0924615519723621,1.4739885439332958,-0.22746025983727067,-0.0525278815787787,-0.02301771290793253,0.4391376162636431,-0.4715409746436443,-0.41788035511553745,0.3864231259251518,0.24412121036492085,-0.5703359584419041,0.6647506638696832,0.20670273969032427,-0.9836437136253768,0.08984652521466782,-0.7372119326639643,0.27277610445521816,-0.6951084941466569,-0.7100975551509803,0.09842423136296427,-0.05868503164826166,0.9009213546869768,-0.09584931524086665,0.6644840519398644,0.2900312434075303,-0.4641291473212531,0.48024071641557214,0.872553235056079,-0.9331352103427868,-0.014750957829717635,0.976214803506173,0.11708151106552722,-0.2522631282512473,-0.7706112195347707,0.401827399259195,-0.9336670692854376],[-0.49998256498425686,0.1109149169857484,0.35200184570015947,-0.740470086010018,-0.8860598303257743,0.4461734587156698,0.6931114262488973,-0.9570220982564585,-0.25192013666937596,0.14593733750049664,0.3668965531925836,0.350016837173702,0.23154483042396112,-0.0896403170108162,0.7196421630245877,0.36933686163468127,0.906696811019594,-0.9564691733890314,0.2833592502425617,0.20723541150560876,-0.2160702054777066,-0.07655167330170798,-0.068061956354726,0.6830571945077666,-0.23557439889516085,0.8485585446513546,-0.14853759639717845,0.6655545384752559,0.9206026292480332,0.9901543784363128,-0.22243943785361583,0.10922610591420968,0.1926215448784323,-0.8315714148887698,-0.7123956939162155,0.6819962413902185,-0.7716251850172546,-0.9712933230456247,-0.2935778314352466,0.5215593555442825,0.5934338117752411,-0.3226160666720581,0.9365676213465263,-0.48389723493892584,-0.17341913682438828,-0.5813940694789361,0.6244293469649402,0.6122238828985734,-1.5735362619164746,0.2586935390299953,-0.18134403044433173,-0.38495849387311293,0.7646834728965395,-0.16564539121908006,-0.5212516213542411,0.7707521776792874,0.4214026906966284,0.5419688848463025,-0.3208114448700303,0.25793803500337753,-0.7519947014623286,0.42357026593351566,-0.48504694903996587,0.7459054025181424,-0.7016504380524129,-0.21312247882971183,-1.9108263990831644,-1.2018717579734743,-0.6554321995003963,-1.389975734872314,-0.25171392114142954,-0.3583018245874487,-1.4889085104021578,-0.820623610956241,3.0088254595945476,-1.8781885837792027,-0.8935466062617441,-0.8273658853893733,-0.5125247308112734,-0.600352801830045,0.4384731407569333,0.5128879300995091,-0.26520226136461345,0.19460344523808623,0.7453794859353051,0.3791939815576013,0.9419039370218848,-0.5644157076263439,-0.671626477931536,0.005420429323045648,-1.4033153804443064,-0.22112610922611292,0.05459843625166039,-0.8401222672579627,-0.5865993561212499,-0.811204915427702,-0.8739393204445735,-3.1324414242870127,-1.3045229236234175,0.11417484400901236,0.4499231534024983,-2.9373642728008194,-1.6318195652346232,2.344104874482347,-1.9315296685681822,-4.111061441933793,0.563490428827355,0.841534770217724,-1.137660183127392,-0.912034243318144,0.9638242691716036,0.7109667041841898,0.12336066270769463,-0.28658223208680056,0.5085151164378547,-0.1976672407589747,-1.2250048981822408,-1.2034667090136133,-0.8078616846320171,1.1001189824212696,-1.6279634319949394,0.24794604360641534,-0.3767863480373938,-1.4747512303644472,0.8289471543276196,-3.1548844045737034,-2.579937617868044,1.3035171966476888,1.7189090282182689,0.6703151074375291,0.407661056917941,-2.1689942609065396,0.040963403733604076,1.21921124748012,-0.9391787945246668,-1.0728286406006988,-0.1993751928039227,0.24132274060603284,0.6257692264924118,-0.06973067393459864,-0.10435311107743316,0.8925073887158455,-0.849484546637633,-0.4319182837676389,-0.07085551757134538,-1.059583430371001,1.7965369274702339,2.9664457498182433,0.17423281156036585,-1.2797255169745678,1.8943896041498518,0.6478628089127147,-0.3943376653202959,-0.057316126541572684,0.20180498931857213,-2.928015307784788,-1.410574754974405,0.5689580232278136,1.0072266641777599,-0.8907811562032334,0.7098766285828237,0.17844199951017653,-3.579726262439082,-5.132659035898796,-0.3360651799267877,2.0748836537367845,0.07514683160507192,-0.2694569175027392,0.7759022052531122,0.4198602449573383,0.2778091164251174,-0.885413624477555,-0.9826334298453667,0.6248841482959795,-0.3259178232677043,1.5581730834978442,-2.660636571600437,1.8657430625098423,-1.870437330211351,-0.8131285420525812,-0.28928350026848243,-0.7910153431501075,-0.8892810792285096,0.8343584283879965,0.720606781458886,0.3727252357149611,0.705054418376631,0.2518477781450892,0.9575489285817133,-1.0812179136231856,1.06849359339324,0.38046780233569977,3.118129275261357,0.8611529657125286,-2.2702788342411147,-2.7797884420879,-0.3335074072549527,-0.4280638797362799,1.168121544244485,1.5267248178664699,-1.2876215419650041,0.645116243323559,1.3491331877854356,-1.4385420876042796,1.3730669359360974,3.0811667942117844,-0.215018485813171,-0.14632643515511007,1.2761685618045953,2.3665129768378095,-1.6050665431721656,-0.006272466446336579,-2.801076888285897,-3.041415750877265,1.9159967657425365,3.619488790810037,-3.782850002908729,1.616023857837521,1.1256870341314267,0.8442112289265662,3.5543046814976793,2.0010316043051746,-1.8933527275126834,-0.4427304351600186,0.41212720646014267,-1.486644120065698,-0.501264012094895,0.8063726298840802,0.01051896551829738,1.8622699488866832,-2.258334333647309,-0.4339274045125602,-1.063348709005962,-0.6182352753587854,-0.5151249503073339,1.7557399369898794,-3.4734301234285057,-0.7459953812679706,-1.301197986522591,-2.00119892338068,-0.5575186418921495,0.02345042293589104,0.49363957350251625,-2.8214707460348527,3.1011048284389027,-0.46054948812225377,1.209395645246211,1.0084038498616317,1.8875428823388603,4.762286429028275,0.6766777383946021,-0.039700806346977494,0.6739436617258316,-0.7630892072941761,-1.5943478464073326,-1.1586780471849882,-1.306707446780205,1.2073649381018672,0.9394343886088522,0.04102078693469436,-0.10150840514823009,0.9804887242419215,-0.2569932465684323,-2.604883941967513,2.2097847165204145,-0.954379215740473,-1.657801558578449,1.3756777974447918,3.5789506586964164,2.023706657293049,1.4311480135258627,2.167651891618619,-2.106031019208411,-0.4701117960142761,-0.5649058018459377,-1.0511266533088854,-0.9548228539769823,4.266877290424057,0.5199390467222053,-0.007493383860141581,-0.994730008644484,-0.852831220484627,-0.5690582432923623,-2.2683791230767096,1.8186204029308726,-0.48653480442105707,-1.1576941385569552,-0.2832540668225663,0.5057762207469505,0.3657787579024959,4.352727851186009,0.013646534925621635,-3.1293303272819024,0.7025264796459191,-0.35456340377232853,-4.10681249706327,-3.2906775964042967,1.0406390218297212,0.03645112393113361,-0.05440964108638132,-0.4701054629648787,2.0991618801497745,0.912995925116588,1.5027214335655985,1.0750599345911145,2.467941097385083,0.7130567034116592,-0.8956238988384434,-0.4622349588385233,-0.6640053454583268,0.6732799554576772,-1.5404367534952794,1.6320473526576578,0.3078552759193748,-1.9384846007708458,0.14158235587445966,-0.44514721965841736,-1.3661330805612204,-2.121217414362458,1.7049176669328328,2.0840969355866616,-2.9446633009089016,0.2835327360975886,0.703481185324813,0.9166625206703033,1.8242633130218135,-3.4830376637692226,1.6316855450580257,1.5580272006432108,-1.3011184941897667,0.9912696660672531,2.872511861790123,2.345623847439291,-0.36443472334973026,-0.41092742700693535,0.5081278533674034,-0.6203816822574473,0.8557396184917901,-0.59919900619068,-1.9119252900936767,-0.8853118370981834,0.24008281976641832,0.43902879668456746,-2.191647721724132,-2.119599693062417,-0.08197022121946757,-0.7760837347456633,0.23081821673001154,0.21410410929154525,-0.8223516754110229,-1.8597734112632873,-4.902766067018178,-1.205026484600257,-0.346216490176056,3.4534809546090943,-1.514275110854659,1.2747206721856519,0.3739029502445928,-3.198827872139981,0.06894852342203699,-0.7404167349383645,0.7836215432410906,-1.182867578562175,-0.1684107662160111,0.6990748661073747,-0.3700851986241983,0.6106623698078412,-0.15758149602422553,-0.07342345132794457,-0.965349158237845,2.2811440819141167,2.660837151589663,0.25049557683737533,1.7827736492420354,0.44144704690447517,0.774581112341924,0.10025872599422422,-0.7357156035708121,-0.6343249760020001,-1.6109819589561027,-0.10422438036129678,-1.0793857262911086,-0.12611244606978578,1.0862275825147507,-1.5168545456362768,0.2776120006687688,0.9443042061780976,-1.9504821336160219,-2.5589022475298333,-0.1804860121430492,0.5361437693704678,-0.1575995827926937,0.814272829606778,0.7752985136059138,-0.6923986438134203,-0.5518363206778597,1.033547694924759,-2.0287829459981315,0.4917996999712491,0.4405696612374111,-0.7956130980225746,0.5844140233448566,-2.9648371327486034,1.3548442513944428,2.763891756790167,-0.2888999399738631,2.050613049739162,-0.15548055359019314,-1.1118711766951888,3.0400787814852688,2.08104101121186,-2.382726983336014,1.612485104208654,-1.07171633096023,-3.732554476597518,0.25260513500182635,-1.4781277806814443,-1.0221738214229106,0.3258792408428984,0.6223191958608496,0.43425698811569013,-0.18716400004149292,-0.22746319009010793,1.4480604632745357,2.960176819616126,-1.8634470702120207,-2.6625873669456186,-0.10414229611422986,-1.3073322973734471,-0.5975721385502606,2.0911954545328926,1.2070386115513303,-1.2783457150921245,4.088248706948766,-3.718214528270524,1.2167030831580026,-2.190467195757935,-3.56154398843098,0.41070114112268485,0.06714116439646273,0.28457817064817187,1.9747599847170185,0.8406964188979081,-0.5301123082182477,-1.715166192341664,-1.1993118028825276,0.5773848229637674,-0.8769831791031183,0.9535730476509912,-0.48704927702493905,0.06300806396633579,-0.3644404366792101,1.7792870674182384,-0.9769665953909177,-1.8162350441542106,1.6073028688961366,0.4821628120644271,-0.6041275876193233,1.374764557203677,-0.47174878181211294,-0.5604666718468794,1.6707281522710014,-0.11526242642093835,1.4888967685786016,4.436967662387162,0.8854082949989709,-2.312285601270184,2.863667927513424,-2.19207563006885,-1.8101843740116659,-0.46205065012829644,-0.2507716146371678,1.0934464712440353,-1.4902515062054238,-0.5081601248932321,0.556388041736099,0.025448015284354364,-0.20174170303282388,-1.5882080910378307,-0.058787849993863585,-0.4651632719529884,0.1717268300643921,-0.6939394072778724,-1.2295246244417568,1.4059108574273096,-1.5515351482251285,-1.4585128181957896,0.42077416981800575,2.0008592419061584,5.505701121291324,-2.8597870678714292,0.6317446942927187,-1.360398820328532,0.8888749209738009,0.04654238088206031,-1.149506694861202,-0.8118818561156196,0.9993472632497856,-0.4985203123140593,-3.4217763950942026,-0.30505098266099173,-0.27436753511512696,0.505070814197949,0.018588123827710037,-0.4318921215296556,0.24077478018149492,-2.1676031065042882,0.573898499349157,-2.6295271681549086,1.4658091289514175,1.1358872032665388,-0.8520886531118741,1.3894662051974673,-0.7078942581503064,-1.6914683884255335,-0.6682631627296909,-3.078515791621183,-0.36420509771991594,0.2993655864706575,-0.19461323224016958,0.10752762036435,0.44110519570972473,-0.9232600666348618,0.8649064509156951,0.08255550684636834,-0.831938322405502,1.683673421800112,2.5786608107296853,1.7588156346955304,-0.35312810098964803,0.7953095693700369,-0.9841234634222428,-0.2886522479529099,-0.7472328326904791,-0.08680261710096157,1.6465970251437683,2.9454127231541936,-1.1286972050256714,1.9636136973234426,1.963304046309216,-2.5009894363810354,-1.150753087001682,1.8194486677569093,2.9327355208755614,-1.3074671056310905,3.619059931095202,2.0584232935726443,0.1588710472953931,0.17090412525484328,2.7293826849916067,0.30263996065997834,0.3819081207559613,0.2611739557457364,0.32298239916517013,0.7824704709213416,1.6255897842015399,1.8700788660353833,-0.2510973179503955,0.7169695326082813,-0.5955223243993069,-0.14219795640231658,-0.6055998175994587,-1.4030332825409995,0.43003625362744874,2.0173261978284964,-0.5203498010005496,-0.00801642713295994,3.2489076575559364,2.2986065422404183,0.10304560646029458,-0.07618944485288368,1.9640963058623118,-0.5745602614639922,0.4486277068706355,-2.279839819512995,0.800007965835735,-2.2478729575067624,-1.3995971637351214,0.5570657196184119,1.400285488546196,-0.3677050755106886,0.48425216976158053,-0.41074949940678246,1.8971088167874373,1.3047329488430444,0.3549486754860961,0.41365316876640706,-0.4106585411092762,0.1395154090347237,0.9053079583496466,-0.17903047460071675,2.0287834835057494,-3.0527179376637217,-2.527502234799278,-2.4675033985313273,0.7649762227529174,-2.020283351462446,-1.5971994738329174,0.6811696274447556,0.11787429585712163,-0.5145272876262661,2.5245550663714416,-1.3341301938982062,1.126933438046174,-0.7655610211230193,1.7607038426521018,-1.9818271264642326,-0.8280162246368403,2.1720973646782595,4.100547502593955,-0.4020440476374369,1.9426536444787939,1.7139273440342044,-0.568610096554538,-0.7620189699516136,-0.48013792357260776,-0.782471675250112,-0.08154338044260911,-0.5356947425597108,0.5646389368641167,1.0052051605952974,-0.7290636457352325,1.7984851257115795,3.710780033935696,-3.153429189740483,0.2814475392978684,0.9011198193148993,0.8749082237413327,-1.1466821576463095,1.2698870537458342,2.140631053825806,-2.988798325225963,0.8727172349235087,-0.010553139747897022,3.082502307552517,-1.3486637615244927,-0.18286253654297135,-0.8938321692502204,0.9474531702727979,3.1494734410011263,-0.5191488785082208,0.8116814252165748,-0.8955029463287805,0.5753357909714336,-0.7448980440007857,-0.9144208612632364,-0.7223169054266093,-1.717859366475652,-0.7525455784266891,-0.21232075556904156,1.7604947787903793,0.7243289533864103,1.9418740925928601,-4.546918427869656,-1.5086975324446623,2.23139263753684,-1.4205674760446823,1.2048018054629348,-1.3225929234001133,0.5337312753585033,1.1733398034742462,-2.040328528792109,1.3130395376268225,-0.6340455612145469,-3.0693674094930996,2.6280880837134584,1.4181640089844185,1.54556146084097,-0.33798465207863493,-0.5005698712513317,0.9166183213468658,0.6330456462136509,-0.7196768109555687,0.49188267074374714,0.09041971604290544,-1.7192121639614044,-1.0319069396245792,-1.72818344689975,-0.5150917199664011,-0.5711512960841724,2.944302475734986,-1.111613906152597,-0.818025755273491,-1.366582371148456,-0.1298161615155554,0.18388717215519787,2.54802522672967,-0.44917325382574613,2.2356811686758724,-1.7634898184450627,0.016931815884993238,-1.1441776082891688,-0.25932457924527036,-1.1503420284049617,-0.8591541371169865,0.13603402867848272,-0.41718387869052986,-0.8872700419377226,-0.3742324733924016,-0.5337515516606743,0.9422548598663314,-0.4711946730758707,0.3918597620476987,-0.71797998117142,-0.24853203109434802,-2.598545131352478,-0.7749884077289336,-2.8697039798671637,-1.3220327414031545,-1.2418957411938836,1.54550496598796,-1.6281769079729524,-2.968313864833597,-3.028567646204541,0.830028832191666,-1.1568405139117899,-1.397739303439164,0.3892481023993117,-0.7574547106510375,-1.9536340156688365,-1.1741428988279596,-1.3897773281625088,-1.2198985662536324,0.4633448392089205,-0.778716399824531,-0.5616460475069034,-0.9593853038041456,-0.15824381363336126,-0.5993433307658149,-0.7379800439894415,-0.9369905812807844,0.979175201941458,0.7817068701621658,-1.103029438633719,-1.1584959353034086,-0.619616889117239,-1.1688248730802506,-2.186680636223865,-2.157468596558059,-1.6943443989274944,-0.26502861340299355,-0.7781114802378083,-2.43938969897094,-0.1278838720129165,0.3429083050994022,1.7137714631714829,-0.28324795810563114,-1.6452138557626954,-0.3836094735454404,0.5037280662463364,-0.12640365424854128,0.9016809805832275,-0.9447022061877208,-0.1716624279836756,0.01898755212796188,0.9628012611492978,0.9878182932535268,-0.3797481316891054,0.3208311206817125,-0.6802207056849376,0.994409508905222,-0.3297359188587197,0.6165416193705019,0.8824740607533379,0.32034433390157663,0.6194035106409861,0.6686761802145547,-0.9151787000377597,0.20547266148032872,-0.6748157315114957,-0.8944025955191784,0.4113492343475099,-0.5044204842057218,-0.5024911644407868,-0.50394161545382,-0.4082215198753255,-0.9437215714178759,-0.6899585220815809,-0.04792827685488468,-0.21808322176843253,-0.7708945866759918,0.9441448946960672,0.6828948627359983,0.7159321462706252],[0.09860225902602736,-0.0027195924790603954,-0.9326409000859088,0.8786864056598425,-0.3583358162484107,0.7025145287246233,0.184093531474389,-0.7378417058816973,0.6237071387062079,-0.6866866029865082,0.8679275753400661,-0.6166964176469965,-0.29337540005535256,-0.9080355675419604,-0.389202081496709,0.7898302432145314,0.02363553239721461,-0.6839480788468135,0.916458140962304,0.32136553049741234,-0.3073161499049746,0.5253870947562003,0.09639306331178377,-0.030198403433974175,0.924331024820262,-0.4640840996234557,-0.3866738251677164,0.5952921696938143,-0.4398381433512084,0.8312007378552471,-0.3017563323632295,0.1960142361839119,-0.07979258728660832,0.7101326690518195,-0.8462021850348369,0.41204290794057286,-0.37827443929140026,0.3465824141701185,0.2829885732075861,-0.23012641153368596,0.4195929722606381,0.8385207711661139,0.053916790147544795,0.37721623065494,0.19346700397263056,0.9180365200269621,0.9408181554961993,-0.14148613511845376,0.40502086880129795,-0.07259222239710966,0.23421227046496607,0.17043772900038093,0.29215418109841207,-0.5229966935002259,0.3720522554354973,0.48722617389146783,-0.3914841842820145,0.7714606343600794,0.45883481883697774,0.35933686119063757,-0.47085562873399944,-0.9221997704067262,0.11587566783212502,0.756030105961641,-0.0162365013695297,0.8199396971653387,0.45585519339060687,0.8011152854047264,1.6412274543683558,1.8883847202429012,3.4439716164376155,3.081400644346605,2.6486345296630103,3.152599389642306,1.6161615387002581,1.7488301704370217,1.745409941312769,3.075495425719864,2.6790648599506435,0.5221652115536386,-0.8595445635054942,-0.2087657515664043,-0.4103923909077638,-0.7825836146558651,0.006651560936448808,-0.31415780271284666,-0.4406356008617765,-0.36766466323965785,0.23611841119639787,1.1158521223903584,1.638631651340199,0.1242921473509526,-0.6640397543770015,0.9654880268512103,1.5388568266706102,4.687805095880992,-0.4387153914997305,-3.904594912551585,4.548047387024018,0.311076111805688,-0.7428036901635191,5.8801845536834,1.6612837719090288,4.399381137227132,2.805552801884341,1.107873668869527,-2.540038005093413,-1.3597796734701377,-0.9410535729153867,-0.2477235662185484,-0.533879087556183,-0.9950547456727332,-0.3752092761026484,-0.7402327314177743,0.5690238428669354,0.5086770112449833,1.0627750413693045,2.189274615479524,0.746948867376536,2.2533797582280037,1.6976599384054254,3.240646017710702,1.119492905510862,-3.7304788369534405,-0.08669562916508958,1.6016838301511418,3.6476957519123054,-3.794592349617374,-0.11295860165878736,-2.9021682040819314,0.5319168893473786,-2.382802507771522,-1.2959681352962953,-0.8544957668775286,-4.866515373688393,0.08971977809459832,-3.1669319149403985,-3.35322002453554,-0.03400275821168909,0.6246339758754598,-0.24455826908173317,-0.7021044847299363,0.8250325526918805,-0.0823384652213544,2.113217140898019,2.905017463418628,-1.0281249737167089,-4.627352926851783,-3.4024668891684104,3.821147089477127,-0.11303960554289436,2.132721211392921,2.1932731990768994,-2.582177510359727,2.3193832891165536,-0.2748688237789793,2.1154273635659178,-3.947484280596613,0.44895269213407085,-0.8951650595651641,1.086771319733228,3.164403574388623,-8.656044935087708,3.2538845935746954,-2.825891922372977,-0.8965016015472983,1.14368672705108,-0.14325735207327012,0.4625664583900222,-0.23677109483097225,-0.16436477537568236,0.21855051149671928,1.8211013236900153,-3.837926243752768,-3.996301825569569,-2.63742825654696,-0.43759106475354737,-3.6439423323747784,-0.9224348317272788,0.2277579209505045,0.4204944997909421,-1.169649736934419,2.9626652266770117,1.2829704806856272,0.5342698258084628,3.155566064162529,2.0292813401419156,0.4971249972361378,-2.606236525439589,-0.42121981691210575,2.7393891305579845,2.875915205832069,-2.6567235880882962,-2.9177364496927902,-1.101532282781787,0.3174264115391238,0.2474135430876697,-0.9784490104187943,0.5637183759579023,0.599751458636873,0.7811592612477524,1.9824859886087909,-0.69546706982837,-1.7692766873905175,-1.2282085735059687,-1.9308115435824658,-0.9580412073367088,0.05453477205007945,-0.11309913319496592,0.5581637823419561,-0.804968661225769,0.6203599904757523,0.7132530794878176,-2.153863061432709,-3.865922076160038,-0.8917000313352299,0.27392507959590495,-1.2139026053580573,-4.926316991366886,-2.6865280910562577,-1.5550460070660075,-1.5928663188762031,0.14073487803837162,0.762648746064991,0.15301289870202742,-0.03471106116156454,-1.4382239406650517,0.07596802492396165,-1.3202106394368538,-2.494630254093075,1.2509108493195613,6.075968624365018,-0.7869366370640765,0.739615044830991,0.2672272567422272,-0.45923565876412276,-1.1136762551903134,-0.4729646503709844,-5.954752195755812,-1.6966341028852543,4.608473849232554,0.9993147668840939,-1.3836579872583459,1.6419164065517309,-3.122445732228468,0.11201850870593182,3.2996895429000057,-1.4688455913162837,-2.0312312493319307,-6.363221593767173,-1.0405601579385992,-0.6285529321603848,-0.412651423139909,-0.8437220638163025,-0.7613993551891209,-0.8623304385246103,-2.607825630769907,-4.459448787287162,2.2003931948812947,1.9010985520503103,-2.4266993250193867,-0.8641823336139953,1.8847278360529454,-1.646635298169891,0.8143249690462646,4.0797524364795565,1.9482767319438512,-3.2884845493033596,-4.0921759602046475,0.19199418326980963,-3.0541484062022444,2.968342852599187,2.0050158964694633,1.0706869292391974,1.6825936398894612,4.675100505406005,-0.9187979075472836,-4.865335414673934,-1.2059743929017055,0.5445400383211484,0.4989386101585605,0.6237759100490362,-0.8540352750172292,-2.2559605493954917,-2.6717282414587826,0.24993740334167827,-0.8300240115974513,-1.131167018933113,0.7177662146311633,1.8807380856720055,1.396436388121783,1.1990654907174942,-0.32447082510587144,-5.005554692604678,1.5461994221262763,-2.9799121623367273,0.6944515096573591,3.095232157556769,-0.5654136707234936,0.10256045821762273,0.2045975102055952,0.4911562263981469,-4.0754509758975095,-2.7592463508114653,-2.4730477248757556,-6.664691758167684,-1.469778268722356,-0.23689515892100016,-0.04392638973628315,0.9608058661455647,-1.115698369801599,-1.295836870165583,-0.9152275358911743,1.6985547904160705,-2.7311413812733725,1.4221678014874322,1.5715613896556437,-6.1337394710388,-0.12286286768143476,-1.539147726498557,4.277682831480002,2.317747139281805,-2.7665758639491087,-6.656695367335158,-1.5339251594268164,0.48612481688504766,0.13118487852536856,0.43011910827630506,2.897105892759858,3.849999798686347,2.958082559981582,0.7621997339372789,-0.19037777767143424,-7.7489219363399675,-2.395358718731161,-0.18752372295865058,0.10842705352866289,0.733578042535863,-0.05701966806916478,0.23052485711332046,-0.9613702543729977,3.897948415391393,0.7977711842480278,-0.8991384114762503,0.5708366593483045,4.829377091548824,3.5280669354818355,-1.9301126102959485,-1.5893104661719462,-2.9859450837343657,1.9538386348240018,-0.47894249956058604,-1.134896061414422,-4.086067821322103,-0.6787735035828989,0.7060329858400755,-0.21212143510657236,1.3946361488790657,4.776611957014759,7.265181651719756,1.6047736228854845,-2.6628040735660785,-1.99423851413027,0.5226519066734988,0.06574613087746517,0.7635428299708443,0.3405501230878523,0.7382646708920799,-1.4555094890223768,-0.8156224739721939,-1.5485028186278667,-4.1491407323771945,0.37834132168790235,-1.5276883289707863,-1.0773348110871594,-0.7516776671320614,-0.004195550453953492,1.3889686781528052,-3.095516312000396,-0.9134895328147515,2.492278051822396,-0.9897933032588024,3.5648484827299733,1.5032481511315796,-3.49903216704644,1.0839230833183662,2.3542265381000815,4.1235459860106065,3.3294285624795235,-0.9492218975470885,-0.5785346835597379,-0.3739282522620944,-0.8537529903956884,0.2720388584359932,1.1038749826551426,-0.40506916304225776,-1.022560626392868,3.1333905789834713,1.1058175079655375,3.759022184352638,-1.7245581415306463,-0.3384284332666543,-1.1047638651769647,2.2943094581103463,