{"layers":[{"biases":{"cols":1,"data":[[0.5518359913882936],[4.056731204267174],[0.5402548501822247],[-7.28771684572213],[-5.264873067722805],[5.2951709265007905],[-0.5915296462032417],[-8.242695129308895],[1.5564139395850776],[-5.064933318738263]],"rows":10},"input":{"cols":1,"data":[[0.0],[0.0],[0.0],[0.0],[0.0],[0.0],[0.0],[0.0],[0.0],[0.0],[0.0],[0.0],[0.0],[0.0],[0.0],[0.0],[0.0],[0.0],[0.0],[0.0],[0.0],[0.0],[0.0],[0.0],[0.0],[0.0],[0.0],[0.0],[0.0],[0.0],[0.0],[0.0],[0.0],[0.0],[0.0],[0.0],[0.0],[0.0],[0.0],[0.0],[0.0],[0.0],[0.0],[0.0],[0.0],[0.0],[0.0],[0.0],[0.0],[0.0],[0.0],[0.0],[0.0],[0.0],[0.0],[0.0],[0.0],[0.0],[0.0],[0.0],[0.0],[0.0],[0.0],[0.0],[0.0],[0.0],[0.0],[0.0],[0.0],[0.0],[0.0],[0.0],[0.0],[0.0],[0.0],[0.0],[0.0],[0.0],[0.0],[0.0],[0.0],[0.0],[0.0],[0.0],[0.0],[0.0],[0.0],[0.0],[0.0],[0.0],[0.0],[0.0],[0.0],[0.0],[0.0],[0.0],[0.0],[0.0],[0.0],[0.0],[0.0],[0.0],[0.0],[0.0],[0.0],[0.0],[0.0],[0.0],[0.0],[0.0],[0.0],[0.0],[0.0],[0.0],[0.0],[0.0],[0.0],[0.0],[0.0],[0.0],[0.0],[0.0],[0.0],[0.0],[0.0],[0.0],[0.0],[0.0],[0.0],[0.0],[0.0],[0.0],[0.0],[0.0],[0.0],[0.0],[0.0],[0.0],[0.0],[0.0],[0.0],[0.0],[0.0],[0.0],[0.0],[0.0],[0.0],[0.0],[0.0],[0.0],[0.0],[0.0],[0.0],[0.0],[0.0],[0.0],[0.0],[0.0],[0.0],[0.0],[0.0],[0.0],[0.0],[0.0],[0.0],[0.0],[0.0],[0.0],[0.0],[0.0],[0.0],[0.0],[0.0],[0.0],[0.0],[0.0],[0.0],[0.0],[0.0],[0.0],[0.0],[0.0],[0.0],[0.0],[0.14901960784313725],[0.18823529411764706],[0.18823529411764706],[0.08627450980392157],[0.0],[0.0],[0.0],[0.0],[0.0],[0.0],[0.0],[0.0],[0.0],[0.0],[0.0],[0.0],[0.0],[0.0],[0.0],[0.0],[0.0],[0.0],[0.0],[0.0],[0.0],[0.24313725490196078],[0.3803921568627451],[0.7764705882352941],[0.9529411764705882],[0.996078431372549],[0.996078431372549],[0.8313725490196079],[0.10588235294117647],[0.0],[0.0],[0.0],[0.0],[0.0],[0.0],[0.0],[0.0],[0.0],[0.0],[0.0],[0.0],[0.0],[0.0],[0.0],[0.0],[0.0],[0.0],[0.0],[0.2627450980392157],[0.6745098039215687],[0.996078431372549],[0.996078431372549],[0.8823529411764706],[0.8549019607843137],[0.8549019607843137],[0.9294117647058824],[0.9725490196078431],[0.1568627450980392],[0.0],[0.08235294117647059],[0.6431372549019608],[0.7333333333333333],[0.0],[0.0],[0.0],[0.0],[0.0],[0.0],[0.0],[0.0],[0.0],[0.0],[0.0],[0.0],[0.0],[0.34901960784313724],[0.8588235294117647],[0.996078431372549],[0.3803921568627451],[0.2627450980392157],[0.054901960784313725],[0.0],[0.0],[0.3607843137254902],[0.9058823529411765],[0.47843137254901963],[0.09019607843137255],[0.796078431372549],[0.9254901960784314],[0.23137254901960785],[0.0],[0.0],[0.0],[0.0],[0.0],[0.0],[0.0],[0.0],[0.0],[0.0],[0.0],[0.0],[0.09803921568627451],[0.8509803921568627],[0.9490196078431372],[0.3607843137254902],[0.01568627450980392],[0.0],[0.0],[0.0],[0.0],[0.01568627450980392],[0.5764705882352941],[0.9921568627450981],[0.9411764705882353],[0.9098039215686274],[0.3607843137254902],[0.0],[0.0],[0.0],[0.0],[0.0],[0.0],[0.0],[0.0],[0.0],[0.0],[0.0],[0.0],[0.0],[0.396078431372549],[1.0],[0.3607843137254902],[0.0],[0.0],[0.0],[0.0],[0.0],[0.0],[0.4117647058823529],[0.996078431372549],[0.996078431372549],[0.6941176470588235],[0.043137254901960784],[0.0],[0.0],[0.0],[0.0],[0.0],[0.0],[0.0],[0.0],[0.0],[0.0],[0.0],[0.0],[0.0],[0.0],[0.6549019607843137],[0.9568627450980393],[0.1607843137254902],[0.0],[0.0],[0.0],[0.027450980392156862],[0.2980392156862745],[0.7803921568627451],[0.9333333333333333],[0.9372549019607843],[0.3686274509803922],[0.0392156862745098],[0.0],[0.0],[0.0],[0.0],[0.0],[0.0],[0.0],[0.0],[0.0],[0.0],[0.0],[0.0],[0.0],[0.0],[0.0],[0.7529411764705882],[0.4745098039215686],[0.0],[0.0],[0.00784313725490196],[0.24705882352941178],[0.7058823529411765],[0.996078431372549],[0.9137254901960784],[0.49411764705882355],[0.0],[0.0],[0.0],[0.0],[0.0],[0.0],[0.0],[0.0],[0.0],[0.0],[0.0],[0.0],[0.0],[0.0],[0.0],[0.0],[0.0],[0.0],[0.7450980392156863],[0.7686274509803922],[0.054901960784313725],[0.00784313725490196],[0.3803921568627451],[0.996078431372549],[0.9882352941176471],[0.5725490196078431],[0.20392156862745098],[0.0],[0.0],[0.0],[0.0],[0.0],[0.0],[0.0],[0.0],[0.0],[0.0],[0.0],[0.0],[0.0],[0.0],[0.0],[0.0],[0.0],[0.0],[0.0],[0.5098039215686274],[0.8823529411764706],[0.2784313725490196],[0.7058823529411765],[0.9098039215686274],[0.7098039215686275],[0.23529411764705882],[0.0],[0.0],[0.0],[0.0],[0.0],[0.0],[0.0],[0.0],[0.0],[0.0],[0.0],[0.0],[0.0],[0.0],[0.0],[0.0],[0.0],[0.0],[0.0],[0.0],[0.0],[0.5098039215686274],[0.996078431372549],[0.996078431372549],[0.9019607843137255],[0.1803921568627451],[0.0],[0.0],[0.0],[0.0],[0.0],[0.0],[0.0],[0.0],[0.0],[0.0],[0.0],[0.0],[0.0],[0.0],[0.0],[0.0],[0.0],[0.0],[0.0],[0.0],[0.0],[0.023529411764705882],[0.30196078431372547],[0.9568627450980393],[0.996078431372549],[0.6352941176470588],[0.01568627450980392],[0.0],[0.0],[0.0],[0.0],[0.0],[0.0],[0.0],[0.0],[0.0],[0.0],[0.0],[0.0],[0.0],[0.0],[0.0],[0.0],[0.0],[0.0],[0.0],[0.0],[0.0],[0.0],[0.43137254901960786],[0.996078431372549],[0.8549019607843137],[0.996078431372549],[0.4549019607843137],[0.0],[0.0],[0.0],[0.0],[0.0],[0.0],[0.0],[0.0],[0.0],[0.0],[0.0],[0.0],[0.0],[0.0],[0.0],[0.0],[0.0],[0.0],[0.0],[0.0],[0.0],[0.0],[0.5137254901960784],[0.996078431372549],[0.6039215686274509],[0.10980392156862745],[0.8352941176470589],[0.33725490196078434],[0.0],[0.0],[0.0],[0.0],[0.0],[0.0],[0.0],[0.0],[0.0],[0.0],[0.0],[0.0],[0.0],[0.0],[0.0],[0.0],[0.0],[0.0],[0.0],[0.0],[0.0],[0.25882352941176473],[0.8196078431372549],[0.6],[0.07450980392156863],[0.07450980392156863],[0.9137254901960784],[0.23529411764705882],[0.0],[0.0],[0.0],[0.0],[0.0],[0.0],[0.0],[0.0],[0.0],[0.0],[0.0],[0.0],[0.0],[0.0],[0.0],[0.0],[0.0],[0.0],[0.0],[0.0],[0.0],[0.5568627450980392],[0.996078431372549],[0.6470588235294118],[0.0],[0.054901960784313725],[0.8470588235294118],[0.6549019607843137],[0.0],[0.0],[0.0],[0.0],[0.0],[0.0],[0.0],[0.0],[0.0],[0.0],[0.0],[0.0],[0.0],[0.0],[0.0],[0.0],[0.0],[0.0],[0.0],[0.0],[0.0],[0.35294117647058826],[0.996078431372549],[0.6862745098039216],[0.0],[0.07058823529411765],[0.8980392156862745],[0.3607843137254902],[0.0],[0.0],[0.0],[0.0],[0.0],[0.0],[0.0],[0.0],[0.0],[0.0],[0.0],[0.0],[0.0],[0.0],[0.0],[0.0],[0.0],[0.0],[0.0],[0.0],[0.0],[0.10196078431372549],[0.8980392156862745],[0.9764705882352941],[0.6901960784313725],[0.8705882352941177],[0.9568627450980393],[0.17254901960784313],[0.0],[0.0],[0.0],[0.0],[0.0],[0.0],[0.0],[0.0],[0.0],[0.0],[0.0],[0.0],[0.0],[0.0],[0.0],[0.0],[0.0],[0.0],[0.0],[0.0],[0.0],[0.0],[0.28627450980392155],[0.7568627450980392],[0.7725490196078432],[0.5254901960784314],[0.0],[0.0],[0.0],[0.0],[0.0],[0.0],[0.0],[0.0],[0.0],[0.0],[0.0],[0.0],[0.0],[0.0],[0.0],[0.0],[0.0],[0.0],[0.0],[0.0],[0.0],[0.0],[0.0],[0.0],[0.0],[0.0],[0.0],[0.0],[0.0],[0.0],[0.0],[0.0],[0.0],[0.0],[0.0],[0.0],[0.0],[0.0],[0.0],[0.0],[0.0],[0.0],[0.0],[0.0],[0.0],[0.0],[0.0],[0.0],[0.0],[0.0],[0.0],[0.0],[0.0],[0.0],[0.0],[0.0],[0.0],[0.0],[0.0],[0.0],[0.0],[0.0],[0.0],[0.0],[0.0],[0.0],[0.0],[0.0],[0.0],[0.0],[0.0],[0.0],[0.0],[0.0],[0.0],[0.0],[0.0],[0.0],[0.0],[0.0],[0.0],[0.0],[0.0],[0.0],[0.0],[0.0],[0.0],[0.0],[0.0],[0.0],[0.0],[0.0],[0.0],[0.0],[0.0],[0.0],[0.0],[0.0],[0.0],[0.0],[0.0]],"rows":784},"inputs":784,"output":{"cols":1,"data":[[0.9999999592805578],[1.113956074853403e-37],[1.0],[1.0],[1.7640554023256197e-30],[0.9999999999999996],[1.0],[0.9999999999934994],[1.353881558970652e-11],[0.999999999653866]],"rows":10},"outputs":10,"weights":{"cols":784,"data":[[0.2800940678650936,-0.542579944050499,0.5811395502099967,-0.3500140915155392,-0.8969810718521314,0.5165985609245995,0.9209185719347246,-0.26989556474591425,0.7483394151866944,-0.031248381005055222,0.9854393233853382,0.6909313658284157,0.2067028972304368,0.1937623889804475,-0.10879344343836365,-0.4589905224567972,-0.18404972874735528,0.14283713649379615,0.60202860303438,0.46817942645453026,0.6543100403397555,-0.3861614511841225,-0.28499795353052404,-0.6987948742816841,-0.10032481213858646,-0.16311598760063695,0.8629547101170985,-0.22390332492369813,-0.6405184214083792,0.4084013089897529,-0.22362282122530977,0.9427892500408166,0.6256148408843186,0.2845904956001013,0.19075971200567046,0.6008433928211909,0.420714683592271,-0.22642123441397516,-0.8470343075002554,-0.2168615650856556,-0.9394317981678311,0.20485520571418547,-0.3022321111139216,0.240815380013772,-0.4400731719582862,0.04957126817162129,-0.5766768743140674,0.07479548914301856,-0.10071776551677138,0.29026138922910816,-0.18363909539489146,0.6048849668935292,0.4964849129883455,-0.29239523607614415,-0.16785134132401103,-0.24065132315087576,-0.03700669374617749,-0.7462258571833909,-0.6324853356296427,-0.6161232981165059,0.5033336516012535,-0.1147666361703588,0.08920794377805297,-0.11269301607150078,-0.7300379523207081,0.725940639476188,0.3600152381167473,0.20561625852889676,0.7725769726757189,-0.371601291269324,0.4460054558039026,-0.9758587354895142,0.8948843706952813,-0.13551297444270718,0.832929104664353,0.007597537094742456,-0.5846395349390024,-0.1249851982126611,-0.9936992556874193,0.44827025451756464,0.11626136481600123,-0.6907739812076743,-0.13226552252357093,0.46325022780615543,-0.9411970843863432,-0.47556535781362874,0.12276304171682187,-0.11199847521377129,0.3786127954567689,-0.22569245121435239,-0.35579053164151825,0.08365490294834727,0.9576187529766124,0.6317844768134634,-0.0574593564704803,0.7650395683829626,-0.3159833135192594,0.4072736406395445,0.7524733515533311,0.7425912150014907,-0.6197527449440273,0.6733219709885419,-0.8356625213617548,-0.24949541556607932,-0.9920052295972702,-0.22057146283839768,-0.9902231706591326,0.16434915376645898,-0.6816901334031509,-0.5196047340765583,0.08916193024162913,-0.15740269875687218,-0.5187287827596776,-0.7812912367382264,-0.7727662327318161,-0.518592789222275,0.35823280466136226,0.5642948765423171,-0.18224560900585304,-0.776606152011843,0.4463421940367155,-0.11516299194393687,0.07125597580851978,-0.6525807525787899,-0.3764888267182843,-0.5045128272253281,-0.1568450007920626,-0.1297503819348149,0.38349935030940263,-0.23907928382055754,0.06083889306090239,-0.7488145290114125,0.5064893878592075,0.2984260632667409,0.08018942717129836,0.44776987487012,0.8693945178882679,0.5990235647289026,-0.3872708091233271,-0.4464254508577099,0.15294888339304635,-0.23240897451774956,0.5162325707559754,0.5456422749360037,-0.18323300693498198,0.8570634693550143,-0.2996614214792119,-0.16353082027581994,0.17020589206470121,0.27300401226776166,0.7126835747879207,0.6946966705448898,0.8138596294776654,1.2315298268628883,-0.3695737689525866,0.9910100885541971,0.4011969431958713,0.9909127439644883,0.9911284664371934,0.9264296293397957,-0.7925330378542351,0.26969508247819834,0.1493191620955095,0.21934508989733104,-0.4476664260526734,0.5074909673199288,-0.5910952767338448,0.6351328931121615,-0.3802931698382981,0.6187321959644727,0.5591445938653499,-0.9466341370177235,0.5607035794391296,0.11912308656725396,1.0170502171326432,0.7165338522157095,0.7403797240165659,-0.6757272352474538,-0.2995496452603763,-0.2998333123803911,0.5089835975168097,1.1051174460427542,0.7407708757831704,-0.5148274801836761,0.14088051939667925,0.035073842902341654,0.702834841564623,0.10662083433410456,0.9867019394379831,0.6113112049427415,0.9214871237978359,-0.6328342793505142,0.7744634491048669,0.04280499632914757,-0.8167450953223586,-0.35100523910310455,0.7601860344976676,0.352069414584783,-0.6900994343632353,-0.7612543245118768,0.18595329661861065,0.15150442373934328,-0.15188623784218638,0.801953690497935,-0.3030310648978765,0.7881120295373736,-0.25651620109180784,0.28634604023011695,-0.3406467482982094,-0.27374946569631137,0.8675409509443763,-0.1398371606365273,-0.2855618566216144,0.47099557537159703,-0.5192232324372564,0.22452593235417903,0.16081664725297276,0.623644290888394,0.5630486663148527,0.026740704197318055,-0.608682539542881,-0.8997762205242285,-0.48998189974381096,-0.2722890496018717,-0.7571909541172661,0.7102245371574664,-0.7358167404102702,-0.8982509434903323,0.5900895577947299,0.37275809179823366,-0.23965119943694776,0.7419405911451269,1.043715695900152,0.8874118282428074,-0.2107772096752108,0.6610019538445427,1.166784709119109,1.035865984775879,0.3942451020528201,0.7952534532148369,-0.355668764346018,1.3225239939451254,-0.3746093280148759,-0.6927945729663998,-0.2816072004554657,-0.0009567412245899437,-0.5611238078801536,0.14399610419370013,0.16766472492304024,0.14662881490330434,-0.5325219669808984,0.9256790931527038,-0.19283530493462533,0.4395714246308499,-0.9773282994162888,0.7288687563695805,-0.7553768961542849,-0.7753614852694591,0.8051378635882214,-0.35016134481767125,0.22127196304920307,0.028576768756174997,1.09500092614522,-0.1192671747242805,0.11311975293253422,0.4377725291916572,-0.021397594213797052,0.8652861994632645,0.683084350350697,0.32916051312247835,-0.0020536886518463023,0.017360979419461454,0.2559101600772987,0.9528252236072003,1.0091078262038422,0.672628320150033,0.47923027167209925,-0.5145429707021921,0.2212967587228412,0.23471836491390619,-0.5195162785644231,-0.46849199304335165,-0.42628838951515763,-0.8967813461203157,-0.15274619199470904,0.17805858073689615,-0.24698916321144881,0.7424042762752086,-0.14188457103585317,0.9676250547338819,-0.4401892733161101,1.0612387956221,-0.4169292404237364,0.9068078527246745,0.8266150333293041,-0.17936731287773472,0.7007870424028249,0.38276235600680747,0.5773537220900187,0.6430386727647404,0.7097529481935747,0.03572841377039655,0.374067452497827,-0.2001849039500256,-0.7853158482790047,-0.6012113547592395,0.6073934384602994,-0.4204302186749636,0.1535493460278555,0.601726014147004,-0.5570448527446917,-0.6779532797948741,0.9693211138656299,-0.5414843256054982,-0.33067393798183015,-0.40792356174581873,0.6397337858095608,0.5598176929688329,0.8861240843317736,1.1206100390491291,-0.11106211464385404,-0.3779059567449469,0.10316232201082641,0.5337710554994674,0.15931511406060075,0.1698943698393666,0.787586300312165,0.7832251815354944,0.9691526827697705,-0.6949730136706914,0.06786501638957008,0.8573325636513689,0.7650219014224977,-0.8768480572407749,-0.8999208076379707,-0.34894409380033997,0.8622034743282672,0.3330330152069891,-0.7572290557354835,0.9882505513983368,-0.9004412147161805,-0.7369833424255552,-0.5853492743215499,-0.44828102900619254,0.9440080141803092,0.0956884493488418,0.03989897852520035,0.4937952689155657,0.02281389095703889,-0.44863441168880225,-0.17735449008096416,1.2859797019253232,0.6942009254640308,0.4746488471979013,-0.31364405019657265,0.7173994493568021,-0.05532786086339216,0.660168115013195,-0.8959985739362852,0.06290878064622459,-0.20606570266917348,-0.9758516770795349,-0.6313442540623484,0.8097921644280973,-0.027592816493717767,0.8393346850162768,-0.6172781138160932,-0.029294968484945134,0.7247527394102924,0.9000549708261995,0.26203082458060883,0.4187049176740031,0.584011241054476,-0.5701068800921654,-0.5146145348267029,-0.12020550158615848,1.0606300069031085,0.5730573364644505,-0.25039456830551293,0.0710603249015086,0.5868791403580185,1.0883213042302076,-0.22838696309241063,-0.4438243700521166,0.5068955521681443,-0.1686917908594366,0.827693272998838,0.3379492515144634,-0.6608741567212324,-0.11832409612609278,0.22105128489692033,0.5732566481433289,-0.7688437318617988,-0.006392536535644116,0.49613190064945484,0.3265997720373687,0.3737187454072068,-0.2662650430570104,0.09540988140758029,-0.824047556526722,1.0675345220281134,-0.5171508679176386,1.1179558837479222,0.2075521545074399,1.0253698194055543,-0.08603997265045729,1.1018777945278124,-0.5401354362830534,-0.18357351226501972,-0.1843173925664465,0.3046199391279961,0.075601244059366,-0.21509406321544242,0.8588092270518191,0.4932329513863147,-0.5126147040221326,0.9389601647264415,0.60098060273755,-0.5658864069621075,-0.6193873066352613,0.7841980640990176,-0.2960414251558337,0.26669328190628744,-0.23869085074436797,-0.6316759229964093,0.19400484006968471,0.6993951009184421,1.019889947709516,0.017050006374089,-0.006983158204332077,0.3667201049222581,-0.13778444389581215,0.6401159851452297,1.267637484020714,0.6752257977779329,1.1314604441601956,-0.010872700017505536,-0.30357344668332575,0.7178193926569828,0.3584814317426575,0.46138580507745947,-0.8197414649946452,-0.11893817078482755,0.07152929379964454,-0.08344799976224336,0.6197996844238772,0.7884669118481599,0.8978490012040469,0.9530290821672394,-0.9762367954855388,-0.28445902321589644,0.6283971306164213,-0.37161135085987834,-0.477365489261958,-0.049816600877034656,0.3035896620283206,0.5152073300757647,0.6024682872439149,0.8205455271764864,0.2794421880082618,-0.28841233572111563,-0.19268005613595698,0.9193259448332483,0.5987278582607991,0.12898533018144243,0.9508352759972354,-0.08526318316613236,0.2641303160947881,0.4339620755102561,-0.31929436043189713,-0.624922392821369,0.8462242976780425,-0.2022028737242778,-0.44551748371641925,0.1319371967507941,0.6193869254493185,0.039859126854122406,-0.8139257940384643,0.3169768103954479,0.8313076184034718,-0.31999351410472004,0.40813508249770336,0.1636479588053814,0.5414740565552284,0.638614340519652,0.6032007332888708,-0.6657155478150821,-0.07876024137747081,0.5649623277227829,-0.1543593381792262,-0.4416599008581026,1.1629974478566292,-0.2196674596606535,0.2791546573678655,1.0010605455501878,1.0407522303111043,0.9520965656447908,-0.7535921687701174,0.9001391599334032,-0.2630734487399506,-0.14596591984753543,0.8613048640694563,0.08475598578795196,0.9143297644761031,0.35660338270295905,0.7823709406348799,-0.8295184096537892,-0.9076893988357324,0.8237985728531493,-0.5456844187803765,0.7624544379094602,-0.11277990781085324,0.7590583848535069,-0.5677842923676377,0.7159315012864816,0.329105723772845,0.7000231732237677,0.5074567746211186,0.4597096357834504,1.1791876221907538,-0.3021363483779061,0.4357874472354869,0.27034096665958635,0.8061679284521714,-0.3408977949469994,1.1196779852474439,-0.8134219141016144,0.07857125202487102,-0.17802917168746174,-0.4656894153265913,0.8585612962616169,-0.48948205182313353,-0.8148673004761617,-0.6265153350827948,-0.23368615456749356,0.9157942153918358,0.14750045258196168,-0.005362548474282495,-0.8956094440145167,-0.5904896338264436,0.9857964864414843,-0.18424980609004282,-0.4004094937466766,1.1094089595250693,-0.5657262356674971,-0.714289161488045,0.3887716383156911,-0.21679095545324512,-0.16358900115319072,0.7357968470971913,-0.4895986130157155,-0.14118049570133048,0.8601276216076582,0.36304283969971796,-0.6183856800941435,-0.5346175655547977,0.46928167369727153,-0.05668951562403612,0.40036376115970085,-0.08828766951531752,0.526332744714614,-0.920363117411389,0.41429878103509776,-0.8695667341500404,0.2680591353845703,-0.653022194856278,0.3707315290760963,0.589410030767942,-0.23830651016893775,0.8619666869648969,0.8920355220271303,-0.270277082437449,1.014124504318026,-0.2309279972066492,0.6534245945938759,0.5160983820391257,0.08077934069220395,-0.5165833294658752,-0.06994967704035547,-0.4295189159513785,-0.4035268454639033,-0.1736570961911894,0.8367719670939968,0.7317471245688415,-0.5643097325713138,-0.32753570091944256,0.18051057465675724,-0.3979288736807295,-0.45521786507890505,0.3260330646156365,0.3077687861974752,-0.19291285971253327,0.8681837374174453,0.5159884334168254,-0.22652341848210414,-0.011447858680737572,1.1118358559358748,-0.8124627606039178,0.7027794512814068,-0.5733580177922939,0.6026120699364954,0.6487215009792808,-0.4117676956398196,0.6252372655398156,0.6758466738736962,0.8311249518553185,-0.34103044742895844,-0.1272366402074238,0.7193464671406098,-0.1783662676004311,-0.7893403951445714,0.1229438630279252,-0.19397131215743854,0.09377486255128563,-0.5640832137588595,-0.21258264366085297,0.9815759265070556,0.0009507496604909652,-0.42057821206630913,-0.9466017444182986,0.5034671579489386,0.9298821060118768,0.13682799153230002,-0.3955560473064765,-0.3746429632223381,0.988964901300791,0.6958799928315754,0.21759747830331191,0.26700204042802356,0.9497610379774526,0.5407186968501023,-0.6275800664865294,-0.5219946138372059,0.8547342591186342,0.23050002345419665,-0.4052425102210672,-0.24105712230607645,0.44457336282373544,0.8411109484493097,-0.008198960543979051,0.8709056440793811,-0.8699852338118598,-0.49638043226390954,0.3696741121370097,0.24681802339935355,0.33182469959252914,-0.6049947212936002,0.024011198765538352,-0.8146495605224101,-0.5467242148971408,-0.5996659065627482,-0.9089116129486112,0.4307427083678636,-0.7564879684311824,0.6634328646032597,0.2879192736993508,-0.5530315816773985,0.37684845815198514,-0.13720005073315222,0.4219755191069228,0.455653815410705,0.22609316701213455,0.8823516131747162,-0.3744153326602804,0.4627539250124935,-0.7635121399899093,0.3482028504028344,0.7951472847179474,0.06452447083544967,0.17634016009310083,-0.7314132958312045,-0.9443021678919076,0.9466962592629328,0.17398000941959602,-0.06678986179333003,-0.449996526241468,-0.7464306683452142,0.49169672428344774,-0.49098778104563084,0.1810674524442936,-0.06238667189667499,0.25178559849273313,0.2763447756516056,-0.11452192185778515,0.4652936046123352,0.8241297865187034,-0.4581139283082271,-0.7337837834959637,-0.6262219331029023,0.8834878617320214,-0.21631070344878833,-0.5994678395157708,0.7265209005776815,-0.6120198598216277,0.19261434394512572,0.3592712245950076,-0.2890250936922045,-0.7554888182343199,-0.7712254452802831,0.8018550925986327,-0.34107062989490533,-0.8085169281213234,-0.5530322426400314,-0.9731448918210618,0.040009373213625236,-0.6505010141452836,0.7544330897504352,-0.9414708540045067,0.5294285047712088,0.9388327736962754,-0.9427731271791027,0.7840937235578065,0.9183715807492442,0.99042245408821,-0.15516869547623371,-0.37093117303084844,0.8551090101050621,-0.4686316174318967,0.040840538017009355,-0.5648082808710149,-0.3496127437447797,-0.5251641605768277,-0.5002744430949108,-0.29404449545167466,-0.8289785674490434,-0.9696819167030365,-0.5975389730708259,0.9594820789225748,0.6897573643227635,0.20802188264724508,0.40492180322789606,-0.050510202966086055,-0.5901148900719132,0.46219241936613414,0.8290058683416183,0.9462048336414217,-0.5836632669931943,0.3856727031259324,0.06611205046260422,-0.6978438211093569,-0.5404966790879661,0.7250400354115456,0.6393212985675755,0.8081148574690347,0.90770782325983,0.23349304800136,-0.5084809972040416,-0.28221391810106394,-0.1966970933556535,0.7175363292593796,-0.8671220801661188,-0.1211457000799831,-0.7015775441413914,0.3397158170807919,-0.4446884675444702,0.4926923833689505,-0.19818132962878576,0.07231619332018413,-0.2897112399169506,0.12182067340466496,0.954626678948497,0.3065174181199419,-0.47544595046765453,-0.8657375290135234,0.570169031699182,-0.5225443504178695,-0.7411605868271323,0.7653100693491566,0.10350838554419299,-0.7728232452808613,-0.23169125978684874,0.4648583226699657,-0.9283478527961319,-0.46558069923591694,0.9200350553813663,0.20064765269044466,0.14404823441306314,-0.3629812388605801,0.5301057706987578,-0.4718730864915958,-0.4687837626615412,0.4877283192220831,-0.9085742705746108,-0.5125239519670415],[-0.23885192520327655,0.20825586792345965,-0.6526952795563579,-0.74728459048004,-0.040942479930172304,-0.0778735037167122,0.5314484815731371,0.30916154653857886,0.059238753838682934,-0.5008177997006831,-0.8585317874424185,-0.5013786265064841,-0.5272108637562055,0.0211786351324781,0.2923976218877864,-0.24999890180376838,0.028652236407869847,-0.934377820993266,0.18397473879778548,-0.10353256903775689,-0.49303676129530105,0.24880024032949663,0.22580868013815425,0.9297126340056088,-0.11314826402946788,0.5038873424455412,0.023550607918426447,0.7207111514410147,0.03135931437181716,-0.015597401671820554,0.9787733681478188,-0.8144877807047766,0.9111828010812676,-0.937930097122715,0.4845946502111998,0.3355553085312271,-0.4836991565095412,-0.7388732573113616,-0.21975752492308515,-0.43356650122608315,-0.1941654327215941,-0.24438049841873327,0.1920706316514287,-0.818545449528634,0.5235298489221405,-0.003119625342421699,-0.18468128036393025,0.09917513827183744,-0.31460736540509227,0.5247520004077783,0.33620409897426584,-0.8741800067647975,-0.16441679055342906,-0.12284566418229724,0.4446662111128547,-0.24969059188170473,-0.02122077715832371,0.7326205512838113,-0.06034715536182237,-0.636569269391522,-0.22975380313663726,-0.280135260738904,-0.8297441734993879,0.5515525258609039,0.9150249583729619,-0.19535636251485025,-1.7091994175115497,-2.5929455972658015,-0.17549735453400533,0.5152280473196028,0.18376516674443683,0.7813930980085511,-0.2715471827234021,0.7585883610524092,1.0740869970519793,0.36243611107018775,1.209430902895683,-0.661372416784168,0.2934697209952395,0.8086098048353776,0.5443018479656262,-0.38114395171468174,0.14325553756881404,0.6297206544200658,0.4789346911637049,-0.3543883765392861,0.28887431870227614,0.32165648939182734,-0.07238660894038579,0.9286990057492459,-0.33888525758311006,-0.5491901310449616,-1.3276727274437972,-2.225579253535391,-4.466927926850021,-4.840142204989588,-4.928109420859475,-4.210277090374069,-2.3465688883319626,-0.6040383743196154,-1.1962060432114838,2.3200146365968286,2.6344304736851067,1.7829533710175276,1.7740981768864443,1.7273053718478675,1.3406527249743179,0.8816784170425824,0.5187112195611013,-0.7674120527575522,0.47157665891858286,-0.8704010052739544,0.44363002065952184,-0.5275772970045776,-0.5444820653722393,0.6505457245111141,-0.3974928600247858,-0.7672832171394467,-0.8347311357474126,-0.8151604752175199,-1.8889701409183661,-3.7160467672957864,-5.497933982984977,-4.9801622269767725,-4.672949450041747,-4.561769261319435,-2.6164481631345144,-2.251240345773959,-1.1547801194455478,0.311119560046871,0.19182038435157467,1.017351135812396,1.659933756874067,1.8950844932869904,2.2765440232648286,1.2859445591056144,0.16385734740330807,0.5759562514566359,0.46177465597377315,0.9865427712437267,0.7291374785196232,-0.11528596562513416,-0.5903738793538927,-0.30712523127295094,-0.5600059703225342,0.3685863211964026,-0.3720137204353815,-0.18423150236335,-0.7411628668620217,-0.8607574401912219,-3.3350069233332804,-2.531554010607369,-1.4767170443072855,-3.3680376984592506,-1.7135103549094803,-0.64949616824015,1.9355236783127419,2.7753174430076717,1.5666477019178666,-1.2303541975137617,-1.1744434418950598,-0.573206040801054,0.7614291121336635,0.8227512087056035,0.533352243660554,0.3076740264204635,-0.8063152066286953,0.19478513904698952,-0.4124933014023706,-0.9864938400048496,-0.0890097201556187,0.4595210470478396,-0.1840014766624586,-0.5162938705091098,-1.2262714662875782,2.217146926998331,-0.0938025111448761,-1.4039790642026873,-2.1440916194042976,-3.3747363690769667,-5.5874976506466965,-5.057145488752224,-6.902639170120122,-6.789207909382729,-6.243067469488758,-4.3210843362312605,-3.6578938556731795,-2.460713579869383,-2.285132976615389,-2.5324414608699626,3.0054989406049537,5.25058457283899,3.305302494313899,0.5806227850774056,0.5973722367054973,-0.9796394364604348,-0.6953243732229551,-0.17660082066713595,0.1919156297367724,-0.4313193703051767,0.47790883006984125,1.4903247800750858,0.6656822996605879,1.3223636256540756,-0.9256736209281975,-1.960142019572416,-4.100439853942623,-6.803468421114074,-10.0213373168789,-5.432280146871506,-6.515044522914312,-5.090896644575237,-7.94445204231163,-5.924186564172496,-7.079147247742495,-5.71919402939958,-3.740407719632868,-2.9058669737971563,0.6084188384624108,4.667817991790609,3.489943639351282,2.7525165112226992,1.284117701635442,0.5350366441362296,0.766455777533836,0.14555680278333605,-0.29875605625303625,-0.8791008979706513,0.7921406021751602,2.4180859439160014,2.0112550174078607,1.817410571902374,0.060709667556130616,-0.9410542126164251,-1.7586385045766875,-4.778350726403729,-7.891415881713326,-9.21647934704449,-10.654678061426285,-8.829092385483184,-8.90996935455827,-5.844113833566856,-6.3447329250430675,-4.197215217344156,-0.994475344783394,-2.2316575877964997,-0.8903112418361773,3.2986547843594747,4.351023250533106,2.6076696444513803,0.917903854102035,0.0048033395283497,0.3585104444928086,-0.17342113115166868,0.0867412824491584,0.03233671249206072,0.9485258460207847,2.542319814197207,0.8703872415869864,1.7072803208598948,1.5639731983036285,-0.3258894252873848,-0.5039291934025136,-2.524897305498891,-3.227673280184045,-7.723731997505496,-11.330034646058476,-8.86628166595188,-3.556752574094571,-2.838405212741648,-2.1879553751873817,-1.0682017020637897,-0.7242220904437459,-1.0179046924193706,-1.3935483622739728,1.2153284313392079,1.902556593300682,2.1947223232787167,0.04159607629262353,0.25699188951958596,0.0017397911311053515,-0.61601935556844,0.9441120787612619,0.703358186230854,2.6081165348540414,1.7335792904312262,0.2590010777060673,0.49715258474885865,0.8877617672526515,2.5762848394973763,2.1172818368332544,2.2007309131774675,3.3176879779003063,-1.7522481274024047,-5.501571389411914,-1.3154438747674242,0.8406369400319467,-0.8990015289072242,-0.17982091821741109,0.8109768168294778,-2.9611010701285854,-1.645502029111781,-3.3020155791099026,-1.7176179583442943,-0.10049554543277611,1.351090981453754,-0.19806550962213912,-0.8259038831001507,0.37877641872070694,-0.07108082849828515,-0.6216694577294659,0.48660852304567476,1.676080004838549,0.6269166053520816,0.8689467042012267,-0.8371027613400049,-0.6628853466711565,3.85501600968795,6.835185261683469,6.329249277694315,6.228992248123803,3.1405292591929452,1.3438921146656055,-0.14426656396669196,0.793740275968494,-0.7105084363904741,-4.336137008847961,-1.8930841096428985,-3.454109144344654,-3.776160712242323,-2.8263648748728305,-2.3520523770621042,0.26659708241305735,1.3101576162480562,0.3512653683193861,-0.19733511403413828,-0.7609229834011486,-0.46773169837244194,0.7529684981501881,1.7752664932954323,-0.2663904104262847,-0.934077601496063,0.8401619901385158,3.1034710789996596,1.0499702257255148,3.134818064737885,7.032868451531993,8.628412228117623,11.819483307544843,5.765955707229073,-2.590458867385143,-2.627696807982488,2.028257211219591,-1.4587307074075235,-3.085241039399831,-3.9129255683733875,-1.7462807858895346,-0.39260465696676977,-0.7118464718686021,1.7109813307471238,0.8475413642087796,0.6084045425901159,0.1181187554880176,-0.9275895152154385,0.08238650618612711,-0.7250597570512167,0.01751200105678422,-0.3815678599849453,-0.7709986221792368,0.7544673031090857,3.789518215861881,3.382489557502493,2.756078051854666,4.237255328632085,3.1308012695737832,7.671874801002713,5.19351951460283,-0.7509762956788593,-5.819664968273118,-1.7122768281056866,0.6441561602557326,2.9131611101899,-1.4390978426902519,0.3189971189212395,0.5738158989213588,0.3237609005415306,2.528351313822219,3.5254926573111347,2.6414387019877967,-0.006764842977171047,0.18881852716881717,-0.5302592911517457,0.6704246085662601,-0.5541393562631601,0.733146482546752,1.5876205984853362,1.247125239513099,2.8160447758927507,1.6135189899724258,1.3318910595921076,2.0231134216462747,4.999652085084131,1.2935852019966119,4.903404118386053,2.373655582731504,1.106376009805118,-0.9314788442217028,1.3803720447776275,0.6617360952336101,4.361119688144843,-0.525496899450249,1.7453418877987665,1.5266238632079214,1.4362518065329695,2.3965740164173908,3.4299112272732626,3.169858800816597,0.45463672396628824,-0.5866722635308057,0.979659338598573,-0.68782326061033,-0.2072939561852592,0.2120124961819619,2.375531702471634,2.127557358601341,0.5766302420807028,1.7631633597609397,2.2680990756470325,1.4301716949656769,1.5774539902917826,-1.7308445847797693,2.112284251620697,5.510798329559901,-0.5285552767909428,2.833780867979094,-2.669311905032608,1.5982786199674375,1.7927888964144159,1.9352488775530992,3.411483853882582,0.7342610429185672,2.295522013827986,2.9389468114900765,1.414583899441415,1.5412316919599256,-1.0775339797481644,-2.1283418619340058,0.2653496107670211,0.06351341358154451,0.9619240994480304,-0.30263628737954784,0.4867346944925084,-0.8959199994465781,2.4862513839831597,1.0953508896806905,2.267045089689757,0.7742354050550273,-0.2653397336030695,0.14322759026056514,0.717984946709021,1.7889152979795637,2.8777414106823773,3.1617685198446512,2.3782737154598506,3.774648109603752,1.8493000204639662,0.6491433433289158,1.5125305384705927,2.004823890275773,1.6671333333725116,0.7895507386617729,0.3821398796651074,0.23818622832845743,-1.388660349363669,-2.232784586445567,-0.4068719319779901,0.13021073227185798,0.7029937839515034,0.9273286456715387,-1.9038047861009275,-1.8713918989744625,-0.2197547139346477,2.9335185632719702,1.9972413895648236,0.09515596829570704,1.2190209592629604,1.0263126033606107,1.2646933352625358,0.2700811522810059,1.3469059676976127,2.7975781201172545,2.9103629636310973,-0.18608693549300642,0.8801429205058943,0.35702260191094015,1.4227617294299182,2.51569501389993,0.07169444974368715,-1.301722740448192,1.6628921435888926,-1.6236034656938325,-3.1047679402111705,-1.7107175256086142,0.8673744520145625,0.6418663663016612,-0.8960235956509955,0.8482596082162092,-0.49930764764755,-2.9854139708477203,-2.187330153287836,0.011160783766922372,2.652513437668524,2.473665789765052,1.7294170540393474,-1.458399429568977,-0.42699440521022375,4.259835790042433,2.7595725969212577,-0.6422477989592817,0.004066543397402715,0.2556905126811965,0.47652795274192966,-1.295043326370436,0.20377103987948036,-0.7797384407806137,0.22737716443348663,-1.9143814545828866,-0.6745583689701029,-3.1101182055390133,-1.2500341071499428,-1.0195963518488018,-0.10859331891793163,-0.20554922513066853,0.28906989785418696,0.5204766582044136,-1.7871990686275347,-3.0325028191991974,-5.174860682752154,-4.519925437732264,-1.5158640139756012,-1.4493010851814767,-1.0393647471768837,-0.8247203262523771,1.7910463816978923,0.805997472776815,0.583580102526989,-1.1207566608302364,2.9542047377477485,1.9544377629909175,0.7858821022758987,0.28323551060094754,-0.5628934820748869,-0.13810281615618084,-0.22880255913799127,-1.8582075897695667,-1.6755278005244039,-1.3491833758539105,-1.7522306671057388,-0.5661304263310876,-0.43908385529367555,0.6944939953106235,-0.25429350528924205,0.12080165068048057,0.012695641874733229,-3.122883518492016,-4.990628532775099,-4.407475600091231,-4.095849945862277,-1.8953824053003512,-0.7984262985013254,2.214135362996883,2.1267360621907465,2.2362599241321455,1.0930668063905045,0.3114876914235757,1.0526516891950932,0.25304221882914474,0.1760143450432558,0.30267824070537735,-0.2983333684182145,0.4366951596538515,-1.454196176337247,-2.095179657723581,-1.952153857913551,-1.3963307023379021,-0.18948379136341847,-0.9712673307086589,0.5455610949209908,0.5423959741837707,-0.22897647325215575,-0.7407230275176006,0.36409811387092084,-1.4019949776170737,-4.170251913446505,-3.7110623768690023,-5.203290682212108,-1.2141394687187461,1.1800655034174519,1.6312081707483252,0.987645201765649,3.7692028727301325,5.103365801888974,1.220812085638154,2.213336122240826,0.6953113752408199,5.546072228875026,1.594483881732601,0.3001286237935164,-1.0373488365753445,-0.4796035646986946,-2.1854067808659425,-2.4600141361884718,-0.06016945958911499,0.31484154561092625,0.3438744999956251,0.048694042108588714,0.3155237259005776,0.21462333303842962,0.15918347216088194,-0.10717009467795784,-0.8914604513835717,-2.5847039365455853,-3.4425261420981257,-2.735953374450042,-3.5862061594602226,-1.0843667870563214,0.36522532654505857,0.6490288434433388,-0.34936835352650947,3.2188993171509526,0.05647208242614947,2.5071925554357835,1.41858094767234,2.4107168107031947,2.877693081070857,1.0270414844415814,0.13131325362695276,-0.4766798853119049,-1.7417619034525553,-2.2979317417442933,-1.9140386549760002,0.5895976269558763,-0.8767220414029546,-0.9286296322030922,-0.45420780528110294,0.12423337453429896,0.11008883966935845,-0.9666740317137447,-0.42863889750497886,-0.07977605368827977,-1.506469332164686,-1.0486485328175725,-2.2692478363439634,-1.3451208958767935,-1.4835391976651857,-0.1852565281763737,-2.169450843366659,-2.1698922025615293,-1.4025581946394345,-0.8528307949523751,0.7035372338625377,2.334033806760538,1.7612125805035856,1.4600068356294225,1.2862007534428412,-2.7410891097447085,-1.9669078742736583,-1.422065408960631,-0.20924072211505215,0.5910850882281689,-0.3316768190390062,-0.8220931171735477,0.028256004461725492,0.9000239756708344,0.05678475242380729,0.810369275308826,-0.015402956911092473,-0.20378393777922235,-0.022346892763121844,-1.4088566528707038,-2.0730075899206097,-2.8946973989962044,-1.6536695514534525,-1.7379615246954516,-2.6071017298391777,-3.5712504305908706,-1.943393628366004,-2.9940410411864247,-3.460628316307097,-2.1796685661331736,-4.207132661885057,-1.32722308842164,-2.225120603365466,-3.640324304426994,-1.5930668222689932,-1.1348891187118446,-1.0880692533307348,0.6129221999587472,0.87325884454745,-0.9565305058089592,0.1692332266338714,0.6574349553558436,-0.6819949466338303,0.8282720318533647,-0.010964752694659227,-0.9352407332124761,-1.2345531585497178,-1.7358731668730252,-4.45437998610669,-4.5837030954477544,-5.004250159503353,-6.010539465497193,-3.963837758754194,-2.7486187680659144,-5.604058870407397,-4.203260007043356,-4.912549410977503,-6.408977021863018,-7.867252581031331,-5.004128638775766,-5.712926137168583,-4.581505181081439,-1.1425052130974724,-0.25776250014008784,0.03787723377888262,0.012426244722464386,-0.551379017059662,0.11371384536489072,0.03487260911223444,0.9953874438791246,0.015920732786479208,0.015459695462908554,-1.1143895337627407,-0.6746004211870839,-0.8474478455641421,0.3598429771947992,-1.7253370690759111,-4.905611658554479,-4.094398230650415,-4.766522848776217,-5.339762308201865,-5.239401539198173,-8.665675366808863,-6.1531421297519096,-6.0722869656071525,-5.2020016746507185,-4.946850539071073,-3.683421547972962,-2.105361057698035,-3.1324775753934597,0.07667014076671785,-0.0027497417390992436,0.5894864764573602,-0.858622129129643,-0.4443379805585088,0.640067684238621,0.8284322821470425,0.7762599942638568,-0.4839530364293245,-0.12910967968871678,0.24729042525925468,-0.5479006238717814,-0.6372125889872811,-0.6438362836174079,0.042441170203902465,-0.24406760648014958,-0.10488664536065875,-0.13824280332604613,-1.3064927231336976,-0.8596038035213648,-2.1285871291878586,-1.2575070499073353,-1.425201647261845,-0.42302579738174667,-1.4328201039193664,-0.44646557706094897,0.04970151087904429,-0.11183894385583626,0.1497244042252291,-0.6993990071990877,0.04446555228353022,0.6652491441502357,0.7329698010199097,-0.21513836115180252],[-0.6539330369755463,0.8030011463805062,-0.3189653860580277,0.11380467281828156,0.2837489763093357,-0.32640934790173715,-0.8932093950357551,0.8447360130913877,-0.3621295110419971,-0.3541433244679091,0.8589822756141188,0.44449849827810817,0.6973048115567598,0.26855965264826737,-0.5341427024086091,0.2787482694704076,0.1338654625120348,0.989457102204612,0.4597645395795955,0.9763362100411974,-0.14336153841425414,-0.720885246561745,-0.42292917672260666,-0.04820274889124865,0.5346304619876634,0.6081896302160992,0.3968245645892692,-0.256702751325,0.22052584919883245,-0.8399226250941285,0.7534631882481313,-0.8193629168245873,0.323741435777114,-0.05307362521073968,-0.18437221097346737,0.023212118391572285,-0.643172361491652,0.026814278917482205,0.8548724764423672,0.15056738303837436,-0.8926338043531269,0.06429216765926883,0.34289553155228447,0.23501560768616736,-0.23589626273110065,0.3561335278922035,0.6761620828246229,-0.7998443261767852,0.27674998384342425,-0.018603804324074703,-0.25163254447005984,0.5627511341701462,0.03603040847782202,0.476433826425537,-0.14526664345204487,-0.2807357860443629,0.5001633720459806,0.13888853140436797,0.20947769103155767,0.7614796317251815,-0.6902270957750082,-0.6789569116224402,0.3766910671883291,-0.05640333318650051,1.2686364425845724,1.0464715326086098,0.9827701009775587,0.7539840464346609,0.808760719746653,1.1602099767756486,-0.26738775147310073,-0.49952680236462843,1.073868326434393,-0.6242463056029005,0.5685452745803921,-0.922231060864912,-0.7121089661854538,-0.49215310650739263,0.3945534778015943,0.8314316163675565,-0.9626051590999009,-0.720309896975909,-0.983445337550221,-0.3713402673403503,0.5832786814899527,0.21788827334520344,-0.09223028484929664,0.19935378260962494,0.024159695097652017,0.8073767366797137,0.247847905757127,0.26657595193109496,-0.5126863343437091,-0.932067184100283,0.41402949143043116,1.6129092044114937,0.4256116316541275,0.4805709264557311,0.6231572181259115,1.6761264928232185,-0.4837167218375641,0.9598487866640233,0.09270371822396989,1.491590642093223,2.228462939080801,0.15477832038557668,1.8613103186410282,-0.0016201438058091894,0.9386319574299152,-0.7966828426368726,-0.3270825566854947,0.8892693999041885,0.07393498141227184,-0.789513403722514,0.178459275453469,0.11421740355195041,0.17237796737652955,-0.33417630793681835,-0.5312122966652263,-2.472062376702552,-0.805373804748967,-1.1401640587570232,-0.22450326295129105,-1.226208144862672,-1.51162199957103,-0.5306982656368673,0.8222860536466686,0.19932335025917283,-1.4330864536033436,-1.0728568224319834,-5.9612087179828155,-3.0099547465010303,-0.5312497684510057,0.4398288075962723,-1.227080364961157,-0.19276851774006398,-0.5551862064196164,-1.3454370454896067,0.2298856802828741,-0.5654947043435727,-0.7623751046332399,-0.2918187268522223,0.2087665439257715,-0.6127460583954331,-0.127539690480989,-1.3050325242548866,-0.27567723838065933,-0.14665270022412208,-0.2938139511912695,0.09092577053175183,-3.3219207755548474,-0.08859039399266816,0.016823932753024413,-0.3849779282751678,-0.5192287671842346,-0.40415366067368697,-0.5117590657644917,1.8799813438616455,0.27333162612800593,2.0037481192486317,-0.03507200482319501,-1.6017953007790964,-3.089832405210658,-3.031789842290533,-3.5699661959960864,-1.5866675568315802,-0.8021507329322283,0.1420641118094327,0.7914100016946803,-0.4128527686108732,0.69620145734552,-0.3659995829927353,-0.9861529681232509,-2.747552726255948,-1.1429003445226715,0.36221158127226494,-2.747664446503131,-3.245312560164882,-3.4232865397326466,-0.12128189154048767,0.15592362544081284,-2.854804702714816,-1.8479519753158726,0.06819533595393695,-0.7191248679771313,-0.8641556225809416,-1.3422280444807304,-2.572682409355001,-2.318037095109095,-3.617472865873645,-3.0578562231613557,-4.4787656630128785,-6.624252143699917,-3.2744486293786492,-0.381347807412005,0.47984176133483364,-0.082181495870103,0.30958456080486857,-0.4088266430734227,-0.82033622369636,-1.40010342008498,-2.6115358397834103,-1.298970157037738,-1.5547135505209617,-3.483593185453494,-1.184519581578938,0.9693060143346088,-1.865757238967779,-3.007270601774862,-2.338388454274508,-1.363677253289385,-2.9113287147416043,0.5562358639382119,-1.6301654026104178,0.07513576787923289,-2.308818650297461,-3.984829858528628,-2.214153975148435,-1.753645366720474,-1.2909518465296694,-6.739329842118259,-5.3950375745508365,-1.9040120238178777,0.24650919029606444,-0.8381410549758059,-0.4112540235341239,0.04080605494534716,-0.5972458815407438,-2.553453908116188,0.5699013762863346,0.0440475548562521,0.6702417973759663,0.8883687033089495,0.7542456836060558,-0.758663333967036,-0.30082136044505337,0.22470113699041716,-0.34962943554675546,-2.3660693870016565,-1.3071863312395637,1.0238320685352849,-0.9830630170177352,-2.017366512344113,-0.30522227177793176,-0.5508299989907706,-1.1269165734645077,0.6701463425620494,-0.9178472811262053,-7.359283315735635,-5.525651697258996,-0.9849533324471634,-0.3415667223198191,-0.9310401096626034,0.6961076223263984,-0.33878908874283425,0.2098793300700519,-1.1478732243843088,0.8008874845141016,-0.4342680089721766,1.2878863365978965,0.8225914013987179,0.6709842989480747,1.2598974834925518,-0.8727181068303852,-0.021096876534092257,1.8351557939144254,1.5102321970601287,0.028220690054021003,0.9343576963244529,-0.029656906699657183,1.2297879405306735,0.3651938589563321,-0.436529188703722,-0.6549109231012457,-1.938104206425437,0.9873447106880895,-5.840492234252118,-4.240935816890102,-0.853568737572728,-1.0158233264596372,0.7991150752089204,0.8483568101438158,-0.7857006485151564,-0.8454356318475329,-0.3988811318946979,2.049159887847555,0.030985415438747332,0.742284234548018,1.0683636500225997,0.00277773593990397,2.9742006615498338,0.4655650591963251,2.2333394576767573,-0.7810382683650755,0.00667488452240288,0.6045879292691182,2.283862132743043,2.402355552836723,4.943072503918064,3.7279185483836756,1.2481987797858112,4.059349433745595,4.996615452985013,3.2211988591819223,-1.161154266096877,-3.1754552983239814,-0.29634787003491553,0.8330238507070125,0.6666749103622654,-0.8108080066133742,0.0895011648896113,-0.30192897669754715,-0.41783284204434235,2.555977896998392,0.19694347642054158,-0.5279126307786293,0.9238882189166446,2.6711931684396815,0.4663131963092484,0.6115659470483278,-2.533019673666606,-1.3922837621287834,0.40888511801466637,-0.9613720573076049,-1.9039531211350336,-1.0609238174710738,2.1460825997360353,3.1259251185987873,6.684291514152896,9.15105329531205,9.076423753315991,6.974578096970536,4.289886516059098,-0.8886327280411506,-0.9358392705620295,0.06880753408576201,-0.8227767400336422,-0.9102167137059275,-0.02986669858606066,0.024445204976697735,-0.5733738290877307,0.07404894842154656,1.517854768170593,-1.6241147235821394,-1.300109188094614,0.4725667459507815,-1.8432669976364802,-2.075603380569085,-0.46769135663804196,-0.4500926594410235,0.755775757860079,0.9951171831999304,-1.0065195170479728,-4.7009732612382535,-2.097862477423227,0.056814799655687684,2.833669394104174,5.8352920651572,8.669663186308533,7.455209972160037,4.090637275119657,0.7810795228575103,-0.833838986958184,0.2902844430791906,0.521810854617408,0.9021440794991875,-0.6515250222200207,-0.37758255880706826,0.017084741419264343,-1.3029907928141768,-1.4376777789488033,0.19841352582887703,0.08015107386238894,-0.5189843321366188,-1.5651985154482202,-3.786029622836336,-2.2196505642343554,-3.0616719671472112,-0.23787139990832226,1.6618135850514681,-0.9146602394232829,-1.5466047060826733,-0.0691454234057064,0.31213721555573903,-0.15212797830313632,0.9712016988441567,4.237338735359064,6.9177799118224685,4.221772515222962,1.802602924501355,-0.4364325556445767,0.7417487788592516,-0.1836722986551118,-0.31141696434544536,0.478497493518432,0.6018510141178464,1.5849524513200253,1.8385037873840675,0.7302277888033379,1.5173789058983094,-2.147027460989509,-1.2691240448951255,-1.4870804362881058,0.2668283362254931,-1.0049561061292953,-1.0725463807062336,0.8660814935733803,-0.9412762221149718,0.2811809012303314,-0.02875075376419145,-0.510473372308738,0.8657332555542632,-0.9757468376669111,-1.849748720663756,1.0163511930258704,3.633931274178648,1.7333193664583724,0.6276510516906525,0.21754271199300126,-0.2985075168938576,0.9749720503877074,0.09503428534845394,-0.9408889880675771,-1.2174603922506733,3.0831272514361423,7.0216757064352695,5.892936368512154,5.552886698720618,0.6395625225189425,-3.4945391555286367,-3.554580606084964,-1.6891621443652198,-2.612675254485769,-1.1042002803407547,1.7542704838885799,0.703017256406542,1.692113182055561,0.260892899750612,1.004132333497528,-1.5971603006543087,-0.6519920994408903,-0.8229181865976336,-1.7958293617603143,-0.6248065605056785,0.9967167408624046,1.4194483432103082,0.9457921519095296,-0.35235585276962184,0.9657402390779721,-0.37442762577811717,-0.933199891835767,-0.7589490662900492,2.1527027379683914,5.488812942592462,9.081605033283171,10.37862623718759,9.660173066748749,1.5558827616884277,-0.8489385020103348,-5.076398063546801,-6.537251580252078,-0.8538872445009128,2.683890904599315,3.5197917845246605,1.7265167341517116,-1.7306143338051028,-0.9747254825926682,-2.1255370079231755,0.5076382836638309,2.0790110609546333,-1.6055483406538298,-0.042725123728217865,0.1597364576107121,0.8628304805002694,0.13311763743877142,0.7540203181393915,0.7950870317540395,-0.9453087509721431,-0.24806601403210551,-1.6693832539644582,-0.5041433074723763,3.697867121241202,5.831987701316131,11.374540315350822,16.351284756808912,17.190635499862825,11.829719616568381,6.15066010161715,4.405705924235098,2.5921018735571484,6.193391858870637,1.8504109724484294,1.4251630233170396,-0.5856369520833786,0.732483744669187,-0.8981870733173765,0.6167689469204596,0.9890640875016793,-1.5045535889091175,-2.31680549281336,-0.9978886807796161,1.2948358743456203,0.40029178044158137,0.17972338280877923,0.004976642000991911,-0.001982200746054644,-0.6841458805326557,-2.734738513720509,-3.538909490890111,2.1648441577190893,3.281932063971482,3.511897073042981,9.999591040036188,18.266764869656807,23.228835557703093,22.542195442849337,19.802285370848544,13.167874692587416,5.153540586670477,-0.6371293482965442,-0.23382008173023477,0.6642094661980148,-0.7488047336516848,-0.18161298458439565,-0.38891960746752663,-3.4743101168788826,-1.2240023171553631,-0.8371047281151959,-0.5172090029649714,1.3562856620362005,0.13666886119222713,0.6004324715298165,-0.4979334628661034,-0.44733203851461095,0.4384665652453167,-4.716220353462766,-3.8512837362340475,-1.1946705176150054,-0.9555054189681486,-1.2668835464455848,-0.7873911193107745,0.9169371475600854,4.678536139884163,5.139610936158452,7.743137962623382,4.1336533700837546,1.8267052229089122,-1.0939340588828217,-0.4723677511620225,1.3660983550803762,-0.8160306426786909,-2.374970289715768,-1.0567056687217486,-1.1786857400936075,1.075206424280338,-1.2591944399725894,0.037801730122030815,0.9774709407713281,-0.6388526404004233,-0.7189791813755948,-0.9842453203125464,-0.352485889433682,-0.8844079172258668,-2.784781031836723,-3.6209478727367266,0.3060020567160989,-1.1117128402838832,0.0035038180156832604,-0.9291498402135299,-4.485608491571315,-2.6700377510452036,-4.852626829028535,-1.4728079784361308,-2.1113476592501597,3.678700296039039,0.2489669768084281,-1.000216025722988,-2.189387108617179,-1.1616349054208226,-1.8417823787010792,-2.4757639739771697,-1.5295381413550888,-0.27625903467201707,-0.10038905083112903,1.3264896485075304,0.3970083952824246,-0.44499533573697736,-0.18020331683591004,-0.1814242700539327,0.08660947347186096,0.3959141322650182,-1.9901529028837581,-1.9866440584303406,-0.5664918256751305,-1.814277553825798,0.469669005551903,-2.418777938051798,0.8194926225337505,1.231851865739368,0.14883504716265675,-1.293703847816976,-1.0428218885957437,1.2693272916249738,0.48920610538364473,0.9168718256049785,0.8365539747132789,0.3369258927401895,0.542586489549684,-2.6398314309680524,-1.2188249338098065,-0.33691108391693636,0.44549125784081167,0.7179625606776169,0.6297137089988655,-0.8624463019624078,-0.25407224629295233,-0.424657627877501,-0.4151528654334842,0.6123457916606891,-1.938336054969472,-1.7572663634613734,-0.048022603033802215,1.3040616290785052,1.67360138919765,0.9334337504717147,-1.155627661195025,-1.5535718242605119,-0.5189559675383482,-0.05675208464808819,0.8413839476716841,-1.0509120017257287,1.3274737279570517,1.601817974073134,2.9581667841257797,2.0739563848403626,-0.4840188255041909,-0.35661310626218223,-0.966992963369977,1.0769673663918906,-0.2370329222509225,1.5811018291602152,0.2734695313959377,0.2359972620814395,-0.7126236421788924,-0.33930170684182404,-0.7389247646811703,-0.4605894523170438,-2.5057773807087913,-3.168208268972301,-2.298718044139853,-2.24919509278625,-1.379512085719569,0.6959173287739601,-0.8018514976799946,-1.6064329477353985,-1.2766868249455159,-1.0064416349149623,0.5455973957173534,0.1933824654573004,-1.5772364385806956,-1.8407668629550131,2.1444427148950966,1.9416583839899861,1.1125889087004168,0.029736018861670377,-0.3543146947623749,-0.10442476015091627,1.2487618792175947,-0.4812899760398532,-0.6746646178399682,0.6661613747388663,0.4952446876384393,-0.13513567578997665,0.9779857866942891,-0.10639387471924101,0.14324473182594843,-1.8542871604645863,-4.067387750019637,-3.81187735211173,-4.314001853798568,-1.6065902801126262,-2.37206012942058,-2.3987414978313115,-2.6741745485410946,0.3664933838360566,0.3047297883375703,-1.4604195695969933,-0.14650344212407287,3.1902305275125253,1.3543159614513334,1.5837819999454528,1.1111147559283208,0.21699695833253446,0.31441263619876625,-0.3422016783751172,0.5482832255180753,0.47806420642161673,-0.0037044625064488208,0.5386545020151677,0.0983023233893432,-0.4963340907624041,0.0186315973243405,-0.16678840274623066,0.025813824705047998,0.8410722230074823,-0.49431493477096333,-2.123277119250074,-2.1281472267387125,-1.2744841000963878,-2.565860045481553,-3.6854145382762025,-3.3571061902675328,-4.362485393031774,-4.815389431876786,-3.621140789250649,-0.1575591906769825,-0.23348997397265986,1.2971583022937,-0.29572982175745904,0.4251508570625494,-0.4249680303537581,-0.4849990617530486,-0.9568441305187473,-0.03763972584204107,-0.7970428775219406,0.4078531854733528,0.4530130720479907,-0.694229764629168,-0.6017443415727952,0.5625817754500799,-0.9886730963640752,0.5341010820438478,-0.4624490564905885,-0.3830719675440898,-0.8440463465518762,0.8116611351657326,-0.6350124446335627,-0.25816203134927346,-0.38537282533335954,-0.6800396663101185,-0.34919477295406104,-0.7055735297718299,-0.6049209499227325,0.44994751863413557,-0.31043570851243074,0.2522966968342073,-0.22032491785732997,0.2052914470073449,0.8642344938009006,-0.5009797222871281,-0.23758135241393752,0.7873372802568304,-0.8422844893963083,-0.4847708691615645,-0.7046590906595409,0.33644901254381154,-0.5328195677587664,0.8931532158493896,0.9764943325398224,0.5589193572141391,0.4216242420989992,-0.04223216123735766,0.7297627973969125,-0.6961110149625545,0.7326975824430094,-0.18030863813704903,0.22844490654420962,0.20084091415857666,-0.6257820254348879,0.5206615355626596,0.197082537308464,0.1701286007339577,-0.023878700207882683,-0.48865282955147143,-0.11573383919969782,-0.027232220970129527,-0.836956578894767,0.4554618575636104,0.40022747926002367,-0.28127036734443794,0.30072812840163454,-0.17607134811770653,-0.33566731916949677,0.8289497896042048],[-0.5397595281754637,0.4027141209151761,0.486139749544321,0.4075910290398437,-0.8557921171425653,-0.4785725663385225,0.8995953924931659,0.834870557705347,-0.6308574455120197,0.013563280234477835,0.45543482336868335,0.6598515461955003,-0.23820221628393826,0.5767641835510382,-0.9493571727447138,-0.28256597044244497,-0.02236994920601787,-0.8013240162387021,0.24000446333082315,-0.4467292367228055,-0.19957267180569296,-0.8310489933670966,0.35443690341481005,-0.720235143014178,-0.506947468447076,0.8275368030126427,0.7765180571614623,-0.5498630290985249,-0.25217503931619234,0.5216301089642477,0.7148469945368157,-0.5897155828631293,-0.9863014181362996,0.5618685672061245,-0.6494637939841315,0.27569719527665465,0.6659964399710108,0.29562260446766575,-0.5018428022593657,0.8578756231825155,-0.6554754966852167,-0.9179598510983584,-0.6176820668449768,0.2092709563538736,-0.06714017330169228,-0.7016241765200313,0.4532363952839904,-0.2512725891807972,0.1710844118900735,-0.21819964012548984,0.14142839696240803,0.19611093180673697,0.33605726596207397,0.3770987907129704,-0.14506047498298869,0.7687924308391121,-0.19026416993259865,0.33123408930937615,0.49164863456517144,-0.5027922334285959,0.9215822388013509,-0.5276385488906973,-0.7259214121477073,-0.9349703596208416,0.36961651215597574,0.6670725472933089,0.6488861893818282,0.1652097611064327,-0.5448974003399675,-0.3141722254511066,-0.6085696768205938,0.11804657126250544,-0.06012510085911284,-0.6711900323672648,-0.34116138579535316,-0.35128672939955824,-0.6847599780995256,-0.272078364955766,0.27658011017263995,-0.9873248751376603,-0.22814726185143736,-0.32925712553692116,0.14595733206596195,0.8464707411693164,-0.8244664273992997,-0.7470153645613073,0.9728323574354965,-0.7849577999902377,0.7772285633203374,-0.3097371923537042,-0.2784810248941228,0.6135536531263439,0.43884694620529996,-0.4255807558419845,-1.674969061312063,-0.7779383913975855,-0.230359816921883,-0.74358458107361,-1.9692707805190655,0.009812249913679025,0.05954112038855605,-1.569804481092621,-2.3369808703074852,-2.5955542460030743,-2.1976205754159865,-2.3403038767121327,-0.40166994698708847,-0.06999383435106274,-0.4899018925202111,0.38246079539837574,-0.8755756940371019,-0.08533590945658243,0.027191683362536967,0.08701094061355696,-0.8456951418775097,-0.8279131472640093,-0.38348000649113123,0.8259602711330158,-0.326215625106517,-1.3374944381265237,-0.7800268463852368,-0.3939486893163191,-0.4013529869924592,0.0018862743059571269,-0.9880870887235648,0.5102401806750908,1.456775467337835,3.252442702728041,2.8610538882732017,1.2866559962221003,0.485881709280292,0.1352178784213701,-0.721505093572988,-0.8115724018053355,-0.839249968347861,0.14155195880863272,-0.625135112455047,0.4204277212601923,-0.8192587561649718,-0.16109638420702915,0.03347063558553276,-0.029725647565220115,-0.2681510111529333,0.46563679355514914,-0.843815951644974,-0.9352383970196121,-0.29019593493282686,0.19608730309445657,-0.28108569338041695,-3.1401668071543902,-0.09169240014532101,1.180232782983024,3.0426348376901555,4.191301044622094,5.5150857711011305,4.200529141725487,6.46508141923826,5.753177428414579,4.8254135255661605,1.2102124874258178,-0.8206218525189815,1.016402779065497,0.08802374668318425,0.4421053074293196,-0.6080189025942702,0.026988268663813684,-0.6123117979004179,-0.10176982235166385,0.36078442842720815,0.6305309431885715,-0.33705442884041936,-0.7068966329723383,0.36172651306810855,-0.7690592223628068,-0.7978465918538534,-0.2292713354802683,-1.974196176622687,-1.8206555327140421,-0.2095560091045254,1.5722944832415187,3.6068831247550643,3.4144426599629436,1.5359103494883088,-0.14279562838783366,-0.7861761785860105,1.515276458428344,1.2407304610980825,2.1764489452910922,1.7180179870971257,0.7741279254928862,1.4207351348817066,2.145877415380555,-0.06023430340430455,0.6677426971830809,-0.36184889442406554,0.3001953378038861,-0.7416607508681023,0.8779494673996487,0.14761366406187654,0.3979517676589554,-0.46048768260489636,0.2887423652429713,0.01988264692637581,-0.2858494510269907,0.09373708846545026,0.5207701654731567,-0.702797115416137,1.030845617613441,-1.149181658841576,-1.0223548975948265,-2.3217122426295043,0.6634458794826172,0.30487648119056376,1.6602189497444608,1.711109401534658,1.2187626385585735,-0.2793134422846053,2.638499255204116,2.2606909455243165,2.503357388171819,1.636322052642057,1.7051657435009477,1.3580533598195437,-0.15561821284222646,0.910504143287264,-0.3456813691079184,-0.14836504851718196,-0.19636720129481017,-0.8267180214466389,-0.7296742461011866,-1.142129219903261,-0.5248364506775661,0.8737717461345545,-0.07400104857937857,0.19990519630882211,1.720276551811966,0.3985105761723552,1.7652090996386025,0.8216102240984626,1.5423840387112064,1.6502204988296616,-1.625969116964057,0.07652289688765707,0.6510000183703689,-0.1691477052990447,0.8895995149993856,1.556360889902399,3.5753774534103853,4.803439931934253,4.251065211430701,1.8278365883530447,0.8250131130010995,-0.9246186761032631,0.7910296974723465,-1.033091456406008,-1.112823583342563,0.029516773615247776,-2.037719811379788,0.37034259636823746,-0.33941262319339216,1.1281703795024898,-1.6019437717806033,-1.6242669425289415,-1.8373132509707262,-3.0405791808176525,-1.8292759371199923,-1.874330395229066,-1.2260611466194116,-0.8680956628284432,0.33573628892806834,0.8561420821929752,1.212005541599135,2.274744418802698,1.2007920512143617,3.46066846430616,7.110502119976374,7.946846112618051,6.145696669193373,2.275305251596058,0.9009436170506331,0.7360001093645817,-0.850838470645132,-0.15494237618025095,-0.8578220707672473,-0.03509102291061568,-1.098670182009131,1.573812031805021,-0.37138186425137976,1.0892986450949538,0.9210054511885784,-2.217757452687373,-3.0774152315161527,-3.3415219697272613,-3.392965496256465,0.8933173903099184,-0.5565862244212633,-1.0891175744038786,1.0782121953834054,-0.1092965947382579,-0.6422708024489108,2.428182997934402,-0.5652429858103645,-0.019542907693877724,6.194739541734318,6.419949496118253,5.862068652917316,1.3573931372286496,-0.26827766996121993,0.1832884648145481,-0.2719983049074364,-0.4287577585497499,-0.9133669266902711,-1.5083767623693096,-0.5871691039003606,0.9226431457294876,-2.2705992068947443,0.12002978652234218,-1.091493238335595,-3.109073539610067,-1.4085046808840513,1.6196159173883085,4.488361012083069,2.5448154688417404,-4.1235189955531375,-5.370941869842707,-3.5997105518140087,-2.5623156532126847,-2.0779071031617935,-0.3527084491685639,-2.5460458583728687,-0.3405888875698244,3.783284154831837,4.742372984419816,2.154748769417294,1.0432944752460827,0.06614190809701433,0.37971383173888607,-0.1359179017279295,-0.6041488483520373,-0.41271498668403755,-2.7278584551546663,-1.328747810417446,-0.5298307842840229,-1.3283335878119542,-0.10367571419746645,0.8431499606965559,-0.289327146354023,3.7700950808416565,5.389018881384855,7.570964774497156,3.0634787535460593,-2.6786236178801213,-7.627323545716832,-4.216803442619007,-4.784697313495943,-3.8304696644278096,-3.036075868001284,-1.6624000206915783,-1.9069445835034267,2.3166799092555483,1.787769297674441,1.0792900662635556,0.9597748073674525,-0.33658735411562063,0.39551980011483123,-0.13418794904844833,0.844064705555899,0.8308744036619342,-3.334078260148909,-2.318880995037535,-2.070810206876211,-1.9930777469632668,-2.372062346569615,1.3049463993388355,-2.6519739004211926,2.007972726622963,2.74081176429359,3.257477340530139,0.2773075044080142,-2.864964026184079,-5.380601550966558,-5.15728296441735,-2.303180752380051,-5.9035127922335,-3.833271240326874,-5.068351889465308,-2.4967731664667623,1.7192662963957936,1.519927510884822,0.47038467854758104,-0.1665835237064208,0.6714464645380156,0.23850350749616395,-0.0015465635099190804,-0.8466553739281935,-0.8302746981172199,-1.3681728737524605,-2.6149488847777156,-1.7971605503333852,-2.1287253838235594,-3.092958351170842,-0.596349623611016,-0.837928674894623,1.625055091995095,1.4212199440771591,2.365257348862088,0.24251992569368194,-3.325256411154493,-4.8863646806581125,-4.135808346160343,-2.386494803567478,-5.3807652274711595,-3.8670284114178517,-4.707244760452418,-5.040924230368368,0.8838584506939063,0.8962870010426975,0.005376475399848942,-0.9795958727337979,-0.22159617198134593,0.5545906104058932,-0.7293361516150809,-0.5103002570346719,-0.5388895818760594,-2.3778106630332267,0.2548992144565904,-2.7061733624699174,-1.4878543774841366,-0.6223003602989587,1.8374422678262947,0.2828859418168819,-1.9131586430293077,4.769129298582142,3.0404538183124994,-1.1693967603826976,-6.0017743320268195,-5.942363131664747,-6.132824779133592,-4.017670247583618,-3.2973083817281834,-4.508003961306115,-4.47277721161711,-2.1735417702311217,-0.4272559666382619,2.158893783834305,-0.17770952244891078,0.2994508757798973,0.9056867936765954,0.8750639991218563,0.23315466943033752,-0.7308979551574581,0.611585081773902,0.7667562685849963,0.04488033677548767,-2.068403476403891,-3.6496390215117094,-3.2394710846630153,-0.3434006872461053,-1.4343236161246624,1.772580877075665,3.2720548952639894,0.9319507862188492,-3.3950784632180904,-6.41931492957844,-4.709859087184773,-3.837746171628223,-4.2812665598266655,-3.5497900882818194,-3.379328448609574,-1.681219274290344,1.2391340653291798,1.8251493035085338,0.5775595434168468,-0.6685663480211068,-0.5957742714471049,-0.5761057550331491,0.8106700057304417,0.6541383574344756,-0.28146669586922424,0.14689247293527194,1.0359774718803139,3.1747232550833395,2.4340360696819157,-0.7417411793252441,-2.253059865266032,-1.955362336921621,-2.7283998421670677,-2.059692874225746,-0.33453019320609084,-2.726037420655746,-3.810256038167638,-4.503604442281202,-1.3683203861609008,-1.7258675949485436,-4.280212174963401,2.2177939580063843,0.3668353122397731,2.117935478188383,4.199274096540936,1.5128453170287495,1.2795715643977346,-0.9885935200595134,-0.43461172401461307,0.5932887844069267,0.1794558479399642,0.21448070861715038,0.8988204654745544,1.3663930430638984,0.8989530681322647,2.9643106953391007,3.836839444187378,3.2816825007266615,1.4504064399824337,1.6584253881551971,0.529483444560297,0.9369224282925328,0.38348266477468096,-0.3919100326381052,-1.7240749639934285,-0.6286671529037681,-0.8428414149081425,-0.03914279333473728,2.109316967697546,3.040768514224895,2.4221034712596072,2.8228969955067873,5.187995793619243,1.8571089817811943,0.929028994729983,0.42921558556943795,0.6423549439907685,0.14191788094987756,-0.021063693102482305,0.5993055994233196,-0.006611465561706003,1.5376044002028753,2.5564521685608437,2.3237425866938777,2.7897666064032536,4.485805031982549,7.196357484547864,9.027962185864057,4.303722916555667,4.165609878465818,2.734221824180586,-1.2476982715805125,-1.0080227080006483,-0.41205272391550674,2.2716049208983367,1.3974782433307025,4.608606692098552,3.5834888090695944,2.9483005795970887,4.882942692200425,3.7420284919029436,2.4579599195119046,-0.07531243336407224,-0.7064552397691038,0.6490376636230202,-0.4191249594873563,-0.7249373197199445,0.32196166871389204,0.9172580601640079,1.8050579113512029,2.668459476546992,2.9583520680214606,5.311128650263415,5.317183385558722,6.212770681208443,6.400398635880953,7.244748376068508,5.297605268400457,2.9865648256683923,1.7762432510780186,-0.13194773787172423,1.5787263519588828,2.5792212603040436,2.1101900937223554,5.348805218832224,2.871897686858131,4.903785449790619,3.574602651055016,4.030200760491586,2.606243377827569,-0.7735889958709592,0.08224117169161535,0.1171562071799683,-0.26953209704962683,0.37056529284286255,0.8434942865079788,0.3275184910498718,1.6264065492284596,3.5613790298729793,4.5561139028261275,7.557546558028905,5.7345974276559,3.729336032672089,3.606829012727967,5.687271305493465,3.5088205671970982,4.258515870151162,3.084053973696841,3.1938352944860626,2.3090938310726465,-1.3616726446152696,3.4420212615347663,3.4699233180644318,1.9651288411488264,3.196271053072384,3.354767072781829,4.313490429842391,1.1039804616725566,-1.2990908498460543,0.49731685226022704,0.0604270331295675,-0.014918338819395074,0.266693941241685,-0.34962787649304683,0.5022305876387886,1.194058691369906,2.616425975200734,4.518534723929103,5.1606024645021025,3.9053679336202776,0.8462455239863544,1.9358178267453918,1.9588353339294287,5.85652024775405,5.214754133126655,5.619957268472701,5.464629086059335,4.216036825234326,0.8927532655174772,4.60490944067442,1.7403653766646243,2.423790545038452,3.5145996457586057,3.883139515974913,2.3093606498789123,1.6683058385494955,-0.532615205129657,-0.3041881825625565,0.5953686411524597,-0.17142162428725316,-0.7504931482535719,-0.01930626909770572,0.15513672057536032,1.0604968501857759,1.0775326348944096,1.8155162814952046,1.202992170681743,0.6289076384138997,0.3474340086808915,3.116212080105477,2.433713107636298,4.813306342833768,5.0109336676765315,3.40392491954527,5.552972012070905,7.349030132872094,7.425973051385188,5.444282718128104,2.3964806881064096,3.3815271244801273,1.676652820481731,0.7888577593350768,1.5170437553464906,1.8361131565904574,0.49397138323326584,-0.7078684844240631,0.273419634425207,-0.072297495174527,-0.28503322658061636,0.444092625492303,-0.7039035899471958,0.7063508155029548,-0.6083711992845307,-1.9963686667665845,-0.7598577340244941,0.6087942627487862,0.4005245672911672,1.7025410319962058,-0.11048582721444758,2.3370660527951417,0.28079164382530486,1.942486101302431,4.309586232584785,4.219633707430559,3.976607387530229,0.8146644939813662,1.884754118402621,0.5104532284029094,-1.51875291202095,-1.4721702845042113,0.4687850489534916,0.7106754506395119,-0.40040203451479983,-0.19520932946501895,0.23272912139404378,-0.1345592905339155,-0.005963555362917372,0.5045071438446569,-0.3857649452582267,-0.5028587897747832,-0.6818894650778732,-3.2935037607505615,-2.701870848539064,-3.394007437606795,0.04599674970017438,1.3874798330313411,2.861153382244245,0.21377576946015442,-1.5905306488667148,0.0337717682363341,0.12118279727025795,-1.4930110440378295,-0.7554629887109827,-0.07079379213095471,-0.09164385505604344,0.9049350970302469,-2.698268897529754,-0.4046562086520455,-0.9002802109419134,0.6831389563098248,0.2136753878811528,0.5768092138031934,-0.32535738882833787,0.3991020556854903,0.1903634326226762,-0.5999708641236245,0.48429897388742416,-0.31118411657893863,0.6681566865099999,0.14851139630041887,-0.7373341094747893,-0.7329594381993929,-2.4844863443499876,-2.697325745125102,-2.03635890838892,-2.2972597308118003,-1.5307252844964856,-4.536321077333422,-4.847896576704081,-2.4841755284391533,-2.468922720238679,-1.0092958027474848,-0.1834122652102888,-0.19845082987317456,0.4056273447296778,0.8401740987084639,-0.34267471004328504,-0.03626618023621117,0.8210617007243493,-0.2720206671656755,-0.16524930391845816,0.9354000066824706,0.8472381539043228,0.004289598605567102,-0.2981068346787614,-0.3265421390927745,-0.502818058005862,0.7806838008552276,-0.5272472897068936,-0.6624231720017225,0.5554790235480289,-0.06711752741403959,-0.5932902230956766,0.6488824886656348,-1.2705160188305875,0.006771352730779519,-0.0638873568976538,0.7772094024761722,0.5932902641940269,0.12850532809691387,-0.022399307611059405,-0.7629307658508819,-0.3302691371783816,-0.7935845040224622,0.10103015372294616,0.8376850612784188,-0.2906590748872191,0.4323305954325816,0.11195991138191008,-0.2959203278174629],[0.6461777799299275,0.6688105033885334,0.6615479646832001,-0.5313582443440465,-0.3789665972863141,0.06200138355107088,-0.6178650569971404,-0.02144506496668197,0.4303127075429312,-0.49752938531396,-0.6307042088683443,-0.9652075923310026,-0.4028952905867678,0.15945720401420393,-0.687772476659192,0.707580993557856,0.05886674642665679,-0.8840166093471737,0.22377917573224848,-0.09267624217842751,-0.22022899638745264,-0.4789117953375346,0.6983677391513128,-0.27581128577280767,0.1237407180232324,-0.14896548304497537,0.32451606505727915,-0.5174883860351711,-0.26910777076946224,0.3652602205115618,-0.7326170396123095,-0.7741797669986228,-0.015404225313773513,-0.342228543586759,-0.4405183854508809,0.45734244818522546,-0.9452179120238243,0.11057465035153438,-0.7221531164636896,0.7311091783971162,0.7521217982267565,-1.002585387660196,0.6715700534750496,-0.29654662103861934,0.49580711666216754,-0.8802174278786039,-0.7123574798425145,0.6050775576301056,0.8656850931815344,-0.9161795081551175,0.499946002876378,-0.4100947796323689,-0.23644962285642568,0.4900063280175133,0.45269416188027023,0.18144466184595243,-0.2218703008916485,-0.7199279538158534,-0.9352210597518336,0.04426903860460216,0.6947979815995871,0.08883599931273577,0.7359205642047131,-0.6968721851775398,0.2716536454492858,-0.6738441621710929,-1.241889381033214,0.013482040351439748,-0.9939350873675656,-1.5665296142770355,-0.31984997113299507,0.5681654014335182,-0.006658480624191148,0.6747445163015792,-0.43980482013443417,-0.4213997318946527,-0.739638448963453,-0.9824679023196867,0.7935441315666802,0.334560437845726,0.6278071215248859,0.7300800594481637,-0.8876262085467348,0.9213440890094984,0.7338750793702,-0.749296325779145,0.6365859652404003,-0.6874268296455989,-0.21809518083208257,-0.3684371004496927,0.5034072327432831,-0.3568418269507336,0.17412212601711358,1.8731917290495588,1.4218447465323398,2.555975773925352,3.8239944137414015,2.998134728741708,2.302500455136184,0.8906885741333511,1.6171892861356845,2.0837664413988093,0.31955301518106727,-1.3723252948584184,-0.359910046220051,-1.295158468895766,0.5437859590184713,-0.558943208878508,-0.06017073785662473,0.024307147585234633,0.9892307230413302,0.934772976093886,-0.10621648697904228,-0.3919498552556859,0.614161039818106,-0.6865778160365075,0.6041762439756774,-0.2619165140182645,0.9881318614803001,2.70607705960383,4.569101500311348,6.414412669582031,5.753144171749177,3.366245631514824,3.6177508522984914,3.652532711710752,3.3639780883990396,1.0572294819989354,-1.3701922527450583,0.30301903112186956,2.2476610892437745,2.092552957412868,-0.565737509716327,-2.9661169033454113,-3.419502921298077,-2.123425740723421,-0.7697844292228034,0.6160481700377722,-0.9627955504822281,-0.10577243833842655,0.07026645663280529,0.8810393053528844,0.4460203450764641,-0.2738346619349346,0.7077918981850403,2.893049712375136,3.898958250770116,4.099808345923106,5.612852845238263,2.9675442413202022,1.733900405575535,0.24770074783510063,3.834979218211715,0.36110212669009845,1.3502533650267505,2.3992615366026993,-1.3708761708823893,-3.5532317269618843,-0.9408144963780742,-0.7792734629131923,-2.040508573726874,-3.9782514764887433,-5.774447832061516,-3.6445788571271036,-1.956036780550388,-0.9906773938216773,-0.24888877154687156,-0.3266542059612912,-0.9057368342385932,-0.7608464111296886,0.12219394818497674,1.5466159613393589,3.428297933118157,3.7831523054194784,3.231088169176981,2.4232800542907684,2.661401034103797,0.9799401577851375,0.5787000829544313,3.659358867035488,5.288874226273896,2.8671278960949853,0.9437771700564151,0.8249415204192072,4.202823992605056,0.8917408852389004,0.2891256154305723,-4.397200159463953,-1.1588289647312815,-0.9923298202985976,-3.0414973674018397,-4.723540734162713,-3.638734289570296,-1.0797449504151044,0.07476823400306028,0.09073623656867782,-0.3998872013110831,-0.4222996987619514,-0.9834524209941299,1.6344636713562681,3.9915687525120305,5.3367582795372845,2.104600297110013,-2.442646340515645,-0.8074411605904505,0.3663866137003274,-0.9667612616607234,1.0795615738594908,3.9951705395921473,0.47475893877455577,0.5952446163233813,2.776869946017371,-0.9711492567757305,-2.432952564969778,-0.2229224298246766,-2.792561350075048,1.8573727195613563,-1.2458137713101722,-3.6410723559407696,-6.3224572680241415,-6.674497409133752,-1.9103394295277771,-0.2364445553996892,0.5659444079432379,-0.9569273631268403,-0.0012630926811624458,-0.37549244889673133,1.8158155412878125,5.018419318125432,3.419300563568074,3.6074431655599795,0.9493131138413314,-1.0528593508708237,-0.1565512975064168,-0.7550382005378076,-5.1083340028011825,0.4239908956383813,3.508815857638763,4.8170537302273315,3.353704166559076,-0.7539280773333789,1.1704945035631997,0.9557399441501198,-1.0077473750160797,0.8102443546800978,0.2541189947080804,-3.374938150603645,-9.158136232078984,-9.84041266797493,-3.8255330131884215,-1.242529234483126,0.7902016294014949,0.8377781455167392,0.11690633585230822,-0.7214159172930825,2.320228392304914,3.5366158377609413,3.3685330594812046,3.111681038645368,2.1298244138661095,-2.731299429758204,-2.4157754778758034,-4.268193433720611,-7.321251211128808,-3.619370396319684,3.9700513791696106,9.53451452048343,11.238566061547786,7.280723683721132,5.356293436614985,4.316078461577729,2.6019516455869534,4.3804590799750684,-0.6788645575555258,-7.0554862608001745,-12.508437361914874,-11.68917972456255,-4.651127338651807,-0.36190773642948154,-0.9815392830570098,0.8027070997665876,-0.5368509640413481,0.5647262458313494,1.687402059740307,0.7637493244797807,0.8001627419000311,0.42406751605696735,-1.6253247413631904,-6.666356556874313,-9.056998956217381,-9.678294545871344,-9.409425650655436,-9.608133759847828,-2.3345372701057956,3.1568504785706963,6.439249689478764,8.046908555923348,7.236073625525852,6.502167503030903,7.87315096390902,7.07746778508224,1.2369503188990536,-4.501320927781047,-10.36912312885329,-8.329625352920734,-3.4444358294851916,0.15299565471270726,0.706401747646524,0.9014387279664342,-0.9427641366585678,0.4717348883430579,1.7360498526481487,-0.3230502653081805,-1.2784660849415894,-2.974980010014375,-7.017735562455824,-8.964877911422784,-6.672429899702594,-4.55339842329405,-4.7485929399296065,-6.0074293508819085,-4.9509661354385734,0.0249995660602787,7.312450653657279,6.482521243335141,4.781680135146902,4.187635581117158,7.238184605870327,7.441792055558501,3.6284933325927224,-2.7537626369815147,-3.1166544781028422,-3.9553922010083493,-1.4383435858247462,-0.9918252391045105,-0.6717022836472558,0.24307782332293829,0.6615344843886344,-0.8628562027759549,-0.31824047248067416,-0.5883605097321251,-1.3890867209152475,-5.399332080973389,-5.485968933661106,-4.3413493568821515,-0.0907037460775326,-0.2083610144513315,-2.043415732770836,-4.475198699395992,-3.5346863586807373,1.707408085730703,2.1890570821666313,3.942223553002103,1.9968515970373002,5.069209563069117,3.119830974975672,0.9749731177190485,-0.7831327566501302,-2.2378407279838073,-2.6210526387354163,-1.1547735186675312,0.389754373553723,0.3836271285884475,0.8496379835127607,0.5716287447541072,-0.9907275869453998,0.7976539063260188,-0.22968114457798508,-0.8801513430768728,-0.1988080793755424,-4.098596834397439,-5.407838405664544,-1.0963975384516125,1.3022566442573702,-0.2945104562066466,-2.601517359465663,-4.933868964207477,-2.094514028299067,5.4034782127436864,3.9642431386760952,3.2415088624963992,4.256707230436561,2.1265253720972925,-0.6681897806398888,-3.0444324447349222,-4.804171237250451,-3.5650428788485624,-3.5439401851122088,-0.509764434750367,-0.7533223706085364,-0.07496183956187959,-0.8460638224043348,0.9051526170624031,0.7393801119264481,0.08085612006398944,0.2590537595691897,-0.32302681700175206,-0.32960108851975806,-0.9043698348549847,-2.594211725946049,-2.1304905684755884,-1.954261049206342,-3.4587727128708723,-3.32006781874416,-1.1451321218296384,0.5202617775098697,2.7629897958551934,2.1546900839415892,3.169852195104997,2.5878414359103203,0.07165000016138394,1.7757594823744545,-2.116196123178978,-3.068995799819256,-0.5416802852539817,-1.593584902813475,-0.8108494075132353,0.6434418205464376,0.9984927072770705,0.06044902848891524,-0.5359670721092636,0.8312207648667485,-0.8881644957067587,1.2901578576890493,0.6765882166884117,1.6254335372906172,0.1204492334429087,-0.3810623583811256,0.12500803633018165,-3.121332333624823,-3.822879453328342,-3.31699731971866,-3.555218985169266,3.4908528093557973,5.076514365702415,4.021451848375799,2.827164848095683,3.570180904678483,-2.477967089529274,-0.4001435664604949,0.1848746782778067,-0.8770096399356841,0.09387998858757199,0.14773676371969435,0.1331034457588421,-0.20916314522218585,1.2934071077825575,-0.7971287557966503,0.438219687577351,0.8839165991729024,0.2580457457931535,0.5231496528564892,2.333941876510743,0.5262951523437367,0.6437101858509089,1.547529801196877,-0.9116893434999123,-0.6723018537410996,-2.0467617450574074,-0.4562286096219355,-0.41869602620901997,2.45372222657312,1.1914671102696137,-0.7316678791921299,2.6092167546944216,-0.9284042152459053,1.490346702107508,-1.008347166773153,-0.7577945559111389,0.8892058265626233,0.7257246407314085,-0.20838832461866186,1.2604821131466026,1.2306189912591268,0.30370222856168394,-0.09228148173916373,0.3660858358965105,-0.7896818260265254,-0.005015460084732205,2.2637532684491,2.460526323568391,-0.5649605848968043,-4.710458669409423,-2.152599440319052,-1.6489204717117663,-2.5840937001165916,-4.221035824957565,-4.032761635864172,0.5156058303677831,3.384122242362183,-0.011556751157908659,-3.2399100621318633,1.4101397600891812,-1.8168062024983742,-1.103301515538041,2.3327005000285492,-1.9686540575141336,0.3981316183749197,3.0186276472199265,1.7182765040991528,0.005659559172063918,1.43046599201021,0.7732504251846558,-0.4699085301578951,-0.1847374445599654,-0.6507133938428316,0.9529907755390258,4.135111079384898,3.181120405194921,-0.7572580146458503,-3.458742878663294,-2.7156528245248612,-2.201824500913162,-3.1896306360370126,-2.7776152034005315,-1.509524241172659,-1.884115301810166,-0.4603268028395551,1.8282127175090042,1.221324225717866,-0.6259994512727289,-3.058928066407642,3.5134387404371292,1.2837318485836284,-0.21439961166637048,1.601016937165076,2.9186751287956625,2.895955437639518,0.9314641308327914,1.1506742667347465,1.3649032984272333,0.08140691706122492,0.7109544214018123,-0.7965004189681038,1.406232149020562,2.7267744818766504,2.7057361367211534,-0.8716506186910624,0.603051776827978,1.4510414561374092,-3.7410833014499083,-4.234491461430526,-1.728576131166353,-4.167995571364172,-4.058962650617238,-1.657223122654087,0.7571934568533155,2.296295242486529,1.2042185644873153,1.1000746670057742,4.122193178784876,2.4804247955272154,3.0033250852303945,2.9558235429880466,0.7997517694818012,0.49635741015198526,0.5179319977759127,0.26928873370870793,1.3546382995454689,1.0084277384093423,0.9369548388266709,0.3350354479493491,0.9415055198883323,2.011519239784088,2.864359128473592,-0.20045629330386858,0.10418144657882103,1.8351744835041435,-1.3715808202700637,1.2458219266881954,-1.1290629192662156,-3.655111586994924,-4.80886972438957,-4.330799516883133,-1.6402610124141295,2.7612156812529554,-0.4271528403534951,-0.5895285508033697,0.47923935315357435,1.7291347812723057,3.258433087640748,1.7571225424237045,0.36409970959227633,1.1247974012757562,1.4417846497059033,0.4179480027113846,0.5804030464599431,-0.14111918228648265,-0.14054914554102158,0.04531853437312588,-0.20605367540164699,1.3441514138074084,1.0842044593265963,-0.09010281346914145,-0.024812621184716235,-1.3296056365435747,-2.287121914818986,-1.2557951715560454,-1.2630733183658347,-3.846770524925219,-5.595599355485548,-4.34763348189463,-1.8058845130436314,-0.8576134898362051,3.325034130281658,1.7646965553904015,1.2742691511667006,4.027470905726698,0.11741456083450456,-2.7761766662467613,-0.5170942924899066,0.44355519747806677,0.6193858648259533,1.2164034191058524,0.4813029859401604,0.7033026251728173,-0.7578705237139843,0.651753576189543,0.19099675636680266,0.34224694314761445,-0.08625578451210379,2.7314495704250037,2.2767251163237647,0.7873860454326327,0.04179283636279214,0.488283981624441,-0.7730468777494154,-4.869264433212882,-5.479462097152546,-3.2231912693973586,-0.9898744257914219,-1.8267482126574925,1.6329434895436923,0.7022128406213376,1.4345291406481293,2.073468925642641,-1.1739506792943506,-1.6031186507602802,0.8818414640477009,1.2491570681519457,-0.5244870879518332,-0.5972616570041822,0.3591326931636547,-0.7233860215421629,0.5838014946931023,0.4732427004534765,0.0869206797609834,-0.7564331887852231,-0.3476870486563648,1.9796991470012677,2.4945509235150225,3.3080145647921393,-0.5645915149138461,0.9807348733737781,-1.6516953867526045,-1.6237774235102351,-1.7290455364347315,1.014646949930581,-2.3789990700493022,-2.0485258207984405,-0.2757506442923447,1.0748688705953193,1.4240450431987315,-0.2109438399999576,1.1824787749574002,0.9661651104590419,0.7828917095402885,1.171027988410633,0.139889441850254,-0.11453053021314849,0.3420515382462358,-0.4154259785511401,0.9454949011095728,0.06175745933048171,0.03017109591520005,0.34976379615496433,-0.5170514958626355,1.9402772933800645,0.07290463888213797,2.1072556698938874,1.4877912193062701,0.4886569395784111,0.8477869010095636,0.43485137255473355,-1.4838046539555603,-2.61508193922325,0.4341142661441973,0.79228496914198,1.4526230647701206,-0.5382987557948973,-0.6936985240506371,-0.39486051940207517,0.20379589620473537,0.35878093323546195,0.10999474238848307,1.0587376814349083,-0.575863248740787,0.9921045742359038,-0.8135850723632474,-0.3831942427370707,-0.07033079291007405,0.17241016326598846,-0.09823015516236443,0.4236196032341981,0.8823926417977803,-0.7534604659730286,0.596879570747242,-0.3509912451690654,1.1352041644097544,0.5719631980260712,1.6626647451522254,-0.5787833241794486,0.7990890540992404,-0.8704332041581617,0.324788342763858,1.4543228493395863,0.19385207145238206,-0.16197053839751346,0.11869063528572632,0.9079594053306784,0.11180501997710285,-0.09419477781224007,0.5649439283187576,-0.19841746331879845,-0.5159694147476696,0.5751866961925103,-0.6894552286164034,-0.387074552046728,-0.8408602402903713,-0.21802174923885764,-0.7852167782923951,0.8137457575468912,0.7302982175752569,0.35556300074704233,0.3158383048614061,-0.33369945928359573,-0.3691953386955471,0.5757443988316109,-0.5121157173524498,0.03523744037208148,1.1229803563872174,0.17645923808562816,0.8849047145091218,-0.4930831211974419,0.13302304749613827,0.8908929215998898,0.2045302854977521,-0.33735625483427806,-0.2702545036433688,0.4942236501807335,0.5567785473659009,0.5444174875657158,0.7674488851268861,-0.8326184490726781,0.642587998770902,-0.0263320771707638,0.10688972370753214,0.19012616289259832,-0.11100419806292594,0.903625594626964,-0.7927883961008675,-0.2968296752522817,-0.7957536512274571,-0.7097148602379248,0.11687796515160012,0.7915056360001689,0.10046743808296868,-0.8206064202951817,-0.01847785110049862,0.6263883591131241,0.7135662347706607,-0.21104156187226197,0.6549919810056418,-0.5508541015409634,0.07224789025421782,-0.9630465967351087,-0.8093018307415093,0.0703731984758143,0.6832620095641155,0.3391430979366776,-0.9277781992161138,0.37672015269936665,-0.1068591997164634,-0.295096716769667],[-0.708573744688781,0.3418249642379607,-0.3067308295107414,0.36060750567534394,0.9726597322609742,-0.5044076846824734,-0.15086502387988276,0.2511177638631248,0.4308700482902066,0.4086394834916271,-0.6441961293659109,-0.0037147397146599648,0.5115040561779808,-0.5685098677236208,-0.3885948672531423,0.3934297345652931,-0.6399211592347542,0.6023928515865926,0.1750857269098407,-0.29632524073312005,0.3469029558690022,-0.0823597335361903,-0.4915614107743635,0.5262078707115196,0.5617664941243841,0.7768703045063057,-0.07828416272620453,0.06600775776545897,0.17131748468165453,-0.604114102206889,-0.09674697645355824,-0.9718624269228232,-0.9549996007537016,0.7216285892043516,0.1365640196408852,-1.0202450370995408,-0.29371019272077914,-0.8195752931314066,0.50207453439301,-0.2222629388940765,-1.560540238467375,-0.06005647945709697,-0.07604534386682993,0.4852792825467505,-0.5447100872653106,0.82472411936063,-0.9105738250568775,-0.37365865245125557,-0.9980722528232001,-0.45359455867913945,0.5203171699359068,0.6283319342966821,-0.6123949088016878,0.5128730118908746,-0.9770315070312644,0.18482302643755677,-0.31659858601414137,-0.20162969727645352,-0.8124299573302928,0.8402408005848017,-0.46448494894615017,-0.314527943717898,0.023533514312854907,-0.7564054580511271,-0.7032944373137594,-1.1661615757492592,-2.397580397482811,-3.105407177875014,-3.2886530203904036,-1.6600078674385876,-2.245186075003491,-3.4741664221762707,-2.563834021454239,-2.3187051994074794,-1.9084621000725013,-0.6508047801329938,-1.4097545589092924,0.08892052476581416,0.012401675868416659,-0.07957551051198967,0.39838587902664735,-1.0088090090036752,0.5597504666282063,0.11575614676781364,0.6434535462584714,0.49492678734821105,0.5141390337852509,-0.5842235259315021,-0.4101252006097241,0.8195197264110352,-0.9688553133465627,-1.2054323424353137,-1.196227624252162,-5.0915500748167615,-4.77681199399935,-5.000287863315156,-2.797304508870892,-2.663742168215499,-4.949464041516725,-3.3069581200877836,-2.3348872182537126,-3.2993433117921804,-3.0404543442632535,-2.1801438344069624,-2.932752317969801,-2.997173486045031,-2.6261073288437093,-1.425590861024653,-0.8392812047026695,-0.24565872870332414,0.0948062034344686,-0.4686060235024714,0.011035707895719948,-0.19929850797102588,-0.4408750519014947,-0.7799790642734927,0.4107631856038257,-0.15235806303378063,-2.0692200012820368,-1.2572508159557156,-2.3288492720810137,-2.4172068130207895,-2.0780222813505187,-2.3313709957199182,-2.2860367678776923,-1.870136911748795,-0.6941225193821285,0.2610748014559599,0.5738854169198129,0.30495351267562226,-2.637482154323349,-0.44292925796768445,-1.5837783102432978,-2.5313680535131433,-3.5589922142864734,-1.052635212232219,-0.36480521836930274,-0.08243104220417377,0.28291104970780423,-0.5317129750393706,-0.49256595636748113,0.7655353514568839,-0.3453563920221347,0.7019741812645237,0.751677028304541,0.12231228313085772,-0.34735533262021845,-1.028447354439332,-2.1398026914210155,0.8194366758938949,-0.9263494241646315,-0.7817577307239026,2.628853184668439,1.5897267630936822,-0.11250863653580702,-1.8146015017595172,-1.395098487048772,-1.0003686382828503,-2.086852868004435,-2.3497910497292445,0.027682188980833463,-0.42576157175198914,-1.4105236114178714,-1.5513520856743293,0.3822949224069657,0.9915656194528082,-0.43088140152063514,-0.986845602209632,-0.9878402560138192,0.44935721763907305,0.5416286212116996,-0.7293832557790697,0.7126063560423677,1.5601641746944603,-1.166573923216126,-1.083043855570161,-1.5743541599599837,-0.5996674871192725,-2.0924503656304188,-0.432688903490843,0.5471543484536184,0.44041699480517155,0.774391149434185,-0.42573013995433473,-0.310040404955689,1.7940170177067987,0.720419291425513,0.45002568723572867,-0.5453914307345068,2.5669341940568104,1.8044653054555073,2.202003153145837,-0.19440300378687686,1.1178449720452222,0.05887810249098753,-0.30798275014581317,-0.17354935238238614,-0.07011453136369965,-0.9485098031602843,-0.08026991015120435,0.2596394218285818,-1.2227297586301618,-0.33655821765706445,2.5016819545553286,-0.9066320008852135,0.3819458795432688,-0.53292540594794,-0.46422810436092915,-0.6639344890061624,-0.054615524619832705,0.04144051375174529,-1.4064859426765473,0.6143587487863134,0.5430685968498354,2.265395308776553,1.6947730005783348,1.1177121184321186,0.9640675859062737,3.3465638808478175,4.849546675734872,1.6670609836828705,-0.3500644653001076,-0.848553242760344,0.6902376965509781,0.8221647750707701,0.847953163250858,0.4963392734171588,-1.117755199862162,-1.2452415406365487,0.2165326534433007,-0.01860691016561996,1.6466800112743258,2.972126159541561,2.172456096231038,0.022368997313391193,-2.6872041547127443,-0.9743623398974159,0.7619767803134757,1.7433486248482775,0.3598977627580218,2.050776020867988,2.180913390471293,6.148529556302654,3.319992189056767,2.8679599917878713,4.3129909838860865,4.446382000977468,5.510638004116799,4.136177522339381,0.4107299355862586,0.2869140131888758,-0.26505404734718857,-0.11092901512219573,0.2311239889874851,-1.2224206865920093,-0.21814877509282674,-0.6547258366214209,0.9642647363080453,0.23553355522279337,0.2781404983700364,-0.7429572039368538,1.353126694182589,2.4233768605261914,1.4721658724120785,-2.242426198182089,0.4278181975551293,-0.45204104718317495,4.902114714221385,5.54078628452638,6.433722208017285,3.874132196292346,3.310822660860045,2.3196383987431446,5.735411989680514,4.384185111649886,3.3007755035557436,3.509395942070788,1.703969005504438,-0.6617171647496246,0.5950780055927967,-0.8360491802182916,0.6039203156780918,-1.0862585992414724,0.8035579089277607,-0.5667196108953848,1.203784996586308,1.191703180013795,1.2629716171371517,-1.3297124511123317,2.4459918579766353,3.572206500991342,1.2998451007025076,1.2792216841960502,2.061851818899986,2.2321768643291224,6.131535297633787,3.8245848522403207,1.9636273971448712,2.661815927879034,3.0861716133251447,2.5145483164684244,2.4985224518784688,3.131971678891401,1.2989048217259347,2.0627398193916187,1.7494856073184075,0.7725538921102766,-0.005640837355636346,-0.7418833514911326,0.8662029902667856,1.0788282391065316,-0.801160708920053,1.1133939550925989,1.9853382448560617,5.11108605654628,5.325119556428755,4.2595182434782926,6.362923920323959,8.445110415846568,7.752190568527867,6.098333229142567,-0.061984645627672,-5.940056325405676,-0.14343769530843306,-0.37515079216410097,1.0522999966261095,-0.178872118699987,1.0289752629951783,-0.15094813305585272,0.32032194713302786,2.178756623545505,-0.07181336530866089,-0.6450017368387148,-0.6653167300485511,0.46863191533128085,-0.041816525421048745,-0.23037364327344306,-0.4351456013909968,0.015436100663271586,0.6049964035071158,2.2683513447354984,4.633251907953069,6.515106009550539,9.841796666258999,8.989443451834731,8.374590495812287,7.366084210904679,8.827489137735533,9.468432445895584,-2.644161698283924,-7.127918554257765,-3.9934545786989637,-2.657751345356069,-0.49193491050626514,-2.3009516920061452,-0.19550182767357205,-0.7013744259635718,-0.380446746141413,1.3889214088721518,0.8296396570369238,-2.63893847867936,-0.5600301550707114,-0.5994773948705461,0.9456545786209646,-0.49104028316648923,0.28435067440022505,-0.36319547172456884,0.13840830364215553,2.5041053336401515,6.723494335539922,6.295310328431167,7.269710507524491,4.62712557645685,3.258030321972342,1.7355921700745442,3.937593956215025,4.344669254724576,-4.040350176116027,-2.783024710793324,1.3191134046613398,-1.266596549164358,-0.08988285119156754,-0.5016508924493354,2.159219261473763,2.031106971568463,1.2210276061422296,1.371188452252041,-0.29985983149806106,-1.9286047838866394,-0.05888290913618071,-1.1338414176805873,-0.5269470181288554,0.1761053273261155,0.5252485674133676,0.7440393859884268,0.3014745622319088,3.8809904569697915,7.901669697297277,2.4725706004095187,1.6003160239832233,-0.525501524319565,-0.18699065867947962,-1.2919434873433646,0.9628012887183073,0.606757646196274,-2.7411731447512633,-3.0769600085270508,-0.11839568058369594,-1.2530573025102618,0.714486029925618,-1.7134156443776465,-1.5744671356583735,1.502769691745777,-1.2365694372092766,-1.5656966588567307,1.5519397526119874,0.014622646454422307,-0.10617785726137464,-0.46510509322958676,-0.6144756165314719,-0.7102360869474772,-0.7077438780308742,-1.0388751292846337,-1.2990915953403457,2.3787310168499713,3.4572239101959643,-0.28867254141926646,0.9443556426654043,1.112456325355374,1.4235979931804268,1.5481347129316843,-0.5351523490378165,1.336621817138261,-5.066095144948897,-3.8554686273776553,-2.5418211783578153,-0.5019495786614536,-1.0586621128593439,0.5000393979634448,0.22228490659859645,-1.7940727976040618,-2.7273362017722067,1.1796164051868885,1.7299298867716424,-2.3185774488524773,-2.1870619709717283,-0.6862462049917186,-1.0490818946028595,-0.5210920413836951,-0.3287777589732515,-1.0394329106760023,-1.9147567091903541,0.5954281990027741,-0.12673675288449002,-1.7516696786976944,0.38436539513585055,3.5073903595668905,-1.999531985462648,0.5277286581374155,-1.0552853668691005,-0.8386093940190877,-4.048060971425677,-4.387421183697319,-0.8534812348023169,-0.6338431662511175,1.6550573928021126,-1.4265693678608797,-1.8192114438618932,-3.0541968716020005,-1.9398013200478548,-0.07129988884675054,0.07073316829414557,-3.3285820026143798,-3.2086253152125037,-1.8154662529047938,0.44286902047413995,-0.4829307293959426,0.05280350306768204,-0.21027525279053913,-1.5855737643429222,-2.7268780600905864,-1.3655308585486219,-1.9157375680037894,-1.7388065496167153,-2.2409647145627773,-0.20590329481962102,0.8410686584367794,-0.7860604124250863,0.4071708456138995,0.5518725924887892,-1.8254191916836209,-1.0166618871413986,0.3771940173484734,-2.028433740556318,-3.233594739696672,-2.0011011155343414,-1.0285277046476557,-2.083749609360263,-1.8049709221519257,-1.9723569011858797,-3.259614260994937,-3.394251018882732,-1.8332782127136673,0.15287720486882797,0.6297091197074125,0.6551212075747709,-0.48489242321333753,-2.505760614874918,-4.316435681028368,-1.4794683017070334,-1.8801248619364126,-1.0771221564590083,0.12005481769322672,-0.5680185705740637,-3.1384788547565643,-1.539191908981396,-1.528726994594482,-0.007609075348678304,-2.794853728430373,-2.742788395826531,-1.9867226661293016,-2.977106178589844,-3.4717538697842993,-4.3021031845129585,-2.389163087250455,-1.3003246126556143,-0.9169301890506787,-4.452134833820497,-4.746962394345866,-2.9702351921125327,-1.2147562218355514,-1.027963676610783,-0.21013962708062442,-0.835932161850529,0.8555213792707447,-3.284288930899688,-5.367313114879733,-3.3545908317531796,-0.9895529861536524,-1.557219305316198,-2.531989759936391,-3.8026267655414343,-3.568094895486575,-3.597942381958327,-3.350275501087017,-1.7794406580669095,1.3249896979068263,-1.727200178989332,-2.5358688534662286,-3.8686291095676903,-2.2931002141747876,-2.0072673030631196,-2.6170469076368668,-1.5068037304455109,-0.8902048702920776,-4.01923712346007,-2.5780290276405453,-1.652152199992912,-0.3924275574988484,0.23680462351793607,0.14974622282122674,0.6042511362944231,-0.1917966837341366,-2.520159386334994,-6.065421499931652,-2.62208348717604,-2.357523985902959,-1.6612682822424356,-3.8948906353032973,-2.1446644179009886,-1.221285846335425,-2.707202687735784,-0.5562514830592679,0.7816177966740973,0.5625755101444889,-0.5009111184298641,-1.6285531173863552,-0.9584980099182265,-1.1162445043277858,-1.5776808623862522,-2.445204119157747,-1.9027134794865022,-0.2176896492457642,-1.5303371385615967,-2.575978640795202,-1.375211003165356,-0.4437201040853488,0.9869599379014699,0.3427008313941402,-0.15766994999148673,-0.26307189790884444,-3.2668410382748143,-4.468199449415453,-2.355502659470296,-1.9213804198143631,-0.7520623903021568,-1.002601836665515,-1.9223546248085306,-1.8128010334138018,-0.9161020715812381,-0.5197701318098384,-2.6918095438276137,-2.6712278265852123,-1.6795326844281486,-0.8533276183093313,-2.0934592334369877,-1.0663204268151505,-1.2025281924200437,0.3717038114556572,0.7989832818331494,0.34976569002739355,-1.4859339707436736,-1.2395182663402378,0.05092573139686353,-0.9736303139757015,-0.378596147774657,0.3663243275634474,0.7164438208024942,-0.5110222949950516,-0.9224956860303086,-3.8234167630920037,-3.9277515882164185,-1.168128433782088,-0.7125048323453957,0.687462570337001,-0.5692701758961743,-0.7853736499550715,0.2660911420217224,2.0716146300513643,2.0025090191197834,0.07690878986611704,0.6590899094743559,0.4309361300731255,0.04294751512565796,-0.007911634548631644,-0.42121688086559317,-1.37371265456563,-0.9875539037688081,-1.636390442347858,-1.3017935521011996,-0.9237942533362372,-0.5697953453668876,-0.041332950009923056,0.09255795970689185,-0.04980669162110196,0.005035674712171367,-0.09199964906722893,-1.2195396763036013,-3.658208237008967,-2.4926561312079936,-2.9764454439592924,-1.0112826148945457,-0.6149624206603966,-1.344629373394014,0.30163467275227557,-0.2553039957676441,-1.228166213983777,0.8347653547132234,-0.786912912875284,-1.4911010483481266,1.1530328388406417,1.1750563104220728,1.0251938636048818,-0.3130989770059658,-0.6505120946803385,-0.21569683802680478,-0.8185861516528511,0.4654762802326341,-0.6768617156852909,0.5851939352267552,-0.9234395777802782,-0.8741144621045405,-0.04712268537023934,0.8804189896890886,-0.7265023586714006,-1.0793713059942922,-0.9965237907039328,-2.2205768234403793,-2.462308621535003,-3.1935143255087044,-2.6317615893126685,-1.5167427785093257,-2.2393015009894013,-2.923077629650807,-2.479949092137077,-2.4859317690515077,-1.7915673335370266,-1.33479241060888,-1.7542746943451768,-1.339163297012414,1.517926810534563,1.0161720476648308,1.0076130499491256,-0.4209895046566409,-0.17575077517107496,1.2546003337935216,0.8182550843070463,-0.9818832861667258,0.4292764360808764,-0.7161160252380816,-0.19238951834890128,-0.051211305400317375,-0.2631486749730855,0.6736732722841987,0.8132944992721195,0.09788447565796965,-0.7111855966093582,-0.918153030338173,-0.18293998379321094,0.06543045369546913,0.843989527249999,-0.1773388502305034,-1.2667723201057337,1.7916009562490023,1.4667993223752578,0.4674034640247347,0.9435924196929215,0.7446275354230133,0.38524213002778007,1.481821528494974,-0.07054137862671317,1.1807303258378241,0.3927361032539288,-0.7148946532987825,-0.4072232806967412,0.33587095788566124,-0.8848673435277943,-0.7258729841594695,0.10711679971250863,-0.8296209756301152,-0.83501160706883,0.24110520080478734,0.13283911497903944,-0.267685128805421,0.8776745634585515,-0.27423448847051546,0.3402584376431346,0.7339630551896095,1.3200841052542782,0.5072898753752783,1.944811824294654,1.0340828100531776,0.9790277503720176,-0.34562886453800695,-0.5048531462052918,-0.3499128090949588,0.5277339885471831,-0.19747333892212968,0.32191120005554924,-0.7807057476392533,0.10440255760576823,-0.683845458309773,-0.4058168512687619,0.4682657861140993,0.21163345371551223,-0.0862231946514489,0.3758950127885865,-0.17790306554952817,-0.4229298302321707,-0.7777657928920643,-0.8687447392843158,-0.839711253997083,-0.329255601642778,0.3344999026181255,-0.0629208823366792,-0.4848201918633073,0.38572043742502055,0.07535634737579087,0.18899529848121127,-0.5967518954659151,0.42759412625655946,0.9608916320810366,-0.5342372266551405,0.06850708144283969,0.6780349431252447,0.8576422316146369,0.352089072526154,-0.14961573417024276,0.05827717898972435,-0.8936139358440675,-0.8178891993939323,0.7525099823900316,0.3894926315278104,0.1925963219708775],[-0.23864569999293428,0.97702443398492,-0.03831670354156347,0.371299225045596,-0.48959562394972367,0.6487852892023318,-0.49165496586186674,0.004114135968820598,0.06951122099847162,0.1742864709740588,0.46915607103014767,0.6645185281092427,-0.34219332081874215,-0.4896035975822335,0.22506039480488824,0.7823703121932829,0.3918692274637882,0.19702987609367595,-0.6777437566662123,-0.3907966121107298,-0.600330554093202,-0.0054476301741162025,0.748299805694941,-0.46919101566001387,-0.402325357255648,-0.11873869452642816,0.4724200311256692,-0.9132072314286948,0.5249985449857795,0.358619202199687,-0.6542987778666709,0.4017080427449255,-0.1845406626506383,-0.3950623719777746,0.4272790887873252,0.35419133735365815,1.0283078689584029,0.2178056911334212,0.8163034366139528,0.7525585660359921,0.22167293304985497,