{"layers":[{"biases":{"cols":1,"data":[0.5700799226760864,0.3431849181652069,-1.4089715480804443,-0.16025111079216003,-0.7631785273551941,-0.8528912663459778,0.27201929688453674,1.2011622190475464,1.5229145288467407,-0.18395860493183136,2.0500171184539795,-0.21488450467586517,0.5866732597351074,0.25635093450546265,0.9851493239402771,-0.1281401813030243,1.3496299982070923,1.1674306392669678,1.8478195667266846,0.5585945844650269,-1.6106383800506592,0.5285431742668152,-3.710214853286743,1.6887327432632446,0.876787543296814,-0.5252777934074402,0.4520305395126343,-2.6915228366851807],"rows":28},"input":{"cols":1,"data":[0.0,0.0,0.0,0.0,0.0,0.0,0.0,0.0,0.0,0.0,0.0,0.0,0.0,0.0,0.0,0.0,0.0,0.0,0.0,0.0,0.0,0.0,0.0,0.0,0.0,0.0,0.0,0.0,0.0,0.0,0.0,0.0,0.0,0.0,0.0,0.0,0.0,0.0,0.0,0.0,0.0,0.0,0.0,0.0,0.0,0.0,0.0,0.0,0.0,0.0,0.0,0.0,0.0,0.0,0.0,0.0,0.0,0.0,0.0,0.0,0.0,0.0,0.0,0.0,0.0,0.0,0.0,0.0,0.0,0.0,0.0,0.0,0.0,0.0,0.0,0.0,0.0,0.0,0.0,0.0,0.0,0.0,0.0,0.0,0.0,0.0,0.0,0.0,0.0,0.0,0.0,0.0,0.0,0.0,0.0,0.0,0.0,0.0,0.0,0.0,0.0,0.0,0.0,0.0,0.0,0.0,0.0,0.0,0.0,0.0,0.0,0.0,0.0,0.0,0.0,0.0,0.0,0.0,0.0,0.0,0.0,0.0,0.0,0.0,0.0,0.0,0.0,0.0,0.0,0.0,0.0,0.0,0.0,0.0,0.0,0.0,0.0,0.0,0.0,0.0,0.0,0.0,0.0,0.0,0.0,0.0,0.0,0.0,0.0,0.0,0.0,0.0,0.0,0.0,0.0,0.0,0.0,0.0,0.0,0.0,0.0,0.0,0.0,0.0,0.0,0.0,0.0,0.0,0.0,0.0,0.0,0.0,0.0,0.0,0.0,0.0,0.0,0.0,0.0,0.0,0.0,0.0,0.0,0.0,0.14901961386203766,0.1882352977991104,0.1882352977991104,0.08627451211214066,0.0,0.0,0.0,0.0,0.0,0.0,0.0,0.0,0.0,0.0,0.0,0.0,0.0,0.0,0.0,0.0,0.0,0.0,0.0,0.0,0.0,0.24313725531101227,0.3803921639919281,0.7764706015586853,0.9529411792755127,0.9960784316062927,0.9960784316062927,0.8313725590705872,0.10588235408067703,0.0,0.0,0.0,0.0,0.0,0.0,0.0,0.0,0.0,0.0,0.0,0.0,0.0,0.0,0.0,0.0,0.0,0.0,0.0,0.26274511218070984,0.6745098233222961,0.9960784316062927,0.9960784316062927,0.8823529481887817,0.8549019694328308,0.8549019694328308,0.929411768913269,0.9725490212440491,0.1568627506494522,0.0,0.08235294371843338,0.6431372761726379,0.7333333492279053,0.0,0.0,0.0,0.0,0.0,0.0,0.0,0.0,0.0,0.0,0.0,0.0,0.0,0.3490196168422699,0.8588235378265381,0.9960784316062927,0.3803921639919281,0.26274511218070984,0.054901961237192154,0.0,0.0,0.3607843220233917,0.9058823585510254,0.47843137383461,0.09019608050584793,0.7960784435272217,0.9254902005195618,0.23137255012989044,0.0,0.0,0.0,0.0,0.0,0.0,0.0,0.0,0.0,0.0,0.0,0.0,0.09803921729326248,0.8509804010391235,0.9490196108818054,0.3607843220233917,0.01568627543747425,0.0,0.0,0.0,0.0,0.01568627543747425,0.5764706134796143,0.9921568632125854,0.9411764740943909,0.9098039269447327,0.3607843220233917,0.0,0.0,0.0,0.0,0.0,0.0,0.0,0.0,0.0,0.0,0.0,0.0,0.0,0.3960784375667572,1.0,0.3607843220233917,0.0,0.0,0.0,0.0,0.0,0.0,0.4117647111415863,0.9960784316062927,0.9960784316062927,0.6941176652908325,0.04313725605607033,0.0,0.0,0.0,0.0,0.0,0.0,0.0,0.0,0.0,0.0,0.0,0.0,0.0,0.0,0.6549019813537598,0.95686274766922,0.16078431904315948,0.0,0.0,0.0,0.027450980618596077,0.2980392277240753,0.7803921699523926,0.9333333373069763,0.9372549057006836,0.3686274588108063,0.03921568766236305,0.0,0.0,0.0,0.0,0.0,0.0,0.0,0.0,0.0,0.0,0.0,0.0,0.0,0.0,0.0,0.7529411911964417,0.4745098054409027,0.0,0.0,0.007843137718737125,0.24705882370471954,0.7058823704719543,0.9960784316062927,0.9137254953384399,0.4941176474094391,0.0,0.0,0.0,0.0,0.0,0.0,0.0,0.0,0.0,0.0,0.0,0.0,0.0,0.0,0.0,0.0,0.0,0.0,0.7450980544090271,0.7686274647712708,0.054901961237192154,0.007843137718737125,0.3803921639919281,0.9960784316062927,0.9882352948188782,0.572549045085907,0.20392157137393951,0.0,0.0,0.0,0.0,0.0,0.0,0.0,0.0,0.0,0.0,0.0,0.0,0.0,0.0,0.0,0.0,0.0,0.0,0.0,0.5098039507865906,0.8823529481887817,0.27843138575553894,0.7058823704719543,0.9098039269447327,0.7098039388656616,0.23529411852359772,0.0,0.0,0.0,0.0,0.0,0.0,0.0,0.0,0.0,0.0,0.0,0.0,0.0,0.0,0.0,0.0,0.0,0.0,0.0,0.0,0.0,0.5098039507865906,0.9960784316062927,0.9960784316062927,0.9019607901573181,0.18039216101169586,0.0,0.0,0.0,0.0,0.0,0.0,0.0,0.0,0.0,0.0,0.0,0.0,0.0,0.0,0.0,0.0,0.0,0.0,0.0,0.0,0.0,0.0235294122248888,0.3019607961177826,0.95686274766922,0.9960784316062927,0.6352941393852234,0.01568627543747425,0.0,0.0,0.0,0.0,0.0,0.0,0.0,0.0,0.0,0.0,0.0,0.0,0.0,0.0,0.0,0.0,0.0,0.0,0.0,0.0,0.0,0.0,0.4313725531101227,0.9960784316062927,0.8549019694328308,0.9960784316062927,0.45490196347236633,0.0,0.0,0.0,0.0,0.0,0.0,0.0,0.0,0.0,0.0,0.0,0.0,0.0,0.0,0.0,0.0,0.0,0.0,0.0,0.0,0.0,0.0,0.5137255191802979,0.9960784316062927,0.6039215922355652,0.10980392247438431,0.8352941274642944,0.33725491166114807,0.0,0.0,0.0,0.0,0.0,0.0,0.0,0.0,0.0,0.0,0.0,0.0,0.0,0.0,0.0,0.0,0.0,0.0,0.0,0.0,0.0,0.25882354378700256,0.8196078538894653,0.6000000238418579,0.07450980693101883,0.07450980693101883,0.9137254953384399,0.23529411852359772,0.0,0.0,0.0,0.0,0.0,0.0,0.0,0.0,0.0,0.0,0.0,0.0,0.0,0.0,0.0,0.0,0.0,0.0,0.0,0.0,0.0,0.5568627715110779,0.9960784316062927,0.6470588445663452,0.0,0.054901961237192154,0.8470588326454163,0.6549019813537598,0.0,0.0,0.0,0.0,0.0,0.0,0.0,0.0,0.0,0.0,0.0,0.0,0.0,0.0,0.0,0.0,0.0,0.0,0.0,0.0,0.0,0.3529411852359772,0.9960784316062927,0.686274528503418,0.0,0.07058823853731155,0.8980392217636108,0.3607843220233917,0.0,0.0,0.0,0.0,0.0,0.0,0.0,0.0,0.0,0.0,0.0,0.0,0.0,0.0,0.0,0.0,0.0,0.0,0.0,0.0,0.0,0.10196078568696976,0.8980392217636108,0.9764705896377563,0.6901960968971252,0.8705882430076599,0.95686274766922,0.1725490242242813,0.0,0.0,0.0,0.0,0.0,0.0,0.0,0.0,0.0,0.0,0.0,0.0,0.0,0.0,0.0,0.0,0.0,0.0,0.0,0.0,0.0,0.0,0.2862745225429535,0.7568627595901489,0.772549033164978,0.5254902243614197,0.0,0.0,0.0,0.0,0.0,0.0,0.0,0.0,0.0,0.0,0.0,0.0,0.0,0.0,0.0,0.0,0.0,0.0,0.0,0.0,0.0,0.0,0.0,0.0,0.0,0.0,0.0,0.0,0.0,0.0,0.0,0.0,0.0,0.0,0.0,0.0,0.0,0.0,0.0,0.0,0.0,0.0,0.0,0.0,0.0,0.0,0.0,0.0,0.0,0.0,0.0,0.0,0.0,0.0,0.0,0.0,0.0,0.0,0.0,0.0,0.0,0.0,0.0,0.0,0.0,0.0,0.0,0.0,0.0,0.0,0.0,0.0,0.0,0.0,0.0,0.0,0.0,0.0,0.0,0.0,0.0,0.0,0.0,0.0,0.0,0.0,0.0,0.0,0.0,0.0,0.0,0.0,0.0,0.0,0.0,0.0,0.0,0.0,0.0,0.0,0.0],"rows":784},"inputs":784,"output":{"cols":1,"data":[0.029400264844298363,0.00004269696364644915,0.2564793527126312,0.9996070265769958,0.9996522665023804,0.0000516926811542362,0.00006662461237283424,0.9999901056289673,0.1393236219882965,1.4495626032839937e-8,0.9997478127479553,0.9999986886978149,0.9995439648628235,0.9999998807907104,0.9999977350234985,0.012903803959488869,2.5903973437380046e-6,0.9999984502792358,0.9999086856842041,0.9999998807907104,4.3198261323595943e-7,0.39622247219085693,0.014036388136446476,0.9999890327453613,0.9999455213546753,0.0019686920568346977,0.15711890161037445,0.8979585766792297],"rows":28},"outputs":28,"weights":{"cols":784,"data":[-0.33565187454223633,0.6809210777282715,-0.34964489936828613,-0.5008611679077148,0.3005303144454956,0.8356385231018066,0.6887092590332031,0.19614636898040771,-0.7423849105834961,0.5776357650756836,-0.8335204124450684,0.13490307331085205,-0.8036921620368958,0.9600356817245483,0.7897031903266907,-0.5192652344703674,-0.41245317459106445,0.09366786479949951,0.4394817352294922,0.7118391990661621,0.0984945297241211,0.32112741470336914,-0.6426448822021484,0.8736076354980469,-0.8840136528015137,0.7834327220916748,-0.5833505392074585,-0.1346365213394165,0.4925628900527954,-0.10118710994720459,-0.43904995918273926,-0.16246068477630615,-0.47085386514663696,0.28557273745536804,-0.4444179832935333,-0.5787020325660706,-0.2151213139295578,1.0226651430130005,-0.29844290018081665,0.07761627435684204,1.0513659715652466,-0.28689172863960266,0.8871360421180725,-0.543628990650177,-0.2707132399082184,0.8918676376342773,0.5202146768569946,0.005748392082750797,-0.9444206357002258,-0.7454502582550049,-0.9909603595733643,0.03349095210433006,-0.6864217519760132,-0.6003772020339966,0.08561825752258301,0.07213473320007324,0.6551792621612549,-0.9580047130584717,-0.29347217082977295,-0.4904876947402954,0.21424078941345215,-0.25261053442955017,-0.4803757071495056,-0.15338459610939026,0.7311276793479919,0.15595515072345734,0.46188095211982727,1.1121270656585693,0.968731701374054,0.24855786561965942,-0.027540162205696106,-0.2501945197582245,0.5697291493415833,0.6376836895942688,-0.6169752478599548,0.564612627029419,-0.7856194376945496,0.5383303165435791,-0.687075674533844,0.7423583269119263,-0.029532626271247864,0.6988048553466797,-0.1267702579498291,0.9048727750778198,0.49851226806640625,-0.18728387355804443,-0.9067184329032898,-0.4373316466808319,-0.16205942630767822,0.33146217465400696,0.7316624522209167,0.6841623783111572,0.9315146207809448,1.4294254779815674,1.0232032537460327,1.4611302614212036,0.6132960319519043,1.6793367862701416,1.2307626008987427,1.5303069353103638,0.5736514925956726,0.015669671818614006,-1.085595965385437,0.2431461215019226,-0.12028265744447708,-0.9811545014381409,-0.6405298709869385,-0.5264840126037598,-0.7024039626121521,0.06427915394306183,-0.5895691514015198,-0.6472668647766113,-0.9442101716995239,-0.15587469935417175,0.6515953540802002,0.8156230449676514,-0.9195271134376526,-0.42614132165908813,-0.5496299266815186,0.916200578212738,-0.05936018377542496,0.3837650716304779,1.6917238235473633,1.1567777395248413,0.9780059456825256,-0.6499499082565308,-0.6873564720153809,-0.8841603994369507,-0.0032353734131902456,0.09823817759752274,-1.6344419717788696,-0.28565385937690735,0.4438086450099945,-0.11631455272436142,-0.7975571751594543,-0.8092943429946899,-0.6396920680999756,-0.8710702061653137,0.6152457594871521,0.11030124127864838,0.8287907838821411,-0.6968429088592529,0.6431482434272766,0.3670966923236847,-0.6230459213256836,-0.2728461027145386,-0.14501817524433136,0.38913238048553467,0.2937786877155304,-1.4888955354690552,1.183605670928955,-0.638305127620697,0.163645938038826,0.32271808385849,0.6393181681632996,0.4898327589035034,-0.13468056917190552,-0.482572078704834,-0.6937255859375,-0.7944814562797546,-0.834223210811615,-0.37358829379081726,-0.38098254799842834,0.4510383903980255,-1.4940084218978882,-0.8105323314666748,-0.0923570990562439,0.919930636882782,-0.25814199447631836,0.36641520261764526,-0.16594216227531433,0.5903482437133789,-0.7188755869865417,0.4378361701965332,-0.46150267124176025,-1.446038007736206,-1.250338077545166,-2.5833325386047363,0.29560643434524536,-0.7490184307098389,-0.3341628611087799,0.9188589453697205,1.4089032411575317,0.6482110023498535,0.7632116675376892,0.15887750685214996,1.217421054840088,-0.9248006939888,-0.4400419592857361,0.19367581605911255,0.8351256251335144,-0.18552497029304504,0.6185434460639954,0.2773289084434509,0.7390124201774597,-0.6708199977874756,-0.7888056039810181,0.6535137295722961,0.5771614909172058,-0.36016130447387695,-0.40711510181427,0.09185774624347687,-0.8486323356628418,-1.0900447368621826,-0.5622438788414001,-0.7184436917304993,-2.21323299407959,0.3644692599773407,1.0868927240371704,0.8110589981079102,0.6226945519447327,1.4686843156814575,0.13125194609165192,-0.3461489677429199,-0.10592809319496155,-0.13019436597824097,-0.18707412481307983,-0.7248634696006775,-0.3231630027294159,-1.1956120729446411,0.7889960408210754,-0.6163332462310791,-0.35588040947914124,-0.8744638562202454,0.018995685502886772,0.4414014220237732,0.12189605087041855,0.26444628834724426,-0.8810617327690125,-1.087062120437622,0.12759004533290863,-0.9338664412498474,1.045309066772461,-0.8290185928344727,0.181888148188591,-0.8483502864837646,-1.4479074478149414,0.06741863489151001,0.3464249074459076,1.2392503023147583,0.19514663517475128,0.36332181096076965,-0.47634750604629517,0.04174945876002312,-0.22623389959335327,-0.0730431079864502,-0.9025847911834717,-1.0169419050216675,0.8145241141319275,-0.5009920001029968,-0.631135880947113,0.11159055680036545,0.43003717064857483,0.1748349517583847,-0.3181220293045044,0.009293739683926105,-1.2126563787460327,-0.6208726763725281,0.4545751214027405,0.023556243628263474,1.3377745151519775,-0.6098350882530212,0.048996444791555405,0.5594878792762756,-0.8106368780136108,0.2782151699066162,0.1795862317085266,2.2188687324523926,0.5428721308708191,-1.8871952295303345,-0.4397403597831726,0.12710314989089966,0.03847900778055191,-0.7112547159194946,0.5650688409805298,0.47160038352012634,-0.0667751207947731,-0.1186475083231926,-0.11709535121917725,0.03739938884973526,-0.7422643899917603,0.7707451581954956,-0.0522766038775444,-0.41067251563072205,0.24754340946674347,-1.8591423034667969,-1.018622636795044,-0.3786895275115967,-0.19904783368110657,-1.108095645904541,0.1791178435087204,-0.21335136890411377,-0.15137703716754913,0.24500897526741028,1.3378218412399292,0.25443342328071594,-0.07027465105056763,-0.8062655925750732,0.4839521050453186,-0.4003099501132965,-0.48262274265289307,-0.12494117021560669,-0.41639941930770874,-0.9441691637039185,-0.41635042428970337,-0.07482695579528809,-0.33478599786758423,0.43775421380996704,0.3123946785926819,-0.6127567887306213,-0.5897071361541748,-1.0692912340164185,-1.5775550603866577,-0.3529280424118042,0.5438121557235718,-1.1909884214401245,-0.4419410228729248,0.962043821811676,-0.5625486373901367,0.24341487884521484,0.9104496836662292,0.23198843002319336,0.028788981959223747,0.870315432548523,0.24636654555797577,0.3781368136405945,0.6280685067176819,0.4683685898780823,0.7667890191078186,-0.03332476317882538,0.361436665058136,1.0184454917907715,0.46619266271591187,-0.9515925645828247,0.4624738097190857,-0.5133457183837891,-0.59125816822052,-0.1320992112159729,0.22285917401313782,0.31209495663642883,0.5427600145339966,0.08407748490571976,0.5334593057632446,0.19020336866378784,-0.049416977912187576,-0.6092929840087891,-0.01639399491250515,0.6456257104873657,0.222459614276886,0.5348339676856995,-0.5958096981048584,-0.7135646939277649,-0.549950122833252,-1.0035349130630493,0.29144173860549927,0.25207412242889404,-0.9709582924842834,-0.9701064825057983,0.35596713423728943,0.10392819344997406,-0.845827043056488,0.4175660014152527,-0.6258867979049683,0.5524500608444214,-0.3808899223804474,-0.6797379851341248,-0.2560693025588989,-0.689175546169281,1.932302713394165,1.2372993230819702,0.34731653332710266,0.6810975074768066,0.5282719731330872,1.003207802772522,1.063562035560608,0.6407331824302673,1.315902590751648,1.18105947971344,-0.572557270526886,-0.8239173293113708,1.0029689073562622,-0.15035733580589294,-0.016155080869793892,-0.020105144008994102,-0.43845394253730774,-0.22097094357013702,-1.0737347602844238,-0.14111852645874023,0.5319032669067383,0.36738258600234985,-0.7185966372489929,-0.7997849583625793,0.8007820844650269,-0.9506216049194336,0.13120217621326447,0.6989592909812927,0.0907391905784607,2.2808868885040283,2.1372532844543457,1.8154315948486328,2.511204957962036,1.059451699256897,1.4292688369750977,0.014026574790477753,-0.13225217163562775,-0.015829630196094513,0.5428679585456848,-1.0279927253723145,-0.44803938269615173,-1.04825758934021,0.4479789137840271,-0.03325943648815155,0.7487512826919556,0.36781641840934753,0.25673845410346985,0.7453724145889282,0.9014349579811096,0.10046004503965378,-0.2529185712337494,0.2482241541147232,-0.8645424246788025,0.43687132000923157,-0.9998348951339722,-0.6665050983428955,-0.0274345800280571,0.7593219876289368,1.2743695974349976,1.3063867092132568,0.545735776424408,1.3050380945205688,0.31915000081062317,-0.4328829050064087,-0.6066938638687134,-1.191811442375183,-0.07799497991800308,-0.23647017776966095,0.5003261566162109,0.749071478843689,-0.9416435360908508,0.4330308139324188,-0.28798922896385193,0.23675820231437683,0.5010676383972168,-0.19143052399158478,1.2339870929718018,0.21416977047920227,-0.9332293272018433,0.3401104807853699,-0.3478899300098419,0.863084614276886,0.9217498898506165,0.6187132596969604,-0.2491183876991272,0.4426240622997284,0.5409529805183411,0.06283031404018402,0.4396636188030243,-0.5329837203025818,0.27179116010665894,-0.42195621132850647,0.07492247968912125,-1.3450477123260498,0.4563653767108917,-0.6066227555274963,0.19819393754005432,-1.0611404180526733,0.2153736799955368,-0.896466076374054,0.4313544034957886,0.28033044934272766,0.19995588064193726,-0.7449437379837036,0.10658551007509232,0.426561176776886,0.8205387592315674,0.12296003848314285,-0.758684515953064,-0.20983143150806427,0.3823290467262268,0.6397374272346497,-0.01652422361075878,0.965600848197937,-0.06584546715021133,-0.15414389967918396,-0.4519622325897217,0.15445004403591156,0.6779662370681763,-0.20825360715389252,0.3423316180706024,-0.6406691074371338,-0.42023634910583496,-0.09099796414375305,-0.658892810344696,0.5900946259498596,0.09618694335222244,-0.587425947189331,-0.6580822467803955,-0.2838628590106964,0.9555820822715759,-0.26553481817245483,-0.8460084199905396,0.7198895215988159,0.19057179987430573,-0.7255665063858032,-0.6137718558311462,-0.43690580129623413,0.15927235782146454,0.7506601214408875,0.31517717242240906,-0.2043619453907013,-0.5160637497901917,0.19100330770015717,-0.47963786125183105,-0.06977275758981705,-0.40346530079841614,-0.0826500654220581,-1.528080701828003,0.3917332589626312,-0.3429362177848816,0.820273756980896,0.4012925624847412,0.18082357943058014,0.7494003176689148,0.4971000552177429,-0.853096604347229,1.2982083559036255,0.4671643376350403,-0.1533716320991516,-0.32495319843292236,-0.3685232400894165,0.35695409774780273,-0.8229271173477173,0.4437560737133026,-0.24098612368106842,-0.6892802715301514,0.03227946162223816,-0.37209856510162354,-0.403631329536438,-0.06548938155174255,-0.1394534707069397,-0.4792618453502655,-0.5705875754356384,-0.010179543867707253,-0.347866028547287,-0.4648017883300781,-0.2814512848854065,0.21873292326927185,0.7167000770568848,0.7814306616783142,0.602118194103241,0.20271259546279907,0.20205868780612946,-0.6626986861228943,-0.009462001733481884,0.582933247089386,0.49849024415016174,0.4082949757575989,-0.480284184217453,-0.6753146052360535,0.2987496554851532,-0.5585453510284424,0.5573163032531738,0.5078412890434265,-0.9465345740318298,0.10436896234750748,-0.2921534478664398,-0.013394726440310478,-0.5890830755233765,-0.6973763704299927,0.023518305271863937,0.28822460770606995,-0.3104087710380554,0.27338141202926636,0.25137922167778015,0.42610612511634827,-1.083274245262146,1.763572335243225,0.2610165774822235,0.41192665696144104,-0.0661839097738266,-0.9963167905807495,-0.27421754598617554,-0.7762953639030457,0.5260234475135803,-0.5019922852516174,0.5626729726791382,0.2945247292518616,0.22179147601127625,-0.26738718152046204,0.7203084230422974,-0.02194173075258732,-0.06154116243124008,-1.0325361490249634,-0.2036944478750229,0.32736003398895264,-0.43464767932891846,0.17621923983097076,-0.10018704831600189,-0.7047767043113708,1.267040729522705,-0.25059494376182556,0.5071255564689636,0.31887972354888916,-0.1732049286365509,0.10807313770055771,-0.46331799030303955,0.10754399746656418,0.4265819489955902,-0.005498075392097235,-0.5029733180999756,0.20727208256721497,-0.9034745097160339,-0.36041954159736633,0.15195725858211517,-0.674161970615387,-0.3543659448623657,-0.45278507471084595,0.5765600204467773,0.2623211443424225,-0.3555949628353119,-0.6955785155296326,-1.333711862564087,-0.9814256429672241,0.06306453049182892,-0.3583700358867645,-0.3057228624820709,-0.4625428020954132,-1.6922762393951416,-0.23401278257369995,-0.690850019454956,-0.7531306147575378,-1.032451868057251,-0.7926633358001709,0.747937023639679,-0.7133435010910034,-0.7958130240440369,-0.7050080299377441,-0.737869381904602,0.4761606454849243,0.6062836647033691,0.3869454860687256,0.5832498073577881,0.8191629648208618,0.1540287286043167,-0.06942188739776611,-0.16668248176574707,-0.48014307022094727,0.01753046363592148,-0.7459405660629272,0.7597315311431885,-0.058595530688762665,-0.9996030330657959,0.7511089444160461,0.3327501714229584,-0.762931764125824,0.2039622664451599,-0.27372175455093384,-0.865084171295166,-0.5150363445281982,-1.4510271549224854,-0.23404119908809662,-0.8520992994308472,-0.5096460580825806,0.5310443639755249,-0.27504175901412964,0.4498406946659088,0.08908800780773163,-0.5530368685722351,-0.09745679050683975,-0.19703657925128937,-0.8322102427482605,0.8073675632476807,-0.734257698059082,0.398962140083313,-0.1827622652053833,0.8244323134422302,0.8156852126121521,0.8984818458557129,-0.00518037611618638,0.15600693225860596,0.8503665328025818,0.4072125256061554,-0.5918579697608948,0.04690716415643692,-0.5154933333396912,-0.0929349809885025,-1.0340365171432495,-0.1032169759273529,-1.9296119213104248,-0.4354156255722046,0.8586301207542419,-0.4015696942806244,0.7133914232254028,0.7978673577308655,-0.26460087299346924,0.04217839986085892,0.5137977004051208,-0.3961685299873352,0.8049676418304443,-0.8878310918807983,-0.020577549934387207,-0.3715165853500366,-0.18352457880973816,-0.5978479385375977,-0.02314106747508049,0.8199325799942017,0.6405735611915588,1.1449081897735596,-0.06376602500677109,0.8279758095741272,0.5061933994293213,0.4334900379180908,-0.1952783316373825,0.2845015525817871,0.4313342869281769,-0.1447468250989914,-0.6333118677139282,-0.11740390211343765,-0.7512750625610352,0.1166483461856842,0.6365357041358948,1.2397956848144531,1.018848180770874,0.4610600769519806,-0.9513667821884155,0.9407591819763184,-0.5463136434555054,-0.8539559841156006,0.1993314027786255,0.2930903434753418,0.7129079103469849,0.46517476439476013,-0.5318244695663452,0.7309363484382629,1.1645030975341797,-0.23761335015296936,0.8331834673881531,1.3475942611694336,0.056074049323797226,0.7130380868911743,1.0950490236282349,0.9194498062133789,0.37507784366607666,-0.23102004826068878,0.7546343803405762,1.2697638273239136,0.18043527007102966,0.8018113970756531,0.23097342252731323,0.4785519540309906,-0.7288722991943359,0.862485945224762,0.6062756776809692,-0.8555034399032593,-0.23944437503814697,-0.12661445140838623,-0.9748187065124512,-0.3877805471420288,-0.16265320777893066,0.7877124547958374,-0.761258065700531,-0.11665594577789307,0.6111041307449341,-0.7094373106956482,-0.7757136225700378,0.5709682703018188,0.06146892532706261,-0.5307657122612,-0.4061572551727295,-0.8348941802978516,0.7981507778167725,-0.09094906598329544,-0.29770058393478394,0.8132030367851257,-0.5221961736679077,0.4548572599887848,-0.09239154309034348,-0.24208705127239227,0.8197199702262878,-0.09616532176733017,-0.26107120513916016,0.07279825210571289,0.7327903509140015,0.38661158084869385,-0.34545600414276123,-0.6581437587738037,-0.9430537223815918,-0.11977481842041016,0.45713651180267334,0.33478546142578125,0.38593173027038574,-0.1858905553817749,0.2861902713775635,0.9983770847320557,0.3740640878677368,0.47747766971588135,0.2329917550086975,0.7937653064727783,-0.04340510442852974,0.3959576189517975,-0.7007739543914795,0.35711586475372314,0.549802303314209,0.41536498069763184,-0.574126124382019,-0.1551969051361084,0.7801384925842285,0.5633864402770996,0.05352663993835449,-0.18386054039001465,0.970572829246521,-0.06206202507019043,0.01516878604888916,0.1316279172897339,0.4186931848526001,0.8083049058914185,0.6119014620780945,-0.9570327997207642,0.6398845314979553,-0.3759138882160187,0.07329609990119934,-0.8811580538749695,-0.7450096607208252,-0.9742463231086731,-0.368910551071167,0.752886176109314,0.8442814350128174,-0.9096500277519226,0.5216277241706848,0.7576870322227478,-0.42232587933540344,-0.03355138376355171,0.8612684607505798,-0.7884318232536316,-0.38530731201171875,-0.4603866636753082,-0.1465444564819336,0.963560938835144,0.5334967374801636,-0.20306909084320068,0.49480485916137695,0.9486857652664185,0.8121088743209839,0.7459188103675842,0.4683659076690674,0.6778314709663391,-0.7572125196456909,-0.4341411888599396,-0.9278666973114014,-0.3251957595348358,0.1259603500366211,-0.8472707867622375,-0.009033282287418842,0.2954939305782318,-0.5883789658546448,-0.009604187682271004,0.7872199416160583,-0.20685049891471863,-0.22512029111385345,0.30917346477508545,-0.5781187415122986,0.2478886842727661,0.18089020252227783,0.46283474564552307,-0.23740306496620178,0.3769923150539398,-0.8625342845916748,-0.06852734088897705,-0.6848307847976685,-0.3345651626586914,0.8873238563537598,-0.3665682375431061,-0.7490866184234619,-0.8815321922302246,-0.11123329401016235,-0.41611647605895996,0.08148983120918274,0.7033736109733582,-0.7554838061332703,-0.5045921206474304,-0.6706007719039917,0.06909586489200592,-0.5626661777496338,0.7836681604385376,0.24185308814048767,-1.1569980382919312,0.6042394042015076,0.5401849150657654,0.4772675931453705,0.26548150181770325,-0.9077837467193604,0.05087763071060181,0.32553544640541077,0.8129644393920898,0.5761407613754272,0.24249482154846191,-0.4593747854232788,0.5190688371658325,-0.825985848903656,-0.002877047285437584,0.7536951899528503,-0.22380200028419495,0.13386692106723785,-0.36319124698638916,-0.715416431427002,-0.9328919053077698,0.6425154209136963,-0.5812763571739197,-0.2759723663330078,-0.13564351201057434,-0.4873671233654022,0.5507869720458984,-0.0772477388381958,-0.43835246562957764,-0.030516628175973892,0.15361236035823822,0.48298555612564087,1.2054697275161743,0.5004658102989197,0.4759300649166107,-0.17624904215335846,-0.44950437545776367,0.16597451269626617,-0.16906799376010895,-0.8099380731582642,0.9068257808685303,-0.8367860913276672,0.09274542331695557,0.6055918335914612,-0.6497634053230286,-0.14709928631782532,-0.14313562214374542,-1.6529887914657593,-0.08611924946308136,-0.2297128438949585,-1.4435452222824097,-0.06985510885715485,-0.7389258146286011,-0.15215684473514557,-0.7740073800086975,-0.22368112206459045,0.5555453896522522,0.37200403213500977,0.5483862161636353,0.40181300044059753,0.5640546083450317,0.47353920340538025,0.535865068435669,1.157448410987854,-0.8846639394760132,-0.6234608292579651,0.3072771430015564,0.8003072738647461,0.36799976229667664,-0.29202741384506226,-0.17395630478858948,-1.0562567710876465,-0.8384066224098206,-1.474007487297058,-0.7936545610427856,-0.14982259273529053,0.3966824412345886,-0.09738717973232269,0.6149339079856873,-0.7824726104736328,-0.5950422286987305,-0.31711310148239136,1.1581969261169434,0.5706148743629456,-0.3354226052761078,-0.2075679451227188,0.05311746522784233,-0.36437487602233887,-0.6401668787002563,0.8590307235717773,-0.30187731981277466,0.5176637172698975,0.4854271709918976,0.6269844174385071,0.014743583276867867,0.27989426255226135,0.6826746463775635,-0.4350214898586273,-0.3899487555027008,0.4723534882068634,-1.0021218061447144,0.14223578572273254,-0.23524600267410278,-1.0677452087402344,-0.5486854910850525,-0.30452409386634827,0.05296147242188454,-0.6931860446929932,-2.034965753555298,0.018803352490067482,-0.49626702070236206,-0.6416645646095276,-0.1968720406293869,-0.32862579822540283,-0.21723058819770813,0.3885054588317871,-0.6233526468276978,0.32377561926841736,0.10706524550914764,-0.6453973650932312,-0.1500091254711151,0.7512104511260986,0.9802753925323486,-0.8036096096038818,0.4028850793838501,-0.554023027420044,0.2837371528148651,-0.6053898334503174,-0.02750825509428978,0.20351426303386688,-0.46659013628959656,0.33346208930015564,-0.3837652802467346,-0.3133748471736908,-1.1100775003433228,0.7027112245559692,-0.4260932207107544,-0.0819883942604065,-0.5280166268348694,-1.3009350299835205,-0.8541631698608398,-0.5581280589103699,0.11679542809724808,-0.8843145966529846,-0.2683497965335846,-0.8727576732635498,-1.3166117668151855,0.2791675627231598,0.9360097646713257,-0.8620609045028687,0.2641295790672302,0.7708826065063477,-0.3581676781177521,-1.0360748767852783,0.6229998469352722,0.5883211493492126,-0.33786413073539734,-0.5737589001655579,-0.6474534273147583,-0.4791431725025177,-0.867287278175354,-1.3807920217514038,-0.5317638516426086,-1.7990243434906006,-0.8921923637390137,-1.3028883934020996,-0.5825225710868835,-1.0807000398635864,-1.0165741443634033,-0.7344997525215149,-1.5596498250961304,-1.088638186454773,0.9459028840065002,-0.6295490860939026,0.37321436405181885,-1.0172059535980225,-0.39021947979927063,-0.12891831994056702,-0.143926203250885,-0.7332323789596558,-0.3618362247943878,0.11380168795585632,0.7247779369354248,-0.19838890433311462,-0.3143060505390167,-0.4544181823730469,-1.0233861207962036,-0.3704545199871063,-1.6528414487838745,-0.9978654980659485,-0.725681483745575,-0.5489354133605957,-0.5458225607872009,-2.096367835998535,-0.16288408637046814,0.08728718757629395,-1.167011022567749,-0.18277272582054138,-0.3729461133480072,-0.2773872911930084,-0.23021650314331055,-0.674052357673645,0.2982041835784912,0.09777268767356873,-0.7015559673309326,0.29319998621940613,-0.9607405066490173,-0.8876231908798218,-0.16318073868751526,-0.7904180288314819,-0.336670845746994,0.6771991848945618,0.0606447197496891,0.9862526059150696,0.0566418394446373,0.8455656170845032,1.168676733970642,0.08438272774219513,-0.03295708820223808,0.8162892460823059,0.15389634668827057,-0.3207407295703888,-0.4620509743690491,0.9921439290046692,1.2191330194473267,0.5289116501808167,0.6458579301834106,0.08767831325531006,0.6089580655097961,-0.16599245369434357,-0.5363065004348755,0.751617968082428,0.6586602330207825,0.25308626890182495,0.7735552191734314,0.6128138899803162,0.6755031943321228,-0.12468745559453964,-0.7476453185081482,1.1581289768218994,0.5759470462799072,0.31423142552375793,0.5358911156654358,0.3966062664985657,1.1028704643249512,1.7750647068023682,1.9287599325180054,0.7369382381439209,1.140634298324585,1.631690502166748,2.0003018379211426,-0.39894676208496094,1.2280299663543701,0.6391071677207947,-0.6075037717819214,-1.296995997428894,0.18330369889736176,-1.0366063117980957,-0.36590856313705444,-0.6063782572746277,-1.2960058450698853,-0.8118564486503601,0.8952099680900574,0.6276215314865112,0.30539369583129883,0.9125547409057617,-0.1470324695110321,-0.3459792137145996,0.08492255955934525,0.7830588221549988,1.2240097522735596,0.5738090872764587,1.2922425270080566,-0.18976637721061707,0.3784475028514862,0.20339779555797577,1.5327441692352295,-0.2944667339324951,1.3389394283294678,-0.20071902871131897,0.04998180642724037,0.5398191213607788,0.024387305602431297,0.13373300433158875,-0.8008716702461243,0.35943299531936646,0.021160375326871872,0.018567005172371864,-0.17883911728858948,-0.504852294921875,-0.2740784287452698,-0.4891337454319,0.9282736778259277,0.34107711911201477,-0.29881855845451355,1.2765207290649414,0.41670098900794983,1.594826340675354,0.7366063594818115,0.2926841080188751,-0.21911215782165527,-0.9431612491607666,-0.4795045554637909,0.2813304364681244,-0.4691503047943115,1.1669772863388062,0.30898696184158325,1.2591038942337036,-0.45703262090682983,0.20234264433383942,0.5711934566497803,0.7505302429199219,-0.060868825763463974,-0.16956637799739838,-0.18398486077785492,0.3118247985839844,-0.12784892320632935,-0.46092650294303894,0.15163637697696686,0.2773301899433136,0.9535931348800659,0.5143475532531738,-0.49739870429039,0.6689165830612183,0.017982251942157745,0.171197310090065,-0.0858008861541748,0.33334800601005554,-0.36910295486450195,-0.8621930480003357,0.1543411761522293,-0.5199752449989319,-0.14240100979804993,0.6382763385772705,0.4638649523258209,0.9884453415870667,-0.24730663001537323,-0.26754432916641235,-1.3435074090957642,-0.11483275145292282,-0.5753110647201538,-0.06748634576797485,0.405327171087265,-0.4045746326446533,-0.7192939519882202,-0.2051824927330017,0.3713538944721222,-0.22552591562271118,0.0756649449467659,-0.5602171421051025,0.34316205978393555,-0.7092653512954712,-0.4950043559074402,-0.10337025672197342,-0.4441823959350586,-0.13690318167209625,-0.0234612338244915,0.9203435182571411,-0.06573763489723206,-0.10107598453760147,0.5819882750511169,0.12274596095085144,0.6045875549316406,0.3483046591281891,0.5417410731315613,-0.01864134892821312,0.6012377738952637,0.4680100381374359,-0.6292251348495483,0.4643925130367279,0.35247305035591125,0.07811222970485687,-1.2329528331756592,0.05891275405883789,0.6508112549781799,-0.4557681083679199,-0.0821198970079422,-0.7453058958053589,-0.11052928119897842,0.5936622023582458,-0.6387941241264343,-0.3247174322605133,-0.17757286131381989,0.8160624504089355,0.13605456054210663,0.23545292019844055,0.40437814593315125,-0.04225384443998337,-0.3007989823818207,0.23840948939323425,0.30534473061561584,0.4816150665283203,0.2620132267475128,1.5048587322235107,0.3351514935493469,0.7368473410606384,-0.18394735455513,-0.6285299062728882,1.0552175045013428,-0.11603014171123505,-1.1745318174362183,-0.7016429305076599,0.8358869552612305,0.8176142573356628,-0.9738473892211914,0.004150002263486385,-0.06869786977767944,-0.6510647535324097,-0.502308189868927,0.40963995456695557,-0.08004789054393768,-0.9966479539871216,-0.8946471810340881,0.2938721776008606,-1.2485847473144531,-0.061858709901571274,-0.2581664025783539,0.07146169990301132,1.364230751991272,0.8467233777046204,-0.3381554186344147,-0.005131234880536795,0.8961739540100098,0.5649048089981079,1.259935736656189,-0.8414415717124939,0.016752220690250397,-0.6830962896347046,-0.6274824142456055,0.013278583995997906,0.2677310109138489,0.9337149262428284,0.5879759192466736,-0.7771774530410767,-0.9238945841789246,0.43941542506217957,-0.3500300347805023,-0.14560328423976898,0.5215883255004883,-0.21167948842048645,-0.11483681201934814,0.8317196369171143,0.457820862531662,-0.9827482104301453,-0.2915271520614624,-1.04049551486969,0.08654092997312546,1.328620433807373,0.7058263421058655,-0.3444776237010956,0.3779287040233612,1.0326051712036133,0.20684602856636047,-0.5307051539421082,-0.7160954475402832,-0.26349112391471863,-0.9751825332641602,-0.03453686833381653,0.40506458282470703,0.7215720415115356,-0.47076696157455444,0.018479062244296074,0.574447512626648,0.6891021132469177,1.4866769313812256,-0.29490169882774353,-0.9225553274154663,-0.8845632076263428,0.1051640659570694,-0.6531366109848022,-0.7428593039512634,-0.06392683833837509,-0.7730119228363037,0.7174584865570068,-0.9744181036949158,0.6175497770309448,0.3566324710845947,0.6990710496902466,0.38010385632514954,1.0985838174819946,0.15019923448562622,0.9784952998161316,1.1442934274673462,-0.44164857268333435,-0.317611426115036,-0.7619062662124634,0.1831405609846115,0.2196362018585205,-0.41291359066963196,0.8194091320037842,-0.4486607313156128,-0.4243335723876953,-0.7231555581092834,-1.1560587882995605,0.49579888582229614,0.9022300839424133,-0.12318933010101318,0.9879831075668335,-0.45779669284820557,0.745892345905304,0.39272254705429077,-0.3977436423301697,0.20383091270923615,0.17696091532707214,1.2028579711914062,-0.15296822786331177,0.23332788050174713,1.1315968036651611,-0.23130294680595398,0.052569225430488586,-0.2930472791194916,1.0746092796325684,-0.08442771434783936,-0.14947542548179626,0.05438908934593201,0.9339092373847961,-0.4695746898651123,0.8096157312393188,0.4465765655040741,0.042681511491537094,0.07677162438631058,0.11313323676586151,-0.3883032202720642,-0.7152678370475769,-0.18982230126857758,-0.7711589932441711,-0.09764266014099121,-0.558800995349884,-0.13921214640140533,-0.34842246770858765,-0.16375832259655,0.4380214810371399,0.9879310727119446,-0.5265865921974182,0.8425403237342834,-0.0037896516732871532,0.26788902282714844,0.76083904504776,-0.9405473470687866,-0.4178559184074402,-0.9411166310310364,0.25580477714538574,0.3153904378414154,0.2609517574310303,0.2839154005050659,0.5555884838104248,0.9296882748603821,0.6551240682601929,0.11498598754405975,-1.0477335453033447,-0.7168940901756287,0.7735092043876648,-0.022690042853355408,-0.9434789419174194,-1.3156291246414185,-0.7341686487197876,-0.41433608531951904,-0.39334022998809814,1.2547887563705444,0.32511553168296814,-0.45067068934440613,1.054667592048645,0.46394896507263184,-0.06977922469377518,0.1345200389623642,0.30477771162986755,-0.06303349137306213,-0.08176717907190323,0.011778533458709717,0.6569968461990356,-0.08351361751556396,0.4843255281448364,0.7200223207473755,0.5159658789634705,-0.37940070033073425,0.32421988248825073,0.8583284616470337,0.6190651655197144,1.341993808746338,1.1948329210281372,1.0815300941467285,0.6083529591560364,0.5075149536132812,0.9044313430786133,-0.30410894751548767,0.07827167958021164,0.18011607229709625,0.21226654946804047,-0.1682930737733841,0.9967049360275269,0.6791725754737854,-0.06649966537952423,-0.2063184231519699,-0.14062927663326263,-0.09289656579494476,0.10268339514732361,0.20555225014686584,-0.16562774777412415,-0.9289427995681763,0.5217994451522827,0.8199784755706787,0.9737894535064697,0.3906418979167938,-0.013724271208047867,-0.39828234910964966,0.48733198642730713,0.40122994780540466,0.008433368057012558,0.7167962193489075,0.754645824432373,0.16668395698070526,1.403956651687622,0.7214505672454834,0.7970899343490601,-0.5771704912185669,-1.0262608528137207,-1.046541452407837,0.5398817658424377,1.2554930448532104,-0.8552781343460083,-0.25664210319519043,0.47725149989128113,0.8198450207710266,-0.6756788492202759,0.25721830129623413,0.1945638358592987,0.13039565086364746,0.5636860132217407,0.41873621940612793,-0.8702020645141602,0.7522234916687012,-0.8495184779167175,-0.16495801508426666,-0.25315067172050476,0.23279260098934174,-0.5331597328186035,-0.8167353272438049,0.379291832447052,-0.40855157375335693,-0.7205495238304138,0.2745986878871918,0.4267815351486206,-0.17670026421546936,0.4727086126804352,0.7132737040519714,-0.47881314158439636,0.6218480467796326,0.6960451006889343,-0.4345850646495819,0.32947537302970886,-0.6709587574005127,0.742264449596405,-0.0253379475325346,0.16779494285583496,-0.48061084747314453,0.9968243837356567,0.589018702507019,-0.8973866701126099,-0.9264277219772339,0.47460639476776123,-0.45591142773628235,0.00735429534688592,-0.4419184923171997,-0.6014463305473328,0.022312475368380547,0.20238177478313446,0.00852020550519228,0.3291086256504059,0.17956484854221344,-0.6240608096122742,-0.24247287213802338,-0.32714012265205383,0.7196698784828186,-0.7905871868133545,0.3286133408546448,-0.20570208132266998,-0.20829838514328003,0.5373370051383972,-0.38783684372901917,0.6117007732391357,-0.08853411674499512,0.8715977668762207,0.329198956489563,0.10798466205596924,-0.11988258361816406,0.06995785236358643,-0.9385577440261841,0.6292754411697388,-0.3296947479248047,-0.2364283800125122,0.04085493087768555,0.7868257761001587,-0.053405046463012695,0.6322852373123169,-0.33102262020111084,-0.031359825283288956,0.4625155031681061,-0.08683629333972931,0.14457163214683533,0.7592896223068237,0.3663523197174072,-0.22093045711517334,-0.6079788208007812,0.08108019828796387,-0.5545800924301147,-0.3574843406677246,-0.5003789663314819,0.6937377452850342,0.666155219078064,-0.06074333190917969,0.35345959663391113,0.355593204498291,0.6194925308227539,0.9606784582138062,0.07645952701568604,0.4153484106063843,0.5643766522407532,0.8483130931854248,-0.25193965435028076,-0.010725959204137325,-0.2210090011358261,-0.5022547245025635,-0.8442792296409607,-0.34451839327812195,0.031823452562093735,-0.8283060789108276,-0.8559831976890564,-0.03201859071850777,-0.48531362414360046,0.4463188946247101,0.39842188358306885,-0.19561634957790375,-0.057414133101701736,0.342370867729187,0.4243146479129791,-0.5233156681060791,0.08990788459777832,0.5678409337997437,-0.33279502391815186,0.574000358581543,-0.7814563512802124,0.9377208948135376,0.6352688074111938,-0.7733298540115356,-0.5001943707466125,-0.6262190937995911,-0.9672443866729736,-0.7294126152992249,-0.43432188034057617,-0.4794611930847168,0.1888624131679535,-0.5230701565742493,0.16697102785110474,-0.5541683435440063,0.8101617097854614,0.6928664445877075,0.9203527569770813,0.08755940943956375,0.6672293543815613,0.7878648042678833,-0.1833198219537735,0.9890139698982239,0.9778103232383728,-0.9351420998573303,-0.6352716684341431,-0.06473803520202637,0.602749228477478,-0.37019145488739014,0.6923844814300537,0.6309087872505188,-0.25544998049736023,0.704094409942627,-0.3120765686035156,-0.6275538802146912,0.8200477957725525,0.8843994140625,0.003218994243070483,-0.44416868686676025,1.0500251054763794,0.22596324980258942,0.9225564002990723,-0.24615442752838135,0.7617181539535522,0.5511675477027893,0.8127208352088928,0.42722058296203613,-0.3104308545589447,0.4989968538284302,0.16499197483062744,1.0196410417556763,-0.7334311604499817,0.9620949625968933,-0.8793565630912781,0.85964035987854,0.470470666885376,0.7323794364929199,-0.44070759415626526,0.6947588324546814,0.22678248584270477,0.9133652448654175,0.7014029026031494,-0.1969246119260788,0.2342023402452469,0.5072914958000183,0.9183824062347412,0.16691608726978302,-0.5246068239212036,0.2321559488773346,1.1296764612197876,-0.8022611141204834,0.013241262175142765,-0.8142521977424622,0.4873076379299164,-0.15151259303092957,1.0506951808929443,-0.47253015637397766,-0.13124309480190277,0.14897529780864716,0.6682561039924622,0.9623017907142639,-0.9228029251098633,0.9334102869033813,-0.44742169976234436,-0.6336085796356201,0.38829660415649414,0.9389856457710266,-0.046081576496362686,0.04878741875290871,-0.9670457243919373,-0.8562079071998596,0.1490718275308609,-1.2510679960250854,-0.3773938715457916,-0.9817346930503845,-0.44666150212287903,0.7386001348495483,0.04190610721707344,0.43479204177856445,-0.6082186102867126,-0.7072963714599609,-0.6426218748092651,0.1328447312116623,0.3885284662246704,0.5672658681869507,0.48786845803260803,0.4684806764125824,-0.31806984543800354,-0.6376760601997375,-1.0236657857894897,-0.2804095149040222,0.16601280868053436,0.12602996826171875,0.24426893889904022,-0.24194888770580292,0.4783327877521515,-1.075483798980713,-0.23076215386390686,-1.5253833532333374,0.15664049983024597,-0.48780879378318787,-0.006576931104063988,0.10618747025728226,-0.7576398253440857,-0.19817706942558289,-0.1474219262599945,-0.1274455487728119,-0.2391834259033203,0.012722007930278778,0.5159896016120911,0.07633259892463684,-0.3513093590736389,-0.2596486210823059,-0.9161158204078674,-0.18897424638271332,-0.3830055892467499,-0.08201822638511658,-0.594065248966217,-0.9499024748802185,-0.3195173740386963,-0.13805626332759857,-0.30765777826309204,-0.7869998216629028,-0.49635329842567444,0.04076404869556427,-1.8810560703277588,-2.02397084236145,-0.8098509907722473,-0.34786248207092285,-1.1387825012207031,-0.6836022138595581,-0.7655453681945801,-0.6801053881645203,0.5068860054016113,-0.7526768445968628,0.23243075609207153,-1.0111923217773438,0.6825107932090759,-1.4257866144180298,-0.09507117420434952,0.3498252034187317,-0.31218045949935913,-1.0069825649261475,0.24969975650310516,-0.8450409173965454,-0.9878988265991211,0.6224979758262634,-0.6254861950874329,-0.44030463695526123,-0.2213640958070755,0.95402991771698,-1.187328815460205,-1.1263271570205688,-1.4068336486816406,-1.4348026514053345,-1.6627719402313232,-0.3609062135219574,-0.035634156316518784,-0.49118751287460327,-0.5151875019073486,-1.1899902820587158,-0.2544333040714264,-0.9058576822280884,0.2612733542919159,-0.25007960200309753,-1.1440168619155884,-1.293567180633545,-0.7081514596939087,-1.008918046951294,0.31732577085494995,-0.7777135372161865,-0.6988428831100464,0.026892952620983124,0.20145373046398163,-0.9903044700622559,-0.35308265686035156,0.2845804691314697,0.5964226722717285,-0.530937910079956,-1.4520117044448853,-1.0272759199142456,-0.9778446555137634,-0.12881851196289062,-0.5079145431518555,-0.20096765458583832,0.444536417722702,-0.3544065058231354,-0.30612215399742126,-0.29346489906311035,0.9772748351097107,-1.3426402807235718,-1.1064623594284058,-0.4710808992385864,-0.1398543417453766,0.08872800320386887,-0.8509528636932373,-0.1580115258693695,-0.4231346845626831,-0.7512921094894409,0.32089683413505554,0.5440849661827087,0.43270203471183777,-0.015477652661502361,0.7859808206558228,-0.758529782295227,-0.1421619951725006,-0.7346422076225281,-0.6989355087280273,-1.0994884967803955,-0.12114623934030533,-0.043238941580057144,0.9038376808166504,0.4728066027164459,-0.7041531205177307,0.27967432141304016,-0.38922375440597534,-0.8298406004905701,-1.3189358711242676,-0.16519559919834137,-1.3623791933059692,-1.4175395965576172,-1.5776965618133545,-0.22460982203483582,-0.7211571931838989,-0.44746625423431396,-0.6541944742202759,-0.1752309948205948,-0.15283174812793732,0.2866847515106201,-0.2880583107471466,-0.1542261242866516,-0.2995641231536865,0.58600252866745,-0.7561575770378113,-0.0796280950307846,-0.8720026612281799,-0.3988526463508606,1.1638455390930176,1.180423378944397,0.30963411927223206,1.8829821348190308,0.5713769197463989,0.4516187608242035,-0.6927790641784668,-0.6174562573432922,-1.6985729932785034,0.01647518016397953,-0.6853839755058289,-1.0389556884765625,-1.0082886219024658,-0.7212860584259033,-0.3953205645084381,-0.5310049653053284,-1.4039891958236694,0.6797498464584351,-0.11857085675001144,-0.25323960185050964,0.5134368538856506,-0.7661653161048889,0.38148611783981323,-0.9748862385749817,-0.1767875850200653,-0.7401182651519775,0.4220140874385834,0.6114760637283325,0.864946186542511,0.44268327951431274,-0.48881083726882935,0.3869934678077698,0.5384508967399597,1.1744117736816406,1.5947376489639282,-1.0926011800765991,-1.5341095924377441,-1.0599102973937988,-0.5184283256530762,0.5314889550209045,1.4100372791290283,-0.7856939435005188,1.1545829772949219,1.2304223775863647,0.410086989402771,0.9232964515686035,-0.20398730039596558,-0.18969622254371643,-0.4359622299671173,0.8165856599807739,0.26294979453086853,0.6119247674942017,-0.3407404124736786,-1.0421464443206787,-0.9931278228759766,1.7256042957305908,0.47214269638061523,0.6351499557495117,1.0535926818847656,1.206628441810608,0.7255329489707947,2.263190746307373,2.8493869304656982,2.3394432067871094,0.9810855388641357,1.0831074714660645,1.1664437055587769,0.36193710565567017,0.49809393286705017,0.11798284947872162,0.765217125415802,-0.5766136646270752,0.5810483694076538,-0.19532306492328644,-0.08803088217973709,-0.9472458362579346,-0.6657536625862122,-0.46460825204849243,0.792853057384491,0.40928423404693604,-0.9862688779830933,-0.9165343046188354,-0.31892311573028564,0.31980428099632263,-0.4883696734905243,1.2570751905441284,0.9091305136680603,0.44800111651420593,0.8253026008605957,0.26695647835731506,1.2412232160568237,1.5259473323822021,0.23108185827732086,0.14911943674087524,0.7239774465560913,0.3587307333946228,-0.21206067502498627,-0.22768446803092957,-0.008141303434967995,-0.037431053817272186,0.1059441864490509,0.19918374717235565,-0.548443615436554,-0.27045151591300964,0.3541259169578552,-0.06394188106060028,0.43041902780532837,-0.8414556384086609,0.13935169577598572,-0.9507566094398499,-0.28459110856056213,0.048370905220508575,-0.08881209045648575,0.22710931301116943,0.4984428286552429,0.5445293188095093,0.4621123969554901,0.21438772976398468,0.6784265041351318,0.7489402890205383,0.593437910079956,0.313033789396286,-0.16641607880592346,0.865082323551178,0.7293278574943542,0.7033341526985168,-0.46275296807289124,-0.2653752267360687,-0.15540340542793274,0.02707182615995407,-1.410961627960205,-0.038894109427928925,-0.08932075649499893,0.0035028019919991493,0.8348698019981384,-0.5629452466964722,-0.9458360075950623,-1.107770562171936,0.7966924905776978,0.47298991680145264,1.02553129196167,-0.6034502387046814,0.7881283164024353,0.9817169308662415,0.15401968359947205,0.6747441291809082,0.9054667353630066,0.14149412512779236,0.8281373977661133,1.1501117944717407,0.6360297203063965,0.31845831871032715,1.250489354133606,0.9958232045173645,-0.1342557668685913,0.283855140209198,-1.0323808193206787,-0.55552738904953,-0.606909453868866,-0.7652266621589661,1.0773800611495972,0.6252123713493347,-0.9983831644058228,0.8007844686508179,-0.4826489984989166,-1.0478112697601318,-0.6951481103897095,0.22027687728405,-0.3948323428630829,1.3278671503067017,-0.013826210051774979,0.7016711831092834,-0.33207181096076965,1.0135581493377686,0.6234462857246399,-0.8048092126846313,0.867913544178009,0.01985009014606476,-0.15004141628742218,0.2187056690454483,-0.7944050431251526,0.46305766701698303,-0.4638989567756653,-0.7607005834579468,0.044818416237831116,0.40745118260383606,0.5415641665458679,-0.011364475823938847,0.7277805805206299,0.7367053627967834,-0.13064175844192505,0.14858689904212952,-0.8242191076278687,-1.0487284660339355,0.45917415618896484,-0.007647423539310694,0.5952378511428833,0.7856229543685913,0.564698338508606,1.3811324834823608,0.3310416638851166,0.7291359305381775,0.08391695469617844,0.8142592906951904,0.260873407125473,0.3249513804912567,0.7388986349105835,-0.05945652723312378,-0.29126599431037903,-0.5591191649436951,0.31035080552101135,0.30207404494285583,-0.15831677615642548,-0.9317744374275208,-0.30809006094932556,-0.39359617233276367,-0.24336446821689606,0.1895245462656021,-0.6775545477867126,0.7863797545433044,0.4045770466327667,-0.43116575479507446,-0.45269501209259033,-0.21654754877090454,0.8666810393333435,0.1839868575334549,0.8868550062179565,-0.6251739859580994,-1.2220035791397095,-0.03771604970097542,1.0912644863128662,-0.16480016708374023,0.6584826111793518,0.4274856150150299,-0.39270517230033875,-0.7404568195343018,-0.5449399948120117,1.0369747877120972,-1.2958452701568604,0.8747446537017822,0.6128054261207581,0.7939785122871399,1.265403389930725,-0.2774103581905365,0.08439630270004272,0.3615492284297943,0.15705811977386475,0.8331797122955322,0.624158501625061,0.39750364422798157,0.8180627226829529,-0.09605362266302109,0.32904675602912903,-0.6554056406021118,-1.109606385231018,0.7633631229400635,1.1542385816574097,-0.7656789422035217,-0.1010255366563797,-0.7319361567497253,-0.8679021596908569,-0.3110659122467041,1.4887230396270752,-0.1292450726032257,0.5930663347244263,-0.39464813470840454,0.6869646906852722,0.02079961448907852,-0.1987159699201584,0.025207340717315674,-0.4087918996810913,-0.4433111250400543,-0.7144728899002075,0.08544010668992996,0.3813927173614502,-0.04765291139483452,-0.6910897493362427,-0.5363267064094543,-0.6817079782485962,-0.1369398832321167,-1.1820058822631836,-1.1652324199676514,-1.2942005395889282,-0.5974510312080383,-0.032583028078079224,-0.07298966497182846,-0.711957573890686,-1.1395190954208374,-0.6156588196754456,-0.6845691800117493,-0.6364210247993469,-0.9355007410049438,-0.7642446160316467,0.01739109493792057,-0.00854543223977089,1.1550296545028687,-0.4708845317363739,0.23702852427959442,-0.2652980089187622,-0.4480026364326477,1.008983850479126,0.9124513268470764,0.631483256816864,-0.8928819894790649,-0.047751642763614655,0.44916602969169617,0.06917597353458405,0.7021772861480713,-1.1339713335037231,-0.13396191596984863,-0.2317000925540924,-0.5079296827316284,-1.1468342542648315,-0.3145946264266968,0.132656529545784,-0.3348475992679596,0.7542328834533691,-0.707095742225647,-0.5140756964683533,-0.07853175699710846,-0.33618679642677307,-0.6393005847930908,0.11053407937288284,0.08886829018592834,0.9244207739830017,1.3143563270568848,1.2727876901626587,-0.24234271049499512,0.3037002682685852,0.49738073348999023,0.14467881619930267,-0.6631859540939331,0.04078531265258789,0.661795437335968,0.16349966824054718,-0.9905732870101929,-0.5985878109931946,-0.8194996118545532,-1.2645326852798462,0.2588711678981781,-0.3802693486213684,0.3627033233642578,-0.043464545160532,0.39000988006591797,-0.4334515631198883,0.2717430889606476,-0.2970660626888275,0.0009890706278383732,0.6380009055137634,-0.5451337099075317,0.910654604434967,1.8115968704223633,1.4206427335739136,1.4973326921463013,-0.3359798192977905,0.6422424912452698,-0.8064748048782349,-0.5648956894874573,0.6357927322387695,0.3621934652328491,-0.5373315811157227,0.2902739346027374,-0.9100196957588196,0.21152085065841675,0.6178637742996216,-0.6532071232795715,-0.18553975224494934,0.4544052183628082,-0.4974580407142639,0.06363307684659958,0.2250981330871582,-0.004067747853696346,-0.005814115982502699,-0.0511879064142704,-0.1532782018184662,-0.6102228760719299,-0.33111026883125305,0.6916801929473877,-0.16999508440494537,1.6684452295303345,0.35151126980781555,0.9915809631347656,1.2169049978256226,-0.08857909590005875,0.8072381019592285,-0.429397314786911,-0.32446885108947754,0.7431285381317139,0.8094867467880249,0.7782000303268433,0.1059267669916153,0.2389586716890335,0.7001191973686218,0.23246312141418457,1.2401344776153564,0.043574925512075424,0.15883368253707886,0.16665585339069366,-0.05879225581884384,-0.9156904220581055,-0.4080965518951416,0.664891242980957,-0.2658124268054962,0.8031559586524963,0.8371383547782898,-0.7931937575340271,-0.7996091842651367,0.8615834712982178,-0.27955782413482666,-0.17590032517910004,-0.03809095174074173,-1.0758779048919678,-0.41471540927886963,-0.651668906211853,0.7689496278762817,-0.26481497287750244,-0.27948033809661865,0.973671555519104,0.9335105419158936,0.817649781703949,-0.3005998134613037,0.08887647092342377,0.14562366902828217,1.2722426652908325,0.3971353769302368,-0.5738478899002075,1.1079349517822266,1.0269747972488403,0.3209723234176636,0.5577444434165955,0.6271076202392578,0.2093755155801773,0.46990978717803955,0.17057232558727264,-0.006237292196601629,-0.3729899227619171,0.8652976155281067,0.41977566480636597,0.5193597674369812,0.7407143115997314,0.1653362512588501,-0.15909719467163086,-0.3254193067550659,0.8108953237533569,-0.1564633846282959,0.2442007064819336,0.9976874589920044,0.14590959250926971,0.5497193932533264,-0.4679206907749176,0.8782122135162354,-0.4449317455291748,0.29115715622901917,0.6459792852401733,-0.7860929369926453,-0.5655667185783386,-0.052915360778570175,0.5966808199882507,0.7211787104606628,0.9524394273757935,0.523219883441925,-0.3774902820587158,0.041187696158885956,0.7265115976333618,-1.0117794275283813,-0.3385644257068634,0.03586278483271599,0.2848649024963379,-0.1728532314300537,0.8258247375488281,-0.654903769493103,0.5669933557510376,-0.959148645401001,0.7316389083862305,0.131256103515625,0.22080528736114502,-0.7769014835357666,0.9377721548080444,-0.7581355571746826,-0.1552337408065796,-0.6316080093383789,0.9629248380661011,0.10344934463500977,-0.6076706647872925,0.42682671546936035,-0.5397166609764099,-0.2878403961658478,0.02641737461090088,0.922315239906311,0.5184735059738159,-0.041118741035461426,-0.7852760553359985,0.6993745565414429,0.2549755573272705,-0.4267141819000244,-0.22688353061676025,0.23819947242736816,0.9389145374298096,-0.9739669561386108,0.4658207893371582,0.6759129762649536,0.7428059577941895,-0.5021048784255981,-0.37414252758026123,0.07750697433948517,-0.022384988144040108,0.02062678150832653,0.5269150733947754,0.9488542675971985,-0.14709189534187317,-0.013591432012617588,-0.9244343042373657,0.34644559025764465,0.3337193727493286,0.7986387014389038,-0.3033392131328583,-0.573799729347229,0.7108005285263062,0.17144200205802917,-0.05985052138566971,-0.4857591688632965,0.3381536304950714,0.2719677686691284,0.196905255317688,0.5316792726516724,-0.3919771909713745,0.6319304704666138,-0.715153694152832,0.6005501747131348,-0.8542574644088745,-0.27402442693710327,-0.7780226469039917,-0.27382028102874756,-0.6467702984809875,-0.09041602164506912,-0.644171416759491,1.0009413957595825,-0.1962733268737793,0.6216298937797546,0.7900133728981018,0.8869497776031494,0.6671019196510315,1.295898199081421,-0.5644136667251587,-0.4344775080680847,1.008734941482544,1.0512912273406982,-0.657253623008728,-0.0727413073182106,-0.6996898055076599,0.28144437074661255,-0.28956836462020874,0.34733837842941284,-0.6708352565765381,0.4794541597366333,-0.12135505676269531,-0.4790325164794922,0.3662038743495941,-0.44055232405662537,0.6756158471107483,1.0123012065887451,-0.13510508835315704,1.1264913082122803,1.0595004558563232,-0.34714171290397644,-0.5400853753089905,0.5804634690284729,0.9533097743988037,-0.10463979840278625,1.079114317893982,1.4607456922531128,0.9560256004333496,0.6786485910415649,0.09038373082876205,-0.4942793846130371,0.7331858277320862,0.8457074761390686,-0.8698827624320984,-0.041135307401418686,-0.35254043340682983,0.45994606614112854,0.46207404136657715,0.8404688835144043,-0.33128201961517334,-0.40538454055786133,0.6144950985908508,0.9270945191383362,0.12609994411468506,0.7569049596786499,0.2417147308588028,0.19491182267665863,0.5952011346817017,0.6602814793586731,1.3751580715179443,0.45953112840652466,1.083923101425171,0.5793523192405701,-1.0519965887069702,-0.5650198459625244,0.3234160542488098,-0.1561676561832428,-1.2732722759246826,-0.38813579082489014,0.34517744183540344,0.2768592834472656,-0.5400611162185669,0.13021928071975708,-0.6392965912818909,-0.5201458930969238,-0.09393423795700073,-0.3621821105480194,0.19333434104919434,0.6901445388793945,0.4058029353618622,-0.7458314895629883,0.924648642539978,0.3615676760673523,0.7854143977165222,0.2315216064453125,0.7884436845779419,-0.08804553747177124,0.7718936800956726,0.1446886956691742,0.43612176179885864,-0.09007459878921509,0.4379982352256775,1.0508536100387573,-0.13883444666862488,-0.3735714256763458,-0.5150156021118164,-0.2976454794406891,-0.13429133594036102,0.4689856171607971,-0.8175615668296814,-0.8964360356330872,-1.1701135635375977,0.3225387930870056,-0.7969655394554138,0.9718529582023621,-0.6078311204910278,0.9834295511245728,0.29076310992240906,0.8628457188606262,0.6871784925460815,-0.25963860750198364,0.5206730961799622,-0.14698933064937592,0.9443000555038452,0.6656455397605896,0.3716117739677429,-0.221052348613739,-0.29679569602012634,0.32176637649536133,-0.9645251035690308,0.3796501159667969,1.9049888849258423,-0.02346906065940857,-0.2722063958644867,0.08631685376167297,1.089601755142212,-0.2400524914264679,-1.6276681423187256,-1.1384416818618774,-1.037052035331726,-0.4091790020465851,-0.20439554750919342,0.41793179512023926,0.24338623881340027,0.39184027910232544,-0.2873348295688629,0.4422951340675354,-0.27323994040489197,0.9110263586044312,0.02548704668879509,-0.6382061243057251,-0.13030068576335907,0.6086443662643433,0.6589888334274292,-0.3661017417907715,0.0889020636677742,-0.5966814756393433,0.08600645512342453,1.1343945264816284,1.0082871913909912,0.5578623414039612,-0.23002977669239044,0.29841721057891846,1.6276148557662964,0.36430737376213074,-0.49141114950180054,-0.012788955122232437,0.723508358001709,-0.25684958696365356,0.2825750708580017,0.443624347448349,-0.5893833637237549,0.5801413059234619,0.5363115668296814,-0.2758508324623108,-0.25675439834594727,-0.39468252658843994,0.3130105435848236,0.16655893623828888,-0.549400806427002,0.9578437209129333,0.779473602771759,-0.8554207682609558,0.1745898276567459,-0.24989543855190277,0.41245660185813904,0.03712019696831703,1.1746463775634766,0.7540708780288696,-0.9555450081825256,-0.010104898363351822,-1.1624994277954102,0.6234369874000549,-0.41188904643058777,0.1325313150882721,-0.4302903413772583,0.33205339312553406,0.12691615521907806,0.6458073854446411,-0.7021123170852661,-0.7363026738166809,0.5756294131278992,-0.048142340034246445,0.5010744333267212,-0.8774774670600891,-1.4769701957702637,-0.09486982226371765,-0.141897514462471,-0.13090907037258148,0.05467335879802704,0.0626220628619194,-0.20316965878009796,-0.4453677833080292,0.7048949599266052,-0.00743399653583765,0.7256851196289062,-0.5412436127662659,-0.365520179271698,0.06995443999767303,-0.4203055799007416,-1.0240994691848755,-0.36949896812438965,-0.7689611315727234,0.31505483388900757,0.2556614875793457,1.0002329349517822,-0.8054500818252563,0.20228543877601624,-0.9229769706726074,-0.04763714224100113,0.014864766038954258,0.19098958373069763,-0.10331463813781738,0.8593860268592834,-0.1942548304796219,-0.5301615595817566,-1.1142404079437256,-1.2071974277496338,-1.0062137842178345,-0.5514367818832397,-0.3287181556224823,-1.0471463203430176,0.11522099375724792,0.7110699415206909,0.21941691637039185,0.11143849790096283,0.24362675845623016,0.11264668405056,-0.8616006970405579,0.6275107860565186,0.2083275318145752,-0.7214392423629761,-0.40012356638908386,-0.4552830755710602,0.9821832776069641,-0.14387215673923492,0.4220588207244873,0.5821173191070557,-0.49380388855934143,-0.8668810725212097,-0.8590096831321716,-0.3092249929904938,-0.5026909708976746,0.6236960887908936,0.024197859689593315,0.9520294070243835,-0.3792458474636078,-1.7586581707000732,0.13767829537391663,0.7048192620277405,2.171412706375122,1.428404450416565,0.14401407539844513,-1.490848422050476,0.030126148834824562,-0.005686566699296236,0.35971108078956604,-0.2700786590576172,-0.8326575756072998,-0.9104094505310059,0.16043512523174286,0.020165668800473213,-0.9678761959075928,-0.7142075300216675,0.5957593321800232,-0.09180152416229248,0.12053582072257996,-1.3971493244171143,-1.2008858919143677,-0.24143727123737335,-0.051600053906440735,-0.0959063172340393,-0.17591987550258636,-0.5680490732192993,-0.7270300388336182,-0.9198686480522156,0.2865711748600006,1.0793670415878296,1.0920532941818237,-0.24861222505569458,-0.5633580684661865,0.07273226976394653,-0.6757145524024963,0.26805436611175537,1.2307006120681763,0.17259688675403595,1.25033438205719,1.1196918487548828,-0.051587410271167755,0.2873699963092804,-0.6352378129959106,-0.10058128088712692,-0.861253559589386,-0.24838703870773315,-0.5414295196533203,-0.37109145522117615,-0.6975269317626953,-0.5549110770225525,-1.0715636014938354,-1.6710128784179688,-1.7954736948013306,-1.1939356327056885,-0.5138723254203796,0.22166427969932556,1.7209113836288452,1.54681396484375,0.7566155195236206,0.8374785780906677,-0.8540831208229065,0.34136730432510376,1.0655125379562378,0.06139090284705162,0.31169578433036804,1.2553634643554688,-1.0308016538619995,-0.30477750301361084,0.6366215944290161,-0.1088685616850853,0.47624295949935913,0.9319798350334167,0.8865463733673096,0.8398107290267944,-0.6058354377746582,0.0013070692075416446,-0.02931772917509079,-0.5371864438056946,-1.102728009223938,0.034566089510917664,-0.3994048237800598,0.39531004428863525,-0.3416745066642761,2.1194379329681396,1.7363704442977905,0.3828165531158447,0.7765690088272095,0.831904411315918,0.29055869579315186,0.7790590524673462,0.7425619959831238,-0.08534124493598938,0.4552353024482727,0.315581351518631,-0.670547604560852,0.33707326650619507,0.1182977631688118,-0.6978601813316345,-0.43731123208999634,0.14498011767864227,-0.05390625819563866,0.07966375350952148,0.8323803544044495,0.4026787579059601,0.21252459287643433,0.8038339614868164,-0.4638884961605072,0.36085766553878784,0.8873035907745361,0.2373393028974533,0.38865306973457336,1.7569818496704102,1.513925313949585,0.2492097169160843,0.05018500238656998,0.06991758942604065,-0.2509636878967285,-0.07049334794282913,0.46537455916404724,0.7455569505691528,1.0563734769821167,0.22496691346168518,-1.0330986976623535,0.6461400985717773,-0.3996502459049225,0.829058825969696,-0.004522398114204407,0.352510005235672,-0.5639885663986206,0.5769414901733398,-0.7040204405784607,-1.1387414932250977,0.7879001498222351,0.4703559875488281,0.7547709345817566,0.6408401131629944,0.8591176271438599,-0.5002142190933228,1.5470439195632935,1.4629265069961548,0.9089189171791077,-0.5638664960861206,1.1182242631912231,1.1533573865890503,0.44449517130851746,1.4744092226028442,-0.2007695883512497,-0.21611885726451874,0.38883236050605774,-0.612321138381958,-0.16034676134586334,-0.3435167670249939,-0.17713883519172668,-0.5791516304016113,-0.01537621021270752,-0.2322251796722412,0.9750202298164368,0.9521881937980652,0.8259028196334839,-0.04997057840228081,0.2430017590522766,-0.2319720834493637,1.4038457870483398,0.7468435168266296,0.2202303558588028,0.4447941482067108,0.8646211624145508,0.9085363745689392,0.5276896953582764,-0.06248585507273674,0.25364115834236145,1.0834652185440063,-0.1669902503490448,-0.6197744011878967,-0.2625712752342224,-0.5896357297897339,0.7030442357063293,0.3717847764492035,0.8267465233802795,-0.9786027669906616,0.3556874692440033,0.34781211614608765,-0.7657500505447388,0.5913255214691162,-0.9669203758239746,0.2205478698015213,0.6863199472427368,0.4846980571746826,1.1493589878082275,0.05150005221366882,0.09397794306278229,-0.8214735388755798,0.8302187323570251,1.2295912504196167,1.0486810207366943,0.7969805002212524,0.781298816204071,-0.20413042604923248,-0.43906092643737793,-0.27500325441360474,-1.299169659614563,-1.0238233804702759,0.0576956644654274,-0.4949693977832794,0.4843280613422394,-1.0803148746490479,-0.17540352046489716,-0.8825867176055908,-0.51158607006073,-0.9499494433403015,-0.5052675008773804,0.3396315574645996,-0.9981391429901123,0.08735831081867218,0.3611007332801819,0.5415529608726501,0.18865549564361572,-0.9115049839019775,-0.022158410400152206,0.22859998047351837,0.805916965007782,0.13765522837638855,1.4508061408996582,-0.004300436470657587,-0.16140137612819672,-0.2918061316013336,-0.5658397674560547,-0.756635308265686,0.3885398507118225,-0.24537475407123566,-1.1111377477645874,0.11200161278247833,0.5710411071777344,0.5937080979347229,-0.6255552172660828,-0.08268057554960251,0.8556720018386841,-0.7550768256187439,-0.9366874098777771,0.8173865079879761,-0.871056854724884,-0.4782308340072632,0.40381237864494324,-0.1817270666360855,-0.6936317086219788,-0.8932703733444214,-0.2503173053264618,-1.026599645614624,0.3385615050792694,0.9380220174789429,-0.5435013771057129,-0.8297960162162781,-0.3036845922470093,-0.6866210699081421,-0.3206976056098938,0.07495386153459549,-0.08588597178459167,1.0474233627319336,0.044500771909952164,0.442884236574173,-0.7779637575149536,-0.7746627926826477,0.7996440529823303,-0.6283099055290222,-0.40864211320877075,-0.25722843408584595,-0.5961360335350037,-0.06248864531517029,-0.901035487651825,-0.9403582215309143,0.23335938155651093,-0.25296884775161743,-0.7313818335533142,0.9587756395339966,0.5321794748306274,-0.4873279929161072,-0.4138243794441223,-1.7948440313339233,-0.3768971264362335,-0.6488776803016663,0.26533663272857666,-0.2530699670314789,-0.4401337504386902,0.37655434012413025,-0.4517892003059387,-0.4419153928756714,0.16332198679447174,1.2651093006134033,-1.2161353826522827,-0.2557952105998993,-0.1567404866218567,0.1257103532552719,-0.07525934278964996,-0.2428496927022934,-0.4779643416404724,0.4283503293991089,-0.5265320539474487,-0.07246462255716324,0.38320645689964294,-0.5465491414070129,-0.4888107478618622,0.36616024374961853,-0.8875429034233093,-0.9249629378318787,-1.3964321613311768,-0.365792840719223,0.1984429508447647,0.5683061480522156,-0.27313151955604553,-0.16062983870506287,0.6700719594955444,-0.7237504720687866,-0.2589775323867798,-0.4481769800186157,-0.021456101909279823,-0.16373871266841888,-0.08343472331762314,0.5634613037109375,-0.02199103869497776,0.2727062404155731,0.3783618211746216,-0.06891430914402008,0.45807725191116333,0.12635409832000732,0.9411343336105347,0.29848793148994446,-0.8151370882987976,0.7162651419639587,0.45472753047943115,0.34464141726493835,-0.6044520139694214,0.0836811512708664,-1.0370914936065674,0.05326603725552559,-0.10836294293403625,-0.23071961104869843,0.5625256896018982,-0.12728577852249146,-0.297625869512558,-0.3093751072883606,-0.5097137093544006,0.5343751311302185,0.19077534973621368,-0.69748455286026,-0.7270252108573914,1.0202908515930176,-0.5274333953857422,-0.1668086051940918,-0.6799930930137634,-0.8489508032798767,0.6206141710281372,0.8317655324935913,-0.006040692329406738,-0.8425269722938538,-0.8249262571334839,-0.4285634160041809,-0.0821618065237999,-0.14384250342845917,0.18621943891048431,-0.29865071177482605,-0.07409018278121948,0.08593445271253586,-0.002179605420678854,-0.5231602787971497,0.20294927060604095,-0.7780088782310486,0.0403042733669281,0.4094865024089813,0.5737632513046265,-0.9948943257331848,-0.6667611598968506,1.0836453437805176,-0.22452057898044586,-0.5958203077316284,1.3470396995544434,-0.017427364364266396,-1.012527346611023,-0.44534972310066223,-0.9465034008026123,0.7180447578430176,-0.980067253112793,-0.785606324672699,-0.121293805539608,-0.1873352825641632,0.5580083131790161,-0.32916024327278137,0.33622580766677856,0.8897098898887634,-0.38657835125923157,-0.6909631490707397,-0.35648366808891296,-0.5103169083595276,-0.3209805488586426,0.541962742805481,-0.41332465410232544,-0.7756017446517944,-0.4555753171443939,-0.1017206534743309,-0.1848512589931488,-0.09186052531003952,-0.14118041098117828,-1.0953786373138428,-0.6587642431259155,-0.3031688928604126,0.18420706689357758,0.7633893489837646,-0.8293136358261108,0.06841027736663818,-0.326149582862854,0.011982202529907227,0.6422034502029419,0.44289302825927734,-0.473905473947525,0.7421576976776123,0.3594575822353363,-0.4211609363555908,1.1229180097579956,0.6022709608078003,0.8675548434257507,0.1027485728263855,0.4140990078449249,0.23228603601455688,0.2907586693763733,0.9070650339126587,-0.11396771669387817,0.015639441087841988,-1.4255179166793823,0.033150579780340195,-1.0754152536392212,0.3216314911842346,0.12568359076976776,-0.3441581130027771,-0.6617414355278015,-0.013119220733642578,-0.21152186393737793,-0.33903253078460693,-0.011189937591552734,-0.23312664031982422,-0.633089542388916,0.01073046401143074,-0.7538636922836304,-0.24810291826725006,0.8313968181610107,0.3764949440956116,-0.4172018766403198,-0.1476476639509201,0.07413419336080551,-0.1314450353384018,-1.152565360069275,0.4569978713989258,0.2810058295726776,0.9456155300140381,-0.5577117800712585,0.11771489679813385,-0.33623266220092773,0.5240485072135925,-0.24988816678524017,0.9442561268806458,0.17717057466506958,-0.2649627923965454,-0.20145177841186523,0.9706863164901733,0.8580528497695923,0.38252580165863037,-0.7169356346130371,-0.8312312364578247,0.40271425247192383,-0.9872199296951294,-0.2739003896713257,-0.12412631511688232,0.08196783065795898,0.04794597625732422,-0.7623790502548218,0.610945463180542,-0.22468721866607666,-0.09369821101427078,0.9505334496498108,0.8273118734359741,0.789099395275116,0.8022618293762207,-0.8493384122848511,-0.5489544868469238,0.7171210050582886,-0.24606668949127197,-0.10847306251525879,-0.6237970590591431,0.10099422931671143,-0.47595298290252686,0.4838707447052002,-0.9124367237091064,0.974776029586792,0.8221467733383179,-0.36764538288116455,-0.7047516107559204,0.8132301568984985,0.8676658272743225,0.8197786808013916,-0.9530940055847168,-0.5209432244300842,-0.5299959778785706,-0.3709273338317871,-0.6838667392730713,-0.19840948283672333,0.11767993122339249,0.0347520112991333,0.2923824191093445,-0.6706722974777222,0.9315856695175171,-0.506722629070282,-0.7627726197242737,-0.32735565304756165,-0.08686144649982452,-0.33051133155822754,-0.7359519004821777,-0.8928759098052979,-0.15642225742340088,-0.33560657501220703,-0.10639381408691406,0.5711280107498169,0.09838736057281494,-0.7614531517028809,0.09953271597623825,-0.9363827705383301,-0.23775507509708405,-0.5119379162788391,-0.5593677759170532,-0.709894061088562,-0.2591434717178345,0.005427294410765171,-0.6516152024269104,0.7444770932197571,-0.8886134624481201,0.5358006954193115,0.07663428783416748,-1.116096019744873,-1.0674222707748413,-0.4757491648197174,-0.6292480230331421,-0.2005198746919632,-0.4868590831756592,0.24313455820083618,1.026067852973938,0.6946007013320923,-0.9774942994117737,-0.8047567009925842,-0.6078068017959595,-0.6608740091323853,-0.41573846340179443,-0.7293038368225098,0.9647423028945923,0.2673620879650116,0.05080829933285713,0.8174876570701599,0.6964017748832703,0.8769788146018982,-0.8952822685241699,-1.1977243423461914,-0.9080550670623779,-0.8522050380706787,-0.1551097184419632,-0.2619422376155853,-0.6194993257522583,-0.6823640465736389,-0.12782716751098633,0.19055050611495972,1.0535352230072021,-0.042208097875118256,-0.43878883123397827,-0.20643754303455353,0.5060248970985413,-0.8150810599327087,-0.8339456915855408,-0.8597752451896667,0.253105103969574,0.8951379060745239,-0.6300063133239746,0.010674266144633293,0.34213680028915405,0.6085521578788757,-0.9388200044631958,-0.2039995789527893,0.43622419238090515,-0.49960067868232727,-0.3651491105556488,0.4513631761074066,0.1798940896987915,-0.41470620036125183,0.03926250338554382,0.7090215086936951,-1.286819577217102,-1.2864620685577393,0.14086611568927765,0.08174685388803482,-0.4262160360813141,-0.12883909046649933,-0.8042892217636108,-0.6950976848602295,0.053888365626335144,-0.4353611171245575,-0.3764866590499878,0.7445706129074097,0.5487269759178162,0.4957667887210846,0.4041482210159302,-0.529023289680481,0.35657423734664917,0.6050335764884949,0.09387534856796265,0.9811391830444336,0.20537586510181427,0.5894246697425842,-1.2702609300613403,-1.1374531984329224,0.3746799826622009,-0.8997203707695007,-0.8203861117362976,-0.29614874720573425,-0.8558089137077332,0.908285915851593,-0.5154736042022705,0.05633629485964775,0.4760465621948242,1.4949826002120972,-0.8200278878211975,-0.444283127784729,0.7163978219032288,0.32291245460510254,0.4031539261341095,-0.12097460776567459,-0.28730928897857666,-0.2148563414812088,0.4317537546157837,-0.22283664345741272,0.12544885277748108,-0.8103487491607666,0.37730517983436584,0.8377273678779602,0.9976245164871216,-0.6495208144187927,0.2619918882846832,-0.02588759735226631,-0.24655506014823914,0.31019699573516846,0.05395277962088585,-1.2315435409545898,0.45144593715667725,0.12376607954502106,-0.2891693711280823,1.24431574344635,-0.008797713555395603,0.3035166263580322,0.47327524423599243,1.1001038551330566,0.2473345696926117,-0.04060717299580574,0.08470487594604492,-1.1679755449295044,0.489606648683548,0.8498991131782532,0.41432273387908936,0.10555073618888855,-0.025505149737000465,0.5124734044075012,0.3398619592189789,-0.5843998193740845,0.27774086594581604,-0.782943069934845,-0.531386137008667,-0.38950929045677185,-0.516202449798584,-0.45834851264953613,0.04963165521621704,-0.353847861289978,0.8041000962257385,0.9307522773742676,-0.014510056935250759,-0.027362782508134842,-0.4622770845890045,0.6791967153549194,-0.3254299759864807,-0.11346432566642761,-0.0020320815965533257,0.8664795756340027,0.8847599625587463,0.3936998248100281,0.7112207412719727,-0.35607534646987915,-0.3967020511627197,0.4258490204811096,0.15615248680114746,-0.21162790060043335,-0.22779516875743866,0.42940184473991394,-0.673143744468689,-0.39090219140052795,-0.9273818135261536,-1.0177165269851685,0.03317764401435852,-0.0935300812125206,0.7382423877716064,0.32860511541366577,0.9365478754043579,-0.5920557379722595,1.1996506452560425,0.37960284948349,1.2826975584030151,0.7080055475234985,0.5506621599197388,-0.07270912826061249,-0.19428369402885437,1.3809406757354736,-0.7210667729377747,0.6905187368392944,0.26363465189933777,-0.07809504121541977,-0.056301601231098175,0.101552315056324,0.6025973558425903,-0.7395071983337402,-0.4417344033718109,-0.21161162853240967,0.658360481262207,1.0639492273330688,-0.5117530226707458,-0.4175863265991211,-1.3902899026870728,0.056300800293684006,1.932794451713562,1.3581498861312866,0.27264663577079773,-0.2132582813501358,0.1852305680513382,0.21663697063922882,-0.1691626012325287,-0.7055182456970215,0.46324917674064636,0.903358519077301,0.025402657687664032,0.8135504722595215,-0.5414934158325195,-0.1101187989115715,-0.03889448568224907,1.0158100128173828,-0.7301844358444214,-0.9278733730316162,-0.069749616086483,0.4741280972957611,-0.3728889524936676,-0.3167457580566406,-0.3581738770008087,-0.2523409426212311,-0.9267810583114624,-1.3721128702163696,-1.3351889848709106,0.3935692310333252,1.5665982961654663,1.0730165243148804,0.6799219846725464,-0.3628036379814148,0.4406746029853821,0.26923897862434387,-0.38503456115722656,-1.0757808685302734,-0.5320396423339844,-0.31982243061065674,0.5841529369354248,-0.43331754207611084,0.5677382946014404,-1.1332874298095703,-0.30785804986953735,-0.6993052959442139,0.32337018847465515,0.7694094181060791,-0.0023632487282156944,-0.541792094707489,-0.37214115262031555,0.37302151322364807,-1.140295386314392,0.6753411889076233,-0.47587189078330994,-0.3048597574234009,-1.1579385995864868,-1.3149358034133911,-0.33215785026550293,1.3909659385681152,0.7413198351860046,1.1025093793869019,-0.36409029364585876,0.3711074888706207,0.4276510179042816,-0.2861069142818451,0.7321619391441345,0.6105636954307556,0.5271792411804199,-0.9281151294708252,-1.2055383920669556,0.16974006593227386,0.212887242436409,0.8435192108154297,0.20472314953804016,-0.7538474202156067,-0.8195995688438416,-0.4095047414302826,-0.5258089900016785,-0.09463458508253098,-0.1785362958908081,-0.4119630753993988,0.07769834995269775,0.27950552105903625,1.2204108238220215,0.014187486842274666,0.4916967749595642,0.6662083864212036,1.1641654968261719,0.2751402258872986,0.45745256543159485,-0.3665136396884918,0.6839467883110046,-0.552935004234314,-0.46994996070861816,-0.3429310619831085,1.0755535364151,-0.8412775993347168,0.5625784397125244,-0.06344698369503021,-0.4249338209629059,0.16651402413845062,0.12986735999584198,0.3999224901199341,0.7463024854660034,-0.9142378568649292,0.8571372032165527,0.32497528195381165,-1.031947135925293,-0.6139929294586182,-0.14205335080623627,-0.139603391289711,-0.5223610997200012,-0.9457833170890808,1.2872943878173828,0.5859054923057556,0.4801829755306244,0.03227507695555687,0.5950115919113159,-0.6820192337036133,0.18907912075519562,-0.25596147775650024,-0.08033068478107452,0.36588799953460693,0.45658573508262634,0.49232596158981323,-0.28912484645843506,0.5127960443496704,0.5141491889953613,-0.20774123072624207,-0.45623278617858887,0.9248356819152832,0.2050255984067917,-0.6478912830352783,0.238108828663826,-0.062288183718919754,0.6724951863288879,-0.36217787861824036,-0.8247871398925781,-0.8781241774559021,0.47636353969573975,-0.6394941210746765,-0.535646378993988,-0.2535685896873474,0.009966932237148285,1.566837191581726,-0.48399481177330017,0.0652913823723793,0.2724514305591583,-0.3328595459461212,-0.22221647202968597,0.32247674465179443,0.5098785161972046,-0.21948978304862976,-1.5529916286468506,0.081082284450531,0.5053102970123291,-0.44978067278862,-0.11668998748064041,0.044004082679748535,0.6246808767318726,-0.6473792195320129,0.029558474197983742,-0.3807693123817444,0.2632250189781189,-1.1719447374343872,0.12227969616651535,-1.231796145439148,-0.40296223759651184,0.5852559208869934,-0.2375142127275467,-0.12580053508281708,1.696925401687622,-0.3003191649913788,-0.5317679047584534,-0.2990470230579376,0.3219379484653473,0.1384739875793457,0.2827742397785187,-0.7537209987640381,0.23450298607349396,-0.07105414569377899,-0.5592688918113708,0.4565165042877197,-0.6297184824943542,-0.10863792151212692,0.48102110624313354,-0.643248438835144,-0.5794426798820496,0.294243723154068,-0.37648138403892517,0.7548084855079651,-1.0246145725250244,-0.4130915403366089,0.7708175778388977,0.7627916932106018,0.052717726677656174,-0.42561912536621094,0.4430766999721527,0.05327903851866722,0.5090938210487366,0.12100405246019363,-0.08687850832939148,0.4856068789958954,1.067970871925354,0.6294219493865967,-0.016360240057110786,0.6604109406471252,0.09165378659963608,1.2963862419128418,0.19631263613700867,-1.3417563438415527,0.155159592628479,-0.3512240946292877,0.11509501934051514,0.47260525822639465,-0.2631857693195343,0.18373341858386993,-0.4716539680957794,0.1681242436170578,-0.9449138641357422,-0.940593957901001,-1.0416661500930786,-1.4392238855361938,-1.567024827003479,-0.3253335952758789,-0.8987765908241272,0.08993430435657501,-0.37215307354927063,0.43000948429107666,-0.3837529122829437,0.798214852809906,-0.12795203924179077,0.5376794934272766,-0.47030097246170044,1.3090472221374512,-0.02685990184545517,0.49555081129074097,-1.3515088558197021,-0.2618517279624939,-1.0207160711288452,0.05624725669622421,0.5297480821609497,0.6455636620521545,0.07453318685293198,0.7543843984603882,-0.14773184061050415,0.09944973140954971,-1.032799243927002,0.7355427742004395,-0.1346503496170044,-0.43616706132888794,-0.39259782433509827,-0.8050830364227295,-1.1104134321212769,-0.8191559314727783,-0.5828748941421509,0.8085397481918335,0.32025349140167236,0.5917243957519531,-0.1137637346982956,-0.9386685490608215,0.38741177320480347,0.2662038505077362,0.23450309038162231,-0.2518552243709564,-1.425397276878357,-0.5891976356506348,0.8798910975456238,-0.9720032811164856,0.09485024213790894,-0.7484408617019653,-0.8893879652023315,0.0013038923498243093,0.2630769610404968,0.2794676125049591,0.9805839657783508,-0.2095186412334442,0.3518292307853699,-0.16698816418647766,0.11192818731069565,-0.9989809989929199,0.33718183636665344,-1.0456905364990234,-0.2716623842716217,0.2116393744945526,-0.11471885442733765,1.0451421737670898,0.7569568157196045,0.13000966608524323,-0.42791232466697693,0.9897354245185852,-0.2678130865097046,-0.8545745611190796,-1.056712031364441,0.38374215364456177,0.333744078874588,0.6994248032569885,0.9346432685852051,0.8843466639518738,0.7455664277076721,0.4600682854652405,-0.8831971883773804,0.15153570473194122,0.7411080598831177,0.6911299824714661,0.6696317791938782,0.11807627230882645,-0.13531377911567688,-0.18599121272563934,-0.7240655422210693,-0.7241063714027405,-0.03695894032716751,-0.6633683443069458,0.4765443205833435,-0.28158286213874817,-0.20284166932106018,-0.7084521651268005,0.1624550223350525,-0.17812970280647278,-0.9600157737731934,-0.2636142373085022,0.5652211904525757,-0.6867111921310425,-0.05748410150408745,-0.7530503869056702,0.39373165369033813,0.7374071478843689,-0.3617810606956482,-0.015768397599458694,0.0018535966519266367,0.385264128446579,-0.4777531325817108,-0.09758283197879791,-0.18081490695476532,-0.6012184023857117,1.210073709487915,0.009312751702964306,-0.6117974519729614,-0.3623768091201782,0.5883461236953735,-0.20451636612415314,0.24926967918872833,1.1441720724105835,-0.7520338296890259,0.7006840705871582,0.8313764333724976,-0.3680000603199005,-1.2744731903076172,-0.04231725260615349,0.2798856794834137,-0.5870768427848816,0.5989428162574768,0.5493431091308594,0.7413356304168701,0.5533820986747742,-0.19435076415538788,0.5644606947898865,-0.0949086993932724,-0.5436825156211853,0.4604853391647339,0.19049575924873352,-1.2254307270050049,-1.099279761314392,-0.40512973070144653,-0.7340840101242065,0.16885346174240112,0.4233402609825134,0.3624701201915741,-0.1446024775505066,-1.0071840286254883,-0.803739070892334,0.516472578048706,0.06374499201774597,0.4967731535434723,-0.381142795085907,0.6914966106414795,-0.14395195245742798,-0.7753452062606812,-0.17510193586349487,0.8303943872451782,0.1489620953798294,-0.4511232376098633,-0.9604254961013794,-0.12423289567232132,-0.03604763746261597,0.3371456265449524,0.8436983227729797,0.7441105842590332,1.7025436162948608,0.2866378128528595,0.9429233074188232,0.32879799604415894,0.20531031489372253,-0.671813428401947,0.08715399354696274,-0.9098896384239197,0.4050399959087372,-0.731419563293457,0.5171359777450562,-0.6713043451309204,-0.5386083722114563,-0.8839549422264099,-0.6830381155014038,-0.21287190914154053,-0.278851717710495,-0.5493620038032532,0.4160747230052948,0.6005857586860657,-0.7377866506576538,0.18958497047424316,0.12643420696258545,-0.2458282858133316,0.3983730375766754,0.3545970916748047,-0.38573428988456726,-0.21946877241134644,-0.5025412440299988,0.0761290192604065,-0.48219063878059387,0.19859035313129425,-0.15383347868919373,-0.6063533425331116,0.678333044052124,0.35005220770835876,-0.39782750606536865,-0.4122062027454376,-0.3431401550769806,-0.49616914987564087,-0.9049513339996338,-0.010244607925415039,-0.6443917751312256,-0.6525871157646179,0.8087946772575378,-0.8216486573219299,-0.47660574316978455,0.4902822971343994,0.3904622793197632,-0.5141584873199463,-0.9757033586502075,0.08706867694854736,0.630908191204071,-0.5550059080123901,0.8076662421226501,0.040748197585344315,-0.6091166734695435,1.1764079332351685,-0.12875674664974213,0.5338661670684814,1.0874171257019043,0.8720089197158813,0.3504813313484192,-0.0964401364326477,-0.5595707893371582,0.9954705834388733,0.25348299741744995,0.7352428436279297,0.48125290870666504,0.9316648840904236,0.28574883937835693,1.0111685991287231,-0.38430821895599365,0.010468479245901108,0.07689858227968216,0.38760682940483093,0.8845683336257935,0.0206068754196167,-0.9380201101303101,-0.667282223701477,0.19406574964523315,0.6072638034820557,-0.030549023300409317,0.09509848803281784,0.7884329557418823,-0.4721241593360901,0.928523063659668,-0.49321645498275757,-0.30475446581840515,-0.35928019881248474,0.8422291278839111,0.41902872920036316,-0.06658825278282166,-0.26748421788215637,-0.46946659684181213,0.6682456135749817,-0.7721254825592041,-0.7169817090034485,-0.5379931330680847,0.5980014204978943,-0.7352499961853027,0.8425332903862,-0.371843159198761,-0.5522423982620239,0.9626067876815796,0.4992556571960449,-0.5883005857467651,-0.17069637775421143,-0.8074289560317993,0.9934114813804626,0.6254960298538208,0.1634306162595749,0.7504556775093079,0.736396312713623,0.4399527311325073,0.13218390941619873,-0.747377336025238,0.7179110050201416,-0.5472270250320435,-0.7368231415748596,-0.16121847927570343,0.23955368995666504,0.25808656215667725,0.5692363381385803,0.868279755115509,-0.5285460948944092,0.07084191590547562,0.5180900692939758,0.6095569729804993,-0.8029813766479492,-0.542538046836853,-0.04544782638549805,0.4696030616760254,-0.35603439807891846,-0.9223455190658569,0.1520313024520874,0.32910001277923584,-0.789926290512085,-0.9508700370788574,0.0865015983581543,0.3881242275238037,0.0794672966003418,-0.8360283374786377,0.7476946115493774,-0.10751485824584961,-0.5374419689178467,0.8067458868026733,-0.6197904348373413,-0.7454999685287476,-0.6321755647659302,0.08055853843688965,-0.3024390935897827,0.535657525062561,0.5563721656799316,0.6712031364440918,0.04214060306549072,0.3468341827392578,-0.54451584815979,-0.9399452209472656,0.8253521919250488,-0.7613176107406616,-0.2382570505142212,-0.2800569534301758,-0.24904799461364746,-0.9206798076629639,-0.05592186748981476,0.8875592947006226,0.5513903498649597,0.40997314453125,0.39940351247787476,-0.2137269228696823,-0.34724539518356323,-0.8546642661094666,0.02051597274839878,0.5970278978347778,-0.28050461411476135,-0.40583524107933044,0.4742104709148407,0.05316248908638954,-0.23637238144874573,0.6599715948104858,0.834043025970459,0.5330048203468323,-0.020603738725185394,-0.011529574170708656,0.9372060298919678,0.7662049531936646,-0.5147221088409424,0.11884009838104248,-0.08195006847381592,-0.7904951572418213,0.5516788363456726,-0.28698888421058655,0.35518941283226013,-0.6895436644554138,0.6983128190040588,-0.7081900835037231,0.6577718257904053,0.05658915638923645,1.3388714790344238,0.1257801651954651,1.215126633644104,1.034612774848938,-0.1287882775068283,0.46890246868133545,1.61410391330719,-0.354899525642395,1.068192720413208,-0.40015682578086853,-0.36362409591674805,1.0310182571411133,0.34357157349586487,-0.21401913464069366,-0.27515825629234314,0.7232211232185364,0.5661369562149048,0.9771780967712402,0.521728515625,-0.8545713424682617,0.7577015161514282,0.806735634803772,-0.7502726912498474,0.8464834094047546,0.5627821087837219,1.2315548658370972,0.33482399582862854,-0.09058079123497009,0.9916667938232422,-0.25608351826667786,0.47610434889793396,0.6423644423484802,0.1786346733570099,1.0041720867156982,-0.258041650056839,-0.03850647434592247,-0.0850110650062561,1.2034025192260742,-0.14001169800758362,-0.20161853730678558,0.5791889429092407,0.7067974209785461,-0.4395928680896759,0.9701488018035889,0.06432905793190002,-0.75218665599823,0.14106309413909912,-0.47087061405181885,-0.8799911737442017,0.0014268914237618446,-0.14348216354846954,-0.5871983766555786,-0.6339321136474609,0.15309478342533112,-0.9410057663917542,-0.005190545227378607,0.037520792335271835,-0.24766592681407928,-0.06259488314390182,0.6440356373786926,-0.6197201609611511,0.5259555578231812,-0.32973963022232056,-0.08239634335041046,0.2107870727777481,0.5616160035133362,0.06483200192451477,-0.3091932237148285,0.6044484376907349,-0.2724730968475342,-0.8445923328399658,-0.36813628673553467,0.5303688049316406,-0.11710987240076065,0.9474910497665405,0.5795485973358154,-0.5137993097305298,-0.7455307245254517,0.05415987968444824,0.1475170999765396,0.4537407159805298,-0.8093947768211365,0.24285992980003357,-0.1481470912694931,0.29413673281669617,0.0726727694272995,0.21624842286109924,0.014220832847058773,-0.3992716073989868,-0.2355841100215912,0.2666250765323639,-1.0078176259994507,0.27011770009994507,-0.8881862163543701,0.3919012248516083,0.01669781468808651,-0.42126959562301636,-1.145126223564148,0.6106749773025513,0.49603039026260376,-0.9633132219314575,0.1681213676929474,-0.46489882469177246,-0.16635866463184357,0.5598058700561523,0.7525799870491028,-0.5893957018852234,0.6092509627342224,0.15283553302288055,1.6124069690704346,-0.15300779044628143,-0.7291169166564941,-0.2724490463733673,-0.2870669960975647,-0.05632956326007843,0.8634026050567627,-1.3293379545211792,0.5121291875839233,0.06533630937337875,-1.3344863653182983,0.38380566239356995,-0.4958881437778473,-0.6316020488739014,0.04618893936276436,-0.5751389861106873,-0.17276500165462494,-1.1120961904525757,0.03633764758706093,0.5620577335357666,0.3050095736980438,0.9961676001548767,0.6664837598800659,-0.29771801829338074,0.14896981418132782,0.7737507224082947,0.161023810505867,0.1583920419216156,0.783000111579895,-1.2189891338348389,0.493196964263916,-0.09854334592819214,0.6000972390174866,-0.2737652063369751,-0.5107725262641907,-0.24041271209716797,-0.6668054461479187,0.01863614097237587,0.0949159488081932,-0.44198182225227356,-0.23371994495391846,0.14231327176094055,-0.5825978517532349,-0.2989864647388458,0.43472054600715637,-0.7077978849411011,-0.6493323445320129,-0.2344367802143097,-0.8133538961410522,0.7166944742202759,-0.16006262600421906,0.04877966642379761,-0.8353704214096069,0.08859152346849442,-0.015808777883648872,0.5124407410621643,-0.24148662388324738,-0.22477443516254425,0.46674633026123047,0.4154835641384125,0.19465112686157227,0.2756149172782898,0.16099601984024048,-0.34027794003486633,0.1820368766784668,-0.0952896848320961,-0.08002094179391861,-0.6495606899261475,-0.03284575790166855,0.006461409851908684,-0.010334623977541924,0.7702136635780334,0.40432655811309814,-0.6077473759651184,-0.3234923183917999,-0.2593553364276886,-0.08761901408433914,-0.44295603036880493,-0.47166502475738525,-0.47760453820228577,0.33064034581184387,0.242893248796463,0.9027621150016785,0.35116684436798096,0.7844114899635315,0.7728481888771057,0.3117292821407318,0.05527740716934204,0.230958491563797,0.6724674105644226,0.39231303334236145,1.6100951433181763,0.29857081174850464,-0.4890481233596802,0.7565392255783081,-0.4256167709827423,-0.002005599904805422,0.46289268136024475,0.01108210626989603,0.6315409541130066,-0.7571793794631958,0.8835473656654358,0.7041072845458984,0.47295063734054565,0.32617807388305664,-0.3829760253429413,0.2684697210788727,-0.13226407766342163,0.5298653841018677,0.40927451848983765,-0.13336439430713654,-0.27235713601112366,-0.24624623358249664,-0.6673256754875183,0.16286632418632507,-0.18802830576896667,-1.0995862483978271,-1.150048851966858,0.4829871952533722,0.23967130482196808,1.160502314567566,1.1195151805877686,-0.6742783784866333,0.17643512785434723,0.4957379102706909,0.08413388580083847,-0.29717379808425903,0.03749069944024086,0.05259896069765091,0.5510720014572144,-0.07261645793914795,-0.6378161907196045,0.5270847678184509,0.19333021342754364,0.11013952642679214,-0.3781414330005646,0.08574208617210388,-0.8404085636138916,-1.004878044128418,0.656374990940094,1.468484878540039,0.007810798939317465,0.38142159581184387,-0.8206658363342285,-0.1423751562833786,-0.2581070363521576,-1.4837576150894165,0.13225390017032623,0.30527204275131226,-0.3202895224094391,0.31100210547447205,0.07512914389371872,-1.088110089302063,-0.20994439721107483,-0.7344759106636047,0.026648636907339096,-1.0590558052062988,-0.7197868227958679,-0.48306506872177124,0.5585374236106873,-0.3204869031906128,-0.30898407101631165,-0.18629911541938782,0.259737491607666,-1.1939339637756348,-1.5473015308380127,-1.257803201675415,-0.646192193031311,-0.4903659224510193,-0.8750702738761902,0.23215650022029877,-0.06805098801851273,-1.1637935638427734,-1.4232885837554932,-1.768024206161499,-0.9674856662750244,-0.32064318656921387,-0.9086154699325562,-0.3776397407054901,-0.5057171583175659,-0.1200815811753273,0.10364773124456406,-0.42381587624549866,-0.27460911870002747,-0.9298518300056458,0.7879709005355835,0.030041029676795006,1.0249568223953247,-0.5444270372390747,-0.3624778389930725,-0.5963296890258789,0.12245285511016846,-1.0001107454299927,-1.1386833190917969,-1.3215863704681396,-0.1600618064403534,-1.5127167701721191,-0.569544792175293,-2.041302442550659,-2.1618471145629883,-1.2491812705993652,-1.9585329294204712,-1.159703254699707,0.163022980093956,-0.7805195450782776,0.14393848180770874,0.2611647844314575,-1.427659034729004,0.09155869483947754,-2.0072731971740723,-0.3251524865627289,-0.7146925926208496,-0.49302250146865845,0.2965884804725647,-0.681064784526825,0.9103408455848694,-0.0495314784348011,0.18497474491596222,0.7655532956123352,-0.38711515069007874,0.3795296251773834,-1.2830686569213867,-1.5470068454742432,-1.3796765804290771,-0.8926905393600464,-1.5052409172058105,-1.7720909118652344,-0.9236600995063782,-0.3905957043170929,0.5826506018638611,-0.797274112701416,0.3205243945121765,0.08580899238586426,0.398343563079834,-1.1764764785766602,1.2277272939682007,0.744154691696167,0.7504312992095947,-1.4546748399734497,0.21104313433170319,1.3724781274795532,0.5389186143875122,-0.15061092376708984,0.37949493527412415,0.5830763578414917,0.27585569024086,0.7744687795639038,0.48478278517723083,0.18378350138664246,-1.5284756422042847,-0.5726326107978821,-0.7566964626312256,-0.1232198178768158,-0.6018558740615845,-0.6157985329627991,-0.163185253739357,0.22244462370872498,0.16138993203639984,0.292108952999115,0.7079939246177673,0.3146234154701233,0.6073838472366333,0.5996857285499573,-0.3755783438682556,-0.5653188228607178,0.35048893094062805,0.5575019717216492,-0.6103534698486328,1.2033993005752563,0.73233962059021,1.0143120288848877,-0.04888749122619629,-0.31450873613357544,-0.9338173866271973,0.3249674141407013,-0.25855720043182373,-0.3741063177585602,-0.28117871284484863,-0.5275881886482239,-0.11660602688789368,-0.22116506099700928,-0.21203285455703735,0.7308525443077087,-0.05704696848988533,-0.37070417404174805,-0.011671610176563263,1.0031059980392456,0.27981582283973694,0.49377772212028503,0.7492972612380981,-1.3189582824707031,0.5752136707305908,-0.0843668133020401,-0.01688465103507042,-0.2210012972354889,0.46893346309661865,-0.34863609075546265,0.13312292098999023,0.042071375995874405,-0.5125810503959656,-0.06585048139095306,0.6847183704376221,0.9046171307563782,-0.6829236745834351,-1.00130295753479,-0.7926836609840393,0.9814223051071167,1.13766610622406,0.2520691156387329,-0.2681891620159149,0.2706259489059448,0.20192016661167145,-0.5371059775352478,0.14757150411605835,0.745672881603241,0.5538140535354614,0.09944582730531693,0.04574792832136154,0.5645702481269836,-0.037080757319927216,-0.035922903567552567,0.6996787786483765,-0.7161121964454651,0.10882412642240524,-0.7918900847434998,-0.5085464119911194,0.82088303565979,0.2639228403568268,-0.12048596143722534,-0.3692474961280823,-0.7565509676933289,0.3301737606525421,0.1711331307888031,-0.9849883317947388,-0.2587028741836548,-0.6492705941200256,0.1764111965894699,0.3901771306991577,-0.5259596705436707,-0.04188458248972893,0.07829909026622772,1.7408617734909058,-0.9251492023468018,-0.3023909032344818,0.6399108171463013,-0.18364478647708893,1.0836479663848877,0.3288583755493164,-0.6657847166061401,0.28950145840644836,-1.173637866973877,-0.13819633424282074,-0.13882167637348175,0.11922690272331238,-0.20353850722312927,0.2650727927684784,-0.10219580680131912,0.3317439556121826,0.835671603679657,-0.09579663723707199,0.2187100052833557,-0.5061006546020508,-0.07842230796813965,-0.009629718959331512,0.7504885196685791,-0.22670941054821014,0.8103273510932922,1.4036465883255005,1.0382847785949707,1.8399081230163574,1.2224313020706177,1.1660414934158325,0.2635944187641144,0.15233933925628662,-0.07802140712738037,-0.7232832908630371,-0.9376530647277832,-0.033502474427223206,0.8373522758483887,0.7171071171760559,-0.6442879438400269,0.7867772579193115,-0.3203456401824951,-0.13366174697875977,0.8329595327377319,-0.560407280921936,-0.13699685037136078,-0.6087173223495483,0.144496351480484,0.5063061118125916,-0.08616941422224045,-0.249497190117836,-0.485854834318161,-0.12332428991794586,1.443870186805725,1.7473180294036865,0.014784961938858032,0.24235880374908447,0.9585990309715271,0.23254339396953583,0.9337056279182434,-0.5677509903907776,-0.050500620156526566,-1.2380049228668213,0.0808527022600174,-0.27713367342948914,-0.31114768981933594,0.5972241163253784,0.9698082208633423,-0.2043740153312683,0.1767127513885498,-0.5238650441169739,0.9119243025779724,-0.015260882675647736,0.825292706489563,-0.8771921992301941,-0.6670163869857788,-0.5474943518638611,0.24311813712120056,-1.2333098649978638,0.3352805972099304,0.023333847522735596,0.2860953211784363,-0.263607382774353,0.7938255071640015,0.61346834897995,0.611646294593811,0.5014181137084961,0.1635429561138153,-1.079796552658081,0.2739560306072235,-0.9013407230377197,-0.5058724284172058,0.629256010055542,-1.0403263568878174,0.3310368061065674,1.0332813262939453,0.4250238239765167,-0.49481216073036194,-0.631991446018219,-0.9448624849319458,0.09480062872171402,0.6521545648574829,-0.21538330614566803,-0.643409252166748,-0.03527024760842323,1.2680861949920654,-0.864629328250885,0.45002707839012146,-0.22236542403697968,-0.5260177850723267,-0.21559099853038788,0.24184390902519226,-0.4699377417564392,0.33358195424079895,-0.6216820478439331,0.6166011095046997,0.17997191846370697,0.04054974392056465,0.8592044711112976,0.19725756347179413,0.33620092272758484,-0.25962531566619873,-0.36169010400772095,-0.02337438426911831,0.3626626133918762,-0.5036436319351196,0.26992544531822205,-0.09115874767303467,0.19492113590240479,-0.682607889175415,0.17216724157333374,-0.5058823227882385,-0.5967137217521667,1.4951871633529663,0.9973182678222656,-1.0005836486816406,-0.9421077966690063,-0.4382583200931549,0.1721407175064087,-0.7391645312309265,-1.0770998001098633,-0.23413580656051636,-0.4825476408004761,0.7690830826759338,0.3611081838607788,-0.6291329264640808,-1.397829294204712,-0.5251632928848267,-0.03408956527709961,0.17638054490089417,-0.004184798803180456,-0.4285489618778229,0.41089314222335815,0.14053601026535034,0.37541714310646057,0.634577751159668,0.6704546213150024,-0.2168806791305542,0.44380104541778564,0.026833130046725273,0.15605589747428894,0.40006425976753235,-0.4485776722431183,0.06221100315451622,-0.2900886535644531,-0.641364336013794,-0.79967200756073,0.5247277021408081,-0.8630414605140686,-0.14316800236701965,0.11489156633615494,-0.028406687080860138,-0.502156674861908,-0.36658596992492676,-0.09415588527917862,-0.3134250044822693,0.0625898465514183,1.244728684425354,-0.48255136609077454,0.5373071432113647,0.5888702869415283,-0.4312659204006195,-0.9304305911064148,-0.24622535705566406,-0.06721973419189453,-0.23193013668060303,-0.706003725528717,-0.8611558079719543,-0.35093677043914795,-0.15935324132442474,-1.381795883178711,0.5417996644973755,0.37168705463409424,0.2924058437347412,-0.34044453501701355,-0.2613830864429474,0.15529762208461761,-0.47396016120910645,-0.06542348116636276,-0.47060123085975647,-0.34978538751602173,-0.21841321885585785,-0.6312112808227539,-0.8296826481819153,0.49853336811065674,0.9130609631538391,0.34349602460861206,-0.159170001745224,-0.9117786884307861,-0.5517405867576599,0.30919110774993896,-0.49045073986053467,0.342465877532959,-0.8907136917114258,-0.9454874992370605,-0.8194554448127747,0.41307953000068665,-0.2375228852033615,-0.7050667405128479,0.3002329468727112,0.5920533537864685,-0.03795988857746124,-0.06848286092281342,0.8568341135978699,0.09976118057966232,0.23328113555908203,0.7172175645828247,-0.5545437932014465,-0.8135903477668762,-0.35342109203338623,0.5510520935058594,-0.2651428282260895,-0.24222861230373383,-0.22637125849723816,0.8987020254135132,-0.1528923511505127,0.03186594322323799,-0.3699377775192261,0.13835680484771729,0.0011380910873413086,-0.7273428440093994,0.4617999792098999,-0.7715084552764893,0.3776785135269165,0.4242289960384369,-0.8864080905914307,-0.2863309681415558,0.6369545459747314,-0.7744523882865906,0.42165982723236084,1.0012130737304688,0.4748295247554779,-0.7529137134552002,0.1751536726951599,-0.4714701175689697,0.4556227922439575,0.23704855144023895,-0.7022215723991394,-0.7195256948471069,-0.36052796244621277,-0.4663684666156769,-0.1261025220155716,-0.23579877614974976,0.1299327164888382,0.38773858547210693,0.6587539911270142,-0.05106043815612793,0.874518632888794,-0.6378438472747803,0.25359582901000977,0.4417917728424072,-0.9914313554763794,-0.5866552591323853,-0.5570112466812134,0.3691340684890747,0.9133466482162476,-0.976180911064148,-0.527815580368042,-0.5432318449020386,-0.3027380704879761,-0.25499019026756287,-0.19434484839439392,0.358714759349823,0.8999685049057007,0.6139593124389648,-0.6460016965866089,0.5095958709716797,