{"layers":[{"biases":{"cols":1,"data":[[-9.73956087111138],[-195.27554840532997],[-28.079117165659497],[-846.8276237022454],[-30.091577002335683],[-273.6046507932402],[-339.4936678443495],[-246.77737942410107],[-26.510972970345165],[-313.63337878897016]],"rows":10},"inputs":784,"output":{"cols":1,"data":[[0.0],[0.0],[0.0],[0.0],[0.0],[0.0],[0.0],[0.0],[0.0],[0.0]],"rows":10},"outputs":10,"weights":{"cols":784,"data":[[0.7939297955038662,-0.4804224861941344,-0.36201062669500916,-0.320601927255304,-0.8525634367193184,0.786526985874465,-0.007394608302576211,-0.11689123971581394,0.07121557915743582,0.02629800579131758,-0.4046911975214673,0.35757712399200936,0.8565091686004827,-0.44066952599369213,-0.68138793937768,0.9540998239751166,-0.33793616677281424,-0.6817618449496914,-0.8743923761610377,-0.2631210121699914,0.4313746261928486,0.5325326617572554,-0.8929701532555632,-0.4729553616905371,-0.8829705504754652,0.4669645939800202,-0.11849456925087054,0.8679442024474342,0.33152679392243267,0.3118670776942558,0.49469849047192205,0.7624019826802764,-0.27737494913330973,0.8915699156863748,-0.7428175845352756,-0.17893864744795462,-0.5865368074766508,-0.7617223739114114,0.6565521863198167,0.2431791243279393,-0.3269125767898693,0.4145137494072406,-0.8112725549278073,-0.04632039668649934,-0.1681525232389809,0.36755206368207705,0.3369236576530008,-0.9057399327219162,-0.5431844750727781,0.8518606263514454,-0.5505982054946938,0.21163314322026094,0.05551178202342233,0.6162165711002607,-0.1407060681353458,-0.7319710402604549,-0.922608108043451,0.5079544838056198,0.48740504148290387,0.4021060001151975,-0.00688921832683298,0.6421783315841247,0.006804208101682807,0.22359254061648692,0.6661249807222636,0.38605640344975867,0.5151853314373327,0.9865038776246828,-0.33183546459408886,-0.11515190726051783,0.9138100776473581,-0.223318971433615,-0.2732998590659206,-0.3068059010015767,-0.702859373983133,-0.11625869857606519,0.17792626318669913,0.37576338337849813,0.6921411839447003,0.2374213678017778,-0.901391319444304,0.1217736092387931,-0.2842413010223188,-0.5235509224078467,0.653852625371115,-0.6744514303040166,0.8861622011949399,-0.09925460863241309,-0.4274679111350692,0.8957256413870263,0.8440720584958505,0.7857667533549613,-0.12485384433825786,-0.6127391130194748,0.6322533989131982,0.4024452321617926,-0.7515528311706601,-0.8608873982788396,-0.34146197384027777,0.04291255762134494,0.5914197588534764,-0.5960464790588336,0.6304468873819742,0.2783693823747313,0.8871334191371412,0.848054520281476,0.8059829235346374,-0.6986051578607957,-0.2727068279887239,0.36481247379656634,0.018418114493892412,-0.2894298331102678,0.5867485178277938,0.9560710155832794,-0.854789214639047,-0.5163238323874058,-0.5817605331588191,-0.2414505201056616,-0.8844521579708111,0.38088122132362523,-0.013577809990111822,-0.6238437981341292,-0.6624368277695607,-0.5845221603966364,-0.7924901238168724,0.7126111366088754,-0.2634570770126208,0.8313392618743822,0.9577482310777912,-0.4781544494625689,-0.846596708568436,0.09178552456510869,-0.5041813743438375,-0.2063334110577848,-0.39183343320046693,0.5534917025006016,0.3487996944121978,0.8799185860058314,-0.364809253418795,-0.2651186876582148,-0.16935147889862256,-0.2945648097705109,-0.3667578131981468,-0.3229627603563783,-0.24421824047217422,0.28456631023555135,0.9390094556327464,0.15663296583771324,0.8643877414614538,-0.2961447809892277,-0.6010416819190412,-0.5996228892239999,-0.3122757322123453,-0.36836211241486616,0.30233324540162587,0.4363739277840384,0.20984306132140773,-0.8023420325223982,-5.02519357946503,-10.473259808013262,-9.897494417515105,-3.4501687216899177,0.4503077675771616,0.9811032536375746,-0.8985216540355867,0.58110559758182,-0.07410982650869458,-0.732246681844354,-0.561254183574678,0.31864413103714684,-0.7651662455157697,-0.9692224929071553,0.24697770635165783,0.016948680859422804,-0.2109122710193243,-0.055123725771517806,0.471434666603344,-0.8058342832355481,-0.3166980696315169,-0.7003488273529768,-0.9198781275182677,-0.23786835345851176,0.8804637174575349,0.5430358067522303,0.22626272605281628,-4.213962156983087,-10.398639860611206,-10.738640134547108,-9.489964089742145,-2.3725172723226526,0.7132953559113298,-0.6291834658452866,0.09242904199679325,0.7871473913312328,0.48294373223278964,0.4856206416823985,0.14772844767377324,0.3477733579881006,0.6362066933662769,0.8797039548750609,-0.9665260443404884,0.11439775901324545,0.755931382090161,-0.630915979340323,-0.4332024484356385,-0.7526956912365927,0.5301361527566801,0.1107171522868704,-0.49704588068273137,-0.3538201937091692,-0.32493370249839004,0.6630997439859334,-0.8213680507677499,-5.544707708511807,-9.406665110716839,-11.046605441687518,-9.4142217627803,-2.813348911753109,-0.7687740702442827,0.6025927365873449,0.0683070625265958,-0.8136972288274384,-0.25878346572017197,0.24203777345220234,-0.3566238465790319,-0.354545484152875,0.8834312268863367,-0.1030945367435061,-0.09814485873530465,-0.3302913060288575,-0.8652501897213121,-0.38917715842624356,0.29195055580997487,-0.36293862786317255,-0.91770783656084,-0.09334235189191276,0.6281254140773911,-0.36721456910396477,0.6440634671999128,-0.2283049049357615,-2.097318475539625,-9.585284354931478,-9.548181935707719,-9.095883218047366,-1.3512832453304275,0.23372834988106256,-0.8385374987205987,-0.4707892182673341,-0.6713072578735078,-0.8458267467419809,-0.21805216469654765,0.8822400166400424,-0.671207830512824,-0.13534536522842955,-0.9134589312863737,0.7193185618247413,-0.003590927505146002,-0.5917671173297303,0.4754835639000605,-0.06659928604665355,-0.0952323111716078,-0.13782629179519912,0.2768103933706567,0.9608403272617192,0.21039173207089723,-0.894513721793287,-0.7460533482666678,-3.211744220337789,-10.020459616701041,-10.117420906606494,-10.501914096104393,-3.735806388156664,0.48885271489040893,-0.7839363229320442,0.8430440937625276,0.19830625909338617,0.5982469555184746,-0.4139043591999927,-0.20033998070413728,0.7036532133105939,0.10615351447126287,0.6245799895708442,-0.8529445063167733,0.23389766722119698,0.8583977539490104,-0.05704596254919214,-0.2538095868138581,0.40589827964003655,-0.10716889099968885,-0.8723950030849916,-0.9882793174895914,-0.6883510371066013,0.5809690075641889,0.22648747675814618,-0.8156711064772533,-5.95614207995815,-9.792042296760437,-9.680248578022411,-7.496964993797824,-0.3636201449628853,-0.6560014074486396,0.14770388274154134,-0.7421102019425911,0.1825108038180987,0.5757227466166981,-0.4257943951025063,-0.04505721088587955,0.48965494668552845,0.14144228596322916,-0.8799996937255106,-0.9684799940717319,0.7989578038705838,0.5711582770170549,0.5207856240973563,-0.5196283004370936,-0.08262393520397349,0.8254342808924724,0.5066189059671913,-0.31553255524539137,0.8181025044510297,0.5383237596731669,-0.5393324176129108,-0.9975564289705682,-9.895795896956907,-10.4988197210425,-9.114163442125257,-2.754458966672882,0.6171583741804827,-0.6198923351865606,-0.2439857992257195,-0.5666761315954782,-0.5757316193006186,0.1955022392688872,-0.16356941634932332,0.291747258588382,0.7281204242839785,0.41628236100167215,-0.6815223432313495,-0.8704024075973766,-0.617420218362664,-0.7660249828669334,-0.9396853266777732,-0.4929518613645758,-0.6798691619756008,0.6373503378348413,0.48993930845128597,0.12674704430980288,0.11868216361577333,0.32979901074947104,-2.2777646397840647,-8.24828767931212,-10.10296617786877,-9.688691555733474,-6.098487661105919,-0.2774115188330606,0.8148318881252126,-0.3435884546817225,0.889401247288873,0.6328966212244143,-0.5252412946689253,-0.9493494575382291,0.1258155017531557,-0.7793955661066643,-0.21785095208214056,-0.9867534325956424,0.07298045689081811,-0.056276512395715184,0.7837434845075966,-0.7418667212944314,0.49136662185293156,0.9966597898278149,-0.08087087420192263,0.10996986868858727,0.39867754577669756,-0.2630377849642125,-0.7948313868302921,0.3981524192873078,-3.372145579795046,-9.42408603164732,-10.51104554251683,-7.795488351186711,-1.1092704930128159,-0.34538005271914995,0.48537703031876145,0.08781368423710556,-0.9804562109718358,-0.6951495868312645,0.04390182874678383,-0.7564515962649527,-0.0901796183914858,-0.3906880127483534,-0.014789842756878002,0.11346191295354835,0.23787325371007229,0.4006462525323642,0.6800810237463815,-0.23881086663330353,-0.6187307330854837,-0.7737772853294114,0.442499992174074,0.8822631307883508,0.47593898850712346,-0.0652123406945797,0.634038651804661,-2.7371302457809676,-10.128583456281444,-10.0378481493891,-8.170286517534755,-0.4509722930592185,0.27113053639176155,-0.8636214460074134,-0.877231225734572,-0.40360635231378916,-0.47554482527731534,0.3954208792540621,0.5358147676059475,0.27862264762810507,-0.829500388534691,-0.7350233248277014,-0.8408740752575892,-0.8824215871361618,0.7877350215212606,0.5001254964237138,0.9411515745815091,-0.38025748583660657,0.02195924024633933,0.44772050784673967,-0.808844035247402,0.0851083059797122,-0.6770961294821745,0.8597442801715836,-1.6183408100828687,-10.427313270864598,-9.927816400073993,-10.751770815202988,-6.6941331583571335,-0.8697635197211875,-0.857734310896247,0.07006405494077272,0.7680109107091213,0.9340440864171342,0.5394879541535269,0.1784163623438222,0.17611032232989365,-0.0454518014220211,-0.7319912044887789,-0.7618058806294836,0.037389810661679235,-0.09560850214084171,0.42234392592900627,0.7803813529906785,0.16407163940685532,-0.35770424080750307,-0.2990093740747988,-0.18060319351103682,-0.3886512252586667,-0.7186451769539666,-0.9693834247541393,0.34718028977005955,-6.4696787437601095,-9.950762110408977,-10.319824225013118,-10.046195078181569,-1.1740850124550397,0.2723031741513977,-0.955868559954387,-0.135123784640391,-0.7310657759589936,-0.06855029840077353,-0.19945785013947415,-0.6655970172291463,0.5169080335078646,-0.6103133458360182,-0.9277152709671099,0.19227816561537314,-0.8297254943620542,0.43542157415544835,0.013732374559409566,-0.32525365661164796,0.7953013700573974,-0.5011791484589123,-0.3179223993274869,0.27099790394256407,-0.4773696370548799,-0.11315610613169635,-0.7287086312837239,-2.3344274481845715,-9.185436928970853,-9.397924012148646,-10.179834675546378,-7.727575305094905,0.36047664609492625,-0.7804356237213133,-0.37593556747432544,-0.39013527589521524,-0.6872154423587198,0.6403630083440941,-0.485672069621937,0.9723430885660891,-0.9981989492849637,-0.6907396905013141,-0.10450330705790822,-0.6902639827969528,0.49884684938102164,0.944597574888004,0.7096357732118992,-0.27306358625345184,-0.5125006600801889,-0.980052509310583,-0.07736154407344609,0.47209550177277837,0.012174993658033095,-0.48511970432764207,0.45604532034771883,-9.20656304611738,-10.52783947719955,-9.219429444642701,-7.357775354334262,-1.0247487633133086,0.39606719564425785,-0.014108583336682967,0.7447191101931028,0.9045443443255747,-0.73949874591854,0.326989732131868,0.398003242386592,-0.2438133969441405,0.18079151184059716,-0.3793783271610678,-0.7178477988320284,0.3371297021005333,-0.6415151889000488,-0.8905872773294434,-0.7885473673559198,0.09169882628033421,0.6749317228148513,-0.11048831466524689,-0.7226253120233592,0.20066236305659535,-0.05642298132138479,-0.9932480181725025,0.07291034657665163,-9.687313946111395,-10.307877759269878,-11.043726849705893,-4.206839324249207,-0.4448316803949528,0.5578814285591889,-0.5686849156756233,-0.6862637228420236,0.8550130415185944,0.7582730852535702,-0.14234320527120392,-0.8988975421931009,0.8337526917286131,-0.4308489625727965,0.15947578574387755,0.49615022624113103,0.614557523041547,0.5755812697197222,-0.18839956906510014,0.8714990349525018,-0.41718530872976123,-0.8614841715639676,0.5655003422369262,-0.16501302159868358,0.6573929311008273,-0.6035191744270203,0.08097277089054788,-6.786143176105195,-10.065005524544084,-9.526718842489787,-10.081879189524866,-2.082917542409631,-0.6138864454763144,0.0912611159189991,-0.2999148731021877,0.4573758676207471,0.5460478995961253,0.9025859607651632,-0.5048023685186722,-0.8196365621588839,-0.22059315507892263,-0.024267752627174177,-0.3361234635858388,-0.21718277643050365,0.8064308829024687,-0.40798518238327164,0.914690790735176,-0.17347067546041872,0.9788355659893155,0.5095654716264784,-0.9527908944101247,-0.07039356568949917,0.1467264613517436,-0.7158169935099572,-1.231496561684608,-9.708495704001027,-9.939096421005848,-9.907661727332593,-5.5849688411372735,-0.45707207822376533,0.4945479153067118,0.22625961805444494,-0.5416728393770129,0.08235265239791811,-0.5759026819441404,-0.06324870380960501,-0.5482661291450912,-0.7530318748387022,-0.046161064192349555,0.8366807729270624,-0.5306617558624658,-0.22010121512342362,0.7283590788449645,0.7401207585298333,0.23138959331189812,-0.6873305863266606,0.3833923677173823,-0.16471015824957447,0.1375456061890541,0.04933896659876069,-0.286771232341265,0.06408459357349328,-2.775326608739764,-10.772472514190174,-10.202072580721243,-9.220238554840234,0.8093501003223216,0.6835968372421459,-0.9122624264688841,-0.5699731461845172,-0.5755852564273938,-0.8584903519878504,-0.5048609826009198,0.8616738724759077,-0.32872749412741675,0.9036839436409141,0.7212704475595475,0.6237551194328588,-0.9861247677477958,-0.48926471987566567,0.7513718992933935,-0.5347549950206796,-0.88636975976672,0.9044131317415542,0.47836019276727937,-0.4351962611199076,-0.09320783074454742,0.16201807135142898,0.7585081390405488,-0.644207521994463,-2.4550169472176053,-10.872433166988479,-11.21723053088023,-8.548412813081436,0.3913944737034669,-0.2677653554163655,0.16245464158459777,0.8174720045323429,0.2988137859814304,0.20639525351497867,-0.5962135398010442,-0.07252641774073432,0.9350390520371226,-0.7775925943348752,-0.44383877637088665,-0.591853633588175,-0.6163644856879964,-0.344058242426978,-0.30881529374235384,-0.10954540459541162,0.3105941345294061,0.3769299461992903,0.299586360471076,-0.37970495953824046,0.305122738291707,-0.011757407037660927,0.9976622610447183,-0.15803647387614528,-0.25842700717850187,-7.341585588189851,-11.210600099316538,-8.536535266887576,-0.9530575242393806,0.414411498457103,-0.1582594598617506,-0.27468083164108736,-0.34348425764118873,-0.38190190681168623,-0.8750851348819118,0.46736395423599775,-0.3269331648985492,-0.46040009134190085,0.163991026189086,0.9137746587247755,-0.9136509391362453,-0.5626651530442808,-0.3126437073768351,-0.3689652798859895,-0.13195378727732487,0.23733316086096634,0.9044936473770855,0.8864053843137945,-0.6115652707076924,0.7237522599777617,-0.1470513322132574,0.3248188284157243,-0.843125583232821,0.09777209591486957,-0.12743718559294148,-0.1365660737244485,0.12416233304450763,-0.2956088983846863,0.39789147506013767,-0.22623916944216704,-0.49732153693885883,0.9585678681406649,-0.947357686564398,0.10517493877373307,-0.9426169469555947,-0.9565301251986429,-0.5253315793628803,0.5343969170901164,0.8851637231441449,0.0502951030303469,0.08581961525561654,0.36889023930465425,-0.11222733834984289,-0.7959092839584307,0.7963545834989949,-0.6778488664183129,-0.26613575472564444,0.1358025520843864,0.8344268522310816,-0.5761269784679699,-0.9522743731631653,-0.3570318289796566,0.2575810000656382,-0.5606669785927558,-0.011404254242576739,-0.4141043088954537,0.8858483561090731,-0.8408303013996381,0.7576813592804434,0.0333179575695024,-0.3406098590445863,0.15763322779912348,-0.48688383015753733,0.21007543889931068,-0.2121441748053836,0.6307866925985208,0.2781521486060541,-0.2591823971138678,0.1349419733252799,0.2787820185198122,-0.7210980765005035,0.12589906609592583,-0.8482207731087894,0.49327280099501136,-0.6902587889576508,0.48991301895026007,-0.2152752364809718,0.5115783455687954,-0.4209388964307732,0.733203164510676,-0.8636399125560559,0.13797328907055362,-0.8067722333743172,-0.4343047729508802,0.6726053830126044,0.005318541885025008,0.5054738000783561,-0.6202151707742007,0.6037751277947292,-0.9692337200709533,0.1328741566143763,0.25219790288828725,-0.40689645965390175,-0.9595801898902101,-0.6682384673184945,0.38916045679512323,0.9761089340535329,0.33820338334065214],[0.34196131962417287,-0.3847254057834557,-0.32800032795466416,0.5752303290517917,-0.5945260680935536,-0.3410210019068023,-0.6471300298971936,-0.32402222607291065,0.11783210215480389,0.3722436060010883,-0.6159689591495012,0.9850331556575438,0.9233753171712562,0.7383554718847309,0.7580247726787395,0.24980329718709848,-0.05702218001404025,0.7561461036769637,-0.6312646241782884,-0.46094705746929243,0.8383803484257282,0.0025173887467890843,0.6256307389570719,0.3669856206502111,0.15081142873855535,-0.5134939513757688,0.15646683254380966,-0.6373740382126878,0.05879748534457985,-0.5271285436815984,0.5869542038692632,0.13131727350081013,-0.8834999282088221,0.6462465463764515,-0.9339117477327559,-0.47255844404019265,0.5775585660054829,0.22207779487202584,-0.19449484613922485,-0.03193589695459753,-0.1450808358027622,0.48234338759431195,0.9554339730700814,0.09052478608495895,-0.4954824893919074,0.7857465461584037,0.479824859917074,0.3292453212941957,-0.36575101111194397,-0.8288804902895126,-0.3514744329403263,0.9832053902876805,-0.706479714030708,-0.19545730644243675,-0.49839743760435984,-0.0813139127910616,0.787678767551693,0.2747944174096959,0.9638287699079153,-0.38666372691307127,0.3225931335883099,0.19449206912400618,-0.3716946570251134,0.743796788954237,-0.8590571687304676,-0.7442888073379896,-0.7070462673319982,0.1688538899236811,0.26237671200955126,0.9913859735311135,0.7092296254252115,0.13876035357410488,0.7165612909332988,-0.5117003163590872,0.4192841157153655,-0.3226721744831502,0.06369959276567583,0.4389105283369308,0.801006503791736,-0.005787312776088349,-0.6161819702301718,0.9141428157807667,-0.31084826882359917,-0.9125009722664266,-0.7704254880121013,0.2885058789897985,-0.3879584375329459,-0.3353794847273155,-0.31180254331856005,-0.7946411545747012,0.21868091332943296,0.4061021007783052,-0.04977487274066217,-0.04148108781699489,0.6221606169801273,-0.6618665293711974,-0.0005638285938858179,-0.33750259579466624,-0.5828861677082835,0.2597641489075244,0.3793113662181,-0.8615657808309369,0.06880405488201058,0.01984333002463523,0.6321955243162329,0.13534681600622256,0.30201358540630796,0.9759075847383065,0.5533975325582889,0.5782317469712961,0.1461486438083992,-0.1324742322594057,0.9041743327741043,-0.18427579726316212,0.938748771878458,0.47117559135349296,-0.8341673030652328,-0.45584489375475146,-0.7849809756306065,-0.39396756111530795,-0.3802013976039349,0.540210603225445,0.3045276990191035,-0.8551502984355168,-0.2345569654587243,0.8252554325754209,0.41992815204507883,0.7434533728033461,-0.5638523222410967,-0.08568894028728691,-0.6522136065638207,0.6727329455143596,0.9672706007918537,0.6211897663175301,0.022590001443243413,-0.45125017872770345,0.09164912433733674,-0.33968603931567687,0.376549224578834,-0.977247474910544,0.4292027132700813,-0.835663606470664,-0.065067036075104,-0.824840503216991,0.9141840198023461,-0.04511016189088535,-0.32538220402401685,-0.026968401091598038,0.06986283376990032,-0.11175156132226194,0.20899516383385386,0.730455084349505,0.9281239738722511,-0.6706940025749022,-0.7751768433364308,-0.4474914704174253,-0.7549110722740053,-0.03131812464080852,-94.63998251859202,-195.72328053306077,-196.63348230830832,-48.90580266344362,-0.7197076384206806,-0.7793946054073322,-0.5637343779201898,0.7267429955161215,0.5866879916069854,0.06041519900102954,0.20645631564989353,0.5257034331832624,-0.3540218622707805,-0.4819018981113652,0.9278173291283887,-0.20986876562096302,0.9335093925787066,0.4636993150379922,-0.34280958999011424,-0.31676730712429113,-0.8703495778135197,0.1304814304784323,0.35643153867225497,-0.08119388329262445,-0.15330229806893025,-0.4474933717012177,0.8431089790191755,-73.60623090818547,-188.56328741456693,-193.16636103700702,-194.5850205707897,-47.22558159455012,0.5158868656205202,0.029357292834113258,-0.7701790294660613,-0.9187992971125274,0.20234735326285525,-0.06409729667315078,-0.6257776315975159,0.96849274450281,0.3045160362506407,0.9113668557210166,-0.7689605383610687,0.8481418028857799,-0.40608249916976447,-0.7285456393300618,0.23082885939441855,0.9303357232831515,0.12497245405691948,-0.7947300379860651,0.6888678179933465,0.726137579217885,-0.3179220470610322,-0.7698075842810179,0.36366751497467087,-97.7753135418654,-193.3851134800971,-193.19494054188712,-194.4059523261369,-48.17148344509689,-0.8524909662560649,0.10146668990061847,-0.6297152367350842,-0.17331893777984964,-0.11605819783820737,-0.3484341372712587,0.37990853482083486,0.08283770995761341,-0.9915757945874406,0.07009080185094052,-0.6619982347218503,-0.30525631719552293,0.33133891183767483,-0.6003290092232612,0.5915559279674931,-0.5445637241544188,-0.1769016882967871,0.44254298399648984,0.12204062244758429,-0.004996294772560805,-0.5766538083723425,-0.8787300500654127,-53.06698434317104,-180.67496996923845,-192.34263062426524,-162.29668554161438,-24.467878420117398,-5.81096745705775,0.8579618962802722,-0.6252604713932295,0.7439151094419818,-0.8304596958109711,-0.5482846433797222,-0.4977834884919907,0.7737997297000094,-0.5050189761345028,-0.8924816379547227,0.5059650194325467,0.3587913311204327,-0.32108505426772727,0.8721891313350576,-0.8299194849179261,-0.28577373341959067,-0.2589260393507853,0.21199141013919376,-0.7818142137100244,0.8918235143756594,-0.1259461743733632,-0.06056453463814582,-46.549897390195234,-175.5599712662543,-193.75206198641877,-192.24256486752654,-72.70481163966508,0.41673824084658073,0.7251816585639503,-0.5729574606247012,0.39757715866355814,-0.6534287194272064,0.8537553675911986,-0.5916375406445504,-0.6288890859568685,-0.22828379840714175,0.7554883231829543,0.7392053011232875,0.2709293682770926,-0.7028241546700618,-0.12878774515900404,0.5285822597387899,0.6259362399913975,0.3459983269797229,-0.3684835007615228,-0.8296173050981033,-0.27107477824331494,0.716512681738642,0.943357308453755,-0.4546580173563326,-120.22963743382257,-194.21799990431794,-194.7830810813625,-146.2187119778621,0.6534672546401601,0.598946868317916,-0.8056835569457621,-0.04151840735361456,0.19631046941781594,-0.4520953673471686,-0.6071339675195955,-0.5331592416501805,-0.0417570463945347,0.9076699016786571,-0.1827419602451974,-0.2483388293412101,0.1213058537869478,0.23165359790608364,0.31321049879864504,0.1940462292068028,-0.058894708383040895,-0.9790034886720513,0.3923934076891573,-0.5480378197156441,0.470659238186411,0.7531769796014605,-0.27106304871415343,-14.494403515508653,-195.17551073864047,-193.56956179230087,-180.41741695511917,-51.47305389110852,0.8714824594517991,0.51266322782479,-0.022095233375214685,-0.265679727370445,0.2637702716542707,0.095188747278532,0.5050696134883834,-0.7304410008148643,0.5281906399780869,0.7764354701823604,0.6354444407514768,-0.644689473522954,-0.46998199060714674,-0.5689050006204652,-0.6283651633610086,-0.3171640732490135,-0.7929856025613333,-0.5778974497023643,0.537585574650294,-0.9471024803534827,0.5916511219763261,0.6702331442611795,-24.256236557577992,-158.43377587819728,-193.8687175985934,-192.48433604988256,-96.72962309875226,-0.9882523586504413,0.21756643686172428,0.7642297522407011,-0.7519609536834371,-0.5984364160138065,-0.22518534379379274,0.48072138421098454,0.9750031790053613,-0.41130108404995913,-0.11477545566574254,0.741654284868648,0.372329124873525,-0.6260766549967791,-0.9433916792317953,0.9094666050725442,-0.2725980829034349,0.12137273216671396,-0.9382637962899012,-0.3750325192764348,0.3616899507470679,0.4766018802708243,-0.30900894510220045,0.4519898693393365,-80.82591144608489,-193.12972553246047,-193.83958824892602,-141.86629126776754,-11.474218898519815,-0.7787705575636057,-0.7525376375982529,0.7568375398433556,0.36751246198780985,-0.30103354691739237,0.454330625008986,-0.6884375673143106,-0.06290450540356063,0.0763519039853684,-0.8388667982985483,0.4754630544623848,0.012210310562118076,-0.6212473821883837,-0.9739624146138954,-0.3060088090498354,-0.014826161814023298,-0.8645810693946567,0.6475889740149261,-0.20127134406999558,-0.5197689659645641,0.013090420374747724,0.43724175184650416,-61.48020529067253,-183.907710103079,-192.52046115909502,-149.50012590073683,-16.756383701322687,-0.633948780020489,-0.22223542019937925,0.4624604897977611,0.04547631426480381,0.7402267454900888,-0.8686950383089203,0.7180149685837374,0.17828754821485782,0.6123995093584937,-0.09907246037678896,0.7356035627730804,-0.0048175998044983626,0.5633785421221449,-0.06211021807138639,-0.6985337331856372,-0.8206080766665587,0.5480081070631777,-0.948804614119219,-0.9866277930085634,0.8508774277995643,0.7622107625780952,0.5665037042171874,-24.898636593721502,-194.50274535353418,-194.9980608678692,-195.06819784634848,-122.17547927854962,-0.4000690599159147,0.7407204782920076,-0.9028833778199274,-0.49259850388976356,-0.3669957882032171,0.44529998423537687,0.3551335098761146,0.4435701709686437,-0.07104521297999122,0.9937303236153516,0.580661198361466,0.6481539007200525,-0.7626133971250635,-0.377605734149292,-0.9780028549323025,-0.6431685568863812,-0.4275550601885323,-0.7414159870937502,-0.754813756956598,-0.8007913749319346,-0.8592613802111815,-0.07514083106486913,0.22977126282608706,-115.83079220238548,-193.92548607788197,-192.35945264750063,-193.3674474095168,-29.930234052127133,0.5128145490880305,0.1426022092592545,0.4264202891933371,-0.4500666739655428,0.13356142133113447,-0.7327651185738537,0.47242438976876766,0.2579241824976517,0.9707502979181017,-0.5586448407429112,-0.4782507721733864,0.5540619919765706,-0.835827446196465,0.8466906787867501,-0.013457554065741784,0.8486924467502528,0.9148628589321495,0.5441493836578324,-0.19296985280069867,0.7293595645711941,0.1060482821727684,0.4475889802110029,-36.304098766425945,-169.98511769682773,-192.85233608007184,-192.34384545190585,-132.00468246265396,0.8132287312966349,-0.9879582230294539,-0.4830245152838888,0.1443087771065723,0.22788083611073495,-0.5059391692969026,-0.6428866696430269,0.9995846852353278,-0.7971660149274684,0.15781131465359155,-0.6492943721656406,-0.47089272347080025,-0.530570129562066,-0.7033884581190941,0.9061309035828613,0.6352538975719546,0.2884243568130336,-0.7062047339745015,0.3971981449186699,-0.10243373784262788,-0.3211961077244814,-0.716154867609651,-0.9307088287886784,-180.31391930666985,-192.70200128161144,-194.14872013330543,-150.9825769679775,-8.743211498268625,0.183062994214791,0.5703718428799043,0.9625569852576277,-0.6841681139337414,-0.21677333192449355,0.7067879879228269,0.8359549028134456,-0.8194309319672983,-0.19582145220167035,-0.7208297363250784,0.13807341220224179,-0.0637930292152189,0.07175938714516872,-0.7402465685981181,-0.5897982298268685,0.08295113930711784,0.9640722393987864,0.307045081455088,0.620517722809165,-0.840688697822529,0.069256009655557,-0.7108772930311944,0.9932836931620008,-194.11796377650208,-192.54098275336597,-192.6403645653193,-68.84867996690963,0.2408980307212274,-0.988408349560796,0.18346338979536259,-0.964301524944561,0.902941200760188,-0.0236984970616978,-0.2429836327363526,-0.6197633740659036,0.21456909268215707,0.6351948577745383,0.3940477372054576,0.8628737524282346,0.7972716147633827,-0.6737209129049686,0.7345977937646484,-0.13549767264327506,0.42595525984693805,0.8734609044612505,0.13474315560573635,-0.7639948317014424,-0.7022077308123742,0.9297472266359859,-0.8235655403001596,-122.24542113211419,-196.3537486140501,-195.1430045393369,-194.58031961162646,-24.73104072180431,-0.9083873728041831,0.49132502047590787,0.8714837370244999,-0.37390634033601233,0.4243916689926892,0.31124297089543207,-0.1998045739038239,-0.7418603492612605,-0.10571422790288487,-0.016278182635034888,0.16345435634456784,0.6106575625089379,-0.13856483589938184,0.21374405404148855,-0.4590016468498974,-0.3550585240986033,0.9069217705648633,-0.8025763580559777,-0.10385302953423303,0.40158665893127754,0.46533867608543344,0.7743489555232683,-36.16967386713198,-175.92953129241783,-195.3163874583952,-190.51962831900292,-106.85168161574879,-6.46543643053389,0.3564029861179012,0.04293851357102829,-0.1154241152301283,-0.28707559454026876,-0.325398598353019,-0.7172332588444648,0.5934095274979811,0.10859431040800094,0.4898690072686127,-0.3176067506070741,0.018927202576747737,-0.9524305357720813,-0.9201371431672443,0.29058767938213825,0.031000151833382228,0.9844756277234985,0.17648736243365315,0.8709570467769274,0.9071474687073886,-0.5276550191264178,0.33492524083763375,0.28485411450121867,-48.978094786434724,-192.753351731371,-195.03238405516652,-169.8602282813353,-0.42606022538846866,-0.14339801269950647,-0.47931380902560883,0.35218022370740654,0.2172166242419027,0.8449420843001887,-0.20662273211650706,0.4813492434795168,0.7249279633982784,0.8047926978590634,0.5430151056537067,-0.9799762983065297,-0.7210244295438397,0.8983799847748544,0.6292088284126987,0.5955891227620844,-0.18194025127876978,-0.34229188173432323,-0.7701499829784049,0.17718409363341014,-0.9518132065390226,0.8756969403182617,-0.9458613023683375,-0.18604637557039094,-49.775133244857535,-193.74868679414635,-194.37736481522074,-169.60265879945536,-0.8688736042750198,-0.012839526052577765,0.6575835991538117,-0.961360126810441,-0.5372028568230129,-0.5619655150846747,-0.039558700542166036,-0.5259775384153778,-0.8109262344672172,-0.4311647022472045,-0.7323347807419276,-0.8509197111816407,-0.5715619967733581,0.13912826213947072,-0.4917108712693048,0.9146906693659904,-0.37316894180790006,-0.8674600633410421,0.7850475916735729,-0.19778209056262885,0.9156854820951907,0.22193962235000764,0.3239894082530359,-0.34917338815941834,-19.45623177933099,-149.0148329652221,-193.90027034034534,-169.47120444039493,-0.8867044862321933,-0.30293129453664425,-0.01743394189178682,-0.31700394140058985,-0.27708597352819586,0.8782521534414853,-0.21400528823812803,-0.635301074791992,0.18288339403959375,-0.9182969979700373,0.7305686156414113,0.823904493445941,-0.3485350055434753,0.9436994704510115,0.3654413619975263,0.6655161990273522,0.19005333884997255,0.7657990209940548,-0.169382405888288,-0.3978214925222441,0.2733556962239012,-0.33586197056523703,-0.5224779888309647,0.5286700827211472,0.9360823246658168,0.571404002912085,-0.6101539721987701,-0.7311068275690151,-0.028272281291237267,0.23154343361471552,-0.8528033147317513,-0.08193705278857455,-0.671720455736897,-0.8384148070480797,0.020490991316861384,-0.8544138958341063,-0.4425349920599131,-0.7872080137344393,-0.22658459172498913,-0.733599689304685,-0.35474884123956096,0.9410613170109143,-0.48802383232990976,0.8894707463769469,0.9250731900675571,-0.2664320351725946,0.2913572679948244,0.22139859456136746,0.5663108368929475,0.4245750827292172,-0.4277865755667247,0.8101183058734698,-0.03217582252941753,0.043019521603109956,0.04432711886043106,0.27428530431668796,-0.9967104440091801,0.08122858390789811,0.05915511017482,-0.5132001103455182,0.2220766062650108,0.2415056877137045,0.6219589496096454,-0.6227547298875635,-0.06095694369321447,0.28579897370856555,0.3477089970029097,0.17263222750620133,-0.004869267400605448,0.5876124532517091,0.35742079623595324,-0.8838635869242741,0.2624913392390531,0.7061410386906224,-0.08661808254583514,-0.6995742989766289,-0.8583392190010959,-0.607813806005872,0.16068086790552893,0.9132592683491763,-0.5406411890470504,0.5146850528795006,-0.1814828627718177,0.5941406689955191,0.3888861077334993,0.15127586758546618,-0.6490042657852346,0.4028737296375817,-0.4663480819468049,0.6976054350471597,0.920888252967248,-0.5843086105868744,0.9751161156739747,0.5401586252858983,-0.4357596489466493,0.2573033279802648,0.08804949237486714,0.2153235756325973,-0.5641491785986097,-0.4896134122496256],[0.6179617006482292,-0.6733422159702933,-0.24250623299156837,0.6034517321054873,-0.5186668819392295,0.19446414331104078,-0.6362366026993169,-0.8728207397522743,-0.2451512362072792,0.4465452288729972,0.8326013929959535,-0.48267250097360215,0.49647908168961186,-0.5799532677152319,0.9925520479940286,0.34412930562784916,-0.6753501809366178,0.20971038277284482,-0.0959372500812039,-0.238137614740628,0.5398821644462788,-0.7435874883437641,0.002503939276770728,-0.30549261937389227,0.23401664691419932,0.8374927423475464,-0.03157038075446672,-0.6127807215863443,0.202316599931452,-0.8817309452919162,0.695277629200256,-0.4659834619843406,-0.8274730693877992,-0.8534067990338594,0.7887498660429142,0.6171598227615354,0.2506226803989102,0.9574121807287237,0.7012781397721697,-0.17532974833304382,-0.5733359201869885,-0.7576853076564414,-0.9940134349565632,-0.6033691276934903,-0.5177730787619079,-0.6585390374398532,-0.34935338998330656,0.9752791708779043,0.7078463860457365,0.5252157183043604,-0.7532201692317764,-0.1742459028053167,0.9571556848793372,-0.15738291408644023,0.015525665743416406,0.681087148392231,-0.4173008931198168,-0.5985367487981057,0.992020071623068,-0.7387385695320674,-0.024715753887054603,-0.8242353167198806,-0.37092880806042583,-0.2479379654318148,0.023787547703113976,0.06765196897978787,-0.30440027946830517,0.030169372336831923,-0.1732598455038381,0.3551711795058967,0.014445871872090121,0.8586059811259774,-0.9897103905493738,-0.5961331470948612,0.3396720695844804,-0.3416631360505582,-0.9437917012160986,0.9768666338244136,-0.17278602727535453,-0.21479896104475782,-0.6894917835844778,-0.9719770406793948,0.19324085728940066,0.5123356007840063,-0.6627603733694853,-0.3414049941462012,0.8083260642377526,-0.12458461387907316,-0.8202588630788488,0.5011922841652097,0.8317748366634057,0.37246716358849774,0.5733164514556022,0.4887069587768331,-0.6093609113037595,0.7207416264705158,0.2816236091324158,-0.9971785713797072,0.1367266170741337,-0.5730043766176012,0.792642555172435,0.1641513924954694,-0.8459417508188283,-0.45415170064555155,0.08192628440675387,0.60417395698415,0.3248646628299803,-0.37576427208993546,0.6647312021116816,0.7107494253597411,0.7031581216781246,-0.17658661232176232,0.01429175280917705,-0.9836729568331553,-0.5440718193356664,-0.8655375121731956,-0.3062308144287258,0.4461074121586721,-0.006001702429948352,0.03795418033628972,0.029050292472007966,-0.36646431750819763,-0.030107186498935068,0.09329219236436237,0.21799299797677651,0.3813188846721509,-0.0557497137324221,0.06298666793503749,-0.35388433319064583,-0.6160574848003233,0.8003063944820086,0.03382113599337511,-0.4003437958205738,-0.7528801950530748,-0.5842063508456541,-0.4857089986583847,-0.80309685609174,-0.10337307759780434,-0.33268814332282126,-0.5458031559245793,-0.32752325484911937,0.46780486175027725,0.21833822690243299,0.8982432381818348,0.9203089903464357,-0.7799598292307497,0.6882218932339121,0.43925148395489577,-0.3014858037904782,-0.5264145936991238,0.4996530191161981,-0.8930300208864683,0.16369646909454894,-1.319308820760256,-0.9475190207742501,-2.337214130708135,-13.939130274854154,-14.441470398682247,-18.76948440519421,-2.796558979692878,-18.420244586665536,-27.374990358570706,-26.210715624186232,-14.170745718597612,-0.8192888334723238,0.6417380226449192,-0.6460775607909173,0.7517008036209971,-0.10396048013406167,0.29446237627406924,-0.7785867265578679,-0.14017617521329973,0.9163183096977014,-0.15140099169286558,0.6744038165061434,0.8392525087576055,-4.155185006229216,-4.597741900304178,-9.923572878067244,-17.084226521405306,-17.40918039430869,-26.19059256427334,-27.111415199330118,-27.044082027949454,-26.323845269454605,-26.91600199632828,-24.138082985370083,-18.754268892623273,-28.101772577939336,-26.61052191829929,-21.145200066197575,-6.34985030694199,-0.38021928872092015,-0.006828510176466462,0.680151376859506,0.6620767734562958,-0.8214030980382585,-0.9745035418505072,0.9201624607537331,-0.669703497930277,-0.6123943973244927,0.06615327040744079,-0.39953799373429977,-4.786124535670843,-26.454831539415572,-26.50432467335873,-26.233384556033318,-27.773261559474005,-26.557823816539482,-27.55559646322296,-26.223347336905793,-26.995082905562267,-26.957522936921315,-27.251321355024853,-10.155116543258277,-8.499436748673576,-8.10733231946992,-5.9755933873205,-4.022029691004416,-0.36638645516908475,0.9320226786570953,0.6988916955844198,0.47302003386220903,0.9113801652559528,0.9529109720073272,-0.9754679675201678,0.7880678317987231,-0.3829258606216297,0.20688783343862616,-0.23797260574480794,0.2908429563820363,-2.629644670698152,-22.78790592207434,-27.21987322406759,-26.732050456486483,-27.15545710102321,-28.013844667564282,-27.31901135560291,-20.974960174161357,-18.60701525652231,-26.974169460586147,-25.730958650816056,-0.5774743298734404,-0.2445333450909135,-0.6323663680377862,0.21678851224305706,0.29231429785044316,0.7611574058928099,0.27730961597803616,0.3064536046097859,-0.704548293468825,-0.1809541785747617,-0.17307205151919502,-0.6226590799135203,0.7927512835617532,-0.730905375102765,0.5980246677475425,-0.7056485317649306,0.024849434338988452,0.9654504638968284,-8.032976225164235,-16.02945492328103,-11.25226374260819,-26.90881930508142,-26.3305556413038,-22.824099279755238,-1.0225139586703242,-0.36723618358538057,-4.750241029548589,-17.275186278390905,0.3632895046311617,0.5436440799821938,0.93730191891889,-0.21265663662646483,-0.5434500132035496,-0.6506962344219347,-0.29280187648389333,0.12391302832229445,0.019595897690438013,0.9468472690418279,0.5377425148236514,-0.08317846613037938,0.2764403200552248,-0.8078961322345841,0.052031282887174735,0.7109064198208757,0.5208757891985027,-0.9531943753045646,-0.5749053331582801,-1.8679961778766738,0.2532947639882112,-16.642003369192018,-27.944444761974598,-8.766624404247052,0.31881374153785025,-0.059371249413300076,0.24384995719364144,-0.24479368350493091,0.3576929416374286,-0.4692935865259349,-0.6640922691932225,-0.4165754331170337,-0.13022820210538066,0.07261874012429193,0.6749069890817492,0.536233210467076,-0.8494524606655875,0.7073102745048638,0.417586576199793,-0.6792641548420786,0.8382408276611344,-0.23808696212738356,-0.3064305571864232,-0.48227661950354217,0.4935618118028333,0.41541922513915885,-0.9799334466998824,-0.973513403379362,0.6227234537998889,-15.539793308610578,-26.7946132750948,-21.413669122895726,-1.0590560234579278,0.8567318952064571,0.5579943585052596,0.9866650360926521,0.7654640414241443,0.142862206781027,-0.1927988015657638,0.9851613733901752,-0.874342477730363,-0.9136371494756121,-0.7555104410929856,0.9102983058870826,-0.622813349624731,-0.5495834129395898,0.10519598873583869,-0.34500795718611266,-0.9675214471015015,-0.13326585947739478,-0.40020642097994163,0.7684262900776444,-0.37646080307031804,0.2758310955361145,0.0130891905828594,-0.356865027918154,-0.25990300610090755,-1.6963599299387775,-19.78975160323243,-26.517323693008695,-6.57564992584264,-0.9925582131098363,0.2962697154530183,-0.9530542677261806,0.7882146864316375,-0.5850342092623233,-0.09925488693406104,-0.5617135739572761,-0.795903944122998,0.22040842643390524,-0.7814380911166843,0.6298491388039344,-0.9248011200564117,-0.41060638403453065,-0.5256795956766958,-0.6943243043670142,-0.4829388060916302,0.7842848234363391,0.19758531545343727,-0.6317638269399464,-0.06029721097465002,0.3247477544105586,-0.46385949049529884,-0.16998822591491103,0.34477331171339554,0.43402143942705473,-3.8896060149291767,-26.75504837687118,-24.663527861829685,-16.660625727398813,-10.795967457950276,-0.15521856585030164,-0.3969199238707599,-0.773831157427394,0.48885728136433637,-0.020831663853915883,0.31867827114724534,-0.3896571345412423,0.4789949804300899,-0.5558307757717249,0.5395179240309989,-0.9434136715903465,0.36948934610138484,-0.3004684182675068,0.9291550015782,0.4787478487349155,-0.49928533547084464,-0.11081531527932098,-0.56767637017812,0.4123540272964168,-0.9985253384696404,-0.5846484928480216,0.3040301528562115,-0.8175943823873995,0.32793930804789406,-7.829712120796392,-26.048887774080743,-27.54616132061633,-26.191618982484737,-13.606359249178704,-3.3825797245927,0.5813759100570988,0.263207332537136,0.5045195741963675,-0.0006027755094373255,-0.17187009813643805,0.6510921168447743,-0.7739429097093087,0.288744465147432,0.5554532892578514,-0.11161864857082882,0.3590514492930299,0.5380782201970848,0.34283054639889965,0.03156020949825944,-0.38731208886136126,0.9089730268078726,0.1314322707333888,-0.8925300338708444,-0.98513308255837,-0.1495389143581194,-0.6855937694454828,-0.6797186427140962,0.8174595007403866,-5.309006376298182,-19.028721152006558,-27.658031350008443,-26.198579444742972,-16.456106908971403,-3.700723206939104,0.9522847678825743,-0.29426693653786384,-0.46449608566773803,-0.9128929925030675,-0.5315906717468206,-0.7304796976515355,0.003861781599191705,-0.08823646449601452,-0.5602523603211718,-0.6788929174606417,0.48938837220426623,-0.7786156206614365,-0.016798899723009297,-0.2658455548891243,-0.020517878987628357,0.9340799620864588,0.33927364771251134,0.9908286016970989,0.04220362013887935,0.7999388304671418,0.9983755519770945,0.8629760216045801,0.6096713431210175,-2.2619281460622678,-10.670437401905742,-26.566567908753086,-27.10828388179979,-20.197518491394895,-0.12611563543715398,0.646257033419743,0.6027310321851216,0.08897564183103701,0.37863357557958066,0.47217857227210414,-0.7268930649894803,0.7689234612156668,-0.7708673199326501,0.16305398887728995,0.7287127234433695,-0.6367884147239107,-0.19496318164035098,-0.7715091333256392,0.9072644106663958,0.26222920306122455,0.25072673771011766,0.014145695610571885,0.29270199015068243,0.40976563303115454,0.32924050866681887,-0.23395011016864053,0.8919417932566349,-0.9662498251629412,-0.06664733048418792,-26.63838552936803,-26.519705490421067,-26.236210289986886,-6.841928711848361,-0.20071730945465394,0.13235154646225,0.6057862242076719,0.4921353785468663,0.4858011472915107,-0.5686825528816319,-0.5604059548671307,0.8357584485394665,-0.9296889843742748,-0.7398520977610148,-0.8046967625033816,0.5108105115818526,0.8724785296893454,0.027637712934116765,-0.7623119499157136,-0.5267117540091779,-0.9369884523884062,-0.6227508927217211,-0.35807832055120437,0.36171964784404165,0.4198614636617892,-4.728173012557923,-13.971845004815455,-19.65468406012929,-28.123629799702133,-27.390885641125177,-21.30092717830734,-1.1492804881534273,0.3173371716797857,-0.43040160890574564,0.011346353550884425,0.6829477233561283,-0.4628569433954357,-0.011951820676799008,0.29261509351633386,0.7538160381105055,-0.06646027018056033,0.4358968919417505,0.10374605586786823,0.6459680581809446,-0.32296443452854295,-0.30024229059242846,-0.4922434638280535,-0.8724915625176974,0.41246879139053605,0.7990470893927071,-0.602824537892173,-4.808654461812754,-16.647745279535677,-23.611900355691656,-27.855357712287045,-26.393550503143853,-26.794384265851726,-27.425576267043265,-20.179582120743827,-0.20982074314830323,-0.2017583372903835,-0.4766067181574931,-0.16695257367116279,0.15142225733713444,-0.609568774124563,-0.20844830575562234,0.6591098256945362,-0.5623416440069124,-0.5160796957418787,0.26235534774104785,-0.6877290691941782,0.8275884224527734,-0.6749447552134553,-0.9387606532164314,0.5483263333823536,0.8443684752045915,0.820611084908806,-2.7280200141492186,-11.572771627928597,-23.23806140867556,-28.05185826046834,-27.434118384877543,-28.185189368737188,-26.90670620880148,-21.01235675617538,-7.722889233535745,-0.19360426332530656,0.767073895558148,0.12970214308802896,-0.9567409904302815,0.2317118449993687,-0.7081396546938312,-0.3526141094225841,-0.29826808885238676,-0.3538471667089029,0.20739482743115412,0.7534018688347488,0.6058757507329351,0.8360163003744927,0.16214382245980086,-0.156155568191372,0.6778436670897015,-0.8163384935584923,-3.4061338247199124,-7.80987985775144,-23.05409217049532,-27.59466306429126,-26.79694247239683,-27.272495311112568,-26.360282278874205,-21.366054449565233,-8.574734814474077,-1.1223755382052476,0.3989112951263436,-0.8592841122329218,0.05706040145755864,-0.746467292549331,-0.7120500739758069,-0.7027479194158213,-0.869326834474315,0.14026472891799702,-0.46639057761931624,-0.09963863210184831,-0.07308492763596663,0.6503629923572416,0.570987021821773,-0.728434061182305,0.9583893434055637,-0.18010105018900835,-2.026254449834914,-18.925401413714287,-23.813246752617047,-27.586777355512062,-26.513087476007314,-27.69586485025266,-28.156964316770438,-20.51573483722032,-8.616758870244126,-0.6352987484575657,-0.4346832114268928,-0.37730897172583844,0.6219458918825307,0.387492353032834,0.7332453855538066,0.35775804677843515,-0.3566229052252343,-0.055365224179523276,-0.02544230211512244,-0.4307561058788165,-0.2815132682477979,-0.7310973071896865,-0.5042607996803734,-0.16205001998848134,0.11912175020717086,-0.4222816156495557,-6.0612051459669525,-18.898126963445698,-25.182939537005232,-26.46807000893967,-27.727021856770666,-27.552982502338452,-26.778178554719503,-25.842299112904563,-13.995249494329666,-0.9661792233053603,-0.5282317230212703,-0.3437039521920304,-0.5962198538221399,0.5008581203502991,-0.03689585744014923,0.17510832874002635,0.3981235727487846,0.2654036363931094,-0.4764520455402308,-0.9868500556200279,0.003741841321496242,0.8020731361312563,-0.9233662019867377,0.2516509556984541,-0.4197508925751543,-0.3454292431206514,0.16863134006283564,-0.42685011551385355,-15.437664613480493,-26.941635893105836,-27.49685732713914,-27.170693138450282,-22.227254002097283,-14.851557803732849,-13.874063942317486,-2.4133770876586538,-0.49526840418995066,0.22341754120766155,-0.8159251658653768,0.9764708319810909,-0.4502166607509277,-0.6187168593099708,0.6740921601749499,-0.46447642176970416,-0.3889083273187337,-0.021746207586288646,0.3967915858499578,0.3512487239780371,0.6947103658118656,0.1658025947898194,-0.6949085744700914,0.7758642769691304,0.4021321741439414,0.5924065870862929,0.6855244198825394,-0.2595861744521353,0.9807631086318735,-0.9527448297855974,-0.36800465864984355,-0.8963370950755074,0.355484380233124,-0.7460347749947578,0.08146830986829645,0.7086182580119957,-0.12794918107003728,-0.9928182597802999,0.09452303441816667,0.25456713918327845,0.6040336757969216,0.8395462403590062,0.20347073666533588,-0.4975570669021663,0.018881161760362364,-0.2451766425174322,-0.9874314621978679,-0.35904012658029427,-0.22944735963763474,0.027598487706717467,-0.9923892666863674,-0.7402149828855749,0.43833085855599774,-0.11981042922018581,-0.6871935908281677,-0.7817209007778883,-0.26619692927291805,-0.13669104405860333,0.8607215341093937,-0.13836397604767448,-0.6089759546651243,-0.47450444463336083,-0.38980314418459705,-0.9750945297149827,-0.7475012252489714,-0.18356971184969373,-0.06926177372998765,0.6788148328452526,-0.7098055325961767,-0.8652027403868197,0.3608032162709489,-0.7737378914904491,-0.22216813197935914,0.9922591942963401,-0.6115692723815884,0.31749235131004605,-0.9506627203534923,-0.26952927531360227,0.7077149559949716,-0.5560143025920061,0.993168319398563,0.8675791966200419,0.4924109539748631,0.03758943154255556,0.3158780152268488,0.2966693387625903,0.059051561973916256,-0.685699201466264,0.028114378526029826,-0.800411824322643,0.323343666716541,0.018014014518060062,-0.7811261493236716,0.7496114530223172,0.8847826176178759,0.9380238309089233,0.6497331940540163,0.25882892995464113,0.3800255886651238,0.9725336387608201,-0.34285371654976937,0.37248822467924203,0.6045726907034727,0.42188635849939726,-0.8134538764174599,0.22142796369844997,-0.861926465950696,0.7080316798604303],[-0.3596729210587204,0.8821173897852728,0.41564929919036575,0.7095096668832415,-0.20858247304987865,-0.4265994014072554,0.7251931733038128,0.6008508645544486,0.28208010129623795,0.28828891763361986,0.08477546188329832,-0.015572152993254207,0.7996041911099951,0.332438093947097,0.27275044194029285,0.7853966768920173,-0.18782359888411593,-0.5204408307176698,0.8222231728676446,0.25667314168527966,0.48574418886716186,0.6329884664633258,0.2009470785813292,-0.864967427417217,-0.9561238910588836,-0.8203110871806836,-0.8215017970131224,-0.4738472325613383,0.46626097758175367,-0.0459157250824378,0.7784253603910185,0.5046135752430003,-0.8609653410788751,-0.5484376345189785,0.2611192614575446,0.5346773506327709,-0.029445376792248457,-0.02405108417022772,0.721335351294015,0.6305873676731617,0.8666681565059247,0.7072660605209884,-0.6995026104906463,-0.8761460030090145,-0.6876937476026672,-0.03208638681251208,-0.6491404723217866,-0.3290211467301696,-0.027825369565550817,-0.7436164013608129,-0.5611869899684245,0.2926590455407787,0.4548839856630853,-0.6829821691926681,-0.19863896985709673,-0.4887636780394997,0.04462589981294207,0.1785571759162916,-0.040838170341934044,0.8643790374529077,0.8491113500461065,0.5215213301649544,0.03597678467072396,0.48641155169749695,-0.46824330250670143,-0.2030968920653169,0.770733635909681,-0.19283818867933644,-0.7850441400933159,0.27621823698570425,0.023210351855938116,0.11048216318514537,0.5708469061042576,0.3186655222557919,-0.7182812436279524,-0.09107906714244351,0.8824614111513882,-0.4507482226038311,-0.09420534035526451,0.3736673691242238,-0.31669851023662665,0.20605355046156926,-0.030229580048603655,-0.638318697280229,-0.14355856092672004,0.563571195173072,0.5030808560924518,0.2374230784190614,-0.7342012465312917,-0.8989963273295289,-0.09095557161363321,-0.7382797209069172,0.29734374447033374,0.39300286157134967,0.28506987176846255,0.604173474913732,0.5931750063158403,0.1156641841835282,0.18621398306543258,0.7685065176607497,-0.3069059869716375,-0.7080771371275638,-0.13659027790324685,0.1618434726260145,-0.855189183734596,0.6479519625178516,-0.8733747293953038,0.8527858629573397,0.37078053729183336,-0.38119374250605675,0.6906336751647939,-0.8483658939414613,-0.5675802671739318,-0.91472460209907,-0.12766679768926759,-0.31004064563650724,0.01127655267312977,0.792317912204066,-0.036363283002331936,0.48510582316951956,0.30726527249009683,-0.06758775089040148,-0.22693412806130686,0.007470175179142391,-0.6197677949709657,0.7211241978529996,-0.8440346531050626,0.28143648661220033,-0.5591329760079577,0.38430654370153317,-0.6931940198546549,0.370433697491964,-0.039193834591024546,-0.9434570748466176,-0.5079204098687693,0.03486287524653431,0.042674459499012496,0.875769176841708,0.04520352361984181,-0.8187223630773952,-0.06646325530843611,-0.48860542620411196,-0.9531352046281898,0.8266204954907137,-0.7970784943456379,0.9573275010838713,-0.9654314775106341,0.30411021789937465,-0.24908149792614487,0.14769933255676304,-0.31355672585645245,0.1917609348799063,0.35358044587989546,0.553132022745839,0.7518915700070661,-0.15527062418012538,0.22527350143147862,0.878936266405538,-411.5597305959092,-838.9145001002635,-845.1983223898123,-208.79089522314902,-0.7174890835544961,0.04116458273868373,-0.8963434016897089,0.33055452513459516,0.30795628015934096,0.18099867534650538,-0.7517974310071462,0.1849423733427873,0.20115478383486907,0.6802906687946355,0.576384916752614,-0.035897290331378666,-0.9104169365289732,0.9695696456046774,-0.07991477851460727,-0.3768002775052328,-0.8781192293463709,0.9023437241647108,0.9287095261673033,0.729834629498797,-0.01776307175187619,-0.02551847598973689,-0.3501332165426807,-318.96645999641885,-809.8305399522083,-832.592069641066,-838.727738345375,-205.9142556552616,1.0055870850399151,0.7093373134507712,0.5739643849321618,0.8511170039675355,0.2594296421709954,0.5201870077749697,-0.4106917959263754,-0.43440072011725217,-0.4628933131212405,0.5100424166515738,-0.4303468834161609,-0.7494348331126538,-0.15296550421557908,-0.470670186537391,-0.6542198826260179,-0.12078538283234597,-0.03292886471852374,-0.8199705047204155,0.5150419889292819,-0.96693385528941,0.22658637533135906,-0.7484617344328148,-0.9778351361491222,-421.9625820866233,-832.1920299148203,-832.3865611122059,-838.8678209530625,-205.6493063930554,0.9669558510847884,-0.36792434026602794,0.23084342037300365,-0.3789990183331424,0.999934493735531,0.4748335746375856,-0.98704084022387,-0.7560920435507936,-0.050365174465689,0.29315476595984524,-0.3654007686487827,0.8868640572426457,0.10557336289363328,0.9501488815823815,-0.4576589600458887,-0.36504202694989885,-0.2846684897391951,0.9771893315826945,0.6272903350547536,-0.720470349307361,0.8492889285461136,-0.2767284581410201,-226.2350193535932,-782.2118782540292,-832.4151905737598,-699.439050416961,-103.3855904798637,-26.314228322189113,0.7509876369566035,0.40625990508758725,0.8481168866925954,-0.6209563196378811,0.7773678104371897,-0.315986844084841,0.5844522484559871,0.7666451594836057,-0.9248634596015892,-0.8851558915157156,0.9885712197262613,0.5271404016388187,-0.44658552847709365,-0.5572717847360813,-0.044174847412050466,0.30035632838245996,-0.15127533163258078,-0.6598884705432635,-0.38862048508336366,-0.3789839002480404,0.7119951904180359,-198.999519693857,-757.0071607559158,-832.897026567755,-833.0319439326336,-312.633185736675,-0.36080480785074265,-0.781638092221457,0.9781754266782183,0.663797655779993,-0.07482292864394169,0.31340406775589336,-0.7908133480979389,-0.08768205702047238,-0.8688489956831034,-0.27113258357342196,-0.0017260490725783395,-0.1022414776580699,-0.779295481391865,0.6965855268126963,0.16715798087864586,-0.7721268061853208,0.9384715125043732,0.7610188523682277,-0.3371875848435866,-0.9265020526446595,-0.8209375866864739,-0.2534732769558976,0.05079290867196651,-515.0004181960736,-838.8126579313162,-838.5505795468061,-627.1892961195484,0.9303263488363888,-0.2878267749233805,-0.1801151925251866,0.26425417152581576,0.8500808711149885,-0.9662870356235842,0.0016234851681804496,-0.6796842388597419,-0.5869752280684593,-0.49405452053277643,0.523545769651113,-0.7618008363372113,0.28526013055912386,1.039464459975284,0.3874012609579155,-0.9325966958828189,0.24869466431658038,0.6931070357978397,0.8859616890746242,0.1370875155212632,-0.7685738239246542,-0.2969188366973019,-0.504827075669771,-66.82070973513791,-840.1972051283874,-832.1981465608909,-780.3514462373464,-218.46363606839995,0.783053176591392,1.025179271693143,-0.8854349155713682,-0.008426932416191413,0.47635601658478577,0.08579953553306896,0.3824241170773899,-0.3078482432333485,0.8717593911622947,0.24940390375398014,0.10832139546043296,0.5634570771062775,0.46605113090297445,0.20514891595759144,-0.6516164542571481,-0.6725779912842955,-0.7336476113646773,-0.831571661304096,-0.9552106856700489,0.1084454336805174,0.025409333244692522,-0.24783948924241272,-105.49327487111675,-679.2332981335494,-838.9302021018156,-832.6471234373901,-417.4740663991111,0.8961567473608408,0.9044389017232837,-0.2689011307120504,0.11447529529802335,0.14064878837918515,-0.008333959159993354,-0.0736952019798407,-0.9071910312937801,-0.7512084145746047,0.7811735872483554,0.4399895003802927,0.19061679609867022,0.9918919783649434,-0.2481743291389005,0.010224497918090998,-0.9690229662579757,0.9705143897890371,-0.3107029626950679,-0.27395480202724665,0.403687979819215,0.5899458891582272,-0.7014747705784128,-0.9774931387136494,-345.8568651246779,-832.208340365939,-839.9875343955332,-609.5710022758714,-49.958872033980214,-0.7067386187368604,-0.7852603381803696,-0.44640849698852414,0.2917411446641698,-0.10404925350740757,0.8987434741785547,-0.1528450391293672,0.0018486149476342195,0.5643535230713004,-0.41991232953316815,-0.43886712664104754,0.45112397985711095,0.08082779866039025,-0.4749797899311947,-0.5726149447159796,0.6211213801950761,-0.531010089086178,-0.8423675525269625,0.14424467627021675,-0.8357310261989657,0.20261596342715976,-0.7093279436313674,-265.75146714154187,-795.9709239043203,-832.1319399269308,-640.8025873388552,-76.45206037106112,-0.19767777420594615,0.5157630194996801,-0.24566282248698118,-0.3930999961728061,0.6439524466317608,-0.8121977835355694,-0.30423213975717656,-0.07310092266979873,-0.8963265308858777,-0.9132298091076869,0.16483110396300615,0.6659009288909161,0.9050025352390239,0.4330730341826565,-0.2175516380152484,0.5373849826237177,-0.439549650218457,0.985754810644849,-0.4021037284958166,-0.06718567760245617,0.5256964892212878,-0.22330927780896892,-106.90556783905761,-838.9166028663366,-840.206779403748,-838.571986184617,-528.338225243864,0.6947522663392951,-0.2988185639089802,-0.759745537150421,-0.19605739123701263,-0.5392908898695055,0.24204352414589536,-0.6737899192667391,0.3696686660791362,0.5024157175527151,0.7555714350973595,-0.24848109569866605,-0.8890599413800249,0.6599298361120145,0.46926239683437654,0.4128192979511873,0.9696540886611731,-0.33791732891777887,0.04939309104683167,0.13815041563565325,0.44427155881347,0.5526983099071114,0.9389284146103329,0.8299009637710272,-500.70075860041004,-832.9936517739998,-832.0815401158364,-831.8422251181283,-128.58019608849492,0.1909413299361835,0.037182189899980456,0.6233568022260516,0.41095696354653033,-0.6135296435456592,0.15143301560754696,0.6315352359718758,0.5352107229301624,-0.6143517136227479,-0.2324570111585802,-0.9696694608575904,0.5778660120515751,-0.7563402484950501,0.23158039502902583,-0.21362532924646183,0.7465400131245794,0.27101341226885944,-0.5698495735755791,0.0759360350085787,0.35802782865072835,-0.02443868638148894,-0.29988966621892676,-158.4192963849797,-733.0794814669695,-833.4202523333068,-832.4937737916688,-570.678222777345,-0.5109316549363552,0.3503523476807575,0.634006334565943,-0.42132678893407993,0.8751921792985451,-0.16233863266314685,0.5733951864888971,0.05118495478659768,-0.5820469294698174,0.3439766189126201,0.1483395988433447,0.09118658035856586,-0.2530300001730623,-0.19910069918760676,0.29161796572251864,0.8107798196560214,-0.4402452428558292,0.1748572846535128,-0.36934309174278024,0.3450635254056451,-0.6132417715587444,0.5049926892885723,-0.18655609957043384,-776.1457600977972,-832.3095005675547,-832.3326809483436,-651.0789129256424,-38.97720286095757,-0.519598041050334,-0.36193275713226236,-0.8459886365305689,0.7541240013331092,-0.724314820789701,-0.2358331028750429,-0.8657285375769848,0.2892389599915588,0.7619443164998418,-0.891911125323898,0.7844516860642416,0.38089263723513267,0.09077440255729008,-0.9706243772743068,0.8446805369737316,-0.2993646882601442,-0.6919426361719345,-0.8516569351541472,-0.09544104186891733,0.08937692190983726,0.22121268970513674,-0.6550229462817854,-0.9675008519687995,-839.0828247472418,-833.3264595985092,-832.4295316241345,-294.9627982150578,-0.42555162737692886,-0.19326609548165363,-0.8802445674388397,-0.09119712528021687,0.5898430713354634,-0.7734511900091074,-0.016664980359109238,-0.918263544900277,0.8959077120138144,-0.9053124556167054,-0.34010102025207267,-0.932894701146324,0.13951935563249696,-0.05455883912036885,0.46139299721872895,0.5555163350028003,-0.8086091164640581,0.8914923903606295,0.10019219851648331,-0.09198918929533462,-0.9979077646992194,0.1348570858938145,0.6096675334437576,-527.0194823169883,-845.140460744089,-838.9343633649734,-839.5698616390204,-103.59879328653734,-0.4323721651876251,0.8502284716247168,0.8012171252626685,0.287777539061596,0.1954875850564778,0.40145221841612616,0.3005146181694336,-0.4434211933664205,0.9734458660106853,0.43430917494176224,0.27138737131642654,0.9369097906568971,0.3120019242329952,0.15960410326587615,-0.512671567626436,0.9860227652261573,-0.911151258381087,0.48692841327792213,0.31697361065430196,0.6224247753055174,-0.9380170998245045,0.43367393597867876,-159.37676399442762,-757.4480665567138,-839.3194208488841,-819.0486536673784,-464.74552631051165,-26.22013712190201,-0.18862981762633502,0.07927231829715908,-0.7178584527730005,-0.2970119135666831,-0.10687376228568524,-0.03325205611880887,-0.09598292991678936,0.9550620083703705,-0.9947873234037821,0.3445320369510336,-0.49211581141678473,-0.12345724702221683,-0.174438183026973,0.8704691373530031,-0.011934596513258233,0.9530752368839552,-0.27478029733660736,-0.8951969625745615,-0.09808431774830728,-0.7834205575145796,0.7321390239132823,0.06879428746576544,-212.74287045131607,-832.5802534617136,-839.9553517773583,-730.8241372385032,-0.279387722693744,-0.6815196359081883,-0.09407061579813769,-0.8575217059359397,-0.1831539832435789,0.4622488542665255,0.8556338893896784,-0.9617259184126635,-0.7376276150091501,-0.11769478555757407,-0.7441311615858797,-0.22529244824064376,-0.2601379051748076,-0.6381733657873421,-0.5015240435429866,0.4879878223675127,-0.11570202381744932,0.5886053048436013,-0.8727417860945046,-0.20939061824371352,0.5978003384943393,-0.2595800386251079,-0.9228120468841536,-0.5589537173309092,-213.2467359758389,-833.7006185390362,-839.1737088326289,-730.0259754478757,0.8403612890514005,0.18430187283136812,0.6521524113111816,-0.9856583268124341,0.19570182938402692,-0.22548704803190492,-0.20901067138062424,0.5954234297070947,-0.09845355770057074,-0.07929286639342359,-0.6446721721382092,-0.3271111618627891,-0.43890608571925593,-0.8494766451357907,-0.22652974989524477,-0.5445024985439648,0.030843655100356804,0.22135488959990113,-0.09083669528732008,-0.615817843883822,0.6141110838766126,0.38858869645135874,-0.8737676401338728,-0.6831549336308231,-79.37832238090401,-639.6205836481489,-839.413671511755,-729.0308242677887,-0.6796267165663612,-0.11258638228991158,-0.3106361861187019,0.9869677423290348,-0.4933749403729877,-0.3520237536064009,0.7409077399782982,-0.6205720168326491,0.8212840696359243,-0.15871584323676302,0.4695455255294987,-0.8179733372964169,-0.37323579617037916,-0.3594491606457755,0.36554222041085205,0.18720624377988204,-0.3776739292379283,-0.7494977948884092,0.3569095381851324,0.6654418720122932,0.7798584958279811,0.5263401854240317,-0.9707218240426747,-0.6454637260954055,-0.41369062374163,-0.46979162836671917,-0.5939111917238842,0.9058552319144417,-0.31539410815172086,-0.3334830027837241,0.9063315374455978,-0.3857686114022221,-0.6735152184462148,-0.8441080495205773,0.7667310977516448,-0.5146490103852379,-0.38649037470954184,0.7504021898743118,-0.17855050445715315,-0.4486392097157026,-0.9781383792870686,0.2247864622309712,0.5349518299915514,-0.8483957986244868,-0.9622734473474186,0.7681057861777767,-0.09051391297591693,0.08971303236455985,0.9954484042278249,-0.6559672071138785,0.43172574214046744,-0.4695849213796346,-0.016863625752199907,-0.358552293654099,0.23925716241814277,-0.28510427924608384,-0.17159610175504802,-0.2467537859869242,0.11623995377683172,0.8869697614284688,-0.897704520756283,0.8767740121345651,-0.7527791238755732,-0.9889863359307967,-0.5184084424917053,-0.950636642317183,0.04496638229557326,-0.7050714646448517,0.29989717816656425,0.5724133433253795,0.5516822775538166,-0.20917232544112463,0.6323744931763369,-0.4220642797951817,-0.28424863446537096,0.13051674797958412,0.7691402159904914,0.9772516620760918,0.7714571640918475,0.1305039116725808,0.4802116457016863,-0.35609886317716777,-0.5016911771291024,0.3031586390233587,0.5991625676765187,-0.5231831783119911,-0.47492059888996097,0.698274575869956,-0.27041814892333615,-0.4808792508157451,-0.18574735949068577,-0.6187271230814999,-0.6792948729089852,0.9331588461761793,-0.2667063625095947,-0.23150907314094882,-0.20259453744318723,-0.5631082509158221,-0.7197573090282829,-0.673930525355362],[0.7204348960031581,-0.8974336009988546,-0.315932659363777,-0.6984242798656093,-0.4649695061729302,0.2870820176027371,-0.954980355073527,0.4370868412781139,-0.5996137875247751,0.2703870264165227,0.7671235667742049,-0.5575001880239285,0.6632254293392985,-0.3146367296333279,-0.6563580820571129,-0.7050735926947005,-0.8746195599303754,-0.6091211452543925,0.1939860196106198,-0.7614117239020537,-0.7663987406983637,0.5681251475707376,-0.6242792796639691,0.7390469793931456,-0.09498997536403486,-0.9023835590353622,-0.4021005329536549,-0.4416173149726703,0.5696249705348626,0.5859129825196132,0.11835445849509285,-0.4374778791842717,-0.022665186287406325,0.5208689320211457,0.727780532238471,-0.014156715143200715,-0.8819401321732603,-0.2498504213335504,-0.5532118121946117,0.2439316251508976,0.819589933749524,-0.4838313007103072,-0.2783315000715463,-0.614282092149883,-0.10815028247011216,-0.6190982631446387,-0.5332399904067691,0.9943956613608234,0.1555647061612644,-0.42173273184098914,0.5470279768876336,0.3977448739360534,-0.2800947260678994,0.6568729376457809,0.8789563824552913,-0.29919701744692695,0.29642977789717384,0.02024079519572486,0.4489022246877432,-0.9512271549969378,-0.20383250402850606,0.2656109910647175,0.6333150732488417,-0.22908204732592763,-0.6757544512500935,0.6246298866919964,-0.2624328017679347,0.49911790513982446,0.7910746643116144,0.4894189423226136,0.5293413896655754,-0.037516877017487404,0.6292463667913377,0.8538618874495418,0.3734159283158123,-0.04486283399481916,-0.9959055311255991,0.540011765276283,0.7680710269767264,0.19653411380684904,0.873626107875835,0.7010809526929431,0.7881996150783477,0.7416885038465839,-0.6309169930561731,0.7621870442783829,0.2893142718757524,-0.7211597749629275,-0.09042139352413292,-0.002792682936764823,-0.2747126979127765,0.4306115732520057,-0.4899720259093301,0.2317957033323652,-0.41253790263527024,0.784263483440037,-0.9572820589713877,0.40795735193608196,-0.6391153673801517,-0.7196874982538575,0.9836946752586464,-0.6132387258172016,-0.8755365948627905,0.11721008840634162,-0.08073739615083197,0.8820102316691294,0.21420080829808485,-0.22628475461322184,-0.5878175390453115,0.22532664079990794,0.6328052440130978,0.5998451757566459,-0.33744038598936954,-0.11650382467551545,0.14513136747000033,-0.8517785150053891,0.6856233283046766,-0.6990456422954276,0.8327279093035773,-0.5862936316982765,-0.3993565498876599,-0.3638527314679867,-0.33296582973010147,0.7139989264082873,-0.4647042971339779,-0.428741702624714,-0.8949698372839756,-5.318332819099849,-17.87141289440489,-29.10383542730328,-18.245226038732774,-5.2980841424437015,-0.30200026242398015,0.6438405214450307,-0.48095637375262634,-0.85364278358468,-0.7917573008586638,0.46491314961807917,-0.7513098322918357,0.5730716673939491,0.3933391417862726,-0.1865129742902225,0.7866624354984777,0.8758675811825085,-0.8877561575913542,-0.8797015944763704,-0.9937161530168184,0.28983768582037484,0.6042723965374255,-0.904927311083527,0.8621937947161162,-0.6354083439867655,0.85316922187559,-0.6767380932954068,-5.009418081309213,-28.130590019706556,-28.342529261025582,-28.71151802210384,-28.178318542268897,-26.732543979051627,0.10856130961182364,-0.5640215789107543,-0.3262157852982952,-0.8999277481153789,0.24015509934269308,-0.3639543234004532,-0.24561542273573922,0.054473181757963784,-0.9788562914160199,-0.48377034582814726,0.45996069512902626,-0.6257206092301666,0.7569249079683229,-0.9691882489391372,0.15272590887590276,-0.19126486498854534,0.18695993683535805,-0.09110785867622861,0.5004890804485334,-0.31995990590755974,-0.732536992268227,-7.02297594327765,-25.132838933409687,-29.45624232087041,-28.314317602845588,-28.22952163813657,-26.193323426072965,-28.128039565467,-7.540682779147487,-0.11149852926974269,0.2552855369755489,0.5311715511980144,0.6580821745160521,0.2664606073161244,0.6612533286357818,-0.552815933027766,0.8766313672500565,0.9241817525309994,0.4603488571863268,0.9831447335637042,-0.34519172742063886,-0.8929216705049436,-0.7625342685759882,0.39379897483641546,0.8017713432782356,0.1886320340696288,-0.7848543020229699,-1.69578020289546,-6.9116915671537935,-25.327186035825317,-29.199996582709286,-29.35747869555006,-28.14518795525871,-23.103160549741304,-10.111770140757628,-28.54748980496677,-28.45645073672317,-14.077419308953177,0.8064426195173506,-0.9194017919425255,0.12998357943627603,-0.5416834765905252,0.24268807095794243,-0.4071886926983399,-0.3777845743738837,0.47621517973738836,0.5955718049647656,0.5706288963917032,0.5165676826512848,-0.30119138277449875,0.1409146531008778,0.45573784801658146,-0.6390149644607839,-0.4141837158738291,-0.17893940625156102,-19.526200129381717,-29.743267796403448,-28.968802555398483,-28.351441250593684,-28.872096187147463,-28.279520240844647,-28.283604983534623,-11.983027831985671,-22.69022573070483,-29.35630644941821,-18.404431688937336,0.2063602709111918,-0.2778910028098398,0.4993344869436753,-0.23088278097352766,0.9195772100133857,0.7218408690804741,0.844390787901977,-0.31223825049826015,-0.6307388722167635,0.9810660641038618,0.5674904835037164,0.29638196311215514,0.34430899689383,-0.35302051184638694,0.3846057041857407,-0.9588894709579849,-5.238022875766953,-27.22991752935512,-29.52343747945083,-29.734814905182052,-21.049951319033134,-13.972508134176167,-28.852432956675866,-26.831090421623344,-4.520009940631202,-9.13764587846528,-29.519240644319872,-20.169233341743983,0.12318133947740773,-0.9522049449884082,0.9299843606582756,0.1405916658971662,0.620473008791429,-0.20193016932470131,-0.9358080968759339,-0.12070014036629062,-0.9952902256581491,-0.11277324119608112,-0.41185387198660695,-0.19858405039209281,0.1431995152455483,0.4234064838392677,0.8157396905478711,-6.027329427552702,-26.74881134123825,-28.439253727030234,-29.399984039804906,-20.048894229612184,-0.5711146226863244,-8.522184678573657,-14.572687399378925,-2.1448410818512844,-0.8883253581132766,0.20057511975472297,-29.91812680317925,-28.46404597657189,-6.221404167751105,0.7660560967108212,-0.6643405524405916,-0.9650784860595825,-0.6798781905001838,0.24877284417785406,0.6291129525437633,0.5270698361961124,-0.24268526502080534,-0.8530760960363115,0.3577816564616909,0.47349827925247356,-0.7350196059984795,-0.35680061151488474,-5.261300542149824,-19.875273753721206,-28.098465699120762,-26.069002674121087,-24.223594830891628,-9.726124687613359,0.7411188149781138,-0.5688985489689455,-0.08573739070152087,0.0008271412023730385,0.2426069143058498,0.368618408607557,-28.639422599222712,-29.442197286736267,-18.93045133640582,-0.10008078887676586,-0.2797075804766411,-0.19254761361725348,-0.016985455805951677,0.6637223041292779,0.560278682495073,-0.634778643134202,0.9744226874785333,0.27229133684743334,0.044551296480271896,0.0911792512292644,-0.710680177687155,-1.397769019553853,-19.623167895481952,-29.68171708836786,-26.649269319437895,-8.93424876862731,-2.2100706507528978,-3.1175974011586103,-0.503893519542401,0.5679703146186503,-0.7094148368430071,-0.18848794163534444,-0.61910900638659,-0.6130474329345366,-28.605573773488732,-29.573838793102457,-23.036235793757474,0.5211806912061183,0.3415564091563772,0.5362361386673684,0.27116784454031695,-0.1523519300273628,0.12868621827681515,-0.7552334210106304,0.37949089155523796,-0.4240241869349246,-0.7891451963143046,-0.136147271585912,0.4455273051873916,-7.528975215241701,-28.46889792283008,-28.855294987458212,-6.892850405746494,-0.02325136686627416,0.04364623831298475,-0.40191413265886955,-0.5079755360455873,-0.06873449837168599,-0.19354079508738176,0.48651365723575357,-0.09113892775645227,0.9730417519484673,-28.165751816651113,-28.736299313030752,-22.610560802891257,-0.9804830773464437,0.8475143830596903,0.2927125677948146,0.3440395156620606,-0.08426487546847272,0.4499114354225149,-0.2170682266309163,0.9784359611967135,-0.8579858370888938,0.9913680340230782,0.9499321135410113,0.9866493922401611,-23.581419371707884,-28.255329593026577,-22.069756407829924,-0.5337781562645887,0.034864973929423115,-0.6955982550970934,0.5929553027226926,-0.23203736964512123,-0.3883195973239959,-0.958531719875243,0.9498325175853557,0.9020886799976124,0.31886615111332106,-30.096592740640094,-29.492041931367304,-21.525342546632867,0.06838197515275568,0.012283547457647703,-0.9832833799588754,-0.7869294861056428,0.3471375115390951,-0.44999594604465987,0.8702859103124525,-0.5680376770946918,0.7724994925335376,0.4094499647651699,-0.8470276076437906,-8.394841933657663,-28.891119885699425,-28.448017811139316,-12.859321154184673,-0.3491829079224811,0.36951572819259537,0.7725456879095987,-0.8837373333992142,-0.42727474387260767,-0.9091443585138423,-0.5406010598552036,-0.03276189682336739,-0.08568809938816235,-0.8659920887239232,-28.099836494907503,-29.902088898606575,-16.63582270973826,0.5525499067854869,0.8079778608289014,-0.2745761383172849,0.7528966262188441,-0.9543501591502941,-0.5812766680519637,-0.13493234890152128,0.5765512270407369,-0.06087407844874093,-0.9757132342430106,0.4457284424482919,-9.041167484458962,-29.696746827085466,-26.869690289032196,-3.6832598881895153,0.6684423206257188,-0.3020956857203767,-0.15836795368534995,-0.9759373139957039,-0.30321528957330135,0.03242811170286908,0.6598365521025542,-0.6483952035822369,-0.5206055239067894,-14.575671927232644,-29.972904940937468,-21.618263781216204,-1.2050317639737897,0.7247758953650059,-0.6263715354990926,0.6180673807708732,0.46320991809256906,0.16096548287784018,-0.9650669644159291,-0.6447722145350328,-0.5995108546247745,-0.06191576732314408,-0.408532060103721,-0.12214389564864869,-9.493728229545628,-29.47799446967873,-25.211751373514367,0.34517338016263,-0.2085049417365954,0.08207690149896663,0.19502319608395458,-0.8917719140493483,0.6498349046642484,-0.10466895946114407,-0.4756702524227121,-0.9354239387682947,-15.67031643908529,-28.655239971742077,-24.903278839241064,-7.367881922594923,0.7429123969298661,0.21203208500872428,0.1701116317462954,-0.38106068657401315,0.9398710285709369,-0.6334320044934314,0.2564201499961969,0.6823117317862428,0.7824823480384318,0.9678138723793648,0.37947235025883974,-0.4373005542713293,-10.693615266940176,-29.2607653160008,-15.666399092899075,-0.0982886788443953,-0.40635549230235335,-0.484276953042605,-0.10016275666160235,0.28885048789505685,-0.8666949201556169,-0.7992671571745942,-5.755334612137864,-19.397041894982323,-28.999870000850496,-19.846214720278407,0.16154548200804952,0.880288281802964,-0.30958678290429686,-0.9984952301683243,0.4441883520947443,-0.3743922962353825,0.6556482452445376,0.34303171788242826,0.15525175879149766,0.7953796856477455,0.7559328361974427,-0.59245326293343,-0.24306906639501014,0.802274208996036,-10.733848021152621,-28.173165107853034,-26.379288035547216,0.2208354828088468,-0.4632276610528079,0.17142371437681914,-0.6823257265620648,-0.7883403120826713,-0.30603094955155785,-12.646311806778792,-28.240506384058126,-29.86544832577726,-19.058871148602456,0.8546753024555507,0.8098701250440374,-0.8364303871778698,-0.865843327272563,0.27916184485932827,-0.8735306313958429,-0.3579740386150927,0.8307469532790748,-0.46687811132891865,0.6108550563824089,0.5054081246643787,0.9969258386397655,0.6264267932760614,0.3529919104907757,-0.9335993981519497,-10.708487452303158,-28.629296814410726,-28.10062781595352,-16.814675607860895,-5.3155058894312734,-2.5003597074754254,-10.187575526555342,-20.37819334305285,-25.460117889846575,-28.511252617811515,-25.973794526322745,-19.110071367656683,-6.586735987732777,0.3387700804008633,-0.7661813136779987,0.2448254339598177,0.9755160770217082,-0.7159271905396181,-0.38740819892326606,0.8985814228463782,-0.6074058671899216,-0.9285382835036651,0.01244696791062605,0.018802936713270935,0.38154934136543983,0.8742329571759888,0.9897263618451009,0.2031004813623014,-9.313559922862076,-28.670373723303197,-28.970080316724264,-28.7922706599785,-26.98489049998597,-25.25859079579231,-28.152818610402935,-28.661627919272334,-28.52416226251042,-21.88868746450525,-14.778146803347017,-0.6909026208655094,-0.212193617058976,-0.10990281002731983,-0.6682077216139866,-0.2761504533414769,-0.9742342607209133,0.3747281968250997,-0.8513174553957816,0.45732684058522555,-0.27888665157551906,-0.8538958995857768,0.0835297735460021,-0.147974959280198,-0.7586410780241661,-0.6255822591520201,0.3951247862099665,0.8606173410875211,-2.7426543981077653,-22.488751745751067,-29.897741303368672,-28.360896176115496,-29.42376416233806,-29.67123790076245,-29.44529513124736,-26.79295601501077,-16.382369922910666,-0.9541359599292067,0.4822302027499512,0.06610975791079765,-0.7030191060627682,0.5694547670070016,-0.3716190061228548,-0.37624498016645047,0.9506564537752633,0.8406219275927542,-0.973577023737418,0.6831606923532969,-0.17182987302745834,0.01281135035005132,-0.13398533276989366,0.6894051937171948,-0.8148884067982711,-0.14642331816497656,-0.6791651634149889,-0.08521746985164991,0.23593753133362005,-2.0118828022137625,-14.033770543788767,-28.25035101676767,-28.888431150982246,-28.828978965254123,-16.6989856805877,-4.397916214954513,-0.6953289744241351,0.5764045686292834,0.14357282036086239,0.8614565894869812,0.47736217137500314,-0.08459756206456825,-0.4397535851658634,0.8538103626042575,0.8063083273320582,-0.5354182273488808,-0.13940246136878343,0.8730132442842975,-0.5030940989347208,0.5142015634718273,-0.22182189354093973,0.4725010132460066,-0.986027788265464,0.3315059112334533,-0.2388213623969051,0.05251410039471405,-0.8520974251200883,0.7701120936314441,0.03287852999740837,-0.32540220206071147,-0.23968637308375507,-0.807741996394642,0.11005834566534389,-0.7245871561758732,0.8017184177480643,0.6732005506135281,0.8894743809382086,-0.05671444776518153,-0.7579327341879272,0.0562278630243811,-0.5714717043963053,0.32322259764024963,-0.7023477357535641,0.9206993866313753,0.7589885134638712,0.5142589583860977,0.6924492274153362,0.8944286580557901,-0.3023571083049512,0.11321413179547068,-0.08461200573378092,-0.8344319641900795,-0.7411958618726511,-0.6657282587012705,0.7670523821900788,0.5779434720254395,-0.11621076013987208,0.517192439049772,-0.7324749135552722,0.17846813117900062,-0.6028400536074145,0.3150015481157762,-0.3690178894810128,0.5328702669869037,0.20865745887569598,-0.7646615285102232,-0.414789625700146,-0.4321593022704837,0.3203649924005676,-0.7595760269443994,0.07045025409186012,0.5951728664029359,0.8216719646682782,0.7116800906214451,-0.1990609027780128,-0.9376686006228612,-0.36268370168864905,0.10042371617433643,0.6477212877769767,0.4806588975192081,-0.7148536697621601,0.6071965881395693,0.5218258180262227,0.9484264923955752,0.05589866296796231,-0.26745628330387516,0.18005786340515662,0.24065120019328945,-0.1253774716970275,0.21450463388798902,0.19034833457042177,-0.43823804682242185,0.7539439759004265,-0.9466326871317128,0.17099675667994751,-0.06409010349069488,0.7439576066461553,-0.5795444217879926,0.9600262279206273,0.0830907482089267,-0.607174395338824,-0.7169295835600489,0.6460463699110972,-0.7758351043202592,-0.8050927474027094,-0.47937719300629666,-0.18719979132370201,-0.43527136868448735,-0.09504223853187899,-0.5763514894751012,-0.6206165879880452,0.32551819566240736,0.5581126873134306,-0.2811188334549801,0.6769378481843797,-0.6036086661037667,-0.8839061285260108,0.4069035902809057,-0.7737935161638911,0.878812480818336,-0.6764966594391177,-0.5215827784919396,-0.4580568683928026,0.40084889589462747,0.9409564177984739,0.293894129376874,0.37472066904747425,-0.9918265145835565,-0.12127738312188718,-0.8643959657683127,0.39754076190939514,0.4211962337520503],[0.6864439394836181,0.8170686572769912,0.3322295309955281,0.11713843835445759,-0.12277654534640914,-0.5980591328462355,0.21562228672923345,0.4385168987609773,0.4078341595666959,0.695189437428047,-0.6361686159404483,-0.39371731592680814,0.5756358661386081,0.05955713231740556,-0.5549098261014043,-0.6556131760549855,-0.680174608339476,-0.2506220861154942,0.9370639893219646,-0.8781246565854539,0.5860211147104613,-0.17250741709384032,0.6044626055256792,-0.2962461182281724,-0.5154818233130296,0.06318596848536795,0.6189027793260773,-0.14893875485927244,-0.09954011865658763,0.3702109588693432,0.4689934884307554,0.5364046417204884,-0.15402034421801725,-0.7972784633431631,0.3040305642375998,-0.8398505083959371,0.8252830963517355,0.376045223267758,-0.07539460367938067,0.08577716454030493,-0.9669978067025744,0.976079422025113,0.2988587531990712,0.35395293885099854,-0.21533085010613884,-0.8396469706711209,-0.3390621903702442,-0.6039517654716258,0.700670614792299,-0.06939050954572545,0.27192088192905484,-0.07761006284529404,0.026010998172421473,0.20843871767582378,-0.7793076453945351,0.45323381338928503,-0.05898115369914669,0.7499025223399258,-0.25341249538777944,0.20238011792273802,-0.3646542938486024,-0.8695813249588291,-0.9108498820776352,0.3700925936906503,-0.5833138318909536,0.887494679847175,0.5389150965198499,0.900973511259046,-0.48152038672280617,-0.7688406943702444,0.767584026388485,-0.22943598998092818,-0.9201483478018695,-0.7374809513324168,-0.4065949700235716,0.34125505591520344,0.15438962033813697,0.9769006679989349,0.21579754839473142,-0.4444508532507767,0.37218507760051067,-0.3572252315805806,-0.14942494004852214,-0.875813095222278,-0.981467304359807,-0.1722816517828425,0.525665661372033,-0.6271510859570628,0.5878827844004924,-0.3557501209506879,0.833173210114242,0.9468184418093328,0.3336012803204922,-0.13566897328407568,0.37224854720343203,-0.45699730682923523,0.728949301518117,0.07786241595921495,-0.17363030069442775,0.6864061381996032,0.42127231477619476,0.2946213548928849,-0.3174175677280844,0.27769138215188804,-0.18541211827025816,0.9410202063293591,-0.898063574686526,-0.9393921765666198,0.22184177964634255,-0.8263702324911297,-0.011386710289184254,-0.025528176187819662,-0.2608017301044421,-0.9920287185339656,-0.32717185154612594,0.6784757152713272,-0.7023719956159993,0.28113555078234786,0.8836106835507949,0.20645870622855056,0.3541596144183494,0.9135056907357371,0.4339272956780318,0.028168722610088626,0.03989215795096501,-0.7748318278831905,-0.35108429688752096,0.15039784401603318,-0.90058839830557,0.22775145763633708,-0.5699780095443818,-0.25997133542625983,0.38695717887074155,-0.20518579545378968,-0.9521945799416729,0.688371403535416,-0.05059965174226555,-0.017004742203713397,-0.03353898540002498,-0.6478310589727894,-0.20463895213088557,0.7079600830524488,-0.8689042991204345,0.78813563278495,0.643256686129229,0.7958321196927449,-0.24190392881250977,-0.05230774709077357,0.8918341886760022,-0.09645747872155441,0.08870225461621994,0.8911334258316845,0.5539228121049571,0.2483374534741869,-0.8236716209834647,-0.1231036694433012,-0.871280177756524,0.5655486505004719,-133.8110979469235,-271.38907558091717,-273.98784909014813,-68.1291758283611,-0.6148406410200971,0.46079123246898535,-0.2500734232699289,0.21324648472908247,0.09161605387814165,-0.9435158906585466,0.577932734078253,0.09422245807952079,0.573260572303822,-0.21413480769743365,-0.9111802381274257,0.14704033260079186,0.5611673998171152,-0.20549742566389817,-0.1089756076308317,0.7709064424498338,-0.147194207133708,-0.28331225569907237,-0.6201871596301467,-0.9672412820252405,-0.31772089476289556,-0.45645174869930427,-0.5349734784179503,-103.95711762559414,-261.71709314039407,-268.68756286304534,-272.06101593714124,-66.84123013835762,-0.34457880453207035,-0.0332699851948528,-0.172402538066444,-0.5335793686013517,0.9947075972360717,-0.4366959174484073,-0.6119517423332386,-0.12656334616919063,0.900787455670544,0.3315428620033676,0.6014982082625517,-0.5259314027352255,-0.6512225963912257,-0.18851358815744645,-0.6440996817600091,-0.3755027481675932,-0.2741077567143979,0.9505430664606338,0.3222932131842915,0.3666503489373458,-0.8220892195851908,0.8302085802591352,0.07933431933336998,-136.12689719965113,-270.2039971051099,-268.65734766287784,-272.4340634365491,-67.09923399954437,0.8486090652823179,-0.5336190725683416,-0.7697702163038957,-0.03437457224929208,-0.803970226933479,0.0019548098031278993,0.3295652627013932,0.8113420386529999,0.08034116686095683,-0.49559437607445345,0.706926223990775,-0.24027598693718355,-0.6811043443625153,-0.30496940923817073,-0.9741091128376032,-0.431971955388772,0.5736272259541193,0.7840899148604381,0.6396808518393318,-0.3941924296728454,-0.9576199843886897,0.654040754712631,-73.04659526488888,-253.02554933007642,-268.94637427314836,-226.90542999819814,-33.9253020637392,-7.742300659739693,0.2883540511024145,-0.38348605834591254,-0.6528652259901369,-0.613017179645194,-0.43425719288381504,-0.8313720422991715,-0.49285915594702256,0.13958715302196967,0.5737075843393726,-0.9339892844569804,0.7848089402462739,0.9189873825160135,-0.6564688718182783,-0.6643948385870717,-0.19931920968570171,-0.1652764031394396,0.5809361871888008,-0.606007968344549,-0.6527794591390303,0.16047511107209878,-0.31144887874853366,-64.65848981596184,-245.11166694238918,-269.0653925673101,-269.8182353487342,-100.93299917408979,0.8519067580082993,-0.4760053028209099,0.22714398130395508,-0.13648244176239577,0.1781019211770969,-0.16676370901435078,-0.09394363073268064,-0.28587762233837277,-0.537521667719937,-0.7640843315848425,-0.9058808231406452,-0.8403416410444606,0.9069892412691303,0.9732402886545235,-0.5550523777807572,0.5596158587458917,0.3080283407783251,0.08804904137327507,0.19992319932057656,-0.3818156464187663,0.8614190138019502,0.2730273795488456,-0.5721082016050636,-166.2651347613795,-271.5565989915907,-272.02869936811226,-203.41484137832478,-0.2643917489237384,-0.9820718696299662,-0.027297059967471782,0.7534357632867432,0.26861020439848793,-0.6581103028978335,-0.8881088123950343,-0.7013134696471954,0.25985990312395124,-0.28494782883224734,0.8780537964193273,0.7388486140825792,0.46966416012385626,0.3564574604039479,0.6406144326349179,-0.575826351140847,-0.3178543796016937,0.478140880150842,0.1504117446881743,-0.12121836419333931,0.9419430561069921,0.19163342249475424,-0.3595364050055474,-20.639293284646584,-271.34888451956107,-269.2645713696194,-251.749266818039,-71.12438119639185,0.7011610732051139,-0.042895360191472554,0.24685169497886061,-0.7329741442746276,-0.5448447771640841,0.6319510814963394,0.39949621559648607,-0.3605387928382424,0.736361368523208,0.8508924579669934,-0.6004803205314471,0.29290534134421775,0.8757368257888998,-0.3470739472428439,-0.4507924984379206,0.8517359086318861,-0.5542935150244102,0.7286167623774444,0.2496060290402451,0.13623523160914108,-0.8885470862973404,0.5276997470617188,-34.78881735838733,-220.9915726071675,-271.6174083213969,-268.7469010675223,-135.98112578465896,-0.9791056405936209,0.6087385152158755,-0.46762828660015177,-0.5005529025010318,0.6138784502145505,0.7648362790004153,-0.7828176234525439,0.6473748472656289,-0.5232044166468528,0.6191669119612973,-0.747523460665551,0.41298897128539025,-0.731874939697847,0.3310608180346162,0.3600636076815238,-0.9631193624998797,-0.9511483282456634,0.0793855486394126,-0.13757816733827255,-0.3444717818042029,0.49079727431808173,-0.8039126210330683,0.9183086093653618,-110.78603746330117,-269.49497910715695,-270.6516453631878,-196.74241473423825,-15.72627812762672,0.4598329599642119,-0.4316250707257894,0.2662968156884675,0.24799497453385966,0.3656036850441302,0.03034653318988112,0.1576129562239268,-0.12605602816083605,-0.8746481791703411,0.7308740749334273,-0.9740738548728538,0.19202356919513042,-0.739645625106029,-0.29089101369228,-0.9192238528097814,-0.8345159028654148,-0.005037092012467825,0.1972940475533611,-0.7421913649888234,0.917511484565988,0.6301947102671401,0.6121994147454322,-85.8423558139182,-258.3913839696559,-270.3869204277543,-206.41783451953665,-25.23030961781582,-0.5470945729728485,-0.46269679485731885,0.19662521366504482,-0.012563045556397423,-0.6710570711690869,0.45224393438381205,-0.3646967978326918,0.020946722227086267,-0.0781082176471195,0.9836124838921192,0.18830501743984907,0.7209551687158902,-0.993313436869703,0.5616840107689907,-0.8256699082491075,0.5209945188322422,-0.21476211078223506,0.6876375796067071,0.7104602982456589,-0.7391686353557603,0.15205592133875423,0.27285765106951065,-35.1240046494288,-271.9651447358883,-271.54024361996755,-271.7434355373016,-169.90645596816373,-0.4150636035662061,0.4311863656031907,0.525974346098036,0.034818154022244974,0.16625312056569097,0.7573638603983581,0.584316770005354,0.1870956005795994,-0.2855239159491165,0.3148522654931234,-0.7791086947498729,-0.9517727342095506,-0.7572276389334016,0.46918118851558077,-0.36067117639394297,-0.24537261108622377,-0.6479956444493107,-0.22806135186703114,-0.4750813266276699,0.5392934787245882,-0.2270634450592195,-0.8451700216990543,0.34137295127431533,-161.47945497373541,-269.8782177894836,-269.1746609822445,-268.73302065947087,-41.04522521016731,-0.6022016122978071,-0.44698345195887934,-0.9621349716507128,0.3261371537672022,0.2279730331981189,0.43494718656007403,0.19209698827570043,0.9905628201177685,0.44101353806966537,0.5790218664083846,0.1911241340672698,-0.4379159850248855,-0.08691505144028921,-0.24815320478950054,-0.849636286106578,0.805403730568685,0.1869574050990841,0.2501624049096367,-0.3414358732467222,-0.9593169815010438,-0.16976556433666468,0.13948875122700222,-51.11458907515973,-237.02350021956076,-268.53508486856515,-269.7313290427106,-183.70658186329163,-0.5904415214431216,0.6972232304130725,-0.24506233366325336,-0.6373258940515474,-0.025981382640405615,-0.570102406651146,0.6460203641563567,0.520771878934079,-0.8589592929936094,-0.98936480683398,0.9194219117609916,0.18094969133214756,-0.7482777918774512,0.3157193462788832,-0.855220696422833,0.5276797462933391,0.674203970566829,0.619519126941602,0.7094610734182687,0.11363362279042777,-0.9106554128209243,0.12737748087208822,-0.39025866581027624,-250.989484053878,-269.78929546968976,-269.044719883825,-209.7199369412303,-11.99177577268576,0.13710095137854683,0.7262894685688086,-0.30100975944782116,-0.5034175251255955,-0.8803670969337458,0.8390278028269238,0.4594851833035267,0.23471741630536025,0.053980225886912425,0.09326411022127212,0.3323478735779779,-0.7755289907644107,-0.8928115622212536,-0.5934178182574321,-0.939821234573545,0.25276742662895146,0.09285994830277922,-0.8876971676806358,0.5377164824853253,-0.8150772947249167,-0.11446491558394256,0.008752026375941968,0.02190911283839303,-272.22803843966335,-270.20631910886624,-270.26396001801356,-94.63370236973579,-0.25615844171971425,-0.9584107504840513,-0.6432576441925,0.6035709994273979,-0.277776316508892,-0.7021845605768855,-0.6650581406473453,0.10404987819316935,0.4957301005679371,0.6290329734566089,-0.5372509447551148,-0.028936612375540127,0.13227096155394125,0.7033455339734609,-0.7723360854263728,0.40231181949716266,-0.8331214749897169,-0.5850090370771124,0.6727586413621536,0.5141419593962946,0.39072140794719434,-0.2854033325316565,0.842046553196391,-170.28013277396008,-273.91347527112214,-271.6001137995095,-271.13256378641836,-33.762518005437876,-0.4739092526307247,-0.4575089435999611,0.3312330800520198,-0.007193593772362394,0.27820625068515725,0.5457123864035078,-0.7816462766572809,-0.26735682844848774,0.7299255182738864,-0.42858448544851524,-0.97527748854351,0.46834387966664837,-0.8631904368029386,-0.4285674497769547,-0.6357086679292427,0.6986188732156373,-0.17395278265177883,-0.6116749035227032,0.8703293598108564,-0.3783344653499159,0.6617421123236957,0.8951292996389342,-51.25443760870388,-244.04522445238402,-271.36083629554673,-264.7914343892007,-150.31059983335604,-7.7360246450220185,-0.5787493447358456,-0.2431076409074857,-0.7006383462058161,0.5090062129359882,-0.8014793959350626,0.0017248424558786724,-0.04608990200918539,0.8532167707278935,0.707268624883779,0.4717684803377278,-0.9440487129649984,-0.7543802620033497,0.9731217914243326,0.15826325503846483,-0.9234437131600413,0.3218771881612188,-0.042720362659993905,0.33004800806049217,-0.9580345773085313,-0.6356124448120049,0.7951651229164953,-0.6219244316983732,-68.00055271263196,-269.63642821729917,-270.7028889607391,-236.26984173816086,-0.6582290835825904,0.07236310075885544,0.5705701055353145,-0.630575455449045,-0.5745870674921594,0.2668528531678789,-0.3444453120269275,-0.6601976726033754,0.6951084495252555,0.5600369923446766,0.7832089815477261,0.596344629666133,-0.8718847300637058,0.21924835437018286,0.13508879331757062,0.12969376633258967,-0.24057611766848908,0.8274799131894048,-0.0637297067271696,0.2804263413921255,-0.7338792478411726,-0.5445739152709996,0.901554822709806,0.1843628617070563,-69.2109706257183,-269.3503160102027,-271.4111198959081,-236.89724377508813,0.21661542519645094,-0.41053265896107427,-0.48477368448360925,0.3149896569373496,-0.7871436549526507,-0.034494663161297456,0.9382121784244195,0.6471780896575237,0.6302115041583094,-0.006782121125985752,-0.23946244168200304,-0.8487700501727358,-0.5680788675625887,-0.5988425013077614,0.5550491697827262,-0.09625897769682323,0.32992972290902944,0.8740371569531893,0.43401864071430074,-0.08482971533067407,0.36434079122814467,0.01275239798384864,-0.3324823435422717,0.8640518905352341,-24.892972046471517,-206.25985594269514,-271.088309784242,-236.3790710081282,-0.7920468120104471,-0.6705418301823172,-0.7291494800836169,-0.819078189741437,0.5182998321128278,-0.9495049246900882,-0.8430365918457603,-0.9640486138712565,0.278647098974828,0.5525147481041428,0.16053168125657025,0.7704834927827708,-0.3348410399616659,0.6926437869045037,-0.4765859380856423,-0.5534213632826961,-0.10614114195140423,-0.08397964424048365,0.6026038476623414,-0.9250022109382803,-0.343960537658093,-0.014212211673927166,-0.8334124839070733,0.9248062080952832,0.8885503690106153,-0.3427885009792764,0.5428196836789516,0.8692193643686554,-0.8150235690076766,0.949304233508758,-0.7305867658712684,-0.019437332063019452,0.029349454903990102,0.04039770013555399,-0.5334105091166825,-0.22888795012852658,0.8166546377293913,0.2573483328515853,-0.6724840677647144,-0.34416980383842954,-0.24924150507254095,-0.8307715788154264,-0.3994369760328407,0.060485706629828995,0.2718387377759832,-0.7395965148270265,0.2359029493519349,-0.9851861545441809,0.19010524102357684,0.6155351822318562,-0.6640057598749101,0.2822455959486865,0.10022969363297274,-0.5133849954550236,-0.6016128977846391,-0.618987408780457,-0.9268789299346707,0.6583259710006533,-0.4199820301340116,-0.08633958383488194,-0.3634941372007834,-0.6064477183076384,0.9528404914239961,-0.9608284276443273,-0.6377594362275849,-0.9890479120661024,-0.6791113447925714,0.18958941753493264,0.6368924105320215,0.5306511665913425,0.015601721696574256,-0.9782118180637163,0.9406133490998305,-0.012180726657532004,-0.2791451785590753,-0.24807953923221326,0.894693848091181,-0.8402464808735068,-0.8808291069821657,-0.47272931435781573,0.22535829005392016,0.4234817049695452,-0.7623734270923122,-0.9933961918774754,0.8731548594053533,-0.19336174541831674,-0.9085012394922385,-0.928723895832642,0.1463922528230357,0.31820188864993626,-0.2588574935525938,-0.08751367528964193,-0.37980495191397057,0.24950351586434083,-0.08012213230766241,-0.7556443658964429,-0.5241961937779445,0.884113881900515,-0.1407455037394214,0.9890374782426861],[-0.3045863227536474,0.8193944814496026,0.055212197126443874,-0.7727434640418458,-0.8447203067339519,0.9381984533987671,0.44374781836057164,0.21628797179539894,0.31335281140175963,-0.6600320746649482,0.8137163428709528,-0.738231165227877,0.07574328383780848,0.5488563732796128,-0.7530905744247431,0.27313899992321344,0.8426402295140936,-0.2595282512140369,-0.9863912890535853,-0.23609033834895832,0.14518316939394715,0.000060484310761443894,0.18271702699818215,-0.15813505979513542,-0.503874607849649,-0.411995057279132,-0.08819642816177331,-0.7900261586470183,0.20634072024276873,0.3536955717168069,-0.8250379868539071,-0.5643493124815964,0.8927845327455521,0.20599850816314613,0.17439145029599512,-0.3355476093958045,0.1353324959275939,-0.16436983113092873,0.4743508203197748,-0.37847566649173703,0.15440979373200392,-0.4409346006222987,0.33867447317993826,-0.1747302340982786,0.3585677437274877,0.19728033370985187,-0.25161475601357575,-0.8312957842364617,-0.49619665344028396,-0.7881101076652854,0.4072518801891969,0.5078673526526112,-0.7844993826310949,0.6999852135757489,-0.009314465215340961,-0.8980337616530805,-0.9869429646143315,-0.9637190853129227,0.4548598822191692,-0.4571488919165012,-0.8382306171032761,0.53830344421646,-0.741544822707227,0.19790033159309872,0.6155074185324689,-0.08138993797350991,-0.8244208622618772,-0.3386491723918259,-0.7024167234877421,-0.7213922188617026,0.4873931701118712,-0.19975466357937122,0.512960140424424,-0.25223921509576175,-0.6721915824765885,-0.5190586685468488,-0.7234380282225337,0.9769588764403114,0.37390024001998645,-0.36879876123682354,0.5369787298178113,-0.22550451056538456,-0.03479576821203967,0.4259584444215687,-0.5873429217311674,-0.3442325014883987,-0.3414113394169451,0.9729335302846198,-0.8296379417556661,-0.44101939887696195,0.8851981754544,-0.17988416283591424,0.48601866378711023,0.4849970713050995,-0.6090910216726875,-0.00431774832441878,-0.8521687262625735,-0.0894196936331817,-0.35642073848071254,-0.6793422193164043,0.8229484904496491,-0.6848568933749979,0.7201910283551025,0.766287484143547,-0.921170134858357,-0.9887956401461817,0.29646895208323754,-0.7369463868222059,0.6250059424964736,-0.214012582264129,-0.06772092161097754,0.5129933943398091,-0.7704412184476723,-0.9010298273596611,-0.26638903747903897,-0.14511201092782544,-0.5461762023875061,0.4936933040031213,0.45778399211066123,-0.1342093023564057,0.02846471277490603,-0.9112001679850965,-0.12330640755228472,-0.45150070652069996,0.2991528429057737,-0.22643875286120307,-0.21092302749215452,0.14390997280631912,0.2585894592278659,-0.5102516153071535,0.8954023003469316,0.23302244883971235,-0.666490490669803,-0.7370277234010219,-0.6360167865829753,0.9681412895414316,0.7696280276114127,0.574000289447135,-0.827532382508446,0.41517023547033904,0.5127303212179635,-0.018471442032050867,-0.41640290353584386,0.7683692881352957,-0.6970824824142541,0.7650392212365189,-0.9687149510354292,-0.02089280355891643,0.8409314530085348,0.9774165147756464,0.360315017274663,0.470945698615334,-3.0493472638607475,-23.53182243819276,-23.98751529277885,-24.407807430823055,-168.0202376464517,-180.90753038454918,-233.543862906083,-35.39492355405768,-220.89676642953387,-340.45627153655784,-329.5018600905601,-170.00290915281263,0.303050459707906,-0.588962617841992,0.805855999831675,-0.1552637427873187,-0.475637339593894,0.6177567837261444,0.3117251893663433,-0.3389069907090583,0.6414232695149671,-0.5699191618883306,-0.3893171975095864,-0.15522673047170854,-40.59660336450707,-47.0037281207595,-124.45290742307995,-204.91135767383832,-226.9572388036726,-336.44087207487655,-336.44218959593456,-336.8523026658029,-337.41559411227945,-336.77861024195585,-298.7299663679205,-229.29614072492208,-336.8320882251875,-322.8206912876298,-260.1892585789989,-85.86593890228835,0.8957478830649532,-0.3667006212267816,-0.2965742811874046,0.28829347136181127,0.9173404686246298,0.009587752190650445,-0.9922849166616698,-0.20050974786163245,0.05504586879456763,-0.09471324687141847,0.9128851844801629,-65.12227185441373,-316.7900366756679,-337.2588587190971,-337.2938651663439,-336.8343708961119,-337.4725677517817,-336.0012944214066,-337.4220308124154,-336.67456261661874,-336.642013630394,-333.82465154827,-123.28755283595041,-108.6036476695537,-109.16933868053833,-74.84855348053192,-51.47661804407352,0.49042372146380453,0.2613631332633588,-0.7355547742468957,0.6675292720405603,0.297360351819574,0.14622443235434113,0.21169476882826932,0.5369926343242593,-0.9827555962282579,0.9366115779595741,0.12916004987968543,0.8911263677177674,-24.21229193992694,-291.5101956149461,-336.48764654005566,-335.9675054962388,-337.0259905575358,-337.009199890327,-336.8531837537677,-263.66346476387986,-242.9653809455145,-328.1102380881479,-321.7496209822465,0.5151960519669905,0.4691669134272589,0.4741071768522793,-0.28701740039339674,-0.3128791019046069,0.2553269192357148,0.16752573965920625,-0.23058980573447108,0.8065401705445787,0.3848573544641365,0.4582444109619228,0.025135957027782707,0.5906831648433188,-0.9063918401407494,-0.1075484176275141,0.8566073593289771,0.8186652569455266,0.17373311646085754,-106.77856235642692,-207.16480729654282,-141.87944382329036,-336.71129604438,-337.6456628751851,-272.3210750758602,-14.12476544067865,0.7789914758424192,-57.09405827594353,-205.2242346043936,0.8141670101366105,0.9500496041593163,-0.8490807595492977,-0.20719889757699517,-0.2749388193482618,-0.8018326641399434,0.46756728908194445,0.6901488214829077,-0.39461980124007945,0.2551457608633476,-0.07448824274573163,0.8032180503677755,-0.9874914409996256,0.5404425884829656,0.4546193455627221,-0.9285338477783465,-0.9211692116467296,0.8314414196792004,0.6897589030910032,-18.582094271115828,-1.1604004141507485,-205.16084068905192,-336.62664792580233,-119.61690013454024,-0.6540420525796564,0.2728800929217685,-0.9465743906037394,0.8394217880861266,0.12276052634491963,-0.7412385301356552,-0.5317917088743986,0.2834965861365417,0.45263628282980073,0.04359634955609071,0.8123956837785327,0.6483540733335078,0.011296120798040432,-0.866979395585523,-0.8925068358646786,0.3628345842688574,-0.08213993545726073,-0.4443067995499317,-0.7478075360236995,0.11461290251938405,0.8657934035551482,-0.43459394287979647,0.02838534807566151,0.2068245433279463,0.4489509780580361,-184.41688437943662,-336.6049771642757,-252.6760831477773,-3.0779057505146064,0.4074379190277897,-0.9829423433225759,0.6532664705657016,-0.7401536151754089,0.2549621077478428,-0.8174056727807795,-0.7237676942274525,-0.6413692196368255,0.522283467876449,-0.01920273658274274,-0.3235074797200215,0.8491901265925295,-0.8530205943179436,0.8332967660758579,0.17027918160367328,0.032715554052956675,-0.41212217454135347,0.6452749865800294,-0.8149853017578326,-0.8408883449042119,