{"layers":[{"biases":{"cols":1,"data":[[-2.246289867442746],[1.237335841313495],[-0.9081649280075856],[0.09976064212024932],[1.750138466264354],[-1.0654001964028783],[-3.153685700409667],[1.4776693074604217],[-0.8958310153559765],[3.1967249986339445]],"rows":10},"inputs":784,"output":{"cols":1,"data":[[0.00066102671138977],[0.9999998927963064],[0.00024288670848820316],[0.0011296583177248212],[0.00019506480832713567],[9.901092243377396e-7],[0.9809497280737884],[0.9999999992102588],[0.9999974551810265],[0.9999999814298748]],"rows":10},"outputs":10,"weights":{"cols":784,"data":[[-0.5450988708830442,0.7806602980030144,0.4665033681395088,-0.11797011849291716,-0.6765157582037098,0.8562801156700661,-0.3541119509098345,0.7951506647314044,0.9910682940009716,0.2581004074067794,-0.5403208652268796,-0.6909493701312075,-0.00252104455106128,0.35549675380311885,-0.24102423156367347,-0.0983177844403944,-0.5435859231856408,-0.06570049919947363,-0.5387544357505383,0.6041538930630641,-0.17515129799982265,-0.670376514747498,0.9414765604507018,0.3136649845666428,-0.22420496998280903,0.7046346720192944,0.9551314638770818,-0.4356289659458541,0.4829738367555146,0.9088602001544176,0.16150398125722232,0.8548104540291845,0.09667678350797804,-0.10602340527753196,0.42895299510680185,-0.7876662485588319,0.25998400440228964,-0.03894005796301592,0.681917237386671,-0.11723550547934088,-0.3554985407088065,-0.1819874803682394,0.6748737891905403,-0.7093207613475113,0.10741076141753748,-1.2689853910506153,-0.6945928474027457,-0.35884484291593943,0.38938747380635275,-0.6236938257247182,-0.2992561004176135,0.6186867613296045,-0.1014548374034694,-0.36735271430293515,-0.7364714700373267,-0.3770054136135008,0.10547166907390726,-0.7275284994910349,-0.5161510440914114,-0.6346116837988645,-0.6786897406077295,-0.877031284185098,-0.9222778893125388,0.6925231811118298,0.40106490071772183,-0.8431268418175224,-0.623148369211084,-1.7402920488160647,0.9366131183149508,-0.4395514801541533,-1.5443278164644925,0.08403375828913669,0.35035144009936586,-0.984530224570204,-0.7295171004551194,-0.016248702062584292,0.47366897190189267,-0.8297112841028168,-0.9305580369862138,-0.2863534081445359,-0.5316882588492375,-0.5043917933237347,0.3706521146400563,0.10122198680584547,0.05425602459231493,-0.2302562508661421,-0.053048128441851805,0.11405448414236896,-0.7709302873162167,-0.733814439367281,0.49647419658301983,-0.36027625464569246,0.4497423358887268,0.48041837359246536,0.6724817577830416,0.5441441052864432,0.30219575809207555,0.8897866067464815,-0.020126956678498942,-1.2029926802440103,-0.8440167876180268,-1.4545440124898703,-1.1194651562372866,-1.3596727700539597,-0.30257130687827266,-0.09048594304004488,0.8771092751999102,0.1297793532969076,-0.3881417321543501,-0.7113393818864375,0.901696223067854,-0.5906696790109227,0.8047050297678697,-0.6896694797048619,0.6592902831863512,-0.7684227084443096,-0.23745167229164987,0.5598292495361441,0.3980651889479217,-0.058825839024654145,-0.47837246200133465,-0.4941393561716493,-0.5972038360074496,-0.4349394892582456,0.253862048470829,2.0066706533489493,-1.372841902275642,-0.1718395758538229,-0.37636358340795184,0.66776933225617,-0.027538589619557397,0.1583906678139384,-0.8538680638674057,-0.7169542188273521,-0.950895801638004,0.3759927209228473,-0.011795624373200864,-0.09043262383510033,0.06466049294232046,0.6376048942322723,-0.16749165900885266,-0.018252064619587394,-0.9151482634744148,-0.6735010328330961,0.6431920072399915,0.6678103366412427,-0.014671938130986203,2.082140958066092,-0.13802192730938223,-0.014644852346514707,-0.4597882058589774,0.66666353728504,-1.3138045976689767,-0.3600658137742924,1.2951304273783306,1.0155871204264415,0.39738722794689135,-0.26559322300543303,0.7927796208333894,-0.3845689079336956,1.164398172920026,-1.2852744013283293,0.1189298064896082,0.13035056357070643,0.41084294250361186,-0.6025638948993188,-0.4800825004453521,0.8122462163938398,-0.8323758673293962,-0.9829826891185997,0.5403622218658153,-0.5201774487262067,-0.46484095324543456,-0.03789700179661076,1.2592849664797157,-0.05692894847399353,1.6032746504684368,0.1941366492898983,2.5211253655604335,1.4877110948906669,-0.2093816533906532,0.009425306972209242,-1.3169471843469094,-1.0910863935727717,-0.07767294034895651,0.575646798771699,-1.1936200738870115,-0.32106506822578695,0.5575454199840718,0.7550508746597603,1.025186210846331,0.677281006985083,-1.7377976643989672,0.2436364272786293,1.0287625525999116,0.862864836796857,-0.14099354402990638,0.8949934333159946,-0.036088983706351864,1.0518966454474432,1.3538771369912896,0.927811492837236,0.7468472113308853,0.6021069940341933,0.311525268540713,0.0015280121809833553,-0.986093344423751,-0.030834395319572248,-0.22188257649965745,-0.9019243172837362,0.2901936320495017,-1.400169898952662,-0.013179327792627486,-0.9978750807568691,0.30983094035619835,-0.21822078524497343,0.4584785154488136,0.5243365249586305,1.8170771544279904,1.6712137809387937,-0.04404793692269473,-0.6142169486501525,0.19396409360544548,-0.7165885466560145,-0.8936324383696825,-0.8490410943937929,-0.8431371046735029,-0.10945828584004542,1.787347917599898,-0.1495656004516608,-0.28173264845932117,-0.8703800392926102,-2.0071547272743886,-0.3870946472427212,0.14628238806024677,-1.572785905755948,0.8347934833035473,-0.2072877322119199,-0.4300239742111127,-0.108775365862935,-1.290315603325525,-1.56380043582062,-0.165298358964662,1.2265862098942313,0.3417128511844795,-0.5261051086664712,0.18277517293806192,0.6372210189223245,-2.671585413305419,-1.1146917690149196,-0.7229332193470444,0.2214109783070384,0.5095179317428533,0.29979055286769263,0.6492207382084892,-0.35188527542358367,1.735701696074485,-1.4620929301821195,-0.8257563555235005,-0.9714898673576372,-1.273816673569729,0.7973025559797677,-0.7191284089194157,-1.813725412401177,-0.3345343257997728,-1.7310752302407084,-1.6457638038181204,-1.0926363186447086,0.6191433093608403,-0.20260662547317349,-0.8455925294042,0.4431733964204448,0.2441876158463964,-0.020381317870408595,1.5344850676443589,0.5582005261760615,-1.282774291314548,0.28323529323246865,0.14858308643212362,0.44751701594107707,-0.7876245336569481,-0.12554047735080368,-1.1897199328629136,-1.7458760102697275,0.622782396208328,-1.2391494196217776,-1.061607517504772,-0.07137231392651812,-0.039545799797274905,-0.4166035143305925,-1.183904451840414,-1.137584079142183,0.04195789473498716,-1.7614631117795143,0.9134127408009088,1.428256510097311,1.1472384841571113,0.8643842309289119,0.15202047357878687,-0.527823755434352,0.7831499945036454,0.38441041721772046,-0.0475559378061685,-1.0949597231366823,1.2707618914882082,-0.4953843040780285,-0.7203166795749701,0.8509082709461901,-0.888565864408297,-0.4851639031709092,0.05704705582486537,0.06161080159498221,0.10983802627928856,-1.6357941787693937,-2.8359833444375155,-0.5961252987079481,-1.8334369822172245,-0.30438486048020297,-2.0667457435464525,-1.3535978757370075,-0.7070452186217269,0.24738839317682865,0.433355889244719,0.7958950015454026,0.7518925444292297,-0.18582719749319035,0.27084411931868246,0.7608693251193122,-0.15633077452600896,0.6108959963618725,2.547923602374151,1.4641922004527896,1.0165673546920604,-1.066032744747732,-0.5963600842946333,0.277211917498589,-0.3673136548322602,0.9800973052698634,0.37030285747326136,-0.1870465875282504,-0.07549034296259434,0.2512016760242471,-1.025859508561645,-1.8539634920585024,-0.33622484574850875,-1.577268155221158,2.4773040064151446,-1.1741206381456275,-0.7389820551175096,1.553468145323078,0.5752236451514099,-0.2728136381693692,1.9786202368610808,-1.786179565228893,0.6739530714606371,0.8968297883076717,-1.9464381617884603,1.6451744793059548,-0.981633079830993,-0.4994565127947342,-0.0024173539409223393,0.38040197615178034,-0.045421401496461254,0.7413961411699272,0.34104860532626313,0.2235030626054044,0.2586106672402633,0.4497236455846683,0.8316635667010184,-0.6933510394123287,-0.43944669573361206,0.6431251627439987,-1.101749783007974,-0.7758439404370727,0.9219159344753314,1.1414458637613267,0.30589748693743685,-0.1711170777172073,1.2031705121456748,0.4619711253484619,0.7702459847092847,1.4888396969401851,2.24616010170679,-0.4290348475264385,0.6105022339404141,1.575980659432639,0.9551028086118846,-1.987606673490715,0.3665174773387131,0.12861916664012996,0.4291362916174782,-0.7568324608668344,0.4827660709100956,0.586976300031409,-0.8400123360510592,-0.28315993035882864,-0.4753162764349474,1.1542559471094291,2.0408175470630945,0.4319352147343116,-0.3952361508322193,-1.6148789650392783,-0.34556278106506216,-0.05019709852282474,-0.30068443473685913,0.00738673440761319,-0.07484626639103441,-1.2466105530187868,-0.5700408910281959,1.8168650349375584,-0.8071778587399673,-0.9217866505462264,0.8326088422220616,0.04721486955347939,-0.23849718444485896,-1.5458305411612272,-0.905609530941911,-0.3996096951027282,-0.36029543193330943,-0.5391331468702973,0.9746190948711266,-0.023661125751971213,-0.5526364790665921,-0.6970927976898251,0.3281628942199465,-1.6609748393256758,-0.11796589616439077,-0.17234084306914987,4.430460191778328,-0.16503285965107858,-1.1545984797928173,-0.1578726128878322,1.3143926563068016,3.935615486760356,1.1938459567937036,0.02200042352477439,0.34622816223397807,0.4140099241807784,-1.3454993156469754,1.8694813358240976,-1.052962321470286,-1.907962445518718,0.654392474782844,-0.07647803155583757,-0.7159992443161542,-0.0776324598667624,0.6860002375591783,0.7453832722157836,-0.8861706638178206,0.6704523891216259,-0.920002583141694,-0.3176594195505689,0.29723533515319545,-0.4315943348272579,-0.3791563852931127,-0.19366087600816537,2.0291629695726807,0.20153740691392408,-0.21242738390666663,0.8660495836638252,0.934371671231446,-1.000668459542833,-0.4781477395013424,-0.4554662858138897,2.042452860658832,0.16149228451158368,0.08717033240205983,2.3902616230164035,-1.316202395512451,-1.6186729285093044,-0.09565624167328264,1.9366609654936937,0.7651590681773629,1.0377555860609795,0.29945601532190214,0.32019123611090694,0.5629643282151671,0.5195925659159186,-0.5635363221498068,0.07433320378779056,0.989711447823896,0.9949562893380494,-0.3187841066719778,1.337284296531765,-1.3377792806132998,-0.6046619560204668,0.7247728272443514,-2.256706210419256,1.2053214172664055,1.873940910627456,0.3015848525262506,1.027092404366996,0.1649969596513272,-1.570269857683387,0.8182013515182143,0.3446082291482367,-0.22807685588536955,0.3475587726341687,1.555754768630977,3.968910347957487,0.7128725153167578,-0.1351538097816366,-0.4835691996932312,0.8248825658570851,-0.312167224084132,-0.4321252648181144,0.3672394726314391,0.5831436355768365,-0.34196262003735534,-0.4172745031645599,-1.935294846285812,0.34920608495472744,0.6634072787523996,1.1770457558867398,-0.2291521753746443,-0.21135656815638668,1.2066273709835196,1.7172462185563415,-1.4689200573609629,-0.6218097879690996,-1.567707720354933,-0.35219589481140173,-1.1292183711673116,-2.8772901850862627,1.1698630917741866,0.6131503111620485,1.442661818169225,1.088702564902886,-0.43081532427516706,-0.32410525091629744,-0.5637730601895028,-0.8561386979650092,-0.622785944691931,-0.9942659622057202,-0.8618516030097795,-0.001531280072754104,1.2531719168798767,0.32218029411281546,-1.419561974111376,-2.0282834258284557,-1.484295639516494,-0.051337540126405866,-0.7233061961582299,-1.958931809880463,-1.159133841669669,0.8952398851520155,1.1907775682952657,-0.25481241698381046,2.4001737358630555,0.4772373911666198,-0.6428905583387563,0.1849325383696817,0.15132247723685152,-0.4926596568374488,0.506794028662567,-0.16293246934343514,1.353739098488788,0.6615609453344339,-0.20125532083110476,-0.6964812292276017,-0.8910464377404412,-0.05762841078349523,-0.38020249361164593,0.10048057608346272,0.2614379907705567,0.16836431671680802,1.5527332984148303,0.16116837288200997,-0.5235311503253424,-2.2333804041487952,-1.4727443300288074,-0.5140298791595515,-3.1698661577431504,-1.492722372985758,1.2857588838954104,0.13426266835773126,1.8788005700080963,0.11334633244593202,1.3402314325714886,0.8336319807864112,1.1592960143794446,0.1482668439260421,0.7487370071867804,0.1638285974065796,0.47047144147685993,0.23641121212331329,-0.15253419400996254,-0.9121376243571936,0.4736969160615525,-0.6366512169032277,-0.050419273319689165,-0.23395498633803544,0.2877704040531937,-0.23764230026814867,0.22600394902767323,-0.8196329830874586,-0.22701617916864084,-2.1216015552996583,0.968665028174234,-0.4126553517434629,0.8783325181444904,-0.6856883999560335,1.1816492620568022,-1.912509938574621,1.7731802631904026,0.8221178777917533,1.4481962455201511,-1.517897256978864,0.571573367873556,0.06998419914039031,0.024096192135753227,0.7099169263092211,0.302433506353701,0.6049137148755427,-0.30654652669995763,0.9547250373983236,0.01936270843837873,-0.23657035997261744,0.7388738682247579,-0.2963378094185988,1.2834217535137156,0.02037129949100453,-1.845911803331572,1.6228740082826691,2.1331897369258774,-0.7594636396844876,2.1000455177196304,0.37140613561964897,-1.5348088186185442,0.19603903762132233,1.1998594833636942,0.7567683855768509,1.0430011958900178,-0.43124316151755826,0.1557892359164339,-0.3182925298979917,0.9598341393422248,0.6317586004344415,0.16335806841381242,0.6464576036584816,-0.6037311133927066,0.5207686407874104,0.7434344884088366,-0.4790433187056709,0.5120242597976221,0.1780534850526181,-0.36065553029311914,0.6843817472222681,1.1998110770362425,0.8179995516247106,-0.4570624141088748,0.4506593336748281,-1.552039011098414,-0.5455339884558256,-0.8147590862698584,-0.6652435132803165,-0.19723404976457695,0.13730065981999137,-2.204536578259368,1.780883947885466,-0.3720299691364438,-0.1902325505653642,-0.557745038848489,1.49812082047058,-0.09530747573835664,0.5808251569823121,0.024444518716795444,-0.23019332103057089,0.022064163199589253,0.07872433124795841,0.9306491215727584,-0.9805258553239726,-0.1272975475734699,0.07184588208564113,0.7170334400311904,0.6759364458210477,0.2651087485452289,1.913782797264166,1.0763868565784258,0.5079692147039818,-0.82339954559542,0.6147594340537825,-0.4703406943847643,-0.7707858296822802,-0.11362873645601693,1.2475509617501015,0.09585131220907309,-1.3479365664219265,-1.1944610769702118,-1.573970898095721,-0.11227517805298724,-0.077518468394817,0.5530556805752919,-1.0124446760008263,-0.10236838893528775,0.20564925008051377,-0.14330519034356576,0.7192042137785999,0.870284198862793,0.1113444519936766,0.3754819099802624,0.20635471705131736,0.1544519624750822,0.9073095636940356,0.8328629037417844,0.16104109559072888,-0.9235909169041204,-2.1370220420360764,-0.6885352139947525,1.0189687278653974,-1.4375769597394406,-1.8901723418358392,0.36384381893966405,-1.8844999669150015,-3.1222586141903412,-1.112589514706369,-2.7573433457213805,-2.0513037743142277,-0.3762247542013192,-0.9399003374303712,0.2644021377750172,-0.1532797307094092,-0.4694527073841014,-0.03882423148476351,0.795441031522673,-0.7331972468727435,-0.4289275015617102,-0.07337661784967375,-0.8692166498420733,0.06142095424266336,-0.8443135997730189,-0.14261367977555425,-0.7873016428228627,0.40265749708194,-1.0882343861147727,0.14655892474206778,1.4119852151505774,0.8992843570174281,0.011187852873013404,0.12321248999737792,0.07535020151667857,-0.8970256167612758,0.14029117685467,-0.192840877016258,-0.7329722348609808,0.2448124642635575,-0.02811017981935276,-0.7135161056434965,-0.18374944297146176,-0.5615123027268325,-0.7797964688677432,0.23394008177567116,0.023439364428540443,0.994908254603544,0.5914653899793545,-0.14726563827981898,0.8041721644195625,-0.1577540340112471,0.6805907097298955,-0.8448339443053263,-0.9125437277901424,-0.0739913804505428,-0.01565741041529064,-0.5094621855018061,0.2376138838083924,-0.10200559767994564,-0.6487882273741408,0.27910103144968,0.24930100555561535,0.7188013452311154,0.12680580856044651,-0.6323573910213222,0.2215196837078958,0.5574169801126793,-0.5606935043002661,0.14866368227575827,-0.6120876865551159,-0.6512125484462168,0.04700176014980806,-0.5168906586874358,-0.7204537862797771,0.4285964063818093,0.8323627766691728,-0.8867184873328919],[-0.07375350759226729,-0.7279525598276704,-0.11387674100283052,0.9638968467170648,-0.3309725663090317,0.060753593437759656,0.9309186270218625,0.24013707669431095,-0.22625014513704111,0.4397432346873691,-0.3849932163552437,0.10729537447325987,0.5743103654532224,0.5931395001317006,-0.121507966019897,0.1674326911759889,-0.905370548123788,-0.9784605439618348,-0.4216552011243777,0.4768370888054978,-0.2236371381910569,-0.8251196572447268,-0.7192960168958094,-0.12735736020168265,0.03139487447216194,0.611302347962563,-0.8778977419686977,-0.9809837010693808,0.04115774965037988,0.40132673301559385,-0.62540207612933,-0.07049677695839152,0.27155084532111684,0.14465452952072555,-0.5591348912496554,0.5308687945736976,-0.38060320026858774,-0.0321664386796614,0.254228911345085,-0.383994498517771,-0.6819327659538073,0.08128061313602046,0.39893607937872894,0.808856857364939,0.9551546717714424,0.811386023572182,0.9728186036273968,0.10455739754975936,0.4533186938186502,0.602595841072282,-0.10670512237553398,-0.3579279600315468,-0.587938343705968,-0.7817432210666733,0.4679395451418968,-0.5015776212660481,0.2725590399375071,-0.9152472476521494,0.1263621258609886,-0.8202252121610745,-0.9732382345215822,-0.9439745048493786,-0.9417682802430408,-0.6370046757864605,0.1768739674733546,-0.7758642447667548,-0.35725729128410694,-0.5964761284273846,0.558816915024939,0.30909372899337934,-0.706229165599039,-0.5831483911492776,0.3993799099016905,0.8165140951972414,-0.16832364059334434,0.4336804585953926,-0.683227101680245,0.025878251776182325,0.05035617478271013,0.6469744202518397,-0.0261255854292477,-0.2436324821504987,0.0728931726395936,-0.23660943387867417,-0.2891437513992037,-0.1247858598747491,0.6296466765325777,-0.49421094878854466,-0.5283561369958274,-0.17048261604489912,-0.48938677578229983,0.5872664692012339,0.6407455579800301,-0.17014750879233656,-0.2602676547352254,-0.9797047571633368,0.5786301620160518,-0.3503018382687698,0.6688357048819797,0.8933408074430175,-0.24207835967844796,-0.03572013448885119,0.09402609342517428,0.3603484892546651,-0.2847480611696975,-0.9286486158731806,0.9144120058098266,-0.030602137261528477,-0.8644710156314686,0.4159201226126543,0.011908064829872613,-0.39133138171614545,-0.555535627009768,0.789156635364785,-0.04493080801704696,-0.4642542790723685,0.0707822010962129,0.204178322723521,-0.5915511143098696,0.3138074276553503,-0.5798351825425546,0.75005158463421,0.471489298481146,0.9105108655936316,0.6399527111213976,-0.3913751296020016,-0.1546707539570949,0.5923710125100684,0.7348493075292203,-0.6441088625316734,-0.22596852464946415,-0.5613642102005774,-0.5076050211432354,-0.01988774822625405,-0.20888598232531055,0.2934646313239886,-0.06750785601642567,0.6728975021221597,0.11285878616759916,-0.01911728468623175,-0.7040214852731981,-0.5941508940177431,-0.8411944875469255,0.02447427541008215,0.893181386658525,-0.24972650617546188,0.552297006702691,-0.6171050088597906,-0.12455511552788465,0.1375584047553564,0.8689555254982027,0.29129791118029263,0.5442941577497897,0.6106865109534071,-0.1424245279773893,0.37725600388395847,0.6267389784951637,-0.15721097786371793,0.4572053450716571,0.6693825867542073,-0.8060172224897673,0.8318568758573482,-0.5691101055073968,0.5917908716411011,-0.3087109835506479,-0.01982217623974996,-0.4879735762041259,0.8534962858687349,0.5087200034133905,0.2396040839905067,0.9953937779082944,-0.8923103905493576,0.12751939420892547,-0.8179686192166324,0.3283122742191094,0.5449180804651671,0.7498175063327118,0.3457737541310425,0.9134512699947438,0.5705222235913415,-0.5752384048681766,-0.8632162886622453,0.6548373092485834,0.590525085765088,0.5628261868869335,0.32245920265371525,0.22044141245251075,0.556098088243675,0.25694463342640084,-0.283213848863687,0.45606167040963014,-0.09017596927258267,-0.2729312490779338,0.4119556996341365,-0.7652877677884043,-0.8263482793769634,0.642219021442249,0.052973459407255286,0.8045851645354796,-0.9356297985415604,-0.3411849009226904,0.909191926705585,0.8612193500302927,0.5537829434198612,0.3347635633097671,0.05321386260828982,0.662554958289331,0.6862935182529502,-0.6294490887665573,0.879958107648637,0.0037850964076795663,0.08243757251087994,0.09460398423694868,0.11238184673571844,-0.5030373806450475,0.48478034571798767,0.6018577089594117,0.6698533323673742,0.9638991997572643,0.39688410464556495,0.2909178401600747,-0.8940897092940593,-0.880650192538361,-0.2589586653152719,-0.8161019172315531,-0.07624375542474127,-0.8631948557064799,-0.4005464403681838,-0.9528229830448248,-0.8057273097315555,0.555667211361485,0.2562070689711253,-0.7446494491841439,0.5514950908250857,-0.7298742624399491,0.5599213514579685,0.7545931200552567,0.6308373036057057,-0.3216772642356666,0.7597027348504475,-0.16605590854249133,0.942662047408756,0.33071866424989144,1.0498155386499235,1.0222724887179864,-0.700716543556294,-0.4273171436707987,-0.1403324093535838,0.4975251372985341,-0.04784815565982561,-0.04301279947474449,-0.6301694050406488,0.2005970523419276,0.30175221427933474,-0.826452577110246,0.8486205138823358,0.676094556890889,-0.9231755487217974,0.31159734988758037,0.719021123051568,-0.38135594346284374,0.15959091814027157,0.11093267155606204,-0.7287801617177733,1.0010069357700768,-0.44162382821972657,-0.5537373556634101,0.07964098024456516,0.49581643074284537,0.736080489742433,0.9396177798352664,-0.06222063410488696,-0.3147495531317422,0.6076335048312641,0.22322986117746052,-0.4421284644132938,0.8467959400368708,-0.05703603247934909,-0.9554593057872972,0.6303053070079159,-0.5160138312271625,-0.5900569709735937,-0.48399564373393866,0.3364765039561115,-0.7704950698705728,0.9910435786337228,-0.6453931947347045,0.9006850783136495,0.016978036515995033,-0.13203343931268238,0.9564033966819788,-0.6476678924718045,-0.7005118674531327,-0.23090537668915811,0.741767325756266,-0.013693417813619147,-0.43990463062078256,0.6188541852387263,0.7620642709446054,0.9762731799404132,0.1033410036838164,-0.2739347517122266,-0.3507799975311887,0.15286713747597933,0.0884267226808011,0.46443536580379174,-0.30628546946908414,0.8674870907633943,0.9996907726674702,0.25967985656096615,-0.2867777655898415,-0.9066043384586456,0.034596992519722376,0.6288908175271367,0.4516066044552235,0.7651421666981749,0.15628222257959087,0.7441729459822014,0.03842098427256708,-0.03589073586549138,1.0634284506447058,-0.032109377601487486,1.0988517311885504,-0.6103893304647899,-0.4731335060249175,0.6727314992670217,0.452366693445505,-0.1041416476351699,0.16495352174095623,-0.49791622070745384,-0.9090873034405464,-0.03447020410059302,0.5895371900991312,0.750627307087476,0.4993718002918847,0.285416858773369,-0.8617752090205097,0.4561785317067286,0.40488663342413406,0.4728305646574752,-0.1895327732582706,-0.15865275399947645,-0.3787049096721915,0.6382953676389013,0.32533608485601595,-0.2430935959030367,-0.2935305622076514,0.324906537185473,0.3833017531177187,0.583742251585178,0.08692683441643012,-0.37272740580355607,0.841952281106526,-0.44673433774809707,0.08263318879093728,-0.5880491766707124,0.17310748779118643,0.9920218007387924,-0.214017117466472,0.1077269657072967,-0.7043043163105526,-0.7878853010710652,-0.5485594106892608,0.5665782763625518,0.6358358562749311,0.8518852837126039,0.8302330663704932,0.950015538937578,-0.7890510184876899,0.7576172569527112,-0.1798620416545359,0.7180294285787461,-0.4689985930789599,-0.5695720406306457,-0.7342094025125411,-0.30777304980769593,-0.6466062438327086,0.3871229114584591,0.726061047854979,0.4083066795478352,1.0680949064460783,-0.23460884360104525,0.9509509604296292,0.5480932500377484,0.5310729554835576,0.867616620523093,-0.7779020705264678,0.5292944503361908,0.4073168845359772,-0.23923350089295975,-0.8605227985293236,0.756018859163821,0.5669940880644493,-0.5663371712773391,0.23314966597559209,-0.0946797654332169,-0.6898237542842146,-0.8501089316469596,-0.6683465053978659,0.3027126787547166,-0.3684458402166483,-0.05388689806057141,-0.4412605410525595,-0.5775832095892875,1.0990362380674423,-0.559926889349735,-0.4953727224750055,0.5533033963522473,1.1700021730725123,-0.04329685462553548,0.5027271789992731,0.4065386981700045,0.22912923187933976,0.05571754706272847,0.28565256656633503,0.5987747558467947,0.982099929152894,-0.09547144761044156,0.7032896762598845,-0.02520348261507777,0.9880025387638802,0.010337682713722485,0.4686026298304935,-0.16783588736880722,-0.4629013917022011,0.5273295097024214,0.7422427732992583,0.7595597860664393,0.19502463266508088,-0.31825302234933844,0.8131759179156164,0.4446445004076857,-0.24125530165910977,0.8141982312825348,-0.2288403090323672,-0.0662346547030353,1.055056753240198,0.21972996389108368,0.1606809757134363,0.25207097234097275,0.6863382572720099,-0.7961111215548763,-0.6810176711350429,-0.5210731596932899,0.8460066408256168,-0.8328487824067858,-0.30956231654444766,0.15533741327756467,-0.8399337069166755,0.12889740569396024,-0.13787313651377758,0.3900272467604275,-0.5244119455837039,-0.07257091445723614,0.5122317683228607,-0.6919018232973214,0.2493727049228196,-0.11137686983043388,0.5269123041551501,-0.2270864494318976,0.6264654405585958,0.33396013254377455,0.45363881564402575,-0.12751860734570455,-0.44442080394926325,0.22868433623583168,-0.5902084358124075,-0.80673977178056,-0.5184505328091357,0.9211820936828912,0.4078764245683638,0.6997415655059337,0.005871719276031955,0.7823210380788056,-0.2828000940482229,0.133212301362726,-0.765093939722099,-0.44605124956315567,-0.5142068545390944,-0.6882278545090238,0.6132193698571401,0.052445625398149634,0.789308651142477,0.1375677523128931,-0.4962191793105169,-0.011205106918941584,0.16786359218561958,-0.3522542626969314,-0.28820519271281325,1.2269640622207934,-0.16760783514937402,0.6941082081885009,0.2527162424819292,0.7906401484805139,-0.2575149191059313,-0.7978831995893219,0.4152193605165008,0.9880368069892866,0.2941391493435302,0.5893679949006598,-0.8907916849757407,0.5611591873342298,0.6476784566955691,0.9958869649914952,-0.6667591713379302,-0.10724277730987852,-0.1082151715016326,-0.618582818506818,-0.7967330738813664,0.02587917590270764,0.12089985631676162,0.12372097755784296,-0.7483964850419113,0.975424337947823,-0.2987258775877154,-0.34027965470725763,0.3698643738000259,1.2128140132718193,-0.1038910173680418,0.436704268403173,0.2553882885451068,-0.08383970198666427,-0.18680413958035533,0.7831527589734414,0.413038753875041,0.3907665509278771,0.42905031468824256,0.6450607936436246,0.02110659684348006,-0.23478074561868187,0.38155645125159854,-0.0885969678962113,0.887493600092933,-0.8705709926889351,0.6281510731781245,0.1030101175768395,0.21753914270699232,0.14829480719622914,0.28201932829519377,-0.36166324795180055,-0.3842700290933117,0.9473730514886692,0.38332511090788246,1.0514744552003603,-0.3065583229080472,-0.6120095818116172,0.40708687224667744,-0.35274110776128814,0.9997862426835544,0.689886760981476,-0.29267489101153793,-0.0377889484046804,-0.19489228866261069,0.8225715956900037,0.31513153598287835,-0.803163719165776,0.16540756223627123,-0.7220671369223697,-0.6254162894154922,-0.9239947872558608,0.6032731343572886,-0.91297911997282,-0.6200992986623756,-0.5329591666850056,-0.7660407265981856,0.5216033315728744,0.90572863196225,0.2838821584763776,-0.7551907969819082,1.0457009943899784,0.1210591649590658,0.636857711847559,-0.27981597104223965,0.24418899112595135,1.1492795253312726,-0.4027309505499253,0.2105328739854803,-0.7509572698135201,0.12224215070065582,-0.589610530949145,0.4274824722173437,0.028561241430117755,0.2215808487880702,0.016440553261010134,0.07858701775233369,-0.23652451250221107,-0.5295259348612905,-0.4476657215533893,0.6709719650624351,0.33040974968181214,0.5256298047272869,0.5599805586323385,0.4282607743105058,-0.24102042022585057,0.018308685762843432,-0.3185584719297474,-0.40045353636120645,-0.5712310857017785,-0.11555124615307288,-0.5629459955504147,0.9442263934571916,0.0908583847703009,-0.24136520523284577,0.6641682931193508,0.5186819032181385,-0.4492807966219294,-0.8886377739905124,-0.4081996477864918,0.32646017710680625,0.6649649923305152,0.7473938514065338,0.03932749791028603,-0.29701421087246627,0.6273434763470475,0.8194570809313744,0.04709229561615991,0.2802202677821297,0.39220046401217457,-0.24706200566948627,0.7071144543724588,-0.09328561507661012,0.012612695173181627,-0.021850249846005854,-0.8183677171360301,1.0232574448789156,-0.4149555148190042,0.7957638922573967,-0.6515316375652238,-0.29435359333744154,0.5388722362540865,0.8088200267234803,0.9903129928227906,0.18385986117736583,0.5951283593224794,0.9126114616757284,0.8850690419304014,-0.6610170662400634,0.623583490797355,0.2011630817000684,0.9247320796083308,-0.24119234111984503,0.028356944488543416,0.1407163588281899,-0.5423621082518051,-0.47113546347652857,-0.998300291706395,-0.9587715019457572,0.656787464713663,-0.8308591845833726,0.2353886120481312,-0.4317437339836967,0.5602252960075111,-0.906326686870076,0.6569244600744887,0.27331971342535705,0.8349570670661554,0.1067575748034892,0.9967309925514282,-0.8309112398021834,0.29883482197414957,-0.7301268959590733,0.6659675473308531,-0.0879236865808339,0.4378432556963036,0.9147277583653532,-0.8740925225644354,0.1045581093305402,-0.6740092241649758,0.056844495691280014,-0.5993378851836237,0.7595771654075647,0.4472795912907559,0.7138001416267941,-0.2520830194508141,0.2974702182590847,0.6904591095802375,0.11570650409148696,0.871631761258789,0.13516167725932063,-0.4053872623995154,-0.35026762818197227,-0.8809943465178266,0.6304613882952189,0.13434366697772324,-0.199786521923565,0.5256869537946937,-0.291277859210477,-0.6879442967421341,-0.09523538883368526,-0.6753432739290665,-0.3246852975962624,0.17831242957649449,-1.0011767953449495,-0.2445524602257123,-0.6392942314876958,0.7218583676700587,-0.9898951438618482,0.7105519710577082,0.3323602851667935,0.9983305689885128,-0.8888168451220384,-0.21016989569331512,0.8696631670228894,0.5366989960822418,-0.0479697336087993,-0.8006824297554491,0.32325210529887516,0.8367322385627163,-0.665469556813625,-0.13543669318158216,0.7287527463022562,-0.7251879458835285,0.7243424196616515,0.06489979383039114,-0.40310664410851704,0.7990054906104463,-0.2843923943199398,0.6388713418263565,-0.9601361612997344,-0.29485860215251647,0.8839862162093323,-0.3970530072515968,-0.33372232385572004,0.1608030538107104,-0.7766954159181811,0.8318898459247146,-0.15447037326959023,0.8246372726518234,0.5433068515610933,-0.7354460887646321,-0.9034859289550372,-0.2159393114060148,-0.5407610659410027,0.261749650466425,-0.7395478536147082,0.6862746950634512,0.7002892138321092,0.7606053972340759,0.5952157298866209,-0.7465665057560866,-0.20923842923978817,0.3313040449593778,0.7763856810064067,0.7707627934793404,-0.1723861249041826,0.6219132664078567,0.92133289401336,-0.18446217372133455,-0.5321986125873326,0.467078275088605,-0.2530012309223164,-0.8152045280366658,-0.5865046919183776,-0.944073362038375,0.4738357821517354,-0.2894008793395264,-0.8335505542327235,0.5046053180099164,0.4901135836800932,0.8086413547690681,-0.02982486702408993,0.5729140840461237,0.6359707896963337,-0.6101857446478,0.8732580581926799,-0.8633994422022648,0.7652078754722796,-0.36742145468827325,0.9343368613712704,-0.7203148139601068,0.34772891399440325,0.2693643066251686,0.9619835755707148,0.23096860354140583,0.9977118851392898,0.21410292497470795,0.30417046619998733,-0.6084587711055884,0.2617090984255024,0.2983123131037728,-0.360892335790421,-0.9885941902367424,0.9628298620201954,0.4946434274249685],[-0.3597691322412344,-0.6517660440000594,0.3919519790873509,-0.7217866893380409,-0.10927639793763055,0.599825605445621,-0.4101584203960533,0.1450674293493459,-0.39674020623733486,0.03123906962918288,-0.3872336163405348,-0.985363558570798,-0.0684022396902324,-0.4387704174991831,0.5111495303853739,0.8706750452553771,-0.7713161520991665,0.22812576228221415,-0.8094113065563713,-0.92824439218031,0.8251843570054522,-0.3900631717539611,-0.5180217671549106,0.09030351304860051,0.5178533367357716,0.2609761374349404,-0.7968706621897983,-0.3633685021735724,0.27827488438982373,-0.7031432478523625,-0.18549598950353152,0.915426243716869,-0.8071477460190082,-0.4650422192793664,-0.4515641846589482,-0.6756570162368241,-0.3499021436707752,-0.117269268735122,-0.911729112122395,0.8415285620364749,0.2929504911395564,0.8790700144685235,0.6984056273050483,0.097264053254942,0.7633333327639437,-0.6972360935275799,-0.4536117415414566,-0.5635345913148984,-0.890333352620365,0.7259343887949772,0.10502262049847257,-0.17216260108344583,-0.06969786668419786,0.9311005414439472,0.9070755985145303,0.37938409911911886,0.3625853303557036,-0.9787695743220376,-0.23680773468530525,-0.9293993711176298,0.6615897554239034,-0.9217620892903856,0.7470342188063006,0.6751284072357984,0.8516120750724707,0.5887461577389725,-0.9628685899221928,-0.901627973565676,1.0498125784302383,0.6257612138665776,1.0462575398853855,0.6887402279328596,-0.936656964707156,-0.9240759147747662,-0.5142123447000132,-0.363595615898232,-0.22328033165659764,0.3081980262657356,0.021460868118487235,0.2809997821031497,0.24105908747491345,-0.42385533406285014,-0.2575770733109437,-0.6308966543935395,0.17943923070547796,-0.5193876439924621,0.434078017853724,0.6670334724287255,-0.6845469901116876,0.408405474058954,0.26609674041053255,0.46325384907962097,-0.8273854150013346,-0.21479335588967233,-0.1975468626257025,-1.0109505581597689,-0.07362620587495285,0.07832869073290248,0.3544690427212755,0.3774127307007691,-0.7878001410025008,0.4483635780672304,-0.04893206132973211,-0.9321342713970088,-1.865039284544941,-1.693734436009892,-0.543777324333455,-0.7028390988153337,0.47928921614178455,0.5198341869630452,-0.1766504202444108,-0.5021537589272875,0.7900988268905762,-0.4292854446813166,0.4958165058979609,-0.5074831611943016,-0.473090777655948,-0.8445868270901993,-0.8624879720719865,-1.1615940007690018,-1.550994467130456,-0.17757401419500224,-0.7490513688983319,-0.6995641494203255,-0.31989569251474187,-0.8175876977880709,-0.006360686825630753,-0.43190527447178007,-0.9028913337997015,1.5834412694726014,0.2177772236858848,-0.3050785062123001,-0.03061443756943183,0.2452024214909494,-0.8271400653635034,-0.5236027223129555,-0.9650581910658752,-0.36043142187241806,-0.1046754530017322,-0.5596992670103507,0.3726525829227087,-0.5442934468594636,-0.3694207595638208,-0.8623843411968731,-0.6013807296211998,-2.230791898552559,-1.2332308241946548,0.07505157440438678,0.16307810331371822,0.5283517963637233,-2.0628104624609898,-2.8165661113614218,-1.784866133069991,0.871156534922349,0.6535592809444776,0.17369926936644256,-0.6868280612026636,0.7295940329416143,-1.094277183139817,0.7133644027243897,1.978571660248767,-0.21286188182120844,0.2044213335480189,-0.490166863480813,0.3634150212325087,0.10523891158453412,0.090235443537637,-0.26641635804319463,0.24387614958881643,0.33326449361476085,-0.3189969863045419,0.33673175930338645,-1.131735722497098,0.3054180539043647,-0.4081681628322042,-0.5926177618907422,-0.7553892349710769,1.6060066418568617,0.19863609601353172,-1.201438920498255,0.6674022052277755,2.4262902331843264,-0.5852118754121127,-0.6337033773731646,1.970644533406596,1.3333002574030512,1.846005868585576,0.9919706166918694,1.2271734442767026,2.6256204222389985,1.0667072260789323,0.8847858590273416,0.9895859678634992,0.8718053531994885,0.6395995251931712,0.987399772093686,-0.4666876301662168,-0.635401984177026,-0.6715502640515201,0.4161734379494476,-0.03384101950408064,0.47867229534440264,0.1526119721254783,0.7221458861654986,-0.06954922813852943,1.1320695594378043,1.1758361233982844,-0.46159678669836773,0.6218883196789231,-1.0537287160206816,-1.02295281624367,0.7048055574149037,1.2868550257488067,1.4526945076092657,-0.500200613060889,0.279717143722446,1.4737065508619671,-0.4394146452598792,0.08197451029058567,1.1751007829404445,0.8782346559876182,1.0207404045825803,0.7182001300635548,-0.09096181979589384,0.7005366233870673,-0.07621076547493,-0.5250929774539969,0.09343634937467515,-0.8697114925134491,-0.9205893027334048,0.187043613721256,-0.1629406659448158,0.30292952241525567,0.2429094087471468,0.24488727966799723,0.6148781129927666,-0.7521164294740887,0.004705117813127185,-0.5158481393713826,-1.1177189508599277,1.1634114974594632,0.6135247972462301,1.9881091747551,-0.967958377856047,0.6658261029802116,0.7700231188802636,0.5303879624116448,0.6058033477108627,1.669152187165572,1.5184809529968524,-0.886291253849236,0.19424118870827933,-0.7659672594649118,-0.3981562990994282,0.23940118004975136,0.5193968751800728,-0.30398379388293945,0.7376844943956996,-0.8865125964503675,-0.72642329287246,-0.9597935522356696,-0.6629890754148714,-0.22004169432392187,1.4789855397422846,-2.1396180897798205,0.9488269903126224,0.4568200746061969,-0.09694331204515308,0.7492385517925568,-0.7093764575527985,0.3597466815393938,0.5638982714491338,0.26927632468308066,-0.26465956005321006,1.0958740034299932,0.7737346398390884,1.5058705217392725,0.21813274899969184,-0.07630765058829345,-0.6654880996609256,-0.2999353585515532,0.3759079645602263,0.20724076629943025,0.7126733419365125,-0.15219851809783,-0.1078841909617734,-0.524581166677926,1.139549420125301,0.14522973128495026,-0.18756176030590857,0.2677687693557475,-2.399568405705955,0.4325366981513959,1.2964643182261368,0.32948540098169904,1.066527347291813,0.4520149152308539,0.13609288517035437,0.2853179863500528,-0.38016993394779464,-0.3163696144752548,-0.6065309606038692,0.7544154131394003,0.838754162279248,-0.11796171042562696,-0.35449801653013613,-0.6113798491617037,0.5726787628425594,0.5499220222643564,0.25596345322361236,0.4839773547495465,-0.4979243713701299,-0.8328643279796648,0.4123826941742901,0.4045033349221304,0.6653714818958792,-0.4064414270888635,-0.493975380258889,2.8904618567678475,0.6704408698154162,-0.35327574817298085,1.498653175687562,1.6042390510485247,0.5886093418249037,-1.8878788751450135,-0.8805485414725701,0.03222336465116747,-0.5428053375190451,-1.1191862298983255,-1.8292098592868884,0.40923763201844365,0.9686082523695124,-0.014555521952971794,0.5298883714755875,-0.744319077385194,0.6489791096366126,0.4322877960832183,0.6979264450314755,-0.6197867988576669,0.31616225797892566,0.6647647146598318,-0.2587360224477294,0.021917711905507377,0.02423586643703096,-1.9057353250792697,-0.46042646699498385,1.100013820615661,0.477042098060898,0.3056526591424619,0.8426808385512614,1.155087486122579,0.9536168104092622,-1.6381716242204143,-1.487250412715052,-0.057601825025276776,-0.13767490362170423,-0.2675584474894837,-0.5147617937324981,0.5161767535394315,1.0421249645565986,-0.02063271264368254,0.4426954870760988,0.6355596558519502,0.6914452004050686,-0.9429297268396748,0.6649347078310577,0.3193819141393925,-0.5044906744759767,-0.6806708926174858,0.23281232644547584,0.8575339819405422,0.889819682724002,-1.3474644075166922,-0.6265340279688092,-1.4345827851605426,-0.433279044753361,-0.08237814448594905,0.33586219968360803,0.397438338565839,-0.8252398876401492,-0.9780473977917038,0.31239474314875615,-1.0466094126862142,0.7307985559894093,-0.18928629593894605,-0.2320518506706594,0.9019223625559446,-0.4095534548915965,0.16947209634385332,0.9455341697072166,-0.6271557102828748,0.01889819324574682,0.7710379488070753,0.5546446666724587,0.7727097398246956,-0.8965701136173712,-0.17822200315360387,0.0015242195722561195,0.3469288482386945,-0.5734923023612037,-1.051303350738253,0.5839138421570653,0.39788096201189505,0.2851636074952604,0.8464830199888231,2.090312543335802,0.5668812418499567,0.05963271893175928,-0.1851423317154345,-0.24955083830305727,-0.648871352515187,-1.6359782522782669,-0.2103634923319199,-0.8049740895442103,-0.7075778173401703,1.2232748830469076,-0.3031179363035097,0.789091371173223,-0.4566073831644474,-0.5919503417809708,0.53526601908531,0.695781990420939,0.8258908389171777,0.339941053593287,0.35901265036518737,-0.3733572432284377,-0.3259773139598093,0.21610578411052211,-0.2175389377799656,0.007245532874310256,0.6666241674399553,-1.006036366080287,-0.2530027340343472,0.2081992280029111,0.14160708432626457,0.03766506329394363,-2.031660549051765,-1.62731548403556,-1.8419337198990893,-0.8648917984515179,0.6452800232917751,0.6274072587795068,-0.1393917721666723,0.28107717924240777,0.012525059815105424,-0.8262606935098676,0.6575941431910891,-0.54825528473383,0.06493894169078285,-0.6426420484437501,0.04860460766634386,-0.29606769167016017,0.0894804860843193,1.1862294578755723,-0.8357363823752045,0.5345994931447449,-0.35855596835157305,-0.3072164316477507,-1.1232796237422384,-0.7064458939322692,-0.13512546389435667,-0.14484554823764187,-0.49690916275006225,-0.31933936680315744,0.8308797810413456,0.839972909383045,-2.2664524926974936,-1.08035774313503,1.2013806693062132,0.7241348482307745,-1.2725714826962946,0.7922376546980797,0.8273814709053233,-0.885136267119449,-0.3390620378265566,-0.92629563426333,-0.7630806029680697,-0.32786524153207774,-0.5651615755067058,0.4972685073004855,-0.04036997752770019,1.166123984960236,-0.16733210146042504,-0.05648733781023885,-0.123353672493086,-1.4517307689859595,0.4199931583193344,-1.2705145190119476,-2.0609338805437596,-1.4460220308606933,0.02320564557081542,-0.7975987549863995,-1.4919799348099638,0.6079151504076519,-0.6710310235764818,-1.8621708258570424,-0.10798216333782816,-0.7617643134146532,0.5118758914682001,-0.8012264087388967,-0.9827110717949108,-1.7814375423325015,-0.6178474253602677,0.23535379757168284,-0.9757924163303122,-0.06522352602822412,0.1577765854506946,0.8841866308573217,-0.19249046632525577,-0.3094059683882088,0.012909325214294606,2.5030859522832047,0.3813811971473097,-0.4228739456758048,-0.10289880687516416,0.5637920130481086,-2.5615145954984384,-0.08558732673115002,-0.927431048310621,-0.008566533327833083,-0.5335339091672058,0.44053789339184474,1.831459105962604,-0.21576134348058107,-1.0777648931407462,0.12310139791141562,-0.3497732494092316,-0.10524157074313144,0.3426674417039066,0.7688166828880297,-0.5413362372865387,0.760681604790933,0.7422882505532602,-0.6701273359059439,0.5261128164673703,0.6823950229387054,-0.6602125156725136,0.6156580948987496,0.5320753808585669,-0.4296055741343896,0.32224668625693204,0.9869986275377952,0.611287482497227,-1.068342926527348,0.17294467464710278,-1.0325975249985817,-0.5068225098729188,-0.7934791126539055,-2.0513358401539947,-0.4270836682550024,0.21707033115985483,0.4242156383229411,0.4784461264551296,-0.1156535876758314,-0.4430842580782014,-0.8729139402773584,-0.7121015030043516,0.3739641396343075,0.2695121660131652,0.04419284393103706,-0.8770153835292556,0.2686045105173951,-0.031582482384155015,0.8984109626271669,-0.9476645780858368,0.7858473589054666,0.3255033880150071,-1.1459915775194738,2.2613363139584517,1.0164884628688993,1.3210870942528663,-0.47111721125147954,0.7144075089661387,0.7789736647741662,-0.4509940408832321,-0.1856710377205296,1.3178445442451276,0.8467639331805943,0.3220123489237624,0.09828090015826606,-1.049120490684892,0.9935438654178078,-0.6876477163336756,0.07030445916152193,0.04419147634137084,0.0922599888742973,0.917179067319537,-0.6593152142695924,-0.43185093132579144,-0.3384908900126322,0.6006691470252926,0.618495583053864,-0.9646807164688777,-1.0022116849904392,0.514883952743983,0.8263718562369122,-0.3514583396574052,0.20476418264022064,0.49133901764121546,-0.11806089178061156,-1.8917181224290545,-0.9172274737655284,-0.46756952003223623,1.6830594987574956,0.5747830394443018,0.459460146217844,-1.0946359018274463,-0.7718558505631018,1.1242348517837857,0.7159662583061138,1.0712966665977106,-0.38739515192505847,-1.54449110418412,0.8769182333650977,1.0767271677792558,-0.20933900525226143,-0.24781696746624385,0.0920967876747394,-0.6626227335851791,0.2801968177297339,-0.8787751486903758,-0.8315466411685782,0.041018194503028696,0.7306317525918877,-0.49673532068315335,0.614251766383217,1.4670815258821146,0.8556754862156175,1.0430007132743933,1.484296115583707,1.0321585373365836,1.9445023091439215,-1.2960671642821315,-0.3708343633910933,0.3023184392706187,-0.07133300306217875,0.913890269902941,0.9593158924217412,0.02005989302337031,-0.0366102388122567,0.3112976918916147,-0.7075604955715393,1.0814949667748808,0.9142472822184762,-0.2329900564422505,-0.006774013839010218,-0.3259518461008781,0.3731055988588972,0.2539928146274018,0.2568350958136741,0.029021441844268508,-0.1978757270882707,0.2630289184757709,0.7387387786530255,0.4629767340296984,0.5052709985434534,1.913363399562682,1.2227015225087907,-0.2435085908028937,1.381708221719512,0.22293060769410036,1.6001908527584092,1.1406333256821657,-0.561135375557164,-1.1552834519180832,-1.3707743913704489,-1.5459457909125591,-0.38679529738144064,-0.8419246538175654,-0.2896929340851695,-0.4891809885159104,-0.16415357546933507,0.01638649647706325,-0.6520336461114944,-0.8830448947438256,-0.2463346521516514,0.37039617597872543,0.21987477388613968,-1.037271450556963,-1.1746421139749876,-0.9795239837789776,0.33659804442693203,0.07644759850633301,-0.9179876306724226,0.2457736346007703,0.6467943355141021,-0.3885322801139057,-0.6639747135603647,-1.2130240497973626,0.4985360582053548,0.7248311400330771,-0.959070542026271,-1.5773915804804497,-0.8391797335081926,-0.007838502086646632,0.5750638580646698,0.7757397266264467,-0.9176369651858104,-0.917198602179396,-0.644261689782061,-0.1954578005117773,0.8157358577770268,0.3398023663458942,-0.8472976375921953,0.24399441798708427,-0.5209316457773421,-1.2989066153696711,-0.22950432536468376,-0.761656321420672,-1.7249558166445011,-1.305893853244831,-1.5929373277927734,-2.0301340799279064,-2.186757766188696,-0.30529034787141185,-1.653975250232642,-1.0391411204570609,1.5528312323753624,-0.4731983239585613,0.09006929810996635,-1.0429578383317637,0.44420837214653336,-0.8573543643209987,0.8548891667574307,0.41432264962956783,-0.4065079389976092,-0.723366163340768,-0.8064441716179649,0.5399849100653911,-0.2810872053004052,0.8502658884093803,0.6476677241119465,-0.8454117130201872,0.09333517699224832,0.08036450329780372,-0.08437339106528463,-1.5725714298025604,0.4573319543170262,-0.9948189449692058,-2.014470878204234,-0.23565210334457923,-0.16316566981614614,-0.690011550961885,0.7279027242506698,0.0009722787559953612,0.5098518539312458,-0.9678229107064804,-0.23653560755084943,-0.6037093341284346,-0.32007383963124425,0.071334870906826,-0.7632698172310235,-0.7602380527739232,-0.3673199200839586,0.9014977303213588,0.4267436129338167,-0.47474035149851823,-0.2929269619836714,0.1619323874842311,-0.6296350453488002,-0.3199109545248209,0.07072814504365538,-0.16117214412462438,0.52837227422536,-0.1250737922764474,0.7223617474256339,-0.34132689025832874,-0.9310734763251654,-0.24071939892945288,-0.7831686364650173,0.7220022297012983,-0.7250163017481062,-0.5227106505047634,0.3644918649414387,0.534766799293825,-0.7565355543711734,-0.62048437996987,0.42261596463932993,-0.21842235943629085,-0.5516857973553733,0.6119297758996769,0.14147585758262382,0.10632337405068172,-0.46500185312882825],[-0.5840860930576628,0.8636561198773962,-0.994312086219936,-0.18435497659826505,-0.5038489921522349,0.16900463931088394,-0.9711192008340286,0.8686606072287115,-0.6103194843030764,0.3371280788425681,-0.42654220836789625,-0.8879198515729074,0.8160669666534881,0.27246193670991437,-0.8370883036440626,0.8060791048621414,-0.9130466045162478,-0.980516043976978,0.27968807643543325,-0.9010713625221488,0.12030103306735351,0.5907622565776554,0.8182527006972331,-0.6285502143424202,-0.8948488103439725,-0.8259722197574171,-0.12470519005306537,-0.5544397185790324,0.17267228793117462,0.06272718108005648,0.9765418931271056,0.2951845834130784,0.9248460334227788,-0.5361658363248794,-0.20031125054865304,0.37231163408317824,0.2397792059397348,-0.8368272774502674,-0.08555722066536604,0.34334984274758523,0.739864458689993,0.13642619781608115,0.26998883431471565,0.298138438032508,-1.5646047712053313,0.3523201710298079,-0.7511937606901613,0.5227661984684404,-0.9849602905036894,0.17852929040231524,-0.593861526802199,0.7231013815558851,0.10612224102521096,-0.9602549649697256,0.1611840342659836,0.3094612005354007,0.4834514625312951,0.36730376988057656,0.3450567281019836,0.7082936951665699,-0.8707708422940619,0.48706952613996135,-0.5823644552703309,-0.41394195139663914,-0.7301695513888291,-0.5125872572901693,0.9764693539683288,0.6838109790957162,1.3045801628229126,0.7033474270053085,0.37063462743180103,-1.6585402227707784,-1.1378721045708051,-1.6711486212737143,-2.06227068736967,-0.4741592724807738,0.163742343165407,-0.6402261201080331,-0.9989111589684624,0.8600928069526634,-0.009753867219587598,0.33165043150570206,0.5228589573276134,0.9455221014312708,0.6552015674491583,0.4281505913494237,-0.5781415892699193,-0.9039547588546546,0.36638582557403665,0.7512270210622287,-0.1892454637774899,0.38456967459958624,0.27335078923694545,0.9878354203104854,-0.6619324461983496,-1.4181321018720925,-1.880369421957662,-0.37534706484607777,-1.5009913359167182,-1.1156511624887913,-0.26841080522224703,-0.8439058088720864,-0.9619387136474048,-1.954785112391037,-2.2394054474146468,-0.6546575052889932,-0.8923954391425029,-0.03342710032032185,-0.4412186604097083,-0.5825822783848111,0.33191495182306596,0.7593002194573295,-0.1946358511865245,-0.25593622976222963,0.5655132408734285,0.7790207879642403,-0.7594527330873962,0.8056177274237316,0.0071521981925749285,0.7170065087561928,0.33246148333502906,0.15848417130719064,-0.9666603943165264,-0.46082461007730446,0.3025146965718798,0.3277482686143564,1.2263677004440958,0.6367716220675476,-0.49966363267886543,1.09836778540544,1.0045875868593317,-1.2079292902908827,-0.08968300782776607,0.8733095690357133,-0.6476045288186293,-0.5064827748921058,0.24054615902822693,0.4846452857741981,0.0937444864478223,-0.08946076497009892,0.20398944682856812,0.8246265587540302,-0.2204069614711619,-0.2713057162771046,0.7871617163971519,-0.09965728473373472,0.9995801362413588,-0.07873217720414202,0.486307173385897,-0.7916876458174625,0.26602522968318704,0.4439997851021105,1.3173249888874528,-0.18245629581276016,0.2092256456753853,0.3070432862457513,0.09383252374866306,1.623597509366852,0.0652849525744581,-0.23867125095034883,0.9638332707428522,1.3672402617656754,1.7716221891549917,0.25254706604108873,-0.7708084776726701,-0.9145870920132622,0.4911456212206517,-0.992262017877481,0.5621236257096203,-0.9320825979645868,0.07396048470730987,0.3618787079562767,0.7273164338592669,0.30424601922109157,-1.1243940783347628,0.6511829301954314,0.7024980710273281,-0.6547696682943134,-0.8235571307323953,-1.172644236273829,0.24435894980355943,0.7684846817818202,-0.7255222432165546,-1.2656311661473238,-0.036606222706637805,0.436985538016381,0.576546334605718,-0.000616139994669662,-0.44376941364941863,-0.14043552669118783,-0.3468938414975649,0.21961757126114936,0.09261749441639938,-0.6538043519587715,0.9489327789512036,-0.07940130082100989,0.8631832786506206,-0.731175454320002,-0.9366713599892744,0.09759211380620032,0.4414999516265051,0.11414347210187498,-0.5014764269026988,0.14892374772914246,-0.2294803335858251,-0.8194710349554614,-2.333261736549531,0.3725147651150874,0.4468763495308695,0.6297729482843055,2.4890477102499906,0.9486817604400964,1.4719399527197807,0.04352013380573089,0.9777939608791684,0.41995041429578506,-0.057252146594447995,0.787842191267349,0.28023825485116216,-1.756014770069861,-0.6354511798647408,-0.08570955326596615,-0.5261240370197569,-0.4316082734615824,-0.3944945847426216,0.07689276450248084,0.4694159306231635,0.3311291398950842,-1.0900912457875205,0.6004665402852383,0.9062542077653876,1.4741522492864314,0.002944115684791145,-0.3456538681889302,-0.8468341000524462,-1.344727522893499,0.6473782054826777,0.4475838045566989,-0.5872041375842915,-0.060978273147892205,1.360234824358712,0.5265364190294342,1.4913289979581876,-0.19539523632604297,0.35582923379790066,-0.33112166231739176,-1.5625520426987998,-0.7237586295947943,-1.5123768870295329,-2.0936415595134417,-0.9776832368474532,-0.1543688164506516,-0.07343809296722514,-0.3227684869889549,-0.6013846173420616,0.1892990779615272,0.4495494358084241,-0.25365316824644557,0.7141376224426039,1.3210519786393151,-0.6369043750652242,-0.377197660780665,1.466674128766139,-0.01623103293147951,1.289180699009385,-1.163461586852117,0.15024773279437,0.8882448574369718,0.7508550989318165,0.7509555795913078,0.5373182516305364,0.4559305963104941,0.3410866851245912,0.4061137466140768,-1.516868182156289,0.042751570167100635,-0.6658714229335593,-0.14726324527560006,-0.33553415420676264,0.1981656969569774,0.8213462433662075,-0.1765894427398939,0.054055605590920805,0.9158236169145596,-0.5039949291076864,-0.12603646285004944,0.5562519211590519,0.9116623768622596,1.0068910986918966,0.22580340072004532,0.09162030302430885,-1.4909339469416951,0.17860258482969835,0.4231937503490819,0.9591691544879408,1.2066340975917509,0.5655412677347611,0.5824693997624921,1.187647343739921,1.3066716289517752,-0.24084644559373616,-0.6665252327932873,0.1797306755829785,-1.5035680153727913,-0.944398060649042,0.7184732935725089,-0.7764894480527428,0.4823748830046175,-0.2790002233321498,0.005455470478235913,-0.4468915335114057,0.47813384884776006,-0.004815503872954502,-0.9637466916017668,-0.12624703878548874,0.21005010919361833,-0.3339768856222014,0.36519492490525113,-0.740960526212218,-1.280189959303073,-1.0433906259004888,-0.5203760852893707,-1.2591045166592751,-1.0442383052225026,0.2593860148242135,-0.6963063237617434,0.8228653832617793,1.0781205458146832,1.9777674872099549,-0.4385404664195427,0.17470379871598293,0.6429505365307098,1.2474356422127983,-0.9570612821110732,0.940376785732132,0.6047301571879213,-0.26048366722849625,0.38305766879501024,-0.9343908390816243,-0.7684790569983192,-0.2433245383593003,0.3111702783190234,-0.17226368461549005,1.2583272958879672,0.8244288744191286,0.022219857993580415,-0.4932675772120128,-0.5099986010395442,-0.744605814694068,-1.474226434335885,-1.558286121594859,-1.0000514880874842,-1.615423771090271,-0.7885088159734851,-1.15132008422461,-0.2626209366436156,0.22148682639201916,0.9757882994221002,0.962175843138396,1.180320085901614,0.1785220935892187,0.6861732932874723,0.8423419513377881,-0.6401213168167239,0.7249514130594081,0.6143295362577614,-0.9550942141087216,0.2079938561232953,-1.3964716058089297,-0.5580638153340498,-0.1263742133375441,-1.8663204843370376,-0.9768296835999252,-2.085547618293586,-1.578109089062948,-1.432558870800667,-0.8890430386589951,-1.0645264894076012,0.4384188216665624,-2.258269043085291,0.0212604947566763,-0.8535184300427848,-0.990039083938092,-0.08851981214150584,0.5782184480413056,0.3046522822940533,-1.5923353196290884,-0.5504915097242946,-0.2844290914020016,-0.40958953694283495,0.01802680077962181,0.1469063808510649,0.1430138398200369,0.636817770662494,0.07181353686181824,0.4842342582954012,-1.4701160549135113,-1.329500240978566,-1.223565940397735,-1.52351190381154,0.34259994194722837,-0.23591054615072105,0.6052915843494538,-0.442749775523273,-1.359000751897406,-0.3597754040196116,0.746644257052772,-0.28778009818851685,-1.4514041859922029,-0.8680281207372931,-0.8906114098182882,-0.10987350143449325,0.22310639579287128,-0.7019856386458077,-0.8013353948494528,-0.2690800290549127,-0.09945064444879828,-0.2307971388651552,0.10562078137277384,-0.45158366855048926,0.318066307366502,0.16940412674051064,0.0592913933888608,0.05953798105762923,-0.10210255562476314,-1.0339427106172685,0.7054927622633707,-0.06069247521364289,-0.1464253716560398,0.1731732575727939,-0.22756896474190233,-0.8643405477334907,-0.5556283702630215,0.0256672440574244,-1.2649453694056891,-0.5110305669860336,-0.6009339174018408,-1.5148531696577758,-0.2415339710891296,0.10703484987458656,0.7013177785721034,-0.00688609470283701,-0.32877765716793783,-0.4582002482130322,0.9256907265187364,-0.15707152271787264,-0.8492448870439896,0.6791984293862026,-0.39591030025451457,0.02200129162128728,0.1795514046150131,-0.3391982294557376,-1.4780721011281228,0.004341298418419938,0.8196624249734767,-0.3491519007627113,0.6961082006811655,-1.0358608316174889,1.0605950560612332,0.36243663066220577,-0.45508106647630703,0.8088457329313373,-0.8349242690916983,1.3193357406552688,-1.4374355038809874,1.399101154465411,1.173751746346127,0.6312028207505662,0.8163122124212377,1.1913431380880009,-0.730240255034155,-1.0561800167484856,1.423296799479572,-0.6935758230182922,0.521688002880366,-0.6185342263200444,-0.17450517370424334,0.0007167751116916588,0.6538777997628641,-0.7974654259146526,0.391872139444914,1.158879338710326,0.616631266119864,-0.10919515975888748,0.6755499060924575,0.5228928679852537,-0.31195100739691883,0.7430185442001047,-0.4668145023940167,0.456905776165064,0.24155530125005223,0.6741088905358081,-0.6622945642236391,-1.095944807274358,-0.14011308057181374,-0.7973634509599854,-0.970128959586022,-0.4520455519806056,-0.803151164386597,-0.05507474150644997,1.4607995267502425,-0.7749788604453987,0.6228964317120933,-0.24150027982593203,0.8863280416832333,-0.24173889636634496,0.4903422197129606,0.0722686449395669,0.02692407909084535,1.0819652273595806,1.5508716685510366,1.0396327984471458,0.2371328809673809,-1.121385766179342,-0.8156326295254444,0.030190787427150968,0.494583012841114,1.368264751522946,0.11217565742192466,-0.00016435458869874052,-1.5657536179249807,-1.2278673783629006,0.14925697252246323,-0.18007242756008965,-0.5640475268573938,0.3921273381814485,-0.6502560440440597,0.05688544494660056,2.847892842457223,0.3052344580351993,-0.365544737285902,-0.7994061209340717,-0.02986005711422246,0.6219333838282943,0.7237096397217823,-0.6123483136026957,0.016641884291478375,1.030154928738586,0.2649834914968099,0.7262614811790913,-0.5013711135865337,0.13227583376084556,-0.08691163093216167,-0.6912165997600455,0.8083077285829551,0.2686909752397131,0.5966939989170105,1.87154452459868,-0.966575598274498,0.6139077796050927,0.6479521409480249,0.14861171768564307,0.9522044738565548,0.3044967330071444,0.3725009290027479,0.11617558500462556,0.848820578210819,0.055397509675557795,0.20286496196163695,0.9640738422505613,0.15873119208707687,-0.7734742554701108,0.040001626938561026,-0.5599496655970506,-0.0011034129495537074,-0.77122590510962,-0.011186635635381026,-0.5806649818528863,-0.756870394436915,0.7397158216657187,1.7398621083792618,0.8556278221765686,0.7459084879979244,1.3106311347076518,0.3179186721620372,-0.2674371840429497,0.6659043006410412,1.4069183111359316,-1.0972991332319453,-0.5492408706925456,0.8345227205843497,-1.546449184993548,-0.3215169337361136,0.8924348732292222,1.0032904799246554,-0.7444885352418898,0.876771748593616,0.01941245865471708,0.9224886178259076,-0.4792508097699306,0.06068991186122497,-0.16711272654026385,-0.4138200983301175,-0.29810605832683196,0.29526605705741515,-0.21255262238347236,-0.2338942652975553,1.0787726760041183,-1.442896465967746,-0.14817085436941926,-0.37634623627637326,-1.6428724904762306,0.5808371196578174,-0.1461789789237426,-0.32751454998143303,-1.2425081045859303,0.616717966571283,-0.8783834262428626,0.7830779247800446,0.4882000855211378,0.9251660038833136,0.7408420773376554,1.2622860949381776,0.9939792758140064,-0.5743147318065205,0.4468075772045712,-0.8592517113396214,0.5691123609168731,-1.0261281509643776,-0.3558479087392545,0.7288464557437785,0.9298526711938055,-0.41119183082875904,0.4405822715433186,-0.055030802044325214,1.5060259753527698,0.5637992696137408,-0.0003034523421684065,0.5390468629270763,0.6312994909645655,-1.0406248261312463,-0.1030788026601578,0.5413478000251701,-0.6435824936114445,-1.1215621878932769,1.12288119844031,0.3573724825805347,0.22413002604702903,0.8546339002292368,0.6467563411321416,-0.1627691572749102,-0.8961830331802589,-0.042615616201712905,0.13621777212910802,-0.20303623987141808,0.925108523734392,-0.23725888988564475,-1.0085007264279189,-0.3696349889750861,-0.02279755776608725,0.12857395962979465,-0.558671796561358,-1.358026081335963,-0.4333917458685218,-1.911055049720695,0.598738046294765,0.2719429170179984,-0.07387100719941915,1.2675430472606632,-0.534412731020587,0.6511187002215757,1.7359034946125125,-0.3858170520976329,-0.7166860187303105,0.3484830852473785,-0.4512203217392865,0.40426681791939634,0.6044406960915321,-0.16687195162106663,0.08011780795471579,0.14435649792302807,-0.20891363587421008,0.11095849382643096,-0.948280900397586,0.7203057131921313,-0.3445549279434768,-0.4473605620842308,0.04742604546506503,0.13023967234413683,-0.6426854588110403,0.7542260507959492,0.6220616578630216,-0.5410656707214796,-0.8766098730810278,-0.4979972225887937,-1.3541438797396528,0.5345695681160688,0.9066701066624498,-0.13260418284690403,-0.3198688279808685,-0.937340985603278,0.6193171141496755,1.369214413202091,0.02417618024878907,0.010519467532127217,0.621826458450767,-0.684802406623756,-0.5350434241390047,-0.8624663537338992,0.3163355714692757,0.9717998416896092,-0.4721564178591666,-0.5192175724515895,0.06937932159916761,-1.0252764337205056,-0.5109346763085888,0.955744967822918,0.48979549047249743,0.7216027373955985,0.23208593344923853,0.01912118384287108,0.5585207389628127,-0.2494840694430924,-0.3317533766586953,1.6788925574281708,0.8967562179925523,0.03777130592007991,-1.3791094869747125,-0.6274306252317756,-0.9155848609361836,-0.15187121917214094,-0.8627227276146324,0.0993956987681584,0.526557160432918,0.45447526790240494,0.21109904247445543,-0.7855958692906073,0.3777888750853651,0.44740252991530793,-0.6745156619818053,0.5576502166302666,0.4176272627367757,-0.18627113568465725,0.426935110102268,2.1189682662135048,0.3646132540687994,0.19067045414393577,-0.1594506312900191,0.32351482034588397,-0.523714823055647,1.5147019275035103,-0.3615319799025683,0.7162064195335531,0.1822704478310288,-0.3480662595745003,-0.3722907079237432,-0.7539666202977757,0.5528150274961288,-0.4600966823578991,0.8024287604807365,0.5488853902019191,-0.6489643983046158,-0.7195818978775619,-0.3699740882923217,-0.4845934746903773,-0.395404875752944,-0.020803336189404,0.4009360179593675,0.09642160339386407,0.17687146922885577,-0.5207251238281783,0.6121737719189426,0.31036264791517126,-0.628798143320138,-0.5653188774472756,1.2187781565093885,-0.3769599058351617,0.7349466333208672,-0.23208734802414857,0.002813419948142067,-0.2260227719646075,-0.9867011999551212,0.3152876405527498,-0.04697643089882363,-0.3000055236422044,-0.05470036798214037,0.0942404731054729,-0.5243502755885261,0.3432661497289402,0.058373843618302335,0.003738040159353418,0.19980838718187743,0.5439820310712875,0.84443883762114],[0.8200152283254694,-0.9242836926970954,-0.5360634035685372,-0.243047479138798,-0.7549898245646329,-0.4487946458318919,0.6907899885012343,-0.8448323227529551,0.10685740878618244,0.4942839799762615,0.0872786014877307,-0.6008590358601043,0.15382848614643896,0.08956557658038689,0.680027056091776,-0.8519246755255707,-0.5081567157279214,0.07043886084449835,-0.8851957240495796,-0.8079613489283528,-0.9128965826754748,-0.682577549262241,-0.8859757670370136,-0.32699249674468134,0.9673334373181082,-0.13747419494861912,0.6844042922107665,-0.5965113034571048,0.704804153438074,0.569444400406576,-0.5819629937406932,-0.9173833382023796,0.5637375437672285,0.4867130226189915,-0.5322501838590312,0.6216304018036991,0.5892127810298275,-0.6140087971993662,-0.5382499956729322,-0.9533444797521902,-0.6094514369969666,0.5981213612385411,-0.320641669072825,0.2702583110677408,0.6328178444469321,0.8679804919789366,0.26755564546149735,0.4629153906048116,-0.3940668890454695,0.3303890372020917,0.7234451369003365,-0.5771257434806794,0.9347314276517528,0.6075974639788537,-0.07137353202946328,-0.530313441405091,-0.22795515001167677,0.4425153060716498,-0.25116922815014964,-0.8862008337051317,-0.2508489158808087,0.990292522715102,-0.9160124330045628,-0.878129546768617,0.8865559047524407,0.5117931776173381,-1.0126630133013028,0.8438868041116072,-0.42516124082455714,-0.1725421656504246,-0.591510331900229,0.5550627565691433,-0.5801722913285221,-0.8383561491383918,0.18493049763091823,0.14982484006091312,-0.05162035747815711,-0.19924836455219383,0.37031991408635245,0.2857270387417757,-0.05315349445509798,0.09510077109431858,0.3088103511738811,-0.9398789559899772,-0.09951549726883192,0.3269730131495716,0.7045981174929357,-0.6149147108752044,0.6923858959223419,-0.4057332756335794,-0.8251983528405825,-0.2571090737670756,0.26790897067299346,-0.2026819350759272,-0.046306348242268806,0.557433602883354,0.5868218203872394,-0.8779386548255532,-1.267065984643554,-0.7351301310958142,-0.4225343742029221,-0.6573288482278501,-0.5151749314931053,-0.9842207167135164,-0.6636017742810754,-0.3030900138773422,0.6153542191437921,0.7239800844628833,0.2213898471253477,-0.5998426403559689,0.3260392136025545,0.4547400629101137,-0.4803126919181071,-0.8225346829339928,-0.8963166415059751,0.8995837210847162,0.30218819734318686,-0.21720360258425453,-1.0538904260106323,-1.259716959649712,0.05893521169620139,0.5079432957008951,-1.2128749332449305,0.012316940109560208,0.07617932333713691,0.3438163118787125,0.18210134120186136,-1.2035393274264163,-0.2356998096706163,1.2214586054530847,0.837719436387603,-0.3874999897382052,-0.4674801951997617,-0.9244204951300504,-0.3404776667161142,-0.3401884602715094,-0.6847459880325226,-0.9643924507100295,-0.3313153274663363,0.5480857307770022,-0.3310225003247338,0.2975181952011776,0.286671551649168,-0.31770929202493736,0.6746856967187147,-0.052124507418921086,-1.2062989926276446,0.907728964013966,0.6842309499616459,-0.2216855179108238,0.1704889879057986,-0.29326939330067187,0.6182651438993375,0.613082866618503,-0.7497030160207092,-0.8549257600271065,-0.08821821526719728,-0.6622354883039269,-0.44681890146487285,0.42616710968227567,-1.2532795962741927,-0.15738207154453482,0.35223020635778574,-0.5994014651822973,-0.3053278968557663,0.7776270254007219,-0.2702442410287116,0.3795223535654082,0.05153985642113201,0.9778654042549682,-0.3276699089235451,0.4826213995790506,0.6884072758503063,0.5284860387363878,0.9936797910537066,1.217890095745782,0.9223493624070724,1.7858298933749457,-0.3164313042835678,-0.1276606098155392,-0.8122931199934736,1.3441260049671309,0.04733557804392814,-0.14194483830606927,1.0006195143645715,1.6524527480555409,-1.9029357919442829,-0.7166601903359365,0.19225260815173487,0.1344865245049585,0.26211407717157703,-0.03652600929082599,-0.594912764259708,0.637518037786061,-0.15168263521074507,0.7556382141645486,-0.08839940047801975,0.5817041988508391,0.287106759666582,1.327915782095652,1.7453577729296808,-0.6573114062668914,-0.9475148644409,0.13026514809793013,0.5669980559031704,0.4946841773598371,-0.7133061215001132,-0.549645391728841,0.6411517051892585,1.1447930623533376,0.11637751422336975,1.1657316383590108,-1.088160563147574,0.996235074338738,1.204877056968088,0.22417274802336515,0.7322615392042061,-0.5365616032911863,-0.09534870572821293,-1.306217357308075,-0.7947189954158665,0.4689028574176025,0.1582828228285511,-0.2367020676242063,-0.23566374883400856,-0.46470477350126904,0.06279042219180898,0.2560423180264617,1.3532509232159604,-0.34020375858925983,-0.23637571866061344,0.23291432553249544,-1.2187338899518076,-0.46438064846127136,-0.11161965308254704,1.406265541749057,-1.3927400993817003,-0.2961903630252769,-1.2267997735556186,0.34915835688755853,0.7985116598289859,-0.7985481614607087,-0.6293287412974496,2.195859425860933,-0.577959984135584,-0.021166962501506733,1.800623323267868,0.2691735666870981,-0.6962973127807264,-0.680739794446797,-0.8472466774464253,-0.7739032001639683,0.9929699630408706,-0.08045289573193867,-0.6006480934520395,0.2597549610504192,1.0207269318971162,0.18594667664632736,1.0529400468595085,-0.070794426630481,-0.9081837359636236,-0.7550589687470566,1.105552887367871,0.3566170700047183,-0.2510464826592311,-1.251039432131735,0.3681852705297622,1.4725050743607413,2.78157832684779,0.13638237022042438,0.5108787111007277,-0.2994493978655283,-0.2741684345070139,1.6005694753246105,0.848164509381869,-1.5762681222394277,-0.4487637675899924,-1.1853560931880118,0.2071822052214883,-0.8821319233384728,0.4830708094509044,0.6617086091687808,0.38147621259890047,1.5798596883078673,0.7697285580963535,-0.4939688741108941,1.3516266073083123,-0.08251071764254099,-0.5342948259903492,-0.5759980236646933,-0.6031046153178959,1.1146514357014528,0.13192350639494244,-1.210842025747636,0.6857144863019479,0.9741930041537722,1.1012023514309062,0.5902972441494968,2.2878857029361113,1.00498621124451,1.1106391990933546,-0.7056363441648147,1.139827338321968,0.3960791957147212,-0.28627893532145293,0.04419649073400534,-0.5295842861289561,0.7643650682723648,-0.5376846098149122,-0.7639326207315649,-0.9952054664723146,-0.5663983632004058,0.12191903706420584,-2.0707618470784013,0.4558345183387796,-0.6071590503872527,0.7576017660864763,0.5986128710811683,-0.7797938950407064,1.3623848935563567,-0.4826648490099043,0.31622803014776235,0.25070989676607824,1.20775756174353,1.92375568381538,0.04132964984937209,1.3502059125200725,1.4526762482636209,0.8203810089406842,0.2641639773685102,1.481194860279274,2.0817848329698516,0.9667817508963206,0.5175795010300774,-0.3508668990835766,0.27150555455243564,0.4083394824373978,0.6623943669790768,-0.24287952814408345,0.54212292690194,-0.27289740720931815,-0.4190085761549324,-0.0879547964792931,0.17460557393843854,0.6449838497635288,-0.16766093346165478,-0.4170144265496557,0.24008833590901507,0.9476123855505696,1.8268386157635588,0.24105512973485296,-1.3631081585192546,0.9209935634141304,-0.35802680793902125,0.48406465339367266,-0.14155253530326292,0.2488036093556939,0.8111267051546294,1.6066760543692014,1.4650407409264925,-0.09208044297851412,0.18778520077544905,-0.4685387762579192,0.9882948923864924,0.5512761319540671,0.404955239739468,0.012773269103935316,-0.8638448025488717,0.9834556880014496,-0.6125760350329295,-0.18550820324582168,0.4191823148613234,-0.18446874035609723,0.19152079359729315,1.3590640759805623,0.12933986858619473,-1.0439436260170736,-1.3798957480816785,-2.128380709718681,0.5764043580873531,-0.6539835050923732,-0.08252065525784533,-0.08448161470144756,0.5084322118434981,0.6956072409464535,-0.7073560117385308,1.2994471450730098,1.426416728595405,0.5926397623854457,-0.5250083903084959,0.5394632590680061,0.6270420136994797,-0.2489890118979172,0.37532024977774303,0.8309755487769206,0.4039334037951547,-0.41994885491757256,2.2644283401131,0.6647993449001555,1.5945002300086013,-0.15417155383933268,1.134067413878091,-0.08538769256686014,1.1880593241458195,-1.7273353507059643,-0.3446700930181536,-1.219831795117036,-2.0983368418337607,1.4625617999701763,0.13534713329380663,1.229841685079499,-0.4307120926891701,1.2489042221083544,0.49618471031982614,1.7255401774265469,0.5091466316254656,1.3833577559833845,-0.6152207503402836,-0.33415535740239743,-0.08511263011875592,0.8740306386981529,0.7388097317137936,0.7362840052532651,-0.6365186903838222,-0.3150402738995795,0.5088209701346608,0.1182183652330204,-0.3905550233516328,0.9550556377311152,0.5248871216611843,-0.3829740239975039,-0.2609983855825236,1.2615022054277638,-1.0026249466467931,-0.5837236521512892,-0.24775024348792035,0.27305834227132597,1.087613768522238,0.5810089887239555,-0.1403152391880672,-0.07385501310665053,1.2844827457518837,-0.18914819086562065,0.6122501323785094,0.06875177704745002,-0.7655027518975979,0.18467640114258316,-0.30323109690313244,-0.6051302472588909,0.8283497090530516,-0.5643400815139903,-0.947440482134762,-0.33352669367299054,0.4948942860438222,0.8153032218764259,1.1386868410097,0.97372950961982,-0.7374655278705349,-0.17815844760226449,-0.40151354020128693,-1.0029422665965044,-1.8288760374359363,-1.087977245534215,0.38013822328863256,0.6037915893201496,1.7226135576928163,1.0933566371067671,-0.4616787843876646,0.4208650103676906,-0.4392138848015312,-1.8552142029335912,-1.2343105009197943,-0.49598339256485,-0.24009308917573544,0.23706800343712764,-0.6201284505797713,-0.17388102431990737,0.5629102305344338,-0.0715935977408015,-0.06675608236286906,-0.5402002165743115,0.43024577308540657,-0.10618714297871724,-0.19528246978617736,0.5646657099263075,1.2673607254031978,-1.408386989662868,-0.3297188916688761,0.2266041690065437,-0.1114239192251996,0.7203975264218264,0.5045886204643173,-0.8277029177563147,-0.27286687054705766,-0.08394812277235779,-0.6244771274245177,-0.8484548789265743,-0.7297682210710029,0.3738592834080283,-0.06476662831900291,-0.8947568222321952,-0.466190177615946,-0.20944720860424093,0.5555343985991228,-0.8386770321334263,0.9715162569648484,0.10480819540049516,1.169784949976402,0.19369771735045685,-0.1685807518217459,-0.9842907250308796,0.16095434160702266,-0.20763966451767385,0.09736406810397429,-2.3568830119760267,0.4105097670695816,-2.009302354850789,-0.0931156759304936,-1.2403084983992891,-0.7878527252000818,-1.53553559458246,-0.006242533949980811,-0.5229342394987792,-0.7955273692389467,0.0027982916066880623,-1.0303841692362172,-0.9706041332720996,0.47692514741457975,0.14945074743398534,0.15351888787142798,0.6286253812196885,-0.6515437256276106,0.5386224158892126,-0.19143053983935587,-0.5783821296931917,-0.2589328936632487,0.17804769946932922,0.007498349947337957,-0.5475581236510708,-1.3128456819949257,-0.5554518996571282,-1.5083872977673138,-2.1619254275733018,-0.7677889232245072,-1.1708215779957385,-0.7855178012517052,-2.1119034262282463,-0.05853436881777867,-2.13672400845971,-0.29896143659832514,-0.49693412099651135,0.20891439430322023,0.00773052036998474,-0.8121800460964164,0.24355269973278168,-0.016841692766768595,-0.9199963783546318,0.980380823301516,0.9766129335860488,-0.14215136806352047,-0.6911009533176711,-0.4965560833210838,-0.5066808198383356,1.0642057534127545,-0.5551239573346404,0.4811109179073782,0.4515698669656522,-2.003815707273281,-0.6320595518947338,0.1016198587680546,-1.0643840795550663,-0.18125824916957564,0.47718797895158255,-1.086387511140958,1.6369457397860547,1.527538093272726,-0.5700335585565172,0.4500841501156971,-0.21970540073119585,-0.5041896558731191,0.3606991677533187,0.4187634204650671,-0.7599882902361528,-0.6295586209948445,0.1553494253178123,-0.8655637249953922,0.8276380405593647,0.8435679162447838,-0.5226142541257774,0.7228335397441454,-0.507551058965713,0.7352250298045028,-0.1070492199565602,-0.5994227823773123,-0.6652593042793629,-0.2533315399853543,-2.128649648614382,-0.98680328514786,0.4509015594396827,-0.04462834518090902,0.41196540839595863,-0.4372176526149469,0.14580834534125012,-0.3374716436968326,0.21429532655107772,-0.8519333471533858,-1.1517687587244465,-0.9769515523223572,0.16650161223202462,-0.37468587353256305,-0.45388214821293194,-0.8403952632588141,0.12281894520058877,0.5852472173781159,-0.4249933619162237,0.3732233747777242,-0.9607575035861872,-0.2845419530497586,0.6839084749193761,-0.7988080029762472,-0.6898671150352568,0.8169555770412134,0.30147672641459344,-1.9575089181094176,0.9043643208003516,0.3360274174863893,-0.6320441096834274,-0.7255691965255384,-0.3202511580972881,0.3285826575794834,-0.2121854052030611,0.6450088329015483,1.175564210365743,0.4075136585966319,-0.4594232759128076,-1.1568027248517192,0.04693456414752886,0.2884288778970484,-0.7836844204625594,0.5758755564591211,0.0015938466205545052,0.06608271418399428,0.11164612190310406,0.4723211208693672,0.724684093061287,0.9436014384398967,-0.4055618086945306,-0.5810354423072072,-0.40220025650800817,-0.030516203323129616,1.2296604269046405,1.1463355996639124,-0.35052963233795525,0.41039438818043983,1.3320461390819314,0.6713216236118928,-0.03774413355625764,0.4007658993265026,0.8040772806887866,-0.0729348202323785,0.16251889790428192,0.8759442730108737,-0.768495436828612,-0.2562377530988592,0.739838722801835,0.10335167792182402,-0.48400370296845935,0.13459664749165073,0.4611302121170403,-0.3368270829018756,0.0031152617142671257,-0.5515039405950315,-0.6495933151882198,-0.8355516254682471,-0.2472668630244512,0.25000437016133936,-0.6793176611363922,-0.38254489514330736,2.3122766479173715,-0.14007666543668135,-1.4336684602678078,-1.7544599640971954,0.8408246412860145,0.5595403351811534,-1.1051291667332048,-0.7267968747558838,0.0022945647274070593,-1.8192578548346077,-0.4635940253822992,-0.2858954333377759,-0.5273771085441245,-0.9384579214819092,0.5645477809254429,0.4566527034590924,0.29710608397687766,0.3947125655597917,-0.7091931543948965,0.2798731542162711,-0.8028087110777882,-0.3120871129289098,-0.8343360912196154,-0.6462259219317688,0.18909748644473232,-0.023096914787016164,0.190753505541646,1.497041337181325,0.08202038202754462,0.49008069875367954,-0.406973370026696,0.419176526609739,0.7841329599941532,-0.1845361587582513,0.41430410596057254,0.7413201952774033,0.800983225832252,-0.34720839121157265,-0.7209355526943714,-0.9713283390908224,0.04263443884038135,0.754610681229417,0.4942141665487523,-0.8768291944922513,0.8661391346956362,-0.46073297804644553,-0.05923427887273631,-0.029830234011978263,0.30097631868772434,-0.27389560231744925,0.2094650505052722,-0.8519861731810978,0.7361764655922922,-0.40886339488562223,1.0082982442466355,-0.6931261357604298,0.9473293978231996,0.7306441882184684,0.33470925394034473,-0.614061410453225,-0.03894314432490797,0.7677137953930548,0.08719648881852313,0.8930798217051955,0.2859343998267919,-0.5561880651168382,0.27259647703817974,-0.9480626952237976,-0.9566496882966792,-0.30161120795723445,-0.4531805961261727,0.9143486954463294,-0.34728394855092426,-0.10327897786379037,-0.02301771290793253,0.4391376162636431,-0.4715409746436443,-0.41788035511553745,0.3864231259251518,0.24412121036492085,-0.5703359584419041,0.6647506638696832,0.20670273969032427,-0.9836437136215236,0.08984655246863575,-0.7372171474128764,0.2696767165847753,-0.7074164476696113,-0.7214768897536131,0.09692808752601538,-0.05850437603335145,0.9013706800117354,-0.09558029437464238,0.6644618543473163,0.289758298606402,-0.4644213187196491,0.4757256814563964,0.870325267342774,-0.9330723449174754,-0.013776030829320218,0.975574935542179,0.11708151106552722,-0.2522631282512473,-0.7706112195347707,0.401827399259195,-0.9336670692854376],[-0.49998256498425686,0.1109149169857484,0.35200184570015947,-0.740470086010018,-0.8860598303257743,0.4461734587156698,0.6931114262488973,-0.9570220982564585,-0.25192013666937596,0.14593733750049664,0.3668965531925836,0.350016837173702,0.23154483042396112,-0.0896403170108162,0.7196421630245877,0.36933686163468127,0.906696811019594,-0.9564691733890314,0.2833592502425617,0.20723541150560876,-0.2160702054777066,-0.07655167330170798,-0.068061956354726,0.6830571945077666,-0.23557439889516085,0.8485585446513546,-0.14853759639717845,0.6655545384752559,0.9206026292480332,0.9901543784363128,-0.22243943785361583,0.10922610591420968,0.1926215448784323,-0.8315714148887698,-0.7123956939162155,0.6829405331722149,-0.7214696661515554,-0.856951178255194,-0.2159124477137468,0.5491364103182239,0.6692613108606065,-0.21006483221488784,0.9648764783849216,-0.4887921067531123,-0.379327252524937,-0.5893135139008797,0.6518793162913247,0.8913398965653145,-0.9238217494370988,0.43637674108437374,0.05783239899370218,-0.055792147153300053,0.7646834728965395,-0.16564539121908006,-0.5212516213542411,0.7707521776792874,0.4214026906966284,0.5419688848463025,-0.3208114448700303,0.25793803500337753,-0.7515923814761156,0.49009023865351486,-0.1768291286795045,0.8891961354405331,0.011734348785375603,0.9406032450889732,-0.9866572280002912,0.42997135529827024,0.3197467183817176,0.6439806170332124,0.7289146264711271,0.9458274261234546,-0.2479493247994425,0.6661684000870939,0.928614834304944,0.27939988450496667,0.7774927028477361,0.2319295853522799,-0.05469095797275101,-0.4275508484077564,0.4009185891818223,0.5128879300995091,-0.26520226136461345,0.19460344523808623,0.7453794859353051,0.3791939815576013,0.9419039370218848,-0.5644157076263439,-0.6709358328148274,0.9831064106007374,0.1815059253286199,0.5382279714738144,0.845029643644622,0.1330751940833579,-0.03861239628743186,0.8443065546757854,0.15860177177927856,-0.8756832605978019,0.7831616463329524,0.8765279656686946,0.10015584986298688,-0.8506032295607169,0.5995741409898369,-0.361556146794165,0.6098025491630945,-0.95226976845774,0.5459744286207068,0.6155262075424099,-0.174751522114736,-0.912034243318144,0.9638242691716036,0.7109667041841898,0.12336066270769463,-0.28658223208680056,0.5085151164378547,-0.13945170669929396,-0.9983644075842998,0.9019508101820654,-0.72425468401191,-0.3359246676364783,-0.432907071337425,-0.27102167696414414,0.043741949937164654,-0.23555994072318517,0.8164923894912838,0.3678408497024834,0.40263831975918407,0.819413503837975,0.02137551959240103,0.5809906741389586,0.23705230304561545,-0.7002592214519804,-0.8628437305854351,0.026375631832233515,-0.30087482420457,0.27730949754071016,-0.3370152469949859,-0.39335362064827106,0.6246527042832746,-0.06973067393459864,-0.10435311107743316,0.8925073887158455,-0.8496040326952332,0.29807261035420357,0.16928574232877663,-0.7706165377076393,0.01789045936491977,0.5038659060855376,-0.9203798187256836,-0.15968924751882946,0.5985628337672247,-0.3947096192491415,-1.0334067092319958,-0.658675550924101,-0.6998400157908103,-0.6310778323553405,-1.0676921684163918,-0.4582120984791862,0.7317372383558541,-0.4459185771158384,0.32380653708180235,0.35237024430874075,-0.4050294802974889,-0.9017889353063246,-0.7446869031620157,-0.20896842409024136,0.5603830752638251,-0.26951954649905896,0.7759022052531122,0.4198602449573383,0.1795549946187367,-0.330650976664297,-0.4561729655663127,0.5853768321762066,-0.998248072170049,0.2466881239635002,-0.4487068802034071,0.865168685141841,-0.6182574510653697,0.6227530706388531,0.056246414729132416,-0.4238309853513077,-0.3070179972447552,0.29305007648706016,0.10267710070141528,-0.17199205112597052,-0.1394380402741529,-0.21833157291886637,0.6584217442377288,0.694024128278893,0.717197513153557,-0.597128790042509,-0.24967996170003257,-0.06665367940775542,0.36480221382216527,-0.9842979779904516,-0.33350845548772967,0.25479885892570997,-0.4439933925400883,0.47211199170244667,-0.9945727211988656,-0.4189011811091996,0.5488891337845389,-0.4264560674316455,-0.4807284488914811,0.2783775685141362,0.2885106107778059,-0.5755453385667604,-0.06397640251088105,-0.7909237138647134,0.4890628664168181,0.08985069216308773,-0.02756942121325567,-0.7540934593608987,0.6560193111373853,0.6060870270343754,-1.0252056623401244,0.5943692205647094,0.29597185114667135,-0.7203492917442449,0.4133244953113978,0.3048193595898198,-0.27570011296300095,0.7099181652372897,0.4121229466205587,-0.9012629392089428,-0.085251077578813,0.7975133815152591,0.7044267418276496,-0.007093625948928643,-0.7943693043786008,-0.6357979074011036,-1.0623051378260877,0.4763884591823813,0.5697293914127421,0.6053393708053691,-0.05334717172563312,-0.23663874568207055,-0.2450175979789465,-0.06510970469417413,-1.056462114567431,-1.065043371409304,-0.8818324999220426,-0.43467224326646825,-0.055482697951725744,-0.591217841811663,0.425263777735713,-0.5539968934728283,-0.6744177459815957,-0.39416067029534446,0.041580071425960353,-0.100412482337094,0.673942970338254,-0.5253658949703268,0.13534776919568522,0.2505049406276233,-0.08498820336539456,0.30748413848714506,0.5675883641830899,-0.4187209970417442,-0.31716860431291255,0.718929766149759,0.7979673568736848,0.6574825538368901,0.5054179752234144,-1.1247876751801236,0.23638002943284064,0.4342211250822162,-0.017757970131489952,-1.2610006184049716,0.8113445635581862,0.42899320410124864,1.033844494663931,-0.7596473821590235,0.17234266167432014,0.2514344604032256,0.36843897766328926,0.563723724441999,-0.2429585824047455,-0.01739921267906519,-0.994730008644484,-0.8269002211220334,0.3601965011036894,-0.7329663185780735,0.6925593783326691,0.32470935631552444,-0.7478193044978836,-0.11197175906350348,0.2629775924157024,-0.32584493037386314,0.7801006050105892,0.7255757990058398,-0.2075185561596815,-0.034483839949809296,0.1110668261486739,-0.242983921867107,0.22716611824930277,0.6038865923830934,-1.017556021815783,-0.8078780506209667,0.17511712858828324,-0.4474840848665448,0.4638097394764098,0.6645777634751605,-0.9360159990992426,0.183401382288597,-0.15111754746101455,-0.89617555478547,-0.4622349588385233,-0.6773131891513768,0.9307121713064114,-0.8966102129606608,-0.02164562152576028,0.3354975502756366,0.32807979135427146,-0.4770975787303085,-0.2359306547860037,-0.8653470998493903,-0.654139602849284,-0.9723785813525913,-1.0603988331788428,0.26077129657134596,-0.7239763598773418,0.8885596317569548,0.1724206594390362,-0.8727659375512792,0.32256103893296156,-0.17690061900484735,-0.302650120515133,0.0835562365661187,0.9050174935776024,0.7876417813243434,0.3070062625569286,-0.2810879264034541,0.06468612884408576,0.5101118350236666,-0.6203816822574473,0.7179925748404334,-0.7644999910986552,-0.8021929654779049,0.5975465063634589,0.48243136006644094,-0.3088984474239164,-0.6800441834344813,0.8408602090956769,-0.94132555374428,0.15690384168670662,0.2586765523316547,0.42665422912958967,-0.9485682662980052,-0.7512576688832867,0.66382169377476,-1.0947896374402102,0.7170124085018712,-0.4060397234639896,0.8606312106494881,-0.4312041563917324,-0.835726927446696,0.15398278123867093,0.597415314838894,0.01760491658916363,0.8598108938263701,-0.7621404130929799,-0.16160854339454445,0.6990748661073747,-0.6439315680352324,0.39702897499239304,0.6245980385399008,0.354734634724,0.05001540456975058,-0.5764482099521012,0.8825415807858985,0.7601966282918635,0.7147118197669102,-0.4277178606089886,0.7327711953081334,-1.1078151671191827,-1.0547927616661683,0.2615825204756085,0.9693962230976244,-0.6436620694716587,0.6215388949831622,-0.15604876996827813,0.03892671270882904,-0.7728485606168057,-0.48178707231646967,0.2336578922907349,-0.4626664381115868,-0.6680755027353061,0.9208855773851988,0.7002597804685193,-0.1575995827926937,0.814272829606778,0.6442698957218451,-0.961190313720898,-0.12698448212780672,0.588950141305104,-0.40135435887405474,-0.4349301381427526,0.27560123472735276,-0.04597093032576573,-0.558206784707795,-0.7963291630029499,-0.23849583599920332,0.730891714768695,0.24167151784140345,-0.8907598452494134,-0.6823471215696394,0.2825384401738241,-0.31772719877046834,0.2433216870136613,0.6002654276785807,-0.9468115915859708,0.8524751664939513,-0.842241226035896,0.8612749698754972,0.15606429868330132,0.8060968988952538,0.6039583347391015,0.6223191958608496,0.43425698811569013,-0.19366128687871953,-0.40539184284938834,0.7754374141761492,0.6198192064252918,0.17733076513931983,0.45469112552838914,0.05653288289685788,-0.43723592589053945,0.7797892763216805,0.023126099236609056,-0.20122298491467316,0.3680751122412825,-0.9426120844398898,-0.9809818430852624,0.6388758541670218,-0.3878674200635871,0.12530578645881665,0.4608249784572019,0.8399429811490643,-0.8686147689141014,0.7723132996737107,-0.14509303727121106,-1.0228315144449929,0.4778125191161434,0.16414295427383652,0.9590404896629507,-0.8754047937460065,0.9535730476509912,-0.4870437915489017,0.4819270318041789,-0.6556192950182904,0.6361263341941684,-0.7214317076039477,0.007030997607338371,0.27520149655686094,-0.914577202622992,0.349893835951001,0.0730425927204195,0.20273129799500827,0.10564124805079608,-0.13669963826515108,0.15908132124770571,-0.27297980550976386,-0.8847654369705212,-1.1351352036930822,-0.6611998251646749,0.4195757074156517,0.8429524404859995,0.7026889215387012,-0.7029097229718189,-0.7271021364897733,-0.1286035247830201,-0.0610098191646867,-0.35245503960601127,0.5592817482241372,0.025448015284354364,-0.1939546439303781,-0.4401989987243776,0.49499145245246606,0.08764028991723176,0.07354283746384929,0.11562214754468644,0.6090314198900851,0.7919669170194862,-0.43747668690472585,-0.7491115643995803,0.4167297814734952,0.24039898809281468,0.4828340637958009,0.23659151803899744,-0.0074068744807828735,-0.947865314611423,-0.5943744232745343,-0.41660552037126936,-0.4435673459576893,-1.0151466720005395,-0.5749532783006277,-0.4004208845866751,-0.755144141036769,-0.394251235059472,0.6904769578030697,0.5720032786899203,0.021416980995274004,-0.4318921215296556,0.2427488885986422,-0.8473699261449771,0.05125055923214816,-0.5437489334874033,-0.6849072030437814,-0.8111142573151933,-0.11087693464396098,0.23373254578718977,0.195615668279492,-1.17725719643963,0.4308673614394132,-0.8619630373832194,-0.8371812164160014,0.10013185281669104,-1.0409883255612835,-0.3788494997809814,-0.7742945391409787,-0.4293458350115229,0.8532351236490849,-1.0477024213051802,0.1592831149505583,-0.3652616085146911,0.32972743028622076,-0.3931448872515877,0.826824039001041,0.7649100476779094,-0.9830799169882578,-0.2886522479529099,-0.7472328326904791,-0.547740314265696,-0.1735549736913948,-0.4488151745340625,-0.1593058544756156,-0.652571038174042,0.7223781774913506,-0.9292726716292716,-0.9953005403353662,0.5747739890568411,0.5040948372311562,-0.3941775231819992,0.5706263249808781,0.6249181483035847,0.6246674704939377,0.0963527503369737,0.14763843486736092,-0.7965005890145883,-1.1070475626444425,0.8670441796876253,-0.8324929313199146,-0.313533169991216,-0.0754721430763452,0.6816834478887626,0.34923303143373463,0.5377504178225843,-0.5955082087574128,-0.14219795640231658,-0.6019100374496957,-0.17579048209597603,-0.3078409450240111,-0.5928953725011074,-0.3979033398087191,0.6631322330752392,0.5858324146837229,-0.47428169996625896,-0.8396569098868573,0.563671415645272,-0.08017896917158875,0.2629506908936683,-0.517474306077026,-1.2269045829888732,-0.23396520531314863,-0.5782683900984895,-1.0703997707275632,-0.3556675763337026,0.27499949323829176,-0.4469933915807347,0.3552355201050551,0.7054318412553726,-0.08691718269557973,-0.347341958915583,-0.13040401464686138,0.04726074316932136,-0.4106667564563289,0.1395154090347237,0.912119860164594,0.71272943890405,-0.33430302940320833,-0.27744822860174767,-0.372108718884341,0.5751885075062163,0.07672303589163458,0.27852661396443446,0.109991639352186,-0.8225776257228113,0.5231519258392836,0.043380898615242074,0.5403417142347319,-0.3923274284128159,-0.11332698623802208,-1.0399738373020793,-0.7994766744374203,-0.09494426121884768,0.058493869136499926,0.41188680496911434,0.4581986736494582,-0.6454157546165042,0.5494002995163321,0.92061514361941,-0.9287979818437594,-0.8297112947013682,-0.48013792357260776,-0.782471675250112,-0.08154338044260911,-0.6160388306334743,0.5972311350329692,-0.33778657255168915,-0.2203718820763075,0.028008030684538825,0.5356548893143827,-1.0562115191651522,-0.4992540411185546,0.56493352786297,0.17021028059547258,-0.16361426946767268,-1.0380219238889976,0.10786043414703073,-0.5440984189592034,-0.7081925042312043,-0.23359134322927333,0.2229639933326522,0.7259813147879517,-0.0928210649207422,0.7763040395389409,-0.4927131810744574,0.7400232209453078,-0.560940915051921,0.8443894468497366,-0.8906863989964856,0.5753357909714336,-0.7448980440007857,-0.9144208612632364,-0.1851538654621112,-0.6186583945792552,-0.9343236225460518,-0.929137747674833,-0.27641927353037515,0.6155135481633606,-0.33124625502889415,-0.690901529345174,-0.9701672758044884,-0.978636632879809,-0.8676663820749161,-0.0006652806326938332,-0.1468965612934352,0.42605926814027506,-0.22321004651573095,0.1721125741914473,-0.954020435620376,0.16273402770246476,-0.6799024653529422,0.17858995877517997,-0.9569255428889942,-0.24724010803185265,-0.14278328037545737,-0.49905177464915473,0.8909751587241466,0.6330456462136509,-0.7196768109555687,0.49188267074374714,0.09041971604290544,-0.725596450264464,-0.7147797404670281,0.7407803935550202,0.8124395543270412,-0.3329948259461431,0.5340595377476433,-1.036300922240499,0.5720927544693649,-0.1684267200714977,-0.5043400678410488,0.7022034065187778,-0.7534421620123345,0.24359772276242772,0.8826551903188999,-1.052299939056665,-0.5341307264974048,0.8039639860888015,0.7360916244871567,0.2838273701699409,0.9903073099449684,0.9092659284682556,-0.4331054150761622,-0.8872703444501404,-0.3742324733924016,-0.5337515516606743,0.9422548598663314,-0.4711946730758707,0.3918597620476987,-0.7187215063563599,-0.13038096308048946,-0.7165808215745973,0.8996652744316661,-0.5174443519308225,-0.28013006877164975,-0.004041584377998443,0.5727427003857887,0.11396148210036168,-0.40905027095051855,-0.7496069072521637,-0.07509906337370047,-0.9462602296883584,0.5002114144393672,0.04283269908235782,-0.46583082833160466,0.12409665517625348,0.5334620605492564,-0.4402679541511644,-0.8453789642645388,0.5700348557944062,-0.7360895290402372,-0.5616460475069034,-0.9593853038041456,-0.15824381363336126,-0.5993433307658149,-0.7379800439894415,-0.9369905812807844,0.9953182235083218,0.9237678507239094,-0.6490417520740747,-0.28529988837645803,0.9161137352916974,-0.275731679123861,-0.9813864355204676,-0.49528593060886567,-0.6130629654076304,0.792957586249176,0.8045707515758624,0.1832911852228623,0.23769824210908108,0.5068121651681935,0.7105752261242088,-0.18828101625715216,-0.7153323993732976,0.5715207127583453,0.8609656857606419,-0.1438616798353329,0.8372920073242045,-0.9447022061877208,-0.1716624279836756,0.01898755212796188,0.9628012611492978,0.9878182932535268,-0.3797481316891054,0.3208311206817125,-0.6802207056849376,0.994409508905222,-0.32988980191340206,0.6167645744840351,0.8834748827403882,0.34411690187957134,0.7353002463120697,0.9239764253076972,-0.7192725532087478,0.37803900135477986,-0.5968392241366495,-0.8732711474074931,0.4877150103145097,-0.46639469542798817,-0.4944726995153514,-0.4983023350097761,-0.408010328534437,-0.9466303344373256,-0.6714463483065629,-0.01110052228749958,-0.21808322176843253,-0.7708945866759918,0.9441448946960672,0.6828948627359983,0.7159321462706252],[0.09860225902602736,-0.0027195924790603954,-0.9326409000859088,0.8786864056598425,-0.3583358162484107,0.7025145287246233,0.184093531474389,-0.7378417058816973,0.6237071387062079,-0.6866866029865082,0.8679275753400661,-0.6166964176469965,-0.29337540005535256,-0.9080355675419604,-0.389202081496709,0.7898302432145314,0.02363553239721461,-0.6839480788468135,0.916458140962304,0.32136553049741234,-0.3073161499049746,0.5253870947562003,0.09639306331178377,-0.030198403433974175,0.924331024820262,-0.4640840996234557,-0.3866738251677164,0.5952921696938143,-0.4398381433512084,0.8312007378552471,-0.3017563323632295,0.1960142361839119,-0.07979258728660832,0.7101326690518195,-0.8462021850348369,0.4120429079393973,-0.3782744392943995,0.34787092579041023,0.2856449499654336,-0.22518598677007004,0.4231887662838649,0.8403155699209023,0.05420702726669613,0.37711374329499386,0.19116455253433684,0.9170028653618068,0.9409022073834996,-0.14069741933895274,0.40630399500434433,-0.07206636696960755,0.23416629587769777,0.17037353785710674,0.29215418109841207,-0.5229966935002259,0.3720522554354973,0.48722617389146783,-0.3914841842820145,0.7714606343600794,0.45883481883697774,0.35933686119063757,-0.4708556506705879,-0.9221997726791846,0.11587566781750436,0.7560503304347741,-0.01421264015689072,0.8286255136355012,0.4224155159692683,0.1493790799930284,-0.646557192012561,-1.2420423143598371,-0.5729651966057603,-0.0037734172013042504,0.1871700169598443,-0.2400068173325476,-0.5585268067813804,0.148600063176727,0.8384217584892854,0.6338729729436013,0.8639609226180434,0.5222056494509222,-0.8595448129873453,-0.2087657515664043,-0.4103923909077638,-0.7825836146558651,0.006651560936448808,-0.31415780271284666,-0.4406356008617765,-0.36766466323965785,0.2361289539503315,0.384106524004997,0.6591725459762842,-0.608446016396438,-0.7148041054635583,-0.6030268776513232,0.5108243998824656,0.8473745083750253,0.88446696892337,0.39939902435107544,1.5519838964412531,0.3428997161236174,-0.30544981636367396,0.672641204294754,1.8891162902544851,1.5713777474313384,1.857132702479405,-0.09141298543928796,-0.1752951532605893,0.1602255226221047,-0.62150306713686,-0.2477235662185484,-0.533879087556183,-0.9950547456727332,-0.3752092761026484,-0.7402327314177743,0.5690238428669354,0.5086769691928219,1.0475621459700304,0.8206262150522767,-0.6892223550992719,0.02292131250713361,0.27498027846034356,-0.6947664073054095,0.7750146157206198,-0.3292255723786424,0.3134189287961826,0.6263883511023721,0.1455382878116166,-0.31334973143483524,-0.24232523567716976,-1.3895195378308092,-2.1080472408909676,-0.48098878651604654,0.3295012553365922,-0.5244320558269057,-1.1615792084576273,0.1548286481299446,-0.14108627806980892,-0.7817996518011898,-0.03400237414355001,0.6246339758754598,-0.24455826908173317,-0.7021044847299363,0.8250815901044446,0.1677144349917435,0.16553355012598558,0.9207631956857548,-0.5598080344587136,-0.07562581200139007,-0.2613398362649355,0.20141611950065927,-0.2780873246492087,-0.157707222477157,-0.564106471532422,-0.5714605163842346,1.1238202906477408,0.6441728956334268,0.2246953187953192,-0.27424454051236313,0.7234495308066242,-0.024630301549091967,-1.6406028241346955,-0.3637380890090028,-1.5989573511802766,-0.6808488622039545,-0.23766913294279585,-0.3825238698332249,0.48315347135593145,-0.14080018825614005,0.4625664583900222,-0.23677109483097225,-0.20473649866084065,0.11388411280885131,-0.5113187522751135,0.18940273866394364,-1.2208765099447567,-1.128132181102915,-0.17237037582741138,-0.5679588841344873,0.5212191743244905,-0.7018624463904284,-0.37179656296687175,1.09259984800831,-0.22563713924374065,0.06222846648914502,0.4371678260488106,0.979396972653359,0.2287818000493257,-1.0248734925686236,-0.1736769271825217,1.4674490950313746,0.7368404563324464,-0.7392549597314654,-0.563191621864618,-0.6362019710467705,-0.12968370645050248,0.08311162307855503,0.24741346456301816,-0.5855534115476204,-0.10451198031452164,0.14648833064377895,0.1893708939891083,0.21243177356317877,-0.3018775010560312,-0.02969089213836251,-2.51217086888417,-0.18243714340932193,0.4009438022443085,-0.30226068696498776,1.264157389546777,-1.1360492560805435,-0.3090614772995059,0.1164830847678494,-0.9255031466413336,-0.13543717307323822,-0.23498524487678052,-1.0252953257319757,0.8808674812169885,-0.20928179165320673,-0.8853235026040726,-0.4719663371129393,-1.0060842731049813,-0.3683487378481465,0.7496212117517045,0.6054405531133602,0.15301257959120873,0.2867494882862571,-0.6253844672352706,0.2773988315946501,-0.22495192475828069,0.27800188201892106,2.49232837926791,-0.7118493119386715,-2.166369200696568,0.07797322151273788,-0.6291576266143301,0.22273495316970432,-2.693178081403873,-0.3940867597711017,0.06453114036709438,0.047740899978958515,-0.26617204107818404,2.1688342198255737,-0.7917465589721578,0.17965358794730124,-0.22533806849955804,-1.2878462008802658,0.29720055585861394,-1.572685198656945,-0.9670215450779251,-1.7819793793216594,0.3798607458948072,-0.593746122847812,-0.41265147493276433,-0.5731013385733725,0.38558582756690446,-0.05761823484808669,-0.11053662250643129,1.0507948706863124,-0.1789949565893943,-1.0972903866036772,-0.8078604516337282,0.4163192540755532,-0.05343473330291746,0.4481371386062328,-0.9275042410518388,0.4829914440329076,1.1215162922202977,-0.7134749263783484,-1.9014750075232048,-0.02838422189965099,-1.261984626903469,0.8336997211951872,-0.496392949726917,1.0845001686816866,1.1731633661036465,1.3615810059399729,-0.1427199650572962,-1.9444734547273177,-0.7854967887229708,0.5668817267599788,0.4989386101585605,0.6598434492944569,-0.48064374919099023,-1.7876627817945554,-0.6645056642626781,1.0137686629497151,-0.5225105477352033,1.3581137426449608,0.02925223241739888,0.9904648584532898,0.7456349430049951,-1.302863815122471,-0.692230891140098,-0.870571067160749,-1.2824083238069834,-4.179663922900754,0.4955141059771373,1.0076346590371796,0.004317204395876338,-0.013946063901853867,-0.4664270767957405,0.5140335334850187,0.7584486142335086,0.31228390130168987,-0.9416429366888052,-0.7496970155544027,0.0615381217694832,-0.23648008233659867,-0.04392638973628315,0.9519152716433024,-1.143318621201345,-1.330596533297974,-1.8126942243853643,0.09650924996398408,0.540905198078102,1.1448985890274517,-0.9474898926336228,0.31211001814463396,-1.0524422791562336,1.0332237035631908,1.673871664309769,0.1718008309578818,-0.2492469780630654,-3.2066228556531287,-0.2832787625651215,0.7762153845317538,-0.7564066275734748,0.865758363327879,0.9917842529411248,0.47281726097100407,0.6186041428909785,2.745634570609676,0.6588777005552113,0.713274074761214,-0.8403268483049877,-0.18752372295894928,0.10842705352866289,0.6460397844028463,-0.18970412273502235,-0.2603014458781655,-0.2530382925921413,-0.8369262863433637,0.5408081338763492,-0.3340532878171211,1.239903829534261,-0.16298064449901203,1.3898769884478035,0.02414956726775357,1.3226896227688985,1.1781406648353645,0.11275328509760534,0.34673565133961054,