{"layers":[{"biases":{"cols":1,"data":[0.5047483444213867,0.33607062697410583,-1.3285763263702393,-0.24672333896160126,-0.6315216422080994,-0.9533185958862305,0.2940058410167694,1.2121410369873047,1.6515191793441772,-0.3555474877357483,2.2659785747528076,-0.08131374418735504,0.6213964223861694,0.15868960320949554,1.051602840423584,-0.12369780242443085,1.6218069791793823,1.1960853338241577,1.9242888689041138,0.5187890529632568,-1.586628794670105,0.5028188824653625,-3.9210708141326904,1.6983834505081177,0.8433047533035278,-0.6069187521934509,0.3049095869064331,-2.8211450576782227],"rows":28},"input":{"cols":1,"data":[0.0,0.0,0.0,0.0,0.0,0.0,0.0,0.0,0.0,0.0,0.0,0.0,0.0,0.0,0.0,0.0,0.0,0.0,0.0,0.0,0.0,0.0,0.0,0.0,0.0,0.0,0.0,0.0,0.0,0.0,0.0,0.0,0.0,0.0,0.0,0.0,0.0,0.0,0.0,0.0,0.0,0.0,0.0,0.0,0.0,0.0,0.0,0.0,0.0,0.0,0.0,0.0,0.0,0.0,0.0,0.0,0.0,0.0,0.0,0.0,0.0,0.0,0.0,0.0,0.0,0.0,0.0,0.0,0.0,0.0,0.0,0.0,0.0,0.0,0.0,0.0,0.0,0.0,0.0,0.0,0.0,0.0,0.0,0.0,0.0,0.0,0.0,0.0,0.0,0.0,0.0,0.0,0.0,0.0,0.0,0.0,0.0,0.0,0.0,0.0,0.0,0.0,0.0,0.0,0.0,0.0,0.0,0.0,0.0,0.0,0.0,0.0,0.0,0.0,0.0,0.0,0.0,0.0,0.0,0.0,0.0,0.0,0.0,0.0,0.0,0.0,0.0,0.0,0.0,0.0,0.0,0.0,0.0,0.0,0.0,0.0,0.0,0.0,0.0,0.0,0.0,0.0,0.0,0.0,0.0,0.0,0.0,0.0,0.0,0.0,0.0,0.0,0.0,0.0,0.0,0.0,0.0,0.0,0.0,0.0,0.0,0.0,0.0,0.0,0.0,0.0,0.0,0.0,0.0,0.0,0.0,0.0,0.0,0.0,0.0,0.0,0.0,0.0,0.0,0.0,0.0,0.0,0.0,0.0,0.14901961386203766,0.1882352977991104,0.1882352977991104,0.08627451211214066,0.0,0.0,0.0,0.0,0.0,0.0,0.0,0.0,0.0,0.0,0.0,0.0,0.0,0.0,0.0,0.0,0.0,0.0,0.0,0.0,0.0,0.24313725531101227,0.3803921639919281,0.7764706015586853,0.9529411792755127,0.9960784316062927,0.9960784316062927,0.8313725590705872,0.10588235408067703,0.0,0.0,0.0,0.0,0.0,0.0,0.0,0.0,0.0,0.0,0.0,0.0,0.0,0.0,0.0,0.0,0.0,0.0,0.0,0.26274511218070984,0.6745098233222961,0.9960784316062927,0.9960784316062927,0.8823529481887817,0.8549019694328308,0.8549019694328308,0.929411768913269,0.9725490212440491,0.1568627506494522,0.0,0.08235294371843338,0.6431372761726379,0.7333333492279053,0.0,0.0,0.0,0.0,0.0,0.0,0.0,0.0,0.0,0.0,0.0,0.0,0.0,0.3490196168422699,0.8588235378265381,0.9960784316062927,0.3803921639919281,0.26274511218070984,0.054901961237192154,0.0,0.0,0.3607843220233917,0.9058823585510254,0.47843137383461,0.09019608050584793,0.7960784435272217,0.9254902005195618,0.23137255012989044,0.0,0.0,0.0,0.0,0.0,0.0,0.0,0.0,0.0,0.0,0.0,0.0,0.09803921729326248,0.8509804010391235,0.9490196108818054,0.3607843220233917,0.01568627543747425,0.0,0.0,0.0,0.0,0.01568627543747425,0.5764706134796143,0.9921568632125854,0.9411764740943909,0.9098039269447327,0.3607843220233917,0.0,0.0,0.0,0.0,0.0,0.0,0.0,0.0,0.0,0.0,0.0,0.0,0.0,0.3960784375667572,1.0,0.3607843220233917,0.0,0.0,0.0,0.0,0.0,0.0,0.4117647111415863,0.9960784316062927,0.9960784316062927,0.6941176652908325,0.04313725605607033,0.0,0.0,0.0,0.0,0.0,0.0,0.0,0.0,0.0,0.0,0.0,0.0,0.0,0.0,0.6549019813537598,0.95686274766922,0.16078431904315948,0.0,0.0,0.0,0.027450980618596077,0.2980392277240753,0.7803921699523926,0.9333333373069763,0.9372549057006836,0.3686274588108063,0.03921568766236305,0.0,0.0,0.0,0.0,0.0,0.0,0.0,0.0,0.0,0.0,0.0,0.0,0.0,0.0,0.0,0.7529411911964417,0.4745098054409027,0.0,0.0,0.007843137718737125,0.24705882370471954,0.7058823704719543,0.9960784316062927,0.9137254953384399,0.4941176474094391,0.0,0.0,0.0,0.0,0.0,0.0,0.0,0.0,0.0,0.0,0.0,0.0,0.0,0.0,0.0,0.0,0.0,0.0,0.7450980544090271,0.7686274647712708,0.054901961237192154,0.007843137718737125,0.3803921639919281,0.9960784316062927,0.9882352948188782,0.572549045085907,0.20392157137393951,0.0,0.0,0.0,0.0,0.0,0.0,0.0,0.0,0.0,0.0,0.0,0.0,0.0,0.0,0.0,0.0,0.0,0.0,0.0,0.5098039507865906,0.8823529481887817,0.27843138575553894,0.7058823704719543,0.9098039269447327,0.7098039388656616,0.23529411852359772,0.0,0.0,0.0,0.0,0.0,0.0,0.0,0.0,0.0,0.0,0.0,0.0,0.0,0.0,0.0,0.0,0.0,0.0,0.0,0.0,0.0,0.5098039507865906,0.9960784316062927,0.9960784316062927,0.9019607901573181,0.18039216101169586,0.0,0.0,0.0,0.0,0.0,0.0,0.0,0.0,0.0,0.0,0.0,0.0,0.0,0.0,0.0,0.0,0.0,0.0,0.0,0.0,0.0,0.0235294122248888,0.3019607961177826,0.95686274766922,0.9960784316062927,0.6352941393852234,0.01568627543747425,0.0,0.0,0.0,0.0,0.0,0.0,0.0,0.0,0.0,0.0,0.0,0.0,0.0,0.0,0.0,0.0,0.0,0.0,0.0,0.0,0.0,0.0,0.4313725531101227,0.9960784316062927,0.8549019694328308,0.9960784316062927,0.45490196347236633,0.0,0.0,0.0,0.0,0.0,0.0,0.0,0.0,0.0,0.0,0.0,0.0,0.0,0.0,0.0,0.0,0.0,0.0,0.0,0.0,0.0,0.0,0.5137255191802979,0.9960784316062927,0.6039215922355652,0.10980392247438431,0.8352941274642944,0.33725491166114807,0.0,0.0,0.0,0.0,0.0,0.0,0.0,0.0,0.0,0.0,0.0,0.0,0.0,0.0,0.0,0.0,0.0,0.0,0.0,0.0,0.0,0.25882354378700256,0.8196078538894653,0.6000000238418579,0.07450980693101883,0.07450980693101883,0.9137254953384399,0.23529411852359772,0.0,0.0,0.0,0.0,0.0,0.0,0.0,0.0,0.0,0.0,0.0,0.0,0.0,0.0,0.0,0.0,0.0,0.0,0.0,0.0,0.0,0.5568627715110779,0.9960784316062927,0.6470588445663452,0.0,0.054901961237192154,0.8470588326454163,0.6549019813537598,0.0,0.0,0.0,0.0,0.0,0.0,0.0,0.0,0.0,0.0,0.0,0.0,0.0,0.0,0.0,0.0,0.0,0.0,0.0,0.0,0.0,0.3529411852359772,0.9960784316062927,0.686274528503418,0.0,0.07058823853731155,0.8980392217636108,0.3607843220233917,0.0,0.0,0.0,0.0,0.0,0.0,0.0,0.0,0.0,0.0,0.0,0.0,0.0,0.0,0.0,0.0,0.0,0.0,0.0,0.0,0.0,0.10196078568696976,0.8980392217636108,0.9764705896377563,0.6901960968971252,0.8705882430076599,0.95686274766922,0.1725490242242813,0.0,0.0,0.0,0.0,0.0,0.0,0.0,0.0,0.0,0.0,0.0,0.0,0.0,0.0,0.0,0.0,0.0,0.0,0.0,0.0,0.0,0.0,0.2862745225429535,0.7568627595901489,0.772549033164978,0.5254902243614197,0.0,0.0,0.0,0.0,0.0,0.0,0.0,0.0,0.0,0.0,0.0,0.0,0.0,0.0,0.0,0.0,0.0,0.0,0.0,0.0,0.0,0.0,0.0,0.0,0.0,0.0,0.0,0.0,0.0,0.0,0.0,0.0,0.0,0.0,0.0,0.0,0.0,0.0,0.0,0.0,0.0,0.0,0.0,0.0,0.0,0.0,0.0,0.0,0.0,0.0,0.0,0.0,0.0,0.0,0.0,0.0,0.0,0.0,0.0,0.0,0.0,0.0,0.0,0.0,0.0,0.0,0.0,0.0,0.0,0.0,0.0,0.0,0.0,0.0,0.0,0.0,0.0,0.0,0.0,0.0,0.0,0.0,0.0,0.0,0.0,0.0,0.0,0.0,0.0,0.0,0.0,0.0,0.0,0.0,0.0,0.0,0.0,0.0,0.0,0.0,0.0],"rows":784},"inputs":784,"output":{"cols":1,"data":[0.03176754713058472,0.00003380660928087309,0.08864863961935043,0.9997993111610413,0.9995015859603882,0.000035480796213960275,0.00006285246490733698,0.9999938011169434,0.14438825845718384,1.4353799038246962e-8,0.9998194575309753,0.9999991655349731,0.9997088313102722,0.9999998807907104,0.9999974966049194,0.009583909995853901,2.2289439129963284e-6,0.9999988079071045,0.9998725652694702,0.9999997615814209,4.180858184099634e-7,0.281339168548584,0.01180193293839693,0.9999876022338867,0.9999750852584839,0.003676872467622161,0.18649396300315857,0.9309302568435669],"rows":28},"outputs":28,"weights":{"cols":784,"data":[-0.33565187454223633,0.6809210777282715,-0.34964489936828613,-0.5008611679077148,0.3005303144454956,0.8356385231018066,0.6887092590332031,0.19614636898040771,-0.7423849105834961,0.5776357650756836,-0.8335204124450684,0.13490307331085205,-0.8036904335021973,0.9600397348403931,0.7897031903266907,-0.5192652344703674,-0.41245317459106445,0.09366786479949951,0.4394817352294922,0.7118391990661621,0.0984945297241211,0.32112741470336914,-0.6426448822021484,0.8736076354980469,-0.8840136528015137,0.7834327220916748,-0.5833505392074585,-0.1346365213394165,0.4925628900527954,-0.10118710994720459,-0.43904995918273926,-0.16246068477630615,-0.47085386514663696,0.2855733335018158,-0.44423434138298035,-0.5781198143959045,-0.19732899963855743,1.034029483795166,-0.2939845621585846,0.07796644419431686,1.0518288612365723,-0.28790321946144104,0.8785179257392883,-0.5462567806243896,-0.27410221099853516,0.8912070989608765,0.5214046239852905,0.006773920729756355,-0.9436101913452148,-0.7431375980377197,-0.9907203316688538,0.0335024818778038,-0.6864217519760132,-0.6003772020339966,0.08561825752258301,0.07213473320007324,0.6551792621612549,-0.9580047130584717,-0.29347217082977295,-0.4904600977897644,0.21428237855434418,-0.25257307291030884,-0.4791128933429718,-0.14628386497497559,0.7590421438217163,0.19479091465473175,0.50052410364151,1.1887022256851196,0.9906989932060242,0.21666710078716278,-0.09339495003223419,-0.2947693169116974,0.5264256596565247,0.5990952849388123,-0.6221885681152344,0.5651680827140808,-0.789919912815094,0.5371419191360474,-0.6869772672653198,0.7406973838806152,-0.02964140474796295,0.6987209320068359,-0.1267702579498291,0.9048727750778198,0.49851226806640625,-0.18728387355804443,-0.9067079424858093,-0.43726181983947754,-0.16143377125263214,0.32250258326530457,0.714982807636261,0.6867504119873047,0.9813222885131836,1.5297330617904663,1.049043893814087,1.45712411403656,0.7445220351219177,1.7409262657165527,1.295722484588623,1.6946557760238647,0.6035754084587097,0.08558207750320435,-1.0312442779541016,0.21787188947200775,-0.17464280128479004,-1.034186601638794,-0.7200656533241272,-0.5188617706298828,-0.6685258150100708,0.07264713943004608,-0.5895785093307495,-0.6472668647766113,-0.9442101716995239,-0.15587469935417175,0.6516313552856445,0.8156058192253113,-0.91829913854599,-0.44464755058288574,-0.5777420997619629,0.8345404267311096,-0.09823920577764511,0.4407307803630829,1.7882425785064697,1.3426513671875,1.009416103363037,-0.7852271795272827,-0.7020661234855652,-0.7776005268096924,0.04320058226585388,0.22718596458435059,-1.854028582572937,-0.4635247588157654,0.5323258638381958,0.021806372329592705,-0.8247262239456177,-0.8248927593231201,-0.7211933135986328,-0.8875802159309387,0.615015983581543,0.11025454849004745,0.8287907838821411,-0.6968429088592529,0.6431534290313721,0.36688199639320374,-0.61355060338974,-0.2813025414943695,-0.2194664180278778,0.20585934817790985,0.10393502563238144,-1.5929621458053589,1.3453713655471802,-0.6072503328323364,0.09584107249975204,0.39065009355545044,0.796534538269043,0.2672445774078369,-0.13473452627658844,-0.3470780551433563,-0.6900209784507751,-1.04539155960083,-0.949703574180603,-0.3567731976509094,-0.37273263931274414,0.4256668984889984,-1.527893304824829,-0.8001798987388611,-0.08846063911914825,0.9198551177978516,-0.25814199447631836,0.366410493850708,-0.16581426560878754,0.5907525420188904,-0.7199841737747192,0.4349236786365509,-0.4970623850822449,-1.4567995071411133,-1.3510444164276123,-2.681978225708008,0.3410242795944214,-0.8432313203811646,-0.3487001359462738,0.8684813380241394,1.3635218143463135,0.5411877036094666,0.7999638319015503,0.17486391961574554,1.1532447338104248,-0.8917686939239502,-0.3402692377567291,0.21169644594192505,0.8465737700462341,-0.33719080686569214,0.7331628203392029,0.3619670569896698,0.7383905649185181,-0.6730292439460754,-0.7888056039810181,0.653164803981781,0.5773798823356628,-0.3533051013946533,-0.41538769006729126,0.03942619636654854,-0.9514506459236145,-1.015326738357544,-0.6387745141983032,-0.7959583401679993,-2.403867483139038,0.38535329699516296,1.2204676866531372,0.7868946194648743,0.6309049725532532,1.4455881118774414,0.19090966880321503,-0.19648322463035583,-0.053858090192079544,-0.2625228762626648,-0.21384015679359436,-0.9099799990653992,-0.2822208106517792,-1.0915272235870361,0.8066549301147461,-0.5761246085166931,-0.4333229959011078,-0.8770045638084412,0.01895342953503132,0.44053915143013,0.13817816972732544,0.2616253197193146,-0.9281136393547058,-1.156369686126709,0.12325672060251236,-1.0135927200317383,1.120315432548523,-0.7088449001312256,0.31249871850013733,-1.0383048057556152,-1.6698108911514282,-0.061280228197574615,0.29735663533210754,1.1205772161483765,0.23473091423511505,0.381173312664032,-0.355918288230896,-0.0007687296019867063,-0.15322068333625793,-0.11015244573354721,-0.9188588857650757,-0.9246518611907959,0.8444100618362427,-0.5443164110183716,-0.648445725440979,0.11147895455360413,0.43003717064857483,0.17469866573810577,-0.29942837357521057,0.016364747658371925,-1.1851437091827393,-0.6239736676216125,0.37657156586647034,0.05399719998240471,1.5555506944656372,-0.6473343372344971,0.23553012311458588,0.6733558773994446,-0.6973835825920105,0.4826596677303314,0.13961096107959747,2.3864874839782715,0.44351905584335327,-2.082298994064331,-0.2249760627746582,0.08037537336349487,-0.02806534618139267,-0.7433366775512695,0.5459775328636169,0.48805418610572815,-0.12991417944431305,-0.1495048999786377,-0.1567564755678177,0.03643367812037468,-0.7422643899917603,0.7719264030456543,-0.03723672032356262,-0.3955444097518921,0.1688690036535263,-1.928146481513977,-1.1930179595947266,-0.28751465678215027,-0.3390379250049591,-1.3608808517456055,0.2738243043422699,-0.2754518687725067,-0.17027823626995087,0.08851886540651321,1.3909050226211548,0.2574969232082367,0.021470431238412857,-0.9966005086898804,0.5633318424224854,-0.38680508732795715,-0.5372702479362488,-0.1031578779220581,-0.2454501986503601,-0.9594588279724121,-0.4101901352405548,-0.05847012996673584,-0.3287505805492401,0.4343329071998596,0.3123946785926819,-0.5659719109535217,-0.5329576730728149,-1.0221556425094604,-1.7078707218170166,-0.43888574838638306,0.4094369411468506,-1.2138354778289795,-0.4922536313533783,0.8616620302200317,-0.5211864113807678,0.4388929009437561,0.9769136309623718,0.22689390182495117,0.10619655251502991,0.858110785484314,0.2252945899963379,0.40796300768852234,0.6503478288650513,0.45867493748664856,1.0196168422698975,-0.14934635162353516,0.36787793040275574,1.055586338043213,0.45463982224464417,-0.9689621925354004,0.3930632472038269,-0.5159353613853455,-0.59125816822052,-0.12472229450941086,0.25854232907295227,0.3554275929927826,0.49987849593162537,0.04254754260182381,0.38947343826293945,0.19074827432632446,-0.07063382118940353,-0.6742317080497742,-0.041155919432640076,0.661989152431488,0.11215192079544067,0.5113741755485535,-0.3354795575141907,-0.8650383353233337,-0.3349108397960663,-1.144608974456787,0.3896864354610443,0.1716495156288147,-0.8695744276046753,-1.0766017436981201,0.208642840385437,0.012979654595255852,-0.9048312902450562,0.34732985496520996,-0.7313652038574219,0.5521414279937744,-0.3808899223804474,-0.6798220872879028,-0.2520124018192291,-0.6835291385650635,2.0787086486816406,1.3559503555297852,0.3595079183578491,0.726318359375,0.5308085680007935,1.0285027027130127,1.0057494640350342,0.6352381110191345,1.4049413204193115,1.0876119136810303,-0.5935534834861755,-1.0041619539260864,0.9572069048881531,-0.16644161939620972,0.04405805841088295,-0.04519825056195259,-0.4444659948348999,-0.24128921329975128,-1.1243277788162231,-0.17618604004383087,0.4912901818752289,0.30248135328292847,-0.7694281339645386,-0.8037299513816833,0.7976444959640503,-0.9506750702857971,0.13071341812610626,0.6912904381752014,0.15228967368602753,2.416428327560425,2.4066052436828613,1.9157533645629883,2.4330663681030273,1.2262367010116577,1.5372480154037476,-0.07109706103801727,-0.10980428010225296,0.0006125789950601757,0.5794363021850586,-1.0465821027755737,-0.4858475923538208,-1.1356513500213623,0.5565680861473083,-0.012632262893021107,0.9158961176872253,0.41462773084640503,0.34024307131767273,0.7284170985221863,0.9022964239120483,0.13198338449001312,-0.21032080054283142,0.248255655169487,-0.8655698895454407,0.436870813369751,-1.000124216079712,-0.6695482730865479,0.05007147416472435,0.7974332571029663,1.2704617977142334,1.1293580532073975,0.5676661729812622,1.2553534507751465,0.23361057043075562,-0.49207043647766113,-0.6689239740371704,-1.2815028429031372,-0.023314394056797028,-0.215989887714386,0.5724843144416809,0.9133426547050476,-0.9340829849243164,0.37969234585762024,-0.26047760248184204,0.2827033996582031,0.5029927492141724,-0.10177537053823471,1.2430754899978638,0.36487409472465515,-0.9273341298103333,0.33991187810897827,-0.3478899300098419,0.8630836009979248,0.9317601919174194,0.6136357188224792,-0.15863347053527832,0.640633225440979,0.38112130761146545,-0.0940311923623085,0.32211917638778687,-0.3884274363517761,0.3196938931941986,-0.3698820173740387,0.1191018596291542,-1.393928050994873,0.405184805393219,-0.6336031556129456,0.28651177883148193,-1.3338472843170166,0.20054806768894196,-0.9377080798149109,0.4615262746810913,0.13249677419662476,0.22045479714870453,-0.7518854737281799,-0.024517254903912544,0.5033990144729614,0.8146980404853821,0.1230383813381195,-0.758684515953064,-0.20983153581619263,0.4041917026042938,0.6586882472038269,0.01375826820731163,1.0593284368515015,-0.06311081349849701,-0.287002295255661,-0.5846158266067505,0.14556030929088593,0.6011916399002075,-0.21046432852745056,0.45500698685646057,-0.7434659004211426,-0.5175467133522034,-0.13010597229003906,-0.6519584655761719,0.6951208710670471,0.13472945988178253,-0.6012822985649109,-0.7075979709625244,-0.2485368847846985,0.9836408495903015,-0.45772525668144226,-0.9316030144691467,0.7924448847770691,0.19644547998905182,-0.725465714931488,-0.6137725710868835,-0.43690580129623413,0.1806267946958542,0.7307539582252502,0.2670288681983948,-0.3511265814304352,-0.3656121790409088,0.3061002194881439,-0.4669840633869171,-0.008980774320662022,-0.3123881220817566,-0.08008293807506561,-1.7057744264602661,0.35277000069618225,-0.25599199533462524,1.005271315574646,0.30460506677627563,0.1729148030281067,0.7238258123397827,0.42981523275375366,-1.0399807691574097,1.353771448135376,0.4765463173389435,-0.1297590732574463,-0.37986627221107483,-0.34199774265289307,0.3620634973049164,-0.7839068174362183,0.4437560737133026,-0.2409755438566208,-0.6895618438720703,-0.040963053703308105,-0.439293771982193,-0.48630842566490173,0.03417608141899109,-0.02415315806865692,-0.5975928902626038,-0.6997643709182739,-0.08571962267160416,-0.40549254417419434,-0.30238163471221924,-0.2755478322505951,0.20476271212100983,0.7919045686721802,0.742691695690155,0.6756622195243835,0.21044637262821198,0.1960652619600296,-0.7257980704307556,-0.01799079030752182,0.5807823538780212,0.5699164867401123,0.46963393688201904,-0.433238685131073,-0.6756272912025452,0.31548380851745605,-0.5585453510284424,0.5573166608810425,0.4900473356246948,-1.0101834535598755,0.047706447541713715,-0.29925158619880676,-0.2032214105129242,-0.6266127824783325,-0.8412325978279114,0.21052172780036926,0.2824041545391083,-0.38913989067077637,0.24223798513412476,0.11375468224287033,0.4791219234466553,-1.241635799407959,1.7689402103424072,0.4356614947319031,0.3471745252609253,-0.031268179416656494,-1.1254658699035645,-0.41615915298461914,-0.760487973690033,0.618281364440918,-0.3908565640449524,0.5921728610992432,0.2943516969680786,0.22180144488811493,-0.26738718152046204,0.7203072309494019,-0.026554154232144356,-0.10242109000682831,-1.0406368970870972,-0.1824597269296646,0.37936046719551086,-0.3843642771244049,0.173833429813385,0.08940288424491882,-0.7173542976379395,1.339158296585083,-0.1663641482591629,0.5900590419769287,0.35427606105804443,-0.24798157811164856,0.21760067343711853,-0.554398238658905,0.02147616446018219,0.592932939529419,-0.003976837266236544,-0.46004292368888855,0.182533860206604,-0.9127137660980225,-0.39128220081329346,0.17566540837287903,-0.6740859746932983,-0.35436585545539856,-0.45278507471084595,0.5765600204467773,0.25906598567962646,-0.36117804050445557,-0.7727352976799011,-1.4180203676223755,-1.019435167312622,0.09690487384796143,-0.4568651616573334,-0.3749115765094757,-0.46536049246788025,-1.7783699035644531,-0.3081912696361542,-0.616520345211029,-0.8222029209136963,-0.9618349671363831,-0.8072118163108826,0.7273773550987244,-0.7672218084335327,-0.6544482707977295,-0.5395989418029785,-0.6937255263328552,0.42073696851730347,0.5820788145065308,0.34172406792640686,0.5960031151771545,0.8224729299545288,0.1540290117263794,-0.06942188739776611,-0.16668248176574707,-0.4805435538291931,0.020962044596672058,-0.8198027610778809,0.7196182012557983,-0.2043386697769165,-1.0912494659423828,0.8130207061767578,0.49178174138069153,-0.7684842944145203,0.2311069220304489,-0.2213209718465805,-0.8963027000427246,-0.49791815876960754,-1.6489661931991577,-0.1306869387626648,-0.8530063033103943,-0.5873990058898926,0.606349527835846,-0.2808617949485779,0.2647886574268341,0.07172077149152756,-0.45082026720046997,-0.09762334823608398,-0.19207820296287537,-0.8175222873687744,0.8073675632476807,-0.734257698059082,0.398962140083313,-0.18273961544036865,0.8234594464302063,0.8133212924003601,0.9087774157524109,-0.02088649943470955,-0.02721964195370674,0.779756486415863,0.39895257353782654,-0.5710931420326233,0.07966666668653488,-0.48730742931365967,-0.10955344140529633,-1.15651273727417,-0.060543302446603775,-1.9847278594970703,-0.3887261748313904,0.8265299797058105,-0.5658407211303711,0.6469716429710388,0.7207267880439758,-0.21051321923732758,0.17966562509536743,0.5178064107894897,-0.40013909339904785,0.8043393492698669,-0.8878310918807983,-0.020577549934387207,-0.3715165853500366,-0.18336430191993713,-0.5979675054550171,-0.003191123018041253,0.8181824088096619,0.6143285632133484,0.9311521649360657,-0.24599885940551758,0.9036626219749451,0.4602764844894409,0.48403075337409973,-0.3055233955383301,0.3655800521373749,0.5868261456489563,-0.19602327048778534,-0.5229551792144775,0.0255117304623127,-0.7728859186172485,0.18337595462799072,0.6115992069244385,1.2137006521224976,1.0687763690948486,0.4463902711868286,-0.9642637968063354,0.9433189630508423,-0.5463163256645203,-0.8539559841156006,0.1993314027786255,0.2930903434753418,0.7129079103469849,0.46518266201019287,-0.5276607871055603,0.731093168258667,1.1787700653076172,-0.25019440054893494,0.8514326214790344,1.4406810998916626,0.0743919387459755,0.6441434025764465,1.0496177673339844,0.9948208332061768,0.4761072099208832,-0.2399883270263672,0.8581430912017822,1.365847110748291,0.32393115758895874,0.7988413572311401,0.18561945855617523,0.4305921196937561,-0.7308708429336548,0.8614690899848938,0.6062769293785095,-0.8555034399032593,-0.23944437503814697,-0.12661445140838623,-0.9748187065124512,-0.3877805471420288,-0.16265320777893066,0.7877124547958374,-0.761258065700531,-0.11666347831487656,0.6112470030784607,-0.7086228132247925,-0.775113046169281,0.5708508491516113,0.049421731382608414,-0.5280910730361938,-0.398871511220932,-0.8542706966400146,0.8173395395278931,-0.1030241847038269,-0.29973140358924866,0.8449826836585999,-0.4128068685531616,0.440977543592453,-0.11959914863109589,-0.24360069632530212,0.812574028968811,-0.09798691421747208,-0.26107120513916016,0.07279825210571289,0.7327903509140015,0.38661158084869385,-0.34545600414276123,-0.6581437587738037,-0.9430537223815918,-0.11977481842041016,0.45713651180267334,0.33478546142578125,0.38593173027038574,-0.1858905553817749,0.2861902713775635,0.9983770847320557,0.3740640878677368,0.47747766971588135,0.2329917550086975,0.7937653064727783,-0.04340510442852974,0.3959576189517975,-0.7007739543914795,0.35711586475372314,0.549802303314209,0.41536498069763184,-0.574126124382019,-0.1551969051361084,0.7801384925842285,0.5633864402770996,0.05352663993835449,-0.18386054039001465,0.970572829246521,-0.06206202507019043,0.01516878604888916,0.1316279172897339,0.4186931848526001,0.8083049058914185,0.6119014620780945,-0.9570327997207642,0.6398513913154602,-0.3760315775871277,0.07417184114456177,-0.8811272978782654,-0.7450876832008362,-0.9790210127830505,-0.36731964349746704,0.7483811378479004,0.8443321585655212,-0.903422474861145,0.4914397895336151,0.743961751461029,-0.42126649618148804,-0.03237578272819519,0.862942099571228,-0.783039391040802,-0.38486194610595703,-0.460387259721756,-0.1465444564819336,0.963560938835144,0.5334967374801636,-0.20306909084320068,0.49480485916137695,0.9486857652664185,0.8121088743209839,0.7459822297096252,0.4683649241924286,0.6778896450996399,-0.7566642761230469,-0.43601518869400024,-0.9312345385551453,-0.334431916475296,0.10456144064664841,-0.8271670937538147,0.10118899494409561,0.2921237051486969,-0.5557053089141846,0.07301131635904312,0.8078423142433167,-0.17579223215579987,-0.16722455620765686,0.3416343331336975,-0.526433527469635,0.2971581220626831,0.19135044515132904,0.46314260363578796,-0.23897230625152588,0.37574511766433716,-0.8625342845916748,-0.06852734088897705,-0.6848307847976685,-0.3345651626586914,0.8874197006225586,-0.3660668432712555,-0.748653769493103,-0.8837864995002747,-0.08886578679084778,-0.3980414867401123,0.0963752418756485,0.7024897933006287,-0.8021530508995056,-0.5912145376205444,-0.7066099643707275,-0.0028445913922041655,-0.5994957089424133,0.8931668996810913,0.2759377658367157,-1.1960190534591675,0.5136303305625916,0.6038836240768433,0.5153049826622009,0.18136946856975555,-1.0214194059371948,0.006381976418197155,0.30486634373664856,0.8094103932380676,0.5767900943756104,0.24249482154846191,-0.4593747854232788,0.5190688371658325,-0.8256577253341675,-0.0042111314833164215,0.75154048204422,-0.2551420032978058,0.12822186946868896,-0.3965988755226135,-0.7474382519721985,-0.9609167575836182,0.5498365163803101,-0.5209286212921143,-0.2449616640806198,-0.09853760153055191,-0.4804772734642029,0.4472477436065674,-0.03535984456539154,-0.43864426016807556,-0.046683285385370255,0.06721464544534683,0.6291882395744324,1.3973815441131592,0.5574626326560974,0.4979914128780365,-0.15267762541770935,-0.44167694449424744,0.16418564319610596,-0.16898617148399353,-0.8099380731582642,0.9068257808685303,-0.8367348313331604,0.09275917708873749,0.6005502939224243,-0.6657707095146179,-0.16098779439926147,-0.16985534131526947,-1.79938542842865,-0.11268869042396545,-0.30834251642227173,-1.4156395196914673,0.015685005113482475,-0.9011044502258301,-0.09885208308696747,-0.8862741589546204,-0.24832840263843536,0.6699329614639282,0.5026064515113831,0.4624875783920288,0.37644052505493164,0.5169398784637451,0.4572362005710602,0.5799033641815186,1.1940470933914185,-0.9220789074897766,-0.6354240775108337,0.30760347843170166,0.8003072738647461,0.3679352402687073,-0.2906287908554077,-0.15696699917316437,-1.0778907537460327,-0.8374394774436951,-1.5579994916915894,-0.879510223865509,-0.227749764919281,0.5168849229812622,-0.03187914192676544,0.8153344392776489,-0.97242271900177,-0.44326546788215637,-0.422807514667511,1.0581145286560059,0.4841609001159668,-0.5083670616149902,-0.2631639838218689,0.179776132106781,-0.3887943625450134,-0.7469038367271423,0.7484898567199707,-0.24944669008255005,0.48405614495277405,0.4081391990184784,0.6217597126960754,0.01334775984287262,0.27989426255226135,0.6790806651115417,-0.4345358908176422,-0.38643577694892883,0.45125582814216614,-1.018666386604309,0.06126925349235535,-0.2415071427822113,-1.100268006324768,-0.4949953258037567,-0.2553817331790924,0.023134363815188408,-0.7322564125061035,-2.1021318435668945,0.08101063221693039,-0.46906155347824097,-0.5526424050331116,-0.23187845945358276,-0.37969914078712463,-0.136771559715271,0.44660884141921997,-0.590560257434845,0.3631783127784729,0.0035897043999284506,-0.6372154951095581,-0.19555777311325073,0.7580938935279846,0.9796658754348755,-0.8036119937896729,0.4016353487968445,-0.5758769512176514,0.2605588436126709,-0.5640755295753479,-0.17262057960033417,0.25675883889198303,-0.3518887758255005,0.23022718727588654,-0.32507815957069397,-0.46618908643722534,-1.1631869077682495,0.7248213291168213,-0.31000620126724243,-0.007072770036756992,-0.5812578201293945,-1.239018440246582,-0.8880850076675415,-0.46025049686431885,0.010146921500563622,-0.995811402797699,-0.20902258157730103,-0.8449019193649292,-1.4284697771072388,0.32602035999298096,0.9548261761665344,-0.9023270606994629,0.26424461603164673,0.7708826065063477,-0.35824018716812134,-1.0484232902526855,0.628934919834137,0.623073160648346,-0.43412238359451294,-0.5467621088027954,-0.6638106107711792,-0.4435657858848572,-0.7763235569000244,-1.3386962413787842,-0.5332542657852173,-1.827479362487793,-0.8765436410903931,-1.4744278192520142,-0.6879787445068359,-1.002522349357605,-1.0146862268447876,-0.6395445466041565,-1.6592942476272583,-1.1959532499313354,1.0968806743621826,-0.5736202001571655,0.36482009291648865,-1.0964351892471313,-0.4262638986110687,-0.1532183438539505,-0.14306993782520294,-0.7332329750061035,-0.36177295446395874,0.11017414182424545,0.7621704936027527,-0.14445701241493225,-0.2629677355289459,-0.45638757944107056,-1.115081548690796,-0.39088159799575806,-1.7314666509628296,-0.9400293827056885,-0.7902776598930359,-0.4518480598926544,-0.5138294100761414,-2.17337965965271,-0.09390275180339813,-0.02595743164420128,-1.3854645490646362,-0.22769099473953247,-0.3106914460659027,-0.22276511788368225,-0.43828126788139343,-0.7699927687644958,0.26534879207611084,0.003972930833697319,-0.6897628903388977,0.2879299819469452,-0.9606592655181885,-0.8876231908798218,-0.16321216523647308,-0.7921500205993652,-0.3022305369377136,0.7619224786758423,0.22997210919857025,0.9261087775230408,-0.14024651050567627,0.8338524699211121,1.1248548030853271,-0.06314899772405624,0.04875566065311432,0.9182104468345642,0.2325529307126999,-0.345788836479187,-0.3636103868484497,0.9396079778671265,1.3221276998519897,0.46109122037887573,0.5193168520927429,0.11121062189340591,0.7324831485748291,-0.25197792053222656,-0.661342442035675,0.8335822224617004,0.7630231380462646,0.23334147036075592,0.7735063433647156,0.6128138899803162,0.6754879355430603,-0.12631146609783173,-0.7174261808395386,1.3095083236694336,0.6234713196754456,0.27910834550857544,0.49228063225746155,0.4818997085094452,1.128661036491394,1.850730299949646,2.0187418460845947,0.7453510761260986,1.0559508800506592,1.8048728704452515,2.102503776550293,-0.3465482294559479,1.319708228111267,0.6881528496742249,-0.6197066307067871,-1.500860333442688,0.29713544249534607,-1.0410921573638916,-0.21686559915542603,-0.4445479214191437,-1.2939279079437256,-0.9574607610702515,0.89325350522995,0.6276215314865112,0.3053792417049408,0.9123490452766418,-0.12263946980237961,-0.20528246462345123,0.13022945821285248,0.8436285257339478,1.2395743131637573,0.6771451830863953,1.2515220642089844,-0.24695588648319244,0.35014331340789795,0.2680228650569916,1.5433870553970337,-0.2701295018196106,1.4843558073043823,-0.28999611735343933,0.06844878196716309,0.5050992369651794,0.033949363976716995,0.2939605116844177,-0.8124781847000122,0.36401084065437317,0.06218090280890465,0.05754101276397705,-0.27027803659439087,-0.5931589603424072,-0.2828851044178009,-0.48916539549827576,0.9282736778259277,0.3412324786186218,-0.3052181303501129,1.4033434391021729,0.4803588092327118,1.7168983221054077,0.7968708276748657,0.2941610515117645,-0.16877120733261108,-0.9935058355331421,-0.4349237382411957,0.1984173208475113,-0.5409026741981506,1.1701761484146118,0.4399629235267639,1.354419469833374,-0.38174453377723694,0.15216243267059326,0.7119419574737549,0.7928788661956787,-0.16595222055912018,-0.17423506081104279,-0.4235454797744751,0.34675437211990356,0.029555967077612877,-0.521353006362915,0.15092062950134277,0.27731984853744507,0.9535931348800659,0.5187167525291443,-0.5177560448646545,0.6540525555610657,0.09432061016559601,0.3233585059642792,-0.11173773556947708,0.2590734362602234,-0.48492950201034546,-1.0764611959457397,0.2321716994047165,-0.5736988186836243,-0.05476778373122215,0.8830322623252869,0.3730872869491577,0.927105188369751,-0.24173523485660553,-0.2701385021209717,-1.3973692655563354,-0.18731103837490082,-0.5695044994354248,-0.041193265467882156,0.2348642200231552,-0.35238513350486755,-0.5087715983390808,-0.25997716188430786,0.3718450367450714,-0.22552591562271118,0.07566486299037933,-0.5473987460136414,0.3549891710281372,-0.7220699191093445,-0.46973341703414917,-0.0733632817864418,-0.6064321994781494,-0.09778503328561783,0.013568692840635777,0.8586091995239258,-0.20434242486953735,-0.10847153514623642,0.7254197597503662,0.21347971260547638,0.6189318895339966,0.35875701904296875,0.4911620616912842,-0.005812678951770067,0.6003517508506775,0.3262123465538025,-0.511842668056488,0.5137792229652405,0.3629339635372162,0.21303947269916534,-1.08798086643219,0.02112792432308197,0.6514926552772522,-0.4557681083679199,-0.08212006837129593,-0.7306621074676514,-0.09924434870481491,0.7120215892791748,-0.7212396860122681,-0.28529152274131775,-0.13114280998706818,0.9418625831604004,0.11965614557266235,0.308478444814682,0.36767053604125977,-0.2434043288230896,-0.3573266565799713,0.2395506352186203,0.19949409365653992,0.6398049592971802,0.29380181431770325,1.6127667427062988,0.42710646986961365,0.6657360792160034,-0.2357984483242035,-0.7771228551864624,0.9707214832305908,0.009214389137923717,-1.1189922094345093,-0.7312222719192505,0.822124719619751,0.8168412446975708,-0.9738414287567139,0.016385518014431,-0.0875464603304863,-0.6665428280830383,-0.5634222626686096,0.36921238899230957,-0.015351623296737671,-1.0658137798309326,-0.8437762260437012,0.4050634503364563,-1.3263546228408813,-0.09538820385932922,-0.12604226171970367,-0.18850545585155487,1.5154823064804077,0.9884384870529175,-0.3092997074127197,-0.031132446601986885,0.8226918578147888,0.6724991202354431,1.3645648956298828,-0.8503758907318115,0.06400912255048752,-0.7533292770385742,-0.6670451164245605,-0.030640698969364166,0.2445983588695526,0.9337223768234253,0.588079571723938,-0.7345138192176819,-0.9526629447937012,0.40591415762901306,-0.29101550579071045,-0.19583994150161743,0.46315228939056396,-0.15507271885871887,-0.0009927100036293268,0.8036025762557983,0.622089147567749,-1.088725209236145,-0.34222230315208435,-1.148030400276184,0.15118344128131866,1.3309696912765503,0.8300032615661621,-0.42553865909576416,0.29707059264183044,1.0794116258621216,0.1455991268157959,-0.6482294797897339,-0.5866002440452576,-0.24619445204734802,-0.9605401754379272,-0.057019252330064774,0.40826600790023804,0.7215720415115356,-0.47070756554603577,0.04010721668601036,0.6530997157096863,0.7193665504455566,1.5608997344970703,-0.3305090665817261,-1.0551191568374634,-1.1026546955108643,0.13978272676467896,-0.7552847862243652,-0.8598586320877075,-0.03884866088628769,-0.7879451513290405,0.8692278265953064,-1.0650686025619507,0.6767091751098633,0.4050830006599426,0.7165458798408508,0.344062864780426,1.1380161046981812,0.22985419631004333,1.0623582601547241,1.1941806077957153,-0.4834049940109253,-0.3349512815475464,-0.7740093469619751,0.18315747380256653,0.2196362018585205,-0.412923663854599,0.8302893042564392,-0.3884085416793823,-0.3432055413722992,-0.6820580363273621,-1.174086332321167,0.47145864367485046,0.9891155362129211,-0.005841727834194899,0.9900231957435608,-0.4930059313774109,0.781848669052124,0.47980234026908875,-0.4431954324245453,0.02004253678023815,0.3177196681499481,1.2781473398208618,-0.20629936456680298,0.21500088274478912,1.1622065305709839,-0.1646784394979477,0.12676234543323517,-0.3215928375720978,1.0642420053482056,-0.05573692545294762,-0.14903302490711212,0.05438908934593201,0.9339092373847961,-0.46957528591156006,0.8217555284500122,0.4744844138622284,0.13327400386333466,0.1299826055765152,0.12390399724245071,-0.4381234645843506,-0.8173423409461975,-0.24776487052440643,-0.8505367636680603,-0.11650050431489944,-0.5768259763717651,-0.1482069194316864,-0.40430834889411926,-0.10516778379678726,0.38930580019950867,1.0565900802612305,-0.4472459554672241,0.9683406949043274,0.14588375389575958,0.25548821687698364,0.7289594411849976,-1.0765522718429565,-0.4237953722476959,-0.9169964790344238,0.2573384940624237,0.3153904378414154,0.2609517574310303,0.2839154005050659,0.561363935470581,0.9305325150489807,0.6288899183273315,0.08081316947937012,-1.0083119869232178,-0.6487867832183838,0.7377814650535583,-0.019991964101791382,-0.9481022953987122,-1.4939802885055542,-0.6428432464599609,-0.3647386133670807,-0.446955144405365,1.1849201917648315,0.24973902106285095,-0.45764097571372986,1.0802067518234253,0.49141427874565125,-0.02540787123143673,0.03416093438863754,0.2906508147716522,-0.089105024933815,-0.07158108055591583,0.013898931443691254,0.65815269947052,-0.08351361751556396,0.4843255281448364,0.7200223207473755,0.5219050645828247,-0.3745124042034149,0.33790433406829834,0.9208771586418152,0.7511025071144104,1.4710460901260376,1.2359181642532349,1.2275499105453491,0.7682992219924927,0.6016815900802612,0.9262885451316833,-0.3200436234474182,-0.13888727128505707,0.042559485882520676,0.3950652480125427,-0.3372248411178589,0.9136367440223694,0.5534683465957642,-0.044340282678604126,-0.1834876835346222,-0.11096157878637314,-0.06967348605394363,0.11103756725788116,0.21056883037090302,-0.1661723256111145,-0.9289427995681763,0.5217994451522827,0.8199784755706787,0.974230945110321,0.3932505249977112,0.0029758894816040993,-0.37160778045654297,0.5245156288146973,0.3784351646900177,0.04882551357150078,0.9164979457855225,0.9991437792778015,0.271282821893692,1.4453173875808716,0.8658114671707153,0.8125659227371216,-0.551093339920044,-1.0558016300201416,-1.141613245010376,0.5027221441268921,1.2810331583023071,-0.8744792342185974,-0.22611108422279358,0.5217418670654297,0.8512259721755981,-0.6618867516517639,0.25560998916625977,0.19398874044418335,0.13039565086364746,0.5636860132217407,0.41873621940612793,-0.8702020645141602,0.7522318959236145,-0.8494077920913696,-0.16554944217205048,-0.2514227032661438,0.2346981316804886,-0.5051934719085693,-0.7654241919517517,0.3999382257461548,-0.35448598861694336,-0.6445778012275696,0.2997708022594452,0.44169268012046814,-0.11844407021999359,0.4996226131916046,0.702910304069519,-0.4589923918247223,0.6264773011207581,0.6947317719459534,-0.43599531054496765,0.3455734848976135,-0.6668828725814819,0.7422656416893005,-0.0253379475325346,0.16779494285583496,-0.48061084747314453,0.9968243837356567,0.589018702507019,-0.8973866701126099,-0.9264277219772339,0.47460639476776123,-0.4559423327445984,0.0067097824066877365,-0.4453907907009125,-0.6046457290649414,0.021488085389137268,0.20328667759895325,0.00959281250834465,0.3294377326965332,0.1798645555973053,-0.6230729222297668,-0.24183166027069092,-0.3347621262073517,0.7138766050338745,-0.7773141264915466,0.3257027566432953,-0.20700165629386902,-0.20627544820308685,0.5525588989257812,-0.38385432958602905,0.6117007732391357,-0.08853411674499512,0.8715977668762207,0.329198956489563,0.10798466205596924,-0.11988258361816406,0.06995785236358643,-0.9385577440261841,0.6292754411697388,-0.3296947479248047,-0.2364283800125122,0.04085493087768555,0.7868257761001587,-0.053405046463012695,0.6322852373123169,-0.33102262020111084,-0.03135969117283821,0.4625157415866852,-0.08683629333972931,0.14457163214683533,0.7592896223068237,0.3663523197174072,-0.22093045711517334,-0.6079788208007812,0.08108019828796387,-0.5545800924301147,-0.3574843406677246,-0.5003789663314819,0.6937377452850342,0.666155219078064,-0.06074333190917969,0.35345959663391113,0.355593204498291,0.6194925308227539,0.9606784582138062,0.07645952701568604,0.4153484106063843,0.5643766522407532,0.8483130931854248,-0.25194162130355835,-0.01122173573821783,-0.22429805994033813,-0.5028106570243835,-0.8741064071655273,-0.40058594942092896,0.007762355729937553,-0.8281628489494324,-0.8570660948753357,-0.034212611615657806,-0.4868053197860718,0.44621220231056213,0.39842188358306885,-0.19561634957790375,-0.057414133101701736,0.342370867729187,0.4243146479129791,-0.5233156681060791,0.08990788459777832,0.5678409337997437,-0.33279502391815186,0.574000358581543,-0.7814563512802124,0.9377208948135376,0.6352658271789551,-0.7733321189880371,-0.5001649856567383,-0.6260340809822083,-1.002589464187622,-0.7390604019165039,-0.4341883957386017,-0.4685128927230835,0.18060454726219177,-0.5795791745185852,0.13426227867603302,-0.5547479391098022,0.7927234172821045,0.6895065307617188,0.9320557713508606,0.09119699150323868,0.6735361218452454,0.7935347557067871,-0.17981091141700745,0.990048885345459,0.9777907729148865,-0.9353450536727905,-0.6354031562805176,-0.06473803520202637,0.602749228477478,-0.37019145488739014,0.6923844814300537,0.6309072375297546,-0.25544750690460205,0.704063892364502,-0.31179580092430115,-0.625126302242279,0.7881150245666504,0.8977881073951721,0.018284091725945473,-0.4248568117618561,0.9379318356513977,0.06230228394269943,0.8630395531654358,-0.2666577994823456,0.7429949641227722,0.5740557909011841,0.8344115018844604,0.5012759566307068,-0.2752193510532379,0.5113678574562073,0.1525057703256607,0.9996142387390137,-0.7656866908073425,0.9358945488929749,-0.8816341161727905,0.8646318316459656,0.470470666885376,0.7323794364929199,-0.44070759415626526,0.6947527527809143,0.2265048772096634,0.9152178168296814,0.7261795997619629,-0.15407687425613403,0.3153573274612427,0.6593419909477234,0.9681511521339417,0.08001713454723358,-0.6109606623649597,0.2776058614253998,1.1714943647384644,-0.8546332716941833,-0.14395985007286072,-0.8335670828819275,0.42985838651657104,-0.1412264108657837,1.0756586790084839,-0.3936530649662018,-0.004806774202734232,0.21387934684753418,0.6623570322990417,1.0100276470184326,-0.9191364645957947,0.9430442452430725,-0.4437631368637085,-0.6336085796356201,0.38829660415649414,0.9390037655830383,-0.052543755620718,0.02544635720551014,-0.9856836199760437,-0.8468039035797119,0.21041199564933777,-1.184010624885559,-0.4177796542644501,-1.1324470043182373,-0.31618180871009827,0.9328428506851196,0.09658395498991013,0.523077666759491,-0.6132581233978271,-0.649524986743927,-0.6792342662811279,0.03468765318393707,0.5022158622741699,0.5984113216400146,0.4785670340061188,0.34385839104652405,-0.4259345829486847,-0.7518090009689331,-1.0261337757110596,-0.2906000018119812,0.16603624820709229,0.12602996826171875,0.24421167373657227,-0.24210414290428162,0.45555171370506287,-1.1013973951339722,-0.29652151465415955,-1.4973857402801514,0.28263983130455017,-0.481440007686615,-0.04083877056837082,0.07795330882072449,-0.8272805213928223,-0.2538163661956787,-0.10205650329589844,-0.041138168424367905,-0.0954749584197998,-0.004500891547650099,0.6037833094596863,0.004630951676517725,-0.4748210310935974,-0.2696961462497711,-0.9078777432441711,-0.14035694301128387,-0.37664595246315,-0.18409879505634308,-0.6459351778030396,-0.9642881155014038,-0.31963691115379333,-0.13805626332759857,-0.3088383674621582,-0.7871552109718323,-0.5160046815872192,-0.028355779126286507,-1.9143176078796387,-1.9495601654052734,-0.8375380635261536,-0.3621225655078888,-1.2733310461044312,-0.7763808965682983,-0.8369662165641785,-0.7906979322433472,0.5637049674987793,-0.7678206562995911,0.2543947994709015,-1.0405699014663696,0.751904308795929,-1.405225157737732,0.034932367503643036,0.26789233088493347,-0.30524563789367676,-0.8879750370979309,0.3777652978897095,-0.7673657536506653,-0.9667493104934692,0.6086108684539795,-0.6258425712585449,-0.440326452255249,-0.22189058363437653,0.9504780769348145,-1.232271432876587,-1.1754900217056274,-1.4416409730911255,-1.4382622241973877,-1.830531120300293,-0.4668393135070801,0.2411220520734787,-0.5652939081192017,-0.534561276435852,-1.1080999374389648,-0.38193729519844055,-0.9610037207603455,0.24480190873146057,-0.2913050949573517,-1.1632823944091797,-1.4723448753356934,-0.6978827118873596,-1.1052427291870117,0.20672135055065155,-0.9385842084884644,-0.5647785067558289,-0.01485128328204155,0.20265914499759674,-0.9982967972755432,-0.3531145453453064,0.2845804691314697,0.5960168838500977,-0.561943769454956,-1.4996482133865356,-1.032551646232605,-1.085798978805542,-0.1771157681941986,-0.5099825859069824,-0.15644614398479462,0.5964396595954895,-0.23794379830360413,-0.36502301692962646,-0.33294740319252014,1.0733832120895386,-1.4038923978805542,-1.2040390968322754,-0.3057650327682495,0.14469416439533234,0.0421283096075058,-0.9944498538970947,-0.03845660015940666,-0.4265994429588318,-0.8497490286827087,0.32343408465385437,0.529480516910553,0.38804540038108826,0.03367146477103233,0.7845876812934875,-0.758529782295227,-0.1442851573228836,-0.7462173104286194,-0.7156979441642761,-1.0968645811080933,-0.2119242548942566,0.06495773047208786,0.9742403626441956,0.42777368426322937,-0.5872569680213928,0.12640295922756195,-0.6982457041740417,-0.9707715511322021,-1.4675674438476562,0.06088215857744217,-1.28811514377594,-1.5283797979354858,-1.7144256830215454,-0.17344139516353607,-0.591616690158844,-0.33884233236312866,-0.6576683521270752,-0.2735341489315033,-0.19563117623329163,0.3098798394203186,-0.2974119782447815,-0.1346079707145691,-0.30048277974128723,0.58600252866745,-0.8253270387649536,-0.16331838071346283,-0.9701639413833618,-0.4470033645629883,1.155151605606079,1.348761796951294,0.21344396471977234,1.9090968370437622,0.48252537846565247,0.5443376302719116,-0.5466023683547974,-0.7010715007781982,-1.8385882377624512,0.0527738556265831,-0.8501693606376648,-1.1407541036605835,-1.0296636819839478,-0.6271160840988159,-0.36637577414512634,-0.5764623880386353,-1.4804840087890625,0.8814453482627869,-0.0958155021071434,-0.1238722875714302,0.5137822031974792,-0.7591213583946228,0.3814816176891327,-0.9748862385749817,-0.192271888256073,-0.7934215068817139,0.3495505154132843,0.6208064556121826,0.8031600117683411,0.6634607911109924,-0.5681983232498169,0.51334547996521,0.7647508978843689,1.4439923763275146,1.5957168340682983,-1.110769271850586,-1.6736557483673096,-1.0613740682601929,-0.4512963593006134,0.6067112684249878,1.466333270072937,-0.9695842862129211,1.090543270111084,1.163573145866394,0.4459179937839508,0.975404679775238,-0.024721231311559677,-0.06745170801877975,-0.43896007537841797,0.8189889788627625,0.2631359100341797,0.6119247674942017,-0.35653990507125854,-1.051200032234192,-1.0187370777130127,1.7411826848983765,0.4843904376029968,0.8439164757728577,1.279783844947815,1.3123408555984497,0.6372398734092712,2.325977087020874,3.000838279724121,2.446593761444092,1.1509450674057007,1.0091822147369385,1.0352810621261597,0.27987757325172424,0.40122923254966736,0.11792642623186111,0.7184346318244934,-0.7200256586074829,0.48371100425720215,-0.17160829901695251,-0.006252292077988386,-0.9653223752975464,-0.6904913783073425,-0.48205116391181946,0.7946194410324097,0.3952030837535858,-0.9879042506217957,-0.9200412631034851,-0.37224751710891724,0.24508053064346313,-0.43928927183151245,1.3437751531600952,0.8350882530212402,0.4783678352832794,0.8298097252845764,0.3410743176937103,1.3302867412567139,1.5054455995559692,0.16875597834587097,0.3268154561519623,0.7946394085884094,0.4307751953601837,-0.31827062368392944,-0.24121622741222382,0.133988156914711,0.016045788303017616,0.05161784961819649,0.17062437534332275,-0.712566077709198,-0.4646283984184265,0.35428932309150696,-0.07193431258201599,0.43044015765190125,-0.8460662364959717,0.13935257494449615,-0.9526064991950989,-0.3138640224933624,-0.07696519047021866,-0.06951513886451721,0.09928765147924423,0.42250803112983704,0.5826488733291626,0.38500329852104187,0.1161775141954422,0.5588256120681763,0.8479785323143005,0.5996184349060059,0.20050261914730072,0.011838235892355442,0.8689031004905701,0.8783324956893921,0.7522945404052734,-0.5566701889038086,-0.182468444108963,-0.28073838353157043,-0.049432870000600815,-1.5743308067321777,-0.13340343534946442,-0.023320995271205902,0.026455357670783997,0.8264548182487488,-0.5629452466964722,-0.9458360075950623,-1.1199911832809448,0.7492894530296326,0.4255143404006958,1.0184637308120728,-0.7413147687911987,0.7676054239273071,1.0389163494110107,0.022789159789681435,0.7439325451850891,0.9931212067604065,0.09015097469091415,0.7592160701751709,1.1540371179580688,0.567036509513855,0.3966960310935974,1.3785535097122192,0.9214116930961609,-0.1601763516664505,0.23049652576446533,-1.0653767585754395,-0.6906769871711731,-0.6752360463142395,-0.7239027619361877,1.2004261016845703,0.6084582805633545,-1.0134766101837158,0.8007844686508179,-0.48264896869659424,-1.0649625062942505,-0.7189849615097046,0.17356766760349274,-0.3948148190975189,1.3464497327804565,0.1234966441988945,1.0035356283187866,-0.4557584524154663,0.9231054186820984,0.7050186991691589,-0.9341220855712891,0.9816544055938721,0.16210901737213135,-0.0496692918241024,0.22746118903160095,-0.9508675336837769,0.4406231641769409,-0.4432227611541748,-0.6687127351760864,-0.0952368974685669,0.3081820011138916,0.36643868684768677,-0.08740035444498062,0.7681303024291992,0.7523441910743713,-0.12350085377693176,0.15022407472133636,-0.8242191076278687,-1.0682603120803833,0.4520750343799591,-0.06848033517599106,0.5446322560310364,0.9993973970413208,0.6253911852836609,1.4478191137313843,0.24077311158180237,0.7824205756187439,0.052578821778297424,0.657659113407135,0.23448273539543152,0.20899951457977295,0.5745653510093689,-0.17193561792373657,-0.3306742012500763,-0.6288378238677979,0.23693333566188812,0.38401663303375244,-0.2637483775615692,-0.9468965530395508,-0.3396218419075012,-0.32870325446128845,-0.2249927520751953,0.19969213008880615,-0.6718039512634277,0.7863797545433044,0.40369686484336853,-0.4483257234096527,-0.4070570170879364,-0.21796119213104248,0.890153706073761,0.29272720217704773,0.8138260841369629,-0.7260869741439819,-1.352296233177185,-0.010182441212236881,1.080491065979004,-0.2368910014629364,0.7711820602416992,0.5289196968078613,-0.3584759831428528,-0.828952431678772,-0.6625479459762573,1.177364468574524,-1.394174575805664,0.8420175909996033,0.508077085018158,0.7981213331222534,1.2871724367141724,-0.263369083404541,0.06790614128112793,0.3690214455127716,0.16018515825271606,0.8331797122955322,0.6220822334289551,0.41581806540489197,0.8370897173881531,-0.13362309336662292,0.3447444438934326,-0.6154581308364868,-1.1204904317855835,0.8664026260375977,1.2240244150161743,-0.7374868392944336,0.021428052335977554,-0.8056268095970154,-0.7522679567337036,-0.29084786772727966,1.759725570678711,0.009036999195814133,0.6389959454536438,-0.318284809589386,0.6853720545768738,0.05179080367088318,-0.28808796405792236,0.026828354224562645,-0.3712320327758789,-0.4415194094181061,-0.7230594158172607,0.08569490164518356,0.38137638568878174,-0.04765291139483452,-0.6910897493362427,-0.5239788293838501,-0.6835722327232361,-0.11625070869922638,-1.301215648651123,-1.259077787399292,-1.3761311769485474,-0.5626628398895264,0.0794009417295456,-0.15479214489459991,-0.7581441402435303,-1.3614776134490967,-0.7008098363876343,-0.8923678994178772,-0.6510429978370667,-0.8909134864807129,-0.7954207062721252,0.0006722004036419094,-0.13524076342582703,1.0244901180267334,-0.5467574000358582,0.3144156038761139,-0.0894172415137291,-0.4579653739929199,1.0062659978866577,0.9122377634048462,0.631483256816864,-0.8928819894790649,-0.047751642763614655,0.4506635367870331,0.0679570659995079,0.7145296335220337,-1.1948665380477905,-0.19111578166484833,-0.1592603623867035,-0.5181516408920288,-1.1001662015914917,-0.39172425866127014,0.05395051836967468,-0.3830004036426544,0.8756482005119324,-0.6984165906906128,-0.48028579354286194,-0.11325228214263916,-0.3549688458442688,-0.44019827246665955,0.09071817994117737,0.06392881274223328,1.0205020904541016,1.4470947980880737,1.413022756576538,-0.21825502812862396,0.3044840395450592,0.4972253441810608,0.14467881619930267,-0.6631859540939331,0.04078531265258789,0.6619997024536133,0.16432280838489532,-1.012840747833252,-0.6540086269378662,-0.7305156588554382,-1.2393878698349,0.2138000875711441,-0.39222726225852966,0.45104295015335083,-0.1357862502336502,0.38639554381370544,-0.45206013321876526,0.35426342487335205,-0.3530426323413849,0.06614851951599121,0.630272626876831,-0.8651375770568848,0.9519221782684326,1.95406174659729,1.544893503189087,1.6424472332000732,-0.17661432921886444,0.6603456735610962,-0.8064306378364563,-0.5668772459030151,0.6357927322387695,0.3621934652328491,-0.5373315811157227,0.2902739346027374,-0.9101324677467346,0.20553985238075256,0.5908371806144714,-0.6107577085494995,-0.1070418506860733,0.31844598054885864,-0.54981529712677,0.1351923644542694,0.21779699623584747,-0.0760112926363945,-0.09668117016553879,-0.1028638407588005,-0.12474328279495239,-0.7043470740318298,-0.37341028451919556,0.5627806782722473,-0.0596262663602829,1.6775059700012207,0.46487143635749817,1.1113898754119873,1.3512262105941772,-0.09053288400173187,0.8072405457496643,-0.42939427495002747,-0.32446885108947754,0.7431285381317139,0.8094867467880249,0.7782212495803833,0.10629603266716003,0.23864628374576569,0.7041757106781006,0.33452337980270386,1.3266805410385132,0.04770537093281746,0.16509713232517242,0.23571844398975372,-0.010744818486273289,-0.9878027439117432,-0.3712042272090912,0.7390064597129822,-0.34686481952667236,0.9652679562568665,0.8850104212760925,-0.9875625371932983,-0.7983428835868835,0.8923718929290771,-0.1584654152393341,-0.18750081956386566,-0.010874493978917599,-1.081520676612854,-0.41472479701042175,-0.651668906211853,0.7689496278762817,-0.26481497287750244,-0.27948033809661865,0.973671555519104,0.9335218071937561,0.8179569244384766,-0.3117128014564514,0.11755482852458954,0.21576844155788422,1.4223213195800781,0.4793989360332489,-0.6318099498748779,1.058523416519165,1.0612226724624634,0.21739165484905243,0.39250868558883667,0.5128854513168335,0.21849051117897034,0.6412088871002197,0.3358224332332611,-0.088381826877594,-0.4180396795272827,0.9213794469833374,0.409397155046463,0.519181489944458,0.7407143115997314,0.1653362512588501,-0.15909719467163086,-0.3254193067550659,0.8108953237533569,-0.1564633846282959,0.2442007064819336,0.9976874589920044,0.14590959250926971,0.5497193932533264,-0.46793681383132935,0.8779858350753784,-0.44570234417915344,0.2845322787761688,0.6229522824287415,-0.773063600063324,-0.5219138860702515,-0.0598239041864872,0.5852466225624084,0.7196678519248962,0.9524134993553162,0.5135877728462219,-0.39344322681427,0.006177374627441168,0.6569830179214478,-1.018009066581726,-0.34924256801605225,0.032974109053611755,0.2848649024963379,-0.1728532314300537,0.8258247375488281,-0.654903769493103,0.5669933557510376,-0.959148645401001,0.7316389083862305,0.131256103515625,0.22080528736114502,-0.7769014835357666,0.9377721548080444,-0.7581355571746826,-0.1552337408065796,-0.6316080093383789,0.9629248380661011,0.10344934463500977,-0.6076706647872925,0.42682671546936035,-0.5397166609764099,-0.2878403961658478,0.02641737461090088,0.922315239906311,0.5184735059738159,-0.041118741035461426,-0.7852760553359985,0.6993745565414429,0.2549755573272705,-0.4267141819000244,-0.22688353061676025,0.23819947242736816,0.9389145374298096,-0.9739669561386108,0.4658207893371582,0.6759129762649536,0.7428059577941895,-0.5021048784255981,-0.37414252758026123,0.07750697433948517,-0.02237287163734436,0.020644536241889,0.5269175171852112,0.9488546848297119,-0.1470915973186493,-0.013523991219699383,-0.924302339553833,0.34650835394859314,0.3350909948348999,0.8049861788749695,-0.30282652378082275,-0.5736619234085083,0.7109126448631287,0.17147141695022583,-0.059848979115486145,-0.48575857281684875,0.3381536304950714,0.2719677686691284,0.196905255317688,0.5316792726516724,-0.3919771909713745,0.6319304704666138,-0.715153694152832,0.6005501747131348,-0.8542574644088745,-0.27045878767967224,-0.7767937779426575,-0.27380964159965515,-0.6466498374938965,-0.09509696811437607,-0.6445228457450867,1.0011146068572998,-0.19563421607017517,0.6237242817878723,0.8109185695648193,0.9117943644523621,0.7065132260322571,1.3362629413604736,-0.5569590330123901,-0.428469181060791,1.008498191833496,1.0456476211547852,-0.6579526662826538,-0.06900457292795181,-0.6987209320068359,0.28192755579948425,-0.2892618179321289,0.34733837842941284,-0.6708352565765381,0.4794541597366333,-0.12135505676269531,-0.4790325164794922,0.3662038743495941,-0.4302152693271637,0.6790734529495239,1.0121418237686157,-0.13446862995624542,1.1236613988876343,1.0761898756027222,-0.31921374797821045,-0.5350902080535889,0.5830525159835815,0.991415798664093,-0.038917865604162216,1.0382593870162964,1.4401382207870483,1.002866268157959,0.750617265701294,0.0914844423532486,-0.5232799649238586,0.6977037191390991,0.8128053545951843,-0.889826774597168,-0.044997598975896835,-0.32304415106773376,0.46692436933517456,0.4611925184726715,0.8404688835144043,-0.33128201961517334,-0.40538454055786133,0.6144950985908508,0.9274033904075623,0.12897290289402008,0.7750297784805298,0.25820863246917725,0.1496838629245758,0.5807732939720154,0.6424809098243713,1.4170558452606201,0.5913584232330322,1.184934139251709,0.5294486880302429,-1.3183335065841675,-0.6953995823860168,0.13304823637008667,-0.37496715784072876,-1.3346651792526245,-0.2410915046930313,0.33469757437705994,0.24010799825191498,-0.5011541247367859,0.10496719181537628,-0.6756577491760254,-0.5125565528869629,-0.09248260408639908,-0.36207398772239685,0.19333434104919434,0.6901445388793945,0.4058029353618622,-0.7445604801177979,0.9206042289733887,0.35128748416900635,0.7103745341300964,0.05284404382109642,0.6721101999282837,-0.07065640389919281,1.0322628021240234,0.3427604138851166,0.5184855461120605,-0.175441712141037,0.40384066104888916,1.040981650352478,-0.15587276220321655,-0.5357815027236938,-0.5685781836509705,-0.23303233087062836,-0.05678238719701767,0.37742963433265686,-0.8605077266693115,-1.0160542726516724,-1.248679518699646,0.3138677179813385,-0.7852849960327148,0.972418487071991,-0.6078311204910278,0.9834076166152954,0.2826842665672302,0.856717050075531,0.6487242579460144,-0.40658295154571533,0.48610585927963257,-0.04127776622772217,0.9185107350349426,0.7137123346328735,0.5398431420326233,-0.2339327037334442,-0.2655624449253082,0.4903380870819092,-0.9687392711639404,0.3183510899543762,2.236686944961548,0.09890656918287277,-0.2609831988811493,0.0010099721839651465,1.156670331954956,-0.36495763063430786,-1.6797990798950195,-1.271139144897461,-1.178336501121521,-0.5098195672035217,-0.23095855116844177,0.4191596806049347,0.24338623881340027,0.39032217860221863,-0.30272993445396423,0.37538525462150574,-0.2917078137397766,0.9795135259628296,0.06728638708591461,-0.5767661929130554,-0.10834905505180359,0.6532461643218994,0.837624192237854,-0.4112585186958313,0.13389454782009125,-0.650711715221405,0.02106573060154915,1.0802959203720093,0.9581493735313416,0.5820488333702087,-0.291033536195755,0.3387669324874878,1.6332820653915405,0.46925199031829834,-0.3751474916934967,0.028666680678725243,0.7808048129081726,-0.28151610493659973,0.3032601773738861,0.44353634119033813,-0.5894188284873962,0.5766696333885193,0.5122955441474915,-0.389096736907959,-0.18624381721019745,-0.34056609869003296,0.31834372878074646,0.16030052304267883,-0.5927920341491699,0.9820237159729004,0.7566586136817932,-0.9373084902763367,0.33808138966560364,-0.2809768319129944,0.28351786732673645,0.22872985899448395,1.206486701965332,0.6969687938690186,-0.9296169877052307,0.31729573011398315,-1.2262072563171387,0.6512801051139832,-0.3653702735900879,0.11482164263725281,-0.3638923168182373,0.41180992126464844,0.17627957463264465,0.6462852954864502,-0.7021123170852661,-0.7368980646133423,0.5204595923423767,-0.05609992519021034,0.5877560973167419,-1.0144068002700806,-1.5352394580841064,-0.17501340806484222,-0.09776253998279572,-0.24607087671756744,-0.03530348464846611,0.12731429934501648,-0.07805953174829483,-0.4252091348171234,0.6759328246116638,-0.009143291041254997,0.8405176401138306,-0.5391181111335754,-0.5624287128448486,0.08370526880025864,-0.4785846769809723,-1.0685428380966187,-0.3348325192928314,-0.8041937947273254,0.37972015142440796,0.30130764842033386,1.1079953908920288,-0.8058986663818359,0.20228524506092072,-0.9233714938163757,-0.07943537086248398,0.039544034749269485,0.24409539997577667,-0.16114361584186554,0.8764572143554688,-0.17341651022434235,-0.47375765442848206,-1.1619552373886108,-1.216977596282959,-0.9759262800216675,-0.5032127499580383,-0.35213539004325867,-1.0084830522537231,0.06600333005189896,0.6452781558036804,0.3295774459838867,0.1096939966082573,0.3390979468822479,-0.005651221144944429,-0.8173953890800476,0.5790150761604309,0.298751562833786,-0.688775897026062,-0.374721884727478,-0.4129803478717804,0.9821792840957642,-0.14387251436710358,0.4226382076740265,0.5770058035850525,-0.4278990626335144,-0.9599573612213135,-0.9264544248580933,-0.23794035613536835,-0.6405382752418518,0.6866838335990906,0.011051233857870102,0.8926080465316772,-0.3684394657611847,-1.7703394889831543,0.06280838698148727,0.9125096797943115,2.180433511734009,1.4568570852279663,0.2977428734302521,-1.5999373197555542,0.10959502309560776,-0.08831571042537689,0.24398745596408844,-0.4069250822067261,-0.9402204155921936,-1.0300142765045166,0.16220150887966156,0.012795589864253998,-0.9678675532341003,-0.7142078280448914,0.5953941941261292,-0.09397489577531815,0.01033808384090662,-1.5522228479385376,-1.1881572008132935,-0.08038178086280823,-0.1068645566701889,-0.0671757161617279,-0.08071224391460419,-0.6993390321731567,-0.833114504814148,-0.9921666383743286,0.30757036805152893,1.1871894598007202,1.0398212671279907,-0.3506318926811218,-0.6386480927467346,-0.025764968246221542,-0.5197187662124634,0.25063133239746094,1.2434874773025513,0.18124762177467346,1.2138675451278687,1.0933313369750977,-0.038830723613500595,0.2852664887905121,-0.6352224946022034,-0.10058128088712692,-0.8631101846694946,-0.25719213485717773,-0.7743958234786987,-0.4924682080745697,-0.6287870407104492,-0.5742306709289551,-1.2297066450119019,-1.7317373752593994,-1.840759515762329,-1.2393218278884888,-0.4986710250377655,0.24284628033638,1.864013671875,1.7862849235534668,0.6720543503761292,1.0179579257965088,-0.8459814190864563,0.2020581066608429,1.2254561185836792,0.11812909692525864,0.33101844787597656,1.4443769454956055,-0.9277315735816956,-0.3171561062335968,0.6409265398979187,-0.10899902135133743,0.47624701261520386,0.9021261930465698,0.8865450620651245,0.8364911079406738,-0.6505807638168335,0.07276590168476105,0.06283734738826752,-0.487623929977417,-1.2329314947128296,0.06937098503112793,-0.29018253087997437,0.5329769849777222,-0.40139877796173096,2.107287883758545,1.847623348236084,0.3760616183280945,0.6912837624549866,0.7863978147506714,0.47582849860191345,0.748829185962677,0.6085907816886902,0.055303797125816345,0.4197254478931427,0.5666167140007019,-0.5604751706123352,0.3207986056804657,0.14773347973823547,-0.6982013583183289,-0.43731123208999634,0.13520501554012299,-0.05390625819563866,0.10458335280418396,0.8780447244644165,0.4710313677787781,0.2472771555185318,0.7631376385688782,-0.47223415970802307,0.3057267665863037,0.8790780305862427,0.3355916440486908,0.5458574295043945,1.7822191715240479,1.602657437324524,0.10503169894218445,0.17037034034729004,0.00463474215939641,-0.31707412004470825,-0.10790463536977768,0.4838191866874695,0.6581273078918457,1.1466314792633057,0.0931793600320816,-1.0009287595748901,0.6153505444526672,-0.3548968434333801,0.8159011006355286,-0.004961705766618252,0.352510005235672,-0.5639885663986206,0.5915807485580444,-0.7115415930747986,-1.1950310468673706,0.8271012306213379,0.4873890280723572,0.7044471502304077,0.7183870673179626,0.9261979460716248,-0.5946221351623535,1.6161634922027588,1.4732561111450195,0.9463001489639282,-0.7105289101600647,1.1512194871902466,1.1169275045394897,0.4472431540489197,1.5945035219192505,-0.47285887598991394,-0.2001367211341858,0.3176627457141876,-0.7826449871063232,-0.2625413239002228,-0.3714154064655304,-0.1681903898715973,-0.6001016497612,-0.016548946499824524,-0.2322251796722412,0.9750202298164368,0.9550922513008118,0.7935152053833008,-0.1778700202703476,0.14824606478214264,-0.05979003384709358,1.4465796947479248,0.6859157085418701,0.2018052190542221,0.48433730006217957,0.9953664541244507,0.9047085046768188,0.5795578956604004,-0.18788786232471466,0.38938403129577637,1.2122935056686401,-0.24701111018657684,-0.4827728569507599,-0.2650684416294098,-0.45453885197639465,0.7669756412506104,0.3419908285140991,0.7642605900764465,-1.0286147594451904,0.35175541043281555,0.3442838490009308,-0.7722147107124329,0.5913178324699402,-0.9669203758239746,0.21091216802597046,0.6715014576911926,0.5338078737258911,1.2066619396209717,0.17251840233802795,0.1258850246667862,-0.9142990708351135,0.8343676328659058,1.294594407081604,1.1425787210464478,0.7859378457069397,0.8268440365791321,-0.22259600460529327,-0.3987225890159607,-0.4279594123363495,-1.4103610515594482,-0.9512829184532166,0.13249553740024567,-0.5226273536682129,0.3850052058696747,-1.1278949975967407,-0.101883664727211,-0.8752016425132751,-0.5483402609825134,-0.9715726375579834,-0.5195233821868896,0.3396315574645996,-0.9981489181518555,0.05931917577981949,0.36041876673698425,0.5578382015228271,0.27531954646110535,-0.8654130697250366,0.03290180489420891,0.15727978944778442,0.8368241786956787,0.12046673893928528,1.4502971172332764,-0.08786483854055405,-0.30202943086624146,-0.2796662151813507,-0.6208723187446594,-0.8178075551986694,0.4493059813976288,-0.19856688380241394,-1.0365445613861084,-0.013112987391650677,0.4768746495246887,0.5696362853050232,-0.5647818446159363,-0.08778207004070282,0.8503779768943787,-0.7565230131149292,-0.9364490509033203,0.8173865079879761,-0.8710547089576721,-0.4947512447834015,0.4070211350917816,-0.2146317958831787,-0.8467069864273071,-0.7956289649009705,-0.3000586926937103,-0.9750621914863586,0.5422407984733582,0.918269157409668,-0.5597373843193054,-0.7270727753639221,-0.3848699629306793,-0.5980338454246521,-0.42774975299835205,0.13702203333377838,-0.018695371225476265,1.006253957748413,0.03372722119092941,0.46964168548583984,-0.8631710410118103,-0.7696972489356995,0.8775423169136047,-0.6197943687438965,-0.40868228673934937,-0.2572876214981079,-0.5961360335350037,-0.06248864531517029,-0.9010339379310608,-0.9454180598258972,0.24181728065013885,-0.2771225869655609,-0.8271000385284424,0.9199177026748657,0.6255908608436584,-0.5499768257141113,-0.35309284925460815,-1.8426454067230225,-0.3633479177951813,-0.5117825865745544,0.25027456879615784,-0.25689712166786194,-0.4440210163593292,0.4542957842350006,-0.37343162298202515,-0.4945140480995178,0.20035623013973236,1.4017243385314941,-1.2620849609375,-0.3017239272594452,-0.188865527510643,0.09386046230792999,-0.07396584004163742,-0.24289970099925995,-0.4779643714427948,0.4283503293991089,-0.5265320539474487,-0.07370299100875854,0.38340580463409424,-0.5550116300582886,-0.5024404525756836,0.3701280355453491,-0.8164209723472595,-0.9156444668769836,-1.5951128005981445,-0.42990046739578247,0.27885034680366516,0.5535460710525513,-0.24090665578842163,-0.035335492342710495,0.6644034385681152,-0.6758362054824829,-0.28492477536201477,-0.5243065357208252,-0.017179280519485474,-0.050055306404829025,-0.0985771045088768,0.5798807144165039,-0.05778460577130318,0.28625988960266113,0.3776717782020569,-0.06897521764039993,0.4580771327018738,0.12635409832000732,0.9411343336105347,0.29902032017707825,-0.8116212487220764,0.6968151330947876,0.38459572196006775,0.20772132277488708,-0.5716512799263,0.3131808936595917,-1.0568560361862183,-0.026977624744176865,-0.28571537137031555,-0.22867974638938904,0.5923639535903931,-0.12193823605775833,-0.26877328753471375,-0.5663410425186157,-0.6182569861412048,0.4566836655139923,0.2783159911632538,-0.7005084156990051,-0.8236880898475647,1.0418123006820679,-0.5086043477058411,-0.14700932800769806,-0.6819495558738708,-0.8490083813667297,0.6206141710281372,0.8317655324935913,-0.006040692329406738,-0.8419147729873657,-0.825631320476532,-0.4293489158153534,-0.13474754989147186,-0.2314794957637787,0.03873546048998833,-0.3613783121109009,-0.10058701783418655,-0.05107530951499939,-0.13789871335029602,-0.5819432735443115,0.17542095482349396,-0.824485182762146,0.012552965432405472,0.187220498919487,0.5761875510215759,-0.9782547354698181,-0.6715750694274902,1.014236569404602,-0.20990346372127533,-0.5205305814743042,1.3891189098358154,-0.004077858291566372,-1.016810417175293,-0.44534972310066223,-0.9465034008026123,0.7180447578430176,-0.980067253112793,-0.7855296730995178,-0.12134794890880585,-0.1831405609846115,0.5886088013648987,-0.302743524312973,0.29804500937461853,0.9664636850357056,-0.3867996633052826,-0.6038017868995667,-0.3398949205875397,-0.5781276822090149,-0.3764345049858093,0.4450607895851135,-0.5403279066085815,-0.8192391991615295,-0.4221777319908142,-0.21121573448181152,-0.16462907195091248,-0.17892536520957947,-0.170083150267601,-1.0922353267669678,-0.6621943116188049,-0.3013855218887329,0.18426811695098877,0.7633893489837646,-0.8293136358261108,0.06841027736663818,-0.326149582862854,0.011982202529907227,0.6422034502029419,0.44355735182762146,-0.4760942757129669,0.6958240270614624,0.3456805348396301,-0.3292270302772522,1.1304813623428345,0.6646180152893066,0.9755683541297913,0.1930275559425354,0.41864776611328125,0.19641709327697754,0.25100284814834595,0.7724423408508301,0.029409412294626236,-0.004936784505844116,-1.4792386293411255,0.0028465737123042345,-1.0989683866500854,0.3157373070716858,0.12596702575683594,-0.34415751695632935,-0.6617414355278015,-0.013119220733642578,-0.21152186393737793,-0.33903253078460693,-0.011189937591552734,-0.23312664031982422,-0.633089542388916,0.01073046401143074,-0.7538641095161438,-0.2476491779088974,0.8339725136756897,0.37882789969444275,-0.42318931221961975,-0.1440788358449936,0.11594847589731216,-0.12347068637609482,-1.1798210144042969,0.5015550255775452,0.2888663113117218,0.928939700126648,-0.5861567258834839,0.12973888218402863,-0.3783666789531708,0.5056503415107727,-0.2767329812049866,0.9235026240348816,0.17670492827892303,-0.2649627923965454,-0.20145177841186523,0.9706863164901733,0.8580528497695923,0.38252580165863037,-0.7169356346130371,-0.8312312364578247,0.40271425247192383,-0.9872199296951294,-0.2739003896713257,-0.12412631511688232,0.08196783065795898,0.04794597625732422,-0.7623790502548218,0.610945463180542,-0.22468721866607666,-0.093697689473629,0.9505346417427063,0.8273118734359741,0.789099395275116,0.8022618293762207,-0.8493384122848511,-0.5489544868469238,0.7171210050582886,-0.24606668949127197,-0.10847306251525879,-0.6237970590591431,0.10099422931671143,-0.47595298290252686,0.4838707447052002,-0.9124367237091064,0.974776029586792,0.8221467733383179,-0.36764538288116455,-0.7047516107559204,0.8132301568984985,0.8676658272743225,0.8197786808013916,-0.9530940055847168,-0.5209432244300842,-0.5300033092498779,-0.370933473110199,-0.6838696599006653,-0.19345849752426147,0.12785008549690247,0.03873101994395256,0.2897941768169403,-0.6737176775932312,0.9240806102752686,-0.507587194442749,-0.7620280385017395,-0.32629498839378357,-0.08587478846311569,-0.33017128705978394,-0.7358637452125549,-0.8928699493408203,-0.15642225742340088,-0.33560657501220703,-0.10639381408691406,0.5711280107498169,0.09838736057281494,-0.7614531517028809,0.09953271597623825,-0.9309027194976807,-0.23586402833461761,-0.5119390487670898,-0.5593725442886353,-0.7094647884368896,-0.2606405019760132,-0.011769775301218033,-0.69382643699646,0.7413762807846069,-0.8181371092796326,0.552212655544281,0.03859531506896019,-1.1796289682388306,-1.066282033920288,-0.47333893179893494,-0.6207876801490784,-0.1878383755683899,-0.46151816844940186,0.2524808645248413,1.0318585634231567,0.697512149810791,-0.9773121476173401,-0.8046560287475586,-0.6078068017959595,-0.6608740091323853,-0.41573846340179443,-0.7293038368225098,0.9647423028945923,0.2831883728504181,0.05464763566851616,0.8093186020851135,0.6808165311813354,0.8664302229881287,-0.9081021547317505,-1.2724350690841675,-1.0031241178512573,-0.9727253317832947,-0.0709792748093605,-0.22587142884731293,-0.6247260570526123,-0.5986196398735046,-0.1303102970123291,0.09961231797933578,0.9761416912078857,-0.12133193016052246,-0.4578765034675598,-0.12568730115890503,0.5867362022399902,-0.8191760778427124,-0.7853604555130005,-0.8556975722312927,0.24873341619968414,0.8951379060745239,-0.6300063133239746,0.010674266144633293,0.34213680028915405,0.6087122559547424,-0.9291051626205444,-0.21970593929290771,0.41164708137512207,-0.5719442367553711,-0.29381054639816284,0.507726788520813,0.26029425859451294,-0.5677039623260498,0.02518518827855587,0.8603811860084534,-1.36900794506073,-1.361581802368164,0.16131696105003357,-0.04519371688365936,-0.4236648976802826,-0.24311383068561554,-0.974912166595459,-0.7238610982894897,0.2171737253665924,-0.401550829410553,-0.431598037481308,0.721010148525238,0.5462712645530701,0.4958454668521881,0.4041482210159302,-0.529023289680481,0.35657423734664917,0.6183716654777527,0.1574338674545288,1.064023733139038,0.21350716054439545,0.49084392189979553,-1.3711493015289307,-1.1815558671951294,0.4837004542350769,-1.1925787925720215,-0.8602849245071411,-0.13137270510196686,-0.7992344498634338,0.9445225596427917,-0.473082035779953,0.22776955366134644,0.39185991883277893,1.6405717134475708,-0.7990595698356628,-0.5888793468475342,0.7424914240837097,0.30420657992362976,0.37164005637168884,-0.1367131769657135,-0.2872878909111023,-0.21802657842636108,0.4317537546157837,-0.22283267974853516,0.12927526235580444,-0.7710715532302856,0.3758528530597687,0.8681251406669617,1.0808814764022827,-0.5214455127716064,0.3357909917831421,0.0019941176287829876,-0.22922825813293457,0.17940589785575867,-0.03832775726914406,-1.2181135416030884,0.519534170627594,0.15508802235126495,-0.4132334589958191,1.263588786125183,-0.09577582031488419,0.19563132524490356,0.5747921466827393,1.2105239629745483,0.31243619322776794,-0.043289512395858765,0.057687949389219284,-1.23256254196167,0.45744022727012634,0.8372024297714233,0.41432273387908936,0.10570211708545685,-0.028888218104839325,0.47846949100494385,0.335921049118042,-0.5340575575828552,0.18599484860897064,-0.7826376557350159,-0.5816826224327087,-0.3796982765197754,-0.543445348739624,-0.47000882029533386,-0.0738615021109581,-0.42570263147354126,0.8926056027412415,0.9310323596000671,-0.0413329117000103,0.1125851571559906,-0.5392425656318665,0.6146666407585144,-0.31520920991897583,-0.1502419114112854,-0.07063020765781403,0.8157541155815125,0.9303382635116577,0.38190287351608276,0.6732607483863831,-0.3585353493690491,-0.39665067195892334,0.4281044006347656,0.12907284498214722,-0.27323833107948303,-0.2116684466600418,0.47440794110298157,-0.7757103443145752,-0.502990186214447,-0.8741162419319153,-1.000004768371582,-0.011934026144444942,-0.07039900869131088,0.8327960968017578,0.2971912622451782,0.7990296483039856,-0.6879380345344543,1.3003888130187988,0.2851051390171051,1.2845885753631592,0.752490222454071,0.5829967856407166,-0.05500922352075577,-0.29105979204177856,1.427683711051941,-0.7560310363769531,0.650242805480957,0.27669376134872437,-0.08062241971492767,-0.05630108714103699,0.10348942130804062,0.5870998501777649,-0.753643810749054,-0.48745104670524597,-0.14210833609104156,0.8049780130386353,1.077561616897583,-0.5716606378555298,-0.5073544979095459,-1.6069308519363403,-0.03798665478825569,1.935293436050415,1.3397743701934814,0.3667743504047394,-0.32677456736564636,0.05827222019433975,0.27393636107444763,-0.3135334253311157,-0.6700124740600586,0.46999773383140564,0.9158090949058533,0.03250845894217491,0.9453846216201782,-0.4379461109638214,-0.10197529196739197,-0.045251909643411636,1.016789197921753,-0.7301838397979736,-0.9262902140617371,-0.09119129925966263,0.42344650626182556,-0.4141368269920349,-0.23726022243499756,-0.2769627273082733,-0.23489710688591003,-0.8857938647270203,-1.381343960762024,-1.1562696695327759,0.36068153381347656,1.540199637413025,1.218873381614685,0.563310980796814,-0.4730326533317566,0.4794178903102875,0.30934613943099976,-0.3816322088241577,-1.100666880607605,-0.512847900390625,-0.437112033367157,0.7773382663726807,-0.3554045855998993,0.5925620198249817,-1.1345937252044678,-0.30747759342193604,-0.6979926228523254,0.3234034478664398,0.7867424488067627,0.011392547748982906,-0.5089120864868164,-0.34880009293556213,0.3653654456138611,-1.2143969535827637,0.578705906867981,-0.41407811641693115,-0.24761590361595154,-0.9651007652282715,-1.621415138244629,-0.5132877230644226,1.4952762126922607,0.6084458827972412,1.2264972925186157,-0.45328855514526367,0.34843239188194275,0.5219410061836243,-0.2467845231294632,0.826166033744812,0.5062260627746582,0.4745147228240967,-1.0760012865066528,-1.3442672491073608,0.13101798295974731,0.2044258713722229,0.8437038660049438,0.20475906133651733,-0.7486714720726013,-0.8106111884117126,-0.39687612652778625,-0.4539903998374939,-0.033771783113479614,-0.0947185531258583,-0.4907549023628235,-0.03552510589361191,0.32233893871307373,1.290753722190857,-0.1383761465549469,0.5353030562400818,0.7349683046340942,1.094417929649353,0.17298823595046997,0.5070737600326538,-0.3512720763683319,0.6295278668403625,-0.6008156538009644,-0.6181316375732422,-0.46028265357017517,1.2368098497390747,-0.8565694689750671,0.551685094833374,-0.10124354809522629,-0.47482866048812866,0.16694077849388123,0.12986735999584198,0.40923163294792175,0.7501079440116882,-0.954803466796875,0.8042070865631104,0.35722389817237854,-0.9086326956748962,-0.5929966568946838,-0.20330439507961273,-0.016226282343268394,-0.3862765431404114,-1.0400112867355347,1.33171546459198,0.6499443650245667,0.41810548305511475,-0.011861167848110199,0.5339311361312866,-0.8378198742866516,0.2706291675567627,-0.29466599225997925,0.024200143292546272,0.42570391297340393,0.6798809766769409,0.6746348738670349,-0.2858498692512512,0.4339617192745209,0.49395865201950073,-0.21155013144016266,-0.4561784267425537,0.925007700920105,0.2039441019296646,-0.6886677145957947,0.20321354269981384,-0.03746639937162399,0.8906010985374451,-0.4049742817878723,-0.961635410785675,-0.9185212254524231,0.5149624347686768,-0.6889773011207581,-0.42879658937454224,-0.17180736362934113,-0.036794550716876984,1.794122338294983,-0.4235594570636749,0.09368114918470383,0.427997350692749,-0.19996939599514008,-0.19719655811786652,0.1464245617389679,0.44057855010032654,-0.07298971712589264,-1.6295795440673828,-0.005558650940656662,0.49003857374191284,-0.4498308300971985,-0.11667218059301376,0.04400166869163513,0.6273574829101562,-0.7238466143608093,0.011838831938803196,-0.47986167669296265,0.36974555253982544,-1.1798821687698364,0.17515791952610016,-1.3652416467666626,-0.3934798240661621,0.6073897480964661,-0.12733347713947296,-0.2869451642036438,1.6054787635803223,-0.297495573759079,-0.46822068095207214,-0.29601117968559265,0.25312215089797974,0.15510761737823486,0.19118954241275787,-0.8796669840812683,0.1058172956109047,0.023550692945718765,-0.6652117967605591,0.34363675117492676,-0.6699671745300293,-0.10913307964801788,0.48102110624313354,-0.643248438835144,-0.5764458775520325,0.16027675569057465,-0.39919641613960266,0.7212235927581787,-1.1948169469833374,-0.5853336453437805,0.8578476309776306,0.7501577138900757,-0.038642238825559616,-0.3180270791053772,0.4384976625442505,0.1344170719385147,0.4895719885826111,0.2507575750350952,-0.1378968209028244,0.3792266249656677,0.9638636112213135,0.761738121509552,0.031952712684869766,0.6715460419654846,0.07471588999032974,1.4171918630599976,0.1153806820511818,-1.4356809854507446,0.1334371119737625,-0.3540053963661194,0.11509501934051514,0.47260525822639465,-0.2807731330394745,0.08350053429603577,-0.49626240134239197,0.17393401265144348,-1.0274511575698853,-0.8971723914146423,-0.8703894019126892,-1.5226274728775024,-1.7757676839828491,-0.3644263446331024,-0.828236997127533,0.11677097529172897,-0.31661733984947205,0.5140765905380249,-0.44509777426719666,0.7078686952590942,-0.12447825819253922,0.6776781678199768,-0.5110499858856201,1.270599365234375,-0.09742806851863861,0.5157067179679871,-1.3832342624664307,-0.3320908546447754,-1.0330227613449097,0.0511152483522892,0.5298075079917908,0.6455652713775635,0.06114622578024864,0.6947306990623474,-0.22383061051368713,0.10567469149827957,-1.059309482574463,0.7289802432060242,-0.11613161861896515,-0.4773622453212738,-0.38505277037620544,-0.8680262565612793,-1.1763862371444702,-0.8437490463256836,-0.3861807882785797,0.6704486608505249,0.3044186532497406,0.7858847379684448,-0.18253999948501587,-0.940622866153717,0.34698402881622314,0.2648039162158966,0.08970892429351807,-0.3458546996116638,-1.5972052812576294,-0.5845476388931274,0.8765182495117188,-0.9720408320426941,0.09485211223363876,-0.7476165294647217,-0.9316642880439758,-0.019061801955103874,0.33351242542266846,0.3633825182914734,1.1464406251907349,-0.25203073024749756,0.4113885462284088,-0.12289299815893173,0.20880542695522308,-0.9749090671539307,0.2536008059978485,-1.0657726526260376,-0.15897801518440247,0.2852022647857666,-0.05873766541481018,1.1264381408691406,0.8302757740020752,0.23841536045074463,-0.5424466729164124,1.0709683895111084,-0.3636400103569031,-0.9628767371177673,-1.0667542219161987,0.4306509494781494,0.3335248827934265,0.6993982791900635,0.9346432685852051,0.8863883018493652,0.7007004022598267,0.4192723035812378,-0.8706347346305847,0.1616402119398117,0.7627319693565369,0.7026833891868591,0.7470220923423767,0.05671345815062523,-0.11112923175096512,-0.08699751645326614,-0.7778072357177734,-0.79493647813797,0.044251225888729095,-0.5492956638336182,0.3578208386898041,-0.40082499384880066,-0.1983337253332138,-0.7833863496780396,0.15428420901298523,-0.2315421849489212,-1.0024592876434326,-0.3402917683124542,0.6084631085395813,-0.6487685441970825,-0.05783774331212044,-0.7530502676963806,0.39373165369033813,0.7374071478843689,-0.3784298896789551,-0.026743102818727493,-0.06156083568930626,0.3219076991081238,-0.6898958086967468,-0.1315581351518631,-0.18002444505691528,-0.592497706413269,1.2753124237060547,0.10133422166109085,-0.6474995017051697,-0.39094796776771545,0.56339031457901,-0.28501883149147034,0.22885465621948242,1.1605151891708374,-0.8396273851394653,0.9005284309387207,0.9032921195030212,-0.28985267877578735,-1.3524984121322632,-0.1353461891412735,0.3425191640853882,-0.554294764995575,0.5997065305709839,0.5493431091308594,0.7413356304168701,0.5533820986747742,-0.21981067955493927,0.49104538559913635,-0.15160439908504486,-0.6562158465385437,0.427451491355896,0.34058427810668945,-1.3174233436584473,-1.1101150512695312,-0.41790568828582764,-0.7277411818504333,0.20128771662712097,0.48490089178085327,0.29850277304649353,0.07841230928897858,-1.0484803915023804,-0.8508391976356506,0.49677470326423645,0.18725451827049255,0.41793596744537354,-0.3403070867061615,0.6991621851921082,-0.14958173036575317,-0.7600132822990417,-0.16125845909118652,0.8305073380470276,0.1489620953798294,-0.4511232376098633,-0.9604254961013794,-0.12423095107078552,0.005481368396431208,0.37050098180770874,0.8278189301490784,0.6147673726081848,1.7744288444519043,0.4063185155391693,1.054583191871643,0.2764104902744293,0.2623741626739502,-0.6811986565589905,0.1519687920808792,-0.9496207237243652,0.41433945298194885,-0.8379582166671753,0.6075222492218018,-0.6510699391365051,-0.5756945013999939,-0.8813650608062744,-0.7241869568824768,-0.21958059072494507,-0.2773311138153076,-0.5484434962272644,0.4145472049713135,0.6006115078926086,-0.7377866506576538,0.18958497047424316,0.12643420696258545,-0.24580389261245728,0.44105133414268494,0.40436679124832153,-0.32918763160705566,-0.28086477518081665,-0.6657390594482422,-0.09380573779344559,-0.5592812299728394,0.14133384823799133,-0.040111929178237915,-0.811404824256897,0.46585312485694885,0.35827159881591797,-0.4888239800930023,-0.36997467279434204,-0.26970353722572327,-0.444618284702301,-0.8254714608192444,0.09036917984485626,-0.6571745276451111,-0.6398012638092041,0.8126674294471741,-0.81980961561203,-0.48528170585632324,0.4901038408279419,0.3904622793197632,-0.5141584873199463,-0.9757033586502075,0.08706867694854736,0.6309211254119873,-0.5551777482032776,0.8127788305282593,0.031994663178920746,-0.608146071434021,1.1102795600891113,-0.18335075676441193,0.4662674367427826,1.0788787603378296,1.0749846696853638,0.47697657346725464,-0.07096121460199356,-0.7233681678771973,0.9621933102607727,0.17461013793945312,0.8085470795631409,0.6005791425704956,0.9967432618141174,0.2960772216320038,1.0414516925811768,-0.38415759801864624,0.009774685837328434,0.07674035429954529,0.38741520047187805,0.8845683336257935,0.0206068754196167,-0.9380201101303101,-0.667282223701477,0.19406574964523315,0.6067837476730347,-0.032434795051813126,0.11169960349798203,0.7996551394462585,-0.4970807433128357,0.9091189503669739,-0.5079156756401062,-0.3267824351787567,-0.367947518825531,0.870815634727478,0.4872560501098633,0.014456741511821747,-0.1570281982421875,-0.35755717754364014,0.7321991324424744,-0.7454625964164734,-0.6954588890075684,-0.5293926000595093,0.6102235317230225,-0.7347425818443298,0.8425332903862,-0.371843159198761,-0.5522423982620239,0.9626067876815796,0.4992556571960449,-0.5883005857467651,-0.17069637775421143,-0.8074289560317993,0.9934114217758179,0.625488817691803,0.16354036331176758,0.7510749697685242,0.7369246482849121,0.4408456087112427,0.14090345799922943,-0.7488335967063904,0.7094863057136536,-0.5422324538230896,-0.6900091171264648,-0.13709756731987,0.2560182511806488,0.2669428586959839,0.5674955248832703,0.8673107028007507,-0.5250824689865112,0.0732501670718193,0.5182511210441589,0.6095630526542664,-0.8029813766479492,-0.542538046836853,-0.04544782638549805,0.4696030616760254,-0.35603439807891846,-0.9223455190658569,0.1520313024520874,0.32910001277923584,-0.789926290512085,-0.9508700370788574,0.0865015983581543,0.3881242275238037,0.0794672966003418,-0.8360283374786377,0.7476946115493774,-0.10751485824584961,-0.5369540452957153,0.8078140616416931,-0.6197904348373413,-0.7454999685287476,-0.6321755647659302,0.08055853843688965,-0.3024390935897827,0.535657525062561,0.5563721656799316,0.6712031364440918,0.04214060306549072,0.3468341827392578,-0.54451584815979,-0.9399452209472656,0.8253521919250488,-0.7613176107406616,-0.2382570505142212,-0.2800569534301758,-0.24904799461364746,-0.9206798076629639,-0.05592186748981476,0.8875669836997986,0.551641047000885,0.4101434648036957,0.3989487290382385,-0.21077165007591248,-0.34554150700569153,-0.8523390889167786,0.026956642046570778,0.6014223098754883,-0.27902013063430786,-0.4030608832836151,0.48673656582832336,0.06123097240924835,-0.23537972569465637,0.6602093577384949,0.8382078409194946,0.5864740014076233,0.04622502624988556,-0.006080206483602524,0.9372060298919678,0.7662049531936646,-0.5147221088409424,0.11884009838104248,-0.08195006847381592,-0.7904951572418213,0.5516788363456726,-0.2868959903717041,0.3552359640598297,-0.6893534064292908,0.698093831539154,-0.7098084092140198,0.6778542995452881,0.1132432222366333,1.3845646381378174,0.2099214643239975,1.2886210680007935,1.1400176286697388,0.018640559166669846,0.5509383082389832,1.6593595743179321,-0.34245750308036804,1.0521202087402344,-0.3643002510070801,-0.3428170680999756,1.061876893043518,0.4367019236087799,-0.17150691151618958,-0.2718775272369385,0.7231906056404114,0.5661369562149048,0.9771780967712402,0.521728515625,-0.8545713424682617,0.7577015161514282,0.8071827292442322,-0.7498117089271545,0.8475300073623657,0.5641481876373291,1.236757516860962,0.3667943775653839,-0.021232973784208298,1.0243754386901855,-0.23346322774887085,0.5270152688026428,0.71357661485672,0.14393353462219238,0.9293581247329712,-0.31492388248443604,-0.19849713146686554,-0.11160138994455338,1.2412598133087158,-0.1935497522354126,-0.24501177668571472,0.5625865459442139,0.7310433387756348,-0.4365386366844177,0.9685632586479187,0.06381379812955856,-0.75218665599823,0.14106309413909912,-0.47087061405181885,-0.8799911737442017,0.0014318287139758468,-0.14383190870285034,-0.6027802228927612,-0.6330174207687378,0.16570492088794708,-1.002785325050354,-0.1317206621170044,-0.08587753027677536,-0.2652151584625244,-0.05952712520956993,0.6454976201057434,-0.6066423654556274,0.5082983374595642,-0.24932065606117249,-0.1305323839187622,0.20742778480052948,0.6834142208099365,0.1563110500574112,-0.4363614320755005,0.5200445055961609,-0.2718828320503235,-0.8662621378898621,-0.37704819440841675,0.5173134207725525,-0.1253458857536316,0.9474910497665405,0.5795485973358154,-0.5137993097305298,-0.7567018866539001,0.02881176769733429,0.12523865699768066,0.43112611770629883,-0.8050217032432556,0.26358792185783386,-0.07236688584089279,0.19900187849998474,0.023366769775748253,0.2705567181110382,0.09662900120019913,-0.48315393924713135,-0.1068161129951477,0.22217270731925964,-1.0802485942840576,0.4000067114830017,-1.1480401754379272,0.5342011451721191,0.18488387763500214,-0.327193945646286,-1.1655827760696411,0.5639026761054993,0.4535135328769684,-0.979762852191925,0.161305770277977,-0.46489882469177246,-0.16635635495185852,0.5607504844665527,0.7538226842880249,-0.5174036026000977,0.6067348718643188,0.1449817419052124,1.6363885402679443,-0.06758146733045578,-0.7633945345878601,-0.2934604585170746,-0.45954206585884094,-0.10498018562793732,1.0979490280151367,-1.3453847169876099,0.6172198057174683,0.056142695248126984,-1.4848042726516724,0.6171982288360596,-0.452473521232605,-0.6802229285240173,0.14777140319347382,-0.35686516761779785,-0.14562268555164337,-1.199869990348816,-0.021262381225824356,0.561792254447937,0.3061666786670685,0.9961676001548767,0.6666712760925293,-0.29934149980545044,0.22190988063812256,0.9128310680389404,0.12912891805171967,0.2693851590156555,0.8742350339889526,-1.3410441875457764,0.41100892424583435,-0.13134127855300903,0.6479496359825134,-0.45036226511001587,-0.6079970598220825,-0.2590014636516571,-0.6590130925178528,0.09508827328681946,0.039895061403512955,-0.5160434246063232,-0.27386754751205444,0.052197426557540894,-0.7357394695281982,-0.29841336607933044,0.4976811110973358,-0.6764442324638367,-0.7680773138999939,-0.2741844952106476,-0.8119143843650818,0.7167561650276184,-0.15982694923877716,0.0100775808095932,-0.807868480682373,0.16441747546195984,-0.06976281851530075,0.4771699905395508,-0.1794997602701187,-0.2762893736362457,0.48243701457977295,0.638382077217102,-0.018879860639572144,0.43743187189102173,0.1733907014131546,-0.38077008724212646,0.2738438546657562,-0.08738331496715546,0.12572292983531952,-0.6407627463340759,-0.2151108980178833,-0.03288847580552101,-0.13737499713897705,0.7659125924110413,0.503783643245697,-0.5591675043106079,-0.43549662828445435,-0.28943371772766113,-0.09277921915054321,-0.442953497171402,-0.47152626514434814,-0.4884464144706726,0.2803730070590973,0.3112527132034302,0.8967806100845337,0.3741496503353119,0.7693179845809937,0.6932052373886108,0.395647257566452,0.06866555660963058,0.16465452313423157,0.8804963827133179,0.30677875876426697,1.5596901178359985,0.179361954331398,-0.542809784412384,0.7319023609161377,-0.5701147317886353,0.2713182270526886,0.5175709128379822,0.021122897043824196,0.6176528930664062,-0.796161949634552,0.8908733129501343,0.6657760143280029,0.4566804766654968,0.3438515365123749,-0.38297319412231445,0.2684643268585205,-0.11394986510276794,0.5142017602920532,0.4919346868991852,-0.10020346939563751,-0.17312441766262054,-0.3803483545780182,-0.636984646320343,0.12844187021255493,-0.17223016917705536,-1.275630235671997,-1.1822381019592285,0.574853777885437,0.27889734506607056,1.0775511264801025,0.9436557292938232,-0.534101128578186,0.16303180158138275,0.4057193994522095,0.08001073449850082,-0.4320720136165619,0.010674438439309597,-0.001402571564540267,0.5997193455696106,-0.07629762589931488,-0.6339548230171204,0.5292519330978394,0.19335439801216125,0.10912975668907166,-0.35850247740745544,0.10758209228515625,-0.8702279925346375,-1.1535282135009766,0.5662519931793213,1.4621779918670654,-0.1538788378238678,0.47248074412345886,-0.7912634611129761,-0.13779908418655396,-0.290683388710022,-1.6794021129608154,0.30964335799217224,0.4995631277561188,-0.33037272095680237,0.4099859595298767,-0.0013007080415263772,-1.083321452140808,-0.06789040565490723,-0.6535316705703735,-0.015217597596347332,-1.049920916557312,-0.7746720314025879,-0.5436676740646362,0.5503150820732117,-0.3216162621974945,-0.30895811319351196,-0.1879155933856964,0.26812905073165894,-1.1887891292572021,-1.6048786640167236,-1.3423802852630615,-0.5902981162071228,-0.27830561995506287,-0.8767107129096985,0.3866894245147705,-0.10410520434379578,-1.1995223760604858,-1.4338304996490479,-1.8840980529785156,-0.9553041458129883,-0.28050655126571655,-0.9263426661491394,-0.47761982679367065,-0.5898911356925964,-0.0031517120078206062,0.030821863561868668,-0.36114004254341125,-0.36285048723220825,-0.9380435943603516,0.8741575479507446,0.08577098697423935,1.0992262363433838,-0.5435572862625122,-0.3624778389930725,-0.6027483940124512,0.12308541685342789,-0.9970954060554504,-1.250810146331787,-1.303678274154663,-0.2538992762565613,-1.4127333164215088,-0.5179386734962463,-2.1832704544067383,-2.1483356952667236,-1.3357223272323608,-1.8488177061080933,-1.3601478338241577,0.10187313705682755,-0.8404861688613892,0.2369077205657959,0.36731746792793274,-1.5486536026000977,0.17778784036636353,-2.1398966312408447,-0.29430270195007324,-0.8187593221664429,-0.5503920316696167,0.37846535444259644,-0.6849818825721741,0.9537451863288879,-0.04921809211373329,0.18497474491596222,0.7655532956123352,-0.3870462477207184,0.3876848518848419,-1.396249532699585,-1.53466796875,-1.4058340787887573,-0.948030412197113,-1.643009901046753,-1.8721256256103516,-0.9495753645896912,-0.3684905767440796,0.5946753621101379,-0.9088215231895447,0.46781501173973083,0.10626799613237381,0.4792129695415497,-1.4424086809158325,1.2004809379577637,0.8250870108604431,0.8527514338493347,-1.582464337348938,0.032333601266145706,1.398803472518921,0.5751838088035583,-0.11377792060375214,0.4300057291984558,0.5831131339073181,0.27585569024086,0.7744687795639038,0.48550862073898315,0.20840054750442505,-1.6529632806777954,-0.6375465393066406,-0.6945559978485107,-0.11172543466091156,-0.6047067642211914,-0.46707627177238464,-0.30684980750083923,0.28011348843574524,0.2149834781885147,0.396631121635437,0.7326593399047852,0.1447085738182068,0.6665459275245667,0.7596557140350342,-0.2684597373008728,-0.5221244096755981,0.49836233258247375,0.5287271738052368,-0.5676537752151489,1.2567505836486816,0.7936798930168152,1.0587586164474487,-0.08896589279174805,-0.3142714202404022,-0.9338173866271973,0.32495445013046265,-0.2561030089855194,-0.3584411144256592,-0.46215561032295227,-0.6433137059211731,0.011262604035437107,-0.3059415817260742,-0.2651374340057373,0.8901675939559937,-0.061530228704214096,-0.34042638540267944,-0.10981304198503494,1.0821365118026733,0.3712158799171448,0.6036673784255981,0.6958814859390259,-1.3651812076568604,0.4992447793483734,-0.1618959605693817,0.05148056894540787,-0.22897423803806305,0.4543009102344513,-0.28112009167671204,0.10155489295721054,-0.013441219925880432,-0.5103224515914917,-0.0655306726694107,0.6847183704376221,0.9046152830123901,-0.6876551508903503,-0.9517211318016052,-0.881367564201355,0.9802104234695435,1.1370362043380737,0.3277938961982727,-0.4674845039844513,0.11726733297109604,0.19529865682125092,-0.5630935430526733,0.2654710114002228,0.7033746838569641,0.5157040953636169,0.2119693160057068,0.05189250037074089,0.5258995890617371,0.03972302004694939,-0.23723389208316803,0.7947903871536255,-0.6677017211914062,0.12972335517406464,-0.682145893573761,-0.5401951670646667,0.8544323444366455,0.28804048895835876,-0.12039295583963394,-0.36924657225608826,-0.7565509676933289,0.3167272210121155,0.24709661304950714,-1.0209431648254395,-0.20176130533218384,-0.7912428975105286,0.261590838432312,0.540283739566803,-0.39102527499198914,0.08522628247737885,-0.19608959555625916,1.9291372299194336,-1.0843926668167114,-0.29152199625968933,0.7511412501335144,-0.10057782381772995,1.1294265985488892,0.21453221142292023,-0.8758736252784729,0.3259330093860626,-1.1939479112625122,-0.14957334101200104,-0.10863808542490005,0.038237761706113815,-0.20679841935634613,0.29416561126708984,-0.10029086470603943,0.3317439556121826,0.834888756275177,-0.04772847145795822,0.22350969910621643,-0.5011579990386963,0.0949326679110527,0.029893428087234497,0.6268199682235718,-0.29866865277290344,0.6465779542922974,1.415224552154541,1.0981502532958984,1.759544014930725,1.3761537075042725,1.1202991008758545,0.23678553104400635,-0.16073940694332123,0.1707601547241211,-0.7601746916770935,-0.8873371481895447,0.07731146365404129,0.8708100914955139,0.6461198329925537,-0.6209630966186523,0.6946749687194824,-0.2973340153694153,-0.10945014655590057,0.8341735005378723,-0.560407280921936,-0.13896751403808594,-0.556532084941864,0.20767943561077118,0.5755932331085205,0.01299673318862915,-0.23198463022708893,-0.48841392993927,0.10937491059303284,1.5014959573745728,1.7527843713760376,0.012225045822560787,0.2363927960395813,0.9830726981163025,0.09500116109848022,1.0336987972259521,-0.5670183300971985,0.05085659772157669,-1.2543638944625854,0.20394791662693024,-0.2386617362499237,-0.2614246606826782,0.5861325860023499,1.0271958112716675,-0.19422318041324615,0.22095246613025665,-0.5052430033683777,0.9119243025779724,-0.015260882675647736,0.825292706489563,-0.8766916990280151,-0.6646479964256287,-0.5565248727798462,0.04752577468752861,-1.4476518630981445,0.3336229622364044,0.09440638870000839,0.35481029748916626,-0.2961803376674652,0.8703011274337769,0.6738653779029846,0.5831467509269714,0.4298746883869171,0.3284122049808502,-1.1579662561416626,0.1803673803806305,-0.9155645370483398,-0.6246824860572815,0.4621679186820984,-1.0358840227127075,0.3003113269805908,1.05158531665802,0.4696897268295288,-0.4953692555427551,-0.5913508534431458,-0.9448624849319458,0.09480062872171402,0.6521545648574829,-0.19563305377960205,-0.614684522151947,0.007270301692187786,1.3524032831192017,-0.7927350401878357,0.6229963302612305,-0.15694423019886017,-0.5778945684432983,-0.20793801546096802,0.28780511021614075,-0.44533634185791016,0.4090583324432373,-0.6702511310577393,0.6491302847862244,0.18876352906227112,0.0555863156914711,0.842333197593689,0.41363704204559326,0.3786318898200989,-0.1805904507637024,-0.47577714920043945,-0.03513849899172783,0.359142929315567,-0.5144749283790588,0.2740623354911804,-0.09115874767303467,0.19492113590240479,-0.682607889175415,0.17175059020519257,-0.5446268916130066,-0.5911795496940613,1.5742859840393066,1.038153886795044,-1.0705838203430176,-1.205377459526062,-0.5794158577919006,0.0382816307246685,-0.6956456303596497,-1.1426512002944946,-0.2448006570339203,-0.34908249974250793,0.8380259275436401,0.36244475841522217,-0.6766703128814697,-1.569966435432434,-0.3923625349998474,0.13599228858947754,0.2678762376308441,-0.018635261803865433,-0.4603002965450287,0.42419952154159546,0.14969933032989502,0.3843216001987457,0.634577751159668,0.6704546213150024,-0.2168806791305542,0.4434252381324768,-0.06638982146978378,0.048885565251111984,0.34316250681877136,-0.41166576743125916,0.2285517454147339,-0.26028934121131897,-0.694606602191925,-0.8785867691040039,0.5788460373878479,-0.825149416923523,-0.13248004019260406,0.07371553033590317,-0.17634829878807068,-0.5766274929046631,-0.16063274443149567,-0.08676805347204208,-0.3450583219528198,0.0824064165353775,1.444555401802063,-0.48280811309814453,0.4997425377368927,0.5492029786109924,-0.43702805042266846,-0.9313703775405884,-0.24622535705566406,-0.06721973419189453,-0.23193013668060303,-0.7060612440109253,-0.8611829280853271,-0.3981635868549347,-0.21811853349208832,-1.4654603004455566,0.591728687286377,0.43585970997810364,0.3326605260372162,-0.4091050624847412,-0.264761745929718,0.36788666248321533,-0.5071004629135132,-0.008183879777789116,-0.5084168314933777,-0.2924420237541199,-0.09653422981500626,-0.6304824352264404,-0.9648973941802979,0.48455607891082764,0.9975627660751343,0.32043853402137756,-0.16547560691833496,-0.9245508909225464,-0.5516805052757263,0.3092629611492157,-0.49045073986053467,0.342465877532959,-0.8907136917114258,-0.9454874992370605,-0.8194629549980164,0.40888839960098267,-0.2882833182811737,-0.7575231790542603,0.34718313813209534,0.5994672179222107,0.029052933678030968,-0.01908242702484131,0.920074999332428,0.06030580773949623,0.08245696872472763,0.7075412273406982,-0.5896448493003845,-0.8041919469833374,-0.377975195646286,0.4484003782272339,-0.27038294076919556,-0.17619912326335907,-0.07800742238759995,0.8996477127075195,-0.15290451049804688,0.03186541050672531,-0.3699377775192261,0.13835680484771729,0.0011380910873413086,-0.7273428440093994,0.4617999792098999,-0.7715084552764893,0.3776785135269165,0.4242289960384369,-0.8864074945449829,-0.28632989525794983,0.6369366645812988,-0.7744370102882385,0.4217495918273926,1.0157920122146606,0.4753224551677704,-0.754997730255127,0.17231865227222443,-0.47594788670539856,0.4578246474266052,0.24750059843063354,-0.6964623928070068,-0.7708207368850708,-0.35691434144973755,-0.4628303050994873,-0.1251896321773529,-0.23558245599269867,0.1300707459449768,0.38773858547210693,0.6587539911270142,-0.05106043815612793,0.874518632888794,-0.6378438472747803,0.25359582901000977,0.4417917728424072,-0.9914313554763794,-0.5866552591323853,-0.5570112466812134,0.3691340684890747,0.9133466482162476,-0.976180911064148,-0.527815580368042,-0.5432318449020386,-0.3027380704879761,-0.25527840852737427,-0.1949758380651474,0.358714759349823,0.8999685049057007,0.6139593124389648,-0.6460016965866089,0.5095958709716797,0.12625741958618164,-0.6938154697418213,-0.12114095687866211,