{"layers":[{"activation_function":"SIGMOID","biases":{"cols":1,"data":[-0.25405868887901306,0.8294780850410461,3.087514638900757,-2.812976598739624,-0.8861090540885925,1.4992692470550537,-2.833547592163086,3.9887070655822754,0.3442593514919281,-0.5679309368133545,-0.8285741209983826,-0.3432449698448181,-1.2442408800125122,3.201533794403076,2.210545539855957,1.3166598081588745,-0.8186142444610596,0.5094416737556458,1.3565508127212524,0.7516672611236572,-3.595585584640503,0.06736723333597183,4.530813694000244,-0.5468642115592957,-0.1286744326353073,0.07349805533885956,1.5689036846160889,-1.4591443538665771],"rows":28},"inputs":784,"layer_type":"dense","learning_rate":0.30000001192092896,"outputs":28,"weights":{"cols":784,"data":[0.8509122133255005,-0.16254425048828125,0.6648267507553101,0.18235599994659424,0.8275330066680908,-0.3535109758377075,-0.1623164415359497,-0.4947124719619751,-0.23981714248657227,-0.32180488109588623,0.8235453367233276,-0.6842629909515381,0.1095113530755043,-0.1856364607810974,0.6588671803474426,0.43758663535118103,0.5561200380325317,0.4687288999557495,0.35851073265075684,0.4461714029312134,0.4296764135360718,-0.7852336168289185,0.2854044437408447,0.011775374412536621,-0.0009990930557250977,0.6026933193206787,-0.8400348424911499,0.8675720691680908,0.609687328338623,0.5795066356658936,0.21499300003051758,0.6720149517059326,-0.5523797273635864,-0.17466603219509125,-0.7545251846313477,0.7628680467605591,0.05456163361668587,0.8607124090194702,-0.7613641619682312,-0.47663143277168274,0.5665184259414673,0.5807618498802185,-0.560398280620575,-0.19397909939289093,-0.7757387757301331,0.3381578028202057,-0.027835000306367874,-0.8394415974617004,-0.9567610621452332,0.738190233707428,-0.546349823474884,-0.24443648755550385,0.38673126697540283,0.5700057744979858,-0.09324395656585693,-0.7554893493652344,0.27014267444610596,-0.9297884702682495,-0.5550963878631592,0.26913294196128845,0.04407978430390358,0.45526912808418274,-0.8069260120391846,-0.243660107254982,-0.021563567221164703,-0.8833611607551575,-0.7584381103515625,0.03173188865184784,-0.007378381211310625,-0.38264667987823486,-0.3833542466163635,-0.25011780858039856,0.4490109980106354,0.2930324673652649,0.6099370121955872,-0.4484103322029114,0.6833139061927795,0.3750687837600708,0.6199617981910706,-0.45894378423690796,-0.007302029523998499,-0.12378353625535965,-0.12234222888946533,-0.39539504051208496,0.49618685245513916,0.7243142127990723,0.9075109958648682,0.1849287450313568,-0.1846589893102646,0.7215334177017212,0.8558662533760071,0.4140165150165558,-0.6144735813140869,-0.4651217460632324,-0.799314558506012,-0.16189956665039062,-0.11037883162498474,0.7063992023468018,0.9981791377067566,1.0948266983032227,0.6235732436180115,0.9390318989753723,-0.21049915254116058,0.04951529949903488,-0.7024175524711609,0.847602128982544,0.19202575087547302,-0.11027022451162338,0.5110124349594116,0.6392402052879333,0.002097324701026082,-0.48929786682128906,-0.7910192012786865,0.03314471244812012,0.594855785369873,0.2747366428375244,0.4668324589729309,-0.2504470944404602,0.5513467788696289,0.8321716785430908,0.3365614116191864,0.9721351265907288,-0.4066050946712494,1.188830018043518,0.5573787689208984,0.5732797384262085,0.18853172659873962,0.6173102259635925,0.8613541126251221,-0.2041049748659134,-0.05370767414569855,1.5191303491592407,-0.0531214103102684,0.17124095559120178,0.3636835813522339,-0.2978210151195526,-0.5955009460449219,-0.3764924705028534,0.43957045674324036,-0.34294208884239197,-0.7441669702529907,0.04897451400756836,0.13271135091781616,-0.2089829295873642,0.3115094304084778,0.6563841700553894,-0.2991943657398224,0.5370957255363464,0.09407166391611099,-0.1571800261735916,1.112852692604065,0.4063592553138733,-0.18818528950214386,0.9592849016189575,-0.13646891713142395,0.45925456285476685,1.279380440711975,-0.3066139221191406,1.7889405488967896,1.3741005659103394,0.21290865540504456,-0.15079709887504578,1.1357992887496948,0.27431604266166687,-0.20637814700603485,-0.3386424481868744,-0.914329469203949,-0.7641959190368652,0.7054057121276855,-0.8020716905593872,-0.15193063020706177,-0.642983078956604,0.733692467212677,-0.9379069805145264,0.35048025846481323,0.3107057213783264,-0.35185906291007996,0.11374635994434357,0.27249011397361755,-0.4997738003730774,1.5256237983703613,0.005432944744825363,0.5645219683647156,1.4227440357208252,0.6798177361488342,1.2337267398834229,1.7895989418029785,1.2732924222946167,1.461611270904541,0.42458346486091614,-0.14939072728157043,-0.08207216113805771,-0.41241931915283203,0.5296858549118042,-0.12182645499706268,-0.6095250248908997,-0.4117938280105591,0.16006207466125488,-0.6238922476768494,-0.6022015810012817,-0.2071734070777893,0.07718018442392349,0.4576725661754608,-0.5173184871673584,-0.06471405923366547,1.0640208721160889,0.09480632841587067,0.7597495913505554,0.8944815993309021,-0.2550223767757416,0.5118027329444885,-0.42052245140075684,1.0288715362548828,0.21897415816783905,0.09332901239395142,0.43824994564056396,-0.4664950966835022,-0.18060864508152008,-0.5919815897941589,-0.4763769805431366,-0.7813460230827332,-1.156801700592041,-0.24363312125205994,-0.49378764629364014,0.8261264562606812,0.9215297102928162,0.608609676361084,0.7433225512504578,-0.24577203392982483,-0.7220957279205322,0.6274435520172119,-0.513053297996521,1.0821725130081177,0.45401817560195923,1.0592595338821411,0.06662797927856445,0.07097373902797699,0.21785736083984375,0.30377063155174255,-0.05306271091103554,-0.5201430916786194,-1.3181524276733398,-0.34502163529396057,-0.8120591640472412,-0.4878418445587158,0.5642185211181641,-0.47168734669685364,-0.6255524754524231,-0.6570512652397156,-0.912768542766571,-0.1078849509358406,0.2082558423280716,-0.2504112720489502,0.7457932233810425,0.6533783674240112,-0.07892850041389465,0.7561865448951721,0.870263397693634,0.14476680755615234,-0.24537380039691925,0.7070825695991516,-0.3438268005847931,0.6298850774765015,-0.39160746335983276,-0.02173929288983345,-0.6376168131828308,-1.4581680297851562,-0.514725923538208,-1.7854235172271729,-1.415502667427063,-0.516335129737854,-1.5981420278549194,-1.4142699241638184,-0.6266475319862366,0.4540592432022095,-0.7834327816963196,-1.2300124168395996,-1.0589001178741455,0.4503233730792999,-0.0463692806661129,-0.12753677368164062,-0.18495602905750275,0.15038278698921204,-0.26587140560150146,0.953217625617981,-0.6183004379272461,0.13346558809280396,0.5212447643280029,0.4746876358985901,0.46003419160842896,-0.13682778179645538,0.2773283123970032,0.26734986901283264,0.7382900714874268,0.6758756041526794,0.15514406561851501,0.08193638175725937,-0.3824455142021179,-0.7746730446815491,-0.864647388458252,-0.40178000926971436,-1.6802380084991455,-0.41536256670951843,-0.09298698604106903,-1.3103861808776855,-1.142334222793579,-1.1181645393371582,-0.7336757183074951,-0.42041757702827454,0.435098260641098,-0.7303376197814941,0.026978502050042152,-0.05578730255365372,1.05476713180542,-0.07759078592061996,-0.0767536610364914,0.4968709647655487,0.015877338126301765,0.1939917355775833,0.4278745651245117,-0.02140943333506584,-0.5645061135292053,-0.4455186128616333,0.6384239196777344,-0.2076578587293625,0.22089096903800964,0.6433749794960022,0.0185806006193161,-0.6660508513450623,-1.4506049156188965,-0.40344831347465515,-1.0841968059539795,-2.4739761352539062,-2.160944700241089,0.7223626971244812,-0.9055582284927368,-0.344919353723526,-0.27044808864593506,0.8217169046401978,0.8863489031791687,-0.7018047571182251,0.8677226305007935,0.27104052901268005,0.27841833233833313,-0.048671018332242966,0.6351266503334045,0.1284569948911667,0.13932836055755615,-0.06883729994297028,0.047760047018527985,-0.2527523934841156,-0.8086928725242615,0.7601447701454163,1.355669379234314,2.257805585861206,2.0565319061279297,1.3462297916412354,1.4358519315719604,1.9244563579559326,0.056422002613544464,0.9230597615242004,-0.15357765555381775,0.06485144793987274,0.17577964067459106,0.602999210357666,0.4483281075954437,-0.43046078085899353,0.6848382353782654,-0.9512743353843689,-0.9884427785873413,-0.7147204875946045,0.9467296600341797,-0.09044500440359116,-1.0082290172576904,-0.6428685784339905,0.15803875029087067,-0.4264813959598541,0.3804498016834259,-0.13136258721351624,0.4724203646183014,1.3612836599349976,1.1841130256652832,1.6834726333618164,1.0683529376983643,1.0526796579360962,1.202026128768921,0.6110626459121704,1.860809087753296,0.5966092348098755,0.7864547371864319,0.26698240637779236,0.4790416359901428,0.6002719402313232,0.07528143376111984,-0.41129952669143677,-0.6474159359931946,-0.3754788041114807,0.5482555031776428,-0.004252885468304157,0.4483863413333893,1.169633150100708,-1.409610390663147,-0.21091440320014954,-0.7587305307388306,-0.21216149628162384,-0.3959413170814514,0.49264758825302124,0.7282561659812927,0.5953140258789062,0.16267094016075134,0.08509059995412827,0.903282642364502,0.9427044987678528,0.9497576355934143,1.9430813789367676,0.34187576174736023,0.7235860824584961,-0.7993414402008057,-0.9127799272537231,0.538081169128418,0.8360205292701721,0.42881470918655396,0.8136690855026245,0.6548689007759094,-0.05962575227022171,-0.42346763610839844,-1.314232349395752,0.22825218737125397,-0.5947232246398926,-0.001655977452173829,-0.20196780562400818,0.029081348329782486,0.03879204019904137,1.5027477741241455,0.848732054233551,0.5077974796295166,0.7973307371139526,-0.4258509874343872,-0.7628049850463867,1.1015819311141968,1.7283411026000977,0.7613450884819031,0.9678429365158081,1.1008360385894775,0.22099018096923828,0.27585068345069885,-0.1378345936536789,0.6960532665252686,0.0170698631554842,-0.45023104548454285,0.8248018622398376,0.14730970561504364,-0.7339652180671692,-0.27984368801116943,0.09154080599546432,-1.201470136642456,-0.08998032659292221,0.4709267020225525,0.2534991204738617,0.3333929777145386,-0.07768704742193222,0.9145491719245911,0.11976149678230286,0.08248019218444824,0.5627570748329163,0.12290841341018677,0.31151336431503296,-1.1442413330078125,-0.26579567790031433,0.5040372610092163,0.9253167510032654,0.9630260467529297,1.0516924858093262,-0.20027080178260803,0.9205522537231445,-0.9394535422325134,-0.8936994075775146,0.5169945359230042,0.697576105594635,0.3062678873538971,-0.8187430500984192,0.30175337195396423,0.03809627145528793,-0.4194784164428711,0.9922055602073669,1.037842035293579,-0.10015615820884705,1.3413969278335571,0.1199338361620903,0.011358833871781826,0.577384889125824,-0.634474515914917,0.16887061297893524,-1.2060602903366089,-0.417510449886322,0.1821814328432083,1.1784001588821411,0.5721377730369568,0.4840492904186249,1.5315672159194946,0.6074846982955933,-0.000029955712307128124,-0.06920953094959259,-0.21226422488689423,0.8392471075057983,-0.4166696071624756,-0.6244668960571289,0.1063612699508667,-0.15480904281139374,-1.2327709197998047,-0.8668574094772339,-0.5811235308647156,-0.26997148990631104,-0.32255440950393677,0.3561321496963501,-0.48303771018981934,0.4151860177516937,0.17553947865962982,0.40321287512779236,0.13365446031093597,0.314299076795578,-1.0981558561325073,0.15359339118003845,-0.005056543275713921,0.6675752401351929,0.2940996289253235,1.2708625793457031,0.26082679629325867,0.9003009796142578,0.7762761116027832,-0.2570277452468872,-0.04411682114005089,0.8830233812332153,0.6938408017158508,-0.389224112033844,0.5734819769859314,-0.47727257013320923,-0.5934412479400635,-0.9093157649040222,0.30417191982269287,-1.0390440225601196,0.07532116025686264,-0.20313675701618195,0.05396932736039162,0.014165195636451244,-0.674311101436615,0.6583647131919861,-0.4366441071033478,0.8324010968208313,0.5278919339179993,0.23381726443767548,0.7887930274009705,0.3000730872154236,0.13212910294532776,-0.303632527589798,0.7498422861099243,0.3111380934715271,0.2103746235370636,0.012031708844006062,-0.24666346609592438,0.34559667110443115,-0.9101682901382446,0.2675684988498688,0.9713228940963745,-0.4938306510448456,-0.3313068151473999,0.5181774497032166,0.425231009721756,-0.5331271290779114,-1.1260664463043213,0.4247972369194031,-0.9263591766357422,0.029637834057211876,0.22109855711460114,0.4029742181301117,-0.3413049876689911,-0.7548088431358337,0.6000719666481018,-0.7948682904243469,-0.2939879298210144,-0.890945553779602,-0.5600782632827759,0.8766070604324341,0.6976416110992432,0.5557122826576233,-0.41236650943756104,-0.5652750730514526,-0.3633638620376587,0.8015073537826538,0.07684537768363953,0.35267651081085205,-0.4537595808506012,1.0397922992706299,0.9090121984481812,0.570366382598877,0.482849657535553,0.21380215883255005,-0.21798792481422424,0.7351217865943909,0.6164184808731079,1.0584111213684082,0.060962263494729996,0.03598696365952492,0.2980222702026367,-0.2933763265609741,-0.5692940354347229,-0.483487606048584,0.1021614745259285,0.08299893140792847,1.1839566230773926,0.46671757102012634,-1.0998083353042603,0.484750896692276,0.8352137207984924,0.691460371017456,-0.5658738613128662,-0.9318913221359253,0.0018107905052602291,0.740034282207489,0.8148004412651062,0.22405016422271729,-0.34715864062309265,0.6037366390228271,0.32826295495033264,0.8552306294441223,0.0015728106955066323,0.9381625056266785,-0.40250590443611145,-0.7369444966316223,0.08217860758304596,-0.690642237663269,0.0023402427323162556,0.1307670921087265,0.6604537963867188,-0.27859196066856384,0.7373414039611816,-0.2613593339920044,-0.9067860245704651,-0.6770915389060974,0.5680570006370544,-0.6143192648887634,-0.9115918278694153,-0.9371616244316101,0.07022274285554886,-0.8689401149749756,-0.8280969858169556,-0.5317592024803162,-0.8727580904960632,-0.0028168954886496067,1.1723862886428833,1.2279424667358398,1.2311897277832031,0.10931581258773804,0.2317729890346527,-0.3286864459514618,0.21158024668693542,-0.48218488693237305,0.754833996295929,1.1371581554412842,-0.037663716822862625,0.03399278223514557,-0.4105955958366394,0.37628957629203796,-0.5853715538978577,-0.7184311747550964,0.002238465240225196,0.11307428032159805,-0.07447487860918045,-1.1058824062347412,0.5100411176681519,-0.9299997687339783,0.37146222591400146,0.11812770366668701,0.9514697790145874,0.9723489880561829,0.7294408082962036,0.31742921471595764,-0.619504988193512,-0.3068406879901886,1.2025905847549438,-0.31747472286224365,-0.1699114888906479,0.23311826586723328,-0.12615294754505157,0.8901123404502869,-0.4016411602497101,-0.12055681645870209,0.4616996645927429,-0.1756824254989624,-0.13682956993579865,-0.5133540034294128,0.22768163681030273,-0.33093446493148804,0.26761847734451294,-1.0860594511032104,-0.6953742504119873,-0.9391324520111084,-0.3600938022136688,0.27227234840393066,0.10635638236999512,0.015047192573547363,0.5698056221008301,-0.8114969730377197,0.10594948381185532,-0.6090067625045776,-0.4269002079963684,0.30334657430648804,0.4504585266113281,0.3193487226963043,0.7662051916122437,1.2957851886749268,-0.30945780873298645,0.23899078369140625,-0.0723964273929596,-0.1508013755083084,-1.032668113708496,0.15264450013637543,0.38290536403656006,-0.4819806218147278,-0.8207722306251526,0.24194012582302094,-0.3965444266796112,0.7820806503295898,0.5989874601364136,-0.17521053552627563,0.7815454006195068,-0.4917339086532593,-0.09931635856628418,-0.4934605360031128,-0.6402430534362793,0.10082030296325684,-0.24046587944030762,-0.07740379124879837,-0.19145724177360535,0.7318949103355408,-0.6097424030303955,0.5302836894989014,-0.5616210103034973,0.27553144097328186,1.01114022731781,0.4630265533924103,0.24147701263427734,0.6609023213386536,0.15921315550804138,-0.4355475902557373,0.051662322133779526,-0.2655685842037201,-0.9129384756088257,0.8996518850326538,-0.6060179471969604,0.7762255668640137,-0.15184429287910461,-0.973589301109314,0.06989212334156036,-0.1437591314315796,-0.42444443702697754,-0.6400911808013916,0.14690625667572021,-0.5519789457321167,-0.2109922170639038,-0.7743472456932068,0.8257906436920166,-0.24621032178401947,0.8443424105644226,-0.8433738946914673,0.31942296028137207,-0.8851206302642822,-0.34902098774909973,-0.4146254062652588,-0.21110713481903076,0.14793641865253448,0.2731277048587799,-0.23382575809955597,0.7042149901390076,0.37177664041519165,0.4943729639053345,-0.5528429746627808,-0.9671997427940369,-0.6114352941513062,0.1384531557559967,-0.4898843765258789,-0.5941392183303833,0.21133053302764893,-0.5314964056015015,0.5493719577789307,-0.21974027156829834,0.3301903009414673,0.8585865497589111,0.27564048767089844,0.5596766471862793,-0.12211740016937256,-0.35993802547454834,0.18620145320892334,-0.6028740406036377,-0.7166014909744263,-0.9582511186599731,-0.9574243426322937,-0.9518560171127319,-0.9537506103515625,-0.3057279884815216,-0.7274526357650757,0.9152539968490601,0.05722510814666748,0.31069278717041016,-0.050269246101379395,-0.9279061555862427,-0.14543390274047852,0.6809176206588745,0.12829744815826416,0.3549085855484009,-0.252734899520874,-0.10958516597747803,0.5842217206954956,-0.027495384216308594,-0.8388098478317261,0.302587628364563,0.0349578820168972,-0.9691545367240906,-0.4505849778652191,-0.4448463022708893,0.5438398718833923,-0.3203103244304657,-0.520671010017395,0.5674108266830444,-0.20056338608264923,0.8732161521911621,0.279833048582077,-0.16709502041339874,-0.8103074431419373,0.4076743423938751,0.7610297799110413,0.8244719505310059,0.5058550238609314,0.2677547335624695,-0.44075092673301697,0.2313370704650879,-0.03362548351287842,-0.7772667407989502,-0.5159094333648682,0.8032751083374023,0.1845024824142456,0.9899822473526001,0.6382038593292236,0.5260554552078247,0.09614179283380508,-0.40390875935554504,-0.5138862729072571,-0.8344789147377014,-1.167561411857605,-0.2098367065191269,0.22317227721214294,-1.1723763942718506,-1.2207131385803223,-0.12380864471197128,-0.5174777507781982,0.5450478792190552,-1.0680893659591675,0.7422749996185303,-1.0810489654541016,0.8571441173553467,-0.3686538338661194,0.7714235782623291,0.5198999643325806,-0.13215500116348267,-0.1886616051197052,0.03743083029985428,-0.5674219131469727,0.8319334983825684,0.7212401628494263,0.6739053726196289,-0.14345240592956543,-0.2038774937391281,-0.581853985786438,-0.3855209946632385,0.16184410452842712,0.42908477783203125,-0.23885078728199005,-0.08414704352617264,-1.6591333150863647,-0.04170211777091026,-0.9569755792617798,-1.4352619647979736,-0.6126719117164612,-0.5889701247215271,-1.585006833076477,-0.3886201083660126,0.3227205276489258,-0.10013975203037262,0.9537709951400757,-0.018305569887161255,-0.6144426465034485,0.7404546141624451,-0.4830591380596161,0.12368570268154144,-0.31188496947288513,-0.3522998094558716,-0.3916417360305786,-0.8799480199813843,-0.9283944964408875,0.03356087952852249,0.8446272015571594,-1.029184103012085,-0.4670869708061218,-0.7772974371910095,-0.05413341522216797,-0.6356991529464722,-1.8904390335083008,-1.3959460258483887,-0.23983590304851532,-0.08808142691850662,-0.5575236082077026,-1.1173995733261108,0.817266583442688,0.38737088441848755,-0.09492069482803345,0.45840218663215637,0.1509808748960495,1.3361743688583374,0.07562491297721863,-0.35438621044158936,-0.39284753799438477,0.39769402146339417,-0.853471577167511,0.5174827575683594,-0.08810997009277344,0.17111384868621826,0.31065163016319275,0.7736871242523193,-0.05167754366993904,0.6453496813774109,0.6437649130821228,-1.3335882425308228,-0.8446759581565857,-0.5037436485290527,0.03858131170272827,0.0360565260052681,0.247689351439476,-1.777211308479309,-2.17564058303833,-1.509558916091919,-0.08517720550298691,0.4869724214076996,0.5144517421722412,-0.0050626350566744804,1.2521685361862183,0.8322001695632935,0.6908463835716248,1.4650946855545044,0.11519534140825272,-0.18899458646774292,-0.27002424001693726,-0.8429113626480103,0.6384260654449463,0.6989902257919312,0.20039843022823334,-0.1960088610649109,-0.37949490547180176,-0.33094003796577454,-0.679771363735199,0.45903411507606506,-0.23885013163089752,-0.40931615233421326,-0.5401490330696106,-0.8978973031044006,-2.3797991275787354,-1.372009038925171,-2.615067958831787,-1.6831645965576172,-0.8330509662628174,-0.3960416615009308,0.4549747705459595,0.023220090195536613,0.3174353539943695,1.9895998239517212,-0.21782560646533966,0.15578415989875793,-0.6183715462684631,0.4712703227996826,0.11114082485437393,-0.060843318700790405,-0.4637010097503662,0.06100647523999214,-0.32596489787101746,0.33385491371154785,0.5048735737800598,1.2610902786254883,0.6074081659317017,0.42558926343917847,0.8985035419464111,0.7503916621208191,-1.2764561176300049,-0.19307047128677368,-2.1091864109039307,-1.4997738599777222,-3.5485153198242188,-1.423356056213379,-1.2608847618103027,-0.9153366088867188,0.636238157749176,0.5813661217689514,1.518354058265686,-1.028802752494812,-0.19748607277870178,-0.04744027554988861,-0.26049646735191345,0.3491468131542206,0.9918826222419739,-0.5111085772514343,-0.8500813245773315,-0.6216722130775452,0.8218993544578552,1.0515164136886597,0.48961853981018066,0.12423429638147354,0.9281322956085205,0.9712108373641968,-0.13552416861057281,-0.07101525366306305,0.8979312181472778,0.280299574136734,-0.12475322186946869,-2.2274343967437744,-3.887667655944824,-2.3599655628204346,-0.3861110806465149,0.3048853278160095,0.828031599521637,-0.28799083828926086,0.17150363326072693,-0.6604889035224915,-0.5722948312759399,0.6597261428833008,0.491829514503479,-0.12964628636837006,-1.0451292991638184,0.3903050720691681,0.2643975615501404,0.5581201910972595,-0.4849255681037903,0.014761338010430336,0.5137063264846802,1.1509414911270142,0.03733457624912262,0.9975605010986328,0.19681409001350403,0.4568155109882355,0.8176780343055725,0.25042080879211426,0.8774649500846863,-1.3508431911468506,-4.459113597869873,-2.1089978218078613,1.3757280111312866,-0.4356197118759155,0.33730247616767883,-0.08782648295164108,0.1396554857492447,0.5543171167373657,0.4462365508079529,-0.14007452130317688,0.9096603393554688,0.47709619998931885,-0.9345004558563232,0.2371186763048172,0.8875988125801086,0.2394029051065445,0.03656507283449173,1.2256337404251099,0.003735637990757823,-0.3773813247680664,0.9189116358757019,0.5572298765182495,1.0345231294631958,1.3909225463867188,0.07843410968780518,1.043919563293457,1.398667573928833,-0.08721949905157089,-3.4827308654785156,1.1412357091903687,2.1653995513916016,-0.20250385999679565,-0.06543228775262833,0.1941588670015335,0.7288312315940857,1.1083862781524658,0.5859310030937195,-0.3235982060432434,-0.7848411798477173,0.9715418219566345,1.0583441257476807,-0.17680932581424713,0.5389717817306519,-0.6391847133636475,-0.6381091475486755,0.6916383504867554,0.707051157951355,0.08659740537405014,-0.335243821144104,0.042351383715867996,0.029404962435364723,0.15901300311088562,0.6501829028129578,1.4345097541809082,0.5018096566200256,-1.7423094511032104,-0.9919824600219727,1.2110824584960938,1.444227695465088,0.073063924908638,0.3849530816078186,-0.6924886703491211,0.19250857830047607,0.6309493780136108,0.40855640172958374,-0.49892982840538025,-0.8958142399787903,1.276708960533142,0.36363568902015686,0.15452122688293457,-0.7342667579650879,-0.9160898923873901,-0.006482874974608421,0.5215672254562378,0.6629335284233093,-1.4419434070587158,-0.5496807098388672,1.2798690795898438,0.2391212284564972,-0.11251840740442276,0.7943228483200073,2.8878796100616455,1.6085584163665771,-1.4401112794876099,-2.3664674758911133,-0.17866821587085724,0.8442468643188477,0.1942705661058426,-0.12840740382671356,-0.815809965133667,0.48076289892196655,-0.5385928153991699,-0.29827243089675903,-0.2020111382007599,-0.5300146341323853,-0.20238114893436432,0.06221926212310791,0.37018072605133057,-0.5435512065887451,0.8989790081977844,-0.4961964786052704,1.0578384399414062,0.9853693246841431,-1.0776537656784058,0.050063636153936386,-0.13487808406352997,1.1444424390792847,0.46450793743133545,1.6561697721481323,0.8805050253868103,0.3297487497329712,-2.14933443069458,-2.449259042739868,-1.2355763912200928,0.7229793667793274,-0.6473591923713684,0.21681970357894897,-1.1883059740066528,0.7932659387588501,0.9635273814201355,0.2585945725440979,-0.20510277152061462,-0.5124883055686951,0.06733586639165878,0.6240730285644531,0.4250229001045227,0.9792237877845764,-0.6267979741096497,0.8062002062797546,0.0805995762348175,-0.03269650414586067,0.868945837020874,0.6533786654472351,-0.4961329996585846,1.007049322128296,1.1435399055480957,0.7987461090087891,-0.18213582038879395,-0.3473246395587921,-0.9978341460227966,-0.6701385974884033,-0.8593018651008606,-0.7867193222045898,0.8422949910163879,-0.12546171247959137,0.4925840198993683,-0.011561853811144829,-0.17044788599014282,0.9179714322090149,0.2998187243938446,-0.861181914806366,-0.1977287083864212,0.11724168807268143,-0.6756947040557861,0.6559911370277405,0.6395680904388428,-0.5904536247253418,-0.25307148694992065,-0.3308894634246826,0.6109676957130432,0.14876873791217804,1.0975594520568848,1.342869758605957,0.07333169132471085,-0.1829657107591629,-0.41529953479766846,0.47124651074409485,-0.07928011566400528,0.4194710850715637,-0.9041808843612671,-0.41905730962753296,0.6157360672950745,0.9058719277381897,0.26844167709350586,0.5116890668869019,-0.25397372245788574,-0.10701435804367065,0.2671795189380646,0.9636629223823547,0.8741217255592346,0.7981675267219543,-0.4632558822631836,-0.23125801980495453,-0.20780909061431885,0.43236231803894043,0.772452712059021,-0.06494589895009995,-0.058510083705186844,0.5246370434761047,0.5968988537788391,0.446870893239975,-0.6654276847839355,0.1561746746301651,-1.5878359079360962,-0.5865241885185242,-0.1577390879392624,0.6040269732475281,1.5413250923156738,0.5610980987548828,0.8365270495414734,0.37503424286842346,0.5981051921844482,-0.07124435156583786,2.1792235374450684,1.1584686040878296,-0.1815621703863144,-0.4114910662174225,0.6422026753425598,0.5890600681304932,-0.4614637792110443,-0.9338074922561646,0.5551334619522095,0.3684941232204437,0.09048157930374146,0.3707493543624878,-0.06795836985111237,0.32953113317489624,-0.5338560342788696,-0.2221822887659073,0.8000733852386475,-0.07273880392313004,-1.731147289276123,-3.0195858478546143,-0.7756250500679016,1.264591932296753,0.8392061591148376,0.8148230910301208,0.376362144947052,1.0341984033584595,0.7813854813575745,0.529592752456665,0.2097133994102478,0.02143189124763012,-0.30233192443847656,-0.7027208805084229,0.292344868183136,0.9258385896682739,-0.26975396275520325,-0.5905159711837769,-0.5503473281860352,1.0305150747299194,0.22822123765945435,-0.5034383535385132,-0.48208189010620117,0.37137895822525024,-0.17766351997852325,-0.161941796541214,0.6635200381278992,-1.4648094177246094,-0.9499207735061646,-0.9160047769546509,0.4220753312110901,1.3390333652496338,0.10120615363121033,-0.2219838798046112,-1.6979267597198486,-0.6542093753814697,-1.1066946983337402,-0.23622068762779236,-0.6951037645339966,0.5311832427978516,-0.5152190327644348,-0.6490486860275269,-0.5294032692909241,0.29238638281822205,-0.9350889325141907,-0.9021713733673096,1.004173994064331,-0.2831932008266449,-0.06275472790002823,-0.08186370879411697,-0.7452260255813599,0.1432073712348938,0.21671564877033234,-0.05005824193358421,-0.12936252355575562,-1.5543406009674072,-0.5556827187538147,-0.9690321683883667,-0.3094821572303772,-0.8877346515655518,-0.7368986010551453,-1.0994549989700317,-1.2470011711120605,-0.7595175504684448,-1.9893102645874023,-1.0130946636199951,-1.6839566230773926,-0.9673429131507874,-0.31213316321372986,0.4256943166255951,0.3953936994075775,-0.6021320223808289,0.9894843101501465,0.8082318305969238,0.7329286336898804,0.028552766889333725,0.14031308889389038,-0.8639939427375793,-0.6768776774406433,-0.49263203144073486,0.42140287160873413,-1.3625564575195312,-0.46052396297454834,-1.4690967798233032,-0.9331592321395874,0.3255821168422699,-1.3107638359069824,0.256705641746521,-1.0258557796478271,-0.3655094504356384,-1.5023136138916016,0.15341927111148834,-0.9345308542251587,-0.6331378221511841,-0.6529266834259033,-0.8567615151405334,-0.5335780382156372,-1.0800762176513672,0.16451799869537354,0.207595556974411,0.6780553460121155,0.11748012155294418,-0.6475172638893127,-0.0725327730178833,-0.8126968741416931,-1.0177454948425293,-0.9029861092567444,-0.4441658854484558,0.1916627436876297,-1.2493044137954712,-1.1157501935958862,-0.9997843503952026,-0.45271795988082886,-0.8383864760398865,0.298896461725235,-0.5221642255783081,0.38346514105796814,-0.709446370601654,0.3788686692714691,-0.0712612122297287,-0.3187633752822876,-0.6175506114959717,-1.184590220451355,-0.6876519322395325,0.7257046699523926,0.44087523221969604,-0.18047457933425903,-0.3139980137348175,-0.1763700246810913,0.3657381236553192,-0.9683921933174133,0.0018846759339794517,0.43222036957740784,0.6713943481445312,-0.20401650667190552,-0.9157878756523132,-0.4939577579498291,-1.0197875499725342,-0.36863723397254944,0.13113608956336975,-0.7789857983589172,-0.2329094409942627,0.8563598990440369,0.3292224407196045,0.08378595113754272,0.2795659601688385,0.0005064138094894588,-0.060345813632011414,1.0711307525634766,0.9700381755828857,-0.44662973284721375,0.08678370714187622,0.7431859970092773,0.1502264440059662,-0.8096432089805603,-0.47931772470474243,0.6064176559448242,0.5166523456573486,0.17516803741455078,-0.27191781997680664,0.5743889808654785,0.9471020698547363,0.5767548680305481,0.2776030898094177,0.4578440189361572,0.3416301906108856,-0.557223379611969,-0.6220427751541138,-0.63871169090271,-0.4441717863082886,0.009754332713782787,0.6098892092704773,0.24578224122524261,0.9049474596977234,1.341306209564209,0.7251347303390503,0.6144846677780151,-0.4355652928352356,0.12355519086122513,-0.5228122472763062,-0.903873860836029,-0.3173620402812958,-0.9363530874252319,-0.5249378085136414,-0.829659104347229,-0.5786863565444946,-0.4664984941482544,0.9281421303749084,0.1192333847284317,-0.49155160784721375,0.18764472007751465,1.062510371208191,-0.23688752949237823,-0.29771631956100464,-0.6021071672439575,-0.18455523252487183,-0.8950211405754089,0.5316293835639954,-0.7068902850151062,0.18528571724891663,0.03609123453497887,-0.11685564368963242,-0.565223753452301,-0.2792806029319763,-0.41494661569595337,-0.0004385267966426909,-0.34718355536460876,0.23483914136886597,-0.3590039908885956,0.6120004653930664,-0.24934791028499603,-0.4820731282234192,-0.5144970417022705,-0.7325514554977417,0.71827232837677,0.7537160515785217,-0.06707006692886353,-0.9422401189804077,-0.19312720000743866,1.003579020500183,0.5375189185142517,-0.08438287675380707,-0.8406602740287781,-0.9226118922233582,-0.9370077848434448,-0.1585463434457779,-1.0638078451156616,-0.4300103187561035,-0.5639320015907288,-1.1351115703582764,-0.7496374845504761,-0.8053308129310608,-0.4791795611381531,-1.0388984680175781,-0.35080215334892273,-1.2360296249389648,0.17836196720600128,0.6182297468185425,0.6706494092941284,0.6162781119346619,-0.1759856939315796,-0.4372901916503906,-0.7820266485214233,0.352328896522522,-0.16197626292705536,0.054210320115089417,-0.9276264905929565,-0.6027594208717346,0.625775933265686,-0.20249658823013306,0.06417660415172577,-0.7275358438491821,-0.1215655654668808,-1.8290016651153564,-1.7147914171218872,-1.4345028400421143,-0.4877573549747467,-0.5224165916442871,-1.3179043531417847,-1.3160955905914307,-0.9595024585723877,0.5746816992759705,-0.2844299077987671,0.190101757645607,-0.08997935801744461,0.8068684935569763,0.6460994482040405,-0.6829075813293457,-0.8618277311325073,0.4771873950958252,0.3418889045715332,0.2896251678466797,0.5665379762649536,-0.657744288444519,0.6738578677177429,0.8120759129524231,0.9185740947723389,0.8844465613365173,-0.7521610856056213,-0.9738193154335022,-0.8945040702819824,-0.5419354438781738,-0.4250052571296692,0.30921924114227295,-0.0422925241291523,-0.9067579507827759,-0.7085438966751099,0.44313326478004456,-0.7729867696762085,0.8819200992584229,0.576724112033844,-0.07956016808748245,-0.48412153124809265,0.3072934150695801,0.0631103515625,0.8304673433303833,0.3594900369644165,-0.9910727739334106,-0.8006608486175537,-0.5977575778961182,0.899337649345398,-0.7271418571472168,0.6982765197753906,0.8614444732666016,0.27461671829223633,-0.01728534698486328,-0.8230211734771729,0.5686084032058716,-0.07151436805725098,-0.21468129754066467,-0.025762012228369713,-0.08826921880245209,0.2851525545120239,0.7385635375976562,-0.7123438119888306,-0.18919599056243896,0.7071616649627686,0.4847527742385864,-0.07252562046051025,0.9440840482711792,0.5558873414993286,0.5394159555435181,-0.06950032711029053,0.1985710859298706,0.24178874492645264,-0.1808030605316162,-0.37276995182037354,0.5926775932312012,-0.635034441947937,0.4906190037727356,-0.9773547649383545,-0.7821718454360962,0.6657341718673706,0.8674136400222778,-0.5511520504951477,-0.6871541142463684,-0.8007553219795227,-0.7131393551826477,0.20556551218032837,0.1379106342792511,-0.5307069420814514,0.4378143846988678,-0.12020460516214371,0.2694621980190277,0.12977667152881622,0.1870945543050766,0.1465870887041092,-0.6303642988204956,-0.7119091749191284,-0.4692741632461548,-0.9116159677505493,-0.4632425308227539,0.3749128580093384,-0.32244014739990234,-0.11803030967712402,0.22854578495025635,-0.47260501980781555,0.8848446011543274,-0.6103078126907349,0.9257796406745911,-0.15672913193702698,0.9297754764556885,-0.9746888279914856,0.9315287470817566,0.9310146570205688,-0.28473833203315735,-0.17222340404987335,-0.8465443253517151,0.3480410575866699,0.7055417895317078,-0.08397605270147324,0.6029466986656189,1.3358852863311768,-0.4569644331932068,0.3774263560771942,-0.7114177942276001,0.3655809164047241,0.38923779129981995,-0.904037594795227,0.7993050813674927,-0.4210543632507324,0.8585643768310547,0.4423302412033081,0.86043381690979,-0.3076885938644409,-0.9805001020431519,-0.8876537680625916,-0.39374417066574097,0.6353493332862854,0.5048378705978394,-0.7310429215431213,-1.4256181716918945,-0.6341382265090942,-0.1674596518278122,-0.85166335105896,-0.8501525521278381,-0.9519174695014954,-1.0845506191253662,-0.5113176107406616,0.14965617656707764,-0.0034144865348935127,-0.2486000508069992,1.580247402191162,0.7553403377532959,1.1754873991012573,0.4667663276195526,-0.3363436460494995,0.6933553814888,-0.8661882877349854,0.9464318752288818,0.98389732837677,-0.9820381999015808,-0.17329993844032288,0.11829867213964462,0.52037113904953,-1.0697746276855469,-0.554109513759613,0.17584574222564697,-0.0996425449848175,-1.3211039304733276,-2.0583860874176025,-0.540747344493866,-1.6287676095962524,-0.988664984703064,-1.0304101705551147,-0.09292609989643097,-0.7172486186027527,-0.7826973795890808,0.20708712935447693,0.5011357665061951,0.4065577983856201,0.8741379976272583,0.07617633789777756,0.8750340938568115,0.7974875569343567,-0.5847594738006592,-0.7489768862724304,0.38126254081726074,0.4642444849014282,0.7517856955528259,-0.3588429093360901,0.44687020778656006,-0.8947793841362,0.1346244364976883,-1.2150499820709229,-0.7907620072364807,-0.27545249462127686,-0.9888679385185242,0.160859152674675,0.015171196311712265,-1.023531436920166,0.11727150529623032,-0.5733639001846313,-0.15792256593704224,0.2071083039045334,0.4948217272758484,0.7364931106567383,-0.0430171824991703,0.8626474738121033,0.9929317831993103,1.6819727420806885,-0.061135340481996536,-0.5279496908187866,-0.3395404815673828,-0.04171508550643921,0.40737223625183105,0.1452912986278534,-0.920560359954834,-1.2760562896728516,-0.9545726776123047,-0.43584781885147095,-1.1409766674041748,-1.0848774909973145,-0.03857194632291794,-0.10900039225816727,-0.9553154110908508,-0.5787868499755859,0.4445250928401947,-0.7870503067970276,-0.27546560764312744,-1.5873383283615112,-0.4936872720718384,0.3354578912258148,-0.3799665868282318,0.6034008264541626,-0.1741444617509842,-0.5570142269134521,1.1102557182312012,1.7224974632263184,1.0519644021987915,0.10526461154222488,0.4536028504371643,-0.7808816432952881,-0.3559868335723877,-0.3748372495174408,0.05593181774020195,0.5378360748291016,-1.0779930353164673,-1.1045283079147339,-0.16551212966442108,0.22684447467327118,0.634332537651062,-1.0612196922302246,-0.8823750615119934,-0.24924257397651672,-1.403661847114563,-1.4920672178268433,-0.4727703928947449,0.2234688252210617,-0.6122578382492065,0.04651563614606857,-0.3324022591114044,-0.9340195655822754,1.0861766338348389,-0.9437969923019409,-0.5076795816421509,2.049145460128784,1.934482455253601,0.2548048496246338,0.6578730940818787,0.8122466802597046,-0.5539038777351379,0.19708265364170074,0.03874611109495163,-0.6587653756141663,-0.7783647775650024,-1.1291325092315674,-0.8389638066291809,-0.9043591022491455,-0.43870434165000916,0.2457311451435089,-0.9656667709350586,-1.2585351467132568,-1.0546493530273438,-1.2156615257263184,-1.6587615013122559,0.3562130331993103,0.7234525680541992,0.1711788922548294,-0.6389274001121521,-0.8513631224632263,-0.5535136461257935,-0.3022903501987457,-0.3216899633407593,1.2954022884368896,1.3967641592025757,0.473297119140625,0.222233846783638,-0.7433662414550781,-0.7328521609306335,0.9542949795722961,0.7554515600204468,-0.9514826536178589,-1.4975287914276123,0.03583787381649017,0.4334714710712433,-0.9056321382522583,-0.203151673078537,-1.364296793937683,-0.7819496989250183,0.2078576385974884,1.3521671295166016,0.8925674557685852,0.3968738615512848,-0.2681898772716522,-0.5073832273483276,-0.051879800856113434,-0.7060478329658508,0.15196391940116882,-0.005734303034842014,0.890125572681427,0.7389569878578186,0.3461790382862091,1.3847026824951172,0.9141095280647278,0.8042946457862854,0.24897880852222443,0.7197427749633789,0.8184708952903748,0.420723557472229,0.3870563209056854,0.555803656578064,0.8775619268417358,0.8055089116096497,0.520267128944397,-0.19110095500946045,2.432462215423584,3.3994762897491455,5.030012130737305,4.070505142211914,1.9032942056655884,0.10984089225530624,0.7459415197372437,-0.27333125472068787,-0.9293253421783447,-0.010473417118191719,-0.08758612722158432,0.07018589228391647,0.7990520000457764,0.936660885810852,0.2695969343185425,1.0917960405349731,0.2023547738790512,0.20057812333106995,-0.9877944588661194,0.7664850354194641,0.5827153921127319,-0.42188355326652527,0.726457417011261,1.1329251527786255,3.095107316970825,3.2985177040100098,3.7054457664489746,5.299367427825928,6.3803229331970215,4.8436970710754395,2.2930545806884766,2.2448813915252686,0.9614962935447693,0.8785786628723145,-1.4135868549346924,-1.0226448774337769,-0.42730477452278137,-0.455405056476593,-0.5535525679588318,-0.2371598333120346,0.2632482945919037,0.8490833044052124,-0.5348793268203735,0.9968305230140686,0.7566920518875122,0.02276606112718582,-0.5116276144981384,0.33659154176712036,0.8355635404586792,-0.5426788926124573,0.03898298740386963,0.39641860127449036,2.2287282943725586,5.183587074279785,5.446007251739502,4.244981288909912,3.7041170597076416,1.7958002090454102,-0.21345674991607666,0.16589081287384033,0.2649053633213043,0.463695228099823,0.0046258182264864445,-0.8914521336555481,0.9183329343795776,0.8952736258506775,0.7860957384109497,0.9165716767311096,1.6703840494155884,0.7398971915245056,0.5488008260726929,0.6398332118988037,-0.3588782548904419,-0.4527584910392761,0.6691112518310547,0.14069528877735138,-0.08586166799068451,-0.8100250363349915,1.1519970893859863,0.8898453712463379,2.8815231323242188,4.241814136505127,2.5273616313934326,0.6600116491317749,-0.2539638578891754,-0.9135560393333435,0.2203274667263031,-0.2529681622982025,-0.2529587149620056,0.9966380000114441,0.3981383740901947,-0.008833040483295918,-0.011639484204351902,-0.6782160401344299,1.0739974975585938,-0.312012642621994,-0.1591511070728302,0.1252128779888153,0.6353967785835266,-0.7664280533790588,-1.5175983905792236,-0.9892539978027344,-0.16040188074111938,-0.6071346998214722,0.5548256039619446,-0.22993749380111694,-0.3500709533691406,1.2861566543579102,1.1623218059539795,1.4734485149383545,-0.7586466670036316,-0.09069967269897461,-1.4349086284637451,-0.3135022521018982,0.1829378753900528,-0.07431549578905106,0.32930222153663635,-0.39707010984420776,0.2797798216342926,-0.22623860836029053,-0.3459215462207794,-0.33621835708618164,-1.6890419721603394,0.13582946360111237,-0.07833099365234375,0.4819364547729492,0.8724370002746582,0.3260340690612793,-0.810076117515564,0.5285282135009766,-0.30072787404060364,0.5036823153495789,0.5326324701309204,-0.5582209825515747,-0.26665663719177246,-0.7957794666290283,0.5655565857887268,-1.7039612531661987,-0.755743145942688,-1.2397022247314453,0.024985164403915405,0.35261738300323486,0.21901263296604156,0.6036385297775269,-0.18278002738952637,0.1828070878982544,-0.5777013897895813,-0.27188530564308167,-0.4223615527153015,0.18768508732318878,0.44289538264274597,0.08437342941761017,0.17468854784965515,0.5011733770370483,0.693966269493103,0.11866169422864914,-1.379657506942749,-0.349480539560318,0.923985481262207,0.4393320083618164,-0.6305171847343445,-0.008594084531068802,-0.11854501813650131,-1.0087175369262695,-1.2044661045074463,-1.7624547481536865,-0.16545918583869934,0.9202594757080078,0.7920622229576111,0.2033551186323166,0.0830952525138855,-0.6951028108596802,-0.3106846213340759,-0.5138431787490845,0.5089138746261597,-0.3343828618526459,-0.6262941956520081,-0.32274651527404785,-0.4106140434741974,-0.02859739400446415,-0.14505837857723236,0.29422277212142944,-0.2163897007703781,-1.7569515705108643,-0.1402381956577301,-1.351444125175476,-0.03439581021666527,0.8538839817047119,0.8525123596191406,0.40124374628067017,-1.1233375072479248,-1.697774052619934,-0.09836022555828094,-0.2443717122077942,0.04396795108914375,0.0888013243675232,0.3806547522544861,0.08082596957683563,0.8740607500076294,-0.4639756679534912,-0.05314244329929352,0.32207491993904114,0.05713788419961929,0.31311655044555664,0.19299687445163727,-0.47187066078186035,-1.1418547630310059,0.6152855753898621,0.36760345101356506,-0.5898665189743042,0.414336621761322,-1.7016078233718872,-1.4093327522277832,-0.3438407778739929,0.8072137236595154,-0.6264046430587769,-0.27115821838378906,-1.0277173519134521,-0.95121830701828,-1.0790221691131592,-0.33365505933761597,-1.027342677116394,-0.12790945172309875,0.11713210493326187,0.05278480425477028,0.08178021013736725,1.1571036577224731,-0.08152956515550613,-0.7040072083473206,-0.539279580116272,-0.5137524008750916,-1.072957158088684,-1.1180483102798462,-0.8955516219139099,-0.6443651914596558,-0.1799658238887787,-0.46272528171539307,-1.312962293624878,-0.47640174627304077,-0.7655162811279297,-1.4168024063110352,-0.5421187281608582,0.3987729251384735,-0.2307371348142624,-0.34847164154052734,0.35514506697654724,-0.777190625667572,-1.1903645992279053,-0.5487417578697205,-0.398493230342865,0.2683684527873993,0.22219540178775787,-0.6896952390670776,-0.229641392827034,-0.17721500992774963,0.8731281757354736,-0.6686411499977112,1.0878697633743286,-1.4435458183288574,-0.35178637504577637,-0.3465263247489929,-1.7787806987762451,-0.7975186705589294,-0.9287295937538147,-0.7456709742546082,-1.3594173192977905,-1.221681833267212,-1.3899646997451782,-1.274457573890686,-0.3660679757595062,-0.5920650959014893,-0.9602210521697998,-0.22582316398620605,-0.17385973036289215,-1.4658043384552002,-2.0317513942718506,-0.4475972056388855,-0.134368896484375,0.3484739661216736,-0.840019166469574,0.3000253438949585,0.17027617990970612,0.5077865123748779,0.28758910298347473,0.4297208786010742,-0.9532866477966309,-0.6266093850135803,0.3697417974472046,0.18531197309494019,0.19642764329910278,-0.37233713269233704,-0.09695184975862503,-0.013802090659737587,-0.1598023623228073,-1.1210891008377075,-0.29044315218925476,-0.47468915581703186,-0.07250425964593887,0.6702134013175964,0.33923134207725525,-0.258096843957901,-0.5526867508888245,-0.3799297511577606,-0.7519097328186035,-0.642815351486206,-0.665099561214447,-0.41722533106803894,-0.009564642794430256,0.2909524440765381,0.12873978912830353,0.16147689521312714,-0.3124203085899353,-0.048103444278240204,0.40987008810043335,-0.32864508032798767,0.72110915184021,-0.16256001591682434,-0.13349102437496185,-0.5465514659881592,0.9618270993232727,0.5292159914970398,-0.07841771095991135,-0.11117762327194214,0.8041324019432068,0.10621222108602524,-0.5699072480201721,-0.45746302604675293,0.5426527857780457,0.16824565827846527,0.5488747954368591,-1.3693146705627441,-0.19563107192516327,-0.9714874625205994,-0.6885462403297424,-0.17819611728191376,0.015363876707851887,-0.8994952440261841,-0.16126981377601624,0.4971854090690613,0.9056321978569031,-0.3802982270717621,0.6756089329719543,0.06051378697156906,-0.18332304060459137,-0.20416434109210968,0.22933652997016907,-1.1660666465759277,-0.37926286458969116,0.547025740146637,-0.19185106456279755,0.37459731101989746,-1.0667710304260254,-0.8820202946662903,-0.0866883397102356,-0.9037972092628479,-0.18528103828430176,-0.23471522331237793,-0.021210024133324623,-0.7367665767669678,-0.9398869872093201,-0.3048878610134125,-0.6788700819015503,-1.7539650201797485,0.4487491846084595,0.5369544625282288,0.370640367269516,-0.036834701895713806,0.8778501749038696,-0.04744889959692955,0.5443375110626221,-0.5475900173187256,0.4505811929702759,0.8656196594238281,-0.5567771792411804,-0.6022934317588806,1.0268193483352661,-0.21835003793239594,1.3017009496688843,-0.4824014902114868,-0.7508758306503296,0.012870226986706257,-0.7875329256057739,0.6873244047164917,-0.826419472694397,-0.5755631923675537,0.3141442537307739,0.1918255090713501,-1.2938621044158936,-1.1382843255996704,-0.1339692771434784,-0.36721110343933105,-0.14270420372486115,0.4881690442562103,0.32956406474113464,-0.8901277780532837,-0.023330215364694595,0.3355958163738251,-0.6824557781219482,0.43235984444618225,0.6803111433982849,0.5436880588531494,0.6238222122192383,0.4246692359447479,1.4280494451522827,0.15824659168720245,0.6989421248435974,0.09809508174657822,-0.4566608667373657,0.3782130479812622,-0.6845985651016235,-0.6289962530136108,0.4898226261138916,0.050557851791381836,-0.17973792552947998,0.5850719213485718,0.11420055478811264,0.1823459267616272,-0.8246560096740723,-0.5935290455818176,-0.037087924778461456,-0.6173088550567627,-1.1365686655044556,0.10706962645053864,-0.18702107667922974,0.0637548491358757,-0.9127260446548462,-0.24114586412906647,-0.15829862654209137,0.8137862086296082,0.17548616230487823,0.6346602439880371,0.24108964204788208,1.1296428442001343,0.14765070378780365,-0.3330845534801483,-0.9446212649345398,0.16968663036823273,0.5018193125724792,-0.1153634786605835,0.702485203742981,-0.5613676309585571,0.9080860614776611,0.683411717414856,-0.8958755135536194,0.8586069941520691,-0.3004944324493408,0.13847438991069794,0.5032945871353149,-0.2661621570587158,1.1091375350952148,0.7111318707466125,1.1499682664871216,-0.7043810486793518,1.0154398679733276,0.9819112420082092,0.5745829939842224,0.18705569207668304,-0.32712000608444214,0.8914878964424133,-0.36070773005485535,-0.22395943105220795,-0.5056123733520508,1.0106139183044434,0.6692768335342407,-0.47444093227386475,0.9612312316894531,0.6219393014907837,0.7546560764312744,-0.05520355701446533,-0.13702690601348877,-0.2663865089416504,-0.34581542015075684,-0.0004550913581624627,0.43719959259033203,-0.2046952098608017,-0.23465725779533386,-0.7031447887420654,0.41051796078681946,-0.6862732172012329,0.4146568477153778,-0.6549352407455444,-0.6867898106575012,0.7466012239456177,-0.6663492918014526,0.6838164329528809,0.5591999888420105,0.7801904082298279,-0.25776171684265137,0.7404462695121765,-0.07727153599262238,-0.7082793712615967,0.8766705989837646,0.9582349061965942,0.17444050312042236,-0.5818536281585693,-0.2655975818634033,0.8552285432815552,0.735480785369873,-0.06082737445831299,0.9219983816146851,-0.9092485904693604,0.46024489402770996,-0.06463432312011719,-0.06165659427642822,0.3945450782775879,0.9550747871398926,0.40776848793029785,-0.3575908839702606,-0.9589245915412903,-0.957976758480072,0.4397822320461273,-0.4634195566177368,0.7312835454940796,-0.30260026454925537,0.3694300651550293,0.2104334831237793,0.5634711980819702,0.6266465187072754,-0.17675280570983887,0.3301352262496948,-0.6860021352767944,-0.3208615779876709,0.8695117235183716,0.5485762357711792,-0.6959179639816284,-0.1191256046295166,0.96262526512146,-0.9927664995193481,-0.6130470037460327,0.8845602869987488,0.24120759963989258,0.4916130304336548,0.15938600897789001,-0.9158156514167786,-0.34358417987823486,-0.5559177398681641,0.15184564888477325,-0.5131628513336182,0.7338459491729736,0.9855470061302185,0.28090518712997437,-0.627421498298645,0.8830989003181458,-0.08902377635240555,-0.30731385946273804,-0.5962658524513245,0.12733586132526398,0.9035911560058594,0.38379573822021484,-0.3791086673736572,-0.04379093647003174,-0.6638344526290894,-0.5075221061706543,-0.6240183115005493,-0.9384007453918457,-0.8606017231941223,-0.3946303725242615,0.3638246953487396,-0.9583737254142761,0.20841172337532043,0.23416543006896973,-0.8666591644287109,-0.24681754410266876,0.7447562217712402,-0.9586533308029175,-0.8336594104766846,-0.8249394297599792,-0.815003514289856,0.5698540210723877,0.6833736300468445,0.34621331095695496,-1.029335618019104,0.4783732295036316,0.17675095796585083,0.28752273321151733,0.5165446996688843,-0.6071409583091736,0.9698728322982788,0.4804617166519165,-0.9795256853103638,-0.187677264213562,-0.7406257390975952,0.39534130692481995,0.9115829467773438,-0.8101412057876587,0.9138229489326477,-0.2576083242893219,-0.8695953488349915,0.3236970603466034,-0.5151072144508362,-0.7672741413116455,0.5703917741775513,1.2483861446380615,0.7747784852981567,0.49752891063690186,0.3404739797115326,-1.4805794954299927,-1.0170834064483643,0.07576166093349457,-0.5893045663833618,0.48499351739883423,0.06407975405454636,-0.45946285128593445,-0.281379759311676,-0.6994014978408813,-0.8704145550727844,-0.5908417701721191,0.5288610458374023,-0.6692947745323181,0.0671653226017952,-0.38100287318229675,0.1482529193162918,0.09611143916845322,0.12763750553131104,1.0775699615478516,1.3488991260528564,1.305787444114685,1.2887694835662842,1.5070843696594238,0.7557051777839661,2.01545786857605,0.804847240447998,-0.16042108833789825,0.37622979283332825,-1.025377869606018,-0.05270151048898697,0.10651340335607529,-1.2043180465698242,-0.4168069660663605,-1.1869174242019653,0.25421592593193054,0.7753483057022095,0.38927286863327026,0.5059656500816345,-0.9597013592720032,0.5310314893722534,0.3475666046142578,0.6423911452293396,0.406688928604126,1.1432777643203735,0.3857889473438263,0.9833213686943054,0.47943392395973206,0.32458484172821045,0.12724508345127106,0.6494831442832947,0.8339968919754028,-0.27656665444374084,0.14354479312896729,0.8121023774147034,1.275355339050293,-0.1562211960554123,-1.0486924648284912,-1.0251566171646118,-1.5752990245819092,-2.092989444732666,-1.5050617456436157,-1.507615089416504,-0.6481749415397644,-0.14500711858272552,-0.19279445707798004,-0.8397035002708435,-0.6444693207740784,0.1717662811279297,0.16171610355377197,-0.8279764652252197,0.3655381202697754,0.2988523244857788,0.6751630306243896,0.5325281620025635,0.62633216381073,-0.2532948851585388,-0.5407968759536743,0.5455329418182373,1.3543689250946045,0.7162488102912903,1.5122394561767578,0.6949134469032288,-0.4101203382015228,-0.6391191482543945,-0.48235204815864563,-0.2809906005859375,-0.8579254150390625,-1.6854630708694458,-0.8138892650604248,-2.3805747032165527,-0.13442066311836243,-1.1793229579925537,0.27271783351898193,0.41083601117134094,0.5869616270065308,-0.0009673006134107709,0.6076604723930359,0.7074220776557922,0.11403517425060272,0.4684959650039673,0.5512943267822266,1.380277395248413,-0.4926069974899292,0.4966144561767578,0.28057003021240234,0.571218729019165,0.49212881922721863,0.9712644815444946,0.2861118018627167,0.908556342124939,0.8666394948959351,0.6515422463417053,0.1149512380361557,-1.7117209434509277,-1.1103121042251587,-0.7376387715339661,-1.3055754899978638,-2.2862348556518555,-1.4511748552322388,-1.3896315097808838,0.04531694948673248,0.6345124840736389,0.33233124017715454,-0.704556941986084,-0.694683313369751,-0.2404489666223526,0.6972756385803223,1.3853803873062134,0.75701504945755,-0.20051221549510956,0.46613404154777527,-0.3612155616283417,0.17393803596496582,-0.9937779307365417,-2.4566702842712402,0.1292017251253128,0.6104398369789124,0.49241912364959717,0.8709664940834045,0.7162373661994934,0.718790590763092,0.5090578198432922,-1.673396348953247,-1.586606740951538,-1.4506338834762573,-1.1151179075241089,-0.7069602608680725,-0.8686801791191101,0.6396508812904358,-0.9170166254043579,0.7595309019088745,-0.5623230934143066,0.402754008769989,-0.9985320568084717,0.5099018812179565,1.4484336376190186,0.2672259509563446,0.2257276326417923,0.25149625539779663,-1.025795340538025,-1.6264667510986328,-1.5657386779785156,-1.9290900230407715,-1.2184361219406128,1.0480769872665405,2.3202435970306396,3.2536158561706543,2.1843974590301514,1.4361686706542969,-0.7338756322860718,-0.9844931960105896,-1.085513949394226,-2.1441125869750977,-1.1110419034957886,-1.0151176452636719,-1.1472665071487427,-0.3390328288078308,-0.8620878458023071,0.2208433747291565,0.10608719289302826,-0.4273070991039276,-0.9027571082115173,0.34018251299858093,0.8543281555175781,-0.009307424537837505,0.11195207387208939,-1.2643578052520752,-1.1103838682174683,-2.316744565963745,0.09797976911067963,-0.5857760310173035,0.3802245259284973,1.2484431266784668,3.2677080631256104,1.4599698781967163,1.0603821277618408,0.8682218790054321,-1.7822318077087402,-2.129957914352417,-1.3781369924545288,-1.1194493770599365,-0.3937607407569885,-1.0997283458709717,-0.4111708104610443,-0.4825694262981415,-0.17386861145496368,-0.5547060966491699,0.7111758589744568,0.6871983408927917,0.6384969353675842,0.7246226668357849,-1.211219310760498,-1.227733850479126,-2.112849712371826,-1.8784761428833008,-0.6862167119979858,-1.3690690994262695,-0.4160049557685852,0.7804415225982666,0.3632892668247223,-0.2955358922481537,1.3858797550201416,2.0390257835388184,-0.24436239898204803,-0.7107237577438354,-0.6268904209136963,-1.8572686910629272,-0.4259597361087799,-0.8296782374382019,-1.4203356504440308,-0.9161251783370972,-1.028376817703247,0.1584579348564148,0.02814665623009205,-0.011697735637426376,-0.3890955448150635,-0.11620394885540009,-0.9757071137428284,0.6428804397583008,-0.4862353801727295,-1.2778840065002441,-1.2659237384796143,-0.07938378304243088,-0.4232122004032135,0.8624541163444519,1.0394445657730103,0.3869180679321289,1.4030909538269043,-0.49934762716293335,2.231387138366699,0.8177830576896667,0.2981296479701996,-0.5839768648147583,-1.4415340423583984,-0.9961513876914978,-0.58294278383255,-0.35047072172164917,-1.2964503765106201,-0.04791713505983353,0.1500842422246933,-0.0718400627374649,0.9507216811180115,0.6280404925346375,-0.056964993476867676,-0.23224607110023499,0.1656327247619629,-0.7509876489639282,0.6374043226242065,-0.5760524868965149,-0.7743374109268188,-0.13155749440193176,0.02045544609427452,0.42364925146102905,-0.09178213775157928,-0.944162130355835,0.3134613037109375,0.3885863423347473,1.808693766593933,1.234476089477539,0.9580839276313782,-0.9485573172569275,-0.44956621527671814,-1.2509143352508545,-1.1136035919189453,-1.428239107131958,-0.8284519910812378,-1.362760305404663,-0.8526021242141724,0.3869442641735077,0.5921740531921387,-0.8583188056945801,-0.936972975730896,0.8450049757957458,-0.8813686966896057,-0.9880677461624146,0.4453546404838562,-1.2627607583999634,-0.8406473398208618,-0.9242687821388245,-0.04043632000684738,0.5416613221168518,-0.6733849048614502,-1.3158433437347412,0.20542262494564056,1.5707353353500366,0.6451430320739746,-0.5617341995239258,-0.37705618143081665,-1.5704989433288574,-1.674854040145874,-1.3154476881027222,-1.2490631341934204,0.5185474753379822,-0.2709048092365265,0.5395055413246155,0.2287387251853943,0.2379675805568695,-0.7245702743530273,-0.41830089688301086,0.7917881011962891,-0.9114388823509216,0.6532598733901978,0.148207426071167,0.6952890753746033,-0.2745842933654785,-1.118472933769226,-0.9155613780021667,0.28830206394195557,-0.20564967393875122,-0.6289950013160706,-0.5847998857498169,0.08963839709758759,0.6410980820655823,1.001545786857605,-0.17509780824184418,-0.6437432765960693,-1.5041530132293701,-1.269363284111023,-1.2268494367599487,0.28034719824790955,0.9905392527580261,-0.17069047689437866,-0.36080440878868103,0.022956635802984238,-0.9798700213432312,0.44963493943214417,0.9533997774124146,0.28615275025367737,-0.47339364886283875,0.4897654354572296,-0.10169979184865952,1.063020944595337,-0.4953765869140625,-1.1661401987075806,0.45375412702560425,-0.10065418481826782,-0.059242330491542816,-0.525084912776947,-1.3045001029968262,-1.1072279214859009,-0.4743882715702057,1.116609811782837,-1.2452505826950073,-0.787105143070221,-1.5155208110809326,0.19411663711071014,-0.5959054231643677,0.12759914994239807,1.115698218345642,0.5755967497825623,0.2999447286128998,0.5818473696708679,-0.44202691316604614,0.27186480164527893,0.5737233757972717,0.6310992240905762,0.8769832849502563,-0.7678995728492737,-0.3879591226577759,0.5238078832626343,-0.6417441368103027,-0.6263444423675537,-0.9024429321289062,-1.4173918962478638,-1.494120717048645,-0.944338321685791,-1.099821925163269,-2.082630157470703,0.3227056562900543,1.4629894495010376,-0.6136029362678528,-0.8550705909729004,-0.34731435775756836,0.6068177819252014,0.5795316696166992,-0.3502630889415741,0.6954529285430908,1.6628146171569824,1.32769775390625,-0.3399193286895752,0.7725561261177063,0.6010909676551819,0.9192954301834106,0.3978382349014282,-0.28075048327445984,-0.9258438944816589,-0.5449525117874146,0.4793478548526764,-0.6793392896652222,-0.9468181729316711,0.6045594811439514,0.8534746170043945,-0.13475975394248962,-0.6675012111663818,-0.8252707719802856,-2.1491239070892334,-0.3460158109664917,-0.0891406312584877,-1.2786883115768433,-0.035963237285614014,-0.3893381953239441,0.6759703755378723,0.29493558406829834,0.9503064751625061,0.18571622669696808,1.7453241348266602,1.5732800960540771,0.2788916528224945,-0.5036330223083496,-0.6523565649986267,-0.4921588599681854,-0.2449979931116104,0.13570889830589294,0.48793673515319824,1.0614286661148071,0.2810242176055908,0.42170974612236023,-0.6729020476341248,0.4416978061199188,-0.8750534057617188,-1.1885807514190674,-1.5681432485580444,-1.712162971496582,-1.330053687095642,0.0652267187833786,-0.12568041682243347,-0.7501728534698486,0.2109483778476715,1.197961449623108,0.13373176753520966,-0.018721703439950943,0.444164901971817,0.3069843649864197,0.20713923871517181,0.2547524869441986,0.29330456256866455,0.9615956544876099,-0.6123236417770386,-0.48690366744995117,0.8739711046218872,-0.6860176920890808,1.0433026552200317,0.1663791984319687,0.9268844127655029,-0.7019121646881104,-1.0604885816574097,-0.12011518329381943,-0.8677417039871216,0.008320636115968227,-0.1569998860359192,0.3230513632297516,-0.376985102891922,-0.0321333147585392,-0.2523708939552307,0.19638144969940186,-0.08823824673891068,-0.43326810002326965,1.3267325162887573,-0.16232547163963318,1.493412733078003,-0.05194807052612305,0.2322266846895218,0.08864115923643112,0.04989734664559364,0.4267297089099884,0.06637144088745117,0.7998321056365967,0.9517993330955505,0.3071524202823639,-0.8242322206497192,0.647550106048584,-0.9524332284927368,-0.4011499583721161,0.5779798626899719,-0.4029289186000824,-0.25945502519607544,-0.7686142921447754,-1.0958434343338013,-0.872505247592926,-1.29974365234375,-1.1483787298202515,0.02676151692867279,1.0497233867645264,0.1741565316915512,-0.210703507065773,0.6345106959342957,0.08594018965959549,-0.2537757456302643,-0.37216848134994507,-1.077418565750122,-0.81171715259552,-0.4541316032409668,-0.9657774567604065,0.15026812255382538,0.5582246780395508,0.17013047635555267,-0.5374801754951477,-0.6475626826286316,1.1161668300628662,0.15320944786071777,-0.4566398859024048,-0.10825784504413605,-0.6078174114227295,-0.23633192479610443,0.078202024102211,0.5273869633674622,0.4977349638938904,-0.6512141823768616,-0.4224027395248413,-1.2048286199569702,-1.3552441596984863,-1.208258032798767,-0.277447909116745,0.5329083800315857,-0.167453333735466,-0.2917898893356323,-0.08521124720573425,-0.4249667525291443,-0.9750221371650696,0.37680312991142273,0.7232397794723511,0.9545457363128662,0.2688775062561035,-0.968232274055481,0.08465254306793213,0.16442641615867615,-0.7593861222267151,0.5764352679252625,0.4258028566837311,-1.178390383720398,0.2154601514339447,-0.5508283972740173,0.1817472279071808,0.1481911838054657,-0.5040069222450256,-0.07769928127527237,-0.31536146998405457,-1.1943774223327637,0.08808042854070663,-0.6031173467636108,-0.1625288426876068,0.43924954533576965,0.4377638101577759,-0.3799523413181305,-0.26208755373954773,-1.3529212474822998,-0.2805376350879669,-0.40232622623443604,0.03184591978788376,-0.9442149996757507,0.503014087677002,0.6565829515457153,-0.79694664478302,0.6528580784797668,0.7787086367607117,-0.6742942929267883,-0.5507695078849792,-0.26563358306884766,0.8152401447296143,0.10412639379501343,-0.1389431655406952,0.18378683924674988,-0.14794953167438507,0.2606174051761627,-0.09841211140155792,-0.6588226556777954,-0.3525012731552124,0.43307048082351685,-0.25102168321609497,-0.7613239288330078,-1.0401815176010132,-0.25819894671440125,0.4466182291507721,-0.08970345556735992,0.6919733881950378,0.9331894516944885,-0.7878072261810303,-0.44285860657691956,-0.8084690570831299,-0.6595818996429443,-0.6425559520721436,-0.09100056439638138,-0.6737318634986877,0.43088576197624207,-0.1908722072839737,0.14506585896015167,0.9908526539802551,0.17643442749977112,0.45263001322746277,0.6935715675354004,0.619086742401123,-0.25783440470695496,-0.11259286105632782,0.20686130225658417,-0.502074658870697,-0.42444464564323425,-0.07874362170696259,0.11467444151639938,-0.08137960731983185,0.38585418462753296,1.0046414136886597,0.5392937660217285,-0.8503549695014954,0.07906171679496765,0.5380891561508179,0.7620181441307068,-0.6103223562240601,0.7561707496643066,-0.2633894681930542,0.4239715337753296,-0.2722831070423126,-0.07648922502994537,0.17048069834709167,0.9278030395507812,-0.8384535908699036,-0.5280583500862122,0.25375258922576904,-0.7306329011917114,-0.5881655216217041,0.3468005657196045,-0.106749027967453,0.15174974501132965,0.5577542185783386,-0.04807514324784279,0.5446752309799194,-0.4648188352584839,-0.28221821784973145,-0.3214782476425171,0.20343196392059326,0.9092360734939575,0.760326623916626,-0.38577109575271606,0.778842031955719,-0.6152900457382202,0.0064792633056640625,0.13300979137420654,0.867353081703186,-0.15364861488342285,-0.22437834739685059,0.03259478136897087,-0.8484649658203125,0.8920828104019165,-0.9548991918563843,0.5442236661911011,0.4720743000507355,-0.3327025771141052,0.9012696743011475,0.3458901345729828,0.29596036672592163,0.5694979429244995,-0.13118700683116913,-0.2668958902359009,0.7953267097473145,-0.0732666626572609,-0.43804916739463806,-0.6211549639701843,-0.3598884344100952,-0.8561356067657471,-0.4553728699684143,0.2867007255554199,-0.7405067682266235,0.965506911277771,-0.014995217323303223,0.8662726879119873,0.3979593515396118,0.35628819465637207,-0.28653883934020996,0.2384423017501831,-0.2817763090133667,-0.9241479635238647,-0.3324470520019531,0.04201173782348633,-0.8134149312973022,0.18801498413085938,0.12363564968109131,-0.5268757939338684,-0.7619131803512573,0.38368603587150574,-0.9874335527420044,0.7054848670959473,0.913011908531189,0.9399228096008301,-0.9370744228363037,-0.7140023708343506,0.03787875175476074,0.4479103088378906,0.041657090187072754,0.5927553176879883,-0.41164398193359375,0.4986886978149414,-0.4317060708999634,-0.9578632116317749,-0.6115485429763794,0.9083318710327148,-0.0020966529846191406,0.5913405418395996,0.9124534726142883,-0.20104371011257172,0.4672175347805023,-0.581153154373169,-0.9511967897415161,0.22096465528011322,-0.04681117832660675,0.6424189209938049,-0.9473592042922974,0.9248911738395691,0.16141153872013092,0.32421761751174927,-0.8909955620765686,0.9338728189468384,-0.789620041847229,-0.10748343169689178,-0.8578586578369141,0.5968915820121765,0.1569707691669464,0.8034329414367676,-0.9466795921325684,0.6749436855316162,0.8666014671325684,-0.22659838199615479,-0.4591406583786011,0.7367366552352905,0.6957125663757324,0.012730044312775135,-0.7139312028884888,0.04958002269268036,-0.27653297781944275,-0.08746672421693802,-0.9986905455589294,-0.9169226884841919,-0.3878752291202545,0.5443451404571533,0.8389057517051697,-0.5637725591659546,0.05933337286114693,-0.3991208076477051,0.4185076057910919,-0.13670116662979126,-0.37516865134239197,-0.9887922406196594,-1.1053149700164795,-0.3094292879104614,-0.49874743819236755,0.015638617798686028,-0.9702059626579285,-0.2811284065246582,0.07440304756164551,-0.982831597328186,0.36494481563568115,-0.6395226716995239,0.3021439015865326,-0.6970934867858887,-0.10638823360204697,-0.9747669696807861,-0.7508463859558105,0.4711931049823761,0.46983447670936584,0.42405638098716736,-0.6270469427108765,0.4125964641571045,0.18086086213588715,0.38390854001045227,0.195884570479393,1.1992378234863281,0.5472010374069214,0.05715874582529068,-0.9403690099716187,-0.5074496865272522,-1.2854822874069214,-0.25258147716522217,-1.091363549232483,0.025986716151237488,-0.46670427918434143,0.4756540358066559,-0.2713073492050171,0.841154932975769,0.08032002300024033,-0.31499195098876953,0.2253936380147934,0.385757714509964,0.3205965757369995,-0.5709519386291504,-0.35509106516838074,-0.2894299328327179,0.6997622847557068,-0.5181374549865723,0.6384708881378174,-0.4009077847003937,1.6625107526779175,0.8174110054969788,-0.28962603211402893,0.5772230625152588,0.6747623085975647,0.2704959511756897,0.4019494950771332,0.02239379659295082,-0.09450771659612656,0.2532549798488617,-0.9229733347892761,-0.5866424441337585,-0.15255381166934967,-0.679069995880127,-0.3994612991809845,0.3456287384033203,-0.020901918411254883,0.31092557311058044,-0.7612910866737366,0.4617652893066406,1.0328400135040283,0.03466898947954178,-0.4564921259880066,1.4174284934997559,-0.31796467304229736,-0.17357122898101807,0.046122174710035324,-0.35094502568244934,0.028225846588611603,-0.21190282702445984,1.1929001808166504,0.3891139626502991,0.5991687178611755,0.49362272024154663,0.7015135288238525,0.3667958974838257,-0.7938883900642395,-0.71358722448349,-1.013585090637207,-0.9443985223770142,0.4346678853034973,-0.5911163687705994,-0.0012577861780300736,0.8612998723983765,-0.08040964603424072,-0.10745644569396973,-0.3547056019306183,0.279596745967865,0.7193490862846375,0.27622437477111816,-0.6253796815872192,0.38544100522994995,-0.09560073167085648,-0.08286897838115692,-0.7151433229446411,-0.5092213153839111,-0.49590617418289185,0.3819921612739563,0.12313922494649887,1.9943311214447021,0.5432660579681396,1.6285935640335083,0.6272134780883789,0.19412705302238464,-0.06894442439079285,-0.6639877557754517,-0.9647851586341858,-1.5188990831375122,0.6359072327613831,-0.6029860973358154,-0.7148826122283936,-0.3241889476776123,-0.31331923604011536,0.1542547196149826,1.1259113550186157,0.25689297914505005,0.48575282096862793,0.8479803204536438,0.11592534929513931,-0.4101625978946686,0.24895401298999786,-0.05817082151770592,-1.215551495552063,-1.004109501838684,0.37770745158195496,0.23727115988731384,1.0597487688064575,0.9745627045631409,1.366347074508667,0.521699070930481,0.5331123471260071,0.44490814208984375,0.04448416829109192,-0.633855938911438,-0.40073081851005554,-1.5619337558746338,-1.1391925811767578,-0.13589920103549957,-0.452640175819397,0.5977781414985657,-0.2606247663497925,0.40424782037734985,-0.2571548819541931,1.0192261934280396,-0.05716396123170853,0.23120927810668945,0.03727082163095474,-0.19295914471149445,-1.3679492473602295,-0.30657830834388733,0.40401676297187805,-1.6794015169143677,-1.6630760431289673,-1.0363088846206665,2.3258771896362305,2.777864694595337,0.9268463253974915,1.7206038236618042,0.31926628947257996,-0.15083973109722137,-0.9037138819694519,0.04466814547777176,-2.109982490539551,-1.2459849119186401,-0.009590125642716885,0.8726961612701416,0.8179418444633484,0.7206646800041199,0.5126964449882507,0.680725634098053,-0.3138705790042877,0.6379626989364624,0.009257500991225243,0.2159244418144226,0.14007985591888428,-0.2677491009235382,0.010003354400396347,-1.105757236480713,-1.2507940530776978,-0.9543948173522949,-2.7378973960876465,-0.6581495404243469,1.6077598333358765,4.048694610595703,2.745001792907715,1.4543142318725586,0.7851438522338867,0.5102891325950623,-1.132928729057312,0.1822473257780075,-0.6372222304344177,-1.6402283906936646,-0.05382150411605835,0.40137457847595215,0.40494123101234436,0.9544966816902161,-0.478443443775177,-0.11462783813476562,0.003581402823328972,-0.21404069662094116,0.626725971698761,-0.29092785716056824,-0.6499318480491638,-0.8291959166526794,-0.4190142750740051,-0.33950793743133545,-0.7608232498168945,-2.154572010040283,-1.996535062789917,-2.7509849071502686,0.3329756557941437,1.9315451383590698,2.4107868671417236,1.4845637083053589,1.782307744026184,1.2049880027770996,-0.21892361342906952,-0.8062147498130798,-2.100917339324951,-1.5385488271713257,-1.1534886360168457,-0.23001819849014282,-0.539074182510376,-0.6540388464927673,0.19299055635929108,0.07992346584796906,0.9366924166679382,1.2466914653778076,-0.5798216462135315,-0.6258227229118347,-1.0512138605117798,-0.45053935050964355,0.6150978803634644,-0.7122856974601746,-0.6108414530754089,-1.1168394088745117,-1.9885578155517578,-1.8894145488739014,-0.9155907034873962,-0.037024080753326416,2.0785679817199707,2.0115108489990234,1.2727739810943604,2.1626734733581543,0.45392391085624695,0.846079409122467,-0.9648742079734802,-1.1413038969039917,-0.7149779200553894,-0.4976276755332947,0.4605454206466675,0.051536817103624344,0.7719660401344299,0.9921112060546875,0.7302619814872742,-0.0430438406765461,0.3576192259788513,0.2226428985595703,-0.33478954434394836,-1.0302002429962158,-0.5797826051712036,0.03256173059344292,-1.5109821557998657,-1.295399785041809,-1.1369389295578003,-0.6968040466308594,-0.8157064914703369,0.5984649062156677,0.4956810772418976,0.7570279836654663,0.8562398552894592,0.381025105714798,0.6528635025024414,0.10274302959442139,-0.08774766325950623,-0.361902117729187,-0.048118289560079575,-0.6496936678886414,-0.16671034693717957,-0.6028234958648682,0.6658209562301636,0.7218919396400452,-0.49233514070510864,0.4500138461589813,1.0322258472442627,-0.32692956924438477,-0.11692457646131516,-0.33302435278892517,-1.1441956758499146,-1.575333595275879,-1.303847312927246,-0.5321229100227356,-1.7104010581970215,0.23590748012065887,-0.9492098689079285,0.25562620162963867,-0.00026007002452388406,1.3159923553466797,0.7957426905632019,-0.29730716347694397,0.5513350963592529,-0.6754133701324463,-1.276922345161438,-0.4999251961708069,-0.9597069621086121,0.015814660117030144,0.39320534467697144,0.8226889371871948,0.06507360190153122,0.5059507489204407,0.3694498538970947,0.541433572769165,0.7519131898880005,-0.560024619102478,0.26013118028640747,1.3548495769500732,-0.6716856360435486,-0.32853808999061584,-0.8068748116493225,-0.6560966968536377,-0.25947508215904236,-0.9110802412033081,-0.04589186608791351,-0.5627206563949585,0.2141333520412445,0.854122519493103,1.2711303234100342,-0.34213149547576904,0.9601351022720337,-0.20980916917324066,0.4770016074180603,0.2142314314842224,-1.0879700183868408,0.3579733967781067,-0.9167163968086243,0.1810472309589386,0.27271169424057007,-0.46700602769851685,-0.6874641180038452,0.6996293067932129,1.0273373126983643,0.46453142166137695,0.712519645690918,-0.3512381911277771,-1.3151601552963257,-0.21924833953380585,-0.5689148902893066,-0.6713083982467651,-0.9887503981590271,-1.5104435682296753,0.22340361773967743,-0.11738931387662888,-0.027939753606915474,0.486372172832489,0.6037521958351135,1.4988088607788086,0.6594626903533936,-0.22010858356952667,-0.4149734377861023,0.5201452374458313,0.35440173745155334,0.37322500348091125,-0.8668616414070129,0.36557692289352417,-0.5901950597763062,-0.3005300462245941,0.003460200037807226,0.6447418332099915,0.061732254922389984,0.4895782172679901,-0.3755115866661072,-0.8858482241630554,1.2936887741088867,0.24998041987419128,-0.22841551899909973,-0.6682316660881042,-0.9576177597045898,-0.9214761853218079,-0.5285031795501709,-0.15527716279029846,0.4902109205722809,1.6481634378433228,0.6331228613853455,-0.06639713048934937,0.5594971776008606,-0.661001443862915,0.27007612586021423,-1.335972785949707,-0.20418551564216614,-0.6912893652915955,0.28695759177207947,0.5415855646133423,0.140842005610466,-0.6459798812866211,1.051249384880066,1.3084497451782227,-0.486416757106781,-1.4081995487213135,-0.6978848576545715,0.20914599299430847,-0.06296677887439728,-0.07136886566877365,-0.27111494541168213,-0.2750597298145294,-0.23486019670963287,-0.9805094003677368,-0.5811014175415039,0.8822907209396362,0.12069036066532135,-0.34419748187065125,-0.2202049344778061,-0.13451240956783295,0.041503824293613434,-1.1299018859863281,-1.3448693752288818,-1.2978132963180542,-0.3784874677658081,-0.743937611579895,-0.6405292749404907,0.019374316558241844,0.7577274441719055,0.27887967228889465,0.9786007404327393,1.313170313835144,-0.29284602403640747,-0.6248302459716797,-1.5250824689865112,0.2568165957927704,-0.9051812291145325,-0.18292155861854553,-0.027554946020245552,0.08194702118635178,-0.18786795437335968,-0.7582119107246399,-0.7827614545822144,0.8299926519393921,0.5883163213729858,0.7639535665512085,-0.6907806992530823,0.36489275097846985,-0.6461657881736755,-0.8022254109382629,-0.2921404540538788,-1.454969882965088,-0.7541534304618835,-0.07388831675052643,0.8043198585510254,0.25970005989074707,0.2184370458126068,-0.5609651207923889,0.6397026181221008,1.1614402532577515,0.9624889492988586,-1.0852580070495605,-0.5341349840164185,-1.3602403402328491,-0.9448155164718628,-0.004471780266612768,-0.2557799220085144,-0.004671548027545214,-0.2308567464351654,-0.11771926283836365,-0.5552785992622375,0.918832540512085,0.26155608892440796,0.2657848000526428,0.19662876427173615,-0.054260239005088806,-0.624370276927948,0.049836672842502594,0.13499420881271362,0.10681648552417755,-0.42133888602256775,-0.9540496468544006,-0.48951029777526855,-0.6680443286895752,-0.22845272719860077,0.13575533032417297,0.8381045460700989,1.4998219013214111,-0.3371036648750305,0.4747869670391083,0.15373554825782776,0.9722102284431458,-0.2386104166507721,0.8091407418251038,0.11032135784626007,0.4720011353492737,-1.2706527709960938,-0.31542083621025085,-0.932086169719696,1.2587155103683472,1.0122648477554321,-0.634312093257904,0.44693994522094727,1.431723713874817,0.1207018569111824,-0.13290545344352722,0.34651318192481995,0.9044472575187683,0.23446039855480194,-0.7102797031402588,-0.1802891492843628,0.30485105514526367,0.9363725185394287,0.07475300133228302,0.6418020129203796,-0.0715283453464508,0.6455700397491455,0.9616100788116455,0.28393077850341797,0.30287641286849976,0.37717753648757935,0.38189589977264404,-0.9472264647483826,0.2578798234462738,-1.0966300964355469,-0.17882269620895386,-0.22819116711616516,1.0485764741897583,0.3849841058254242,1.1839512586593628,0.15737760066986084,-0.35630494356155396,-0.1828918606042862,0.37880492210388184,-0.07864882797002792,0.6201714277267456,-0.6006949543952942,-0.12561951577663422,0.9405549168586731,-0.535224199295044,0.750006914138794,-0.5430870056152344,-0.5220282673835754,0.11394820362329483,0.09026123583316803,0.6246098279953003,0.14566096663475037,-0.6734431982040405,-0.4505353271961212,-0.6518857479095459,0.8674073219299316,-0.4225388765335083,-0.652093231678009,-0.6853381991386414,-0.31337210536003113,-0.3326342701911926,-0.20417971909046173,0.06567132472991943,0.2655681371688843,0.4647056460380554,0.46231183409690857,0.08408935368061066,-0.3391380310058594,0.5715516805648804,0.5880352258682251,-0.15121181309223175,0.2723159193992615,0.5131458044052124,-0.7760772705078125,0.2867559790611267,-0.8669379949569702,0.5793067216873169,0.07494799047708511,1.4423280954360962,1.714489221572876,-0.014641983434557915,-0.006981389597058296,0.5388950705528259,-0.23128531873226166,0.06302347779273987,-0.8316709399223328,-0.0820670872926712,-0.9427106380462646,-0.19270817935466766,0.2411876916885376,0.1918192356824875,-0.6333920955657959,-0.18522872030735016,-0.45731011033058167,0.13584233820438385,0.8458827137947083,-0.7044769525527954,0.3464542329311371,-0.951251745223999,0.4916006326675415,-0.21890509128570557,0.7926105260848999,0.09915699809789658,-0.10025319457054138,-0.18861766159534454,0.9997363686561584,0.49814578890800476,1.4034923315048218,-0.2463999092578888,0.8275139927864075,0.2311781644821167,-0.2054661363363266,-0.4668441414833069,0.1977442055940628,-1.06155526638031,-0.4665190279483795,-1.0905728340148926,0.1779891848564148,0.3710375130176544,0.123398058116436,-0.0769723653793335,-0.363885760307312,0.13397260010242462,0.6852457523345947,-0.12114983052015305,-0.3446854054927826,0.5511106848716736,-0.9075357913970947,0.9583156108856201,-0.9316977262496948,-0.38508278131484985,0.31282052397727966,-0.2769332826137543,0.5574500560760498,1.2393542528152466,1.1603825092315674,0.3329353332519531,1.5094796419143677,-0.28290194272994995,0.08819437026977539,0.47812405228614807,0.5077789425849915,-0.3588980734348297,-0.5901349782943726,-0.3724363148212433,-0.8291928768157959,0.5838249325752258,-0.19723473489284515,-0.5081362724304199,-0.05645634979009628,-0.1214640811085701,-0.8745363354682922,-0.9291347861289978,-0.40826964378356934,0.07622941583395004,0.7176195383071899,0.6772960424423218,-0.7301254272460938,-0.7949748039245605,-0.9768624901771545,0.3500799536705017,0.1726212054491043,1.0121431350708008,1.0525670051574707,-0.4395579397678375,0.5081278085708618,-0.057758547365665436,0.5640414953231812,0.3611592948436737,-0.3697754144668579,-0.4931228458881378,0.8162994980812073,0.5175984501838684,-0.4955940246582031,1.003485083580017,1.2121418714523315,-0.42673948407173157,-0.2171688973903656,0.6097262501716614,-0.7129223346710205,-0.7636311650276184,0.9744659662246704,0.06564044952392578,-0.2770400047302246,-0.5013397932052612,0.7439161539077759,-0.15840089321136475,0.411218523979187,-0.11834759265184402,0.23098580539226532,0.029524587094783783,-0.18538181483745575,0.06639362871646881,0.902830958366394,0.8537003397941589,-0.7869536280632019,1.0070085525512695,0.17924532294273376,-0.3562769591808319,0.8745347857475281,0.9762187004089355,-0.013046087697148323,0.9017318487167358,-0.2646096348762512,-0.7449284195899963,-0.49383285641670227,-0.5038418769836426,0.554265022277832,0.8353288173675537,-0.3622056245803833,-0.22209298610687256,-0.2188277244567871,0.542249321937561,0.46843039989471436,0.9456946849822998,-0.4111398458480835,-0.8790493011474609,-0.568505048751831,0.19654548168182373,0.231917142868042,0.37403881549835205,0.13642549514770508,-0.19703900814056396,0.9271230697631836,0.29816189408302307,0.35120540857315063,0.4057694673538208,-0.45068836212158203,-0.02835214138031006,0.23014557361602783,-0.5645339488983154,0.18852877616882324,-0.7275850772857666,0.920754075050354,0.41896533966064453,0.7443087100982666,0.36595845222473145,-0.3422747850418091,-0.19516432285308838,0.2428838014602661,0.9971238374710083,-0.21492516994476318,0.4164266586303711,-0.7919661998748779,0.02291429042816162,0.7685388326644897,-0.8415452241897583,0.3618924915790558,-0.012809569016098976,-0.3438681364059448,0.528737485408783,-0.24652765691280365,-0.28003376722335815,0.04479563608765602,0.81784987449646,0.12119445949792862,0.296335369348526,-0.33374232053756714,0.651099681854248,0.27135682106018066,-0.7124627232551575,-0.9887905120849609,0.3276252746582031,-0.0808812752366066,-0.8485358953475952,-0.7538608312606812,0.09177768230438232,-0.5983816385269165,-0.5748751163482666,0.6340898275375366,0.1499643325805664,-0.4191936254501343,-0.2448897659778595,-0.21337617933750153,0.16187499463558197,-0.6093228459358215,1.03166663646698,-0.4104161858558655,-0.2789044976234436,0.5271719098091125,0.9928426146507263,0.22924400866031647,0.10325206071138382,-0.6099687218666077,0.6125796437263489,0.40095630288124084,0.2764495313167572,0.3859243392944336,-0.7011434435844421,-0.6825042963027954,0.6989452242851257,-0.06526956707239151,-0.09224356710910797,-0.840933620929718,-0.12433040142059326,-0.973719596862793,0.12071943283081055,0.8436490297317505,0.1640365719795227,-0.277128666639328,-0.6053612232208252,-0.5815204381942749,-0.4523569941520691,0.5332981944084167,1.0075080394744873,0.29391708970069885,-0.5058462619781494,0.4323049783706665,0.19320784509181976,0.5160858035087585,1.4498236179351807,0.7618385553359985,0.8925129771232605,0.6308071613311768,0.35173386335372925,-1.1463649272918701,-0.7485786080360413,0.6940352916717529,-0.4330838918685913,-0.28270021080970764,0.5682916641235352,-0.8968783617019653,0.8320115208625793,-0.11110103130340576,-0.11592984199523926,-0.6389251947402954,-0.37759777903556824,0.7875214219093323,-0.22996361553668976,-0.8938473463058472,-0.7203370332717896,-0.2689170837402344,1.0193448066711426,1.4433619976043701,0.277556449174881,1.5365232229232788,1.1700851917266846,1.026486873626709,0.32944175601005554,-0.06492987275123596,1.197825312614441,-0.05717335641384125,0.22630035877227783,1.0109426975250244,-0.04147299751639366,-1.3871290683746338,-0.7532487511634827,-1.0630393028259277,0.5440218448638916,0.9476573467254639,0.37070348858833313,-0.9376780986785889,0.799349308013916,0.27105629444122314,0.5454084277153015,-0.5569697022438049,0.24971267580986023,0.510840892791748,0.5468155741691589,-0.5964512825012207,0.7834054827690125,0.6809373497962952,0.412320613861084,0.7655301690101624,0.29949045181274414,0.6541842818260193,-0.17532704770565033,0.18419159948825836,0.20043855905532837,0.9657423496246338,0.00048182462342083454,-0.3886373043060303,-0.6416425704956055,-0.03655410185456276,-1.5180829763412476,-0.23488321900367737,-1.2444645166397095,0.3692372143268585,0.8644875288009644,0.07344722002744675,-0.9907480478286743,0.16598856449127197,0.1035526767373085,-0.038442350924015045,0.48921412229537964,0.5724257230758667,-0.2724253535270691,0.2384212613105774,1.1513068675994873,1.2768449783325195,1.2070797681808472,1.5590773820877075,0.1529504358768463,1.0952283143997192,0.2730965316295624,0.04098047316074371,0.7470387816429138,0.4128759205341339,-0.14153213798999786,-0.00031665395363233984,0.19365161657333374,-0.8089486360549927,-1.244503378868103,-1.0434598922729492,-1.0404870510101318,0.8302397131919861,0.31378892064094543,-0.8246509432792664,-0.6731215715408325,-0.0987304151058197,-0.7622620463371277,0.5536215901374817,0.8440611362457275,-0.2960212826728821,0.3346482813358307,1.1188989877700806,0.12940847873687744,1.26503324508667,1.2941068410873413,1.0843756198883057,0.9309656620025635,2.006965160369873,-0.40665024518966675,0.12852324545383453,1.2085347175598145,0.042221758514642715,-0.28162723779678345,-0.24615201354026794,-0.31095951795578003,-0.13562631607055664,0.5957221388816833,0.5419216156005859,0.5062330961227417,-0.2693935036659241,-0.5843448638916016,-0.15541820228099823,0.8163005709648132,-0.3588012158870697,-0.9686936736106873,-0.19753021001815796,0.08935464173555374,-0.11258825659751892,0.48072269558906555,-0.6817339062690735,0.22585178911685944,1.6254749298095703,0.6579253077507019,0.8422751426696777,2.1684370040893555,0.23376111686229706,0.8148406147956848,0.6046487092971802,-0.082072414457798,0.3900204598903656,-0.3673686385154724,0.4425114095211029,0.3076464831829071,0.05260809510946274,0.9439026713371277,0.3752073645591736,1.570007085800171,-0.449258029460907,-0.7712436318397522,0.20890459418296814,-0.9067992568016052,-0.016182759776711464,-0.6324880719184875,-0.2808239161968231,-0.6634552478790283,0.9734536409378052,0.9228293895721436,-0.11028465628623962,-0.3021829128265381,0.9710328578948975,0.7701926827430725,1.869533658027649,1.1203604936599731,0.5644997954368591,0.9206112623214722,-1.1099679470062256,-0.9604707360267639,-0.13350972533226013,0.43949490785598755,0.3470888137817383,0.6381609439849854,0.6185815334320068,1.1424180269241333,1.666163682937622,1.2385581731796265,0.7636593580245972,-0.5855333805084229,-0.09544066339731216,-0.6170907020568848,0.35185837745666504,-0.795148491859436,-0.19956207275390625,-0.17984288930892944,0.6363072991371155,0.5273025035858154,-0.17620974779129028,-0.17763085663318634,0.9892247915267944,1.199096918106079,2.3948488235473633,0.6735841631889343,-0.28986552357673645,-0.27968430519104004,-0.907900869846344,-0.5740476846694946,-0.526613175868988,0.5580623149871826,-0.4803059697151184,0.7165635824203491,1.100409984588623,0.367441862821579,1.1131339073181152,1.003466248512268,0.34640392661094666,0.5360671877861023,0.3590068221092224,-0.36642158031463623,-0.2902696430683136,0.7646458745002747,-0.20628109574317932,0.1691645085811615,0.014946957118809223,0.9426642656326294,0.756733775138855,-0.1370057314634323,0.5708548426628113,1.2275631427764893,1.606489896774292,0.2662564218044281,-0.0013416636502370238,-1.242723822593689,-0.9241021871566772,-0.04252361133694649,1.1228617429733276,0.26752719283103943,0.6932125091552734,1.3744003772735596,0.698131799697876,1.0768159627914429,0.11151739954948425,0.5100564956665039,0.3524591624736786,-0.8080602288246155,-0.05992891639471054,0.902310848236084,-0.27055221796035767,0.9320167303085327,0.6993216276168823,-0.3399110734462738,0.0020956930238753557,0.6581841707229614,0.14848929643630981,0.2934364974498749,1.076033353805542,0.8625492453575134,0.9503255486488342,-1.3645778894424438,-0.8383672833442688,-0.9032750725746155,-0.8875628113746643,0.42347463965415955,-0.7609299421310425,0.4919683039188385,0.9785673022270203,1.075096607208252,-0.614701509475708,0.7851198315620422,0.3284796476364136,-0.07442651689052582,-0.16212202608585358,0.2009657770395279,0.06983256340026855,0.28749164938926697,-0.8575938940048218,0.951038658618927,0.3235040605068207,0.13411368429660797,0.9473274350166321,-0.07262308895587921,-0.23984453082084656,1.281823754310608,0.5059894919395447,0.9555649757385254,0.28526222705841064,-1.0927549600601196,0.04993896186351776,-1.174677848815918,0.08950695395469666,0.062033891677856445,0.0010792054235935211,-0.42384594678878784,1.0239046812057495,0.09050243347883224,0.3738096058368683,0.7885811924934387,1.3009915351867676,0.26707547903060913,0.45514577627182007,1.0383087396621704,-0.1599767804145813,-0.37601184844970703,-0.6617189049720764,0.36545929312705994,0.1982508897781372,0.6426515579223633,-0.2174452841281891,0.8856196999549866,-0.7777993083000183,0.3405148386955261,-0.7365307807922363,-0.23118682205677032,0.9470686316490173,-0.7310248017311096,0.35227179527282715,0.033738184720277786,1.0868303775787354,-1.1409682035446167,-0.5410864353179932,0.26891329884529114,-0.1889639049768448,-0.1890820562839508,1.4371281862258911,-0.13577112555503845,0.8775836825370789,0.1686866283416748,-0.00234794314019382,0.16903440654277802,-0.7841038703918457,-0.9668810367584229,0.3446952998638153,-0.48955586552619934,0.7114331722259521,-0.6004197001457214,0.32532280683517456,0.9047448039054871,0.068390391767025,-0.4542681574821472,0.28011706471443176,-0.14251478016376495,-0.32630643248558044,0.16408120095729828,-1.0273405313491821,-0.3466376066207886,-0.30731791257858276,-0.5784454941749573,0.1280478686094284,0.5128782391548157,0.6069495677947998,0.5238120555877686,0.842311680316925,0.10935081541538239,-0.2972920536994934,-0.17486992478370667,0.8288759589195251,0.8245795369148254,0.5113950967788696,-0.546311616897583,0.09031558781862259,-0.9547872543334961,-0.7059361338615417,0.9283701777458191,0.982523500919342,0.39154887199401855,0.7653791904449463,-0.4057122468948364,-0.22019058465957642,0.33701077103614807,-0.294328510761261,-0.8280153870582581,-1.2358109951019287,1.117988109588623,0.4689181447029114,-0.7448586225509644,-0.5514158606529236,0.02378590777516365,0.667310893535614,0.817066490650177,-0.43614479899406433,0.3190730810165405,-0.029883310198783875,0.8018857836723328,-0.40561655163764954,0.03032647632062435,-0.35582563281059265,0.18414151668548584,0.9073953628540039,0.5046224594116211,-0.7583401203155518,0.7749201059341431,0.7714383006095886,1.3463807106018066,1.088962197303772,0.2730807960033417,-0.38950836658477783,-0.6845154166221619,-0.8048192262649536,-0.374329149723053,-1.505510926246643,-0.6032494306564331,0.5576273202896118,0.21926406025886536,-0.19134192168712616,0.34182336926460266,-0.8775075674057007,-0.5283136963844299,0.27149438858032227,1.1069731712341309,-0.03091641515493393,0.9703864455223083,-0.2296588271856308,0.24978579580783844,-0.8252160549163818,-0.9616800546646118,0.3309164047241211,0.4204820692539215,0.33693820238113403,-0.5286734700202942,-0.18597853183746338,0.6784058213233948,-0.39197543263435364,-0.3036207854747772,0.33900517225265503,-0.4923127591609955,1.1438872814178467,-1.1359747648239136,-1.3810356855392456,0.3740955889225006,0.30955150723457336,0.7207591533660889,-0.4368860125541687,-0.8485977649688721,0.6981840133666992,0.8006925582885742,-0.6291172504425049,0.7907332181930542,1.1355938911437988,0.16677311062812805,-0.33140477538108826,0.15969491004943848,-0.7248167395591736,0.18971890211105347,0.05475812405347824,-0.22978071868419647,-0.4114876389503479,-0.7246840000152588,1.1566592454910278,0.32316160202026367,0.8598036170005798,-0.42039060592651367,0.6834816932678223,0.28137364983558655,0.0022363620810210705,0.055678851902484894,-0.4039193391799927,-0.7063031792640686,0.8639673590660095,0.9780519008636475,0.7806962132453918,-0.3878231942653656,0.3691372871398926,1.3248639106750488,0.04390082135796547,0.4113706946372986,0.570813000202179,-1.0179500579833984,-0.2160605639219284,0.18828123807907104,-0.009359050542116165,-0.8571749925613403,-0.7841355204582214,0.5598194003105164,-0.5422499775886536,0.38243725895881653,-0.8411611914634705,0.5386598110198975,0.06851661205291748,0.405473530292511,0.4848911166191101,0.0034366268664598465,-0.021508436650037766,-0.8846666812896729,0.43394309282302856,0.46410825848579407,-0.3656562566757202,0.5516675710678101,0.13172881305217743,0.194275364279747,-0.24256731569766998,0.3194892108440399,1.128733515739441,0.24774856865406036,0.6552077531814575,-0.4476821720600128,-0.9925918579101562,0.010577819310128689,0.1939053237438202,0.5987321734428406,0.4911072850227356,0.35980653762817383,-0.032575879245996475,-0.35675862431526184,0.07848214358091354,0.4382784366607666,0.5974438786506653,-0.2812943756580353,0.6100755333900452,-0.2217593789100647,1.1930571794509888,0.266319215297699,0.5739431977272034,-0.4888586699962616,0.5524196624755859,-0.42218977212905884,1.1417759656906128,1.047527551651001,-0.14954398572444916,0.5836412906646729,-0.01962454803287983,0.5559623837471008,0.7268210053443909,-0.5602445602416992,-0.3309799134731293,0.6373865604400635,0.45447516441345215,-0.3175460696220398,-0.46668922901153564,-0.3551734685897827,0.7507190704345703,-0.8147603869438171,-0.4900592267513275,-1.4805922508239746,0.08620608597993851,0.8599260449409485,0.23191677033901215,-0.0049681817181408405,1.2949163913726807,0.24638254940509796,0.7370815873146057,-0.050080329179763794,1.4336825609207153,-0.049345456063747406,1.1599361896514893,0.4279264509677887,0.5260366797447205,0.29314789175987244,0.21629291772842407,0.09163488447666168,-0.470682293176651,0.028318502008914948,-0.9507004618644714,0.08229813724756241,-0.5885931253433228,-0.5151931047439575,0.8058943748474121,-0.32966092228889465,-0.6013174057006836,0.7066891193389893,-0.6457660794258118,0.04011930897831917,-1.1487685441970825,0.8988737463951111,0.13405586779117584,-0.2576117217540741,0.9627915024757385,0.2764098048210144,-0.20319746434688568,0.6025407910346985,-0.07998683303594589,-0.8823642730712891,-0.07459012418985367,-0.1361377239227295,-0.10454194247722626,1.0545430183410645,-0.7559663653373718,-0.7166224122047424,0.1438508927822113,-0.7098399996757507,0.47036024928092957,-0.22279217839241028,-0.43758201599121094,-0.45751845836639404,0.9302644729614258,0.29117047786712646,0.7822750806808472,0.49663230776786804,0.41286027431488037,-0.7386341691017151,0.06434235721826553,0.896453320980072,0.09037870168685913,1.1387585401535034,-0.3023209571838379,1.0819954872131348,0.09923425316810608,0.7671071887016296,0.04963212087750435,0.4489246904850006,-0.2034735530614853,0.23615138232707977,0.9491520524024963,0.29290616512298584,-0.17946220934391022,0.1534666270017624,-0.5024388432502747,-0.9912636876106262,0.64096599817276,-0.8188515305519104,-0.024579524993896484,-0.9894323348999023,0.3815549612045288,-0.883713960647583,0.6869547963142395,0.6923362016677856,-0.9340001940727234,0.9683161377906799,0.8752414584159851,0.3185393512248993,-0.9282318353652954,1.2565335035324097,1.3005375862121582,0.7120310664176941,0.9398436546325684,0.28520476818084717,0.34890326857566833,-0.3417493402957916,0.28689882159233093,0.803759753704071,-0.07221189141273499,-0.08873765170574188,0.6622501015663147,0.946172297000885,-0.8196777701377869,-0.8106681704521179,0.4082473814487457,0.5733147859573364,-0.7852993011474609,-0.7712703943252563,0.24174034595489502,0.9109137058258057,0.3724380135536194,0.17716673016548157,-0.8539387583732605,0.5577351450920105,-0.9629149436950684,0.2841685712337494,-0.30856558680534363,0.4015413224697113,0.8283422589302063,0.1524122655391693,-0.2962592840194702,0.5724809169769287,-0.4029325842857361,-0.7873470783233643,0.17020411789417267,0.32385513186454773,-0.7617067098617554,0.605564296245575,0.812675416469574,-0.3189786374568939,-0.3546137511730194,0.45605039596557617,0.409936785697937,0.799854040145874,0.29101550579071045,0.697867751121521,-0.15565705299377441,-0.5989028215408325,-0.8217813968658447,-0.41257813572883606,-0.4078398048877716,-0.5616405010223389,-0.7152085304260254,0.9178599715232849,0.03823162987828255,-0.0477977879345417,0.6410965919494629,-0.9376441836357117,0.8722692728042603,-0.049994152039289474,-0.8696402311325073,-0.28593844175338745,-0.8083661794662476,0.4948867857456207,0.6890143752098083,0.540080726146698,-0.7359369397163391,0.5354122519493103,-0.23187586665153503,-0.9585100412368774,-0.6742429733276367,-0.6349953413009644,-0.719291090965271,-0.5970304012298584,-0.40812838077545166,-0.13691282272338867,0.9764893054962158,0.8652629852294922,0.8177181482315063,-0.6742130517959595,0.30122971534729004,-0.4346137046813965,0.9507831335067749,0.012225151062011719,-0.5983028411865234,0.5237315893173218,0.907383382320404,0.42661547660827637,-0.08118662238121033,-0.9647634029388428,0.07111120223999023,-0.13707637786865234,-0.04727590084075928,-0.517174243927002,0.04055798053741455,-0.6771296262741089,-0.2709968090057373,0.9731024503707886,-0.2407691478729248,-0.4329531192779541,-0.9305282831192017,-0.7902634143829346,0.8298674821853638,0.45002830028533936,0.5675036907196045,-0.9776396155357361,-0.3042525351047516,-0.20021912455558777,0.3065129518508911,-0.28944888710975647,-0.9292728304862976,0.7422674298286438,0.26099687814712524,0.10309833288192749,-0.09056893736124039,0.47972121834754944,0.36868196725845337,1.0573034286499023,0.9845757484436035,0.8150484561920166,0.09092291444540024,-0.3154221475124359,0.8205928206443787,-0.17579390108585358,-0.9251036047935486,-0.9368791580200195,-0.2056562900543213,-0.6212960481643677,-0.02183055877685547,0.8100544214248657,-0.11425244808197021,-0.09212525933980942,-0.4405992031097412,0.2301551252603531,0.626744270324707,0.22364920377731323,1.0791445970535278,0.018674103543162346,0.4608428478240967,0.7194807529449463,-0.003214515745639801,1.523571491241455,0.517545223236084,0.9555569887161255,1.2962093353271484,0.9629326462745667,-0.10604441165924072,1.1409274339675903,0.16394276916980743,0.23111861944198608,0.9272356033325195,0.8316010236740112,1.047590732574463,-0.7671077251434326,0.24794702231884003,-0.21051645278930664,0.8128809928894043,0.0009157657623291016,0.7011033296585083,-0.45576635003089905,-0.11009098589420319,0.5992485880851746,0.14992471039295197,-0.2937496602535248,0.8992765545845032,-0.3440643548965454,1.3577728271484375,1.759002685546875,-0.1638268232345581,1.5214201211929321,2.17323899269104,1.1487058401107788,0.8510617613792419,0.7285142540931702,0.3693253695964813,0.7712939977645874,-1.0590999126434326,-0.45351824164390564,-0.40659311413764954,-0.19640523195266724,-0.08427120745182037,-0.6362082958221436,-0.7108965516090393,-0.02090052329003811,-0.495603084564209,0.6791296005249023,-0.738723874092102,-0.2342718541622162,0.7489445805549622,0.6508856415748596,0.9678674936294556,-0.5314628481864929,0.7440066933631897,0.1887771189212799,1.1014986038208008,0.37225183844566345,1.5787135362625122,0.8154797554016113,0.5961164236068726,1.720089077949524,1.4950196743011475,0.8036466240882874,0.8273506164550781,-0.8456578254699707,0.06431751698255539,0.3145848214626312,-0.37356624007225037,-1.012017846107483,0.4181280732154846,0.7968442440032959,-0.14082708954811096,0.36928173899650574,0.8597508072853088,0.8117789030075073,0.261763334274292,-0.006168181076645851,0.933904230594635,-0.5810322165489197,0.5609070658683777,1.1563917398452759,0.4849274754524231,0.7100805044174194,0.16942325234413147,0.9131701588630676,0.02425592578947544,0.990162193775177,1.9423885345458984,0.709697961807251,0.9388092160224915,1.4337326288223267,2.0498769283294678,0.6868979930877686,1.013509750366211,0.38857775926589966,-0.6350963115692139,0.11245520412921906,-0.8555848598480225,0.29211196303367615,0.5038895606994629,-0.3636205494403839,-0.21148084104061127,-0.083199143409729,-0.1053580716252327,-0.6857228875160217,-0.4951002895832062,-0.7281699776649475,-0.43722692131996155,0.27348989248275757,1.5161359310150146,1.1345515251159668,0.20093882083892822,-0.18100564181804657,0.0231216661632061,-0.14323046803474426,0.5568661093711853,-0.9234175086021423,0.37134647369384766,0.940483808517456,-0.393924355506897,0.9952200651168823,-0.456255167722702,0.4503997266292572,-0.29637351632118225,0.19684112071990967,0.6584921479225159,-0.9845155477523804,0.2782305181026459,-0.2974737882614136,-0.5637786984443665,0.9521037340164185,0.42461055517196655,-0.08728094398975372,-0.26865625381469727,-0.6166825294494629,0.06483791023492813,0.873989462852478,1.1097275018692017,-0.939547061920166,-0.8379150032997131,-0.7007429599761963,-0.3985637426376343,-0.9269371032714844,-0.8785640597343445,-0.09619464725255966,-0.23387709259986877,0.036115214228630066,-0.7809737324714661,0.1865226924419403,-0.8511931300163269,-0.29560503363609314,-0.24885819852352142,-0.4207989275455475,0.7152329087257385,-0.825593888759613,-0.1222265362739563,-0.8973815441131592,0.6092911958694458,-0.5190721750259399,0.20014959573745728,-0.5646058320999146,0.8113164901733398,-0.5883035063743591,0.11618521064519882,0.6522674560546875,-0.48366737365722656,-1.3301377296447754,-0.6509076952934265,-0.4132399260997772,0.14096491038799286,0.1682572215795517,-1.1267602443695068,-0.4293213486671448,-1.1278660297393799,-1.4618357419967651,-0.9901308417320251,0.3606489300727844,-0.764031171798706,-0.3007383942604065,0.31380075216293335,-0.8811192512512207,-0.5714861154556274,-1.0630978345870972,-0.5588357448577881,-0.4152187705039978,-0.5306738018989563,-0.4051505923271179,0.9623509645462036,-0.5057980418205261,-0.17770792543888092,-1.3269462585449219,0.09339619427919388,-0.6063132286071777,0.8118945956230164,0.4681718647480011,-0.05774989351630211,-0.33875876665115356,0.13063515722751617,-0.7528561353683472,-0.2826571464538574,0.05721714347600937,-0.3060857653617859,-0.9726457595825195,-1.5907458066940308,-1.155761480331421,-0.9760946035385132,0.6794590950012207,-0.585462749004364,0.47233664989471436,-0.007382469717413187,-0.5475311875343323,-1.1695919036865234,0.2217535376548767,0.9209879636764526,0.09463264793157578,0.3347582519054413,-0.47986316680908203,0.6789713501930237,-0.36725112795829773,-0.2844570279121399,-0.11576604843139648,-0.02861643023788929,-1.1077700853347778,-0.6660869121551514,-0.17680959403514862,0.07535306364297867,-0.02414638176560402,0.18020321428775787,1.5126196146011353,0.052790187299251556,0.016185419633984566,-1.0132372379302979,0.20176878571510315,-0.1523318886756897,-0.2068796455860138,-0.5429067611694336,0.5261513590812683,1.036873459815979,-0.06698057800531387,-0.10089979320764542,0.004491440951824188,0.7615987658500671,0.3596843481063843,-0.29874417185783386,-0.4080858528614044,0.7236067056655884,-0.7910134792327881,-0.5847817659378052,-0.18643642961978912,0.5425666570663452,0.4116969704627991,-0.09629688411951065,-0.42668619751930237,-0.3695920705795288,-0.7370344996452332,-0.05426624417304993,1.4352428913116455,-1.718705654144287,-1.2740718126296997,-0.3533164858818054,-0.8617098331451416,