{"layers":[{"biases":{"cols":1,"data":[0.5287033915519714,2.5911355018615723,-0.6936182379722595,-0.2319655865430832,0.39485737681388855,-0.8426978588104248,0.9245261549949646,4.654636859893799,-0.3820900619029999,1.4724206924438477],"rows":10},"input":{"cols":1,"data":[0.0,0.0,0.0,0.0,0.0,0.0,0.0,0.0,0.0,0.0,0.0,0.0,0.0,0.0,0.0,0.0,0.0,0.0,0.0,0.0,0.0,0.0,0.0,0.0,0.0,0.0,0.0,0.0,0.0,0.0,0.0,0.0,0.0,0.0,0.0,0.0,0.0,0.0,0.0,0.0,0.0,0.0,0.0,0.0,0.0,0.0,0.0,0.0,0.0,0.0,0.0,0.0,0.0,0.0,0.0,0.0,0.0,0.0,0.0,0.0,0.0,0.0,0.0,0.0,0.0,0.0,0.0,0.0,0.0,0.0,0.0,0.0,0.0,0.0,0.0,0.0,0.0,0.0,0.0,0.0,0.0,0.0,0.0,0.0,0.0,0.0,0.0,0.0,0.0,0.0,0.0,0.0,0.0,0.0,0.0,0.0,0.0,0.0,0.0,0.0,0.0,0.0,0.0,0.0,0.0,0.0,0.0,0.0,0.0,0.0,0.0,0.0,0.0,0.0,0.0,0.0,0.0,0.0,0.0,0.0,0.0,0.0,0.0,0.0,0.0,0.0,0.0,0.0,0.0,0.0,0.0,0.0,0.0,0.0,0.0,0.0,0.0,0.0,0.0,0.0,0.0,0.0,0.0,0.0,0.0,0.0,0.0,0.0,0.0,0.0,0.0,0.0,0.0,0.0,0.0,0.0,0.0,0.0,0.0,0.0,0.0,0.0,0.0,0.0,0.0,0.0,0.0,0.0,0.0,0.0,0.0,0.0,0.0,0.0,0.0,0.0,0.0,0.0,0.0,0.0,0.0,0.0,0.0,0.0,0.14901961386203766,0.1882352977991104,0.1882352977991104,0.08627451211214066,0.0,0.0,0.0,0.0,0.0,0.0,0.0,0.0,0.0,0.0,0.0,0.0,0.0,0.0,0.0,0.0,0.0,0.0,0.0,0.0,0.0,0.24313725531101227,0.3803921639919281,0.7764706015586853,0.9529411792755127,0.9960784316062927,0.9960784316062927,0.8313725590705872,0.10588235408067703,0.0,0.0,0.0,0.0,0.0,0.0,0.0,0.0,0.0,0.0,0.0,0.0,0.0,0.0,0.0,0.0,0.0,0.0,0.0,0.26274511218070984,0.6745098233222961,0.9960784316062927,0.9960784316062927,0.8823529481887817,0.8549019694328308,0.8549019694328308,0.929411768913269,0.9725490212440491,0.1568627506494522,0.0,0.08235294371843338,0.6431372761726379,0.7333333492279053,0.0,0.0,0.0,0.0,0.0,0.0,0.0,0.0,0.0,0.0,0.0,0.0,0.0,0.3490196168422699,0.8588235378265381,0.9960784316062927,0.3803921639919281,0.26274511218070984,0.054901961237192154,0.0,0.0,0.3607843220233917,0.9058823585510254,0.47843137383461,0.09019608050584793,0.7960784435272217,0.9254902005195618,0.23137255012989044,0.0,0.0,0.0,0.0,0.0,0.0,0.0,0.0,0.0,0.0,0.0,0.0,0.09803921729326248,0.8509804010391235,0.9490196108818054,0.3607843220233917,0.01568627543747425,0.0,0.0,0.0,0.0,0.01568627543747425,0.5764706134796143,0.9921568632125854,0.9411764740943909,0.9098039269447327,0.3607843220233917,0.0,0.0,0.0,0.0,0.0,0.0,0.0,0.0,0.0,0.0,0.0,0.0,0.0,0.3960784375667572,1.0,0.3607843220233917,0.0,0.0,0.0,0.0,0.0,0.0,0.4117647111415863,0.9960784316062927,0.9960784316062927,0.6941176652908325,0.04313725605607033,0.0,0.0,0.0,0.0,0.0,0.0,0.0,0.0,0.0,0.0,0.0,0.0,0.0,0.0,0.6549019813537598,0.95686274766922,0.16078431904315948,0.0,0.0,0.0,0.027450980618596077,0.2980392277240753,0.7803921699523926,0.9333333373069763,0.9372549057006836,0.3686274588108063,0.03921568766236305,0.0,0.0,0.0,0.0,0.0,0.0,0.0,0.0,0.0,0.0,0.0,0.0,0.0,0.0,0.0,0.7529411911964417,0.4745098054409027,0.0,0.0,0.007843137718737125,0.24705882370471954,0.7058823704719543,0.9960784316062927,0.9137254953384399,0.4941176474094391,0.0,0.0,0.0,0.0,0.0,0.0,0.0,0.0,0.0,0.0,0.0,0.0,0.0,0.0,0.0,0.0,0.0,0.0,0.7450980544090271,0.7686274647712708,0.054901961237192154,0.007843137718737125,0.3803921639919281,0.9960784316062927,0.9882352948188782,0.572549045085907,0.20392157137393951,0.0,0.0,0.0,0.0,0.0,0.0,0.0,0.0,0.0,0.0,0.0,0.0,0.0,0.0,0.0,0.0,0.0,0.0,0.0,0.5098039507865906,0.8823529481887817,0.27843138575553894,0.7058823704719543,0.9098039269447327,0.7098039388656616,0.23529411852359772,0.0,0.0,0.0,0.0,0.0,0.0,0.0,0.0,0.0,0.0,0.0,0.0,0.0,0.0,0.0,0.0,0.0,0.0,0.0,0.0,0.0,0.5098039507865906,0.9960784316062927,0.9960784316062927,0.9019607901573181,0.18039216101169586,0.0,0.0,0.0,0.0,0.0,0.0,0.0,0.0,0.0,0.0,0.0,0.0,0.0,0.0,0.0,0.0,0.0,0.0,0.0,0.0,0.0,0.0235294122248888,0.3019607961177826,0.95686274766922,0.9960784316062927,0.6352941393852234,0.01568627543747425,0.0,0.0,0.0,0.0,0.0,0.0,0.0,0.0,0.0,0.0,0.0,0.0,0.0,0.0,0.0,0.0,0.0,0.0,0.0,0.0,0.0,0.0,0.4313725531101227,0.9960784316062927,0.8549019694328308,0.9960784316062927,0.45490196347236633,0.0,0.0,0.0,0.0,0.0,0.0,0.0,0.0,0.0,0.0,0.0,0.0,0.0,0.0,0.0,0.0,0.0,0.0,0.0,0.0,0.0,0.0,0.5137255191802979,0.9960784316062927,0.6039215922355652,0.10980392247438431,0.8352941274642944,0.33725491166114807,0.0,0.0,0.0,0.0,0.0,0.0,0.0,0.0,0.0,0.0,0.0,0.0,0.0,0.0,0.0,0.0,0.0,0.0,0.0,0.0,0.0,0.25882354378700256,0.8196078538894653,0.6000000238418579,0.07450980693101883,0.07450980693101883,0.9137254953384399,0.23529411852359772,0.0,0.0,0.0,0.0,0.0,0.0,0.0,0.0,0.0,0.0,0.0,0.0,0.0,0.0,0.0,0.0,0.0,0.0,0.0,0.0,0.0,0.5568627715110779,0.9960784316062927,0.6470588445663452,0.0,0.054901961237192154,0.8470588326454163,0.6549019813537598,0.0,0.0,0.0,0.0,0.0,0.0,0.0,0.0,0.0,0.0,0.0,0.0,0.0,0.0,0.0,0.0,0.0,0.0,0.0,0.0,0.0,0.3529411852359772,0.9960784316062927,0.686274528503418,0.0,0.07058823853731155,0.8980392217636108,0.3607843220233917,0.0,0.0,0.0,0.0,0.0,0.0,0.0,0.0,0.0,0.0,0.0,0.0,0.0,0.0,0.0,0.0,0.0,0.0,0.0,0.0,0.0,0.10196078568696976,0.8980392217636108,0.9764705896377563,0.6901960968971252,0.8705882430076599,0.95686274766922,0.1725490242242813,0.0,0.0,0.0,0.0,0.0,0.0,0.0,0.0,0.0,0.0,0.0,0.0,0.0,0.0,0.0,0.0,0.0,0.0,0.0,0.0,0.0,0.0,0.2862745225429535,0.7568627595901489,0.772549033164978,0.5254902243614197,0.0,0.0,0.0,0.0,0.0,0.0,0.0,0.0,0.0,0.0,0.0,0.0,0.0,0.0,0.0,0.0,0.0,0.0,0.0,0.0,0.0,0.0,0.0,0.0,0.0,0.0,0.0,0.0,0.0,0.0,0.0,0.0,0.0,0.0,0.0,0.0,0.0,0.0,0.0,0.0,0.0,0.0,0.0,0.0,0.0,0.0,0.0,0.0,0.0,0.0,0.0,0.0,0.0,0.0,0.0,0.0,0.0,0.0,0.0,0.0,0.0,0.0,0.0,0.0,0.0,0.0,0.0,0.0,0.0,0.0,0.0,0.0,0.0,0.0,0.0,0.0,0.0,0.0,0.0,0.0,0.0,0.0,0.0,0.0,0.0,0.0,0.0,0.0,0.0,0.0,0.0,0.0,0.0,0.0,0.0,0.0,0.0,0.0,0.0,0.0,0.0],"rows":784},"inputs":784,"output":{"cols":1,"data":[0.9999902248382568,0.01779892109334469,6.009495336911641e-7,0.9999998807907104,0.000025217419533873908,0.9999927282333374,0.005241996608674526,0.01629839651286602,1.0,0.009428859688341618],"rows":10},"outputs":10,"weights":{"cols":784,"data":[0.582331657409668,-0.10778892040252686,-0.2254241704940796,-0.6146396398544312,0.7577757835388184,-0.24027609825134277,-0.9122060537338257,-0.36097288131713867,-0.056470274925231934,-0.5800384283065796,0.6502469778060913,-0.458742618560791,-0.6946691274642944,0.7290829420089722,0.40900126099586487,0.710706353187561,0.3977241516113281,-0.014549612998962402,0.5239030122756958,-0.6511615514755249,0.06347286701202393,-0.30120062828063965,-0.001898646354675293,0.7848831415176392,-0.9752131700515747,0.8151558637619019,0.11156392097473145,0.8314299583435059,-0.5598055124282837,0.46203160285949707,-0.3171001672744751,-0.4885209798812866,-0.5938501358032227,0.8628506064414978,-0.22203154861927032,-0.6075292825698853,0.473800927400589,0.13074754178524017,0.20525555312633514,-0.22764945030212402,0.6340226531028748,-0.5724417567253113,-0.5654762387275696,-0.14713411033153534,-0.2841934859752655,-0.7797092795372009,0.7801244854927063,-0.01149420440196991,-0.8011951446533203,-0.11564254015684128,0.6143953800201416,-0.569171130657196,0.33075952529907227,-0.2765984535217285,0.9301881790161133,0.012040376663208008,0.17288827896118164,-0.2908874750137329,-0.852348804473877,-0.2070542573928833,0.9574787616729736,-0.2796044647693634,0.25609031319618225,0.7009691596031189,-0.7333601117134094,0.9792168736457825,0.10454339534044266,0.13398607075214386,0.5922163724899292,0.8097651600837708,0.7388859391212463,-0.1379559487104416,0.9626256227493286,0.17788469791412354,-0.42576175928115845,-0.6865519881248474,0.8480091691017151,-0.45653513073921204,-0.8060131669044495,-0.412189245223999,-0.8463245630264282,0.4637816250324249,-0.9152623414993286,-0.8789447546005249,0.5956172943115234,0.5916926860809326,-0.9176051020622253,-0.5749213695526123,-0.017109006643295288,0.31258395314216614,0.023846620693802834,0.05631692335009575,-0.23173223435878754,-0.3834194839000702,-0.23381741344928741,-0.699316143989563,0.42277759313583374,0.47376933693885803,-0.5071122050285339,1.0353906154632568,-0.10180860757827759,0.24939754605293274,0.3433566391468048,-0.4167099595069885,-0.2830235958099365,-0.9516615271568298,0.889760434627533,-0.11500668525695801,0.2197933793067932,-0.3805121183395386,0.9948021769523621,0.2893850803375244,-0.07133162021636963,-0.08263516426086426,0.7984696626663208,0.515619158744812,-0.8685622811317444,0.23435550928115845,-0.17617344856262207,-0.6144899129867554,-0.15287978947162628,-0.3700287342071533,-0.680774986743927,0.7318568229675293,-0.2968824505805969,-0.8255649209022522,0.08601830899715424,0.00969975907355547,0.26553574204444885,-0.2642468810081482,0.5292524695396423,0.8403071761131287,0.6654067039489746,0.6643475890159607,-0.3846927285194397,0.09360896795988083,0.5924403667449951,0.053944241255521774,0.9005182385444641,-0.46408161520957947,0.2689554691314697,-0.0053327083587646484,-0.46254611015319824,0.5479711890220642,-0.8809183835983276,0.9391741752624512,-0.01915365271270275,-0.2349470555782318,1.1750400066375732,0.36772361397743225,-0.7547347545623779,-0.23896199464797974,0.32354995608329773,-0.251798540353775,-0.8012231588363647,-0.6953549981117249,-0.3223949372768402,-0.6923559308052063,0.6075620055198669,0.3720417022705078,0.4839421808719635,-0.11003907024860382,0.329400897026062,0.09427431970834732,-0.8948911428451538,0.4871469736099243,-0.11744692176580429,0.5550854802131653,-0.16647958755493164,0.0772395133972168,-0.8403862118721008,0.9837966561317444,0.704213559627533,0.13951429724693298,-0.6979069709777832,-0.11963912844657898,0.26227089762687683,0.2911703586578369,0.7430088520050049,-0.872090756893158,-0.45856717228889465,-0.6891658902168274,0.7637051343917847,-0.2744961082935333,-0.28663817048072815,-0.44938361644744873,0.8433175683021545,0.761409342288971,-0.5692538619041443,0.6895295977592468,0.35050609707832336,0.9956766963005066,-0.052807312458753586,0.4377242624759674,-0.09566640853881836,0.37776559591293335,-0.16571077704429626,-0.26598095893859863,-0.5485665798187256,0.06357279419898987,0.49158865213394165,0.2122889757156372,-0.7014702558517456,-0.2774491608142853,1.0955042839050293,-0.2496916949748993,-0.2441013753414154,0.4696493446826935,-0.741732120513916,-0.7803866267204285,0.626035213470459,-0.6954841613769531,0.6526502966880798,0.04679571092128754,0.35074275732040405,-0.8206306099891663,-0.18039217591285706,-0.8066620826721191,0.4201090335845947,0.31447380781173706,-0.8280973434448242,0.17048689723014832,0.41741007566452026,-0.09978613257408142,0.16488151252269745,-0.8236214518547058,-0.2949478030204773,-0.8701176047325134,-0.1845063418149948,0.03425369784235954,-0.13488490879535675,1.0313482284545898,0.20965729653835297,0.317653626203537,-0.38574033975601196,-0.09900515526533127,-0.15370237827301025,0.3865301311016083,0.5462160706520081,1.0643737316131592,-0.5185896754264832,0.6870278120040894,0.619644284248352,1.0373027324676514,-0.3177339434623718,0.13039113581180573,-0.526492178440094,0.5833235383033752,0.2764899730682373,0.6277663111686707,-0.8811755180358887,-0.28619539737701416,-0.7685167193412781,-0.7102547287940979,-0.0364948995411396,-0.014683999121189117,0.5509135127067566,0.9268244504928589,-0.6010993123054504,-0.05623771250247955,-0.9092485308647156,0.5342199206352234,-0.7169288992881775,-0.1441168487071991,0.41684064269065857,0.7331699728965759,0.1953376829624176,0.7177230715751648,-0.16849860548973083,-0.5944186449050903,0.6757656335830688,0.493989497423172,0.8167579174041748,0.12486940622329712,1.012125015258789,0.6330519914627075,0.35697221755981445,0.03337564319372177,-0.167061448097229,-0.7674641609191895,-0.30879250168800354,0.07827364653348923,0.5640507936477661,-0.6739846467971802,-0.9236351251602173,0.45804765820503235,0.16171996295452118,-0.25658899545669556,0.36720046401023865,0.6674375534057617,-0.36213189363479614,0.9587497115135193,-0.5842736959457397,0.39280959963798523,0.35411497950553894,1.2481107711791992,0.4876209497451782,0.09315461665391922,0.8345279097557068,-0.6960322856903076,-0.2148003727197647,-0.08947701752185822,0.423383504152298,0.7943633198738098,0.2542366087436676,0.48364877700805664,-0.5642775297164917,-0.37008291482925415,0.6424270272254944,-0.9575142860412598,-0.14795918762683868,0.7145694494247437,0.20279745757579803,-0.6396065354347229,-0.8677292466163635,0.8467010855674744,-1.0186824798583984,-0.6943910121917725,0.9300640821456909,-0.44118911027908325,1.0339144468307495,-0.28224390745162964,-0.27760860323905945,1.0670692920684814,0.3626630902290344,0.5215751528739929,-0.7479618787765503,0.7784674167633057,0.03771694377064705,0.2063906192779541,0.18931624293327332,-0.5789806246757507,0.27425459027290344,-1.0429277420043945,0.3351641297340393,0.19209040701389313,0.2633761167526245,0.015801092609763145,-0.8333815932273865,0.3466064929962158,-0.3124654293060303,0.29134297370910645,0.6474717855453491,-1.2184830904006958,0.49470701813697815,-0.7068780660629272,-0.3969302177429199,-0.5883156657218933,-0.7171164751052856,0.68923419713974,0.7445281147956848,-1.0065361261367798,0.40726733207702637,0.7077478766441345,1.0802065134048462,0.747833251953125,0.21735204756259918,0.5768686532974243,0.6988160610198975,-0.6127609610557556,-0.5669674873352051,-0.9406052827835083,0.2856100797653198,-0.49609363079071045,-0.8589353561401367,0.7895207405090332,0.8529791831970215,0.2690659761428833,-0.9385954141616821,-0.11879043281078339,0.26123443245887756,-0.1051812469959259,0.5294675827026367,0.7565328478813171,-0.40203043818473816,-0.06563140451908112,-0.8593382835388184,0.24011985957622528,0.7542271018028259,0.6059462428092957,-0.4374856948852539,-0.7875996232032776,-0.8728502988815308,-0.5281363725662231,-0.12999308109283447,1.194027066230774,-0.46764835715293884,0.947180986404419,-0.05649793520569801,-0.49704959988594055,-0.3807626962661743,-0.21216735243797302,-0.1517171412706375,0.3951301574707031,0.5678869485855103,0.40130582451820374,-0.5954394340515137,0.07191289961338043,-0.14237692952156067,-0.6779188513755798,-0.5012069344520569,0.6636082530021667,-0.030941948294639587,0.38201817870140076,-0.41388559341430664,0.17268531024456024,0.41660240292549133,0.15327812731266022,-0.0853884145617485,-0.406222939491272,0.5208503603935242,0.8250447511672974,1.214816927909851,-0.7560403347015381,0.9161927103996277,0.9649103283882141,0.06825143843889236,0.36905962228775024,-0.6594211459159851,0.9237130880355835,-0.2209518849849701,0.6172433495521545,-0.8798574209213257,-0.11551909893751144,-0.1318434327840805,0.8428561091423035,0.9031392335891724,-0.7072790861129761,-0.3651750981807709,-0.3459434509277344,0.8615734577178955,-0.10856489092111588,-0.4780697524547577,0.41543614864349365,0.7148606181144714,0.2918676733970642,0.6924847960472107,0.18123216927051544,0.4350201487541199,-0.1421089470386505,-0.4900234341621399,0.3627457618713379,0.8532575368881226,-0.15685242414474487,-0.6170640587806702,-0.3208153247833252,0.13918836414813995,-0.15978558361530304,-0.9000604748725891,-0.9721393585205078,0.9494367837905884,0.521645724773407,-0.6829357147216797,0.16778934001922607,0.07237997651100159,-0.3106796443462372,-0.3507841229438782,-0.3087889850139618,0.6221448183059692,-0.3055393695831299,0.060823582112789154,-0.6991811394691467,0.02254556305706501,-0.3055122196674347,-0.09617488831281662,0.5084709525108337,0.179918110370636,0.36349713802337646,0.6881986260414124,0.9973077178001404,0.2044876664876938,0.7844124436378479,0.9678553342819214,-0.14241862297058105,-0.38352084159851074,0.1754685342311859,0.055577993392944336,0.3808337152004242,0.7911748886108398,0.3986275792121887,-0.12718921899795532,0.5616498589515686,-0.2372952699661255,-0.003346150740981102,0.5808565616607666,-0.5506294369697571,-0.0045303162187337875,-0.049462929368019104,0.3863362669944763,0.14334973692893982,0.9423326253890991,-0.353546142578125,0.8584810495376587,0.9309583306312561,-0.596153199672699,-0.14730001986026764,0.0008270189864560962,0.7044950723648071,-0.4986554682254791,0.12021329253911972,0.9848837852478027,-0.9504368901252747,0.5504204034805298,0.5444127917289734,-0.2082419991493225,-0.4464283883571625,0.5621211528778076,-0.8412314653396606,-0.37090620398521423,-0.37695881724357605,-0.38322851061820984,1.0646380186080933,1.1844382286071777,-0.23893387615680695,-0.6033833622932434,0.30493980646133423,0.08620457351207733,0.6777345538139343,-0.3874274492263794,-0.0018553187837824225,0.5884342789649963,-0.44430801272392273,0.0836142972111702,-0.250901997089386,-0.5789628624916077,0.29818227887153625,0.23952032625675201,0.6387322545051575,0.2020455300807953,0.25280648469924927,0.5712761878967285,0.24826684594154358,-0.4129452705383301,0.6719036102294922,0.20471417903900146,0.20254036784172058,-0.8611829876899719,0.2569122910499573,-0.5909624099731445,0.4468972980976105,-0.21348948776721954,0.23781423270702362,0.673352837562561,0.673347532749176,-0.11786872893571854,0.2514868974685669,-0.4971153736114502,1.024151086807251,0.37439101934432983,0.5948591232299805,-0.5183724164962769,1.0306652784347534,-0.29044559597969055,1.0941145420074463,0.11634967476129532,-0.8029719591140747,-0.08850540220737457,-0.9573236703872681,0.8124986886978149,-0.45847779512405396,0.3432244062423706,-0.47394371032714844,-0.5006787180900574,0.5013931393623352,-0.41257229447364807,-0.33279696106910706,0.256852388381958,0.05059680715203285,0.5646211504936218,-0.26426538825035095,0.4501318037509918,-0.5981460809707642,-0.43723541498184204,0.43013516068458557,0.3683038353919983,0.5741350054740906,0.3697876036167145,-0.5692967176437378,0.934526264667511,-0.5356801152229309,0.6296345591545105,-0.07710994780063629,0.26960456371307373,0.7820136547088623,0.03895769640803337,-0.16494567692279816,-0.19773226976394653,0.048175446689128876,0.1715548038482666,-0.12403228133916855,0.7680376768112183,-0.5455683469772339,-0.13055023550987244,-0.15400677919387817,0.7467565536499023,0.6246506571769714,0.06989538669586182,-0.6000290513038635,0.8798128962516785,0.17608432471752167,0.12113696336746216,0.028534406796097755,-0.020080409944057465,0.6529160737991333,0.7579572796821594,1.2400895357131958,0.5929281115531921,0.04820562154054642,0.09669380635023117,-0.3600323796272278,-0.9387202262878418,-0.8499440550804138,0.5934297442436218,0.2641591429710388,-0.1499655693769455,0.31655824184417725,-0.2313070297241211,0.19813553988933563,0.8339874744415283,-0.4079754650592804,0.6172170042991638,0.06220252439379692,0.7450326681137085,-1.0182602405548096,0.4029798209667206,0.44076359272003174,-0.4066944718360901,-0.4417097866535187,0.28139886260032654,0.3012421727180481,0.08743889629840851,-0.7670146822929382,-0.18263405561447144,0.014878089539706707,-0.4840795397758484,0.6362615823745728,-0.08135000616312027,-0.853749692440033,-0.32411468029022217,0.35450464487075806,-0.9046567678451538,-0.1808270663022995,0.31441402435302734,-0.979230523109436,0.9654855728149414,0.5584566593170166,-0.7828646302223206,-0.8274823427200317,-0.5662404298782349,-0.010009897872805595,-0.22440436482429504,0.4494498372077942,-0.4635298550128937,-0.33869263529777527,-0.027635522186756134,0.1127614676952362,0.7217958569526672,0.43302276730537415,0.6716914772987366,-0.21403072774410248,1.113049864768982,1.1057798862457275,0.9310926198959351,-0.10142266750335693,0.5806791186332703,0.9297358393669128,0.6181232929229736,-0.8936263918876648,-0.6105260848999023,-0.9204943180084229,-0.8627870082855225,-0.689537763595581,-0.5286401510238647,0.9881056547164917,-0.0011473597260192037,-0.6940545439720154,-0.6511317491531372,0.7171975374221802,-0.39221158623695374,0.7608025074005127,-0.8441709876060486,0.601656436920166,0.4252738952636719,0.22893504798412323,-0.3792068362236023,0.027648983523249626,-0.3890308439731598,-0.21128346025943756,-0.31464892625808716,0.0795438289642334,-0.1691860854625702,0.1547536849975586,-0.03491431474685669,-0.12963072955608368,0.8842729926109314,0.7841445803642273,0.9305840134620667,-0.3113986849784851,-0.5297454595565796,-0.4213292598724365,0.48323214054107666,-0.5718687772750854,0.23634544014930725,0.7667975425720215,-0.5543851256370544,-0.12517105042934418,0.39619630575180054,0.6609595417976379,0.6713083386421204,-0.6061432957649231,0.042296815663576126,-0.4511158764362335,-0.027408936992287636,0.05833650007843971,1.0516248941421509,-0.489902138710022,-0.28072959184646606,-0.36109381914138794,0.5765946507453918,-1.0224114656448364,-0.8358057141304016,0.5126548409461975,0.21291618049144745,0.10227766633033752,0.8605930209159851,-0.4287644326686859,-0.14914606511592865,0.2887914180755615,-0.5562703609466553,0.5340049266815186,-0.34570419788360596,0.41595736145973206,-0.0844903513789177,-0.47793325781822205,-0.40385231375694275,-0.5920683741569519,0.7033548355102539,-0.5204125642776489,0.45785462856292725,0.4615142345428467,-0.8858947157859802,-0.6797465085983276,-0.43395575881004333,-0.7712759971618652,-0.8814570903778076,-0.29435792565345764,0.8951754570007324,-0.6303973197937012,0.29495903849601746,-0.06217919662594795,-0.05296503007411957,-0.16878433525562286,-0.355077862739563,-0.8834584951400757,-0.8535324335098267,0.502379298210144,0.10338747501373291,-0.48927342891693115,0.0072945356369018555,-0.4639585018157959,-0.9214872121810913,0.5783275365829468,-0.7168558239936829,0.7198030948638916,-0.963667094707489,-0.8759244680404663,-0.21766142547130585,0.7675445079803467,0.8940470218658447,-0.7373961210250854,0.2944410741329193,-0.8424374461174011,-0.3622094392776489,0.4379132091999054,0.412786602973938,0.8986772298812866,-0.2316514104604721,-0.4323974549770355,-0.5070346593856812,0.29994264245033264,-0.5704389810562134,0.3385728597640991,0.399172306060791,0.9208860397338867,-0.4495939016342163,0.09554970264434814,-0.5308144092559814,0.9342964887619019,0.937228798866272,0.4566906690597534,0.8314379453659058,0.31549322605133057,-0.7153377532958984,-0.780691385269165,0.5806177854537964,0.0336536169052124,-0.17484618723392487,-0.748286247253418,-0.42728957533836365,-0.8696614503860474,0.5034477710723877,0.2992604970932007,-0.01070868968963623,-0.7408217191696167,-0.5401870012283325,0.48630499839782715,-0.9864447116851807,0.7833595275878906,-0.6100012063980103,-0.20072174072265625,-0.032047390937805176,0.6041547060012817,0.9365170001983643,-0.8026702404022217,-0.4792672395706177,-0.11156022548675537,0.9285914301872253,0.60307776927948,0.11775723099708557,0.3610672354698181,-0.8158390522003174,0.9267807602882385,-0.1300019472837448,0.5514461398124695,-0.811170220375061,0.7630394697189331,-0.38122615218162537,-0.4415256381034851,0.2164027839899063,-0.3768732249736786,0.43290242552757263,0.42765524983406067,-0.5700559020042419,0.4535572826862335,-0.2957109212875366,-0.7435667514801025,-0.17614960670471191,-0.7505637407302856,0.5384416580200195,-0.6526600122451782,-0.28838014602661133,-0.6196727752685547,-0.08773839473724365,-0.5408452749252319,-0.7290875315666199,-0.44564583897590637,-0.6901304125785828,0.6663309931755066,-0.7222228646278381,0.6947896480560303,-0.7832481861114502,-0.7044515013694763,-0.06638935208320618,0.24325183033943176,-0.8552748560905457,-0.4643619656562805,0.24637365341186523,-0.004408457316458225,0.7712677717208862,0.11956460773944855,0.6665517091751099,0.4055769443511963,0.040311314165592194,-0.623509407043457,-0.429235577583313,0.9358851313591003,-0.9950889348983765,-0.8290930986404419,-0.05523097515106201,-0.6615270376205444,-0.15242500603199005,-0.875054121017456,0.6556525230407715,-0.05395974963903427,-0.2906635105609894,-1.1096861362457275,-0.3431461453437805,0.4909352958202362,-0.8280153274536133,-0.4203660190105438,-0.0890791043639183,-0.11096078902482986,-0.08502210676670074,-0.8551554083824158,0.2550177276134491,-0.3747299313545227,0.007796855643391609,0.6894433498382568,-0.09150151163339615,-0.22421665489673615,1.1581556797027588,-1.1427150964736938,-1.2785389423370361,0.226497083902359,0.2536099851131439,-0.1854313611984253,-0.6209516525268555,0.5328559279441833,0.9423342943191528,-0.918829619884491,-0.35475966334342957,0.8191041350364685,0.7131640911102295,0.44611266255378723,-0.9071943163871765,0.2389783412218094,-0.8797063827514648,-1.2345757484436035,-0.46722742915153503,-0.17349423468112946,-0.9324176907539368,-0.5483955144882202,0.2420811951160431,-1.0259931087493896,-0.30910977721214294,-0.8642851114273071,-0.14073790609836578,-0.16269508004188538,1.1243025064468384,0.6357466578483582,1.2225348949432373,0.6224570870399475,0.35680627822875977,-0.29241514205932617,-0.803133487701416,-0.04598033428192139,-0.053227782249450684,-0.24971747398376465,-0.554816484451294,-0.9903512597084045,-0.6586014628410339,-0.5703916549682617,-1.2101032733917236,-1.0865951776504517,0.5679277181625366,-1.5123261213302612,-2.3363394737243652,-1.318669080734253,0.02257193997502327,-1.5189470052719116,-0.6879412531852722,-0.9307535290718079,-2.18456768989563,-0.6208112239837646,-0.4721219837665558,0.19993425905704498,1.2285399436950684,0.5280447006225586,0.2159021496772766,0.34907716512680054,0.3655667304992676,-0.842788577079773,0.9222527742385864,-0.5044172406196594,-0.907252311706543,-0.4800979495048523,-1.1236499547958374,1.1628589630126953,0.0056569394655525684,0.3402698040008545,-0.2242128998041153,0.785490870475769,-0.07768586277961731,-0.8697043657302856,0.42878976464271545,-1.18206787109375,-0.7907810807228088,-0.057463955134153366,-0.7619394063949585,-0.7410438656806946,-0.41716983914375305,-0.0332430936396122,-0.6093408465385437,0.7210822701454163,0.8870444893836975,2.136270761489868,1.4189016819000244,0.3379260003566742,-0.8018300533294678,0.4717352092266083,0.46479687094688416,-0.8035397529602051,0.624487042427063,-0.07615237683057785,-0.2992527484893799,0.9605358839035034,0.4286993443965912,0.7032015919685364,0.41316601634025574,-0.24916553497314453,0.3474624752998352,0.25506025552749634,-0.30192288756370544,0.10580961406230927,-1.0128564834594727,-0.9457663297653198,0.06745371967554092,-0.24575313925743103,0.6991838216781616,-0.2530844509601593,0.12276052683591843,0.05201774090528488,0.4043233096599579,1.1580644845962524,1.853760838508606,1.1723272800445557,0.5073980093002319,-0.502578854560852,0.20564329624176025,0.016279328614473343,0.9736066460609436,0.7988597750663757,-0.4246355891227722,-0.005216744728386402,0.7414401769638062,0.43782782554626465,1.0308167934417725,0.2926272451877594,0.8812372088432312,0.001661977730691433,-0.009185448288917542,-0.19584181904792786,-0.30752047896385193,0.39829686284065247,-0.5611300468444824,0.33022305369377136,0.192214697599411,-0.056367434561252594,0.8174434900283813,0.323271244764328,-0.14841747283935547,0.9276387691497803,0.6866481900215149,0.4139266610145569,0.8382386565208435,-0.7827512621879578,-0.6298284530639648,0.13775157928466797,0.35445111989974976,0.6061300039291382,0.0571352019906044,0.7486749291419983,0.4500105082988739,0.7414705753326416,-0.3173043131828308,1.0323668718338013,0.27104055881500244,0.6812412738800049,0.745384693145752,-0.72393399477005,0.6141181588172913,-0.5845628380775452,0.34048473834991455,0.0855904296040535,0.06479053944349289,0.604811429977417,-0.06008933112025261,0.377225786447525,0.6926762461662292,1.1383970975875854,1.9780452251434326,1.0522698163986206,0.5082150101661682,-0.5893092155456543,-0.6050388813018799,-0.01197140384465456,0.6870580911636353,0.9061232805252075,0.97789067029953,0.3744511902332306,-0.7781203389167786,1.0801074504852295,-0.2044527679681778,0.21875272691249847,0.4393565356731415,0.5934610366821289,0.22752505540847778,1.482400894165039,0.21103033423423767,1.0553491115570068,0.7064529061317444,0.05869606137275696,0.751650869846344,0.3139640688896179,0.008236835710704327,0.580781102180481,1.2360371351242065,0.025252074003219604,0.7021003365516663,0.6151970624923706,-0.3716244697570801,-0.3017995059490204,0.8993152379989624,-0.4379007816314697,0.1841343492269516,0.5228152871131897,0.8517180681228638,-0.23087522387504578,-0.07169350236654282,-0.23330536484718323,-0.49202221632003784,0.461457759141922,0.3797544836997986,0.11391714215278625,-0.2246335744857788,0.950878918170929,0.5677026510238647,-0.14895476400852203,0.20706337690353394,-0.5193823575973511,0.30001068115234375,0.3633476495742798,0.7758828997612,0.53989577293396,-0.7247083783149719,-1.4862812757492065,-0.6705455780029297,0.5284395813941956,-0.22631096839904785,0.8411637544631958,0.527632474899292,0.6189371347427368,1.6565903425216675,1.5003236532211304,1.9723881483078003,0.4547737240791321,0.2701041102409363,1.1470696926116943,0.2725967466831207,-0.2505047619342804,-0.5801448822021484,0.8116274476051331,-0.46884816884994507,-0.9280098080635071,-0.9728955626487732,-0.07893466204404831,-0.1908189356327057,-0.1372351348400116,-0.45914426445961,-0.8699541091918945,-1.348097324371338,-1.1720906496047974,-1.2745683193206787,-1.7881202697753906,-1.6847573518753052,-1.0134979486465454,0.35436317324638367,0.07426842302083969,0.6781654357910156,-0.9735965132713318,1.1300842761993408,1.2898776531219482,0.3021535575389862,0.28616243600845337,0.20249775052070618,0.7156075239181519,-0.4917193651199341,0.4169854521751404,-0.46578460931777954,-0.3394397795200348,-0.13704177737236023,-1.4369064569473267,-0.3900904357433319,-0.8629934191703796,-0.4961216449737549,-0.6909264922142029,-1.1840286254882812,-2.526442289352417,-1.341690182685852,-1.7716529369354248,-2.043872117996216,-1.1234136819839478,-0.016544420272111893,0.5689014196395874,0.9168007373809814,0.14141081273555756,0.8765678405761719,0.7268043160438538,-0.5274412631988525,0.13753455877304077,0.17190149426460266,1.3600083589553833,-1.246665358543396,-0.20692598819732666,-0.6866506934165955,-0.28977617621421814,0.36523839831352234,-0.33189088106155396,-1.1196914911270142,-0.3420807123184204,-0.3171398341655731,-0.37096843123435974,-0.5632444024085999,-0.08962549269199371,-0.42339104413986206,0.7184000611305237,1.1169557571411133,-1.1674855947494507,0.008855404332280159,-0.4337228834629059,0.18542015552520752,0.5158974528312683,-0.823574960231781,-0.839606523513794,-0.7554795742034912,0.8472914695739746,0.8576273918151855,0.30411890149116516,0.5282495617866516,-0.9914354085922241,-0.2587258815765381,0.026177197694778442,-0.41822898387908936,-0.3614582419395447,-0.17003189027309418,-0.6575859785079956,-0.4984091818332672,-1.5266793966293335,-0.41542038321495056,-0.3821524679660797,-1.2855210304260254,-0.059252288192510605,0.5189802646636963,0.06751596927642822,-0.05509904399514198,0.25712060928344727,-0.220402330160141,-0.16193220019340515,-0.9507327079772949,-0.18435348570346832,-0.5045984387397766,0.7451682090759277,-0.9191501140594482,0.3637425899505615,0.5827436447143555,0.4716479182243347,-0.29057973623275757,-1.1489911079406738,-0.8606587648391724,-0.39859846234321594,0.5181595683097839,-0.12731778621673584,-0.6737481951713562,-1.4981322288513184,-0.21375061571598053,-0.10498983412981033,-0.2668246328830719,0.46484270691871643,-0.24481874704360962,0.5621470212936401,0.2547800540924072,1.1789512634277344,-0.301008015871048,0.5080311298370361,-0.5248610973358154,0.4405500888824463,-1.266338586807251,-0.6978233456611633,-0.09647799283266068,0.7717393040657043,-0.7073681354522705,0.8226796388626099,0.42336076498031616,-0.1325606107711792,-1.0459736585617065,-0.5782358646392822,0.0946861132979393,-0.5179988145828247,-1.1044535636901855,-0.4436267614364624,-0.7638938426971436,0.03626707196235657,-0.3590996563434601,0.5630934834480286,-0.4267389476299286,-0.057695504277944565,0.4382210373878479,0.00200458406470716,0.7107887864112854,0.26383015513420105,0.4564889371395111,-0.40513139963150024,-0.28556790947914124,0.8333044648170471,-1.3212511539459229,-0.13696806132793427,-0.28064292669296265,-0.9723252058029175,-0.7961978316307068,0.6926201581954956,0.7863055467605591,0.6516921520233154,-0.1829887479543686,-1.0329135656356812,0.31757068634033203,-0.176874041557312,-0.2878047525882721,0.44365036487579346,-0.703576385974884,0.10581019520759583,0.07657589763402939,0.5481013059616089,0.10153539478778839,-0.06328833848237991,-0.26784366369247437,0.11425971984863281,-0.5587314367294312,-0.37177231907844543,0.48830941319465637,-1.2213988304138184,-1.31281578540802,-0.6388829946517944,-1.4305140972137451,0.370542049407959,-0.33980792760849,-0.09248512238264084,0.27435457706451416,-0.12139515578746796,0.754723846912384,-0.08507901430130005,0.06316117942333221,0.31791573762893677,-0.7116981744766235,0.8598244786262512,-0.25355443358421326,0.37260901927948,0.07705187797546387,-0.41404345631599426,0.007624546065926552,0.6970376968383789,0.5829632878303528,0.5428675413131714,-0.4561668336391449,-0.7702951431274414,0.31619739532470703,-1.00808584690094,-0.5142644643783569,-0.9302688837051392,-0.6470425128936768,-0.104449063539505,-1.1729352474212646,-0.24383309483528137,-0.2684667706489563,0.8737748265266418,0.4269070625305176,-0.6039733290672302,-0.15768440067768097,0.08556704968214035,-1.6982142925262451,-0.6158425211906433,-0.8356930017471313,0.2515053153038025,-0.6292061805725098,-0.17084597051143646,-0.04464633762836456,0.14331403374671936,0.07494693249464035,-0.16528332233428955,0.37247753143310547,-0.20465540885925293,-0.7496868371963501,-0.20873628556728363,-0.19311675429344177,0.08644429594278336,-0.8242378234863281,-0.8219996094703674,-1.26785409450531,-1.679068922996521,-1.2494207620620728,-0.24366061389446259,-0.844329833984375,-0.8362987041473389,0.35681769251823425,0.11754605174064636,-0.6725190877914429,0.17758333683013916,-0.053317081183195114,-1.696190357208252,0.0327664278447628,0.14454948902130127,-0.38934311270713806,0.017350146546959877,-0.2715616226196289,0.017458193004131317,-0.15493761003017426,-0.4879061281681061,-0.2947925627231598,0.4351809322834015,-0.01695922389626503,0.25064951181411743,-0.5563619136810303,-0.6990452408790588,-0.8509766459465027,-0.4798741638660431,-0.9826748967170715,-0.4622696042060852,-0.0675850361585617,-0.23894262313842773,-0.33032751083374023,0.9806990027427673,-0.5065341591835022,-0.04257551208138466,0.6735065579414368,0.12303285300731659,-1.0136730670928955,0.02488557994365692,-1.3404295444488525,0.251292884349823,-1.1233669519424438,0.4712260961532593,-0.6797127723693848,0.08235779404640198,0.18839041888713837,0.7348737120628357,0.7919243574142456,0.31856852769851685,0.8619334697723389,-0.8169565200805664,-0.9133884906768799,0.4827202558517456,-0.4217759370803833,-0.8731741905212402,-1.806951880455017,-0.4221099317073822,-0.6601828932762146,-0.2907274663448334,-0.16408655047416687,-0.49773189425468445,-0.8447496891021729,-0.65521240234375,-0.843405544757843,-0.2592761516571045,-0.3075553774833679,0.08774641901254654,0.9604843854904175,-0.24528495967388153,-0.5839107036590576,0.688117265701294,1.2725012302398682,-0.10325122624635696,0.9766561388969421,-0.3109895586967468,-0.3157941401004791,0.6600895524024963,1.3418635129928589,-0.003368582110852003,1.1943480968475342,-0.5628546476364136,-0.0007551335729658604,-0.4601514935493469,-0.3101963698863983,-0.9486788511276245,0.13255436718463898,-0.5317922234535217,-0.9930858016014099,-0.32358288764953613,0.07404148578643799,0.9100924730300903,-0.5682963132858276,-0.7434846758842468,0.6889521479606628,0.6058251857757568,0.5550887584686279,0.5039125680923462,-0.18393108248710632,-1.0381923913955688,0.48702022433280945,-0.5856131315231323,-0.8678794503211975,0.5288049578666687,0.8715523481369019,-0.2093830406665802,-0.8438413143157959,0.721541166305542,-0.6064813733100891,-0.5052798390388489,-0.4757660925388336,0.7080969214439392,-0.41143807768821716,-1.1594109535217285,-0.05337920039892197,0.20554056763648987,-0.11865144222974777,0.5485039949417114,0.3447442054748535,0.7252267599105835,-0.13656972348690033,0.8093159198760986,1.0059252977371216,-0.44686058163642883,-0.6919340491294861,-0.23594725131988525,0.09221644699573517,0.5246869921684265,-0.9546837210655212,0.2738507390022278,0.4047221541404724,-0.618170976638794,-1.1277477741241455,-0.4582901895046234,-0.8203009963035583,-0.6906631588935852,-0.4568323493003845,-0.0947335958480835,0.036089617758989334,-0.46015581488609314,0.11523040384054184,0.137619286775589,-0.720177948474884,0.7589472532272339,0.12303610891103745,0.3980734348297119,0.5359174013137817,0.22820055484771729,0.5891964435577393,-0.8768978714942932,0.4968584477901459,-0.6794549822807312,-0.3233930468559265,-0.8691664934158325,-0.8907132148742676,-0.6530939936637878,-1.0890873670578003,-0.9562345147132874,-1.04669988155365,-1.029747724533081,-0.7366523146629333,0.05359865725040436,-0.6702410578727722,0.24193623661994934,-0.7982213497161865,0.15023525059223175,-0.5850010514259338,-0.05330872908234596,0.5377049446105957,0.9500519633293152,0.4450417459011078,-0.6867225766181946,-0.13881123065948486,0.7147566080093384,0.45179176330566406,0.9172865152359009,-0.6294466257095337,-0.8471486568450928,0.3023470342159271,-0.36687517166137695,0.379686564207077,0.03799908608198166,-0.9390884637832642,0.3353220522403717,-0.7981252074241638,0.14193327724933624,0.022141890600323677,-0.04532502219080925,-0.43519723415374756,-0.44188177585601807,-0.024637939408421516,0.39735907316207886,-0.15759742259979248,-0.7536259293556213,0.9067599773406982,0.02732071280479431,-0.48220595717430115,-0.1767558604478836,-0.13650548458099365,0.46419501304626465,-0.11253643035888672,-0.7500845193862915,0.7574688196182251,0.15930712223052979,-0.30095958709716797,-0.6131763458251953,-0.8824293613433838,-0.9199155569076538,0.9218649864196777,-0.33500587940216064,0.7935241460800171,-0.7092573642730713,0.8888258934020996,0.08208441734313965,0.6829364895820618,-0.7784331440925598,-0.28611689805984497,0.4062034487724304,-0.40834343433380127,0.9624853134155273,0.5804543495178223,0.9458410739898682,-0.8320188522338867,0.5897248983383179,0.29050755500793457,0.6427404880523682,-0.2943824529647827,-0.851096510887146,0.11643064022064209,-0.8310490846633911,-0.49227285385131836,0.9784332513809204,0.6256098747253418,-0.6272743940353394,0.6671645641326904,0.04402993619441986,0.3667742908000946,0.272966593503952,0.856473445892334,-0.284131795167923,-0.8422046303749084,0.3971608877182007,0.29238203167915344,-0.06634102016687393,-0.19639074802398682,-0.2866573929786682,-1.0175933837890625,-0.7679144740104675,0.26521772146224976,-0.9304300546646118,0.5060272216796875,-0.816309928894043,0.5388855934143066,0.04061337187886238,0.16038894653320312,-0.5232287645339966,0.4941335916519165,-0.18111538887023926,0.47943758964538574,0.2060072422027588,-0.24687565863132477,0.17689619958400726,0.9817033410072327,0.29198989272117615,0.9729623198509216,-0.1315850168466568,-0.32889115810394287,0.47272297739982605,0.18957597017288208,0.8938578367233276,1.4492264986038208,0.9114512205123901,0.8178555369377136,0.7123727202415466,1.3970293998718262,0.9053728580474854,-0.3853994607925415,0.8308617472648621,1.0780537128448486,0.21201306581497192,0.8741692304611206,0.09866546839475632,-0.7316785454750061,0.5637779235839844,0.7662500143051147,-0.2122058868408203,-0.25385868549346924,-0.33942127227783203,-0.4552113711833954,0.3333207070827484,-0.2224009484052658,-0.433163046836853,0.5606600642204285,1.0069396495819092,1.7859338521957397,1.8245197534561157,0.35440579056739807,0.5828325152397156,1.3219302892684937,-0.008758896961808205,0.9414350986480713,0.9301814436912537,0.5236325860023499,0.8573485016822815,0.6352485418319702,0.5091899633407593,0.8863733410835266,-0.7927432656288147,-0.05454831197857857,0.5611860752105713,0.4349822998046875,-0.5665605664253235,0.9060823321342468,-0.4859049320220947,-0.3412439823150635,-0.6125465631484985,-0.4423946738243103,-0.21613655984401703,-0.581908643245697,1.0498833656311035,-0.39740267395973206,0.5167380571365356,1.2995731830596924,0.8386673331260681,1.36631441116333,-0.5118550062179565,-0.034874796867370605,0.23746399581432343,-0.41167840361595154,-1.0284563302993774,-0.273614764213562,-0.879260241985321,-0.040792495012283325,-0.36707207560539246,0.14625956118106842,0.16219091415405273,0.6488799452781677,1.5668354034423828,-0.5943031311035156,0.32037460803985596,0.7058693766593933,0.2999383807182312,-0.3452669382095337,-0.5915218591690063,-0.4860520362854004,-0.25586825609207153,-0.16125211119651794,0.27551108598709106,-0.06083542853593826,-0.7316343188285828,-0.4332488179206848,-1.3774795532226562,-0.13375653326511383,-1.032021164894104,-1.064468264579773,-0.6966306567192078,-0.043552614748477936,0.05380670726299286,-0.7216516137123108,-0.5025659203529358,-0.030648421496152878,0.38898250460624695,0.5867148041725159,0.02648807503283024,1.5865083932876587,1.0277541875839233,-0.5456768274307251,-0.5403603911399841,-0.3927699327468872,-0.5206365585327148,0.3443185091018677,0.8400569558143616,-0.5633167028427124,-0.7956454753875732,1.0721337795257568,0.42593759298324585,0.46025463938713074,0.23567673563957214,-2.082460880279541,-0.5732397437095642,0.0005097539396956563,0.6770679354667664,-0.3885916769504547,-0.8264786005020142,-0.24752968549728394,-1.113146185874939,-0.06822923570871353,-1.7588940858840942,-0.5254136919975281,-0.4584971070289612,-1.0338304042816162,-0.2616245746612549,-1.1061041355133057,0.33581554889678955,-0.28749868273735046,0.3974738121032715,0.4829356074333191,0.10093193501234055,0.9665046334266663,-0.39565443992614746,0.7087005972862244,-0.8458060622215271,0.2324446737766266,-1.0538970232009888,-0.46589529514312744,-0.8365975022315979,-0.3342973589897156,-0.5001063942909241,-0.5949104428291321,-1.3250820636749268,0.06630682945251465,-1.766822099685669,-0.1961512714624405,-0.12253057211637497,-0.7468469738960266,-0.24297554790973663,-1.1808810234069824,-0.766489565372467,-1.5572811365127563,-0.8316417336463928,-0.7200607657432556,-0.381633460521698,0.011068612337112427,-0.690072238445282,-0.9444097876548767,0.8182276487350464,-0.8724038004875183,-0.1831848919391632,0.4601074457168579,0.1256822943687439,-0.38941147923469543,0.053116247057914734,-0.5043006539344788,-0.42046058177948,-1.1970463991165161,-0.8058784008026123,-0.36016881465911865,-0.3081989288330078,-0.2688254415988922,-0.41851410269737244,-1.0338857173919678,-0.7644586563110352,-1.3358521461486816,-0.406722754240036,-2.1715152263641357,-1.416134238243103,0.24062149226665497,-0.854347288608551,-1.3702908754348755,-2.100888729095459,-1.16648530960083,-1.2158797979354858,-0.2721843719482422,-0.3344312608242035,-0.3214031457901001,-0.4094800055027008,0.7283104658126831,0.3678450286388397,-0.29762008786201477,-0.42157819867134094,-1.0844922065734863,-0.5602418780326843,-0.15599064528942108,-1.0551100969314575,-1.1990829706192017,-0.3501930832862854,-0.013194986619055271,0.048643097281455994,1.069215178489685,0.18327103555202484,-0.6888303756713867,-1.4838886260986328,-0.4573685824871063,-1.3633954524993896,-1.4020377397537231,-1.1204854249954224,-0.9405372738838196,-1.7111927270889282,-0.7603715658187866,-0.4285117983818054,-0.37278515100479126,-0.3593379259109497,-0.040886566042900085,-0.5434275269508362,-0.7991828322410583,-0.6924936771392822,0.3770368993282318,0.5829944014549255,-1.237959384918213,-0.24182599782943726,0.6188886761665344,-0.7180107831954956,-0.2076774686574936,-0.38983702659606934,-0.5386592149734497,0.0918462797999382,0.9576270580291748,-0.16200664639472961,0.5327892899513245,-0.3643244206905365,-1.9926786422729492,-1.577081322669983,-0.5965686440467834,-0.6040382385253906,-1.2904052734375,-0.28142186999320984,-0.07404246181249619,-0.17159944772720337,-0.23967595398426056,-0.4472125768661499,-0.6564260125160217,-0.012104609981179237,-0.12799209356307983,0.02347526326775551,-0.19229595363140106,-0.3440512418746948,-0.41434246301651,0.4409465789794922,-0.4853995740413666,-0.3665390610694885,-0.6358171701431274,-0.41785937547683716,-0.5768821835517883,-0.6743922233581543,0.704399585723877,0.3851228356361389,1.2546865940093994,-0.2084735631942749,0.7145432233810425,-0.5169404149055481,-0.33418890833854675,0.28438666462898254,0.019567945972085,0.9176734685897827,-0.1917315274477005,0.06980320811271667,0.28012019395828247,0.04341907426714897,-0.4364469647407532,-0.975914478302002,0.435670405626297,0.5231573581695557,0.2601441740989685,0.949813961982727,-0.1692957878112793,-0.14394013583660126,-0.20599326491355896,-0.2617054581642151,-0.4199182689189911,-0.6319360136985779,-0.36501485109329224,-0.016279535368084908,-0.22045624256134033,-0.05200241133570671,-0.5285542011260986,0.009457714855670929,-0.35437023639678955,0.006663857959210873,0.08538474887609482,0.07715805619955063,-0.11659710854291916,0.12284765392541885,0.5562256574630737,-0.08360845595598221,-0.5486381649971008,0.7819887399673462,0.7920380234718323,-0.28639596700668335,-0.8256464600563049,-0.6221399903297424,-0.7568026185035706,0.19895383715629578,-0.2828185558319092,-1.2891238927841187,-0.8982928991317749,-0.5474496483802795,-1.1128594875335693,-0.9837291836738586,-0.5349821448326111,0.37377041578292847,1.1534024477005005,0.3101135492324829,0.008318495005369186,0.1204555407166481,-0.6021820306777954,-0.1006740853190422,0.15172626078128815,-0.17575788497924805,0.5618190169334412,1.5127454996109009,-0.3090553283691406,-0.036486439406871796,0.4793841540813446,0.16512593626976013,0.1497693508863449,-0.9596959948539734,0.16716350615024567,0.014379316009581089,0.034149669110774994,-0.37336573004722595,-0.417802631855011,0.20228499174118042,-0.13206027448177338,-0.006614158395677805,-0.09704984724521637,0.4097821116447449,0.8785508871078491,0.033732421696186066,0.3273005187511444,0.016360947862267494,0.756702184677124,-0.6806068420410156,0.480153352022171,-0.6759347915649414,-0.17405425012111664,0.13023608922958374,0.19199344515800476,-0.5535898208618164,0.3803319036960602,0.301507830619812,0.19917170703411102,-0.3246097266674042,-0.6647159457206726,0.7937539219856262,0.9237768650054932,-0.5226805806159973,0.27964094281196594,-1.4293577671051025,0.7572042942047119,-0.18517829477787018,-0.10004197061061859,-0.317874550819397,-0.17862224578857422,-0.24759282171726227,-0.10274562239646912,0.4897075593471527,0.762981116771698,-0.3946497440338135,-0.36981990933418274,-0.6123454570770264,0.33268147706985474,0.2934635877609253,0.7962366938591003,0.701106607913971,1.2073899507522583,0.268245130777359,1.417031168937683,1.092841625213623,-0.31014516949653625,0.5175133347511292,-0.021852092817425728,-0.8901473879814148,0.42060232162475586,-0.8839967250823975,-0.4007156491279602,-1.319761872291565,0.14539650082588196,-0.1637403815984726,-1.4829258918762207,0.24349799752235413,-0.12675735354423523,0.18441635370254517,-0.22183838486671448,0.9084863662719727,1.1134309768676758,-0.07217757403850555,0.7088789939880371,-0.6857908368110657,-0.4418748617172241,0.20138855278491974,0.49223875999450684,0.07648063451051712,-0.65584796667099,-0.674608588218689,0.4472601115703583,-0.128145232796669,-0.7770030498504639,-0.5422822833061218,0.7018129825592041,0.09917820245027542,0.4165419042110443,0.44740667939186096,-0.4527457654476166,-0.5148269534111023,-0.5278944373130798,-0.26776501536369324,0.07057829946279526,0.03705348074436188,0.5368221402168274,0.04182405397295952,-0.2807871103286743,-0.024238232523202896,1.0522055625915527,0.2395232617855072,-1.407875418663025,-0.2836471498012543,0.3665262758731842,0.4188023805618286,0.23736774921417236,1.1892415285110474,0.250969797372818,-0.37514644861221313,0.7904687523841858,0.3322522044181824,-0.970089316368103,-0.9895719289779663,-0.14045873284339905,0.7977928519248962,0.9803991913795471,0.1196180135011673,-0.31593576073646545,-0.9516903758049011,-1.2413840293884277,0.13601019978523254,0.0483144074678421,0.27403342723846436,0.6583250761032104,0.35453420877456665,2.175980806350708,0.1957344263792038,1.91481614112854,0.18062902987003326,0.662539541721344,0.569740355014801,0.5365754961967468,0.06304460018873215,-0.11111482232809067,-0.5257390141487122,0.1577509045600891,0.48718181252479553,0.03412549942731857,0.33328405022621155,-0.1846487820148468,-0.16690240800380707,-0.9898282885551453,-0.3553745746612549,-0.9105954766273499,-0.4570380449295044,0.18892116844654083,-0.5988444685935974,-0.8845022916793823,0.763271689414978,0.37934410572052,1.592656135559082,0.8926883935928345,2.141998767852783,1.2122443914413452,0.5979076027870178,0.7184793949127197,-0.09239407628774643,0.7463900446891785,0.8826507925987244,0.7805300354957581,1.326551914215088,0.6441537737846375,0.5493238568305969,0.21898026764392853,-0.6304994225502014,-0.28210964798927307,0.2959376275539398,0.8886971473693848,0.4933050870895386,-0.7112071514129639,-0.48235341906547546,-0.9101083278656006,0.3541215658187866,-1.2558611631393433,0.11579407006502151,-0.29779723286628723,1.1920276880264282,1.264384388923645,0.316891074180603,0.4996757209300995,0.5194454193115234,0.6162416934967041,0.5465119481086731,0.317202627658844,0.49822503328323364,1.3758245706558228,-0.3451440930366516,0.4349387288093567,0.5462327599525452,0.865471363067627,-0.4062081277370453,0.2261124551296234,0.6429286003112793,-0.5482072234153748,0.5787337422370911,-0.9025174379348755,0.9118090867996216,0.7215657234191895,0.21626611053943634,0.29750707745552063,-0.2299700230360031,0.43807703256607056,0.7114076018333435,0.591258704662323,0.7959989309310913,0.9007354974746704,0.36548638343811035,1.1030009984970093,1.1305757761001587,1.0868806838989258,0.346871942281723,1.0191988945007324,0.6639308929443359,0.212355837225914,-0.40114420652389526,0.5990710258483887,0.7582043409347534,0.26405033469200134,0.20352615416049957,0.7658171057701111,0.1424618661403656,-0.3107661306858063,0.14934636652469635,0.5617595911026001,0.35770347714424133,0.20678704977035522,-0.1094239354133606,-0.2534619867801666,0.22042964398860931,-0.37383392453193665,0.48102521896362305,0.49832355976104736,-0.7497373223304749,-0.884933590888977,0.6901364922523499,-0.34937652945518494,-0.19925065338611603,-1.0454339981079102,-0.3822169899940491,0.014846493490040302,-0.27100980281829834,0.8124455809593201,0.9990642666816711,-0.32371392846107483,-0.4571729600429535,-0.15321668982505798,0.25304627418518066,-0.5025016069412231,-0.5736926794052124,-0.09797094762325287,-0.6197568774223328,-0.7182536721229553,-0.33970049023628235,-0.7508248090744019,-0.5117201805114746,-0.2684578001499176,-0.9418373703956604,-0.6319402456283569,1.8292841911315918,1.239920735359192,0.2136428952217102,-0.2828565835952759,-0.3472835123538971,-1.0691171884536743,-1.9868370294570923,-0.07771480083465576,-0.8263853192329407,-1.5604227781295776,0.002004503970965743,-0.8416820764541626,0.4370332658290863,0.37071579694747925,-1.420304298400879,-0.2631576955318451,-0.9255396723747253,-0.04999644681811333,0.22458288073539734,0.761886477470398,-0.8392555117607117,0.5268899202346802,0.4257051944732666,-0.48091816902160645,0.03377711772918701,0.45849987864494324,-0.6391056180000305,0.5802044868469238,0.6114176511764526,0.4058031439781189,-0.9188017249107361,0.06781794130802155,0.7444807887077332,0.45273342728614807,0.46260592341423035,-0.2354641705751419,0.24101965129375458,-0.4049994647502899,0.8528206944465637,-0.5397146940231323,-0.10937995463609695,-1.3337537050247192,0.5476002097129822,-0.9358146786689758,0.3244505822658539,0.12899985909461975,0.16385717689990997,0.41937658190727234,-0.3407549262046814,-0.6606002449989319,-0.48242032527923584,-0.4514886140823364,-0.06725037097930908,0.9658101201057434,-0.8954697847366333,0.5345852375030518,0.9740363359451294,-0.3624189794063568,-0.6235742568969727,-0.5620140433311462,-0.8843265771865845,-0.9778788089752197,-0.7343500852584839,-0.4725947380065918,-0.2808578312397003,0.03376605734229088,-1.5712777376174927,-1.0795148611068726,0.16483819484710693,-0.07472468167543411,0.07271796464920044,-0.39346256852149963,0.039625801146030426,-0.41322052478790283,-0.9802278280258179,-0.018618421629071236,0.332417368888855,-0.3517332375049591,0.9482598304748535,0.0025930404663085938,-0.7143532037734985,-0.5251551866531372,-0.8111984133720398,0.9364734292030334,0.7465524673461914,0.3729037046432495,0.19731192290782928,0.619868278503418,0.37338924407958984,-0.5634069442749023,0.4996546804904938,-0.8354701995849609,-0.19656120240688324,-0.171394944190979,-0.9049907326698303,-1.028421401977539,0.5077611804008484,-0.9226090908050537,-0.17604729533195496,-0.6881348490715027,0.29280298948287964,0.9442393779754639,0.3164425492286682,0.11981730908155441,0.9376351833343506,-0.6530164480209351,-0.6647214889526367,-0.1509556770324707,0.3837684392929077,0.0064008235931396484,-0.2934204339981079,-0.05897890403866768,0.6865424513816833,-0.4905432462692261,0.273944616317749,0.09309768676757812,0.6490691900253296,-0.031217247247695923,0.6801612377166748,-0.29071107506752014,0.8067797422409058,-0.15228085219860077,-0.02791992761194706,-0.4495314359664917,-0.8458306193351746,-0.8821401596069336,-0.3180597424507141,0.5831281542778015,0.1521701216697693,-0.45155584812164307,0.34860995411872864,-0.30307304859161377,0.5941475629806519,-0.5779217481613159,-0.9636667966842651,-0.4027606248855591,-0.6149851083755493,0.7311403751373291,0.3289313316345215,-0.2762751579284668,0.2211817502975464,0.687913179397583,0.5575200319290161,0.8720802068710327,0.9385637044906616,-0.477947473526001,-0.6828832626342773,0.3829292356967926,-0.4496937394142151,-0.8597303628921509,0.19019773602485657,-0.4875822067260742,-0.13063561916351318,-0.2800323963165283,-0.27984702587127686,0.02196633815765381,0.5445860624313354,-0.3509718179702759,-0.6765733957290649,-0.28998076915740967,0.5800844430923462,-0.6781209707260132,-0.9909460544586182,0.24345862865447998,0.19931519031524658,0.716875433921814,-0.31801462173461914,-0.4898175001144409,-0.05231275036931038,-0.9924049377441406,-0.592927873134613,-0.5273205041885376,-0.905019998550415,0.07353551685810089,-0.757036030292511,-0.7182666063308716,-0.6396200060844421,-0.44751012325286865,-0.18036673963069916,-0.8187732696533203,0.09942241758108139,0.059661753475666046,0.2547777593135834,0.8335474133491516,0.41182440519332886,-0.6538168787956238,-0.44914594292640686,0.43795156478881836,-0.1875842809677124,0.2479006052017212,-0.7168126106262207,0.41697466373443604,-0.6148593425750732,0.40720903873443604,-0.49404895305633545,0.8703030347824097,0.7900298237800598,-0.21874378621578217,-0.3428185284137726,-0.18076591193675995,0.8593117594718933,-0.510647714138031,-0.4151906669139862,-0.15110455453395844,1.0929193496704102,0.3026798665523529,0.29190048575401306,0.575891375541687,-0.11799796670675278,1.255143404006958,-0.031621094793081284,-0.7128974795341492,0.4757342040538788,-0.28957080841064453,0.5218803286552429,0.9370765686035156,-0.3259255886077881,-0.05719566345214844,-0.29975998401641846,0.23940813541412354,0.11950182914733887,-0.3077341914176941,-0.9006744027137756,0.7709872126579285,-0.151717409491539,-0.9206126928329468,-0.46663790941238403,-0.6698715686798096,0.6170710325241089,0.3599056303501129,0.23914280533790588,-1.4484667778015137,0.28877466917037964,0.2780509889125824,-0.40495356917381287,-0.44694238901138306,-0.6022353768348694,-0.4981967806816101,-0.6035776734352112,0.5251550674438477,0.24608196318149567,-0.2581145465373993,-0.1773615926504135,-0.3023454248905182,0.127999410033226,0.058369290083646774,-0.13117456436157227,0.8581658601760864,0.5773066282272339,-0.47269007563591003,-0.22562338411808014,-0.2955157160758972,-0.8583135604858398,0.35603317618370056,-0.8560144305229187,-0.4003627300262451,-1.4031089544296265,-0.31588461995124817,-0.5087481737136841,-0.7778369188308716,-0.7098555564880371,-0.17720521986484528,-0.29478558897972107,0.010783081874251366,-0.04185384511947632,-0.23939481377601624,-0.5816365480422974,-0.5248408913612366,0.3427378833293915,0.44127357006073,0.8362506031990051,-0.6389986276626587,0.5493844747543335,-0.2638164162635803,0.49686458706855774,0.526522159576416,-0.42190301418304443,-0.5018938779830933,-0.8532242774963379,-1.0700106620788574,-1.5437885522842407,-0.644775390625,-0.8212061524391174,0.5358055830001831,-0.5783764123916626,0.17852111160755157,0.27722954750061035,-0.21044103801250458,0.1534460335969925,0.8213308453559875,-0.7942761778831482,0.04777836799621582,0.5846232771873474,0.67677241563797,-0.6542744636535645,0.9482017755508423,0.3331657350063324,0.31405583024024963,0.05192575603723526,-0.1611795574426651,-0.0402039997279644,-0.9761384129524231,0.05841822549700737,-0.6033651828765869,0.799719512462616,0.5803290605545044,-0.01686215028166771,-1.3336766958236694,-0.33763450384140015,-0.5012010931968689,0.41870495676994324,-1.181058645248413,0.4214314818382263,-0.1414579302072525,-0.8108169436454773,-0.06355621665716171,-0.5201321244239807,0.4226236045360565,0.2649179697036743,0.510473906993866,-0.23838022351264954,-0.5055429935455322,0.21527422964572906,-0.167913556098938,-0.3276636600494385,0.21322700381278992,0.9352050423622131,1.48329496383667,0.4906732738018036,-0.46726471185684204,-0.29479044675827026,0.541068434715271,-0.7919056415557861,-0.0950562059879303,-0.07447981089353561,-0.7357338070869446,-0.9282801747322083,-0.3004288673400879,0.5520637631416321,0.015886440873146057,0.39989998936653137,0.04631632938981056,0.6834315061569214,-1.6684365272521973,0.131996288895607,0.1168673112988472,-0.19149886071681976,-0.12180197238922119,-0.11919691413640976,0.5525602698326111,-0.22326351702213287,-0.27528753876686096,0.2935323715209961,0.8619316220283508,1.3602185249328613,2.3246610164642334,0.3839986026287079,-0.8139150738716125,0.09969352185726166,0.20039500296115875,1.0442930459976196,0.6026967167854309,-0.2423567771911621,-1.522074818611145,0.6306548714637756,-0.5739349126815796,-0.8368542194366455,-0.13832291960716248,-0.29087933897972107,0.6137489080429077,0.4383849501609802,0.4488925635814667,-0.06335309147834778,-0.1607174426317215,-0.371124267578125,0.6554660797119141,-0.25810733437538147,-0.8175272941589355,-0.39523038268089294,0.0926133468747139,0.20292817056179047,0.19176410138607025,3.2153031826019287,2.6882388591766357,0.31799226999282837,0.8422118425369263,0.3970364034175873,0.3000902533531189,-0.8537968993186951,-1.2155988216400146,-1.2291429042816162,-0.6805069446563721,-0.2647058963775635,-0.33872702717781067,0.4320913851261139,-0.48895713686943054,1.0833722352981567,0.020456843078136444,1.1585747003555298,0.5602844953536987,-0.35230380296707153,-0.9478106498718262,-1.7913116216659546,-0.9109667539596558,-0.7356693148612976,-0.5598569512367249,-0.21746417880058289,-0.8775525093078613,-0.6272988319396973,0.653720498085022,3.6645476818084717,2.2245969772338867,0.8332301378250122,0.15291863679885864,0.6203264594078064,0.6217467784881592,0.13109545409679413,-0.3779391050338745,-1.2009562253952026,0.4248049259185791,-0.30877047777175903,0.9228552579879761,-0.23327425122261047,1.206201434135437,0.7410802841186523,0.2136978954076767,-0.0592806413769722,1.0959162712097168,-0.5607315301895142,-0.08387988060712814,-1.1200311183929443,-1.0253435373306274,-0.8159188628196716,-0.4605567455291748,-0.42899996042251587,-1.0930951833724976,0.43473100662231445,0.38919612765312195,1.5058485269546509,1.5818511247634888,1.162976622581482,0.26559075713157654,-0.4210776090621948,-0.5247765183448792,0.3819011449813843,-0.0010967730777338147,-0.34640127420425415,-0.8469472527503967,0.2556944191455841,0.8352133631706238,0.6273615956306458,0.21861588954925537,0.7503503561019897,0.07800619304180145,-0.36834168434143066,-0.4928056597709656,-0.7421188354492188,-0.2291688770055771,-0.5375125408172607,-0.20358693599700928,-0.5892848968505859,-0.8102335929870605,-0.0513366274535656,-1.0375109910964966,0.23015710711479187,-1.1092886924743652,-0.31382128596305847,1.4650999307632446,-0.2983075976371765,-0.7111544013023376,-0.3807732164859772,0.9577255845069885,-0.19369737803936005,0.7080068588256836,-1.1124683618545532,0.5326908230781555,0.07846575230360031,0.5733447074890137,-0.03863706812262535,-0.3593599796295166,0.19639791548252106,-0.05892232060432434,0.1684841811656952,-0.0006840670830570161,0.2805085778236389,-0.9005076885223389,-0.5707459449768066,-1.6878360509872437,0.2806870937347412,-0.4176385700702667,0.34737950563430786,0.3425635099411011,0.25770118832588196,0.36249321699142456,-0.33926281332969666,0.5030153393745422,-0.18006335198879242,-0.42687752842903137,0.29968172311782837,0.799780011177063,-0.9730204343795776,0.64241623878479,-0.4769349694252014,-1.1619422435760498,-0.1402561068534851,-0.46143844723701477,-0.3808578550815582,0.220193013548851,-0.8749648332595825,-0.059456318616867065,1.5097755193710327,-0.24798981845378876,-0.4197014272212982,-0.6230006217956543,0.20045624673366547,-0.1417473405599594,-0.360711008310318,0.06960862129926682,-0.34262514114379883,0.42906996607780457,-0.3897630274295807,0.25811493396759033,0.07616307586431503,1.4604421854019165,0.9539763927459717,0.8971023559570312,0.15938787162303925,-0.6239763498306274,-0.5574917197227478,-0.36053845286369324,-0.05176283419132233,-1.09235417842865,0.26942917704582214,0.10544659197330475,0.26757174730300903,0.10305237025022507,0.7036848664283752,1.2908763885498047,0.28627052903175354,-0.6963998675346375,0.23411640524864197,-0.16150425374507904,-0.7990341186523438,-0.41019129753112793,-0.8778363466262817,-0.6604694128036499,-0.6063852906227112,-0.1521977037191391,0.44937554001808167,0.08264926820993423,-0.33550703525543213,0.5720739960670471,0.5734398365020752,0.4462447166442871,0.5485545992851257,-0.0015491159865632653,0.3402724266052246,0.8678948879241943,0.4372890293598175,-0.5723676085472107,0.30460599064826965,-0.34390386939048767,0.6211931109428406,0.2343972623348236,0.08369907736778259,0.26562297344207764,0.04649270698428154,0.10873805731534958,-0.3796282112598419,-0.789134681224823,-0.10698440670967102,0.2499239593744278,-0.5677273869514465,0.45921221375465393,-0.21282006800174713,0.3564080595970154,-0.9086580276489258,-0.8795309066772461,-0.4446946382522583,0.8960015177726746,1.267665147781372,-0.3799552321434021,0.23233859241008759,0.527359127998352,0.24716532230377197,-0.6413031816482544,-0.4163489043712616,-0.021845562383532524,0.6339207291603088,0.18151229619979858,-0.20127364993095398,0.3513514995574951,0.14516940712928772,0.32820606231689453,0.014274521730840206,-0.28562939167022705,-0.617735743522644,-0.8276041746139526,0.09417949616909027,-0.5804919004440308,-0.45341888070106506,-0.7126719355583191,-0.30753496289253235,-0.22957280278205872,-0.3933853209018707,0.3809109628200531,-0.4417073428630829,1.1681125164031982,-0.2293979525566101,-0.5392210483551025,-0.185699000954628,-0.15124309062957764,0.7048556804656982,0.8855703473091125,-0.751144289970398,-0.2620568871498108,0.6000300645828247,1.3548723459243774,-0.5059091448783875,1.215050458908081,1.2198108434677124,0.37636598944664,1.278411865234375,0.04041094705462456,0.12190104275941849,-0.339152067899704,0.4911332428455353,0.26998740434646606,0.18718993663787842,0.8381853699684143,-0.2686336934566498,0.10184821486473083,0.8327910900115967,-0.5215080380439758,0.9671154022216797,2.0053207874298096,0.07200592011213303,0.2630153000354767,0.48478683829307556,-0.656697690486908,-0.8986408710479736,0.3362503945827484,-1.2245856523513794,0.5782187581062317,-0.06149889528751373,0.5907101035118103,1.4047931432724,0.5362265706062317,1.2567142248153687,2.2483856678009033,1.590277075767517,2.251054286956787,0.763390839099884,0.7242640852928162,1.0966804027557373,0.6603659987449646,0.4263998866081238,0.7873565554618835,0.7269102931022644,0.6541610360145569,-0.2311139851808548,-1.033947229385376,0.26091498136520386,2.447521686553955,0.006712235044687986,0.8277319073677063,0.4937169849872589,0.33553749322891235,0.7834017872810364,0.5706404447555542,-0.9717706441879272,0.3304761052131653,0.9882039427757263,-0.19193454086780548,-0.17401842772960663,0.681964099407196,0.26222148537635803,0.039390500634908676,0.2739907503128052,0.5772551894187927,0.13556420803070068,-0.43661272525787354,-0.06478705257177353,0.26508206129074097,0.0630728155374527,-0.47846177220344543,-0.06373874843120575,-0.3834129273891449,0.16461649537086487,-0.08314737677574158,0.4432874917984009,1.891633152961731,-0.6951807737350464,0.05721776559948921,0.8262887597084045,0.4448401927947998,0.09663812816143036,0.6752812266349792,-1.4515252113342285,0.9290944337844849,0.7439148426055908,-0.500831663608551,0.4983710050582886,-0.028368817642331123,0.5823042988777161,-0.2549532651901245,0.7245765328407288,1.0465283393859863,0.7559109330177307,-0.34074196219444275,-0.04283430054783821,-0.024991748854517937,0.7108447551727295,0.6128864288330078,0.5383026599884033,-0.18096758425235748,0.34507885575294495,0.7897224426269531,0.42252033948898315,1.018582820892334,0.8422802090644836,0.13754257559776306,0.18580813705921173,0.7527137994766235,0.3723698854446411,0.16016598045825958,0.2808017432689667,-0.29767653346061707,0.4328106939792633,0.6476927995681763,0.42391154170036316,0.15481315553188324,0.9637065529823303,0.09901847690343857,0.13345268368721008,0.07678400725126266,0.18032053112983704,0.4274716377258301,0.004679326433688402,0.09671074897050858,-0.9616800546646118,0.4441302716732025,0.26944074034690857,0.37055256962776184,0.6195603609085083,1.603278636932373,1.8587108850479126,0.04355829209089279,0.9482065439224243,-0.8773573637008667,0.4076622724533081,-0.7982226610183716,0.33556559681892395,0.9062528610229492,-0.2565525472164154,0.14094814658164978,0.5848548412322998,-0.7955620884895325,-0.16115668416023254,0.3521784543991089,0.361454039812088,0.4532619118690491,-0.105157271027565,1.0647807121276855,0.6800954937934875,0.42211687564849854,0.37593844532966614,0.21318580210208893,-0.5726321339607239,0.6818743348121643,-0.34182631969451904,0.70882248878479,0.48658114671707153,1.6862856149673462,1.0786616802215576,0.1194756031036377,0.2697282135486603,-0.7517751455307007,0.5630496740341187,0.3194303512573242,0.633818507194519,-0.5165382027626038,-0.6207387447357178,-1.3502631187438965,0.37102964520454407,-0.5034812688827515,0.01995728351175785,0.6458345651626587,-0.6389060616493225,0.2853780686855316,0.35300731658935547,-0.420925498008728,0.29157838225364685,0.35461899638175964,0.13830795884132385,0.6139320731163025,-0.7369692325592041,-0.5200279355049133,1.329298496246338,1.2425360679626465,0.619175910949707,0.6843990683555603,0.3590986430644989,0.8482168316841125,-0.38592714071273804,0.38261085748672485,0.7706280946731567,-0.6688661575317383,0.19081950187683105,-0.15396748483181,-0.7713801860809326,0.4826793670654297,-1.491731882095337,-1.0163394212722778,-1.2162902355194092,-0.08436092734336853,0.7136096954345703,-0.26707443594932556,-0.2608676254749298,0.8567689061164856,0.08343607932329178,0.700223982334137,-0.03646208718419075,0.27790534496307373,0.8737471699714661,-0.5785402059555054,-0.10614809393882751,1.0531448125839233,0.14037223160266876,0.6172147989273071,-0.4697956144809723,1.1122841835021973,-0.7047612071037292,0.24289554357528687,0.5156875848770142,-0.07067251205444336,-0.32219111919403076,-0.000984275946393609,0.05831020325422287,-0.12884528934955597,-0.9454473257064819,-0.8115772008895874,-0.44104883074760437,-1.2519375085830688,-1.440409541130066,-0.5057739019393921,-0.70624178647995,0.5362745523452759,-0.3160035312175751,-0.3730522692203522,0.228935107588768,-0.5045115947723389,0.7733849883079529,-1.0343023538589478,0.5374988913536072,0.7437036037445068,0.6179913282394409,0.22908736765384674,-0.8597177267074585,-0.3505209982395172,0.7954123020172119,0.4110858142375946,-0.749231219291687,-0.8257092237472534,-0.7648665904998779,-0.42579877376556396,-0.13735124468803406,0.8867405652999878,-0.6289151310920715,-0.49269339442253113,-0.9660701751708984,-1.5669013261795044,-1.3950921297073364,-0.8335279822349548,-0.5732814073562622,-0.6646943092346191,-0.6801774501800537,-1.5349937677383423,0.08713769167661667,-0.3547668755054474,-1.3638474941253662,-0.21157866716384888,-0.26690584421157837,0.01601862907409668,0.33834126591682434,-0.6492550373077393,0.6074245572090149,-0.757446825504303,-0.4115564227104187,0.6103556156158447,-0.1280120611190796,0.3634355068206787,0.7416796684265137,0.16617965698242188,0.7050957679748535,-0.7100318074226379,0.5703215599060059,0.6368200778961182,0.7490894794464111,-0.8712159991264343,-0.748563289642334,0.19714760780334473,-0.7864671349525452,0.3803621828556061,-0.5440748929977417,0.304598867893219,-0.9843316078186035,-0.1745631992816925,0.5699162483215332,-0.43976908922195435,-0.9101318120956421,0.003904002020135522,-0.5130820870399475,-0.6543578505516052,-0.3062610626220703,0.42039287090301514,-0.7766896486282349,0.09343874454498291,0.49831700325012207,0.01550602912902832,-0.4713236093521118,0.5397332906723022,0.8320647478103638,0.35696840286254883,0.6038100719451904,-0.042317867279052734,0.5844869613647461,-0.5244704484939575,-0.7057268619537354,-0.07805705070495605,-0.8512109518051147,0.4058592617511749,-0.565497100353241,0.4157077968120575,-0.2479090541601181,-0.9136559963226318,0.7415434122085571,-0.9091454744338989,0.36909520626068115,0.16161584854125977,0.169158935546875,-0.47356462478637695,0.3751295804977417,-0.7537610530853271,-0.8341156244277954,-0.02207159996032715,-0.9159203767776489,0.0565105676651001,0.031165003776550293,0.25755953788757324,-0.3210209608078003,0.8953186869621277,0.8870319128036499,0.4145337641239166,0.06828420609235764,-0.7091573476791382,0.5682892203330994,0.239920973777771,0.3045567274093628,0.49770110845565796,-0.5991316437721252,0.012052468955516815,-0.0834619328379631,0.04300256818532944,-0.9527348279953003,0.522386372089386,-0.23154239356517792,0.7939671277999878,0.17363570630550385,0.6959138512611389,0.421686589717865,-0.07684469223022461,-0.25598907470703125,-0.07951188087463379,0.4878307580947876,-0.22112798690795898,0.7270878553390503,0.08246481418609619,0.9418783187866211,-0.14843834936618805,0.9047145247459412,-0.8633083701133728,0.803309977054596,-0.06917981803417206,0.6141034960746765,0.5823500156402588,-1.239408254623413,-0.2875213921070099,-0.47229182720184326,-0.7411608695983887,0.07479208707809448,-0.3247889280319214,0.039914797991514206,-0.33166268467903137,-0.9512818455696106,-0.32539841532707214,-0.2894684374332428,0.2607109844684601,-0.16524240374565125,-0.1299302875995636,0.5150470733642578,0.34250128269195557,-0.5830241441726685,-0.5616415739059448,-0.17436587810516357,0.29464191198349,-0.2833637595176697,-0.7402458190917969,0.9633857011795044,0.9057881236076355,0.5846652388572693,0.01829792559146881,1.1507599353790283,0.11909732222557068,0.5017920732498169,-0.2232055813074112,0.915583074092865,-0.5389014482498169,0.039440806955099106,0.14440473914146423,-0.5625416040420532,-0.17461149394512177,-0.6068952679634094,-0.6902153491973877,-0.7346749305725098,-1.4187774658203125,0.15863381326198578,-0.5626064538955688,0.2809181213378906,-0.09059266746044159,0.6288725137710571,0.917801022529602,-0.6223891973495483,-0.31251469254493713,0.7045624852180481,0.7822128534317017,0.744655191898346,-0.21064379811286926,0.040892113000154495,-0.27898481488227844,-0.25457942485809326,0.9272356629371643,0.09882509708404541,-0.36155709624290466,0.8013176321983337,0.2557307481765747,0.2159729152917862,0.8654767870903015,0.5509514808654785,-0.2880358099937439,0.18145358562469482,-0.17716345191001892,-0.7610868215560913,-0.8039749264717102,-1.227490782737732,-0.19322292506694794,-0.0776890218257904,0.5479545593261719,-0.6406327486038208,-0.8560779094696045,-0.5734195709228516,0.9602900743484497,1.0121335983276367,-0.42164942622184753,0.855579137802124,0.12126900255680084,-0.42535245418548584,0.9094499945640564,0.6092913746833801,-0.3880325257778168,-0.1618831306695938,0.6862726211547852,0.4916680157184601,0.5039770007133484,-0.14983847737312317,-0.07179377228021622,-0.43038928508758545,0.03761115297675133,-0.4821007251739502,-0.4233461618423462,0.12481994926929474,-0.5044612288475037,-1.0571640729904175,-0.5705773830413818,-0.28296542167663574,-1.020655870437622,0.8921135067939758,-0.5481185913085938,0.2652123272418976,0.3331436812877655,0.2749297320842743,1.0790992975234985,-0.6501461267471313,0.6212403774261475,0.1758420616388321,0.1721712201833725,0.2650584876537323,0.43042775988578796,-0.07039177417755127,-0.24426555633544922,-0.05142033100128174,0.5485351085662842,0.41536417603492737,0.3749527633190155,-0.23690418899059296,1.3129451274871826,0.09168674051761627,0.20823808014392853,-0.616359293460846,0.9602601528167725,-0.687066376209259,0.37422919273376465,-0.32217714190483093,-0.3388258218765259,0.793781042098999,0.4427345097064972,-0.2616376578807831,0.28272420167922974,-0.5338864922523499,0.48321032524108887,-0.33348754048347473,-0.021318454295396805,0.36289891600608826,0.08912086486816406,0.12370874732732773,-0.09596800804138184,0.5972089767456055,-0.6022506356239319,0.7400957942008972,0.9866610169410706,-0.928566038608551,0.7048080563545227,-0.8338526487350464,0.318755179643631,-0.39470526576042175,0.45820122957229614,0.8614247441291809,0.32049378752708435,-0.7149125933647156,-1.3847240209579468,-0.32776129245758057,0.25921630859375,0.19576387107372284,0.4205964505672455,-0.44380491971969604,0.5070989727973938,-0.6609658598899841,0.1297936886548996,0.6635816693305969,-0.17990800738334656,0.08328210562467575,-0.03512493520975113,0.5498972535133362,0.46311429142951965,0.6679380536079407,-0.2956398129463196,-0.21172527968883514,0.6538582444190979,-0.015993483364582062,-0.08073719590902328,0.5968655347824097,-0.5146099328994751,0.40754392743110657,0.6530700922012329,-1.0504255294799805,0.8574350476264954,-0.5880898237228394,-0.8723481297492981,-1.4544155597686768,0.24868418276309967,0.7074036002159119,-0.004506316501647234,0.052978381514549255,0.04822621867060661,-0.4934246242046356,-0.1044764444231987,-0.37966209650039673,0.06908151507377625,0.7875844836235046,-0.5203307271003723,0.48005929589271545,0.515125036239624,0.22080086171627045,0.25060707330703735,-0.11478576064109802,0.7418407797813416,0.8743206262588501,0.09850405901670456,0.954457700252533,0.6254912614822388,0.20509956777095795,-0.047456640750169754,-0.39220792055130005,0.5519111156463623,-0.21677660942077637,-1.1523834466934204,-0.7627893090248108,-0.19672907888889313,0.6636528968811035,-0.017890634015202522,-0.34501197934150696,0.8903111219406128,-0.03128162771463394,0.05101637914776802,-0.24670274555683136,0.60154789686203,0.0505763441324234,0.22955147922039032,0.776127278804779,-0.4484598934650421,-0.4876815676689148,-0.02297094278037548,-0.6461175084114075,0.1608828753232956,1.241597056388855,0.7805231809616089,0.20548224449157715,0.14721405506134033,-0.8597546815872192,0.2341000884771347,-0.818083643913269,-1.6621787548065186,-0.9278661012649536,-0.481523722410202,-0.4435122609138489,0.8529003858566284,0.05173521116375923,-0.187542125582695,0.02187095768749714,-0.32523971796035767,0.22910644114017487,-1.178966999053955,-1.0448968410491943,-0.7884986996650696,-0.26458731293678284,0.3881206512451172,-0.24000412225723267,-0.2347317337989807,-0.6986182928085327,-0.9195210337638855,-1.4360442161560059,-1.5623252391815186,0.6850811243057251,-0.5696675777435303,-0.383002370595932,0.2895693778991699,0.12866951525211334,-1.2455246448516846,0.24995724856853485,0.5846266746520996,-0.20221072435379028,-0.21054238080978394,-0.6360272169113159,-0.3059702515602112,0.1523093283176422,-0.4943036139011383,0.2771865129470825,-0.9061133861541748,-0.10244093090295792,-1.8275362253189087,-0.44573771953582764,-2.2652206420898438,-2.941671848297119,-1.9806877374649048,-3.755831718444824,-2.446458101272583,-2.5367774963378906,-1.9204096794128418,-2.081134796142578,-1.903923749923706,-0.963641345500946,0.02731419913470745,-0.9199705123901367,0.14364570379257202,-0.2581070065498352,-0.33954644203186035,0.021698949858546257,-0.9344104528427124,-1.675944447517395,-0.16837428510189056,0.8352900743484497,-0.05058407783508301,0.3588235080242157,-0.9175260663032532,-0.04896869510412216,-0.6373112797737122,-0.3648339807987213,-2.0975658893585205,-1.4616119861602783,-3.9874825477600098,-2.995835542678833,-3.0908355712890625,-1.4071311950683594,-0.5245720744132996,-1.0309287309646606,0.013791774399578571,-0.5430222749710083,0.2111971378326416,-0.7028916478157043,-0.35014745593070984,-0.14917109906673431,0.3077670931816101,-0.43409132957458496,-1.0066726207733154,0.7612876296043396,0.03672678396105766,-0.9900127053260803,0.8352867960929871,0.049416299909353256,0.6794698238372803,0.49895694851875305,0.40749675035476685,-0.8372126817703247,-0.6394035816192627,-0.15904928743839264,-0.7508798241615295,-1.5269473791122437,-1.0703115463256836,-1.3610599040985107,-0.00613994337618351,0.8215296864509583,-0.5413705706596375,0.5885127782821655,-0.5846976637840271,-0.20440995693206787,0.12471288442611694,-0.45752081274986267,-0.5189385414123535,-1.0980640649795532,0.8783928155899048,-0.342977374792099,0.10306072235107422,-0.6951375603675842,0.14109250903129578,0.06690945476293564,0.9328657388687134,1.1506153345108032,0.5990334153175354,-0.10504664480686188,0.24762190878391266,-0.11066098511219025,-0.005305377766489983,0.3801061809062958,-0.9269239902496338,0.6521035432815552,0.05096973106265068,0.6909996867179871,0.16513022780418396,-0.03829175606369972,0.10403920710086823,0.3905431926250458,-0.21604405343532562,0.7836083769798279,0.5080527663230896,0.5545331239700317,0.7193741202354431,0.4490020275115967,-0.6408746838569641,-0.24101616442203522,-0.5131509304046631,0.455875426530838,-0.09967006742954254,-0.4565984010696411,0.11609863489866257,0.021209901198744774,0.9390201568603516,-0.5881907343864441,0.5991416573524475,0.7071403861045837,0.6007939577102661,-0.46282050013542175,0.49638983607292175,-0.11754313111305237,1.4113008975982666,0.059650763869285583,-0.4162214696407318,0.5192790627479553,0.2133646458387375,0.459555983543396,-0.19466766715049744,0.0880802720785141,-0.5952037572860718,-0.7904639840126038,0.0746205672621727,0.3483106791973114,0.17658549547195435,-0.17176328599452972,-0.15124662220478058,-0.033436600118875504,0.7043861150741577,-0.29710158705711365,0.2552189826965332,1.5841577053070068,1.8157389163970947,-0.39670807123184204,0.4377298355102539,-0.04484322667121887,-0.04838525131344795,0.2635739743709564,-0.33822065591812134,0.2611408233642578,0.8297231197357178,0.5141552090644836,1.1144704818725586,0.6478506326675415,0.0007234590593725443,0.0020477846264839172,0.5563016533851624,0.7695069909095764,-0.06833503395318985,0.9230905771255493,-0.3538632392883301,-1.507198452949524,0.11803936958312988,-0.45782244205474854,-0.6065577268600464,-0.24870146811008453,-0.5646595358848572,0.2759885787963867,0.49014726281166077,0.3156808614730835,1.2148114442825317,0.15679043531417847,0.3853362500667572,0.5404334664344788,-0.9352775812149048,-0.7736570239067078,0.43509387969970703,0.14401985704898834,-0.03592049330472946,0.9764826893806458,-0.008946476504206657,0.8063567876815796,0.6202706098556519,0.6786606907844543,0.858220100402832,1.4198336601257324,0.8256884217262268,-0.21969863772392273,-0.24564778804779053,0.40205448865890503,-0.6569365859031677,-0.16529515385627747,0.015538161620497704,-0.20728738605976105,0.09824036061763763,0.3378187417984009,1.0266014337539673,1.2477655410766602,-0.2766279876232147,0.6971814036369324,0.6062711477279663,-0.6171262860298157,0.744648814201355,-1.1276253461837769,0.4319077432155609,-0.6596433520317078,0.3011798858642578,0.7560670971870422,-0.9294796586036682,0.0564766600728035,0.28148794174194336,0.030915668234229088,0.06526776403188705,-0.18520835041999817,-0.16177822649478912,0.004089473746716976,-0.044732674956321716,0.41212818026542664,-0.21259865164756775,0.25275108218193054,0.22177930176258087,0.05432656779885292,0.4489646553993225,-0.3288716673851013,1.0911381244659424,0.6509458422660828,-0.33313941955566406,-0.612619936466217,-0.3482016324996948,-0.8214399814605713,0.32068195939064026,-0.1123170256614685,0.24207086861133575,-0.009058570489287376,0.6514374613761902,0.597547173500061,0.7129478454589844,0.5410597324371338,-0.1452505737543106,-0.05221747234463692,0.25682371854782104,-0.03628247603774071,0.38965487480163574,-1.0763819217681885,0.3719026744365692,-0.7774965763092041,-1.0180761814117432,0.20758427679538727,-0.1446652114391327,-0.3356972336769104,0.7135720252990723,0.23599094152450562,1.3058974742889404,0.11468466371297836,0.2969796657562256,0.09575711935758591,-0.7663163542747498,0.06014178320765495,-0.5916470289230347,-0.2839941084384918,0.03771381825208664,-0.7867434620857239,-0.711859405040741,-0.8893737196922302,-0.45726263523101807,-0.050608064979314804,0.2404826283454895,0.2562408447265625,-0.27529433369636536,-0.3053463101387024,0.2272772490978241,-0.6541092395782471,0.22112062573432922,-0.25628697872161865,0.09359005093574524,-0.031059961766004562,0.4767604470252991,-0.3584451973438263,1.0601624250411987,0.40747806429862976,1.415460467338562,0.4366132915019989,-0.6617183685302734,0.43838855624198914,-0.2037266194820404,-0.5292348861694336,0.5315651893615723,-0.10048830509185791,-0.29767322540283203,0.9593561291694641,0.3403722643852234,0.8266631960868835,0.5430306196212769,0.5292430520057678,-0.5815349817276001,0.3528665006160736,-0.2959870398044586,-0.6341838836669922,-0.1903126984834671,-0.29886963963508606,-0.892524778842926,0.3134835660457611,0.49540650844573975,0.3358502686023712,-0.1568821519613266,0.5257095098495483,-0.13578395545482635,0.22012247145175934,1.3461463451385498,-0.4785025417804718,0.414910227060318,-0.3873806893825531,0.37878262996673584,-0.5094479322433472,0.9659972786903381,-0.14307770133018494,-0.31396085023880005,0.4255366027355194,0.2933148443698883,0.2421533465385437,-0.7634750604629517,-0.0941447913646698,-0.17389117181301117,-0.8562152981758118,0.28464457392692566,-0.7963857650756836,0.12703894078731537,-0.2836570143699646,-0.8522265553474426,-0.8554354906082153,-0.7922753691673279,0.004380661528557539,0.36422961950302124,1.2441095113754272,0.265841543674469,0.7584490776062012,0.8117870688438416,-0.7194687724113464,0.5414679646492004,-0.524250864982605,0.2456681728363037,-0.38440144062042236,0.7264556884765625,-0.9037354588508606,-0.506811261177063,0.5562195777893066,0.026504356414079666,-0.5272914171218872,0.4258057475090027,-0.9224044680595398,-0.24122655391693115,0.22225792706012726,-1.108091950416565,0.47698038816452026,-0.43357351422309875,-0.8372422456741333,-0.4243386685848236,-0.14499984681606293,-0.41932037472724915,-0.9998096823692322,-0.016169488430023193,-0.09118737280368805,0.2829475402832031,0.517250657081604,1.0831242799758911,-0.1069653183221817,-0.9679791927337646,-0.24093031883239746,0.9482834339141846,0.6406886577606201,-0.6735221147537231,-0.4379901885986328,-0.12634935975074768,0.559083104133606,-0.6371723413467407,-0.9806056022644043,-0.5402923226356506,-1.0925284624099731,0.23344439268112183,0.14345332980155945,0.736851155757904,-0.6639910936355591,-0.12381672859191895,1.1558419466018677,-0.3102829158306122,-0.8213443160057068,-0.803958535194397,-0.5493227243423462,-1.5752551555633545,-0.5271756649017334,-0.7215597033500671,-1.031234860420227,0.8050690293312073,-0.20360587537288666,-0.05123524367809296,0.3123987913131714,0.2776573896408081,0.23858129978179932,0.08125138282775879,0.866801381111145,0.7750200629234314,0.45704811811447144,0.7959615588188171,-0.5616642236709595,-0.18386898934841156,0.3147132694721222,-0.6748582124710083,1.0888925790786743,0.7414429187774658,0.2050090879201889,0.7361428737640381,-0.6665006279945374,0.8298738598823547,-0.2576192021369934,-0.010001185350120068,-0.23343081772327423,0.4474204182624817,0.6282852292060852,-0.15268799662590027,0.5874592065811157,0.9934364557266235,0.3960966169834137,-0.019497036933898926,0.6532504558563232,0.9041961431503296,-0.8050433397293091,0.15912818908691406,0.5693740844726562,-0.6557130217552185,-0.15087223052978516,0.6245753169059753,-0.4894237816333771,-0.5121290683746338,-0.32792848348617554,0.8900796175003052,-0.4468381702899933,0.2947612702846527,0.224153071641922,-0.2697119116783142,0.9992507696151733,-0.7704774141311646,0.9001137614250183,0.5589639544487,0.6094667911529541,0.015171411447227001,0.6923200488090515,0.9246578216552734,0.5675708055496216,-0.9753161668777466,0.8144959211349487,0.2512422800064087,0.03472089767456055,-0.6954662799835205,-0.07197892665863037,0.7886133193969727,0.8111085891723633,0.644838809967041,0.019716382026672363,-0.7260056734085083,0.4032241106033325,-0.6142182350158691,0.99808669090271,0.4993957281112671,0.3189653158187866,0.7078089118003845,-0.08190575242042542,0.1898108869791031,0.8781622648239136,0.2108163833618164,0.8180010318756104,-0.0591425895690918,0.620120644569397,0.7290661334991455,-0.656012773513794,-0.9363946914672852,0.16283965110778809,-0.12381517887115479,-0.1452726125717163,-0.8770503997802734,-0.6522842645645142,-0.35925865173339844,0.9119553565979004,0.17191064357757568,-0.2892528772354126,0.40240684151649475,0.1909204125404358,0.36815550923347473,0.35456737875938416,-0.2804964482784271,0.9866214990615845,-0.06708964705467224,-0.49260425567626953,0.3518916368484497,0.22117148339748383,-0.100032277405262,-0.6646901965141296,-0.0569094680249691,0.48701947927474976,-0.39128169417381287,0.7450271248817444,-0.8649534583091736,0.5982739925384521,0.16742341220378876,0.24636274576187134,0.03800392150878906,-0.1570354700088501,-0.4831897020339966,-0.5293593406677246,-0.00727236270904541,-0.7784343957901001,-0.8707261085510254,-0.013949228450655937,0.4864771366119385,0.6083558797836304,-0.7499155402183533,-0.49007323384284973,0.04354187473654747,0.40837132930755615,0.35581228137016296,0.6225411295890808,-0.9267561435699463,-0.9212648868560791,0.7389733791351318,0.20687003433704376,0.17367948591709137,-0.3058377206325531,-0.18582755327224731,0.9334389567375183,-0.44498685002326965,-0.5132721662521362,-0.03500019758939743,-0.7973854541778564,0.1392904371023178,-0.8104745745658875,-0.8801559209823608,0.3954726457595825,0.32571303844451904,0.04894542694091797,0.5455954074859619,-0.6222514510154724,0.8056231737136841,0.5817922949790955,0.6610525250434875,-0.7077087163925171,0.8487052321434021,-0.47417235374450684,-0.648203432559967,-0.24132773280143738,-0.1590360552072525,-1.219014286994934,-0.5973749160766602,-1.17392897605896,0.29412293434143066,-0.8817303776741028,-0.01892063021659851,-0.5759397149085999,-0.5708497762680054,-0.39456403255462646,0.35233789682388306,-0.9023734927177429,0.04678409546613693,-0.8439174294471741,0.07690174877643585,0.013363003730773926,-0.4651402235031128,0.8516165018081665,-0.45175671577453613,-0.24780233204364777,0.3562083840370178,0.6743008494377136,0.28861069679260254,-0.10449934750795364,-0.8356806039810181,-1.199387788772583,-0.04350157827138901,-0.0418480820953846,-0.11395705491304398,0.1954900622367859,-0.3908282518386841,0.7918545007705688,0.2967490255832672,-0.04144774749875069,0.14944994449615479,-0.5356057286262512,-0.13574793934822083,-1.4898245334625244,0.30697154998779297,0.6026135683059692,-0.23581276834011078,-0.46762439608573914,-0.33827388286590576,0.035737309604883194,0.23063921928405762,-0.12346971035003662,0.20571716129779816,0.37982264161109924,-0.2530905604362488,-1.0239942073822021,-0.3935312032699585,-1.1426541805267334,-1.8358467817306519,-0.573795735836029,-0.227784663438797,1.055577278137207,0.2886599600315094,0.8415748476982117,1.370826244354248,-0.027979807928204536,0.7620033621788025,0.4123477339744568,0.5131152272224426,-0.5170614123344421,0.3652219772338867,-0.07205069810152054,-0.246096670627594,-0.7777154445648193,0.7777599692344666,-0.7616811394691467,0.1158917099237442,-0.3375881314277649,-0.589832067489624,0.37345707416534424,-0.47937309741973877,-0.5860263109207153,0.8024187088012695,0.33413946628570557,-0.26937124133110046,-0.7771903276443481,-0.4937826097011566,-0.8056994676589966,0.2857084274291992,0.5548502206802368,-0.6610278487205505,0.5783209800720215,0.00865329522639513,0.8044012188911438,-0.9129267334938049,-0.06615748256444931,0.28188997507095337,0.8090526461601257,0.7713620662689209,0.2554054856300354,0.9499059915542603,0.9669382572174072,-0.29653695225715637,0.8411858081817627,0.14143411815166473,-0.23350973427295685,-0.49853289127349854,-0.30108723044395447,0.12055579572916031,-0.7771458029747009,-0.20766495168209076,-0.8753314018249512,-1.0059027671813965,0.7602412104606628,0.4852631390094757,0.3658817708492279,0.010648218914866447,0.14239440858364105,-0.24279427528381348,-0.3252076506614685,-0.16846583783626556,0.3554669916629791,-0.5270259380340576,0.07124660909175873,-0.3076527714729309,0.5725963115692139,-0.028579678386449814,0.13737493753433228,-0.19969405233860016,0.2312443107366562,0.8179763555526733,-0.10948070883750916,-1.0940016508102417,-0.7540934085845947,-0.6225333213806152,-0.4385317265987396,-0.3947373926639557,0.5861514210700989,-0.8534369468688965,-0.16096974909305573,0.3646727204322815,-0.6744047403335571,-0.21608296036720276,0.2813652455806732,0.2343292236328125,0.6599866151809692,0.3807603120803833,0.7990200519561768,-0.42957261204719543,0.5437422394752502,-0.16866528987884521,0.04288813844323158,0.33131125569343567,0.015862664207816124,0.5155057907104492,0.36824682354927063,0.20840387046337128,0.967228353023529,1.6220120191574097,-0.31493139266967773,0.42325761914253235,0.9570840001106262,0.6224287748336792,-0.3347589373588562,0.7225467562675476,-1.1270451545715332,0.853313684463501,1.0297666788101196,0.9444171190261841,0.8590337038040161,0.33434557914733887,-0.030322570353746414,-0.32557791471481323,-0.6502345204353333,-0.8939476013183594,-0.3882008492946625,0.02307179383933544,-0.03408094495534897,0.4535125195980072,-0.363420307636261,-0.02270027995109558,-0.249440997838974,0.09417184442281723,-0.44462043046951294,0.21325460076332092,0.987032413482666,0.5442078709602356,0.6614384055137634,0.5056143999099731,-0.4943733811378479,0.026577407494187355,0.975201427936554,0.34747666120529175,-0.6991952061653137,0.4840097427368164,-0.06630520522594452,0.18805432319641113,0.6986604332923889,-0.45077869296073914,-0.631868302822113,-0.263365238904953,0.18603786826133728,0.6885700225830078,-0.034350715577602386,0.5043110847473145,-1.2010003328323364,0.5435311198234558,0.17552079260349274,-0.09909079968929291,-0.0886787474155426,-0.08738597482442856,0.023227090016007423,0.8921422362327576,1.5556528568267822,1.2945713996887207,0.4343159794807434,1.151502013206482,-0.3504386842250824,0.12784215807914734,-0.5793611407279968,-0.4105277359485626,0.06963421404361725,-0.12250841408967972,-0.7150242328643799,-0.5524715185165405,-1.8460338115692139,-0.1891373246908188,-0.29635754227638245,0.13290879130363464,-0.290518194437027,-0.18171076476573944,0.9926030039787292,1.0697669982910156,-1.4988839626312256,-0.7320093512535095,-1.1286747455596924,-0.7197016477584839,-0.2743152976036072,-0.020938102155923843,-0.384309858083725,-0.8621230125427246,1.192671537399292,0.6112569570541382,0.8441299200057983,-0.3678206205368042,-0.2202969193458557,-0.6089919805526733,-0.38478538393974304,0.843932032585144,0.38017547130584717,-1.0645650625228882,-0.3069673180580139,-1.2772802114486694,-0.22154518961906433,0.1624831259250641,0.013953117653727531,0.3437531888484955,0.300309419631958,0.2089097648859024,0.9681223630905151,0.4839594066143036,-0.4612223505973816,-1.548896074295044,-0.8050070405006409,-1.581164002418518,-0.7344620823860168,-1.4049474000930786,0.5351652503013611,0.6055121421813965,0.8610517978668213,0.7068016529083252,-0.5959330201148987,0.8487013578414917,-0.23526649177074432,0.407459020614624,0.6654320955276489,0.2080470621585846,0.854884684085846,-1.1785355806350708,0.3593086898326874,0.12704099714756012,0.8531218767166138,-0.9770085215568542,-0.2030271291732788,-0.2551295757293701,-0.267412394285202,0.5550214648246765,0.7176698446273804,-0.31981486082077026,-1.0185067653656006,-0.5049594044685364,-0.7643824219703674,-0.0013510265853255987,0.15248654782772064,-1.2556334733963013,-1.9929765462875366,0.6112918257713318,2.0561389923095703,0.31854432821273804,-0.6950578689575195,0.3939424157142639,-0.48456254601478577,-0.5787041187286377,0.8265464305877686,-0.15628325939178467,-0.31310218572616577,-0.3045082986354828,-0.8074102997779846,-1.171574354171753,0.24112093448638916,-0.2884769141674042,-0.15461373329162598,-0.6438537240028381,0.15893954038619995,0.11959205567836761,-0.11545968800783157,-0.045897047966718674,-0.5059530735015869,-0.7535930275917053,-1.025745153427124,-0.6493991613388062,-1.4391686916351318,-0.6382573843002319,-0.6467932462692261,-0.7546641230583191,0.8734002709388733,0.4638437032699585,0.9375617504119873,0.40140005946159363,0.9348528981208801,0.5900828838348389,0.6676637530326843,0.01742064580321312,-0.8764908313751221,-0.4895513951778412,-0.9163702130317688,-0.23185858130455017,-0.435295045375824,-0.2630617618560791,-0.10951196402311325,-0.0599282905459404,-0.38479697704315186,1.2837737798690796,0.4631711542606354,-0.20276010036468506,-1.1916178464889526,-0.4912969768047333,-1.8725078105926514,-1.4254889488220215,-1.358974814414978,-1.3499164581298828,-0.044361431151628494,0.9586654901504517,0.19441282749176025,1.1577789783477783,-0.827704131603241,0.34004679322242737,0.18346364796161652,0.9835100173950195,0.6478583216667175,-0.059570349752902985,-0.2656244933605194,0.09358418732881546,-0.194440096616745,-1.2286186218261719,-0.5937271118164062,0.28928378224372864,0.02561301924288273,0.206466406583786,0.07381092011928558,0.6231732368469238,0.34462231397628784,-1.3902608156204224,-1.3522669076919556,-0.6457050442695618,-1.0074126720428467,-0.23654194176197052,-0.12281626462936401,-0.2716539800167084,-0.5899850726127625,1.0992199182510376,0.36951297521591187,0.15199868381023407,0.31488218903541565,-0.6213139891624451,0.5990821719169617,0.3129448890686035,-0.8446249961853027,-0.5957162380218506,0.13395200669765472,0.4890992045402527,-1.0330771207809448,0.572719156742096,-0.3942517042160034,-0.44316303730010986,-0.47324419021606445,0.007540351711213589,0.5127584934234619,0.27703940868377686,0.20431320369243622,-0.7464463114738464,-1.1558551788330078,-0.5473501682281494,-0.979903519153595,-0.2593081295490265,0.20105639100074768,-0.1372600495815277,-0.40545395016670227,0.4382544755935669,-0.8247632384300232,0.8105114102363586,0.5898619890213013,0.7895035147666931,0.23672086000442505,0.9015965461730957,-0.4604220986366272,0.5315551161766052,0.06337758898735046,-1.0869028568267822,0.7195079326629639,-0.022934630513191223,0.31718242168426514,-0.2621884346008301,0.6919969320297241,-0.4162854254245758,0.1900167465209961,0.10649574548006058,-0.37784987688064575,-0.07887040823698044,-0.755484402179718,0.13344576954841614,0.3909046947956085,0.8531710505485535,-0.426591157913208,-0.26214471459388733,1.164257287979126,0.9123324155807495,0.3560115098953247,0.46351486444473267,-0.28942686319351196,-0.08957267552614212,0.6763464212417603,-0.9044374227523804,0.23277604579925537,0.3116171360015869,0.990238606929779,0.5161065459251404,1.542683720588684,0.5790873169898987,0.9932326078414917,0.7861743569374084,1.8125734329223633,0.7335260510444641,0.7448228001594543,0.3476896584033966,-0.09548689424991608,-0.10316356271505356,-0.3144214451313019,-0.027417777106165886,-0.3135533332824707,0.5158226490020752,0.9013283848762512,0.5375536680221558,-0.014129849150776863,1.1896018981933594,0.4618299901485443,0.5733440518379211,-0.955065906047821,0.9814767837524414,-0.9322470426559448,0.9487380981445312,-0.21453087031841278,0.11264865845441818,-0.2876514494419098,0.7079675793647766,0.20334582030773163,0.9854889512062073,1.1679966449737549,1.6368374824523926,0.778640866279602,1.2441463470458984,0.6719209551811218,0.728354275226593,0.7239047884941101,0.30490902066230774,-0.08388420939445496,0.38721153140068054,-0.05218181386590004,0.293834924697876,0.5267663598060608,0.6236557960510254,1.0090042352676392,1.6324448585510254,0.8443284034729004,-1.2197843790054321,-0.7632497549057007,0.39366182684898376,0.5920161604881287,-0.07912871986627579,0.03265940025448799,0.2866058647632599,0.850062370300293,0.46679940819740295,1.7957357168197632,0.7388827800750732,0.7049524188041687,1.0952961444854736,0.05532688647508621,1.3745726346969604,1.3833009004592896,0.569517970085144,1.2581915855407715,0.5282986164093018,1.6845911741256714,-0.05668880417943001,1.1644697189331055,1.0743889808654785,0.7863627076148987,1.249616026878357,0.5894244313240051,0.29385215044021606,0.7532666921615601,0.4506482183933258,-0.0003664442920126021,0.7025869488716125,0.3224908113479614,-0.08045193552970886,-0.0586063526570797,0.7681596875190735,1.219538688659668,1.187485933303833,0.32646095752716064,1.0250362157821655,0.8350629210472107,-0.08033432811498642,0.5456037521362305,0.5490201115608215,0.43494874238967896,1.3198235034942627,0.8842977285385132,1.4091925621032715,0.9536211490631104,0.3915344476699829,1.6259609460830688,-0.41613906621932983,0.9016988277435303,-0.08277193456888199,1.4574192762374878,-0.15821276605129242,0.015115117654204369,-1.1554265022277832,-0.3197464942932129,-0.7102559804916382,0.42640841007232666,-0.1254340410232544,-0.5553401708602905,0.3992086350917816,1.1532223224639893,0.19082389771938324,0.014993783086538315,-0.227563738822937,0.3820546567440033,-0.12818793952465057,0.9372882843017578,-0.05728023126721382,0.8409832119941711,1.2158303260803223,0.5499967932701111,0.49374374747276306,0.9745543599128723,1.623605728149414,1.1950457096099854,0.8290216326713562,0.7958259582519531,-0.04642628878355026,-0.11554404348134995,0.6011446714401245,0.8596794009208679,0.129802867770195,0.023634042590856552,-0.1311119943857193,0.37816810607910156,0.8177857398986816,-0.4689065217971802,0.35900622606277466,-0.6059589385986328,-0.015836339443922043,-0.4769897758960724,-1.207301378250122,-0.09662802517414093,0.45721837878227234,0.6961590647697449,-0.7037618160247803,0.29138216376304626,0.9796344637870789,0.4708346128463745,0.7596361041069031,0.919002890586853,0.7321521639823914,-0.31944766640663147,1.8444116115570068,1.1400368213653564,-0.11682376265525818,-1.191993236541748,-0.3504919409751892,0.39854660630226135,0.2641974091529846,-0.8841933608055115,-0.4544335603713989,-0.19517648220062256,-0.0923161506652832,0.08533728122711182,0.44394102692604065,0.6307846307754517,0.8163093328475952,-0.8485159277915955,-0.12051086872816086,-0.9008671641349792,-0.2913403809070587,-0.4937395751476288,0.630054771900177,-0.3170010447502136,0.007990226149559021,0.17459049820899963,-0.48448652029037476,0.8843494653701782,0.2689265012741089,-0.1548488736152649,-0.09251390397548676,-0.6651091575622559,-1.246940016746521,-1.7394911050796509,-0.4810081422328949,-0.46752339601516724,-0.25872549414634705,0.18962638080120087,-0.6900482177734375,-0.9008890390396118,0.06564021110534668,0.8461990356445312,0.9450640678405762,-0.8662458658218384,0.48662877082824707,-1.0659961700439453,-0.6204404234886169,-0.2884145677089691,-1.7914372682571411,-0.700933039188385,-0.5242990255355835,-0.8025721907615662,-0.37885960936546326,-1.2338721752166748,-0.7457025051116943,-0.8709756135940552,-0.31562262773513794,-0.4436613917350769,-0.005807448644191027,-0.8164165019989014,0.5989210605621338,0.03531470149755478,0.7224130630493164,0.6876175403594971,0.06935007870197296,0.0768895298242569,0.33292245864868164,0.2270958423614502,-0.35568392276763916,-0.35069990158081055,0.10410618782043457,0.9936307668685913,-0.4057314395904541,-0.7646233439445496,0.2873009443283081,-0.24766194820404053,-0.7489106059074402,0.39306578040122986,-0.3610427677631378,0.6572754979133606,0.8562449812889099,-0.7062839865684509,0.08441062271595001,0.1283852607011795,0.18770867586135864,-0.6803392767906189,-0.20229750871658325,-0.12574268877506256,-0.28038156032562256,-0.34268373250961304,0.6251986622810364,0.6911252737045288,0.22626960277557373,0.626746416091919,-0.9873765707015991,-0.5335084199905396,-0.8039646148681641,0.41279006004333496,-0.33258914947509766,0.8672788143157959,-0.6979713439941406,0.6089944839477539,-0.2692626714706421,0.7044013738632202,0.36158156394958496,0.22656452655792236,0.9821147918701172,-0.7131080627441406,0.6849201917648315,0.09055808931589127,-0.1986449807882309,0.6741973757743835,-0.03512001037597656,-0.47964680194854736,0.2800929546356201,0.9804530143737793,-0.9691044092178345,-0.3504171371459961,0.34488511085510254,0.5804668664932251,-0.008621931076049805,0.5413204431533813,0.8344594240188599,0.8288590908050537,0.465274453163147,0.12681841850280762,0.778627872467041,-0.27427470684051514,0.8125700354576111,0.6321023106575012,-0.7948951125144958,-0.3253627419471741,-0.1089598760008812,-0.38744959235191345,0.16106343269348145,0.508500874042511,0.7673025727272034,-0.015384353697299957,-0.7118353843688965,0.5622072219848633,0.8844247460365295,0.3975767195224762,-0.1891322135925293,0.21566089987754822,0.4966084361076355,0.5586687326431274,-0.3854295611381531,0.07639667391777039,0.6845145225524902,-0.6311993598937988,-0.24592113494873047,