{"layers":[{"biases":{"data":[0.12643064558506012,0.41820985078811646,0.6498644351959229,-0.7351565957069397,-0.5396336913108826,1.0904136896133423,-0.3661854565143585,-0.675066351890564,0.8666488528251648,-1.485662817955017,-0.8722681403160095,0.3520006239414215,0.4368835687637329,0.053951628506183624,-0.5063413381576538,0.6227256059646606,0.31091010570526123,0.8228567838668823,-0.06863360106945038,0.08215245604515076,-0.3833501636981964,-0.33567291498184204,-0.2898107171058655,-0.13152192533016205,-0.40707850456237793,0.6724234819412231,0.7043161988258362,0.6993848085403442],"dim":[28,1],"v":1},"input":{"data":[0.0,0.0,0.0,0.0,0.0,0.0,0.0,0.0,0.0,0.0,0.0,0.0,0.0,0.0,0.0,0.0,0.0,0.0,0.0,0.0,0.0,0.0,0.0,0.0,0.0,0.0,0.0,0.0,0.0,0.0,0.0,0.0,0.0,0.0,0.0,0.0,0.0,0.0,0.0,0.0,0.0,0.0,0.0,0.0,0.0,0.0,0.0,0.0,0.0,0.0,0.0,0.0,0.0,0.0,0.0,0.0,0.0,0.0,0.0,0.0,0.0,0.0,0.0,0.0,0.0,0.0,0.0,0.0,0.0,0.0,0.0,0.0,0.0,0.0,0.0,0.0,0.0,0.0,0.0,0.0,0.0,0.0,0.0,0.0,0.0,0.0,0.0,0.0,0.0,0.0,0.0,0.0,0.0,0.0,0.0,0.0,0.0,0.0,0.0,0.0,0.0,0.0,0.0,0.0,0.0,0.0,0.0,0.0,0.0,0.0,0.0,0.0,0.0,0.0,0.0,0.0,0.0,0.0,0.0,0.0,0.0,0.0,0.0,0.0,0.0,0.0,0.0,0.0,0.0,0.0,0.0,0.0,0.0,0.0,0.0,0.0,0.0,0.0,0.0,0.0,0.0,0.0,0.0,0.0,0.0,0.0,0.0,0.0,0.0,0.0,0.0,0.0,0.0,0.0,0.0,0.0,0.0,0.0,0.0,0.0,0.0,0.0,0.0,0.0,0.0,0.0,0.0,0.0,0.0,0.0,0.0,0.0,0.0,0.0,0.0,0.0,0.0,0.0,0.0,0.0,0.0,0.0,0.0,0.0,0.14901961386203766,0.1882352977991104,0.1882352977991104,0.08627451211214066,0.0,0.0,0.0,0.0,0.0,0.0,0.0,0.0,0.0,0.0,0.0,0.0,0.0,0.0,0.0,0.0,0.0,0.0,0.0,0.0,0.0,0.24313725531101227,0.3803921639919281,0.7764706015586853,0.9529411792755127,0.9960784316062927,0.9960784316062927,0.8313725590705872,0.10588235408067703,0.0,0.0,0.0,0.0,0.0,0.0,0.0,0.0,0.0,0.0,0.0,0.0,0.0,0.0,0.0,0.0,0.0,0.0,0.0,0.26274511218070984,0.6745098233222961,0.9960784316062927,0.9960784316062927,0.8823529481887817,0.8549019694328308,0.8549019694328308,0.929411768913269,0.9725490212440491,0.1568627506494522,0.0,0.08235294371843338,0.6431372761726379,0.7333333492279053,0.0,0.0,0.0,0.0,0.0,0.0,0.0,0.0,0.0,0.0,0.0,0.0,0.0,0.3490196168422699,0.8588235378265381,0.9960784316062927,0.3803921639919281,0.26274511218070984,0.054901961237192154,0.0,0.0,0.3607843220233917,0.9058823585510254,0.47843137383461,0.09019608050584793,0.7960784435272217,0.9254902005195618,0.23137255012989044,0.0,0.0,0.0,0.0,0.0,0.0,0.0,0.0,0.0,0.0,0.0,0.0,0.09803921729326248,0.8509804010391235,0.9490196108818054,0.3607843220233917,0.01568627543747425,0.0,0.0,0.0,0.0,0.01568627543747425,0.5764706134796143,0.9921568632125854,0.9411764740943909,0.9098039269447327,0.3607843220233917,0.0,0.0,0.0,0.0,0.0,0.0,0.0,0.0,0.0,0.0,0.0,0.0,0.0,0.3960784375667572,1.0,0.3607843220233917,0.0,0.0,0.0,0.0,0.0,0.0,0.4117647111415863,0.9960784316062927,0.9960784316062927,0.6941176652908325,0.04313725605607033,0.0,0.0,0.0,0.0,0.0,0.0,0.0,0.0,0.0,0.0,0.0,0.0,0.0,0.0,0.6549019813537598,0.95686274766922,0.16078431904315948,0.0,0.0,0.0,0.027450980618596077,0.2980392277240753,0.7803921699523926,0.9333333373069763,0.9372549057006836,0.3686274588108063,0.03921568766236305,0.0,0.0,0.0,0.0,0.0,0.0,0.0,0.0,0.0,0.0,0.0,0.0,0.0,0.0,0.0,0.7529411911964417,0.4745098054409027,0.0,0.0,0.007843137718737125,0.24705882370471954,0.7058823704719543,0.9960784316062927,0.9137254953384399,0.4941176474094391,0.0,0.0,0.0,0.0,0.0,0.0,0.0,0.0,0.0,0.0,0.0,0.0,0.0,0.0,0.0,0.0,0.0,0.0,0.7450980544090271,0.7686274647712708,0.054901961237192154,0.007843137718737125,0.3803921639919281,0.9960784316062927,0.9882352948188782,0.572549045085907,0.20392157137393951,0.0,0.0,0.0,0.0,0.0,0.0,0.0,0.0,0.0,0.0,0.0,0.0,0.0,0.0,0.0,0.0,0.0,0.0,0.0,0.5098039507865906,0.8823529481887817,0.27843138575553894,0.7058823704719543,0.9098039269447327,0.7098039388656616,0.23529411852359772,0.0,0.0,0.0,0.0,0.0,0.0,0.0,0.0,0.0,0.0,0.0,0.0,0.0,0.0,0.0,0.0,0.0,0.0,0.0,0.0,0.0,0.5098039507865906,0.9960784316062927,0.9960784316062927,0.9019607901573181,0.18039216101169586,0.0,0.0,0.0,0.0,0.0,0.0,0.0,0.0,0.0,0.0,0.0,0.0,0.0,0.0,0.0,0.0,0.0,0.0,0.0,0.0,0.0,0.0235294122248888,0.3019607961177826,0.95686274766922,0.9960784316062927,0.6352941393852234,0.01568627543747425,0.0,0.0,0.0,0.0,0.0,0.0,0.0,0.0,0.0,0.0,0.0,0.0,0.0,0.0,0.0,0.0,0.0,0.0,0.0,0.0,0.0,0.0,0.4313725531101227,0.9960784316062927,0.8549019694328308,0.9960784316062927,0.45490196347236633,0.0,0.0,0.0,0.0,0.0,0.0,0.0,0.0,0.0,0.0,0.0,0.0,0.0,0.0,0.0,0.0,0.0,0.0,0.0,0.0,0.0,0.0,0.5137255191802979,0.9960784316062927,0.6039215922355652,0.10980392247438431,0.8352941274642944,0.33725491166114807,0.0,0.0,0.0,0.0,0.0,0.0,0.0,0.0,0.0,0.0,0.0,0.0,0.0,0.0,0.0,0.0,0.0,0.0,0.0,0.0,0.0,0.25882354378700256,0.8196078538894653,0.6000000238418579,0.07450980693101883,0.07450980693101883,0.9137254953384399,0.23529411852359772,0.0,0.0,0.0,0.0,0.0,0.0,0.0,0.0,0.0,0.0,0.0,0.0,0.0,0.0,0.0,0.0,0.0,0.0,0.0,0.0,0.0,0.5568627715110779,0.9960784316062927,0.6470588445663452,0.0,0.054901961237192154,0.8470588326454163,0.6549019813537598,0.0,0.0,0.0,0.0,0.0,0.0,0.0,0.0,0.0,0.0,0.0,0.0,0.0,0.0,0.0,0.0,0.0,0.0,0.0,0.0,0.0,0.3529411852359772,0.9960784316062927,0.686274528503418,0.0,0.07058823853731155,0.8980392217636108,0.3607843220233917,0.0,0.0,0.0,0.0,0.0,0.0,0.0,0.0,0.0,0.0,0.0,0.0,0.0,0.0,0.0,0.0,0.0,0.0,0.0,0.0,0.0,0.10196078568696976,0.8980392217636108,0.9764705896377563,0.6901960968971252,0.8705882430076599,0.95686274766922,0.1725490242242813,0.0,0.0,0.0,0.0,0.0,0.0,0.0,0.0,0.0,0.0,0.0,0.0,0.0,0.0,0.0,0.0,0.0,0.0,0.0,0.0,0.0,0.0,0.2862745225429535,0.7568627595901489,0.772549033164978,0.5254902243614197,0.0,0.0,0.0,0.0,0.0,0.0,0.0,0.0,0.0,0.0,0.0,0.0,0.0,0.0,0.0,0.0,0.0,0.0,0.0,0.0,0.0,0.0,0.0,0.0,0.0,0.0,0.0,0.0,0.0,0.0,0.0,0.0,0.0,0.0,0.0,0.0,0.0,0.0,0.0,0.0,0.0,0.0,0.0,0.0,0.0,0.0,0.0,0.0,0.0,0.0,0.0,0.0,0.0,0.0,0.0,0.0,0.0,0.0,0.0,0.0,0.0,0.0,0.0,0.0,0.0,0.0,0.0,0.0,0.0,0.0,0.0,0.0,0.0,0.0,0.0,0.0,0.0,0.0,0.0,0.0,0.0,0.0,0.0,0.0,0.0,0.0,0.0,0.0,0.0,0.0,0.0,0.0,0.0,0.0,0.0,0.0,0.0,0.0,0.0,0.0,0.0],"dim":[784,1],"v":1},"inputs":784,"learning_rate":0.029999999329447746,"output":{"data":[0.00033756750053726137,0.31753551959991455,0.9998570680618286,0.9999911785125732,0.9954622387886047,0.4229483902454376,0.999173104763031,1.2521533809817242e-9,0.9996470212936401,3.5547450352169108e-6,0.0004185401485301554,0.00041464692912995815,0.9999030828475952,0.9944722056388855,0.0022487749811261892,0.9955620765686035,0.00024489674251526594,0.9999946355819702,0.17414599657058716,8.381942961932509e-8,0.02113623544573784,2.4711030164326075e-6,0.0005109403864480555,5.129689952809713e-7,0.9207141995429993,0.00009247731213690713,0.021932676434516907,0.44558003544807434],"dim":[28,1],"v":1},"outputs":28,"weights":{"data":[0.1855006217956543,0.9876480102539062,0.6080572605133057,0.5060787200927734,0.34647440910339355,0.2526564598083496,-0.6022298336029053,0.3711202144622803,0.5369217395782471,-0.3376326560974121,-0.8236429691314697,0.907102108001709,0.7988269329071045,-0.5249477624893188,-0.22066868841648102,0.9953840970993042,0.7017199993133545,-0.6422734260559082,0.8126835823059082,-0.09835624694824219,0.12385272979736328,-0.009390592575073242,-0.5574831962585449,0.7787559032440186,0.24077510833740234,0.14437532424926758,-0.37657737731933594,0.7609877586364746,-0.8111565113067627,-0.302793025970459,0.7544193267822266,-0.5740125179290771,0.09812943637371063,0.7313351631164551,0.3092802166938782,0.6930035352706909,-0.41185787320137024,-0.5850600600242615,0.05044446513056755,-0.27504101395606995,-0.08640684187412262,-0.2132788747549057,0.8613103032112122,0.6516664624214172,0.7929285168647766,0.7118495106697083,0.22706229984760284,-0.2120981365442276,-0.9603445529937744,-0.11369572579860687,0.0943586453795433,-0.4206116199493408,-0.9638993740081787,-0.17331361770629883,-0.8810665607452393,-0.7946550846099854,0.5672688484191895,0.06571722030639648,0.08988209813833237,0.016782844439148903,-0.4601399004459381,-0.21971234679222107,-0.7949317097663879,-0.4105003774166107,0.8296640515327454,-0.23678839206695557,-0.9580862522125244,0.8271907567977905,-0.6032482981681824,-0.8675332069396973,-0.5491945743560791,0.4075922966003418,-0.4240650534629822,0.40076446533203125,-0.6825001835823059,0.9602744579315186,0.7269347906112671,0.44243666529655457,0.3184032142162323,-0.9756149053573608,0.9559998512268066,-0.8471084833145142,-0.17756414413452148,0.21677398681640625,-0.5578148365020752,-0.09018707275390625,-0.5911182761192322,-0.7508366703987122,0.7339629530906677,0.8003813624382019,-0.8283154368400574,-0.35836949944496155,-0.4846302568912506,-0.09651055186986923,-0.14278319478034973,0.20827558636665344,0.8781790137290955,-0.2628646194934845,-0.11943615227937698,0.40337130427360535,-1.0102165937423706,-0.5028442144393921,0.147724449634552,0.5043714046478271,-0.9232833385467529,0.4754204750061035,-1.005805253982544,-0.790061354637146,-0.033119313418865204,0.2633141875267029,0.06379251182079315,-0.7528059482574463,0.4719717502593994,-0.5049933195114136,0.6585726141929626,-0.07438546419143677,-0.8635141849517822,-0.08152779936790466,0.4080279469490051,-0.6492370963096619,0.3831276595592499,-0.28628647327423096,0.9405055046081543,-0.825599730014801,0.43353182077407837,-0.035342440009117126,-0.9512061476707458,-1.1137840747833252,-0.6672654151916504,-0.08166225254535675,0.14233368635177612,-0.647461473941803,0.25467872619628906,0.898253321647644,-0.6068959832191467,-0.48713207244873047,-0.7462205290794373,-0.09626427292823792,-0.1159876137971878,-0.6219674944877625,-0.3568251132965088,-0.09313130378723145,0.6201733350753784,0.7720605134963989,0.7514897584915161,-0.9353486895561218,-0.4088999927043915,0.6780310869216919,0.37755313515663147,0.2988780736923218,-0.7692177295684814,-0.705401599407196,0.31812357902526855,-0.7052759528160095,-0.6330954432487488,-0.3942702114582062,-0.6056596040725708,-0.553723931312561,-0.17167064547538757,0.38375595211982727,-0.3851146399974823,0.606170654296875,0.2087298035621643,-0.545079231262207,-0.43735358119010925,0.36194154620170593,0.8561949133872986,0.6954396963119507,-0.486907958984375,-0.18618856370449066,-0.14961223304271698,-0.2564663887023926,-0.17789693176746368,-0.3130810558795929,-0.7064014077186584,0.5655118823051453,0.308049738407135,-0.40301206707954407,0.3936317563056946,0.3260580599308014,-0.2907221019268036,-0.2368706464767456,-0.07440592348575592,-0.0655728429555893,-0.28798988461494446,0.17446543276309967,0.3446064293384552,0.4270511269569397,-0.16703614592552185,-0.933230459690094,0.40741780400276184,0.3204740583896637,0.2535303235054016,-0.07893991470336914,-0.17172588407993317,0.9298984408378601,0.1264144331216812,0.6716784834861755,-0.3989277184009552,-0.8281682133674622,-0.6951013207435608,0.5515121221542358,-0.10037120431661606,-0.26534053683280945,-1.0723322629928589,-1.1770718097686768,0.22139330208301544,-0.6582726836204529,0.9413005709648132,0.33755648136138916,0.43818381428718567,-0.9673120379447937,-0.11290004104375839,0.32676950097084045,0.21912620961666107,-0.45347508788108826,0.25034862756729126,0.07795898616313934,-0.023038821294903755,0.1666969209909439,-0.029064852744340897,-0.0588887557387352,0.48327216506004333,-0.4437094032764435,0.3252204656600952,-0.3999738097190857,-0.5979955792427063,0.36869537830352783,0.18110349774360657,-0.6592985391616821,-0.6132736802101135,-1.1237422227859497,-0.7774732112884521,-0.3632846176624298,-0.05319876968860626,-1.2803491353988647,-0.5863838791847229,-0.21977032721042633,0.27245625853538513,-1.2472738027572632,0.35879528522491455,0.032639406621456146,0.3698151409626007,-0.7148312330245972,-0.1597350537776947,0.11712262779474258,-0.8179412484169006,-0.7318181991577148,0.1674169898033142,-0.8305230736732483,0.3972412645816803,-0.7300603985786438,-0.7763106822967529,0.8313280344009399,0.25627660751342773,0.4252076745033264,-0.0691748559474945,-0.7295616269111633,-0.04294148087501526,-0.4630943834781647,-0.5434303879737854,-0.42147570848464966,0.13902494311332703,-0.1368483304977417,-0.016979260370135307,-0.5892561674118042,-0.91839200258255,-0.511751115322113,-0.4600217640399933,-0.6300010085105896,-0.03261962905526161,0.3609046936035156,-0.2515954077243805,0.21081653237342834,0.4985550343990326,-0.95179682970047,-0.7145000696182251,0.38084322214126587,-0.42816635966300964,0.2740635871887207,-0.6209493279457092,-0.4980047047138214,0.24252483248710632,0.5577262043952942,-0.8627088665962219,-1.0724754333496094,0.3376341164112091,0.12321358174085617,0.4058355987071991,-0.5570266246795654,-0.06345731765031815,-0.27056780457496643,-0.26377397775650024,-0.9628313183784485,-0.3932223916053772,-0.8472787737846375,-0.6600510478019714,-0.2513580024242401,0.7098447680473328,-0.20154081284999847,-0.2351997345685959,-0.8251594305038452,-0.31748393177986145,-0.185489222407341,-0.6374379396438599,0.07968194037675858,-0.11944498866796494,0.8794761896133423,0.27011165022850037,-0.1500983089208603,-0.022705569863319397,-0.5032845735549927,-0.8775501847267151,0.8067260384559631,0.650092363357544,0.17698149383068085,-0.2972639501094818,0.10279881954193115,-0.42661333084106445,0.34303712844848633,0.6994897127151489,0.23480530083179474,-0.41371187567710876,0.8606606721878052,0.6858879327774048,0.6339946985244751,0.00941252987831831,0.7201524376869202,0.6469895243644714,-0.7249472141265869,0.7335237860679626,-1.1646064519882202,-0.21749944984912872,0.22859825193881989,0.22192753851413727,-0.9985650777816772,-0.405347615480423,0.2532024681568146,-0.054653383791446686,0.4111408591270447,0.5123660564422607,0.25599998235702515,0.04080512374639511,-0.03838396444916725,0.526669979095459,0.793761134147644,1.0442512035369873,1.257509708404541,-0.5411593914031982,0.6918450593948364,0.45037928223609924,0.2943929433822632,0.8838855624198914,-0.16204750537872314,1.0191460847854614,0.06830660998821259,-0.2852451801300049,0.21360568702220917,-0.113056980073452,-0.02261577546596527,-0.9339646697044373,-0.18959639966487885,-1.0537108182907104,-0.486314058303833,-0.36415189504623413,0.5772935152053833,0.8405513167381287,0.22405794262886047,0.9643194079399109,1.0472322702407837,-0.035737283527851105,0.8134726881980896,0.2775786817073822,0.574678897857666,0.18712913990020752,0.6826225519180298,-0.02838081493973732,1.1890952587127686,0.28649258613586426,0.8038396835327148,-0.3457914888858795,1.0324468612670898,0.07472196966409683,1.1674015522003174,1.0184121131896973,0.17413780093193054,-0.14500586688518524,0.7012509703636169,-1.1905447244644165,0.654772162437439,0.01116098091006279,0.4586564004421234,0.6382283568382263,-0.11683686822652817,0.41077175736427307,-0.7809543013572693,0.5746850371360779,0.2031911164522171,0.8826753497123718,0.951168417930603,0.7393377423286438,-0.051411986351013184,0.5754105448722839,0.36836183071136475,0.2343742847442627,0.37824156880378723,0.7118815183639526,0.7962574362754822,0.8105627298355103,-0.02068997360765934,0.746111273765564,0.1884283423423767,1.355893611907959,-0.5598063468933105,0.4468206763267517,-1.2053972482681274,-0.24930934607982635,0.6839505434036255,0.09290727227926254,0.0448598712682724,0.1812049299478531,0.6612751483917236,0.7785665392875671,-0.008057727478444576,-0.41795241832733154,-0.4517308473587036,1.3386428356170654,0.4703907370567322,0.6234722137451172,0.8728305101394653,0.5874334573745728,-0.5667024254798889,0.3134284019470215,0.20827335119247437,-0.11948537081480026,1.0169113874435425,0.4290653169155121,0.7624533176422119,0.5398441553115845,1.103179693222046,0.0991818755865097,0.6917923092842102,-0.8573352694511414,-1.0202142000198364,-1.0912995338439941,0.08710535615682602,-0.6139467358589172,-0.9162746667861938,-0.6056415438652039,0.07582400739192963,-0.07255782932043076,0.3354649245738983,-0.7510910034179688,1.1721880435943604,-0.12874767184257507,0.18922901153564453,0.4129061698913574,-0.9532016515731812,-0.5980258584022522,0.620516300201416,-0.3359202444553375,0.10865304619073868,0.2139391154050827,0.5520743727684021,0.7825009226799011,0.39701780676841736,0.9870825409889221,0.147089421749115,-0.059381578117609024,-0.7940046787261963,-0.44760826230049133,-0.5198928117752075,-1.0312649011611938,-0.31509995460510254,0.5828087329864502,-0.1525947004556656,0.2528970241546631,-0.9601917862892151,0.16731740534305573,0.07187902927398682,-0.7232208251953125,-0.7484599351882935,0.9900145530700684,-0.39989200234413147,0.9957377314567566,-0.0909484401345253,0.5081890821456909,-0.4953831434249878,0.5276550054550171,-0.5935667753219604,0.708658754825592,0.5400091409683228,-0.14390349388122559,0.41605058312416077,-0.4238397777080536,-0.006485997699201107,-0.5873444676399231,-1.0909981727600098,-0.852234423160553,-1.2049490213394165,0.16821812093257904,0.8195087313652039,-0.6622496247291565,0.0670025423169136,0.27630335092544556,-0.9406386613845825,0.7030554413795471,-0.4378868341445923,-0.8989951610565186,-0.8635717034339905,0.49295198917388916,-0.04294375702738762,-0.24848641455173492,-0.25042903423309326,0.68359375,-0.3596554696559906,-0.2140701562166214,0.6472690105438232,-0.20924624800682068,1.1292451620101929,0.7612761855125427,-0.5451709628105164,-0.5194349884986877,-0.04026324301958084,-1.0683741569519043,-0.27199286222457886,0.17992186546325684,-0.7601237297058105,-0.8573823571205139,-0.9153314232826233,0.16377846896648407,-0.998608410358429,0.9444303512573242,0.19411669671535492,-0.342841237783432,-0.513334333896637,-0.13782447576522827,-0.6507206559181213,-0.8557989597320557,-1.1955175399780273,-0.5228625535964966,-0.9540309906005859,0.4217616021633148,0.1699424535036087,-0.6734568476676941,-0.004133637994527817,0.5307729244232178,-0.5717846155166626,-0.09419877082109451,-0.17631876468658447,-0.8094275593757629,-0.6145950555801392,0.39223915338516235,-0.6005094051361084,-0.26664483547210693,-0.7977849841117859,0.730960488319397,0.7101877331733704,0.3795606195926666,0.7885323762893677,0.33785152435302734,-0.2984054386615753,0.974039614200592,1.0406173467636108,-0.9833157062530518,0.4082995355129242,-0.06284318119287491,-1.4263715744018555,-1.271191120147705,-0.30490145087242126,-1.2116929292678833,-1.201366901397705,-0.7049884796142578,-1.1616214513778687,0.3120892345905304,-0.4043862521648407,-0.09810828417539597,-0.1767428070306778,-0.3726936876773834,-0.770904004573822,-0.2796308398246765,-0.7779339551925659,-0.0023900712840259075,-0.8274641036987305,0.15160644054412842,-0.02693004533648491,-0.4343932867050171,-0.033596284687519073,0.3271976113319397,-0.9799765348434448,-0.8417088985443115,-0.7388954758644104,0.7593854665756226,-0.3213282525539398,-1.2305773496627808,0.07863323390483856,-0.6428426504135132,-1.623713731765747,-0.15985506772994995,-0.08443768322467804,-0.9583609700202942,-0.33957794308662415,-1.3963236808776855,-0.1970524936914444,0.47148606181144714,-1.1959632635116577,0.21701686084270477,-0.9485558271408081,-0.933107316493988,-0.36628761887550354,-0.13440272212028503,0.1543811708688736,-0.2749061584472656,-0.38326847553253174,0.5543613433837891,-0.7693438529968262,-0.08637423068284988,-0.5272879004478455,-0.15590913593769073,0.6027303338050842,-0.8584041595458984,0.1818869709968567,0.2057611644268036,-0.5310564637184143,-0.7980056405067444,-0.08892809599637985,-1.049735426902771,-1.4878305196762085,-0.5454966425895691,-0.5673471093177795,-0.8159329891204834,-0.532366931438446,-1.3790924549102783,-0.32136788964271545,-0.10377887636423111,-0.9711481332778931,0.3184114694595337,0.17737190425395966,0.16139638423919678,-0.20666083693504333,-0.35128894448280334,0.701751172542572,-0.0028695384971797466,-0.425309419631958,0.14458441734313965,0.5295655727386475,-0.46896106004714966,-0.3735348880290985,-1.0092233419418335,-0.5159298777580261,0.25853875279426575,0.5165711641311646,0.4780239760875702,-0.6559030413627625,-0.7549960613250732,-0.0777379646897316,-1.2146029472351074,-1.3552674055099487,-0.7982451915740967,-0.8493488430976868,-0.19547420740127563,-0.2943839728832245,-0.2908915579319,-0.2750164270401001,-1.0693888664245605,0.9680389761924744,0.053469978272914886,-0.6374938488006592,-0.3110162913799286,-0.6057022213935852,0.5008012652397156,0.395249605178833,0.7148408889770508,0.4195685386657715,0.5669891238212585,-0.28364482522010803,0.21966907382011414,0.6372771263122559,0.8560400009155273,-0.565144956111908,-0.45214149355888367,0.1736927479505539,0.030917230993509293,-0.7819167971611023,0.026073548942804337,-0.5161535739898682,-0.4778714179992676,-0.33068111538887024,-0.9293687343597412,-0.3017960786819458,0.36540424823760986,0.3528541028499603,0.2942131757736206,1.3449152708053589,-0.6858043074607849,-0.1103823110461235,0.6684009432792664,-0.44111236929893494,0.8009148836135864,-0.9592692852020264,0.7439062595367432,-0.9223945140838623,-0.14002181589603424,0.7029547095298767,-0.6476679444313049,-0.7708810567855835,-0.5335537195205688,-0.08382058143615723,0.19829079508781433,-0.7489549517631531,0.06622923165559769,-0.24697312712669373,-0.6142717599868774,-0.17769931256771088,-0.3313973844051361,-0.2516583800315857,-0.15418605506420135,-0.5985747575759888,-0.2080056220293045,0.8407654762268066,0.5490540266036987,0.7720165252685547,-0.18555164337158203,-0.8349997401237488,-0.010916102677583694,-0.25920403003692627,0.7573882937431335,0.14016461372375488,-0.13335871696472168,0.056446075439453125,0.016660690307617188,0.8650020360946655,0.013858404010534286,-0.940018355846405,-0.08535661548376083,0.6366324424743652,-0.38808688521385193,0.7245047092437744,-0.027507340535521507,0.20378628373146057,0.04811883345246315,0.2622052729129791,0.4475663900375366,-0.9463051557540894,0.34677228331565857,0.3361666798591614,-0.2836623787879944,0.8298489451408386,0.6474741101264954,-0.7007477879524231,0.7905097007751465,0.05065231770277023,-0.395260214805603,-0.9859533309936523,0.48009777069091797,-0.18990468978881836,0.9410812854766846,-0.03482222557067871,-0.3654515743255615,0.2317643165588379,-0.6133742332458496,0.665978193283081,-0.5931052565574646,0.051482345908880234,0.6228181719779968,0.27467647194862366,-0.04069655016064644,0.40585827827453613,-0.4067975580692291,-0.7706592082977295,0.7841477394104004,0.8076494336128235,-0.2643406093120575,0.013803696259856224,0.3988456726074219,-0.3672052025794983,0.21168626844882965,-0.971527099609375,-0.48231375217437744,-0.9192569255828857,-0.9860842227935791,0.4822070598602295,0.6908698081970215,-0.39221692085266113,0.6084895133972168,-0.5344569683074951,-0.48017072677612305,-0.38948702812194824,-0.21408915519714355,0.822678804397583,0.8183653354644775,-0.49938344955444336,-0.38371968269348145,-0.19713330268859863,-0.5235061645507812,-0.7499961853027344,0.0018240136560052633,-0.10033194720745087,-0.1109299436211586,0.3570665121078491,0.38916444778442383,-0.4740922451019287,-0.6855709552764893,-0.4674265384674072,0.25284624099731445,-0.5586133003234863,-0.33279848098754883,0.5468368530273438,-0.48360395431518555,-0.9457399845123291,0.2521035671234131,-0.5848767757415771,0.1591193675994873,0.31714320182800293,-0.5910136699676514,0.48933959007263184,0.8813238143920898,-0.6110975742340088,0.9523091316223145,0.560153067111969,-0.2826544940471649,0.7142058610916138,-0.4523446559906006,0.09287626296281815,0.2447931170463562,0.830416738986969,0.09315624833106995,0.7623504400253296,0.5519355535507202,-0.16062051057815552,-0.12080509960651398,0.6592590808868408,0.45224446058273315,-0.16530174016952515,-0.010332776233553886,-0.37667110562324524,-0.6243798732757568,0.7234232425689697,-0.7123966217041016,0.9544961452484131,-0.8796610832214355,-0.19417548179626465,-0.7547686100006104,0.7076683044433594,-0.15578141808509827,0.43749532103538513,0.9485753774642944,0.6058539748191833,-0.9717526435852051,-0.6245471835136414,0.3254958987236023,-0.05525077134370804,0.6824001669883728,-0.1579899936914444,0.03602158650755882,-0.9332016706466675,0.635143518447876,-0.2206464558839798,-1.095771312713623,0.8128273487091064,-0.644670307636261,0.4615737199783325,0.3656091094017029,0.2300655096769333,-0.31936705112457275,-0.9866067171096802,-0.9349658489227295,-0.17986655235290527,-0.26448941230773926,0.3050098419189453,0.5096015334129333,-0.7796419858932495,-0.08407459408044815,-0.04967305809259415,-0.3364793062210083,-0.38143694400787354,0.3750273287296295,-0.6718552708625793,0.5472779870033264,0.0799780860543251,-0.02643013745546341,-0.713001549243927,0.7128809094429016,0.08834166824817657,-0.2822892963886261,0.3768124282360077,-0.3674122095108032,0.026637928560376167,0.3678779602050781,-0.0841086134314537,0.2292146384716034,0.2044701874256134,0.4138425290584564,-0.7549834251403809,-0.06526457518339157,-0.8751461505889893,0.6343495845794678,0.9328890442848206,-0.15706592798233032,0.8564449548721313,-0.7189523577690125,1.0267651081085205,-0.434755802154541,-0.4815126061439514,0.878601610660553,-0.0016061643837019801,-0.20483097434043884,-0.20208124816417694,-0.39341458678245544,0.3744982182979584,0.8893067240715027,0.3026244044303894,-0.45952108502388,0.20199918746948242,0.03882524371147156,-0.7855586409568787,-0.31982067227363586,-0.6623848080635071,0.1370147466659546,0.18174579739570618,0.8305894136428833,-0.2681003510951996,-0.7676739692687988,0.4531795382499695,-0.04817557334899902,-0.37486767768859863,0.17142800986766815,-0.6200671195983887,0.5014551877975464,-0.6468737721443176,-0.6187934875488281,-0.24643561244010925,0.4807336926460266,-0.7535687685012817,0.3935089111328125,1.3682172298431396,-0.11909599602222443,-0.160892054438591,0.4570440948009491,0.29611092805862427,0.27215561270713806,0.36365818977355957,0.41491514444351196,0.5378974676132202,-0.38146770000457764,-0.5983619093894958,0.7750767469406128,-1.078425645828247,0.8864924311637878,0.4893658757209778,0.06842270493507385,-0.4967080354690552,0.8720452785491943,0.5386741161346436,0.3367960453033447,0.6649522185325623,0.7414374947547913,-0.5581871271133423,0.1801096796989441,0.46213823556900024,-0.20745578408241272,1.0615253448486328,-0.23605339229106903,-0.4409123361110687,0.8667216897010803,-0.029527155682444572,0.30092406272888184,-0.21773037314414978,0.607048511505127,0.8324792385101318,0.17828314006328583,0.20213773846626282,1.0320262908935547,-0.31675171852111816,0.1533910185098648,0.3111584782600403,0.3439793884754181,0.874595582485199,-0.5768924355506897,0.795518696308136,-0.3792683184146881,-0.08011800050735474,0.10029743611812592,0.7349547147750854,0.21415846049785614,0.1788671612739563,0.861365556716919,-0.31598272919654846,0.7914010286331177,0.010447806678712368,0.19892770051956177,0.05848042294383049,0.4230247735977173,0.6168659329414368,0.5632210969924927,-0.8167451024055481,0.7984691262245178,-0.3484323024749756,0.49409985542297363,0.36130043864250183,-0.2848561406135559,0.06525607407093048,0.37861818075180054,0.8972958326339722,-0.16609477996826172,0.6421352028846741,-0.4090936779975891,0.02380172349512577,-0.9538165330886841,-0.8295411467552185,-0.00027621001936495304,-0.15261316299438477,0.7651265859603882,-0.4466964304447174,0.2857750952243805,-0.6130550503730774,-0.4908800721168518,0.5789763331413269,0.7339482307434082,0.09632527828216553,-0.3867793679237366,-0.5837510824203491,0.2603788375854492,0.03216755390167236,0.30009275674819946,-0.1295597404241562,0.7534677386283875,0.36140480637550354,0.11313488334417343,1.4533990621566772,0.0009706264827400446,0.27783358097076416,0.8077588081359863,1.3351203203201294,0.6815231442451477,0.18272334337234497,-0.8165210485458374,-0.15479567646980286,-0.8875318169593811,0.4237131178379059,0.04207535460591316,-0.8469569087028503,0.7013934254646301,0.007428025361150503,-0.04339434206485748,-0.06706727296113968,-0.13203011453151703,-0.030428864061832428,-0.6358895897865295,0.2947973906993866,-0.22790910303592682,-0.5365622639656067,0.519189715385437,-0.22335071861743927,-0.23982597887516022,0.2283943146467209,-0.1530565470457077,0.2078733891248703,0.4464603662490845,1.732253074645996,1.708065390586853,0.45017093420028687,1.2275903224945068,-0.6014335751533508,-0.32145965099334717,-0.9895733594894409,-0.19465292990207672,-0.9560186266899109,-0.889763593673706,-0.2791014313697815,-0.39444372057914734,0.644442081451416,0.4057478904724121,-0.6856690049171448,-0.2823988199234009,-0.2226349115371704,0.5482672452926636,-0.48349612951278687,-0.18206623196601868,-0.8757706880569458,-0.5861513018608093,-0.14962193369865417,0.034501902759075165,0.891815185546875,0.64747154712677,0.28047293424606323,0.9765491485595703,-0.0029124997090548277,1.3577322959899902,0.8050628900527954,-0.1912929266691208,0.6093187928199768,-0.48793038725852966,-0.5219634771347046,-0.24860090017318726,0.02878488413989544,-0.18083085119724274,-0.44338130950927734,-1.0012304782867432,-1.094146728515625,-0.22618570923805237,-0.3202308118343353,0.03084532544016838,0.553564190864563,0.048601265996694565,0.16276432573795319,0.6970663666725159,0.4660121202468872,0.5046400427818298,0.17429552972316742,-0.3483157455921173,-0.43138808012008667,-0.3797135353088379,-0.3317103087902069,0.2510437071323395,0.6502501368522644,0.8100144267082214,-0.1004677414894104,1.045141577720642,0.848892331123352,-0.44886234402656555,0.4323558211326599,-0.5874192118644714,0.07136909663677216,0.09083331376314163,0.20918962359428406,0.6444871425628662,0.184433251619339,-0.2974538803100586,0.0013904968509450555,-0.02742726169526577,-0.4355119466781616,0.918733537197113,0.7168720960617065,-0.31632059812545776,0.16574813425540924,-0.7761184573173523,-0.5024288296699524,-1.2795839309692383,-0.693916380405426,-1.2794108390808105,-0.8411021828651428,-0.6663573384284973,-0.4105285704135895,-0.48054853081703186,-0.43494686484336853,0.7381501793861389,-0.5307509303092957,0.27546191215515137,0.7761684656143188,0.4938235878944397,0.3521699905395508,-0.40955328941345215,0.5445117950439453,-1.0411930084228516,-0.5684166550636292,-0.6506495475769043,0.1582038253545761,1.0020604133605957,0.0627060979604721,-0.2135210782289505,0.4123761057853699,-0.10266134142875671,-0.4918789565563202,-0.70704585313797,-1.1037606000900269,-0.047126080840826035,-1.1653695106506348,-0.07271301001310349,-1.4422675371170044,0.18826323747634888,-0.8837907314300537,-0.5931529402732849,0.8115739226341248,-0.5439573526382446,-0.9864190220832825,0.7565218210220337,-0.8839171528816223,-1.0071693658828735,0.647956371307373,0.5724920034408569,-1.0699371099472046,-0.21777795255184174,-0.03773428872227669,0.6919196844100952,0.6695804595947266,-0.06263837218284607,0.10621584951877594,0.1101299449801445,0.27475705742836,-0.49005356431007385,0.2224934846162796,-0.4190503656864166,-0.1350313127040863,-0.22974349558353424,-0.09202548116445541,-0.35353121161460876,-0.14859706163406372,0.009118118323385715,0.13189850747585297,-0.5752676129341125,-0.3975571393966675,0.14768800139427185,-0.008231397718191147,0.7904730439186096,-0.9544339776039124,-0.8461195826530457,-0.6067088842391968,0.9317901134490967,0.8278761506080627,0.5129493474960327,0.7757623791694641,-0.89555823802948,0.13700008392333984,0.9839089512825012,0.29982703924179077,-0.4090583622455597,-0.6011567115783691,-0.1538037359714508,-0.7910916209220886,-0.6530173420906067,-1.2821406126022339,-0.19309335947036743,0.13316018879413605,-0.27950412034988403,1.0916417837142944,-0.5280323028564453,-0.24223990738391876,-0.645778477191925,-0.8950048685073853,0.2703317403793335,-0.001753975753672421,-0.30059224367141724,0.741621196269989,0.6186913251876831,0.39279308915138245,-0.737813413143158,-0.3567008972167969,-0.2333911955356598,0.1333143711090088,-0.9054310321807861,0.6241085529327393,-1.12347412109375,-0.8609841465950012,-0.3250768780708313,0.3165385127067566,-1.000734806060791,-0.7807308435440063,-0.12695090472698212,-0.2897152304649353,0.19952960312366486,0.290843665599823,0.483810156583786,-0.46215498447418213,0.04236087575554848,0.2940695881843567,0.5388125777244568,0.3274006247520447,-0.877655029296875,0.9273615479469299,-0.14298248291015625,0.33294883370399475,-0.008488783612847328,0.47658276557922363,0.11135067045688629,1.4577885866165161,0.11407189071178436,-0.4610735774040222,-1.1901763677597046,-1.3917317390441895,-2.530677080154419,-1.7804949283599854,-2.181788682937622,-1.1431971788406372,-1.4019056558609009,-0.2629522681236267,-0.8764022588729858,0.015164850279688835,-0.3076367676258087,0.40137767791748047,0.8075916171073914,0.6219518780708313,0.08201576769351959,-0.005393194500356913,0.42189720273017883,0.3899857997894287,-0.7030547857284546,0.5813726186752319,-0.7781959176063538,-0.7323417663574219,-0.7835307121276855,0.2235799878835678,0.396249383687973,1.249729871749878,0.268573135137558,0.43903765082359314,0.019753562286496162,0.12088657915592194,-0.36026644706726074,-0.3197605311870575,-0.9077644348144531,-0.8175359964370728,-0.6976280212402344,-0.48204049468040466,0.04381715506315231,0.8219159841537476,0.3623557686805725,0.0521063394844532,-0.23107901215553284,0.7566641569137573,0.3729531466960907,0.6920056939125061,0.5872356295585632,0.3494451344013214,-1.0120357275009155,-0.13314221799373627,-0.5652145147323608,-0.08469489961862564,-0.058321986347436905,0.6861417889595032,-0.4002731740474701,1.7100244760513306,1.2921218872070312,0.8062712550163269,-0.2765124440193176,0.2535645663738251,-0.29178208112716675,0.29986464977264404,-0.5393961071968079,0.3990590274333954,0.4061968922615051,-0.5078222155570984,0.6219740509986877,-0.47603100538253784,0.312203586101532,0.12431946396827698,-0.28082025051116943,1.3250178098678589,0.05887443199753761,0.48083576560020447,-0.37639492750167847,0.7001648545265198,0.6708311438560486,-0.748603880405426,-0.25421571731567383,0.12030494958162308,0.829349935054779,0.7442846894264221,-0.13190744817256927,0.5975220799446106,0.45574358105659485,0.5475831031799316,0.5546658039093018,-0.6136218309402466,0.1359197199344635,-0.4324054419994354,0.7787371873855591,-0.39343157410621643,-0.7138488292694092,0.5042338371276855,-0.17848432064056396,0.030295658856630325,-0.03871961310505867,-0.2293141782283783,-0.2835941016674042,0.42124006152153015,0.9781156778335571,-0.11259357631206512,0.7610807418823242,-0.37525832653045654,-0.181611105799675,0.556311845779419,-0.7127740979194641,-0.25648948550224304,-0.7658959627151489,0.6150193810462952,1.1549640893936157,0.8365623354911804,0.20851176977157593,-0.37222862243652344,0.6622206568717957,-0.46878403425216675,0.41761454939842224,0.2984442412853241,-0.6376456022262573,0.3872619867324829,1.0197762250900269,-0.3417118191719055,-0.15654955804347992,-0.2701459228992462,0.2536611258983612,-0.0637056976556778,0.3939042091369629,-0.41534996032714844,-0.5423012971878052,0.4696001410484314,-0.6801086664199829,0.39445760846138,0.2410110980272293,0.509451687335968,0.14465588331222534,0.30218803882598877,0.13357587158679962,0.10444182902574539,-0.5753190517425537,-0.13856720924377441,1.0675071477890015,0.7227566242218018,0.6274959444999695,0.6296420097351074,-0.5203127264976501,0.9193159341812134,-0.16133299469947815,-0.21817882359027863,0.8563858270645142,0.42045921087265015,0.34498515725135803,0.20131750404834747,-0.28959351778030396,0.2870522439479828,0.24461399018764496,-0.6115192174911499,0.8643430471420288,0.23780101537704468,0.641170859336853,-0.47575709223747253,0.14250455796718597,-0.24038192629814148,-0.4275968074798584,-0.7869703769683838,0.7633674144744873,0.6901999115943909,0.9411256313323975,-0.025004861876368523,-0.05670803785324097,-0.12686049938201904,0.4582919776439667,0.22464218735694885,0.5479716658592224,0.1944056749343872,0.6645230054855347,-0.5065605044364929,-0.23971503973007202,-0.13762840628623962,-0.2516660690307617,-0.07716671377420425,0.4407449960708618,-0.2915937304496765,-0.5450823903083801,0.05076473578810692,0.6753016710281372,0.8874556422233582,-0.2037336230278015,0.6041673421859741,-0.5172930359840393,0.5916843414306641,-0.7999491691589355,0.09406733512878418,0.8178994655609131,-0.5014291405677795,0.9725290536880493,0.6103518009185791,-0.010647300630807877,-0.07636631280183792,-0.06707959622144699,-0.015825819224119186,0.9114038348197937,0.35148388147354126,0.5289283990859985,-0.5129184722900391,0.4490140974521637,0.15764442086219788,0.03408701717853546,-0.6339958310127258,-0.3949250876903534,0.15549293160438538,-0.6880257725715637,-0.20389990508556366,0.0764143317937851,0.35648518800735474,-0.4549955427646637,0.33156493306159973,-0.8870700001716614,0.8301153182983398,0.9911057949066162,0.7879869937896729,-0.241331547498703,-0.9067526459693909,0.14627158641815186,0.08156643062829971,-0.7865056991577148,-0.29344481229782104,-0.4714347720146179,0.12236548960208893,-0.6031675338745117,-0.5812769532203674,0.6082979440689087,0.030430499464273453,-0.2514359652996063,-0.38162216544151306,0.2896725833415985,-0.32080429792404175,0.18253768980503082,-0.185182124376297,0.6555153727531433,-0.9036821126937866,0.4586891233921051,0.6559861302375793,-0.5227993130683899,-0.47610339522361755,0.5890216827392578,0.7384939193725586,-0.711700439453125,0.6261584758758545,0.6672494411468506,-0.19693663716316223,0.38301992416381836,0.7177667021751404,-0.36585649847984314,-0.7922704815864563,-0.5390706658363342,-0.2863251864910126,-0.5755770206451416,-0.8767342567443848,0.12412601709365845,-0.809217631816864,-0.1871941238641739,-0.09161009639501572,0.7326642870903015,-0.7047340273857117,-0.1016048714518547,0.1974591314792633,0.09388580173254013,0.6096482276916504,-0.9656381607055664,0.6868091821670532,0.4054979681968689,0.2623133659362793,0.006735086441040039,-0.5074656009674072,-0.7942018508911133,0.6895451545715332,-0.40205812454223633,-0.9418089389801025,0.4311310052871704,-0.8485689759254456,0.33467429876327515,-0.9424374103546143,0.992407500743866,0.7331058979034424,-0.5698703527450562,-0.15909643471240997,0.08831121772527695,0.42566490173339844,0.3091371953487396,0.25203850865364075,-0.29489365220069885,-0.8585625290870667,-0.35409319400787354,-0.5195794105529785,-0.028411412611603737,-0.08770234137773514,0.30613404512405396,0.34165650606155396,-0.09085679054260254,-0.17447948455810547,0.8586018085479736,0.17729496955871582,0.2063460350036621,0.6262729167938232,-0.718766450881958,-0.2018260955810547,0.8090898990631104,-0.641993522644043,0.5153326988220215,0.2249295711517334,-0.5565187931060791,-0.4073505401611328,-0.8261351585388184,-0.9967799186706543,0.8681158423423767,0.20814567804336548,-0.7637729048728943,-0.10222793370485306,-0.9610545635223389,-0.7939035892486572,-0.3045930862426758,0.9252464771270752,-0.44808125495910645,-0.25663065910339355,0.7890915870666504,-0.04716944694519043,-0.5321793556213379,0.9989783763885498,0.5696172714233398,-0.21412062644958496,0.3654310703277588,0.2134401798248291,-0.9801440238952637,0.6051852703094482,0.008666337467730045,-0.9569491147994995,0.14356015622615814,0.7320792078971863,0.33283743262290955,-0.4608011245727539,-0.45526087284088135,0.3936702311038971,0.6133997440338135,0.20064225792884827,0.8763030767440796,-0.25467556715011597,0.3986387848854065,-0.5681273937225342,-0.5977063179016113,0.9114901423454285,-0.8905015587806702,-0.5021650791168213,0.40777531266212463,0.7705702781677246,0.055212974548339844,-0.885068416595459,-0.30326008796691895,-0.8556838035583496,0.24770116806030273,0.7408723831176758,-0.0643463134765625,0.8922203183174133,-0.9037784934043884,-0.7814149260520935,-0.8458788990974426,0.13477540016174316,0.4949300289154053,-0.6665473580360413,0.9240810871124268,0.8144688606262207,0.03624657914042473,-0.7660674452781677,0.2870917320251465,-0.2951911687850952,-0.3494366407394409,0.1613629311323166,0.26073500514030457,-0.10269962251186371,0.22971364855766296,-0.3922627866268158,0.8846275806427002,0.41216251254081726,0.8436460494995117,0.48831045627593994,0.2262260913848877,0.8504974842071533,0.3734397888183594,0.7950975894927979,0.000914689211640507,-0.05566038936376572,0.6560361981391907,-0.20654211938381195,-0.055485885590314865,-0.5127047300338745,-0.9965593218803406,-0.38382571935653687,-0.5899102091789246,0.17730256915092468,-0.2844594419002533,-0.061868734657764435,-0.8635054230690002,-0.4676358103752136,0.11487676203250885,-0.06671746075153351,-0.1882551610469818,0.8398064970970154,-0.7212105989456177,0.9615954160690308,-0.7875787019729614,0.2590186595916748,0.02742541767656803,0.34962451457977295,0.4497559368610382,-0.7603118419647217,-0.08066272735595703,0.1237570121884346,-0.40493083000183105,0.9628222584724426,-0.7864781618118286,0.5940521359443665,0.14773032069206238,-0.6670275330543518,0.032424282282590866,-1.4193702936172485,-0.0060812123119831085,-1.5378899574279785,-0.8577082753181458,0.04359418526291847,-0.6076040267944336,-0.563766598701477,-0.5530408024787903,-0.16705626249313354,-0.013579607009887695,-0.13113780319690704,0.5174553394317627,-0.2910219728946686,-0.07544557005167007,-0.33107131719589233,0.37243208289146423,-0.3610839247703552,-0.34694841504096985,0.01884150132536888,-0.3981306552886963,0.6601262092590332,-0.8350378274917603,-0.9083007574081421,0.2121828943490982,-0.43182939291000366,-0.7097437977790833,-1.0238490104675293,-0.6491770148277283,-0.18511062860488892,-0.2670260965824127,0.0541272833943367,-0.06971364468336105,0.36720213294029236,-0.7300562262535095,0.5194796323776245,-0.8200200200080872,0.01369669009000063,0.11957024782896042,-0.09250107407569885,-0.43089237809181213,0.2866257429122925,-0.4408496916294098,-0.4246683716773987,0.3417738676071167,-0.8343434929847717,0.6842796206474304,-0.04775812849402428,0.9344868659973145,0.7088114023208618,-0.19323059916496277,0.7559930682182312,-0.11411251872777939,-0.16876938939094543,-0.8081815242767334,-0.16742722690105438,0.13956841826438904,-0.04508469998836517,-0.33040595054626465,-0.7419244050979614,-0.32947954535484314,0.11873391270637512,-0.4281577169895172,-0.43821409344673157,-0.1981799155473709,-0.32218649983406067,0.08164367824792862,0.47910887002944946,0.11091029644012451,-0.455587774515152,0.438899427652359,-0.38851282000541687,-0.6687252521514893,0.9651999473571777,0.635675847530365,-0.7245494723320007,-0.02938920259475708,-0.6301990747451782,0.19848261773586273,-0.5493321418762207,-0.02136443741619587,0.06077781319618225,-1.0420395135879517,-0.4323294758796692,0.2688593864440918,-0.375042587518692,0.2502000033855438,0.06032581999897957,-0.3366900384426117,-0.5844289660453796,0.5009798407554626,-0.1857081651687622,-0.3266492784023285,-0.47403255105018616,-0.3872075378894806,-0.5563284158706665,-0.2848830819129944,0.41093116998672485,0.03102310746908188,1.4799340963363647,0.22262394428253174,0.6083977818489075,0.09871429204940796,0.8598237633705139,-0.4701744616031647,0.695809006690979,-0.3150485157966614,-0.16856421530246735,0.4932522773742676,-0.4969498813152313,0.6335434913635254,-0.8818221092224121,-0.36229461431503296,-0.44732576608657837,-0.23007403314113617,-0.6559261679649353,-0.9938712120056152,-0.8786008358001709,-0.27881306409835815,-0.42727771401405334,0.4831180274486542,-0.10216481238603592,-0.2947946786880493,0.07247644662857056,-0.17598851025104523,0.32788071036338806,0.04856521263718605,-0.42026495933532715,0.6299439072608948,0.41719621419906616,0.09263941645622253,0.6205661296844482,0.8542043566703796,-0.02032046765089035,0.02601528912782669,0.291509211063385,-1.129286289215088,-0.04191172868013382,0.37027010321617126,-0.45180487632751465,-0.0868515595793724,-1.4489991664886475,-0.39635875821113586,-0.5818712711334229,0.20919890701770782,-0.19806627929210663,-0.35994860529899597,-0.6710407733917236,0.24387682974338531,-0.28531262278556824,0.18738578259944916,0.553554892539978,-0.006217741873115301,0.6629856824874878,0.16382013261318207,0.7723629474639893,0.8214309811592102,0.9964315295219421,0.056493137031793594,0.7915470600128174,0.15349902212619781,-0.5962955951690674,-0.2474762499332428,-0.1226249635219574,-0.8642124533653259,0.873151957988739,-0.542028546333313,0.6129308938980103,0.509983479976654,0.447363018989563,1.3391278982162476,0.32140037417411804,1.3671241998672485,0.3984341621398926,0.41794392466545105,-0.47691208124160767,-0.41157251596450806,0.10203202813863754,-0.25447389483451843,-0.23547321557998657,0.49825534224510193,-0.5766017436981201,-0.3585341274738312,0.261321485042572,-0.21463775634765625,-0.412223756313324,-0.7796388864517212,-0.041619766503572464,-0.767350971698761,0.051098622381687164,0.7119579911231995,0.6167129874229431,-0.34839335083961487,0.29145804047584534,0.9000436663627625,1.237302541732788,1.720755696296692,1.5261129140853882,0.9313310980796814,2.2244720458984375,1.3612085580825806,1.3856096267700195,0.7051433324813843,-0.4066821336746216,-0.26882097125053406,-0.7075527310371399,-0.5291172862052917,0.20000916719436646,0.5821151733398438,0.47047683596611023,1.4159189462661743,1.313887357711792,0.2112908661365509,0.8236077427864075,-0.627293050289154,-0.6010213494300842,0.21235737204551697,0.34377285838127136,0.1565256118774414,-0.05696297809481621,-0.4446122646331787,1.3729826211929321,1.6481907367706299,1.0243701934814453,1.616102695465088,1.2526354789733887,1.588344931602478,0.5634971261024475,0.6128057241439819,1.1391918659210205,0.9449887275695801,0.4698456823825836,0.5078280568122864,0.5029556155204773,0.1132415235042572,0.4390765428543091,-0.7309711575508118,0.5951082110404968,0.31355491280555725,0.08331215381622314,0.9336426854133606,0.04895652085542679,0.5712535381317139,0.08917197585105896,0.9826508164405823,-0.5101767778396606,-0.6107350587844849,-0.013104286976158619,0.9264995455741882,0.9858048558235168,0.7723146080970764,2.1028950214385986,1.4722564220428467,0.1228470504283905,0.6696949601173401,-0.39556679129600525,0.7791190147399902,-0.24208562076091766,-0.5105951428413391,-0.13253681361675262,-0.07254257798194885,0.1829480230808258,-0.15905357897281647,0.6730465888977051,0.6569992303848267,0.8381437659263611,0.6945063471794128,0.8238564729690552,-0.4402964413166046,-1.0111792087554932,0.005637856665998697,0.7431764602661133,-0.5512759685516357,0.12371302396059036,-0.9545668363571167,0.32802289724349976,-0.2376457303762436,0.021111633628606796,0.8967806696891785,0.8652446866035461,-0.3618395924568176,0.08925937861204147,0.3442178964614868,0.02178999036550522,-0.32360216975212097,0.02861887216567993,0.01632051169872284,0.33331888914108276,-0.17965014278888702,0.43135178089141846,-0.1886524260044098,-0.35324305295944214,-0.3043096363544464,-0.43585005402565,0.3259109854698181,-0.12637700140476227,0.787825345993042,0.29716068506240845,0.11805357784032822,0.47372758388519287,-0.9471784830093384,-0.02509760670363903,-0.7384572625160217,1.0417628288269043,-0.4854332506656647,1.0341228246688843,0.6228036880493164,0.8415288329124451,0.4425639510154724,-0.7765328884124756,0.002045636996626854,0.31059494614601135,0.14839935302734375,-0.6286939978599548,-0.1656998246908188,-0.6928967833518982,-0.33149608969688416,0.48107683658599854,0.19241639971733093,-0.5251025557518005,0.6686338782310486,-0.1815939098596573,-0.26235705614089966,-0.45239725708961487,0.3464275598526001,-1.339820146560669,-1.1478707790374756,0.3754173815250397,0.539743959903717,0.1384524554014206,0.30938491225242615,0.02226487174630165,-0.45948436856269836,0.5202447175979614,0.30529123544692993,0.7705051302909851,0.215854674577713,0.8827683329582214,-0.2537464201450348,0.08977065235376358,-0.07330458611249924,-0.8931936025619507,0.2665828466415405,0.007406778167933226,0.11428076773881912,-0.4995700716972351,-0.08623916655778885,0.4638768136501312,0.5910781621932983,-0.728484034538269,-0.0918593630194664,0.7137375473976135,-1.1196660995483398,-0.36626216769218445,-0.8478409051895142,-0.4142894744873047,-0.07659101486206055,0.6850818991661072,-0.06509687006473541,-1.2043002843856812,-1.0683609247207642,-0.75667804479599,0.6453474164009094,-0.8188129663467407,-0.1589687019586563,0.19040505588054657,0.3461363613605499,0.3796609938144684,0.3286576569080353,-0.47696125507354736,0.22417941689491272,-0.4395808279514313,-0.135904923081398,0.07209392637014389,-0.4397159218788147,-0.46998581290245056,-0.7499019503593445,-0.10604652762413025,-0.9190733432769775,0.14549866318702698,-1.4713943004608154,-0.8417863249778748,0.1760871559381485,0.19137097895145416,0.5516840815544128,-0.5847116112709045,-0.9953142404556274,-0.8545200228691101,0.2993299663066864,-0.19944386184215546,-0.7991694808006287,0.22341999411582947,0.4542522430419922,0.43284016847610474,0.21824610233306885,0.3508821427822113,0.7575429677963257,0.6533578038215637,-0.8179433941841125,0.02025902085006237,-0.36319708824157715,-0.7059717178344727,0.05814168602228165,-0.2881629765033722,-0.6751875877380371,0.08504266291856766,0.354349821805954,-1.4016374349594116,0.11287825554609299,-0.8921144008636475,-0.3825329840183258,-0.09323631227016449,0.7035103440284729,0.7681900858879089,-0.9544474482536316,-0.38356813788414,-1.1716409921646118,-0.34277620911598206,-0.7792696952819824,-0.10694720596075058,0.018682539463043213,0.22940421104431152,0.36896592378616333,-0.12204372882843018,-0.07755681127309799,-0.6814761757850647,0.15070167183876038,0.7102870941162109,-0.497717022895813,0.07538869231939316,0.1399046629667282,0.22250130772590637,0.057813610881567,0.23052744567394257,0.12476842850446701,-0.318783164024353,0.15510518848896027,-0.8135058879852295,-1.0402642488479614,-0.28924182057380676,0.3108100891113281,0.9704520106315613,-0.07795378565788269,-0.0057722716592252254,-1.0662972927093506,-0.8412020802497864,-0.3564682602882385,-0.03392646089196205,-0.7492462992668152,-0.7129851579666138,-0.6928178071975708,0.2935585677623749,-0.3887796103954315,0.8727555274963379,-0.11713673174381256,0.22199514508247375,-0.05487845838069916,-0.033999666571617126,-0.7914506793022156,0.1219516471028328,-0.5822201371192932,-0.12612445652484894,-0.7121424078941345,-0.787397563457489,-0.011785783804953098,-0.44993457198143005,-0.2566823661327362,0.5862855911254883,0.6215046644210815,-0.9451432824134827,0.7273744344711304,-1.004460334777832,0.24462364614009857,0.6100687980651855,0.29859620332717896,-0.2953755855560303,-0.5347617864608765,-0.2936732769012451,0.13393358886241913,0.06392291188240051,-0.06350506842136383,0.09728308022022247,-0.1268133521080017,0.6257778406143188,0.4320915937423706,0.6144440174102783,0.2774294316768646,-0.42019912600517273,-0.2616567015647888,1.067009687423706,0.15765778720378876,-0.6037136316299438,-1.0532011985778809,0.7954726815223694,-0.5247727632522583,0.5270158052444458,0.47991499304771423,-0.1308278888463974,-0.035372283309698105,-0.7068548798561096,-0.5763574242591858,-1.3556149005889893,-0.5579341053962708,-0.9470221400260925,0.3017987012863159,-0.0886756032705307,-0.32264965772628784,-0.04329187050461769,-0.4348910450935364,0.9717981815338135,-0.4260368347167969,0.11740023642778397,0.8432024121284485,-0.3915462791919708,-0.1276889443397522,-0.238176167011261,0.24732886254787445,-1.0840599536895752,0.5825284719467163,-0.06964997202157974,-0.11390350759029388,0.9287592768669128,-0.6874204874038696,0.23746797442436218,0.9602372646331787,-0.559786319732666,-0.6228705644607544,-0.9368475675582886,-0.34306463599205017,0.46484804153442383,-1.0000276565551758,-0.02224409580230713,0.4094318151473999,-0.27576392889022827,0.36981675028800964,0.765988826751709,0.24360348284244537,0.6037981510162354,0.513737142086029,0.7774581909179688,-0.3141019940376282,-0.16249680519104004,0.16527242958545685,0.5830342173576355,0.6198059916496277,0.722923755645752,0.5275037288665771,-0.39933115243911743,0.18184518814086914,-0.41578978300094604,0.9433060884475708,0.48580145835876465,-0.6589806079864502,0.6160526275634766,0.7171096205711365,0.6073597073554993,0.03787612169981003,-0.870416522026062,0.39193210005760193,-0.8562785387039185,0.14381714165210724,-0.2055768519639969,-0.14552316069602966,-0.3056687116622925,0.22696775197982788,-0.21153175830841064,-0.5667839646339417,-0.4659162759780884,1.005035400390625,-0.07240638881921768,0.8173227310180664,-0.28500017523765564,-0.5004149079322815,0.8470062613487244,-0.27129101753234863,0.7802295684814453,0.325897753238678,-0.7185729146003723,0.09850403666496277,0.772261381149292,-0.9931516647338867,0.5134449005126953,0.4366567134857178,0.16718989610671997,0.13185544312000275,-0.10741543024778366,-0.929548442363739,-0.041169099509716034,-0.2920592725276947,-0.6331570148468018,-0.06353501975536346,-0.8031460046768188,0.42583590745925903,-0.9725704193115234,-0.4387982487678528,-0.40248480439186096,-0.3821617364883423,-0.14920760691165924,0.6339855194091797,0.8528822064399719,0.9237313270568848,0.8111578226089478,0.14211849868297577,0.6753652691841125,-0.8984120488166809,0.7868786454200745,0.3999325633049011,0.6875913143157959,-0.10689616203308105,0.19414830207824707,-0.5420019626617432,-0.0708630234003067,-0.9218860268592834,-0.9085859656333923,0.27305930852890015,0.48477160930633545,0.9692896008491516,-0.5367971658706665,0.5367786288261414,0.015006386674940586,0.8711279630661011,0.881249189376831,0.14207902550697327,0.30316004157066345,0.6783997416496277,-0.7763218283653259,0.9602695107460022,0.7805104851722717,0.4236751198768616,-0.799761950969696,0.8685413599014282,0.7860842347145081,0.6390681266784668,0.04848803952336311,0.6470272541046143,-0.599083423614502,-0.4725325107574463,0.08891415596008301,0.7391493320465088,-0.050760507583618164,0.9497356414794922,-0.40936174988746643,0.19887086749076843,-0.19493147730827332,-0.8035473227500916,-0.5301101803779602,-0.5203236937522888,-0.5089304447174072,0.5260142683982849,0.0680096447467804,-0.8588462471961975,-0.22434590756893158,0.3959793150424957,-0.9668392539024353,-0.7506287097930908,-0.14046090841293335,0.9555674195289612,-0.7235410809516907,0.4541494846343994,0.90232253074646,0.750227689743042,0.5932106971740723,0.5826661586761475,0.6948158740997314,0.8469839096069336,-0.45274996757507324,0.2557082176208496,-0.6259081363677979,0.23165202140808105,-0.7057976722717285,0.07526183128356934,-0.649012565612793,0.7072999477386475,-0.7905523777008057,0.25307226181030273,0.24775481224060059,0.5276039242744446,0.395491361618042,-0.7850687503814697,0.3339703679084778,0.9152376651763916,-0.6105735301971436,-0.9115421772003174,-0.5304088592529297,-0.6952211856842041,-0.9256446361541748,-0.6363945007324219,0.7945771217346191,-0.973684549331665,-0.43871021270751953,-0.6121664047241211,-0.5457768440246582,-0.65334153175354,-0.5779566764831543,-0.7101156711578369,0.38487863540649414,0.3690056800842285,0.32644733786582947,0.17655615508556366,-0.15706847608089447,-0.47029930353164673,0.40303394198417664,0.6908569931983948,0.21958625316619873,-0.7683939337730408,0.8640642762184143,-0.27657684683799744,-0.45428651571273804,0.9114858508110046,-0.45598068833351135,0.5959570407867432,-0.812889575958252,-0.26228559017181396,0.7758207321166992,-0.2992476522922516,0.22197604179382324,0.9429991245269775,0.8901932239532471,-0.36623120307922363,-0.3122704029083252,-0.802264928817749,0.8482465744018555,-0.7721314430236816,0.27874955534935,-0.6902738809585571,0.4772871434688568,0.5293548107147217,0.6293528079986572,-0.4952722489833832,0.261239230632782,0.6316092610359192,0.12250840663909912,-0.27500757575035095,-0.05232580006122589,0.9237480759620667,0.9304134845733643,0.003120037028566003,0.24854813516139984,-0.20866785943508148,-0.10974698513746262,0.6898260712623596,0.13020996749401093,0.1236848458647728,0.5306254625320435,0.6158148646354675,-0.8622884750366211,0.1672213077545166,0.258608341217041,-0.030846595764160156,-0.5338490009307861,-0.676169216632843,0.9198413491249084,-0.32912248373031616,0.38324129581451416,-0.5046790242195129,-0.6270148754119873,-0.6613947749137878,-0.15947921574115753,-0.4777924120426178,-0.2121238112449646,0.7827343940734863,-0.659367561340332,-0.11988648027181625,-0.8792756199836731,-0.5640178918838501,0.08727984130382538,0.5931800007820129,0.04628298804163933,0.19406937062740326,0.1505092829465866,0.8506196737289429,-0.5764811635017395,0.3319510817527771,0.10435441881418228,0.5150453448295593,-0.670494556427002,0.2188878059387207,-0.4342818260192871,0.17526714503765106,0.16805268824100494,-0.29119959473609924,-0.8116434812545776,0.8142009377479553,-0.5580331683158875,-0.04940498247742653,-0.8335937857627869,-0.7049980759620667,0.18524637818336487,-0.4951498508453369,-0.13702383637428284,0.11826310306787491,0.07410881668329239,-0.003428492695093155,-1.007049798965454,0.035207852721214294,0.015904249623417854,0.08376513421535492,0.5511390566825867,0.6782052516937256,-0.17028437554836273,-0.6684772372245789,0.6347311735153198,-0.09284655004739761,0.19989719986915588,-0.5214524269104004,0.1808464527130127,-0.39893656969070435,0.5809182524681091,0.43240100145339966,-0.12179721146821976,-0.38078638911247253,0.6299675107002258,-0.10602644830942154,0.6881101727485657,-0.19976553320884705,0.22967636585235596,-0.009522154927253723,0.7787743806838989,-0.17977894842624664,-0.28152966499328613,-0.20968857407569885,0.35037294030189514,-0.46270668506622314,-0.36851954460144043,0.40548843145370483,-0.23141640424728394,0.11939125508069992,-0.4173286557197571,-0.607927680015564,-0.64952552318573,-0.07394574582576752,0.15020491182804108,-0.44437265396118164,-0.8540734648704529,-0.7550630569458008,-0.8907908201217651,-0.7910649180412292,0.6216078996658325,0.07754963636398315,0.07283713668584824,-0.39667028188705444,0.14197225868701935,0.5629816651344299,-0.17542333900928497,0.6842273473739624,0.7768297791481018,1.029509425163269,1.3816437721252441,0.6359354257583618,0.2530858516693115,2.0245494842529297,0.14689505100250244,0.8962645530700684,-0.6574376225471497,-0.4268234968185425,-0.46763861179351807,-0.053886473178863525,-0.9597036242485046,0.7230727076530457,-0.6355715394020081,-0.4441472589969635,-0.7437297701835632,0.7823563814163208,-0.362387478351593,-0.3387051224708557,0.359103798866272,0.33864283561706543,-0.9082977175712585,0.3102290630340576,-0.003520155791193247,-0.21670451760292053,0.8754855394363403,1.1254509687423706,1.0036544799804688,1.4648613929748535,0.31987062096595764,1.182963490486145,1.3471839427947998,0.1600715070962906,0.671152651309967,1.4072494506835938,0.2776206135749817,0.7600210309028625,-0.9911382794380188,0.28325778245925903,-0.3203391134738922,0.7134327292442322,-0.561601459980011,-0.8649449348449707,-0.897074818611145,0.614051878452301,-0.8729787468910217,0.04352084919810295,0.5147080421447754,0.5014386773109436,-0.0598171167075634,-0.5447001457214355,0.7527799606323242,-0.11740509420633316,1.0684058666229248,-0.2698582708835602,0.967587947845459,1.280259609222412,0.7688680291175842,1.0017825365066528,0.3150694966316223,0.5220933556556702,0.4161958396434784,0.30069974064826965,-0.11148634552955627,0.9519715905189514,-0.5448333621025085,0.3414528965950012,-0.8411915302276611,-0.7334597110748291,0.6683592796325684,-0.8795284032821655,0.3421563506126404,-0.9061213731765747,0.3088563084602356,0.16833174228668213,0.6563757061958313,0.594575822353363,0.41984105110168457,0.5612260103225708,1.0362266302108765,0.881862223148346,0.8939337134361267,0.20282752811908722,0.30246418714523315,1.0181729793548584,1.1651531457901,0.7253637909889221,0.3664174973964691,0.8442937731742859,-0.3787476718425751,-0.2392515242099762,-0.19610713422298431,-0.28206315636634827,0.22001606225967407,0.5357223749160767,0.19956788420677185,-0.05895600840449333,-0.8484519124031067,-0.3282008767127991,0.8760230541229248,0.45450201630592346,0.7276908755302429,0.1431678831577301,0.846145510673523,1.1262972354888916,1.2816985845565796,0.49520745873451233,0.3417315185070038,0.03621935471892357,0.19503112137317657,0.3830856382846832,1.3142985105514526,2.321000099182129,0.41537609696388245,-0.36477360129356384,-0.11914331465959549,0.5344552993774414,-0.12033991515636444,0.652991771697998,0.5949056148529053,-0.42682960629463196,1.2883200645446777,-0.39459091424942017,0.38474392890930176,-0.871044933795929,0.8869494199752808,0.8345549702644348,0.8129597902297974,0.24944978952407837,-0.15815213322639465,-0.11759748309850693,-0.09266375750303268,0.3521772623062134,-0.0038220479618757963,0.8180935382843018,0.13314291834831238,-0.12026099860668182,0.47762438654899597,0.06592856347560883,0.775468111038208,0.042438164353370667,0.23131221532821655,-0.4868835210800171,0.12676003575325012,0.30938130617141724,-0.3471536934375763,1.292701005935669,-0.259588360786438,1.0145723819732666,0.034414906054735184,0.23524224758148193,-0.408783495426178,0.5121145248413086,0.7191468477249146,0.2925150394439697,-0.18164688348770142,-0.024351127445697784,0.9244845509529114,0.7206133008003235,1.1223773956298828,0.04170200973749161,0.27313217520713806,-0.8513641357421875,0.7140341997146606,-0.5909661650657654,-0.6570262312889099,-1.2866132259368896,0.13178549706935883,1.262158989906311,-0.5612579584121704,-0.23227393627166748,1.2585179805755615,0.3283514976501465,0.029449257999658585,-0.025936290621757507,1.0363019704818726,0.9532617926597595,0.19064530730247498,-0.2791123688220978,0.5224349498748779,-0.44378939270973206,0.8188450336456299,0.5873727798461914,0.8984029293060303,1.0231473445892334,-0.4970710575580597,-0.660036563873291,-0.7458937168121338,-0.08658233284950256,-0.7292990684509277,-0.45417195558547974,-0.49711716175079346,-0.9192421436309814,-2.199183225631714,-2.2046077251434326,-0.24666358530521393,0.3230862319469452,0.36678677797317505,-0.002294704085215926,-0.41946643590927124,0.7026242613792419,0.7249370217323303,0.11043278872966766,-0.7154934406280518,-0.014676476828753948,-1.3265924453735352,-0.06695058196783066,0.7656835317611694,-0.9186276793479919,-0.1988493949174881,0.19428770244121552,0.7934854626655579,-0.07188047468662262,-0.9050067067146301,-0.9067683815956116,0.19213707745075226,-0.23604929447174072,-0.9456731081008911,0.26636821031570435,-1.4070228338241577,-0.7200029492378235,-0.6797184944152832,-0.5454371571540833,-0.5887125730514526,0.4639873206615448,-0.7367786765098572,0.21270771324634552,-1.030337929725647,-0.3256743848323822,0.011775629594922066,-0.5148709416389465,-0.36992576718330383,-0.1154649555683136,-0.35141924023628235,0.3761340379714966,0.8862287998199463,-0.5319452285766602,0.36870867013931274,0.5623220801353455,-0.8952115774154663,-0.09595213830471039,-0.20574532449245453,-0.5283501148223877,-0.5890117883682251,-0.7051886916160583,-0.844837486743927,-0.9305318593978882,-1.1279149055480957,0.021285953000187874,-1.0006163120269775,-0.42175617814064026,0.5220920443534851,-1.0652333498001099,0.44283193349838257,-1.184303879737854,-0.23323355615139008,-0.8007292747497559,-0.316596120595932,0.13658949732780457,0.6757092475891113,-1.300917148590088,-0.6890795826911926,-0.23683656752109528,0.640810489654541,0.0016651994083076715,0.7943849563598633,-0.18660375475883484,-0.5476523041725159,-0.9752187132835388,-0.5851595997810364,-0.9241482615470886,0.28101813793182373,-0.49428507685661316,-0.967954158782959,0.2039719969034195,-0.5596088767051697,-0.03727702051401138,-0.2959463596343994,-0.3952641785144806,-0.31060242652893066,-0.8830702900886536,-0.887792706489563,-0.1896674484014511,-1.0064831972122192,-0.6917179226875305,-0.1176091730594635,-1.0161471366882324,-0.9954739809036255,-0.008979247882962227,-0.1581789255142212,0.022891514003276825,-0.9098522663116455,-0.8159897327423096,0.29651373624801636,0.2545483112335205,0.6904329657554626,0.14001426100730896,-0.23128026723861694,-0.8187581896781921,-1.005053162574768,-0.08168395608663559,-0.5706955194473267,-0.3597002327442169,-0.07237505912780762,0.22050553560256958,0.19867460429668427,0.22985705733299255,-0.8494822978973389,-1.3981940746307373,-0.7270463109016418,-0.4385339021682739,-0.11429630219936371,-0.6942177414894104,-1.3514328002929688,0.149265855550766,-0.9727358222007751,-0.5787518620491028,-0.9162042140960693,-0.08746381849050522,-0.7114331722259521,-0.19485437870025635,0.7264317870140076,0.4365430474281311,0.6407358050346375,-0.8536516427993774,-1.1145910024642944,0.031611066311597824,-0.7999232411384583,-0.017133574932813644,0.07548655569553375,-0.9779720306396484,0.09427617490291595,-0.06872215121984482,-0.3600635528564453,-0.05464796721935272,-0.14828629791736603,-0.29435673356056213,-0.3878074884414673,-0.5012415051460266,0.10343008488416672,-0.5695599317550659,0.3549067974090576,0.44115886092185974,-0.02750217169523239,-0.6752618551254272,-0.7388153672218323,0.057541731745004654,-0.2740474045276642,0.3120790123939514,0.25418299436569214,-0.7752383351325989,0.27154454588890076,0.9819654226303101,-0.5480488538742065,0.6350985765457153,0.3817882835865021,0.676099419593811,-0.721125602722168,0.634548544883728,-0.033002253621816635,0.3844045102596283,-0.09612561017274857,-0.5536824464797974,-0.5281338095664978,-0.7125506401062012,-0.7024155855178833,-0.3177565336227417,0.05152184143662453,0.3311126232147217,0.26498767733573914,0.3675549626350403,-0.20083996653556824,0.39299196004867554,0.9979810118675232,-0.13798953592777252,-0.5348883867263794,-0.7303098440170288,0.8065193891525269,0.03588533401489258,0.44027137756347656,0.5015798211097717,-0.38465210795402527,1.016005277633667,-0.6881186366081238,0.2990970313549042,-0.5967220067977905,0.2516329884529114,-0.9651297330856323,0.4331096410751343,-0.2377820909023285,0.2273770421743393,-0.4375446140766144,0.312258780002594,-0.4363147020339966,-0.5067039132118225,0.29090601205825806,-0.42103493213653564,-0.05615539103746414,-0.48583531379699707,0.42034396529197693,0.8439752459526062,0.69537353515625,-0.04238786920905113,-0.8697577118873596,0.3821983337402344,0.8670000433921814,0.713108479976654,0.37790167331695557,-0.9633321762084961,-0.6518803834915161,0.4381890594959259,0.499639093875885,1.3419245481491089,-0.6015529632568359,1.0221704244613647,0.7487197518348694,0.27482783794403076,-0.9083366394042969,0.3842097520828247,-0.37092846632003784,-0.15841683745384216,0.5294703245162964,0.0727868601679802,-0.09938971698284149,0.0018104944610968232,0.5757105946540833,0.2314785122871399,0.7107059955596924,0.4209533929824829,0.9039937257766724,1.0015844106674194,0.9639815092086792,0.43471023440361023,-0.647022545337677,-0.12823157012462616,0.20785383880138397,-0.6650768518447876,-0.02072717249393463,0.5295811891555786,-0.5826837420463562,-0.15742643177509308,0.39745762944221497,0.06041362136602402,0.0016278246184810996,0.590035617351532,1.1930179595947266,1.4231019020080566,0.7105181217193604,0.8614447712898254,-0.31330713629722595,0.09987670183181763,0.06802432984113693,0.15393774211406708,-0.30941006541252136,0.029756776988506317,0.18251721560955048,0.02719825878739357,-0.06620901077985764,-0.08709210902452469,-0.46649158000946045,-0.9009460210800171,-0.420554518699646,0.35797619819641113,0.573613166809082,0.16686689853668213,0.5923600196838379,-0.22721481323242188,0.7928873300552368,0.8100982308387756,0.0934663936495781,-0.02642841823399067,1.1334519386291504,-0.5039010047912598,-0.4928475022315979,0.28234943747520447,1.0838714838027954,0.3832329511642456,1.0486934185028076,0.42194390296936035,-0.21122612059116364,0.48091644048690796,0.41284334659576416,0.5254974961280823,0.9344690442085266,-0.6017916798591614,-0.20886626839637756,0.23317697644233704,0.4148494601249695,-0.35623249411582947,0.4348013401031494,0.9737851619720459,-0.4925961494445801,0.32417458295822144,0.09029822796583176,-0.2139427661895752,0.18641293048858643,0.16843494772911072,-0.30946263670921326,0.7404831051826477,-0.017774168401956558,0.9001224637031555,-0.28740549087524414,0.18830953538417816,-0.10475842654705048,0.4161696434020996,0.39999330043792725,0.35634201765060425,0.33876895904541016,0.962853193283081,0.27482888102531433,-0.5882736444473267,-0.04688597097992897,0.072651706635952,-0.470676451921463,0.5978332161903381,0.5721749663352966,-0.15478567779064178,0.6199240684509277,-0.6249978542327881,-0.6564450263977051,0.713776707649231,0.9750141501426697,0.7191414833068848,0.08543968200683594,1.1028459072113037,0.1902790665626526,0.031563714146614075,-0.05049881339073181,0.6280144453048706,1.184444546699524,-0.11857973039150238,0.9265011548995972,0.4585740268230438,0.34695160388946533,0.7509422898292542,0.3386757969856262,0.13210976123809814,0.1538766473531723,1.0190858840942383,-0.6191429495811462,-0.15232276916503906,-0.5305807590484619,-0.14762993156909943,-0.9249554872512817,-0.16704146564006805,-0.43569135665893555,-0.12007427215576172,-0.3807682991027832,-0.43052101135253906,-0.41878652572631836,0.7477542757987976,-0.6187509894371033,0.27481430768966675,0.6711377501487732,0.6335379481315613,0.40822428464889526,1.1972013711929321,1.0670616626739502,1.124441385269165,0.7267612814903259,1.113193154335022,0.4065154492855072,0.9321269392967224,1.3342403173446655,-0.16381801664829254,0.32120978832244873,-0.48948413133621216,0.5950279831886292,-0.7276358604431152,-0.471376895904541,-0.3403090238571167,-0.0006012918311171234,-0.6440088748931885,-0.015973567962646484,-0.7954738140106201,0.4226686954498291,-0.6088831424713135,-0.8500137329101562,-0.1532868593931198,-0.14298193156719208,-0.19710122048854828,-0.6651544570922852,0.03118797205388546,0.5898886322975159,-0.02587302215397358,0.7200822234153748,-0.43787306547164917,0.24273771047592163,0.9320186972618103,0.9062122702598572,-0.14507849514484406,0.3601328730583191,0.25472545623779297,0.462999165058136,-0.3725069463253021,-0.27738478779792786,-0.9867308735847473,0.023015659302473068,0.9273650646209717,0.1622147560119629,0.4987795352935791,-0.9259312152862549,0.1706559658050537,-0.15444207191467285,-0.8208396434783936,-0.9630119800567627,0.11790251731872559,-0.47136759757995605,0.621363639831543,-0.3802485466003418,-0.19263815879821777,-0.5556743144989014,-0.9033641815185547,-0.3709115982055664,0.4661688804626465,-0.984375536441803,-0.10284602642059326,-0.935198962688446,-0.8350584506988525,-0.8887894153594971,-0.7393167018890381,0.6245584487915039,0.4427797794342041,0.008466005325317383,-0.94964599609375,0.6063907146453857,-0.6846756935119629,0.005433082580566406,0.4961884021759033,0.7417826652526855,0.2094860076904297,0.5597794055938721,0.8425822257995605,-0.10396289825439453,-0.1803443431854248,-0.9039983153343201,-0.11533451825380325,0.7743674516677856,-0.4303295314311981,-0.8000106811523438,0.827168881893158,0.5932139158248901,-0.19375881552696228,0.9354205131530762,-0.9214189648628235,0.7980462312698364,0.6456878185272217,0.8481232523918152,-0.5839229822158813,0.05173912271857262,-0.1133234053850174,0.2645820379257202,-0.284485787153244,0.8950708508491516,0.6008327007293701,-0.45058441162109375,0.43817925453186035,-0.34085774421691895,-0.2545440196990967,-0.052362680435180664,0.7803065180778503,0.1962595134973526,0.11651269346475601,0.25287118554115295,-0.8101202249526978,-0.3638988137245178,-0.637462317943573,0.15522658824920654,0.7520588636398315,-0.7113511562347412,0.950904130935669,0.11550541967153549,0.8354920148849487,-0.7046372890472412,-0.6650828719139099,0.1302383840084076,0.3776460289955139,-0.8919568657875061,-0.1101289764046669,-0.5040199160575867,-0.4663640260696411,0.39179527759552,-0.22094181180000305,0.9666123986244202,0.42431116104125977,-0.1401374340057373,0.9626643657684326,-0.6927917003631592,0.705425500869751,0.9517108798027039,0.39426979422569275,-0.725976288318634,0.05672162398695946,1.1069036722183228,0.9463071227073669,1.020200252532959,-0.6360089778900146,0.02131250686943531,0.9396671056747437,-0.3560415804386139,-0.08311908692121506,0.18691597878932953,-0.29172590374946594,-0.5487352609634399,0.06684023886919022,0.43621861934661865,0.08025255799293518,-0.08322492241859436,0.7226187586784363,0.9835912585258484,0.2653876543045044,0.075564906001091,-0.4748750329017639,0.22418904304504395,-0.5434236526489258,-0.4956631660461426,-0.48596709966659546,0.1712244749069214,0.566648542881012,-0.8317490220069885,0.021700657904148102,-0.8080639839172363,-0.30230963230133057,0.5818095207214355,1.0230838060379028,-0.4434901177883148,0.9752169251441956,-0.3893563151359558,0.02706008590757847,0.8098838925361633,0.7256597280502319,0.919478178024292,1.00969398021698,-0.492363303899765,-0.2903299927711487,0.8804729580879211,-0.34980008006095886,-0.07249812036752701,0.6882694363594055,-0.017152979969978333,-0.37540656328201294,-0.01018791925162077,0.050725698471069336,0.4695158004760742,0.5437137484550476,0.14595256745815277,-0.8630525469779968,-0.3767078220844269,0.5627959370613098,1.1927647590637207,0.2244308739900589,-0.6626542210578918,-0.7357145547866821,0.5259002447128296,0.3881383538246155,0.9129912853240967,0.4051167070865631,-0.5293670296669006,0.35170167684555054,0.1268198937177658,0.6449308395385742,0.7711820602416992,0.8877958059310913,0.16076426208019257,0.3109714388847351,0.6499645113945007,-0.6362892389297485,0.936105489730835,0.9799786806106567,0.4690394401550293,-0.5435655117034912,0.18587075173854828,-1.0039007663726807,0.04838154464960098,-0.8082377314567566,1.0486841201782227,0.7029649615287781,-0.27614495158195496,-0.5136277675628662,0.6952557563781738,0.7087514400482178,0.7968421578407288,-0.31619495153427124,0.2317265272140503,-0.6900133490562439,-0.24593141674995422,-0.3695598840713501,0.5520174503326416,0.6045480370521545,-0.2531180679798126,0.4432377815246582,-0.5079716444015503,-0.5891097784042358,-0.009515459649264812,0.2114887535572052,-1.0189145803451538,-0.020783573389053345,-0.15144667029380798,-0.8058727383613586,0.24426189064979553,-0.9945634603500366,0.48031023144721985,-0.010791241191327572,0.03239382058382034,-0.3038760721683502,0.033436369150877,0.2781258225440979,1.1083921194076538,-0.34961819648742676,0.24547229707241058,0.6668677926063538,0.5108177661895752,-0.05552138760685921,-0.36855262517929077,-0.7149125933647156,0.2699952721595764,0.04594941809773445,-0.7555949091911316,-0.48138055205345154,-0.9458031058311462,-1.0332907438278198,0.16374002397060394,-0.8945366144180298,-0.7383502721786499,-0.2134307622909546,0.2881034314632416,0.74845290184021,0.633401095867157,0.5304720401763916,0.8882960677146912,-0.17214831709861755,-0.0393059067428112,-0.5045047998428345,0.5684218406677246,0.47634923458099365,-0.289877712726593,-0.37459737062454224,-0.44948285818099976,0.6876092553138733,0.2849249541759491,0.6732804775238037,0.13341635465621948,-0.019457511603832245,-0.0885639563202858,-0.5195165276527405,0.24392780661582947,-0.5721718668937683,-0.026674631983041763,-0.291072279214859,-1.1844487190246582,-0.5833527445793152,-0.865145742893219,-0.9420711398124695,0.052901893854141235,0.8535389304161072,0.8498294353485107,-0.505232572555542,0.06906003504991531,0.5139045715332031,0.31614118814468384,-0.1695740669965744,1.3369519710540771,0.1128268837928772,-0.04152672737836838,0.6863898634910583,-0.4238845109939575,-0.5867721438407898,-1.0770198106765747,-0.3105759024620056,-0.76029372215271,-0.903784453868866,-0.16309356689453125,-1.0131337642669678,-1.3243805170059204,0.3694689869880676,0.19419769942760468,-0.05880029499530792,-0.21218399703502655,-0.07887725532054901,-0.2805875837802887,-0.10480872541666031,0.38303855061531067,0.5064066648483276,0.3610873818397522,-0.4913092255592346,0.5446151494979858,0.43715015053749084,0.2721780240535736,0.6655726432800293,-0.5054128170013428,0.05860789865255356,-0.4083695411682129,0.5567541122436523,-0.3397236466407776,0.4776628315448761,0.2593013644218445,0.8922836780548096,-0.4024081528186798,-0.17666926980018616,-0.5882523059844971,-0.019448189064860344,0.2459072470664978,-0.030531644821166992,-0.602873682975769,0.12664169073104858,-0.6870107650756836,-0.873517632484436,-0.596247673034668,0.591498851776123,-0.326663613319397,-0.6610619425773621,0.7283098101615906,-0.9220361709594727,-0.051889535039663315,-0.09128820151090622,-0.8175783157348633,-0.30877694487571716,-0.5790524482727051,-0.0707685574889183,-0.5129977464675903,-0.005977804772555828,-0.9236581325531006,0.5678215026855469,-0.495130330324173,0.34380242228507996,1.0510540008544922,-0.40257036685943604,-0.12035166472196579,0.5130103826522827,-0.21257983148097992,-0.2856091856956482,-0.04954179748892784,-0.15038153529167175,1.2414981126785278,0.9319502711296082,-0.09209009259939194,-0.6408510804176331,0.6971280574798584,-0.46477583050727844,0.39880427718162537,0.08505944162607193,-0.8126915693283081,0.6208943724632263,-0.04255332052707672,-0.5055367946624756,-0.6395147442817688,-0.502914309501648,-0.7802636027336121,-0.21127639710903168,-0.3457360565662384,-0.916319727897644,-0.14225152134895325,-0.04363526031374931,-0.10791079699993134,0.22001536190509796,-0.4438342750072479,-0.3057475686073303,0.6045660972595215,1.1939765214920044,-0.11145896464586258,0.34252452850341797,-0.35375261306762695,0.8940361738204956,0.6169869303703308,-0.06335565447807312,-0.11655720323324203,-0.3057704567909241,0.9303438663482666,0.21777670085430145,-0.8410037159919739,-1.1571581363677979,-0.38353437185287476,-0.8705848455429077,-0.8492183089256287,-0.44590216875076294,-1.1533374786376953,-0.5397200584411621,-0.8006176352500916,0.2585804760456085,0.8310149312019348,0.0678662359714508,-0.05389151722192764,0.2800520956516266,-0.2664775848388672,0.46378830075263977,0.35599783062934875,-0.30350375175476074,0.4763173758983612,1.4472521543502808,1.1700174808502197,1.3445518016815186,0.7482810020446777,-0.7364553809165955,0.7716882824897766,-0.5868781805038452,0.2838175594806671,0.7159276008605957,0.3923301100730896,-0.778889536857605,0.43464231491088867,-1.0222269296646118,-0.5248979330062866,-0.03990036994218826,-0.46176227927207947,-1.0472463369369507,-0.028006449341773987,-0.5243521332740784,-0.6461039781570435,0.9233075976371765,-0.2642064392566681,-0.03666706010699272,-0.5767796635627747,-0.5424020290374756,0.07753714919090271,0.30854618549346924,0.9423100352287292,0.8501322269439697,-0.41634106636047363,0.9319445490837097,0.30916470289230347,-0.13701443374156952,-0.530685544013977,-0.6282303929328918,0.018560349941253662,-0.48502907156944275,0.0741271823644638,0.3947031497955322,-0.7302007675170898,0.5780475735664368,-0.9726942181587219,-0.07497844099998474,0.14199690520763397,0.043307993561029434,-0.23833566904067993,0.3205105662345886,-0.17638429999351501,0.24150508642196655,0.7934122085571289,-0.7213354110717773,-0.7109717130661011,-0.6064621806144714,0.2166270613670349,-0.41299259662628174,-0.18843930959701538,-0.3677091896533966,0.1074150875210762,1.1064412593841553,0.04795728996396065,0.933481752872467,0.4412914216518402,-0.6877719759941101,0.9108290076255798,0.03405601903796196,0.8645023107528687,0.7191330790519714,-0.8872221112251282,0.2641139030456543,-0.91579270362854,-0.3274703621864319,-0.6869063973426819,0.7023386359214783,-0.25298774242401123,0.9437026381492615,0.06124104559421539,-0.4852907061576843,-0.6275001168251038,-0.903718888759613,-0.4609434902667999,-0.547872006893158,0.8637393116950989,0.7455863356590271,-0.7461738586425781,0.248078390955925,1.2925331592559814,0.691425085067749,-0.6007222533226013,0.48961880803108215,0.10681474208831787,-0.5839672088623047,-0.8301041722297668,0.10170423984527588,0.599693238735199,-0.17174147069454193,0.6354168653488159,-0.4406220614910126,-0.5817620754241943,0.38928091526031494,0.07235666364431381,0.07045470923185349,0.5357704162597656,0.6344994902610779,-0.5668172836303711,-0.11382988840341568,-0.23845192790031433,-0.48554229736328125,-0.13054031133651733,0.3578675091266632,-0.25843313336372375,0.9420533776283264,0.9405916333198547,0.8604696393013,-0.6662560105323792,0.5725141763687134,0.18894416093826294,-0.3297751247882843,-0.4076940417289734,-0.522713840007782,0.10555090755224228,0.23870497941970825,0.9605582356452942,0.3434867858886719,-0.11645596474409103,-0.6550400257110596,0.3371896743774414,0.36351722478866577,0.6022999882698059,0.5174195766448975,0.42619749903678894,0.24693767726421356,0.7529764771461487,0.22895903885364532,-1.138251781463623,0.6361575722694397,0.07631359994411469,-0.5644106268882751,0.3062506318092346,0.5162013173103333,-0.4838680624961853,-0.5536689162254333,0.4087986946105957,-0.825623631477356,-0.31827011704444885,-0.3524303138256073,0.46768781542778015,-0.151472806930542,0.3958749771118164,0.8842779994010925,0.5076126456260681,-0.150140643119812,0.11553212255239487,-0.1331021636724472,0.759183406829834,0.19267211854457855,-0.192097470164299,0.2857113182544708,1.1982554197311401,0.862243115901947,-0.2644291818141937,-0.4172302186489105,-0.07405327260494232,-0.18337863683700562,0.47660645842552185,-0.06473840773105621,-0.4573493003845215,-0.44500696659088135,0.36031249165534973,0.3296302855014801,1.112115502357483,-0.06254691630601883,0.8588482737541199,-0.6981202960014343,-0.18191492557525635,-0.3033630847930908,0.42156198620796204,0.7311899662017822,0.13937562704086304,0.34507623314857483,1.2277858257293701,0.46336302161216736,-0.009364251047372818,0.36800214648246765,0.4362957775592804,1.242447018623352,0.5774939656257629,0.3992955684661865,0.3412695825099945,0.7578054070472717,0.22277399897575378,0.021474763751029968,0.08745262771844864,0.5258645415306091,-0.1976775974035263,0.40767577290534973,-0.6402350068092346,0.0835275650024414,-0.016903381794691086,0.10391721874475479,-0.7643596529960632,0.48502254486083984,0.018901653587818146,0.9916565418243408,-0.6361591815948486,0.4130555987358093,0.13748031854629517,0.7381607890129089,0.36867672204971313,1.2142870426177979,0.7086974382400513,1.1593989133834839,-0.3965786099433899,1.3197916746139526,0.5733495354652405,-0.0730307325720787,0.2811296284198761,0.3922000527381897,0.7758413553237915,-0.41103509068489075,-0.2504484951496124,0.6602950096130371,0.6169060468673706,0.8873538374900818,-0.9732328057289124,0.3998439311981201,-0.276789128780365,-1.0048415660858154,0.8381786942481995,-0.9123077392578125,-0.9934899806976318,0.6324031352996826,-0.00006792619387852028,0.5150513648986816,0.5503576397895813,0.3845687508583069,0.5602566003799438,0.29585859179496765,1.4780011177062988,-0.07758809626102448,0.9165170788764954,-0.17624081671237946,-0.5699295997619629,0.6163750886917114,1.0303462743759155,-0.08986121416091919,0.8161188960075378,-0.20477797091007233,0.4216058850288391,-0.5714190006256104,-0.6827839016914368,-0.9031093120574951,-0.5950530171394348,0.06445984542369843,-0.6020264029502869,-0.10857077687978745,0.21835307776927948,-0.09821628779172897,0.3074667453765869,-0.588036298751831,0.2983222007751465,1.003825306892395,0.01831669919192791,-0.3666364848613739,-0.2500534653663635,1.0009655952453613,0.5511096119880676,0.4144839346408844,-0.0467681922018528,0.13795997202396393,0.3887544572353363,0.5844943523406982,-0.4249899089336395,0.9513684511184692,0.6115949749946594,-0.06620559096336365,0.7871454954147339,0.05112560838460922,0.09019909054040909,-0.8151743412017822,0.3372175097465515,0.5247021913528442,0.6871098279953003,0.9602635502815247,-0.3876804709434509,-0.9953125715255737,0.2916069030761719,0.5246179103851318,-0.7849545478820801,-0.1668437123298645,0.8567635416984558,0.5100956559181213,0.5877989530563354,0.6926824450492859,-0.6140314340591431,0.9545177817344666,0.5327759385108948,-0.05133209750056267,0.8519056439399719,1.2956792116165161,0.17617738246917725,0.29321420192718506,0.2977149784564972,0.14308510720729828,0.7933254837989807,-0.807708740234375,-0.7532407641410828,-0.2767115831375122,-0.38450106978416443,-0.5075035095214844,-0.5377057790756226,0.9494413137435913,0.5603277683258057,0.6026304960250854,0.26892662048339844,0.8896193504333496,0.27817821502685547,0.04955160990357399,0.9222210645675659,-0.13126973807811737,-0.023257512599229813,0.8616408705711365,0.04245496913790703,-0.7380490899085999,0.44265708327293396,0.5395686030387878,0.5863639116287231,-0.21833766996860504,0.695654571056366,-0.1773761659860611,0.7842013835906982,-0.012546822428703308,-0.12085945159196854,-0.8824428915977478,0.14366604387760162,0.2724635601043701,-0.667654275894165,-0.7308586835861206,-0.9950863718986511,0.15107989311218262,-0.36834433674812317,-0.20002077519893646,-0.2999241352081299,0.1479783058166504,0.2189326286315918,0.1112525463104248,-0.9115062355995178,0.8617127537727356,-0.48436087369918823,0.798287034034729,-0.31850311160087585,-1.0090055465698242,-0.17143455147743225,-0.16791638731956482,0.5003615021705627,0.7010180354118347,-0.8214043378829956,0.45124712586402893,-0.3785248398780823,-0.2571447491645813,0.7067110538482666,0.6085407137870789,0.11500518769025803,0.6248487830162048,0.8797034621238708,0.9879950284957886,-0.8637939691543579,0.515668511390686,-0.563309371471405,0.18311309814453125,0.29795145988464355,-0.5550360679626465,0.01725459098815918,0.2280881404876709,-0.4598572254180908,0.05911631882190704,-0.34470850229263306,0.9217771887779236,-0.7367634177207947,-0.5070213675498962,-0.5193187594413757,-0.21557463705539703,0.271209716796875,-0.40294647216796875,0.22245369851589203,-0.2839636504650116,-0.28466591238975525,0.7453700304031372,0.08635766059160233,0.8479802012443542,-0.6651630997657776,0.9244762063026428,-0.4689218997955322,0.8749228715896606,0.16462349891662598,-0.9618172645568848,0.5659294128417969,0.9371511936187744,-0.45413875579833984,0.20157623291015625,-0.7046446800231934,0.5295133590698242,0.8997488021850586,-0.9709877967834473,-0.7151625156402588,-0.7554976940155029,-0.45218658447265625,-0.21936392784118652,-0.6776666641235352,-0.15123534202575684,0.08562946319580078,0.5706266760826111,0.6782881021499634,-0.8817622065544128,-0.845501184463501,-0.18092823028564453,0.7655599117279053,-0.6674854755401611,-0.9012353420257568,0.9757428169250488,0.28458642959594727,-0.40333008766174316,-0.26816630363464355,-0.7103674411773682,-0.3798685073852539,-0.9887504577636719,-0.271129846572876,0.3694915771484375,-0.28907179832458496,0.8156418800354004,-0.3396131992340088,0.4711942672729492,0.45926424860954285,0.2085781991481781,-0.4384951889514923,-0.8780794739723206,-0.22078485786914825,0.41923266649246216,0.6660582423210144,0.5731363296508789,-0.9664378762245178,-0.018692176789045334,0.8186625838279724,-0.29790714383125305,-0.006649460643529892,0.8792092204093933,0.28961384296417236,0.9384074211120605,0.284827321767807,0.43861496448516846,0.13234573602676392,0.9647350311279297,0.8553080558776855,0.3674440383911133,0.9041376113891602,-0.7161695957183838,-0.9527890682220459,-0.17458701133728027,-0.4590802788734436,0.41233107447624207,0.02984917350113392,-0.28291741013526917,0.23396669328212738,-0.1242019534111023,0.5700141787528992,0.25098687410354614,0.46969830989837646,0.024206511676311493,-0.24015796184539795,0.09488683938980103,-0.6696566343307495,0.2673046886920929,-1.1036163568496704,-0.039470985531806946,0.566034197807312,-0.13590887188911438,-0.5807439684867859,-0.8655102252960205,0.8688206076622009,-0.05923423543572426,0.42242592573165894,0.43253016471862793,0.03963589668273926,0.6432170867919922,0.3776266574859619,-0.29105833172798157,0.8890137076377869,0.8824604153633118,-0.9958418011665344,-0.5359781384468079,-0.37172311544418335,-0.5802335143089294,0.5094683766365051,-1.3031035661697388,-0.4585588276386261,-0.749960720539093,-0.787428081035614,0.8395609855651855,-0.6292752027511597,-0.3170420527458191,0.6944299936294556,0.6772931814193726,0.1857873648405075,0.13945822417736053,-0.5712761878967285,-0.9104912877082825,-0.5567899942398071,0.04180199280381203,-0.5875245928764343,0.7050739526748657,-0.6414229869842529,0.7560324668884277,0.393649160861969,-0.595114529132843,0.3420949876308441,-0.036032337695360184,-0.29556095600128174,-0.5908702611923218,0.05940638482570648,0.5507079362869263,0.2636076509952545,-0.38233423233032227,-0.3184378147125244,0.7960609793663025,0.2796872854232788,-0.09003470093011856,0.5116329789161682,-0.03626617416739464,-0.14098700881004333,0.931145966053009,-0.20532536506652832,0.21460802853107452,-0.19815663993358612,0.865112841129303,-0.8032111525535583,-0.6981745958328247,0.5996119379997253,0.6705054044723511,-0.686812698841095,0.9227180480957031,-0.4950859546661377,0.3125477433204651,0.5416322946548462,0.31819969415664673,0.3974403738975525,0.18239256739616394,0.224223330616951,0.005160838831216097,-0.4179796576499939,0.8081477284431458,0.5591274499893188,-0.6744633913040161,0.14154992997646332,0.3192909061908722,-0.545838475227356,0.6334861516952515,0.03444679453969002,-0.44545069336891174,0.5430298447608948,0.1994600147008896,1.1275631189346313,-0.23763570189476013,0.8578473925590515,0.3313419818878174,0.9456344246864319,-0.9198497533798218,-0.4451272785663605,0.8859920501708984,-0.8989672660827637,-0.20189274847507477,0.9408294558525085,0.17187221348285675,0.0907505676150322,-0.3735886216163635,0.5973361134529114,-0.399353563785553,0.8740876913070679,-0.0382123664021492,0.7570606470108032,-0.4030478894710541,0.6691344976425171,-0.20818394422531128,-0.45454487204551697,-0.11248362064361572,-0.330074667930603,0.2765592038631439,0.22633525729179382,0.1736365258693695,-0.2534239590167999,-0.22456638514995575,-0.26584458351135254,1.0022495985031128,0.7382389903068542,0.43816837668418884,-0.5998008251190186,-0.11324718594551086,-0.3648841083049774,0.021010747179389,0.8676573634147644,0.060787200927734375,1.0159168243408203,-0.3592836856842041,-0.7445839643478394,0.42596349120140076,-0.5931244492530823,1.0474789142608643,0.0215318500995636,0.6058235168457031,-0.31518983840942383,0.26586905121803284,1.2269505262374878,-0.23010419309139252,0.46856018900871277,0.39796626567840576,-0.43650731444358826,0.005461801774799824,0.2858858108520508,1.0376359224319458,1.313941240310669,0.8247529864311218,-0.4069170355796814,0.5318922400474548,-0.004290934186428785,-0.5853290557861328,-0.556340217590332,-0.359729528427124,-0.6493444442749023,-0.40474894642829895,-0.019444173201918602,-0.22411039471626282,0.6750826835632324,0.9472793936729431,0.454334020614624,-0.9321834444999695,0.3876586854457855,0.3965148627758026,-0.2630496025085449,-0.5844394564628601,-0.6246618032455444,-0.08152585476636887,0.31965968012809753,-0.4209703803062439,0.7498180866241455,0.1406698375940323,0.19769370555877686,0.6537989974021912,-0.41903194785118103,0.3813285231590271,0.9409433007240295,-0.7205492854118347,0.3597702980041504,0.44472792744636536,0.5063760876655579,-0.967904269695282,-0.5957280397415161,0.8816991448402405,0.41263100504875183,0.9736344218254089,-0.11766663193702698,0.2136438637971878,1.0220845937728882,0.015484809875488281,-0.5192069411277771,0.7441855669021606,-0.05321108549833298,0.058801233768463135,0.4492303133010864,-0.5604403614997864,-0.2298644483089447,0.6266416311264038,-0.4998147487640381,1.014627456665039,-0.10506471246480942,0.4653283953666687,0.16839060187339783,0.5860525369644165,-0.43349358439445496,1.0856446027755737,0.3332054615020752,0.26407623291015625,-0.3342573940753937,-0.19666334986686707,-0.26466211676597595,0.581575334072113,0.5505096912384033,-0.4557874798774719,-0.3562914729118347,-0.4401116967201233,0.9361127614974976,-0.14847402274608612,0.9518783092498779,-0.15234576165676117,0.16631262004375458,0.7916008234024048,-0.0199680607765913,0.35687610507011414,-0.1393570452928543,0.22174344956874847,0.7938801646232605,0.29997649788856506,0.7826783061027527,0.25461724400520325,1.14400315284729,-0.3229263424873352,0.14141395688056946,1.1110727787017822,-0.7201319336891174,0.4725116193294525,-0.08091185241937637,-0.3707762658596039,0.21651941537857056,1.1028902530670166,-0.07927561551332474,0.4523816406726837,0.07005142420530319,1.0177631378173828,-0.23829330503940582,0.8809514045715332,0.8748837113380432,0.1946491003036499,1.0177147388458252,1.5885355472564697,0.8183903098106384,0.9498305916786194,0.35863786935806274,0.3511970043182373,0.498276948928833,-0.27695149183273315,-0.3678255081176758,0.47926801443099976,-0.5948328375816345,0.7063521146774292,0.10349805653095245,-0.19779132306575775,0.14880305528640747,0.5104832053184509,-0.6072554588317871,0.20846369862556458,-0.21351619064807892,0.5679185390472412,-0.4294234812259674,-0.6132059097290039,0.5892788171768188,-0.4081495404243469,0.23042552173137665,0.7007132768630981,0.8524472117424011,0.913205087184906,0.5083945393562317,0.9298202395439148,1.6187111139297485,0.6511864066123962,0.2768685519695282,-0.11888722330331802,0.33976417779922485,-0.7780261039733887,-0.6812920570373535,-0.23187388479709625,0.33027300238609314,-0.6597520112991333,0.46445122361183167,0.3739844858646393,-0.7322676777839661,-0.21395547688007355,0.8427642583847046,-0.6658096313476562,-0.5623112916946411,0.8887826204299927,0.6956434845924377,-0.4948074519634247,-0.3888784348964691,0.5730717182159424,0.15100370347499847,-0.3288863003253937,0.6455785632133484,0.30897006392478943,1.1257621049880981,0.20528173446655273,0.8758360147476196,0.09512845426797867,0.7408587336540222,-0.6988020539283752,0.5609405636787415,-0.8836545944213867,0.13065803050994873,-1.44186532497406,-1.5064085721969604,-0.4251748323440552,-1.0718045234680176,-0.3744056224822998,0.546171247959137,0.9268494844436646,0.40220996737480164,0.11042919754981995,-0.6626015305519104,0.7573375105857849,-0.03413044661283493,-0.04554709792137146,-0.019660584628582,-1.1709469556808472,0.2869708836078644,-0.7479828000068665,-0.7669752240180969,0.29920417070388794,-0.3935650885105133,0.8265599012374878,1.161318063735962,0.7102499604225159,0.39038336277008057,0.32965946197509766,-0.6228097081184387,0.07613964378833771,-0.6999856233596802,-0.555950939655304,-0.7548643946647644,-1.079162359237671,0.7861990928649902,-0.2586519122123718,0.7582235932350159,0.9317527413368225,-0.6948708295822144,0.39770716428756714,0.3010217845439911,-0.9098398685455322,-1.2548311948776245,-1.4133665561676025,-0.8619776964187622,-0.6714040040969849,-0.8348445892333984,-0.35728368163108826,-0.25539225339889526,0.9606339931488037,0.1520148664712906,0.8996592164039612,0.3067324459552765,-0.4126478433609009,-0.011815840378403664,0.10117590427398682,0.5183693170547485,0.7036579847335815,0.5144164562225342,0.6646535396575928,-0.14492464065551758,-0.11613915860652924,0.1962350308895111,-0.3700539767742157,-0.17154310643672943,0.3421112895011902,-0.5458884239196777,-0.6668734550476074,0.02134038880467415,0.49548932909965515,-0.15978491306304932,-0.3588902950286865,-0.787621796131134,-1.249790072441101,-1.0311806201934814,-1.4031339883804321,-0.4869953691959381,0.31681832671165466,-0.07526203989982605,-0.2764110267162323,0.8220072388648987,0.16668248176574707,-0.051878828555345535,0.023231390863656998,0.30509573221206665,-0.7990415096282959,0.5224793553352356,0.6030287146568298,0.6350101232528687,-0.1801537275314331,0.2984082102775574,-0.4598027467727661,0.21821609139442444,-0.6171951293945312,0.47108331322669983,-0.05034549534320831,0.38597023487091064,0.09641613811254501,0.46794241666793823,-0.33217597007751465,-0.5045581459999084,-1.088470458984375,-0.36614230275154114,-0.8255509734153748,-1.1296144723892212,-0.14463309943675995,-0.1492808759212494,-0.4270831048488617,0.07628215104341507,0.285021036863327,-0.18327826261520386,-0.6441805958747864,-0.3000456392765045,-0.6381593346595764,-0.13113245368003845,-0.7303988337516785,0.6383311152458191,-0.8170414566993713,-0.6057813763618469,0.5074267983436584,-0.9351454377174377,0.5389912128448486,-0.864808976650238,-0.18472526967525482,-0.1795622855424881,-0.6312683820724487,-0.7044610977172852,-0.11585364490747452,0.21126745641231537,-1.1124918460845947,-0.726043164730072,-1.8418704271316528,-0.6572554111480713,-0.3200700581073761,-0.8071284294128418,0.7009561061859131,-0.7621763944625854,-0.45379000902175903,-0.543688952922821,0.017288831993937492,-0.21594229340553284,0.21417762339115143,0.3395063579082489,-0.7308400869369507,-1.1431324481964111,0.16384977102279663,0.35779038071632385,0.6216672658920288,-0.9121348857879639,-0.017641015350818634,-0.5528086423873901,0.8443824648857117,0.2479269653558731,1.0350285768508911,-0.8390573263168335,-0.4880470037460327,0.22281703352928162,0.5911429524421692,-0.6171623468399048,-0.554436981678009,-0.4378644526004791,-0.8247308731079102,-0.1740044355392456,0.0034986434038728476,-0.07206854224205017,-0.07099661231040955,0.3913290798664093,-0.9279034733772278,0.5093410611152649,-0.8812481760978699,0.0873398408293724,-0.9971948862075806,0.20308631658554077,0.014610908925533295,0.6356099247932434,0.9324530363082886,-0.9096894264221191,-0.06731820106506348,0.8551110029220581,0.8488326072692871,-0.2605510652065277,-0.5269246697425842,0.1535300463438034,-0.1254332959651947,-0.10995030403137207,-0.793956995010376,0.5486183166503906,-1.0552847385406494,-0.23943264782428741,-0.3213929235935211,-0.19139577448368073,-0.18417717516422272,-0.7841890454292297,-0.2830520272254944,0.022861938923597336,-0.2426377683877945,-0.7946264147758484,-0.5990842580795288,0.43223997950553894,-1.0334014892578125,0.3850284218788147,-0.8183989524841309,-0.38393697142601013,0.5076109766960144,0.9070826768875122,0.6458783745765686,-0.479113906621933,-0.785487949848175,0.49858301877975464,-0.045739900320768356,-0.19296029210090637,-0.6631863117218018,0.0995926558971405,-0.9572911262512207,0.43760815262794495,-0.9500619769096375,-0.3966168165206909,-0.651255190372467,0.28028494119644165,0.06635715812444687,-0.7709206938743591,0.13710162043571472,-0.08827672898769379,0.32388225197792053,-0.3543805778026581,0.018604127690196037,-0.9034773707389832,-0.5581063032150269,-0.9784477353096008,-1.0882258415222168,-0.08830224722623825,0.2589954733848572,-0.40479445457458496,0.08187467604875565,0.6276613473892212,-0.3205922842025757,0.9863783121109009,-0.6217949390411377,0.027780257165431976,0.4426869750022888,-0.6028810739517212,-0.2274681031703949,-0.0550481453537941,-0.3241202235221863,-0.8519830703735352,0.08839142322540283,0.5295397043228149,0.35311517119407654,-0.027643732726573944,-0.6619197130203247,-0.25233224034309387,-0.21233917772769928,-0.874478280544281,-0.5279272794723511,0.0016709346091374755,-0.8172135353088379,-1.1636656522750854,0.505923330783844,-0.7056924700737,0.1417960226535797,-0.7821519374847412,-0.8741731643676758,-0.5552403926849365,-0.7655078768730164,-0.7551200985908508,0.9975572228431702,-0.51304030418396,0.48781025409698486,-0.9711951613426208,0.2557813823223114,-0.623204231262207,-0.3833218812942505,-0.3626011312007904,-0.5067312717437744,0.5161380171775818,-0.4678342044353485,0.7458811402320862,1.0660828351974487,-0.20281927287578583,0.4849654734134674,0.5587652325630188,-0.6803667545318604,-0.5324056148529053,-0.15555426478385925,0.6426680684089661,-0.8924256563186646,-0.2603406012058258,-0.9351863265037537,0.2837200164794922,0.36754369735717773,-0.8830699920654297,-0.21676667034626007,-0.2939188480377197,-0.37753036618232727,-0.12209261953830719,0.5165453553199768,0.05466049909591675,0.44360998272895813,0.16721905767917633,-0.2749362289905548,0.4369177222251892,-0.5750254392623901,-0.12747280299663544,0.6936626434326172,0.11384672671556473,0.1672385185956955,-0.0651162788271904,1.0426292419433594,0.8899403810501099,-0.5344990491867065,0.7401100993156433,-0.6602011322975159,-0.04630833864212036,0.9449207782745361,0.1603718250989914,-0.37168148159980774,0.6536710262298584,0.08099699020385742,0.4663426876068115,-0.37216055393218994,-0.2101006656885147,-0.681285560131073,0.3520323634147644,-0.5243744850158691,-0.1713615506887436,-0.3192210793495178,1.336120843887329,1.206408977508545,0.5511986017227173,-0.08754903823137283,0.9761561155319214,-0.22327521443367004,0.31669431924819946,1.1182258129119873,-0.23704172670841217,-0.32519593834877014,0.6984721422195435,0.689674437046051,0.8762698769569397,0.042589787393808365,-0.9473841786384583,-0.7316746115684509,0.854624330997467,0.5871607661247253,0.9256579875946045,-0.5674700736999512,0.2673342227935791,0.15712308883666992,0.009821462444961071,-0.8303224444389343,0.19458355009555817,0.875403881072998,-0.6323282122612,0.7837167382240295,0.7703279256820679,-0.7626636624336243,0.4364146888256073,0.6587828397750854,0.20242948830127716,-0.16922670602798462,0.5297724008560181,0.7598615884780884,0.15812040865421295,-0.4053179919719696,0.16177208721637726,-0.9044322371482849,0.31104201078414917,-0.11761801689863205,0.4742545187473297,0.4664275348186493,-0.4338638186454773,0.47559165954589844,-0.23180866241455078,-0.4259605407714844,-0.5740966796875,0.7443563938140869,0.400160551071167,-0.3699842393398285,0.5284942984580994,0.008779723197221756,-0.02158372849225998,0.8761956095695496,-0.8900534510612488,0.4243375062942505,0.08672118186950684,-0.9054949283599854,-0.7874367237091064,-0.5317955017089844,0.5914031863212585,0.19348688423633575,-0.40036582946777344,-0.9991681575775146,0.8065972924232483,0.2720182240009308,-0.7409439086914062,0.578002393245697,-0.14452026784420013,0.4129352569580078,-0.42639660835266113,0.444812536239624,-0.646186113357544,0.05659317970275879,-0.4057037830352783,0.743039608001709,-0.4212024211883545,0.7608551979064941,0.6026713848114014,0.8947198390960693,0.9207854270935059,0.8720622062683105,0.5134828090667725,0.11827993392944336,-0.7946319580078125,-0.42721205949783325,