{"layers":[{"activation_function":"SIGMOID","biases":{"cols":1,"data":[-0.3124512732028961,0.7022170424461365,-3.441258192062378,0.7259233593940735,0.5248114466667175,-1.504502773284912,1.1114625930786133,-0.7584978342056274,-1.2715580463409424,1.048448085784912,1.8018465042114258,-0.9390674233436584,1.4506406784057617,-1.0471528768539429,0.11796513199806213,2.878607749938965,0.42112454771995544,-0.34855538606643677,-0.06918536871671677,0.9239131808280945,-0.2450023889541626,-0.8086326122283936,0.43539971113204956,0.060154978185892105,-0.9041116833686829,1.6697889566421509,-1.2946299314498901,0.3437495231628418],"rows":28},"inputs":784,"layer_type":"dense","learning_rate":0.30000001192092896,"outputs":28,"weights":{"cols":784,"data":[0.32690298557281494,-0.5578768253326416,-0.06787288188934326,0.19216632843017578,-0.21915209293365479,0.8052560091018677,0.8725790977478027,0.05449628829956055,0.9544961452484131,0.22032201290130615,-0.6578319072723389,-0.29824090003967285,-0.9227581024169922,-0.21089038252830505,0.7648466229438782,-0.3938123285770416,-0.13161301612854004,-0.29344308376312256,-0.3645702600479126,0.7385791540145874,0.3257211446762085,0.5285836458206177,-0.5155364274978638,-0.7617301940917969,-0.7905607223510742,0.5321372747421265,0.2617645263671875,-0.6903167963027954,0.7216304540634155,-0.5895053148269653,0.5839474201202393,-0.5400506258010864,-0.21285511553287506,0.8365463614463806,0.0077140494249761105,-0.5286347270011902,-0.7131377458572388,0.8745044469833374,0.8033156991004944,-0.29529377818107605,-0.4816204011440277,0.8419851064682007,0.4669162333011627,0.18049387633800507,0.46193230152130127,-0.05405726283788681,-0.7018535137176514,-0.19099007546901703,-0.6619875431060791,-0.5271373987197876,0.3223506808280945,0.7800744771957397,-0.9805648326873779,0.08003127574920654,0.6737926006317139,0.7233633995056152,0.38539934158325195,-0.9641759395599365,0.5408879518508911,0.43910229206085205,-0.25995326042175293,0.2357179820537567,-0.41467681527137756,0.718143880367279,-0.45441293716430664,0.36173832416534424,-1.102149486541748,-0.5276097655296326,0.049679066985845566,0.36336085200309753,-0.6211317181587219,-0.3371737003326416,-0.24337567389011383,0.7606859803199768,0.14779478311538696,0.40697646141052246,0.85159832239151,0.7603346705436707,0.8022785782814026,0.3098489046096802,0.49046313762664795,-0.3195556104183197,0.27354443073272705,-0.12488436698913574,-0.7611851692199707,-0.8729081153869629,0.4304237365722656,0.8373318910598755,-0.8909329175949097,-0.7440364956855774,0.015928316861391068,-0.8885359764099121,-0.30770814418792725,-0.19371138513088226,-0.3852373957633972,-0.20068325102329254,0.19080054759979248,-0.024933932349085808,1.0280014276504517,0.9156715273857117,-0.26637133955955505,-0.5022172331809998,0.9772995114326477,-0.8868592977523804,0.46486106514930725,0.6108860969543457,-0.9220533967018127,-0.41146573424339294,0.04940738528966904,-0.6071652173995972,0.3949359059333801,0.5971474647521973,0.637576699256897,0.17997930943965912,-0.33593258261680603,0.9834126830101013,-0.08895684033632278,0.09053761512041092,-0.5558788776397705,0.8205623030662537,0.7421008348464966,0.3869694173336029,-0.5808014869689941,0.8049091100692749,0.7692720890045166,-0.24546313285827637,-0.3532361686229706,-0.3653491735458374,0.496113121509552,-0.18833422660827637,0.09882156550884247,-0.34356942772865295,0.2446044534444809,-0.1295037716627121,-0.9942179918289185,-0.42214491963386536,0.2737741470336914,-0.3896697759628296,0.34893035888671875,-0.048696134239435196,-0.6522303819656372,0.5966404676437378,0.12183737009763718,0.1159648522734642,0.6172448396682739,-0.40350282192230225,0.8594819903373718,0.9523025751113892,0.6141178011894226,0.46692559123039246,0.8730668425559998,0.46766942739486694,0.4920438528060913,0.663260817527771,0.028391482308506966,0.351022869348526,0.15897642076015472,0.2553103566169739,0.6176419854164124,0.731929361820221,-1.061387062072754,0.057154227048158646,-1.140297293663025,-0.6406415700912476,-0.53702312707901,-0.23583853244781494,0.9214650392532349,0.7684653997421265,-0.7744417190551758,-0.9858366250991821,-0.7203660011291504,-0.1818784922361374,-0.03945799544453621,0.4833345115184784,1.3914036750793457,-0.40522268414497375,0.1358644813299179,0.10816720873117447,0.24494487047195435,0.2306380569934845,-0.4618864059448242,0.3432416617870331,1.4103502035140991,0.32386234402656555,0.6646763682365417,-0.01166821364313364,0.3634169399738312,-0.09185096621513367,-0.11851581186056137,-0.7240932583808899,-0.06164880841970444,0.017569877207279205,-1.3100019693374634,0.3869287669658661,0.12468258291482925,-0.1861158013343811,-0.8483104705810547,0.4317222237586975,0.6607841849327087,-0.35665223002433777,0.7697977423667908,-0.513135552406311,0.9578579664230347,-0.44665032625198364,-0.5793278813362122,-0.7264005541801453,0.38438889384269714,-0.11100702732801437,0.8748798370361328,0.4940824806690216,0.22633247077465057,-0.002934972755610943,0.7300004363059998,0.11432472616434097,0.3955366611480713,-0.9070311188697815,-0.20542041957378387,-0.4049864113330841,0.5182928442955017,-0.8982032537460327,-1.4792146682739258,-1.0529896020889282,0.964296817779541,-0.9282050132751465,-0.14570629596710205,0.7728890776634216,0.18497608602046967,0.3934110403060913,0.028215475380420685,1.158919334411621,0.6524789929389954,0.30197665095329285,-0.4304172396659851,0.08015169203281403,-0.2167140245437622,-0.41448721289634705,-0.8658619523048401,-0.40500131249427795,0.682790994644165,1.125056505203247,1.3540650606155396,-0.4970715045928955,0.7285345792770386,-0.3529067635536194,1.0521184206008911,0.3875250816345215,-0.4791164994239807,0.19328050315380096,-1.4722565412521362,0.16608379781246185,0.4499349892139435,-0.7615492939949036,0.7683302164077759,0.24922528862953186,-0.8913733959197998,0.17829105257987976,0.6449398994445801,0.03150617331266403,0.20531892776489258,-0.6196180582046509,-1.2882781028747559,-0.733389139175415,-0.6460458636283875,-0.7745299339294434,-0.2948181629180908,-0.26814505457878113,0.088748037815094,1.7155672311782837,1.622949481010437,1.0889140367507935,-0.17445287108421326,0.42667996883392334,0.13503028452396393,0.8500481247901917,0.8245443105697632,-1.1813009977340698,-0.7462780475616455,-0.574900209903717,-0.7129262089729309,-0.11049750447273254,-0.0308992937207222,-0.3944271206855774,0.28289783000946045,-0.019518805667757988,-0.3915676474571228,-0.5286366939544678,-0.1987518072128296,-1.0762847661972046,-0.5809482336044312,-0.4593185484409332,-0.03033611737191677,0.2155226320028305,-1.443558931350708,-1.1899492740631104,-0.3376239538192749,-0.6144877672195435,0.7778798937797546,1.6566269397735596,1.8655589818954468,1.6481155157089233,-0.009745704010128975,-0.12634636461734772,0.848578155040741,0.7564103603363037,-0.3984293043613434,-0.18789559602737427,-0.8761768341064453,-0.9527090787887573,-0.7849594950675964,0.8439738750457764,-0.5284715890884399,-0.14458830654621124,0.48430049419403076,0.3822895586490631,0.18265946209430695,0.1946883499622345,-0.5035404562950134,-0.7437513470649719,-0.7006568312644958,-0.2262028157711029,-0.3682847321033478,-1.1511350870132446,-1.138636827468872,-1.0937613248825073,-0.022132935002446175,0.31623294949531555,1.2365951538085938,0.24583382904529572,1.6998156309127808,0.10039371997117996,0.3995981216430664,-0.17126688361167908,0.4661031663417816,-0.4289938807487488,-0.19051679968833923,-0.8348498940467834,0.26665449142456055,0.9189140796661377,0.49180474877357483,0.03469107300043106,0.24475693702697754,-0.3466348350048065,-0.07009156048297882,-0.0703100636601448,0.3915877938270569,-0.5408411026000977,0.7371658682823181,-0.05451466143131256,-0.4342033267021179,-0.05778514966368675,0.3757641613483429,-1.101699709892273,0.08572294563055038,0.16759367287158966,-0.007854605093598366,-0.008955034427344799,-0.3447682857513428,0.4695315361022949,0.7815967798233032,0.616921067237854,0.2902389168739319,0.5818724036216736,0.6460826396942139,0.583613395690918,0.4769248068332672,0.7290970683097839,0.6046438813209534,0.09956922382116318,0.8513516783714294,0.2529524862766266,-0.8525603413581848,-0.7195202112197876,-0.5887095928192139,0.5088911652565002,-0.830525815486908,-0.40772077441215515,-0.1729201227426529,-0.9707557559013367,0.23890326917171478,-1.6317778825759888,-0.7873356938362122,0.9891216158866882,-0.03971615806221962,0.467785507440567,-0.4440023899078369,-0.050122518092393875,0.17635488510131836,0.6108285188674927,-0.7287627458572388,-0.24985584616661072,-0.6435753703117371,0.8289645314216614,0.7488604784011841,0.10036348551511765,0.8464882969856262,-0.15088224411010742,-0.09048750251531601,-0.4444369673728943,0.7355062961578369,0.6854985952377319,0.5983299016952515,0.39633339643478394,-0.10473911464214325,-0.31348276138305664,-0.3931959569454193,-0.20546095073223114,-0.9141306281089783,-1.1848653554916382,0.5226779580116272,-0.11158858984708786,0.6659526824951172,-0.19803442060947418,0.8808729648590088,-0.31108391284942627,-0.731278121471405,-0.026826780289411545,-0.11255261301994324,-0.9681752920150757,-0.799101710319519,0.12181724607944489,-0.9345983266830444,-0.8594505786895752,-0.3702485263347626,-0.452798992395401,-0.2987971305847168,1.5162580013275146,0.7377066612243652,-0.444640576839447,0.7939948439598083,-0.22357194125652313,0.6794741749763489,-0.7589633464813232,-0.7158818244934082,0.23919616639614105,-0.7658135890960693,0.3109685778617859,0.38824379444122314,1.2044522762298584,-0.34977737069129944,0.25058552622795105,0.3545350134372711,-0.706868052482605,1.252729892730713,-0.5287925601005554,-0.7684156894683838,0.758545994758606,0.22246290743350983,-0.6532856225967407,0.7789061665534973,0.4104252755641937,-0.03974868357181549,-0.13267882168293,0.35473141074180603,1.575568437576294,0.7430816888809204,-0.546035885810852,0.33610060811042786,0.307395339012146,-0.7535313367843628,-0.02358139492571354,-0.22329945862293243,-0.6248809099197388,-1.6356666088104248,-0.37806767225265503,-0.15929420292377472,0.8537852168083191,0.18571679294109344,-0.012617985717952251,0.005534428171813488,-0.0552152544260025,-0.2584770917892456,-0.5961517691612244,-0.5869354009628296,-1.0038838386535645,-0.5369198322296143,0.9762770533561707,-0.47616636753082275,0.41890355944633484,-0.7733054757118225,0.4327337145805359,0.1273835301399231,-0.5469637513160706,0.44975337386131287,0.02257469668984413,0.5487445592880249,-0.2601335346698761,-0.58430415391922,-0.9737260341644287,0.21334537863731384,-0.8890845775604248,-0.09061602503061295,0.44110044836997986,0.7321006059646606,0.4363005459308624,0.2864755094051361,1.183574914932251,-0.9056957364082336,0.9033262133598328,0.31285908818244934,-0.3581889271736145,0.9274548292160034,0.6676611304283142,0.5429690480232239,0.39260348677635193,0.4075562655925751,0.4317745566368103,0.4753528833389282,0.1834000051021576,-0.5940338969230652,0.1294618546962738,0.24379883706569672,-0.08548881858587265,0.8780883550643921,-0.5301893949508667,-0.010697820223867893,-0.1152118593454361,-1.1284716129302979,-1.4706721305847168,0.607212245464325,0.7917900085449219,0.12330849468708038,0.1957021951675415,-0.574394941329956,1.048820972442627,-0.18344037234783173,0.2628295421600342,1.0171631574630737,0.041384704411029816,-0.08191061019897461,-0.5468253493309021,0.8388912081718445,-0.7780459523200989,0.8783528208732605,0.28455886244773865,-0.14194487035274506,0.9862382411956787,0.3532828688621521,1.0996781587600708,0.5411235094070435,-0.26948216557502747,-0.8774503469467163,-0.5031912922859192,-0.2963937520980835,-1.1625511646270752,0.13362015783786774,-0.7047141790390015,-0.4856448173522949,-0.37291112542152405,0.3371792733669281,1.4358583688735962,0.5215426087379456,-0.1978437900543213,-0.7530813217163086,0.7016945481300354,-0.8548997044563293,0.9516891837120056,-0.16273213922977448,0.8128133416175842,0.4385184049606323,0.11066104471683502,-0.8384779691696167,0.22242754697799683,0.09964291006326675,-0.14962835609912872,0.986466109752655,-0.8013445138931274,0.19893065094947815,0.1616511046886444,-0.19237631559371948,-0.14887897670269012,0.2859107553958893,-0.9064582586288452,0.2920091450214386,0.4136436879634857,0.5694698095321655,0.4411926865577698,-0.9023264646530151,-0.5413013100624084,0.030520780012011528,-0.16701966524124146,-0.8378555178642273,0.10046250373125076,-0.4519634544849396,-0.458759069442749,0.9712842702865601,0.683588981628418,0.34111183881759644,-0.0873262882232666,0.5947921276092529,-0.8902641534805298,-0.5602061748504639,-0.6905563473701477,0.8267878293991089,0.02336263470351696,-0.4831077754497528,0.12810292840003967,-0.8737730383872986,-0.529332160949707,0.2329268455505371,0.4417368769645691,-0.2110150009393692,-0.5193149447441101,-0.6897058486938477,-0.7667329907417297,0.8403611183166504,-0.04272870346903801,0.8263947367668152,1.1381081342697144,-0.1941928118467331,0.5827935338020325,-0.3630314767360687,-0.35485100746154785,1.1208409070968628,0.6664605736732483,-0.19119501113891602,0.5417505502700806,-0.7665547728538513,-0.6079276204109192,-0.15475180745124817,-0.16092635691165924,-0.5395025014877319,-0.03690483421087265,0.5431593656539917,0.6222019195556641,0.029994327574968338,-0.15401437878608704,0.2084033042192459,1.1621513366699219,-0.3594059348106384,-0.29178252816200256,0.23648999631404877,-0.8343914747238159,0.768103301525116,-0.3952251672744751,-0.11372355371713638,0.8595619797706604,0.9941132068634033,0.6494278907775879,-0.58802330493927,0.39893296360969543,-0.330732136964798,-0.3389585316181183,-0.34166184067726135,-0.9711160659790039,-0.4659414291381836,0.616455078125,0.3882732093334198,-0.4014389216899872,0.5701075792312622,-0.3833259046077728,0.27201175689697266,0.270195871591568,-0.1564013659954071,-0.2771911323070526,0.06786525994539261,0.2622840106487274,-0.5259401798248291,0.5441002249717712,0.6001147031784058,-0.6835509538650513,-0.8876054883003235,0.8824909925460815,0.014378644526004791,-0.37345167994499207,-0.6977831721305847,0.7283368706703186,0.11703230440616608,0.6252416968345642,0.5826147198677063,0.4689442217350006,0.4636792242527008,-0.49398934841156006,0.8440712690353394,-0.9933537244796753,-0.45843616127967834,-0.6368585228919983,0.15152905881404877,0.3654917776584625,0.8243448138237,0.8909649848937988,-0.49621301889419556,1.356337070465088,0.17783261835575104,-0.45088493824005127,0.3319481611251831,0.20537243783473969,-0.5874803066253662,-0.42708712816238403,0.38024473190307617,0.08202861249446869,-0.7480660080909729,-0.11568708717823029,-0.8018508553504944,-0.7254621386528015,0.6745115518569946,0.3868824243545532,-0.157922625541687,-0.49986112117767334,-0.7374324202537537,-0.15185809135437012,-0.4755587577819824,0.312671422958374,-0.4786926805973053,-0.5777061581611633,-0.4628860354423523,0.1601121574640274,1.1089600324630737,-0.5481093525886536,1.2863974571228027,-0.0028867386281490326,0.02851298823952675,-0.0847805067896843,0.5535038709640503,-0.28155437111854553,0.2615172863006592,-0.6377533674240112,0.7111085057258606,-0.5905513167381287,0.1915827840566635,-0.33538129925727844,-0.7701048254966736,0.19338683784008026,-0.7960357666015625,-0.8936303853988647,-0.16771391034126282,-0.2151208221912384,0.4771933853626251,-0.20721650123596191,-0.5966917276382446,0.19468724727630615,-0.011471152305603027,0.6981068253517151,-0.28918710350990295,-0.3294791877269745,0.5203931927680969,-0.7264583110809326,-0.3758707344532013,0.11766202747821808,-0.022895321249961853,0.2805286645889282,-0.9106714129447937,0.6341609358787537,0.5167327523231506,0.21925804018974304,-0.506673276424408,0.6811136603355408,-0.4907416105270386,0.1250162124633789,0.5327630639076233,0.5269466042518616,-0.21404093503952026,-0.8281973600387573,-0.4780198335647583,0.6206550598144531,0.3404747247695923,0.5675796270370483,-0.9758238792419434,0.6795111894607544,-0.803694486618042,-0.46756088733673096,-0.5521619915962219,0.5429149866104126,0.16745822131633759,0.8911610841751099,0.764280378818512,0.46797749400138855,-0.051085058599710464,-0.7385419607162476,-0.32761457562446594,0.577290415763855,0.8831242918968201,0.10577107965946198,0.353226900100708,-0.9391722083091736,0.1194874569773674,0.9282280802726746,-0.4544149935245514,0.5184614658355713,0.5571339130401611,-0.5184183120727539,0.10778307914733887,-0.44187283515930176,-0.5768146514892578,0.527376651763916,-0.01253211498260498,0.7231570482254028,-0.2609313726425171,0.18691301345825195,0.11989247798919678,-0.6390472650527954,0.4903064966201782,0.05337810516357422,-0.7562315464019775,0.7480486631393433,-0.243463397026062,-0.257651686668396,0.7186274528503418,-0.6213157176971436,0.08805002272129059,-0.05426514148712158,0.8870471715927124,0.32329368591308594,0.066436767578125,-0.202894926071167,-0.7452659606933594,-0.43453919887542725,0.4300665855407715,-0.34217560291290283,0.22536659240722656,0.630918025970459,-0.6124304533004761,0.4493361711502075,-0.655634880065918,0.256359338760376,0.638515830039978,0.2715867757797241,0.964819073677063,-0.6035163998603821,-0.15119107067584991,-0.9900652766227722,-0.9317871332168579,0.6998951435089111,0.36501556634902954,0.7798937559127808,-0.412695050239563,-0.6990365982055664,-0.4920516014099121,0.875352680683136,0.23703652620315552,-0.6042779088020325,0.8578898906707764,0.8095406293869019,0.7306416034698486,-0.3798505365848541,-0.34397292137145996,0.7929380536079407,-0.9448620080947876,0.8514171838760376,0.9169143438339233,0.233772873878479,-0.17120230197906494,0.29648566246032715,-0.6019492149353027,0.056470975279808044,-0.12975795567035675,-0.06139297038316727,-0.18990764021873474,0.977867841720581,-0.2687067985534668,0.06643092632293701,0.1795566827058792,0.9091091156005859,0.6918845176696777,0.05390497297048569,0.853610634803772,-0.6564446091651917,-0.08556105941534042,-0.9428554773330688,-0.6084283590316772,0.7241657376289368,-0.35398396849632263,0.8822475075721741,-0.7372812628746033,-0.5835225582122803,-0.753276526927948,0.030235158279538155,-0.5179632902145386,-0.09106230735778809,-0.4585425853729248,-0.27969062328338623,-0.8986029028892517,-0.5030471682548523,0.8904925584793091,0.43815115094184875,-0.7608602046966553,-0.2071170210838318,0.9408460855484009,-0.9732994437217712,0.18244153261184692,-0.6005768775939941,-0.041026145219802856,-0.0335208922624588,0.2235473245382309,-0.39547666907310486,0.3961981534957886,0.1545899212360382,-0.8780940175056458,-0.2590097188949585,-1.2314097881317139,-0.27766963839530945,-0.5254182815551758,0.6613689661026001,-0.8427666425704956,0.0567353330552578,-0.27048084139823914,0.36885130405426025,0.32994866371154785,0.9090462923049927,-0.25459024310112,-0.885658323764801,0.3568650484085083,0.3900834321975708,0.291323721408844,0.791851282119751,0.2547200918197632,0.27927422523498535,0.7328928709030151,0.7322698831558228,-0.5750823616981506,-0.27975159883499146,0.4016566276550293,-0.23496459424495697,0.4637833833694458,0.4005409777164459,0.2821153402328491,-0.0631370022892952,0.46007847785949707,-1.1005557775497437,-0.48710474371910095,-0.2594805955886841,0.6063253879547119,-0.4692274034023285,-0.988787055015564,-0.0404294952750206,0.34007298946380615,0.5267812013626099,-0.9283283352851868,0.6117131114006042,0.3191032111644745,-0.7007049322128296,-0.06404461711645126,0.21662871539592743,-0.5033649206161499,0.5376136898994446,0.3251190483570099,0.7368214130401611,0.24429777264595032,0.2098591923713684,-0.06763767451047897,0.8770536184310913,0.6258487701416016,0.3493679165840149,0.41309505701065063,0.26400092244148254,-0.47714903950691223,1.2352604866027832,-0.5626062750816345,0.7090352773666382,0.0709887370467186,-0.8983109593391418,0.8547534346580505,0.2270837277173996,0.6564406156539917,0.10867294669151306,0.5552374720573425,0.5773887634277344,-0.1986619234085083,0.03599904477596283,0.46918076276779175,0.32756656408309937,0.2912191152572632,0.21183881163597107,0.8088465929031372,1.0991723537445068,0.37199825048446655,0.46276992559432983,-0.06591303646564484,-0.022973280400037766,-0.05411155894398689,-0.03152380511164665,0.14943620562553406,-0.22066046297550201,0.6953856945037842,0.07469350844621658,-0.10080587863922119,0.8633522391319275,0.46869757771492004,0.939102828502655,0.41025006771087646,0.9706355929374695,0.5640448927879333,-0.5415948033332825,-0.228290855884552,-0.7005670070648193,0.12825177609920502,0.7483100295066833,0.8802304267883301,0.7017855048179626,0.701340913772583,0.06399232149124146,0.9388910531997681,0.22235675156116486,-0.2973250150680542,0.2091236710548401,0.08610429614782333,-0.6004535555839539,0.6074939370155334,0.4353472888469696,0.7798519730567932,0.1475149542093277,-0.04023946449160576,-0.07168561965227127,0.4073953330516815,0.6718390583992004,-0.3483637273311615,0.7959288358688354,-0.4732320308685303,-0.41763514280319214,0.7999519109725952,0.2964484393596649,0.6338590383529663,0.605839729309082,0.3128754198551178,0.589525580406189,-0.036472272127866745,0.8708850741386414,0.2974923849105835,0.335186630487442,-0.2085854858160019,0.6470394730567932,1.322316288948059,0.28605371713638306,0.043759699910879135,0.24125556647777557,0.7123528122901917,-0.11175031214952469,0.014311464503407478,-0.299306184053421,0.7562081217765808,0.32901838421821594,0.22572338581085205,0.8846651315689087,0.4940641224384308,-0.5474650263786316,0.18321573734283447,-0.23733019828796387,0.7331624031066895,-0.33896616101264954,-0.6741452813148499,0.9696255326271057,0.6595494747161865,0.99912428855896,0.06029778718948364,0.10840009152889252,1.183856725692749,0.2582799792289734,0.2845931053161621,0.22175754606723785,-0.4192184805870056,0.24813731014728546,0.04683800786733627,-0.4211061894893646,1.4578696489334106,-0.09997084736824036,0.3245270848274231,0.4855899214744568,-0.09138063341379166,0.49171772599220276,0.6502461433410645,0.06453181058168411,0.19187451899051666,0.5604248642921448,-0.3099139332771301,-0.5781837701797485,-0.8699012994766235,0.09522508084774017,0.7244662046432495,-0.16984215378761292,0.8642604947090149,0.9861279726028442,-0.4519576132297516,0.8295412063598633,-0.24591220915317535,-0.7391337752342224,0.4535626769065857,-0.3740439713001251,0.30500510334968567,0.3263598084449768,0.783462643623352,0.12774956226348877,1.235142469406128,0.15872512757778168,0.4169156551361084,-0.19662947952747345,0.05167834460735321,0.6165755391120911,0.05007798597216606,0.9425005912780762,1.2480510473251343,1.4233959913253784,0.7404507398605347,0.7471370100975037,-0.12495806068181992,-0.29388877749443054,1.1084448099136353,0.10057614743709564,0.24756167829036713,0.15698857605457306,0.12570242583751678,-0.4202488362789154,0.10310845077037811,0.2661879360675812,0.4681514501571655,0.6036877036094666,0.20466779172420502,1.7006254196166992,1.4325371980667114,0.9112508296966553,0.08721976727247238,0.24601563811302185,-0.1345301866531372,0.5161194205284119,-0.03454187884926796,-0.14420463144779205,0.8017678260803223,0.00850086472928524,-0.17001882195472717,-0.15790784358978271,0.21820364892482758,-0.18835404515266418,-0.6503738164901733,-0.6159730553627014,0.3243730664253235,1.170838475227356,-0.10255435854196548,-1.3201780319213867,0.054510194808244705,-0.2369055449962616,-0.6581664085388184,0.0009632433648221195,-0.7543151378631592,-0.9861088991165161,0.13380196690559387,-0.7606464624404907,-0.7970954179763794,-0.13921888172626495,0.1451048105955124,-0.5443189144134521,-0.10695547610521317,-0.1280149221420288,-0.25909358263015747,-0.15930284559726715,0.7945117354393005,1.2813465595245361,1.0070844888687134,0.284182608127594,0.08452270179986954,0.6240060925483704,-0.8368667364120483,0.31671392917633057,1.1088658571243286,-0.4946870803833008,0.04371008649468422,-0.13103283941745758,-1.4582631587982178,-0.43864989280700684,-0.3187968134880066,-0.8885167837142944,-0.9592517614364624,-1.3286203145980835,-0.933523952960968,-2.1571805477142334,-0.8138616681098938,-1.2172303199768066,-0.5076401829719543,-0.39926499128341675,-0.5933173298835754,-1.2484735250473022,-0.722188413143158,-0.8084005117416382,0.574150562286377,-0.6862125396728516,0.5325508117675781,-0.8397595286369324,0.5984277129173279,-0.2012549489736557,-0.9527686238288879,0.9147250056266785,-0.5430182218551636,0.5315718054771423,-0.2936738133430481,-1.1290817260742188,-0.38325226306915283,-0.9578830599784851,-0.956415057182312,-0.7544798851013184,-0.24240705370903015,-1.1956835985183716,-0.4381912052631378,-1.3096717596054077,-0.03964286670088768,-0.7149401903152466,-0.8715834021568298,-0.24647818505764008,-0.3630297780036926,-0.05588582530617714,-0.6881760358810425,-0.5343857407569885,0.3415747582912445,1.0343416929244995,0.938736617565155,0.19978904724121094,0.7354860901832581,-0.09413029253482819,-0.5426908731460571,-0.020763110369443893,-0.8798345327377319,-0.1336946338415146,-0.9659637808799744,-0.15736407041549683,-1.6276122331619263,0.2303607165813446,-0.06307518482208252,-1.0858925580978394,-0.4669368863105774,-0.7014460563659668,-0.42440155148506165,0.41217759251594543,-0.2977193295955658,-0.8989790081977844,-1.0020725727081299,-0.3496934473514557,-0.4078725576400757,-0.063082754611969,-0.36182722449302673,0.453144907951355,0.8132694363594055,-0.3297293782234192,0.713219940662384,0.16915398836135864,0.32908523082733154,-0.9580783843994141,-0.2988620102405548,0.9735146164894104,-0.13172224164009094,-0.4538091719150543,-0.053769905120134354,-0.8395116329193115,-1.2443944215774536,-0.8968870043754578,-0.34733816981315613,0.35012516379356384,-0.8721440434455872,-0.4512788653373718,-0.36110398173332214,-0.1522475928068161,-1.1973272562026978,-0.8482527136802673,-0.5107244253158569,-0.6744676828384399,-0.3566642701625824,0.584049642086029,-0.1956331729888916,-0.26132383942604065,0.5721365809440613,1.0885392427444458,-0.5789358019828796,0.6298414468765259,-0.6291801333427429,0.9111278653144836,-0.16556048393249512,-0.42905986309051514,-0.42038288712501526,-0.829261302947998,-0.9810558557510376,0.38515645265579224,-0.04280669987201691,-0.9864914417266846,0.16223903000354767,-0.45636168122291565,-0.6360675096511841,-0.7122653126716614,0.9187099933624268,-0.4591817259788513,-0.39960721135139465,-0.6286131143569946,-0.010156960226595402,-0.453835666179657,0.06698492169380188,-0.5930105447769165,0.8155856728553772,-0.06787483394145966,0.4872826337814331,-0.05423987656831741,0.6809961795806885,0.8028186559677124,0.12946976721286774,0.22892408072948456,0.6800304651260376,0.35704174637794495,0.8266040086746216,0.9666778445243835,-0.8757571578025818,-0.7166814208030701,-1.1374943256378174,-0.3331506848335266,0.2300841361284256,-0.7196233868598938,0.04635519161820412,-0.709600031375885,-0.5325506329536438,-0.17043215036392212,-0.05433778092265129,-0.6502944231033325,-1.0214208364486694,-0.6336076855659485,-0.2987775206565857,-0.2928979992866516,0.09646028280258179,0.279098242521286,-0.22423586249351501,-0.06658265739679337,-0.180033341050148,0.5172691941261292,0.2825509011745453,0.2754141688346863,0.548201322555542,0.4664962887763977,0.05316109210252762,-0.057690758258104324,-0.15040406584739685,0.28724709153175354,0.20727553963661194,0.5211043953895569,0.5480806231498718,-0.4241083860397339,-0.8623836636543274,-0.6857255101203918,-0.1905515342950821,-0.3076767921447754,-0.8793475031852722,-0.4511699378490448,-0.39318206906318665,0.37853312492370605,0.13913512229919434,0.09510507434606552,0.07483887672424316,-0.13730870187282562,-0.01682176999747753,-0.48680272698402405,0.4492686092853546,0.7964445948600769,0.8961482644081116,0.9735022187232971,0.17548418045043945,-0.46846145391464233,-0.4340861439704895,0.12318301200866699,0.134344682097435,0.8973225951194763,0.31418895721435547,1.1346486806869507,1.4621565341949463,1.48797607421875,0.970337986946106,0.2752048075199127,-0.09797348082065582,0.6816692352294922,0.3165179193019867,0.6858550310134888,0.025833439081907272,0.02003386802971363,0.03185875713825226,-0.20735998451709747,0.021171336993575096,0.5418429374694824,0.6822382807731628,-0.0994626134634018,0.35745692253112793,-0.31689074635505676,-0.960513174533844,0.4740197956562042,-0.9780253767967224,-0.34681954979896545,0.2853659391403198,0.35262250900268555,-0.15389971435070038,0.626981258392334,1.587628960609436,0.8989375233650208,1.172401785850525,0.5498044490814209,1.1645902395248413,1.1811109781265259,0.3345654308795929,0.31717878580093384,1.310936450958252,0.8117494583129883,0.8111050128936768,-0.06890229880809784,1.3105894327163696,0.7936325073242188,0.7318361401557922,0.7441107630729675,1.061631679534912,0.0792141929268837,0.007971825078129768,0.34905463457107544,0.24468393623828888,0.7044418454170227,-0.06720008701086044,0.8443878293037415,0.4117223620414734,-0.5866013765335083,0.3821757137775421,0.4916934370994568,1.1418596506118774,1.477089762687683,0.7962149977684021,1.4864951372146606,1.0662615299224854,0.6625756621360779,1.2952156066894531,1.6470825672149658,0.8686023354530334,0.4892379343509674,1.5115281343460083,1.4753013849258423,0.6698052287101746,1.4737522602081299,0.9475175738334656,0.6007223725318909,-0.4435131847858429,-0.07091588526964188,0.8702287077903748,-0.8415476083755493,0.6375999450683594,0.8765934109687805,0.36085379123687744,0.9570035934448242,-0.7671365141868591,-0.6286951899528503,-0.12057233601808548,0.4622393548488617,0.39932191371917725,0.847837507724762,-0.1374817192554474,0.5300821661949158,0.7985203862190247,1.552311658859253,0.5434281826019287,1.054958701133728,0.9804748296737671,0.46785682439804077,0.6764204502105713,0.3972248136997223,0.7428598999977112,0.13666467368602753,-0.016628960147500038,-0.39576005935668945,-0.853711724281311,-1.01786470413208,0.17274056375026703,-0.8936076760292053,0.7078084349632263,0.8179175853729248,0.6313793659210205,0.9466360807418823,-0.35799288749694824,1.0249093770980835,0.8795695304870605,-0.7447506189346313,-0.30237919092178345,-0.19445037841796875,0.944423496723175,0.19334068894386292,0.8054491281509399,0.5034274458885193,0.9184387922286987,0.8380130529403687,0.6731096506118774,0.9972548484802246,-0.25518178939819336,0.46080273389816284,-0.8196736574172974,0.4615003764629364,-1.758577585220337,-0.1793142557144165,-0.8981383442878723,0.5030486583709717,-0.034578587859869,-0.8297573328018188,-0.7924797534942627,-0.4077996015548706,0.23305702209472656,0.8469904661178589,-0.8750523924827576,-0.9307641983032227,-0.33809560537338257,-0.14296551048755646,0.007304196245968342,-0.49846771359443665,-0.4359208047389984,0.4091086983680725,-0.41452330350875854,0.34908610582351685,-0.41488775610923767,-0.12952135503292084,0.2486102283000946,0.24515624344348907,0.08938856422901154,0.20576995611190796,0.3807949423789978,-0.949847936630249,0.22152063250541687,-1.0772252082824707,0.6131101846694946,-0.5912447571754456,-0.950273334980011,0.32812178134918213,-0.16856972873210907,-0.2740821838378906,-0.7685145139694214,0.329459547996521,0.8034361600875854,0.39218518137931824,0.34372785687446594,0.4944838881492615,0.1464192271232605,-0.7999992370605469,0.837227463722229,-0.4564107358455658,-0.24773579835891724,-0.13261646032333374,0.518004298210144,0.3598400354385376,0.23517972230911255,-0.5241814255714417,0.14523883163928986,0.24344156682491302,-0.5606411099433899,0.5158532857894897,-0.38136017322540283,0.32873862981796265,0.8787607550621033,0.16127654910087585,0.48035481572151184,0.47585079073905945,-0.9248710870742798,-0.9172221422195435,-0.17152559757232666,-0.6866129636764526,-0.11843609809875488,0.5310860872268677,-0.3789585530757904,0.308358758687973,0.7918844223022461,-0.027671223506331444,-0.6023101806640625,-0.1643606275320053,0.2242986410856247,0.6968516111373901,0.8168259859085083,-0.21969057619571686,0.06499379873275757,0.28053560853004456,0.2128600925207138,-0.8176268339157104,0.22351960837841034,-0.18528306484222412,0.7447670698165894,0.3577609360218048,-0.3514425456523895,0.7396090030670166,0.15857398509979248,-0.8265283107757568,-0.27294957637786865,0.025982022285461426,0.6442853212356567,-0.6641194820404053,-0.29695403575897217,-0.463032603263855,0.7035884857177734,-0.8987045288085938,-0.29690253734588623,-0.30163347721099854,0.5253543853759766,-0.48010504245758057,-0.4463096857070923,0.5462484359741211,0.87836092710495,-0.3896466791629791,-0.2979547381401062,-0.902803897857666,0.5563184022903442,0.289592981338501,-0.08746802806854248,0.7162117958068848,0.9596474170684814,-0.8727617263793945,-0.8405488729476929,-0.3129007816314697,0.09965348243713379,0.8084816932678223,-0.9696129560470581,-0.9324308633804321,0.3172647953033447,0.9054991006851196,0.9398292303085327,0.7775380611419678,-0.8147596120834351,0.15807992219924927,0.2128368467092514,0.7909480333328247,-0.5821553468704224,0.8519823551177979,0.5582297444343567,0.5310901403427124,0.2823426127433777,-0.887320876121521,-0.7283200621604919,-0.8819991946220398,-0.18918152153491974,0.2839960753917694,0.472317099571228,-0.4139872193336487,0.9482869505882263,0.10975757241249084,-0.7490061521530151,0.7512819170951843,-0.36693108081817627,-0.5399346351623535,-0.5463525056838989,-0.6269676685333252,0.5797989368438721,0.795013427734375,0.4232128858566284,0.36347857117652893,-0.29804903268814087,0.34061914682388306,0.6963425278663635,-0.4121277332305908,0.6366605162620544,0.1740163415670395,-0.2930208146572113,-0.4134559631347656,-0.3648354113101959,0.7350262403488159,-0.5247459411621094,-0.4207001030445099,-0.1752881109714508,1.0460643768310547,0.8474622368812561,1.059841275215149,0.6433901190757751,0.8183228969573975,-0.6862410306930542,-0.6517629027366638,0.7314808964729309,0.45625272393226624,-0.7221088409423828,0.9350607395172119,0.9557211399078369,-0.6311178207397461,0.5565588474273682,-0.07969821989536285,-0.08567127585411072,-0.8195417523384094,0.9589211940765381,-0.7802220582962036,0.3676062226295471,0.1508028209209442,1.2064809799194336,0.7418993711471558,-0.2883550822734833,-0.2443392425775528,-0.5234012007713318,-0.26638031005859375,1.172096848487854,-0.020753705874085426,0.14901064336299896,0.9920492768287659,-0.27700692415237427,1.40505051612854,-0.26056182384490967,0.7176145911216736,0.8400095105171204,0.3756909668445587,0.08756227046251297,0.44681501388549805,0.07233810424804688,-0.6079212427139282,0.27352672815322876,-0.3906607925891876,-0.2728343605995178,-0.7746412754058838,-0.021795492619276047,0.6688662171363831,0.7259305119514465,-0.5522588491439819,-0.0451834537088871,0.2901081144809723,0.038453828543424606,-0.08419258892536163,-0.12310422956943512,0.665747344493866,-0.4467569589614868,0.3139946460723877,0.22752079367637634,-0.6153827905654907,1.114518165588379,0.9760308861732483,0.3748595416545868,-0.6591916084289551,0.5671022534370422,0.09244351089000702,0.8151309490203857,0.6667847037315369,0.30384790897369385,0.8965550661087036,-0.4621331989765167,-0.41483670473098755,-0.696135938167572,0.14395086467266083,-0.13092324137687683,1.049835205078125,-0.5479965209960938,-0.20299063622951508,-1.1607357263565063,-0.16130739450454712,-0.2323085069656372,0.7202804088592529,-0.05256804823875427,0.26411667466163635,-0.31655392050743103,-0.4965040683746338,0.18066787719726562,-0.2221614420413971,-0.8815010190010071,0.7674546241760254,-0.7733553647994995,-0.6294598579406738,0.102748803794384,0.1344873309135437,0.7093995809555054,-0.09487184882164001,0.429424524307251,0.7261613607406616,0.7662491798400879,-0.7258090376853943,-0.3848675489425659,-0.3141290247440338,0.6628091931343079,0.31846240162849426,-0.4861515462398529,0.4773361086845398,-1.2471109628677368,-0.3019320070743561,-0.9118741154670715,-0.685997486114502,0.3750162124633789,-0.1581384539604187,0.24630647897720337,-0.27499163150787354,-0.16776573657989502,-0.35113877058029175,-0.9184417128562927,-0.008503303863108158,-0.10079552978277206,0.15810050070285797,-0.5343248844146729,-1.3323581218719482,-0.35633182525634766,0.9141120314598083,0.3451364040374756,0.794481098651886,-0.12728869915008545,0.5696041584014893,0.7634555101394653,0.549246609210968,-0.35883283615112305,0.5324913263320923,-0.458053320646286,0.8313245177268982,-0.6182641386985779,-0.3017922341823578,-0.619225025177002,0.09455341100692749,0.3519381582736969,0.2924637794494629,-0.10730309039354324,-0.328313410282135,-0.043137095868587494,0.24473394453525543,-0.5299038887023926,0.15062262117862701,-0.6295964121818542,-0.39294683933258057,-1.0401493310928345,-1.4324384927749634,-0.08919301629066467,0.3093090057373047,-0.48863887786865234,-0.7457259893417358,-0.48408010601997375,-0.1328158974647522,0.41153842210769653,0.059892330318689346,-0.04943127557635307,0.9140664339065552,0.07653509825468063,-0.1362113207578659,0.24471117556095123,-0.1603880375623703,0.06648117303848267,-1.2224448919296265,-0.033236052840948105,-0.96608567237854,0.40535902976989746,-0.5529933571815491,-0.883515477180481,-0.5197507739067078,0.30348142981529236,-0.920350193977356,0.09488201886415482,-0.35871756076812744,-0.358743280172348,-0.401687890291214,0.44310423731803894,-0.5169256329536438,0.8281623125076294,0.6952173113822937,-0.5827155113220215,-0.08400890976190567,-0.09960129857063293,0.8226944208145142,0.4119771122932434,-0.21088412404060364,0.21487529575824738,0.8182754516601562,-0.22102075815200806,0.23720531165599823,0.5897231698036194,-0.20114758610725403,0.08885849267244339,0.2825522720813751,0.21534016728401184,0.5912203192710876,-0.4501810669898987,-0.6102005839347839,-0.44238555431365967,-0.12534292042255402,-1.0681748390197754,-0.1819121092557907,-1.8411259651184082,-2.117074966430664,-1.3194955587387085,0.6426203846931458,0.6663785576820374,0.07550141215324402,0.776236355304718,-0.08636835962533951,1.0507715940475464,0.10764868557453156,-0.5565491914749146,0.5352715849876404,-0.418504923582077,0.6250286102294922,0.6821393370628357,-0.514646589756012,0.48774513602256775,-0.7278287410736084,-0.8461124897003174,-0.147991344332695,1.0900888442993164,0.658858060836792,0.549609899520874,0.8307518362998962,-0.295179545879364,-0.32430392503738403,-0.20875227451324463,-1.364659309387207,-2.182943105697632,-0.3562060594558716,-0.1806657761335373,0.3853900134563446,0.5787002444267273,-0.08287108689546585,-0.1344100832939148,-0.6411853432655334,-0.5586775541305542,1.3308793306350708,0.24922099709510803,0.9524382948875427,0.8069286346435547,-0.31252461671829224,-0.18593379855155945,0.4215620160102844,0.032373733818531036,-0.37436622381210327,0.17843301594257355,0.6725683808326721,-0.11532559245824814,-0.06916342675685883,0.5467743873596191,0.4559946656227112,1.247856616973877,1.2984554767608643,0.09084253758192062,-0.5611598491668701,-0.8001999855041504,-1.2750244140625,0.6850534677505493,-0.19680364429950714,-0.05912821367383003,0.07276811450719833,0.312797874212265,-0.5075069069862366,0.28702789545059204,0.9044811725616455,-0.3150893449783325,0.3199174106121063,-0.1310165971517563,0.6561794281005859,-0.3423777222633362,-0.03221679851412773,-0.8736535906791687,1.1301167011260986,-0.07003894448280334,0.23396773636341095,0.6772375106811523,0.5022643208503723,1.2403815984725952,0.8909887075424194,1.0147804021835327,1.896851897239685,1.857733964920044,0.6276218891143799,-0.08576178550720215,0.11386363208293915,-0.6168490052223206,0.5998111367225647,-0.9747151136398315,0.9738958477973938,-0.7024954557418823,0.45709627866744995,0.5284150242805481,-0.7698341012001038,-0.703686535358429,-0.24108225107192993,-0.3407970666885376,-0.3513825237751007,-1.2159620523452759,0.32678696513175964,0.25941598415374756,0.5694751739501953,-0.1919059157371521,1.0341038703918457,1.331039547920227,0.24537009000778198,1.2227332592010498,0.47042611241340637,0.8466407656669617,1.0184532403945923,-0.10848993062973022,-0.2241002917289734,-0.1874397248029709,-0.4676436185836792,0.15251585841178894,0.3228776156902313,-0.6369665265083313,0.2828614115715027,-0.1391427218914032,-0.06819548457860947,0.2612217962741852,0.42920976877212524,-0.24922960996627808,0.1932024359703064,-0.4152512848377228,-1.2108559608459473,0.18876700103282928,0.960779070854187,0.41403549909591675,0.31177932024002075,0.5258314609527588,-0.03615633770823479,0.6234381794929504,0.33879247307777405,0.13951550424098969,0.8059499263763428,0.2751104235649109,0.43419718742370605,-0.02432621642947197,0.24093662202358246,-0.37852516770362854,0.41733208298683167,-0.8969712853431702,0.04493854194879532,-0.8072296380996704,0.39516687393188477,0.2667267620563507,-0.7272221446037292,-0.2706936299800873,-0.21514394879341125,-0.36727017164230347,-0.5719702243804932,-0.8935727477073669,-0.056708477437496185,0.46983832120895386,0.6149632930755615,0.8536195158958435,0.12816156446933746,0.44240838289260864,0.1093696877360344,0.41673552989959717,1.010557770729065,0.8146030902862549,-1.0739870071411133,-0.8827167749404907,-0.7366651296615601,0.3190729022026062,-0.15356554090976715,-0.45367810130119324,-0.06160491704940796,0.7038066387176514,0.68711918592453,0.803697407245636,0.9512275457382202,0.9083731770515442,-0.7640893459320068,0.5495566129684448,-0.8399044275283813,0.17375947535037994,-0.3917861878871918,0.9494723081588745,0.5999860763549805,0.5884395241737366,-0.0014764120569452643,0.3776281774044037,-0.07610887289047241,1.2556066513061523,0.9515373110771179,1.2421053647994995,1.094412088394165,-0.03552084043622017,0.19059953093528748,-0.017868150025606155,-0.9583935737609863,-1.3381388187408447,-0.13451935350894928,-0.3199400007724762,0.2015671581029892,0.15865600109100342,0.5899750590324402,0.6419918537139893,0.6646088361740112,-0.3845398724079132,-0.5987639427185059,-0.0704060047864914,0.0509767010807991,-0.7207669615745544,0.7684242129325867,1.5391329526901245,1.9016468524932861,1.4808778762817383,1.708733320236206,1.0178883075714111,1.8514068126678467,0.36844420433044434,1.413167119026184,0.16562634706497192,0.04090908542275429,-1.3231569528579712,-0.8223899602890015,0.07464911043643951,-0.6240728497505188,-0.4702005088329315,-0.7289217114448547,-0.9248914122581482,0.5965613126754761,-0.4960114657878876,-0.7812663316726685,-0.6512386798858643,0.2215922623872757,-0.15416869521141052,-1.2006770372390747,-0.5243083834648132,-1.813598394393921,-1.5020424127578735,0.032701000571250916,1.1340128183364868,0.3460904657840729,0.5860522985458374,1.440808653831482,1.1711937189102173,-0.23866531252861023,0.6631621718406677,0.22209319472312927,-0.8705613017082214,-0.8940351605415344,0.40648919343948364,-0.39450663328170776,-0.5806801915168762,-0.39111414551734924,-0.1157509833574295,-0.0694505125284195,0.6833038926124573,1.0258761644363403,0.7243650555610657,0.06911178678274155,-0.18143366277217865,-0.8472083210945129,-0.275875985622406,-1.0590806007385254,-1.1274585723876953,-0.8096511960029602,-1.5627377033233643,-0.1926899403333664,-0.65951007604599,0.5648077130317688,0.1123289093375206,0.5615988373756409,-0.14819636940956116,0.40044254064559937,-0.4092048406600952,-1.0431329011917114,0.14775444567203522,-0.2323111742734909,-0.6747446656227112,-0.5936447381973267,0.5279373526573181,0.12453321367502213,-0.10442045331001282,-0.41673773527145386,0.05779426172375679,0.5840871930122375,1.0156898498535156,0.7787781953811646,0.6599419116973877,-0.48821064829826355,-0.641510009765625,-1.1337916851043701,0.032494913786649704,-1.236397385597229,-0.39183714985847473,-0.11439847201108932,-0.5912747979164124,-0.48462724685668945,0.19296696782112122,-1.1081823110580444,0.2085009664297104,-0.658107340335846,-0.1542050540447235,-0.31272128224372864,-0.13029277324676514,-0.023332146927714348,0.19416706264019012,0.8104680180549622,-0.08115316927433014,-0.11591452360153198,-1.0377782583236694,-0.6769681572914124,0.9556487202644348,0.4814540445804596,-0.7372178435325623,0.5158603191375732,0.23138557374477386,-0.5609027743339539,0.5993108749389648,0.22707098722457886,-0.3285543918609619,-0.4834003448486328,0.08276448398828506,-0.9699311852455139,-0.03896910324692726,0.22812014818191528,-0.8393374681472778,-0.17870484292507172,0.04201260209083557,0.001106591196730733,-0.004050601739436388,-0.20795422792434692,-0.11572698503732681,-0.10666078329086304,0.4215022027492523,-1.115358829498291,-0.8642144203186035,0.39049264788627625,-0.8880777359008789,0.22645480930805206,-0.6953262090682983,0.2548496425151825,-0.9970510005950928,-0.2556997239589691,0.5233138203620911,-0.7467398643493652,0.34086838364601135,-1.2005877494812012,-0.12478746473789215,-0.24526415765285492,-0.18368497490882874,0.2517964541912079,-0.6236138939857483,-0.34386563301086426,-0.45472252368927,0.07205024361610413,-0.4755397439002991,-0.02002768963575363,-0.2829458713531494,-0.1356305330991745,-0.8065162897109985,-0.37634754180908203,-0.4612874686717987,0.2940138280391693,-0.9413458704948425,-0.4065694212913513,0.48966771364212036,-0.5469462871551514,0.4901459515094757,0.08792570978403091,-0.2359682321548462,0.41476720571517944,0.5629360675811768,-0.2996426820755005,0.1734936237335205,-1.09058678150177,-0.14203211665153503,0.04825440049171448,-0.01308357436209917,-0.0612574927508831,-0.008419420570135117,-0.19809278845787048,-0.0036659238394349813,-0.14039015769958496,-0.3512309491634369,-0.00016014320135582238,0.2806459665298462,-0.11016140878200531,0.09833682328462601,-1.0678396224975586,0.2827092409133911,0.1885657161474228,-0.3952052593231201,0.9465531706809998,0.12452396005392075,0.4056849479675293,-0.3853839635848999,0.6743921637535095,0.027897126972675323,0.21345198154449463,-0.875845193862915,0.46517419815063477,0.2584674656391144,0.81928950548172,-1.0983657836914062,0.1502380073070526,-0.006027598865330219,0.23668184876441956,-0.6882501244544983,-0.02374541573226452,-0.09437473863363266,0.13417984545230865,-0.03421400114893913,-0.07255163043737411,-0.5024363398551941,0.17899663746356964,0.10176797211170197,-0.03520411252975464,-0.6867676377296448,-0.10435021668672562,0.4527240991592407,0.09577558934688568,-0.6748692989349365,0.08921954780817032,0.3267121911048889,-0.6262515187263489,0.41991665959358215,0.941480278968811,-0.3207591772079468,-0.9840110540390015,-0.8435762524604797,-0.10336998850107193,0.3904079496860504,-0.31406235694885254,0.4277263581752777,-0.4155866503715515,-0.08634142577648163,-0.08605002611875534,0.053802721202373505,0.047093674540519714,-0.9671891927719116,0.22727937996387482,0.007739840541034937,0.5666637420654297,-0.8664332032203674,0.9005703926086426,0.3971219062805176,-0.2855740487575531,0.9801160097122192,0.9138397574424744,-0.6153983473777771,-0.48753124475479126,-0.3948444724082947,0.429299920797348,-0.649832010269165,-0.3855171203613281,0.9575728178024292,-0.3135725259780884,0.49710774421691895,0.7396036982536316,-0.5416514873504639,-0.6425519585609436,0.33357512950897217,-0.320896714925766,-0.7291471362113953,-0.14436906576156616,0.2956344783306122,0.3615380823612213,-0.32435882091522217,0.13504408299922943,0.21035130321979523,0.22855515778064728,0.5079190731048584,0.2535437345504761,0.605365514755249,-0.6265807151794434,0.7038341164588928,-0.8938987851142883,0.5795907378196716,0.9357583522796631,0.15585672855377197,0.5653738379478455,0.20728003978729248,-0.2625393867492676,-0.8056255578994751,0.9895139932632446,-0.974791407585144,-0.27728068828582764,0.7411609888076782,-0.0667339563369751,0.27521082758903503,-0.3224005401134491,-0.9753634929656982,0.013402181677520275,-0.5359078645706177,0.25908684730529785,-0.33562326431274414,0.31238898634910583,0.6689035892486572,0.2439054399728775,-0.422145813703537,0.4914192855358124,-0.3303777873516083,-0.4301842451095581,0.4792151153087616,0.6347934603691101,0.2997717559337616,-0.06958705931901932,0.14149773120880127,-0.2062925100326538,-0.24347078800201416,0.28920555114746094,0.042253732681274414,0.39350616931915283,0.004440665245056152,0.49352777004241943,0.11822593212127686,0.6377851963043213,-0.5348588228225708,0.7660502195358276,0.39421236515045166,0.32208573818206787,-0.8742406368255615,-0.10361671447753906,0.9297542572021484,-0.6589181423187256,-0.6920504570007324,0.8489446640014648,0.4608731269836426,-0.22342610359191895,0.019741535186767578,0.813503623008728,-0.18622195720672607,-0.47833383083343506,0.2237088680267334,0.3687562942504883,0.3396259546279907,0.3264131546020508,-0.23938584327697754,0.03073859214782715,0.39838504791259766,0.7245340347290039,-0.7071990966796875,0.5025457143783569,-0.15538795292377472,0.9323621988296509,-0.9626433849334717,0.8447338342666626,0.38293424248695374,0.02812850847840309,0.46131280064582825,0.972690761089325,-0.004618207924067974,0.8251417875289917,0.9564666748046875,0.9561018347740173,0.426891952753067,-0.7737916111946106,-0.15034380555152893,1.0258116722106934,0.7127258777618408,0.41263023018836975,0.711002767086029,0.6882414817810059,0.9374598264694214,-0.5166172981262207,0.9984279870986938,-0.040373921394348145,-0.39620018005371094,0.7501630783081055,0.7913941144943237,0.48865386843681335,-0.6915203928947449,0.35073527693748474,1.0074540376663208,-0.15392322838306427,0.9288971424102783,-0.20152531564235687,-0.07997525483369827,-0.7186902165412903,0.3741198778152466,0.9184847474098206,-0.5504969954490662,0.3444058299064636,0.7497641444206238,-0.5218849778175354,-0.509678840637207,-0.25785207748413086,-0.428090363740921,0.07488439232110977,0.7010618448257446,-0.8119843602180481,-0.8561842441558838,-0.5853989720344543,0.3414924144744873,0.13533174991607666,0.537790060043335,0.19697535037994385,0.8708571195602417,-0.9275684356689453,0.8529093861579895,0.1181081011891365,0.17672762274742126,-0.3407977819442749,-0.13238467276096344,0.13950134813785553,0.15988658368587494,-0.15749888122081757,0.8073034286499023,1.0399121046066284,-0.15734519064426422,1.2741823196411133,0.7921960949897766,0.5638270378112793,0.583176851272583,-0.21475771069526672,-0.3426000475883484,0.06964368373155594,-0.575086236000061,-0.09748858958482742,0.5531828999519348,-0.76198410987854,-0.15840189158916473,0.9698100090026855,0.14804506301879883,0.5905861258506775,-0.5452942848205566,-0.85805743932724,-0.4893609285354614,0.9021215438842773,0.38534778356552124,-0.11485570669174194,0.8839991092681885,0.9521966576576233,0.23345990478992462,-0.7064946293830872,0.3955402374267578,-0.6084182858467102,-0.5970287919044495,-0.5556212663650513,-0.43054038286209106,0.5245804786682129,-0.21353779733181,0.013729549944400787,0.4952007234096527,0.2601521611213684,0.49131444096565247,-0.5147973895072937,-0.807690441608429,-0.6974564790725708,-0.7269086837768555,-0.9444831609725952,0.04874849319458008,-0.8610100746154785,0.6288722157478333,-0.4194112718105316,0.3691229820251465,0.6989102363586426,0.36365801095962524,-0.28129783272743225,0.5333462357521057,-0.8147353529930115,-0.016475219279527664,0.4274766743183136,-0.6817139983177185,0.47350451350212097,0.2312692254781723,-0.17619121074676514,0.29553765058517456,-0.042321301996707916,-1.1564220190048218,-0.5086649656295776,0.3310202956199646,-0.8897585868835449,-0.071958526968956,-0.4587099850177765,1.0154483318328857,0.3336569368839264,0.4383523464202881,0.7815268039703369,-0.5809255838394165,0.7188611030578613,0.8180779218673706,0.1367490291595459,0.19819071888923645,0.34638628363609314,-0.7834398150444031,1.0096899271011353,0.48655304312705994,0.0008545180317014456,1.0323816537857056,-0.30520397424697876,-0.029764937236905098,-0.343990296125412,-0.07885539531707764,0.20881842076778412,-0.08871881663799286,0.35418400168418884,-0.8487225770950317,0.29337936639785767,-0.28609469532966614,0.3683352470397949,-0.3035402297973633,1.2973185777664185,0.900579571723938,-0.3919371962547302,-0.5344485640525818,0.09640306234359741,0.6279062032699585,-0.17118112742900848,0.40255528688430786,-0.8473617434501648,0.10111739486455917,-0.8153672218322754,-1.0650043487548828,0.9140208959579468,-0.22188550233840942,0.44951099157333374,-0.19144266843795776,-0.003630643244832754,0.515580952167511,0.2132159024477005,0.29196321964263916,0.667746365070343,0.25709789991378784,-0.11425027251243591,-0.6300914287567139,-0.6271792054176331,-0.08213594555854797,0.35826829075813293,0.3466760218143463,-0.6102889180183411,0.5040574669837952,-0.14171096682548523,-0.6755207777023315,0.8995490074157715,0.36995574831962585,-0.6728253364562988,0.5506972074508667,-0.43880829215049744,-0.64898681640625,0.04869639500975609,-1.20363450050354,-1.0087015628814697,0.18317842483520508,-0.22658124566078186,0.07280954718589783,-0.16268804669380188,0.2537796199321747,-1.081220030784607,0.24963076412677765,0.5044304132461548,0.49482086300849915,-0.2872684597969055,-0.32492417097091675,0.23756632208824158,-0.23685778677463531,-0.7149537205696106,-0.8043320775032043,-0.2503489851951599,1.3861562013626099,0.4645000398159027,0.018675073981285095,0.918137788772583,0.8756865859031677,0.8865286707878113,0.9723106026649475,-0.8214308619499207,-1.11979341506958,-1.1864339113235474,-0.5943944454193115,-1.371268630027771,0.02887440100312233,-1.628153681755066,0.2498379796743393,-0.5206674933433533,-0.3145977556705475,0.4630984663963318,-0.13579155504703522,0.25355881452560425,-1.4003593921661377,-1.6441245079040527,-0.7871715426445007,-0.8675934672355652,-1.2800860404968262,0.28333383798599243,-0.9165636301040649,1.0925971269607544,0.14389264583587646,0.2251778244972229,0.21434172987937927,-0.09975511580705643,-0.9910451769828796,0.37485796213150024,-0.19021177291870117,0.2586122155189514,0.19500723481178284,-0.892184853553772,0.22298060357570648,-0.08409298211336136,0.4209745526313782,0.18086861073970795,-0.3949011564254761,0.5794537663459778,0.9971704483032227,0.6613926887512207,1.5823187828063965,-0.492642343044281,-0.43992796540260315,-1.2321529388427734,0.32042866945266724,-0.9000613689422607,-0.6137500405311584,0.04784391447901726,0.10302034020423889,0.8529027700424194,0.207521453499794,0.46980994939804077,-0.12667594850063324,0.51919025182724,0.24259965121746063,0.24077296257019043,0.7371940016746521,0.2769339382648468,0.2930355668067932,0.4797894358634949,0.35932233929634094,-0.26809072494506836,0.4988572299480438,-0.4569513499736786,0.24193385243415833,-0.24466797709465027,0.6807915568351746,0.9154586791992188,-0.5388705134391785,-1.5249693393707275,-0.4425472319126129,-1.046705961227417,-0.8420994281768799,-0.45552903413772583,-0.5685702562332153,0.08920246362686157,-0.9081694483757019,0.278257817029953,-0.19119621813297272,0.24848410487174988,0.6356804966926575,0.5151617527008057,-0.5392619371414185,-0.716022789478302,0.48897579312324524,-0.5872225761413574,0.0024804139975458384,0.4952796697616577,-0.35706934332847595,-0.6895679235458374,0.17532376945018768,0.9785706400871277,0.3983113169670105,1.1282397508621216,-0.10966814309358597,0.3881916403770447,-0.29662734270095825,-0.18392081558704376,-1.2092219591140747,-0.24496233463287354,-0.8716610670089722,-1.2153773307800293,-0.4324578046798706,-1.324347972869873,0.004939863458275795,0.4112456142902374,0.027889560908079147,-0.456699401140213,-0.21701817214488983,0.0683155208826065,0.7278383374214172,-0.8558984994888306,0.8357081413269043,-0.7838011384010315,-0.0009681404917500913,0.49887174367904663,1.1334398984909058,0.5301311016082764,0.425939679145813,0.05425287038087845,0.862424373626709,0.7187502980232239,0.24274061620235443,-1.242261290550232,-0.3352799117565155,-1.0693780183792114,-0.4925251603126526,-1.2464848756790161,0.304118812084198,-1.022357702255249,-1.2747511863708496,0.11764910072088242,-0.015596929006278515,0.3918490707874298,0.5247072577476501,0.7377475500106812,-0.7893779277801514,-0.4061298072338104,-0.5520638227462769,0.6234008073806763,-0.4669840931892395,-0.629795491695404,-0.5365976095199585,0.8184604644775391,0.3213208317756653,0.7430606484413147,1.2030059099197388,0.4719672203063965,0.40909066796302795,0.07724222540855408,0.5031535029411316,-0.5735613107681274,-0.6029561161994934,-0.452176034450531,-1.1317402124404907,-0.23775820434093475,-0.90206378698349,-1.6194651126861572,-0.040488339960575104,0.2327357977628708,1.0101072788238525,1.2373327016830444,-0.5474604368209839,-0.8872374892234802,-0.19377905130386353,0.6481626629829407,0.976473331451416,-0.7326580286026001,-0.9604445695877075,-0.8345916867256165,-0.2977197766304016,0.25025859475135803,0.1347399652004242,0.8134257197380066,-0.293533593416214,-0.2556203603744507,0.3435324728488922,-0.3518189489841461,-0.7340663075447083,0.07764320075511932,-0.16482408344745636,-0.048969417810440063,-1.0186867713928223,-0.3980942964553833,-1.534092664718628,0.2621903419494629,0.6334512233734131,0.7569403052330017,-0.3501032292842865,0.5669052004814148,0.9475422501564026,-0.7949837446212769,-0.5425114035606384,0.255860298871994,-0.7258528470993042,-0.1450663059949875,0.029164563864469528,0.05152607336640358,-0.07560529559850693,-0.01621931605041027,0.2850721776485443,0.3489695191383362,-0.3909092843532562,0.6653605103492737,-0.6593307852745056,0.34500813484191895,-0.2306133657693863,-0.3813379406929016,-0.932323694229126,-0.820310115814209,-1.603043794631958,-0.7910820841789246,0.007076472509652376,-0.21191199123859406,1.0139862298965454,-0.11834071576595306,0.6120973825454712,0.19365239143371582,-0.08907049894332886,0.03337950259447098,0.12998811900615692,-0.24817036092281342,-0.6464240550994873,-0.9327040910720825,0.9614673852920532,0.10343457013368607,-0.18776410818099976,0.6551710367202759,0.4746344983577728,0.1597057282924652,-0.8897238969802856,-0.3480212390422821,-0.1913580447435379,-0.14617450535297394,-1.1986539363861084,-0.8948124051094055,-0.5923343896865845,-0.7970559597015381,-0.8283073306083679,-0.006213117390871048,0.41006383299827576,0.513965368270874,0.029362646862864494,0.7661072611808777,0.2789442837238312,0.7540347576141357,-1.0095665454864502,-0.14000029861927032,-0.06235204264521599,0.2566230297088623,0.8912276029586792,-0.1548726111650467,-0.5628549456596375,0.24031096696853638,-0.07585212588310242,-0.43334245681762695,0.2968185245990753,0.28479722142219543,0.6766424775123596,0.37161076068878174,-0.6901010870933533,0.5176520347595215,-0.8974440097808838,-0.7093120813369751,0.3730296492576599,-0.11278294771909714,0.48815178871154785,0.016165290027856827,0.16670610010623932,0.15304097533226013,-0.5741015672683716,0.14498117566108704,0.11887753754854202,-0.26932284235954285,0.6883735060691833,0.7483994960784912,-0.2649252116680145,-0.6668047904968262,-0.8755742311477661,-0.7191072702407837,0.05363797768950462,-0.15573455393314362,0.5147331357002258,-0.7543160319328308,0.12832637131214142,-0.07315866649150848,-0.49316394329071045,0.12890516221523285,-0.136626735329628,1.1751127243041992,1.1495771408081055,-0.26934605836868286,0.44906336069107056,1.278348684310913,1.1264106035232544,1.1417089700698853,0.7171950340270996,-0.009532807394862175,0.7707115411758423,-0.5774137377738953,0.2202356457710266,0.03946419805288315,0.11198543757200241,-0.7974905371665955,-0.6982482075691223,-0.030013127252459526,0.1407184600830078,0.6764106750488281,-1.015804648399353,0.7347829937934875,-1.0509997606277466,0.9377201795578003,-0.3111656606197357,0.13635115325450897,-0.07281763851642609,0.6606664657592773,-0.060820091515779495,1.174533724784851,-0.07260845601558685,0.8831786513328552,0.756417453289032,0.024298449978232384,0.20026575028896332,0.06503089517354965,0.7976321578025818,0.7586098909378052,0.47832635045051575,0.09118494391441345,-0.020619617775082588,-0.24014785885810852,0.19261087477207184,-0.6408312916755676,-0.11245836317539215,0.28259462118148804,-0.24275635182857513,-0.9303176403045654,-0.3700995445251465,0.06933088600635529,-0.8947238326072693,-0.5183746218681335,-0.5654361248016357,0.40668439865112305,0.7433551549911499,0.49624213576316833,-0.4629422128200531,0.9467323422431946,0.4203234016895294,0.5795507431030273,1.1519540548324585,0.01635660231113434,0.8851760029792786,0.2932809591293335,0.5384535193443298,0.5793423652648926,-0.5858255624771118,0.4222875237464905,-0.7078350782394409,-0.01807808130979538,-0.37944912910461426,0.07294456660747528,0.5244660377502441,-0.146016463637352,-0.7928588390350342,0.9734102487564087,0.54149329662323,0.25138601660728455,0.17594434320926666,-0.5724866986274719,0.1501583606004715,0.5027821660041809,-1.0089755058288574,0.5552291870117188,0.05926431342959404,-0.010806327685713768,0.607988178730011,0.5692967772483826,-0.457014799118042,0.7663556337356567,-0.12402728945016861,0.40756756067276,-0.82011479139328,-0.5529595613479614,-0.41689833998680115,-0.22049883008003235,0.48206019401550293,-0.332119345664978,-0.6642264723777771,0.6864602565765381,0.5406741499900818,0.7480174899101257,0.6366804838180542,-0.9310222864151001,-0.466648131608963,-0.5498400330543518,-0.3185606002807617,0.7886422872543335,-0.8048775792121887,0.42963674664497375,-0.3198145925998688,0.4301815927028656,0.9158691763877869,0.19110658764839172,1.1193442344665527,0.3831094205379486,-0.5536062121391296,0.2308402955532074,0.28712284564971924,0.8100296854972839,0.5772650241851807,-0.7574881911277771,-0.7023751735687256,-0.4571404755115509,-0.2964722812175751,-0.24041813611984253,-0.9219937920570374,-0.2823674976825714,-0.17548759281635284,-0.11707210540771484,-0.6926720142364502,-0.25813186168670654,-0.7395334243774414,-0.4972397983074188,-0.6306968927383423,0.5537939071655273,-0.042779259383678436,0.11673527956008911,0.20892998576164246,0.20607371628284454,0.493841290473938,0.266641765832901,0.1339990496635437,0.5458709597587585,0.017514187842607498,0.5931182503700256,-0.4914846420288086,0.1256720870733261,-0.48198431730270386,-0.030604287981987,-0.3336871564388275,-0.008304229937493801,-0.18597745895385742,-0.22976692020893097,-0.03530862554907799,0.8352864980697632,-0.29287129640579224,-0.6455352306365967,0.5618900060653687,0.5477874279022217,0.40310394763946533,-0.45601513981819153,-0.9359742403030396,0.6359058618545532,-0.08339885622262955,-0.11227088421583176,-0.07052456587553024,0.18541543185710907,-1.083577036857605,-0.9487332701683044,-0.4118700921535492,0.41343197226524353,-1.080350637435913,-0.7638729810714722,0.11483452469110489,-0.28472983837127686,-1.1322401762008667,0.7739934921264648,-1.0239496231079102,-0.3992791175842285,0.7847594022750854,0.8947921395301819,-0.5613643527030945,-0.3746098577976227,0.43096330761909485,0.5137274265289307,-0.8050028085708618,0.366091251373291,0.6230677366256714,0.7459316849708557,0.29520583152770996,0.9645875096321106,-0.9085066318511963,0.7521737217903137,-0.45596611499786377,0.27691373229026794,0.39303094148635864,0.230655699968338,-0.3309372663497925,-0.4669538736343384,0.5719040632247925,-0.6715785264968872,-0.8431283235549927,-0.4317000210285187,0.661183774471283,0.5547798871994019,0.015343083068728447,-0.8567123413085938,-0.24452023208141327,-0.579539954662323,0.9323156476020813,0.22571827471256256,-0.4718947410583496,0.7940655946731567,-0.6709740161895752,0.5378350019454956,-0.7897005081176758,-0.030484557151794434,0.42361265420913696,0.8738628625869751,-0.024610262364149094,0.1704823523759842,-0.18685407936573029,-0.5897943377494812,-0.951896607875824,-0.16663652658462524,-0.23767001926898956,-0.012556635774672031,0.01622694917023182,0.2062743604183197,0.6510801911354065,0.3813762962818146,-1.0003283023834229,0.3908575773239136,-0.5762694478034973,-0.6311159133911133,-0.003972671460360289,0.8364375233650208,-0.3042447566986084,-0.028255462646484375,0.7619510889053345,0.12953925132751465,0.3519711494445801,-0.07791125774383545,0.40067100524902344,-0.8797804117202759,-0.8800543546676636,0.5322991609573364,-0.24024462699890137,-0.15990281105041504,-0.7663987874984741,0.12074744701385498,0.9977223873138428,0.7887818813323975,-0.5918125510215759,-0.6159404516220093,0.5544708371162415,0.8593488931655884,-0.8730082511901855,-0.46289193630218506,0.5047322511672974,0.6553100347518921,0.42955875396728516,0.7593145370483398,-0.6786301136016846,0.15083444118499756,0.4606313705444336,0.0395737886428833,-0.5412455797195435,0.5452990531921387,0.6621243953704834,0.5901885032653809,0.5964810848236084,0.9498946666717529,-0.37099704146385193,0.9928202033042908,-0.4237325191497803,-0.29614317417144775,-0.37947919964790344,-0.8250681757926941,-0.07071704417467117,0.8441464900970459,-0.7706738114356995,0.6273241639137268,0.06888243556022644,-0.8825517892837524,0.18509356677532196,-0.18193919956684113,-0.7048969864845276,-0.35794034600257874,-0.7046932578086853,-0.0010741320438683033,0.0018546829232946038,-0.06110082194209099,0.821623682975769,-0.14881610870361328,-0.8847271203994751,-0.21464967727661133,-0.28835439682006836,0.40922653675079346,0.3270688056945801,0.49207639694213867,0.972099244594574,0.7018910646438599,0.6639254093170166,-0.7631409168243408,0.7566157579421997,0.1472020298242569,0.6375911831855774,-0.7832789421081543,-0.1087803915143013,0.23041555285453796,-0.6307563185691833,-0.7782407402992249,0.36017224192619324,-0.5502886176109314,-0.06348876655101776,0.7700770497322083,-0.5665520429611206,0.030725229531526566,-0.7970476746559143,0.6748496890068054,-0.07888435572385788,0.9309455752372742,0.5016659498214722,0.6366846561431885,0.08919882774353027,0.9274880886077881,-0.7869167327880859,-0.5442696809768677,0.7363027930259705,-0.5591813325881958,0.7908967733383179,-0.08739468455314636,0.4875251352787018,-0.919956624507904,0.9961617588996887,0.7934891581535339,0.27270227670669556,-0.09846895188093185,-1.0228543281555176,-0.15587666630744934,0.16568432748317719,0.6781817674636841,0.6272463798522949,-0.785320520401001,0.17655470967292786,0.26293689012527466,-0.5790782570838928,-0.5641774535179138,0.6782445907592773,0.8303919434547424,-0.6815455555915833,0.7445108890533447,0.9057564735412598,0.8539819717407227,0.5315232872962952,0.08804434537887573,0.8322319984436035,0.2246955782175064,-0.06973745673894882,-0.3798488676548004,0.699368953704834,-0.9534873366355896,0.03605857491493225,-1.3139333724975586,-0.819784939289093,-0.20207583904266357,-0.4504128098487854,0.5661559700965881,1.123597502708435,0.737991988658905,0.17859125137329102,0.33305642008781433,0.8771365284919739,-0.785781979560852,-0.8531526327133179,-0.6282902956008911,0.5589224100112915,-0.8797253370285034,0.4730699360370636,-0.4281938374042511,-0.08826828002929688,0.7589905261993408,0.4330746829509735,-0.8037028908729553,-0.48662838339805603,-1.119928240776062,0.1636521816253662,-0.2202833890914917,0.4402211606502533,-0.19387072324752808,-0.13505272567272186,0.6732935905456543,0.3889870345592499,-0.5907269716262817,0.10367298871278763,-0.6726638674736023,1.3187092542648315,0.6040032505989075,1.2340035438537598,-0.16027162969112396,0.3048124313354492,0.7990867495536804,-0.3907482922077179,-0.3591781556606293,-0.8880791068077087,0.06708476692438126,0.8229652643203735,0.03528738021850586,-0.9731258153915405,0.8166073560714722,0.9460198879241943,0.34485843777656555,0.23963943123817444,-0.9669167399406433,-0.07927317917346954,0.12200894951820374,0.0841100811958313,-0.9606388211250305,0.5204381346702576,-0.7830582857131958,0.2819107472896576,0.15678630769252777,0.5957936644554138,-0.016142364591360092,0.6336079239845276,0.5923185348510742,0.8171561360359192,0.7501220703125,-0.12790532410144806,0.7582318186759949,0.1738753467798233,0.47230544686317444,0.8109934329986572,-0.346182644367218,0.6115496158599854,0.838660717010498,-0.25392770767211914,0.7928549647331238,0.5163524150848389,0.8864238858222961,-0.09544941782951355,-0.34016165137290955,0.2702617943286896,0.4836784899234772,-0.2214466631412506,0.18014830350875854,0.7306759357452393,0.30370962619781494,0.6856935620307922,0.15369541943073273,-0.18590041995048523,-0.8027142286300659,0.8835011124610901,-0.35273441672325134,-0.05354004353284836,0.6134020686149597,-0.09243670105934143,0.10959605872631073,0.8055071234703064,0.5140907168388367,0.359562486410141,-0.22040848433971405,0.05046188831329346,0.959976851940155,0.22500309348106384,-0.7355891466140747,-0.038228098303079605,-0.47471654415130615,-1.4432477951049805,-0.8501362800598145,-0.35659855604171753,-0.8401277661323547,0.6678698062896729,0.7486352920532227,0.32922008633613586,0.6760311126708984,0.3034723997116089,-0.4233977198600769,0.22997377812862396,-0.8627796769142151,0.1641884297132492,0.3332226276397705,0.37622109055519104,0.43611061573028564,0.2989250421524048,0.5854304432868958,0.6635192632675171,0.5579770803451538,1.0854027271270752,-0.18276183307170868,0.6620944142341614,-0.9385637044906616,-0.5026420950889587,0.22947727143764496,0.2392931431531906,-0.2907017171382904,0.4538862109184265,0.5838329195976257,-0.2250499278306961,-0.2742759585380554,0.34739816188812256,0.335672527551651,0.40164047479629517,-0.5610222816467285,0.3464338183403015,0.08331076800823212,-0.3557835519313812,-0.8000810146331787,-0.7760092616081238,-0.38941019773483276,0.37518078088760376,0.6079456806182861,0.19225221872329712,0.3256763517856598,0.19388608634471893,1.2250910997390747,0.363659143447876,0.9127542972564697,0.3889102637767792,0.6384707689285278,-0.14605581760406494,-0.23913660645484924,-0.7002803683280945,0.5477259755134583,0.5556803345680237,0.010424615815281868,-0.4520424008369446,0.1553715169429779,-0.5471470952033997,0.6810300350189209,0.45489874482154846,0.7055842876434326,1.1088794469833374,-0.34127503633499146,0.37869465351104736,-0.8304688930511475,0.8212375640869141,-0.5704783201217651,0.4838029146194458,-0.5800135731697083,-0.3576472997665405,0.4286934435367584,-0.4754701256752014,1.7226595878601074,0.8827195763587952,0.20476636290550232,-0.10570031404495239,0.5309881567955017,-0.22998826205730438,-0.24522975087165833,0.23278681933879852,0.7166222929954529,0.7437677383422852,-0.420417845249176,1.2507672309875488,0.10726355761289597,0.34651678800582886,-0.3105805814266205,0.3011469841003418,0.19263321161270142,0.34909990429878235,0.2459389716386795,0.4129156470298767,-0.8347358703613281,-0.9798256754875183,0.385089248418808,-0.9787640571594238,-0.19881977140903473,-0.4929477274417877,0.3904169499874115,-0.9630510210990906,0.3925674855709076,-0.02880728244781494,-0.14368978142738342,-0.19503477215766907,-0.6812156438827515,-0.5029137134552002,-0.9915311932563782,-0.04217055067420006,-0.5954417586326599,-1.0570911169052124,-0.8808718919754028,0.13615606725215912,-0.3897649347782135,0.184413880109787,-0.8795516490936279,0.027644604444503784,-0.48958685994148254,0.8712623119354248,1.292548656463623,0.14216382801532745,0.41598042845726013,-1.363028883934021,-1.0517613887786865,-0.7805235385894775,0.4690913259983063,-0.9719627499580383,-0.014478295110166073,0.3679889440536499,0.28130224347114563,-0.5367051362991333,-0.8926627039909363,-0.49827706813812256,-0.10382791608572006,0.054341111332178116,-0.9075726270675659,0.9712228775024414,0.6870884895324707,-0.39481180906295776,-0.025528311729431152,0.32221513986587524,-0.2770211100578308,0.0418875627219677,0.782878041267395,-0.4443807601928711,0.5327580571174622,0.9043246507644653,0.9117348790168762,-0.724338710308075,-0.7031490802764893,0.03407057374715805,-1.6063774824142456,-0.45659133791923523,-0.682271420955658,-0.5189298391342163,-0.9032987952232361,-0.06700431555509567,-0.14651687443256378,-0.2724277079105377,0.47200649976730347,-0.6626989245414734,0.6135470271110535,-0.24975794553756714,0.4316178262233734,-0.8633047938346863,0.3825018107891083,0.5247859954833984,0.28329676389694214,-0.8296013474464417,-0.037077780812978745,-0.3203792870044708,-0.11226439476013184,0.46804746985435486,1.4489837884902954,0.42405247688293457,-0.3714621663093567,0.2792814075946808,-0.5272887349128723,-1.3821738958358765,-0.4505460858345032,-0.9601037502288818,-1.027511715888977,-0.6843685507774353,-0.9611881971359253,0.12187684327363968,-0.2717588245868683,-0.6239562034606934,0.007986055687069893,0.022992407903075218,0.4443700313568115,-0.5472602248191833,-0.18995438516139984,-0.8729276061058044,-0.048700835555791855,0.369729608297348,-0.6166092157363892,-0.13249267637729645,-0.5930998921394348,0.26921242475509644,0.7901225686073303,-0.15930800139904022,0.9401824474334717,1.0892850160598755,-0.13296547532081604,-1.3338961601257324,-0.5317741632461548,-1.0328930616378784,-0.7276739478111267,-0.24483388662338257,-0.7371125817298889,-0.15737420320510864,-0.650976300239563,0.3338468372821808,-0.06383414566516876,0.9175576567649841,0.2662275433540344,0.8912833333015442,-0.3223840594291687,0.7623587250709534,0.8435381650924683,-0.9265975952148438,-0.43332111835479736,0.23246335983276367,0.3567589819431305,-0.0027622089255601168,-0.8695362210273743,0.6266887784004211,-0.02594435028731823,1.4702035188674927,1.002583384513855,0.35149988532066345,-0.18471278250217438,-1.0862400531768799,-0.6236633658409119,-0.5264936089515686,-0.9928041100502014,-0.610444188117981,-0.7724348902702332,0.19400979578495026,-0.5150031447410583,0.1962222009897232,0.3453621566295624,0.03922521322965622,-0.38164275884628296,0.09237174689769745,-0.37076643109321594,-0.4568777084350586,-0.7641186118125916,-0.08745697140693665,-0.6651420593261719,-0.6590520739555359,0.5425800681114197,0.30572372674942017,0.3522077798843384,0.08227372169494629,0.8158226609230042,0.11634122580289841,0.23361021280288696,0.41133546829223633,-1.2502399682998657,-1.5661706924438477,-1.0072782039642334,0.45846208930015564,-0.3175148367881775,0.814344584941864,-0.3590417504310608,-0.7622174024581909,0.02109072171151638,0.756334662437439,0.20100557804107666,1.5278536081314087,-0.3908904194831848,-0.6026560068130493,0.5810762047767639,0.8965886235237122,0.39828959107398987,-0.7963467240333557,-0.5936390161514282,1.028432846069336,0.6243731379508972,1.4998176097869873,-0.17225998640060425,0.6586578488349915,1.112945556640625,1.1722911596298218,0.7311738133430481,0.24954663217067719,-0.9939528703689575,-0.5881577730178833,-0.7624046206474304,-0.21290309727191925,0.2831745445728302,-0.18710879981517792,0.6083498001098633,0.0960269644856453,-0.0461619608104229,0.7930837273597717,0.7688254117965698,1.029128074645996,0.8842721581459045,-0.018391234800219536,0.3781859874725342,0.28190284967422485,-0.03613036125898361,-0.17851100862026215,0.35303419828414917,0.3815705478191376,0.3856627643108368,1.1362823247909546,0.6864920258522034,0.43508145213127136,1.5117748975753784,1.2136433124542236,0.5700172781944275,-0.4443293511867523,-0.1341760903596878,0.400037556886673,-0.36729565262794495,-0.14340968430042267,-0.31798598170280457,-0.2106308490037918,-0.004562051966786385,0.37745344638824463,0.14210937917232513,0.31891244649887085,0.476322203874588,0.5862084031105042,0.6288330554962158,-0.7405397295951843,-0.5380544066429138,-0.3185817003250122,0.09124616533517838,0.14627444744110107,0.22410936653614044,-0.5828217267990112,0.1295645385980606,0.35385948419570923,1.349560260772705,-0.28941091895103455,1.1628448963165283,0.363587886095047,1.6767057180404663,-0.14166761934757233,-0.19483380019664764,-0.9659914374351501,-0.4126424789428711,-0.506709635257721,0.07015429437160492,-0.7354504466056824,-0.08222143352031708,-0.5350817441940308,1.21027410030365,0.2993328273296356,0.1388321965932846,0.42511874437332153,0.04664303734898567,-0.7611494660377502,0.8664916753768921,-0.9553929567337036,0.5256379246711731,0.306566447019577,0.04451167210936546,0.4172494411468506,0.6629404425621033,1.1888014078140259,-0.08684205263853073,0.5117530226707458,-0.30430489778518677,-0.3153153657913208,0.18730999529361725,0.003799720434471965,-0.090654656291008,-0.3508577048778534,0.24739119410514832,-0.38456130027770996,0.36426976323127747,0.5383660793304443,-0.2326565533876419,-0.5364314913749695,-0.03527766466140747,0.9992362260818481,-0.169621080160141,0.33287936449050903,0.8301295638084412,0.5206798315048218,0.5752841234207153,0.15608742833137512,0.3642602562904358,0.23471349477767944,0.6955380439758301,0.8901572227478027,0.16419722139835358,-0.40105336904525757,1.0482354164123535,-0.4170389473438263,-0.11208483576774597,0.17413389682769775,1.0318852663040161,0.5848147869110107,1.1485576629638672,-0.008156964555382729,-0.2057117074728012,-0.17610439658164978,-0.5105823278427124,-0.9517672657966614,-0.23444008827209473,1.0098979473114014,0.37865278124809265,-0.5413287281990051,0.030353911221027374,0.9108627438545227,0.4931049048900604,-0.9024752974510193,-0.05907094106078148,-0.43565475940704346,-0.7701997756958008,-0.08960690349340439,-0.3358517289161682,-1.116805911064148,0.6709197759628296,-0.14581289887428284,0.380070298910141,0.05110258236527443,1.6477879285812378,0.5321958661079407,0.6346241235733032,0.26977401971817017,-0.004848902113735676,-0.03547457978129387,-0.47471970319747925,-0.08242297917604446,-0.9569730162620544,0.10331697016954422,-0.10686801373958588,-0.5442110896110535,0.6474243402481079,-0.9954131245613098,0.7810351848602295,0.2884369194507599,-0.7828367352485657,0.7151365280151367,-0.4948996305465698,-0.337888240814209,0.6852554082870483,0.520017683506012,-0.930243194103241,0.3797568380832672,-0.915208101272583,-1.1707707643508911,-0.3791196644306183,-0.591451108455658,0.14870350062847137,-0.5686336755752563,-0.22699253261089325,0.8997367024421692,-0.5830892324447632,0.1115829199552536,1.0358600616455078,-0.29388895630836487,-0.04320560395717621,0.8151133060455322,-0.848987877368927,0.48844996094703674,-0.12673823535442352,-1.028626799583435,0.4714791774749756,-0.10291489213705063,0.2942785918712616,0.7027155756950378,-0.6917566061019897,0.772024393081665,-0.5683584213256836,0.8997979164123535,-0.8957637548446655,0.7791361212730408,-0.44763076305389404,0.2467321902513504,0.40588128566741943,-1.1340672969818115,-0.6001580953598022,0.535280704498291,-0.2197127491235733,-0.3635411262512207,1.1773279905319214,0.6368996500968933,0.5784444212913513,0.21192148327827454,0.12768375873565674,-0.7940683364868164,-0.018647583201527596,-0.6560453772544861,0.5377365946769714,-0.9901489019393921,0.6413971185684204,-0.36630716919898987,0.44537341594696045,-0.5607706904411316,0.2590121030807495,-0.8268918991088867,0.5215989351272583,0.7770061492919922,0.7799575924873352,0.7841610908508301,-0.33946818113327026,0.4287450313568115,0.11550572514533997,-0.1059698835015297,0.29996469616889954,0.5444101095199585,0.11717517673969269,-0.480037659406662,-0.41527220606803894,-1.1920231580734253,0.882725179195404,0.5030260682106018,-0.318517804145813,-0.17902593314647675,-0.14685679972171783,-0.7766426801681519,-0.6251755356788635,-0.7626966834068298,0.6000072360038757,0.6890324354171753,0.022163670510053635,0.9646883010864258,-0.6865561008453369,0.49578070640563965,-0.7328809499740601,0.09205317497253418,0.41234302520751953,0.7998713254928589,0.1039060428738594,0.5678977966308594,0.10326937586069107,0.587134063243866,0.44064095616340637,0.4528861343860626,-0.7111690044403076,-0.2520919740200043,0.6182370781898499,-0.42959338426589966,0.3569177985191345,0.3869822025299072,-0.14064736664295197,0.36554819345474243,-0.9241158962249756,-0.3064589500427246,-0.47820013761520386,0.6583865880966187,0.06138439476490021,0.8211593627929688,-0.3906964063644409,0.4306744337081909,-0.5647139549255371,0.402172327041626,-0.8231003284454346,-0.26958489418029785,-0.203843355178833,-0.05389726161956787,0.5109356641769409,0.3244612216949463,0.10761666297912598,0.03310883045196533,0.7619831562042236,0.4467642307281494,0.2292393445968628,0.00657393503934145,-0.08937014639377594,0.6544076800346375,0.09465625882148743,0.17955124378204346,0.11388623714447021,0.6758546829223633,0.7122747898101807,-0.58740234375,-0.7078133821487427,-0.3002736568450928,-0.6064915657043457,0.7288297414779663,-0.8725453615188599,0.9941017627716064,0.49462854862213135,-0.16345810890197754,-0.014026522636413574,0.23720121383666992,0.15655982494354248,0.11456062644720078,-0.9573183655738831,0.32050052285194397,-0.4310206472873688,0.4928286671638489,0.9532079100608826,-0.543140172958374,-0.5994816422462463,-0.612369179725647,0.7918763160705566,0.11358311027288437,0.11441643536090851,-0.7274196147918701,-0.4556729197502136,0.1743636280298233,0.9925763010978699,0.09267672151327133,-0.5371184349060059,-0.47982078790664673,0.15471206605434418,0.8199442625045776,-0.17118752002716064,-0.45228588581085205,0.6415040493011475,0.6341410875320435,-0.5067368745803833,0.69078528881073,0.696138322353363,0.10098864883184433,0.5829643607139587,0.6195068955421448,-0.49916282296180725,0.4680234491825104,-0.210333913564682,0.13140425086021423,0.6425379514694214,-0.18487334251403809,-0.21892501413822174,-0.4191485047340393,-0.29976335167884827,0.7895446419715881,-0.5135536193847656,1.007562518119812,-0.7098477482795715,0.5677226185798645,-0.6133931279182434,-0.9291439056396484,-0.3721490204334259,-0.9832037687301636,-0.15981259942054749,0.2533365488052368,0.07673418521881104,0.3751624822616577,0.08177244663238525,-0.9908676743507385,0.7515108585357666,0.7398245930671692,0.5950681567192078,0.08059987425804138,0.3196668028831482,-0.6135115623474121,0.15939116477966309,0.8384925127029419,0.005514456424862146,1.0867398977279663,0.8551245927810669,0.9991031289100647,-0.6145728826522827,1.419109582901001,1.1191809177398682,0.20156435668468475,0.7324832677841187,1.2255463600158691,-0.24759119749069214,0.8189237713813782,1.0038985013961792,0.7535163760185242,-0.020382970571517944,-0.5774245262145996,0.17931711673736572,-0.7883799076080322,-0.48342442512512207,-0.6055272221565247,-0.20485660433769226,0.051733747124671936,0.10503294318914413,-0.4454975426197052,0.3523872494697571,0.6287213563919067,0.07097940146923065,0.6526408791542053,-0.029755208641290665,0.1804070919752121,0.9680715203285217,0.5158170461654663,-1.172796368598938,-0.26846349239349365,0.3169828951358795,-0.5153456926345825,-0.8706616759300232,-0.7533807754516602,-0.24128662049770355,-0.15359379351139069,0.9671741724014282,0.33879658579826355,-0.452126145362854,0.5524548292160034,0.4464320242404938,-0.7506660223007202,0.12868714332580566,0.6819363832473755,-0.1680368334054947,0.1637977808713913,0.8739339709281921,0.19486679136753082,0.051110390573740005,0.31064358353614807,0.3956156373023987,0.26636114716529846,-0.27489417791366577,-0.8377336263656616,0.09479428827762604,0.5276880860328674,0.4871961176395416,-0.14314906299114227,1.3755027055740356,0.2755049169063568,1.1218640804290771,0.4122256338596344,-0.5649762153625488,-0.4845260679721832,0.05580493062734604,-0.730634331703186,0.24342457950115204,-0.843843936920166,0.15787634253501892,0.3066061735153198,-0.26249998807907104,0.27569884061813354,0.9485970735549927,-0.5920199155807495,-0.36485713720321655,-0.22987689077854156,-0.4635107219219208,-0.09459272772073746,0.060618214309215546,0.5339306592941284,-0.6896024942398071,-0.10224538296461105,0.36496153473854065,0.21823349595069885,0.23980237543582916,-0.381495863199234,-0.5683963298797607,0.4481383264064789,-0.6323553323745728,0.1081334799528122,-0.17699185013771057,0.11197054386138916,-0.9131852984428406,-0.7479004263877869,-0.2226320207118988,-0.04618128761649132,0.7726151347160339,0.8833581805229187,0.034815095365047455,-0.0014624552568420768,0.40358075499534607,-0.6062692403793335,-0.11825324594974518,-0.44714078307151794,-0.033882055431604385,-1.0966254472732544,-0.8199850916862488,-1.0294216871261597,0.6964247226715088,-0.7104585766792297,0.11592400074005127,0.09136262536048889,0.01459132693707943,-0.23145350813865662,0.8797118663787842,0.6311845183372498,-0.31208038330078125,-0.7940352559089661,-0.22482922673225403,0.6893132925033569,-1.0278457403182983,-0.47207993268966675,-0.30839717388153076,-0.3917079269886017,-0.1826859563589096,0.8847960829734802,0.7028447389602661,0.35559120774269104,0.17058265209197998,-0.40785083174705505,1.1175415515899658,-0.8336352705955505,-0.35974663496017456,0.1736341267824173,-0.4045693278312683,0.6424956917762756,0.207241490483284,-0.6504337191581726,0.060187216848134995,-0.03283676877617836,0.23519739508628845,-0.019712109118700027,-0.7386705875396729,-0.273514062166214,0.012775277718901634,-0.6761656999588013,0.12093409895896912,-0.6836069822311401,-0.9100117683410645,-1.0797654390335083,-0.6604934930801392,-0.2263663113117218,0.8392660021781921,-0.9484856128692627,-0.27909091114997864,-0.5853562951087952,-0.5744958519935608,0.21679458022117615,0.4714694917201996,0.12821288406848907,-0.3799106180667877,-0.551008939743042,-0.18514710664749146,-0.3467039167881012,-0.25579556822776794,-0.2927691638469696,-0.16440099477767944,-0.24383008480072021,0.9307060837745667,-0.04282841086387634,0.21933628618717194,-0.5590713024139404,-0.6821407079696655,0.23641031980514526,-0.24070928990840912,-1.067873239517212,-0.33983469009399414,-0.7274933457374573,-0.4528573155403137,-0.13143472373485565,-0.40287598967552185,0.5523871779441833,-0.11384715139865875,-0.9020479321479797,-0.639558732509613,-0.7940304279327393,0.37639671564102173,-1.3761931657791138,-0.05467374995350838,-1.1073237657546997,-0.30696946382522583,-0.9350642561912537,-0.17237606644630432,-0.5650520920753479,-0.4069643020629883,0.34902140498161316,0.0660051628947258,0.2561919093132019,-0.3140796422958374,-0.14996054768562317,0.14127005636692047,-0.25495103001594543,-0.7796927690505981,0.15311965346336365,0.10516192018985748,-1.5044909715652466,-0.21190974116325378,0.19381694495677948,0.15514545142650604,0.21826982498168945,-0.058347612619400024,-0.01712302677333355,-0.8152427673339844,-1.1333744525909424,-0.651745080947876,-1.2425755262374878,-0.6407142281532288,-0.8142672181129456,-0.4073243737220764,-0.9912354946136475,-1.0416991710662842,-0.8222049474716187,-0.8074439764022827,-0.9445563554763794,-0.1750033050775528,-0.6293838620185852,0.4028247892856598,-0.5802056789398193,-0.6780593991279602,-0.7224401831626892,-0.0498894639313221,-0.77371746301651,0.42355403304100037,0.4391292631626129,0.10075259208679199,-0.9769187569618225,-0.13725395500659943,0.14375579357147217,-0.5748347043991089,-0.6334758400917053,0.739991307258606,0.8247740864753723,0.6243730187416077,-0.10930460691452026,-0.2659894824028015,-0.010420011356472969,-1.160170316696167,0.17080070078372955,-0.19213086366653442,0.2532886266708374,-1.4241037368774414,-1.4417126178741455,-0.3473898768424988,0.16307125985622406,-0.9814027547836304,0.13494400680065155,0.6328526139259338,0.06641878187656403,0.16824491322040558,-0.6639289855957031,0.5562031269073486,-0.5711370706558228,0.2551780641078949,-1.0611697435379028,-0.56181401014328,0.688639223575592,0.0999796986579895,0.693716287612915,0.6564270853996277,-0.19335214793682098,0.3826363980770111,-0.13235685229301453,-1.5088810920715332,-0.24756793677806854,-0.7422098517417908,1.0251458883285522,-0.8898991942405701,0.01719088666141033,-1.347028136253357,-1.16611909866333,-0.7998249530792236,-0.8944318890571594,0.27379706501960754,-0.5823804140090942,-0.16402655839920044,-0.5014787316322327,0.3448997735977173,-0.16743625700473785,0.5730663537979126,1.3172489404678345,-0.5702824592590332,0.36486563086509705,-0.4638952612876892,0.36896079778671265,0.8192532658576965,-0.2050963044166565,0.015460358001291752,-0.059906281530857086,-1.0976002216339111,-0.9112012386322021,-0.1602427363395691,0.5189964771270752,-0.43569880723953247,-0.8331888914108276,-0.042753301560878754,0.3113759160041809,-0.6743127703666687,-1.120463490486145,-0.5335244536399841,-0.40832868218421936,-0.8578012585639954,-0.14775198698043823,-0.08978090435266495,0.5472222566604614,0.46852976083755493,0.23866192996501923,0.6204171180725098,-0.028071392327547073,0.35764622688293457,0.6352803707122803,-0.30629146099090576,-0.939489483833313,0.7611599564552307,0.8720726370811462,0.7819147109985352,-0.15938018262386322,1.3662054538726807,1.451208472251892,0.18441632390022278,-0.40436944365501404,0.1860690712928772,0.3616807162761688,-0.33322733640670776,-0.7137758731842041,-0.4924237132072449,0.03747696429491043,-0.8596556782722473,-0.3763078451156616,-0.6335471272468567,0.3274797201156616,0.07618557661771774,-0.47001951932907104,1.207301378250122,-0.09303750842809677,0.5719364881515503,0.1538199633359909,1.1146109104156494,-0.03899194300174713,-0.006489865016192198,-0.26118871569633484,0.8398019671440125,-0.32967355847358704,-0.12588264048099518,0.2775011956691742,0.2931840121746063,0.1464243084192276,0.60233074426651,0.6988160610198975,-0.5027432441711426,0.7680002450942993,-0.12897944450378418,-0.38148069381713867,-0.11561641097068787,-0.08499765396118164,0.2151971161365509,-1.331520438194275,0.3387325704097748,-0.669501543045044,0.8660838603973389,1.4323599338531494,-0.29934269189834595,0.32225707173347473,0.8948202133178711,0.927386462688446,0.7413188219070435,0.9156718254089355,0.2655111253261566,0.30824005603790283,-0.011870874091982841,0.8407263159751892,0.8713988065719604,1.1279741525650024,0.28040945529937744,1.4827079772949219,0.27131742238998413,-0.26477599143981934,0.2089090794324875,1.191739797592163,0.3306150734424591,-0.6424996256828308,-0.7086276412010193,-1.2392058372497559,-0.11279021203517914,-0.40201035141944885,0.4963294565677643,1.0145437717437744,0.22842583060264587,0.9386532306671143,0.37673163414001465,0.4909224212169647,-0.4569799304008484,0.655517041683197,-0.3277372121810913,-0.5579719543457031,-0.835594654083252,-0.5011950135231018,0.08498556911945343,-0.971889853477478,-0.30782628059387207,1.0036941766738892,1.4765814542770386,0.11121182143688202,1.0823415517807007,0.13067717850208282,-0.1270616501569748,0.5973250865936279,1.3490042686462402,1.0216714143753052,-0.3876097500324249,0.8997111916542053,0.8901962637901306,0.7846139073371887,0.6790064573287964,0.6054159998893738,0.625386118888855,-0.5835973620414734,0.9881231188774109,0.42915454506874084,0.8773770332336426,0.957329273223877,0.3873243033885956,-0.7817912697792053,0.3421965539455414,0.8335905075073242,-0.40261656045913696,-0.9638445377349854,1.0096983909606934,1.194370150566101,0.29890012741088867,0.7314330339431763,0.3497120440006256,0.9711206555366516,0.9295238256454468,0.3813098073005676,0.9464353322982788,1.140488624572754,1.1170744895935059,0.34310656785964966,0.558996856212616,0.2667025327682495,0.5596870183944702,0.8235199451446533,-0.5040972232818604,0.752375066280365,0.13581028580665588,1.100888729095459,1.1998870372772217,0.9064909219741821,0.48540428280830383,-0.9454770684242249,-0.1738152801990509,0.21367192268371582,-0.7067933082580566,0.8370465636253357,-0.5233895778656006,-0.533660352230072,0.35829809308052063,0.927919864654541,-0.09826089441776276,1.3890883922576904,0.340116411447525,1.3084375858306885,0.35550689697265625,0.059798408299684525,1.2185697555541992,0.5196681022644043,0.49003031849861145,0.3246777057647705,0.39607131481170654,0.6952128410339355,0.7945168018341064,1.5495868921279907,-0.13327808678150177,-0.259329617023468,1.1085423231124878,-0.45721307396888733,0.08700992166996002,-0.18936167657375336,0.9718539118766785,0.020063752308487892,-0.4384712874889374,0.2596932351589203,-0.709489107131958,1.0615954399108887,0.5099008679389954,-0.03891647607088089,-0.1480167657136917,0.48289328813552856,-0.2002345770597458,0.5651225447654724,0.28440916538238525,0.46652939915657043,0.1281713843345642,0.49422889947891235,0.43313512206077576,1.1321386098861694,-0.01347977016121149,0.4263201951980591,1.0470012426376343,-0.14046943187713623,0.9197233319282532,0.9942421913146973,1.2950608730316162,0.20597991347312927,0.08713743090629578,0.9683694839477539,0.5702826380729675,0.1373325139284134,0.25025850534439087,0.7600828409194946,-0.4099156856536865,-0.2325780838727951,-0.36322471499443054,0.09683398902416229,0.33032017946243286,-0.7601359486579895,0.2677362859249115,0.5973337292671204,0.31596097350120544,0.6564822196960449,-0.8567686676979065,0.6409245133399963,-0.5441538691520691,-0.13009805977344513,1.1716177463531494,0.5935165286064148,0.27243542671203613,1.2880066633224487,0.10077138990163803,0.6691856384277344,0.7718455195426941,-0.13583539426326752,-0.2315320074558258,-0.5218672752380371,-0.30095067620277405,0.8569746017456055,-0.8242365121841431,-0.09628725796937943,-0.31818926334381104,0.732977569103241,0.10161237418651581,0.8674075603485107,0.5186966061592102,0.39496830105781555,-0.32671064138412476,0.27030009031295776,-0.42437943816185,0.594653844833374,-0.5736792087554932,-0.6475231051445007,0.1996014267206192,-0.6356557607650757,-0.928582489490509,-0.8583666682243347,-0.3038804233074188,-0.8732432126998901,-0.3611434996128082,1.075833797454834,0.7933193445205688,0.7873603701591492,-0.42706921696662903,-0.9623813033103943,0.654192328453064,-0.7263622283935547,0.009302616119384766,-0.10072745382785797,-0.6476658582687378,-0.7230403423309326,0.2056933343410492,-1.3989262580871582,-0.2671625316143036,0.3275012969970703,-0.10580238699913025,-0.6097330451011658,-0.2054201066493988,0.34389999508857727,-0.6824455261230469,-0.7438112497329712,-0.7994164228439331,-0.5256294012069702,-0.11387579143047333,-0.03911403566598892,0.24898162484169006,-0.22339347004890442,-0.9975838661193848,-0.4301518201828003,-0.2583308219909668,0.9351627826690674,-0.3085641860961914,0.1819804459810257,-0.9468926191329956,-0.4906541109085083,-0.05521547794342041,0.14807254076004028,-0.5762460827827454,-0.8450188636779785,0.6363633275032043,0.23024983704090118,-0.23431424796581268,-0.5545660853385925,-0.5959022641181946,-0.9828839898109436,-0.990088164806366,-0.1433749794960022,-0.4565201997756958,-0.9553766846656799,-0.22131624817848206,-1.1287442445755005,0.28316840529441833,0.19637981057167053,0.829362154006958,0.5339952707290649,0.4919971227645874,0.4378891885280609,-0.3337935209274292,-0.37148553133010864,-0.48299670219421387,0.9443482756614685,-0.23867297172546387,-0.5094658136367798,-0.47664380073547363,0.3825441598892212,-0.58310467004776,0.13427625596523285,-0.17099426686763763,0.20595316588878632,0.10842806845903397,-0.3198317885398865,-0.1819106787443161,-0.890841543674469,0.7450065016746521,-1.052802324295044,-0.6991423964500427,-0.9798728823661804,-0.7544426918029785,-0.7922592163085938,-0.8573732972145081,-0.8972436785697937,-0.8562087416648865,0.8712853789329529,0.4512201249599457,0.28670167922973633,0.885281503200531,0.06580054759979248,0.18528099358081818,-0.6203399896621704,0.1679147481918335,0.5681809186935425,-0.42811596393585205,-0.23895061016082764,0.06057417392730713,-0.443663626909256,-0.33714184165000916,-0.9738044738769531,0.6887698769569397,0.31279197335243225,0.5890724658966064,0.5545552372932434,0.7839483618736267,-0.13882502913475037,0.8934223651885986,0.13133607804775238,-0.9674501419067383,0.46841856837272644,0.8509548902511597,-0.42110297083854675,0.619856059551239,0.6681850552558899,-0.20843446254730225,0.43395817279815674,0.26567161083221436,-0.6671977043151855,-0.7554062604904175,0.05876302719116211,-0.6307164430618286,-0.5700783729553223,-0.5482562780380249,-0.5652141571044922,0.41841912269592285,0.33459794521331787,0.8544051647186279,-0.49782752990722656,0.6574597358703613,0.8078982830047607,0.6579198837280273,0.6183328628540039,0.8730487823486328,-0.1121949777007103,-0.5383105278015137,-0.007118835113942623,0.2175617516040802,0.9168275594711304,0.7764281034469604,0.9291797876358032,0.23597025871276855,-0.13679492473602295,-0.6650992631912231,0.2916080951690674,0.1461963653564453,0.8941596746444702,0.583105206489563,-0.5061218738555908,-0.6044795513153076,0.5538157224655151,0.2513545751571655,-0.4114917516708374,0.026753664016723633,0.15136750042438507,-0.1841205358505249,-0.3381657302379608,-0.4759078621864319,0.2644895613193512,0.5544464588165283,-0.28104734420776367,-0.5416532158851624,-0.7429688572883606,-0.8581509590148926,-0.2794761061668396,-0.45426443219184875,-0.7527571320533752,0.5173934698104858,-0.34501251578330994,0.11565637588500977,0.12646906077861786,0.479543536901474,-0.8288487792015076,0.8049368262290955,-0.7844952344894409,-0.4187740087509155,-0.7871805429458618,-0.7361599206924438,0.2367708683013916,-0.2905968427658081,0.17547567188739777,-0.7440767288208008,-0.5974578857421875,0.242256760597229,-0.19585442543029785,-0.40229514241218567,0.5639144778251648,0.1888655126094818,0.8834691047668457,-0.7115626931190491,-0.44021376967430115,1.0264073610305786,-0.1987527757883072,-0.2407495379447937,0.1272885799407959,-0.024535121396183968,-0.32221999764442444,-0.4129143953323364,1.0751843452453613,0.6645311713218689,-0.2909865081310272,0.9000909328460693,0.42894187569618225,-0.7753506302833557,0.2607375383377075,-0.775623083114624,-0.5299930572509766,0.5246468782424927,0.5823923349380493,-0.25864937901496887,-0.7521107196807861,0.22899062931537628,0.5449517369270325,0.711517870426178,-0.7687755227088928,-0.7878307104110718,-0.6407987475395203,-0.8567519783973694,-0.10451198369264603,-0.5337992310523987,0.15500591695308685,0.3321067988872528,-0.045242056250572205,0.00940793938934803,0.15448442101478577,0.6162669062614441,-0.08577366173267365,0.77433180809021,0.7524794340133667,-0.000812250014860183,0.7939699292182922,0.7670866250991821,0.935665488243103,-0.9293007850646973,0.5999287366867065,-0.5253946781158447,-0.5284963250160217,0.49565041065216064,0.6870852708816528,-0.28257089853286743,-0.3848632276058197,0.3276984691619873,-0.5121959447860718,-0.17483821511268616,-0.7150946855545044,0.03452049195766449,-0.7608153223991394,-0.08752714842557907,-0.5825145244598389,-0.8681749105453491,-0.011226125992834568,0.35278502106666565,-0.4919126629829407,0.9525464773178101,0.4027203619480133,-0.3723050653934479,-0.19347424805164337,-0.03580858185887337,-0.7166969180107117,-0.38923782110214233,-0.5759435296058655,-0.21087758243083954,-0.7770367860794067,0.18604612350463867,0.6401692628860474,0.3421236276626587,0.4146205186843872,-0.6811361908912659,0.36147579550743103,0.07013776898384094,-0.9395288228988647,-0.8471099734306335,0.02416260913014412,-0.303530752658844,-0.846248984336853,-1.1066416501998901,-0.3356577455997467,-0.3757050931453705,0.18041269481182098,0.10780532658100128,0.4751003682613373,0.837638795375824,0.5916725397109985,0.7682783007621765,0.4622313678264618,0.454999715089798,-0.043506331741809845,-0.25991618633270264,0.7222158908843994,0.9855263233184814,-0.38098669052124023,-0.009554176591336727,0.659966766834259,-0.1820826530456543,0.146803617477417,-0.3087562918663025,-0.20764045417308807,-0.09649991244077682,0.38025638461112976,0.29299601912498474,-0.2610257565975189,-0.692520022392273,-0.6544360518455505,-1.2584166526794434,-0.6004253625869751,-0.27784377336502075,-0.26159828901290894,-0.3288739025592804,-0.15846188366413116,-0.11358114331960678,-0.2929750978946686,0.25707781314849854,0.9141608476638794,0.2661326229572296,-0.2017873227596283,0.295693963766098,-0.04924658313393593,0.23042497038841248,-0.4222569465637207,0.9181721806526184,-0.5305159687995911,0.10579400509595871,-0.33511942625045776,0.0045442585833370686,0.9363517165184021,0.6019833087921143,0.3815254271030426,0.5190215110778809,0.7718045711517334,0.8708329200744629,-0.09449291229248047,0.5899661779403687,-0.35648059844970703,-0.7052433490753174,-1.220827341079712,-0.02946724370121956,-0.25477153062820435,-0.442805677652359,-0.6407985687255859,-0.2220633327960968,-0.1455739140510559,-0.3579922318458557,0.924048900604248,0.8877472281455994,0.11538846790790558,-0.6727304458618164,-0.683329164981842,0.5197925567626953,0.18976746499538422,-0.26214370131492615,0.484951913356781,-0.44566160440444946,-0.2680477499961853,0.8807730078697205,1.1060069799423218,-0.1416737139225006,0.826095461845398,1.4646841287612915,0.5938588380813599,0.1034943088889122,-0.8765631914138794,-0.2054598331451416,-1.3694607019424438,-0.6884181499481201,-1.2999112606048584,-0.9840401411056519,-0.33773308992385864,-1.6578965187072754,-0.5723921656608582,-0.47305789589881897,0.5943063497543335,-0.7288016676902771,-0.0514654666185379,-0.6834601163864136,-0.45597392320632935,-0.4658336043357849,-0.05132346227765083,0.11384851485490799,0.14070358872413635,-0.5350035429000854,1.0680603981018066,-0.24598301947116852,-0.16869787871837616,0.9751392006874084,0.15273192524909973,0.3404453694820404,1.0712984800338745,-0.17746283113956451,-0.30489256978034973,-0.8238402009010315,-1.7914551496505737,-1.4190096855163574,-1.2078678607940674,-0.8338966369628906,-0.4538098871707916,-0.5409713983535767,-1.2680944204330444,-1.2824970483779907,-1.0188775062561035,0.525952160358429,0.46575498580932617,-0.21517413854599,-0.2319137454032898,-0.5771394371986389,0.739051342010498,-0.12437697499990463,-0.40819644927978516,0.05239250883460045,0.8193597197532654,0.9427717328071594,1.1360548734664917,0.6103992462158203,0.5402535796165466,-0.44958239793777466,1.013176441192627,0.5135224461555481,1.0576695203781128,-0.5578432083129883,-0.3013733923435211,-0.1623651087284088,-0.476052850484848,-0.2132464200258255,-0.4296986758708954,-1.1260472536087036,-0.24530433118343353,-1.5305849313735962,-0.3790785074234009,-0.03488437086343765,0.6568458676338196,0.8020371794700623,0.6282646059989929,-0.2570250332355499,-0.7883557677268982,0.8811171650886536,0.12336398661136627,1.1787662506103516,-0.31351420283317566,0.6223745346069336,-0.4135070741176605,0.5743833184242249,-0.21331122517585754,